FANN_FLO_2.1
num_layers=4
learning_rate=0.700000
connection_rate=1.000000
network_type=0
learning_momentum=0.000000
training_algorithm=2
train_error_function=1
train_stop_function=0
cascade_output_change_fraction=0.010000
quickprop_decay=-0.000100
quickprop_mu=1.750000
rprop_increase_factor=1.200000
rprop_decrease_factor=0.500000
rprop_delta_min=0.000000
rprop_delta_max=50.000000
rprop_delta_zero=0.100000
cascade_output_stagnation_epochs=12
cascade_candidate_change_fraction=0.010000
cascade_candidate_stagnation_epochs=12
cascade_max_out_epochs=150
cascade_min_out_epochs=50
cascade_max_cand_epochs=150
cascade_min_cand_epochs=50
cascade_num_candidate_groups=2
bit_fail_limit=3.49999994039535522461e-01
cascade_candidate_limit=1.00000000000000000000e+03
cascade_weight_multiplier=4.00000005960464477539e-01
cascade_activation_functions_count=10
cascade_activation_functions=3 5 7 8 10 11 14 15 16 17 
cascade_activation_steepnesses_count=4
cascade_activation_steepnesses=2.50000000000000000000e-01 5.00000000000000000000e-01 7.50000000000000000000e-01 1.00000000000000000000e+00 
layer_sizes=30 59 13 7 
scale_included=0
neurons (num_inputs, activation_function, activation_steepness)=(0, 0, 0.00000000000000000000e+00) (0, 0, 0.00000000000000000000e+00) (0, 0, 0.00000000000000000000e+00) (0, 0, 0.00000000000000000000e+00) (0, 0, 0.00000000000000000000e+00) (0, 0, 0.00000000000000000000e+00) (0, 0, 0.00000000000000000000e+00) (0, 0, 0.00000000000000000000e+00) (0, 0, 0.00000000000000000000e+00) (0, 0, 0.00000000000000000000e+00) (0, 0, 0.00000000000000000000e+00) (0, 0, 0.00000000000000000000e+00) (0, 0, 0.00000000000000000000e+00) (0, 0, 0.00000000000000000000e+00) (0, 0, 0.00000000000000000000e+00) (0, 0, 0.00000000000000000000e+00) (0, 0, 0.00000000000000000000e+00) (0, 0, 0.00000000000000000000e+00) (0, 0, 0.00000000000000000000e+00) (0, 0, 0.00000000000000000000e+00) (0, 0, 0.00000000000000000000e+00) (0, 0, 0.00000000000000000000e+00) (0, 0, 0.00000000000000000000e+00) (0, 0, 0.00000000000000000000e+00) (0, 0, 0.00000000000000000000e+00) (0, 0, 0.00000000000000000000e+00) (0, 0, 0.00000000000000000000e+00) (0, 0, 0.00000000000000000000e+00) (0, 0, 0.00000000000000000000e+00) (0, 0, 0.00000000000000000000e+00) (30, 4, 5.00000000000000000000e-01) (30, 4, 5.00000000000000000000e-01) (30, 4, 5.00000000000000000000e-01) (30, 4, 5.00000000000000000000e-01) (30, 4, 5.00000000000000000000e-01) (30, 4, 5.00000000000000000000e-01) (30, 4, 5.00000000000000000000e-01) (30, 4, 5.00000000000000000000e-01) (30, 4, 5.00000000000000000000e-01) (30, 4, 5.00000000000000000000e-01) (30, 4, 5.00000000000000000000e-01) (30, 4, 5.00000000000000000000e-01) (30, 4, 5.00000000000000000000e-01) (30, 4, 5.00000000000000000000e-01) (30, 4, 5.00000000000000000000e-01) (30, 4, 5.00000000000000000000e-01) (30, 4, 5.00000000000000000000e-01) (30, 4, 5.00000000000000000000e-01) (30, 4, 5.00000000000000000000e-01) (30, 4, 5.00000000000000000000e-01) (30, 4, 5.00000000000000000000e-01) (30, 4, 5.00000000000000000000e-01) (30, 4, 5.00000000000000000000e-01) (30, 4, 5.00000000000000000000e-01) (30, 4, 5.00000000000000000000e-01) (30, 4, 5.00000000000000000000e-01) (30, 4, 5.00000000000000000000e-01) (30, 4, 5.00000000000000000000e-01) (30, 4, 5.00000000000000000000e-01) (30, 4, 5.00000000000000000000e-01) (30, 4, 5.00000000000000000000e-01) (30, 4, 5.00000000000000000000e-01) (30, 4, 5.00000000000000000000e-01) (30, 4, 5.00000000000000000000e-01) (30, 4, 5.00000000000000000000e-01) (30, 4, 5.00000000000000000000e-01) (30, 4, 5.00000000000000000000e-01) (30, 4, 5.00000000000000000000e-01) (30, 4, 5.00000000000000000000e-01) (30, 4, 5.00000000000000000000e-01) (30, 4, 5.00000000000000000000e-01) (30, 4, 5.00000000000000000000e-01) (30, 4, 5.00000000000000000000e-01) (30, 4, 5.00000000000000000000e-01) (30, 4, 5.00000000000000000000e-01) (30, 4, 5.00000000000000000000e-01) (30, 4, 5.00000000000000000000e-01) (30, 4, 5.00000000000000000000e-01) (30, 4, 5.00000000000000000000e-01) (30, 4, 5.00000000000000000000e-01) (30, 4, 5.00000000000000000000e-01) (30, 4, 5.00000000000000000000e-01) (30, 4, 5.00000000000000000000e-01) (30, 4, 5.00000000000000000000e-01) (30, 4, 5.00000000000000000000e-01) (30, 4, 5.00000000000000000000e-01) (30, 4, 5.00000000000000000000e-01) (30, 4, 5.00000000000000000000e-01) (0, 0, 0.00000000000000000000e+00) (59, 4, 5.00000000000000000000e-01) (59, 4, 5.00000000000000000000e-01) (59, 4, 5.00000000000000000000e-01) (59, 4, 5.00000000000000000000e-01) (59, 4, 5.00000000000000000000e-01) (59, 4, 5.00000000000000000000e-01) (59, 4, 5.00000000000000000000e-01) (59, 4, 5.00000000000000000000e-01) (59, 4, 5.00000000000000000000e-01) (59, 4, 5.00000000000000000000e-01) (59, 4, 5.00000000000000000000e-01) (59, 4, 5.00000000000000000000e-01) (0, 0, 0.00000000000000000000e+00) (13, 4, 5.00000000000000000000e-01) (13, 4, 5.00000000000000000000e-01) (13, 4, 5.00000000000000000000e-01) (13, 4, 5.00000000000000000000e-01) (13, 4, 5.00000000000000000000e-01) (13, 4, 5.00000000000000000000e-01) (0, 0, 0.00000000000000000000e+00) 
connections (connected_to_neuron, weight)=(0, -1.78688781250000000000e+05) (1, -2.28084718750000000000e+05) (2, -2.94260093750000000000e+05) (3, -3.09376156250000000000e+05) (4, -1.04452585937500000000e+05) (5, -1.35628312500000000000e+05) (6, -2.89048294400000000000e+09) (7, -4.72810000000000000000e+06) (8, -3.06585136718750000000e+04) (9, -3.30660585937500000000e+04) (10, 3.02572265625000000000e+04) (11, -1.29823476562500000000e+04) (12, -4.19168984375000000000e+04) (13, -3.72615859375000000000e+04) (14, -3.74388710937500000000e+04) (15, -3.70573164062500000000e+04) (16, -3.88102500000000000000e+04) (17, -4.04339335937500000000e+04) (18, -1.49291792000000000000e+08) (19, -1.08139130000000000000e+07) (20, -3.78095859375000000000e+04) (21, -3.65415234375000000000e+04) (22, -2.56217656250000000000e+04) (23, -1.35862900390625000000e+04) (24, -1.45280947265625000000e+04) (25, -1.34105058593750000000e+04) (26, -3.30831406250000000000e+04) (27, -2.85508164062500000000e+04) (28, 9.17768560000000000000e+07) (29, -2.72850683593750000000e+04) (0, 5.43914147840000000000e+10) (1, 5.55998371840000000000e+10) (2, 5.76329113600000000000e+10) (3, 5.85614786560000000000e+10) (4, 5.20450621440000000000e+10) (5, 5.31940106240000000000e+10) (6, 8.46117113692160000000e+13) (7, 2.57726644224000000000e+11) (8, 4.87435837440000000000e+10) (9, 4.84069253120000000000e+10) (10, 1.38032302080000000000e+10) (11, 4.23431249920000000000e+10) (12, 4.93413212160000000000e+10) (13, 2.97726423040000000000e+10) (14, 4.91924357120000000000e+10) (15, 4.91430993920000000000e+10) (16, 4.92375818240000000000e+10) (17, 4.92639109120000000000e+10) (18, 4.73906230067200000000e+12) (19, 7.34766235648000000000e+11) (20, 4.47721267200000000000e+10) (21, 4.49550172160000000000e+10) (22, 2.88815042560000000000e+10) (23, 2.55004487680000000000e+10) (24, 2.43540684800000000000e+10) (25, 2.43714805760000000000e+10) (26, 4.41668485120000000000e+10) (27, 3.82751088640000000000e+10) (28, -6.42658336768000000000e+12) (29, 4.87316398080000000000e+10) (0, -3.91089335937500000000e+04) (1, -4.96968164062500000000e+04) (2, -6.40873437500000000000e+04) (3, -6.73838203125000000000e+04) (4, -2.30406738281250000000e+04) (5, -2.97835800781250000000e+04) (6, -6.24196864000000000000e+08) (7, -1.02284075000000000000e+06) (8, -7.08022705078125000000e+03) (9, -7.59603027343750000000e+03) (10, 6.35454003906250000000e+03) (11, -3.21575610351562500000e+03) (12, -9.51179980468750000000e+03) (13, -8.35299609375000000000e+03) (14, -8.54935253906250000000e+03) (15, -8.46377832031250000000e+03) (16, -8.84344628906250000000e+03) (17, -9.19144531250000000000e+03) (18, -3.23075360000000000000e+07) (19, -2.36406175000000000000e+06) (20, -8.60056542968750000000e+03) (21, -8.32448339843750000000e+03) (22, -5.79622167968750000000e+03) (23, -3.17179370117187500000e+03) (24, -3.34955615234375000000e+03) (25, -3.12570214843750000000e+03) (26, -7.55455126953125000000e+03) (27, -6.51828808593750000000e+03) (28, 2.03527080000000000000e+07) (29, -6.35204589843750000000e+03) (0, 5.43848366080000000000e+10) (1, 5.55914690560000000000e+10) (2, 5.76221634560000000000e+10) (3, 5.85502023680000000000e+10) (4, 5.20411381760000000000e+10) (5, 5.31889602560000000000e+10) (6, 8.45076506869760000000e+13) (7, 2.57556529152000000000e+11) (8, 4.87423426560000000000e+10) (9, 4.84055613440000000000e+10) (10, 1.38042777600000000000e+10) (11, 4.23425064960000000000e+10) (12, 4.93396295680000000000e+10) (13, 2.97711943680000000000e+10) (14, 4.91909079040000000000e+10) (15, 4.91416043520000000000e+10) (16, 4.92360007680000000000e+10) (17, 4.92622561280000000000e+10) (18, 4.73367733862400000000e+12) (19, 7.34374461440000000000e+11) (20, 4.47705948160000000000e+10) (21, 4.49535262720000000000e+10) (22, 2.88804945920000000000e+10) (23, 2.54998773760000000000e+10) (24, 2.43534602240000000000e+10) (25, 2.43709112320000000000e+10) (26, 4.41655214080000000000e+10) (27, 3.82739824640000000000e+10) (28, -6.42326252748800000000e+12) (29, 4.87304847360000000000e+10) (0, 5.43915745280000000000e+10) (1, 5.56000378880000000000e+10) (2, 5.76331735040000000000e+10) (3, 5.85617489920000000000e+10) (4, 5.20451686400000000000e+10) (5, 5.31941416960000000000e+10) (6, 8.46142866718720000000e+13) (7, 2.57730527232000000000e+11) (8, 4.87436206080000000000e+10) (9, 4.84069621760000000000e+10) (10, 1.38032035840000000000e+10) (11, 4.23431495680000000000e+10) (12, 4.93413703680000000000e+10) (13, 2.97726832640000000000e+10) (14, 4.91924725760000000000e+10) (15, 4.91431485440000000000e+10) (16, 4.92376186880000000000e+10) (17, 4.92639395840000000000e+10) (18, 4.73918865408000000000e+12) (19, 7.34775738368000000000e+11) (20, 4.47721717760000000000e+10) (21, 4.49550622720000000000e+10) (22, 2.88815329280000000000e+10) (23, 2.55004672000000000000e+10) (24, 2.43540889600000000000e+10) (25, 2.43714990080000000000e+10) (26, 4.41668853760000000000e+10) (27, 3.82751457280000000000e+10) (28, -6.42666096230400000000e+12) (29, 4.87316766720000000000e+10) (0, -1.03088539062500000000e+05) (1, -1.30756312500000000000e+05) (2, -1.68240531250000000000e+05) (3, -1.76812859375000000000e+05) (4, -6.12103203125000000000e+04) (5, -7.87908593750000000000e+04) (6, -1.62812249600000000000e+09) (7, -2.66700700000000000000e+06) (8, -1.95853613281250000000e+04) (9, -2.09212421875000000000e+04) (10, 1.63714042968750000000e+04) (11, -9.39558007812500000000e+03) (12, -2.59350976562500000000e+04) (13, -2.24056152343750000000e+04) (14, -2.34181347656250000000e+04) (15, -2.31964960937500000000e+04) (16, -2.41888183593750000000e+04) (17, -2.50982343750000000000e+04) (18, -8.42277600000000000000e+07) (19, -6.15520950000000000000e+06) (20, -2.34610605468750000000e+04) (21, -2.27518652343750000000e+04) (22, -1.57535722656250000000e+04) (23, -8.85663671875000000000e+03) (24, -9.31041113281250000000e+03) (25, -8.71484570312500000000e+03) (26, -2.07121230468750000000e+04) (27, -1.78660937500000000000e+04) (28, 5.25812640000000000000e+07) (29, -1.76928828125000000000e+04) (0, 5.43913287680000000000e+10) (1, 5.55997184000000000000e+10) (2, 5.76327680000000000000e+10) (3, 5.85613312000000000000e+10) (4, 5.20450129920000000000e+10) (5, 5.31939450880000000000e+10) (6, 8.46102853058560000000e+13) (7, 2.57724317696000000000e+11) (8, 4.87435673600000000000e+10) (9, 4.84069130240000000000e+10) (10, 1.38032455680000000000e+10) (11, 4.23431208960000000000e+10) (12, 4.93413048320000000000e+10) (13, 2.97726300160000000000e+10) (14, 4.91924152320000000000e+10) (15, 4.91430871040000000000e+10) (16, 4.92375654400000000000e+10) (17, 4.92638863360000000000e+10) (18, 4.73898627891200000000e+12) (19, 7.34760534016000000000e+11) (20, 4.47721144320000000000e+10) (21, 4.49550049280000000000e+10) (22, 2.88814960640000000000e+10) (23, 2.55004446720000000000e+10) (24, 2.43540623360000000000e+10) (25, 2.43714764800000000000e+10) (26, 4.41668321280000000000e+10) (27, 3.82750924800000000000e+10) (28, -6.42653670604800000000e+12) (29, 4.87316316160000000000e+10) (0, -3.28316015625000000000e+04) (1, -4.08889453125000000000e+04) (2, -5.18566015625000000000e+04) (3, -5.43705156250000000000e+04) (4, -2.05910273437500000000e+04) (5, -2.57279101562500000000e+04) (6, -4.75528000000000000000e+08) (7, -7.82200625000000000000e+05) (8, -8.41539453125000000000e+03) (9, -8.78204394531250000000e+03) (10, 4.16071923828125000000e+03) (11, -5.17459570312500000000e+03) (12, -1.02825751953125000000e+04) (13, -8.10174853515625000000e+03) (14, -9.54773632812500000000e+03) (15, -9.48348046875000000000e+03) (16, -9.77216601562500000000e+03) (17, -1.00377226562500000000e+04) (18, -2.46184740000000000000e+07) (19, -1.80965425000000000000e+06) (20, -9.34696093750000000000e+03) (21, -9.15612890625000000000e+03) (22, -6.13328369140625000000e+03) (23, -3.99099047851562500000e+03) (24, -4.06777099609375000000e+03) (25, -3.90053100585937500000e+03) (26, -8.47696191406250000000e+03) (27, -7.30028173828125000000e+03) (28, 1.55782040000000000000e+07) (29, -7.87457617187500000000e+03) (0, 5.43914557440000000000e+10) (1, 5.55998945280000000000e+10) (2, 5.76329891840000000000e+10) (3, 5.85615564800000000000e+10) (4, 5.20450908160000000000e+10) (5, 5.31940474880000000000e+10) (6, 8.46125334528000000000e+13) (7, 2.57727823872000000000e+11) (8, 4.87436001280000000000e+10) (9, 4.84069416960000000000e+10) (10, 1.38032240640000000000e+10) (11, 4.23431372800000000000e+10) (12, 4.93413335040000000000e+10) (13, 2.97726586880000000000e+10) (14, 4.91924480000000000000e+10) (15, 4.91431280640000000000e+10) (16, 4.92375900160000000000e+10) (17, 4.92639191040000000000e+10) (18, 4.73910214656000000000e+12) (19, 7.34769315840000000000e+11) (20, 4.47721431040000000000e+10) (21, 4.49550336000000000000e+10) (22, 2.88815144960000000000e+10) (23, 2.55004549120000000000e+10) (24, 2.43540746240000000000e+10) (25, 2.43714867200000000000e+10) (26, 4.41668567040000000000e+10) (27, 3.82751170560000000000e+10) (28, -6.42660696064000000000e+12) (29, 4.87316520960000000000e+10) (0, -4.77838046875000000000e+04) (1, -6.02847539062500000000e+04) (2, -7.70524218750000000000e+04) (3, -8.08850000000000000000e+04) (4, -2.89966386718750000000e+04) (5, -3.68821601562500000000e+04) (6, -7.31821888000000000000e+08) (7, -1.19891637500000000000e+06) (8, -1.02985156250000000000e+04) (9, -1.08864335937500000000e+04) (10, 7.08778417968750000000e+03) (11, -5.57210449218750000000e+03) (12, -1.31604042968750000000e+04) (13, -1.08942275390625000000e+04) (14, -1.20272353515625000000e+04) (15, -1.19287656250000000000e+04) (16, -1.23724121093750000000e+04) (17, -1.27832949218750000000e+04) (18, -3.78065520000000000000e+07) (19, -2.74530825000000000000e+06) (20, -1.19199531250000000000e+04) (21, -1.16153623046875000000e+04) (22, -7.92902539062500000000e+03) (23, -4.75979736328125000000e+03) (24, -4.94886035156250000000e+03) (25, -4.66944140625000000000e+03) (26, -1.06603720703125000000e+04) (27, -9.18653417968750000000e+03) (28, 2.31619940000000000000e+07) (29, -9.45632714843750000000e+03) (0, 5.43915048960000000000e+10) (1, 5.55999477760000000000e+10) (2, 5.76330670080000000000e+10) (3, 5.85616506880000000000e+10) (4, 5.20451153920000000000e+10) (5, 5.31940761600000000000e+10) (6, 8.46132884275200000000e+13) (7, 2.57729052672000000000e+11) (8, 4.87436042240000000000e+10) (9, 4.84069457920000000000e+10) (10, 1.38032138240000000000e+10) (11, 4.23431372800000000000e+10) (12, 4.93413335040000000000e+10) (13, 2.97726668800000000000e+10) (14, 4.91924561920000000000e+10) (15, 4.91431362560000000000e+10) (16, 4.92375982080000000000e+10) (17, 4.92639272960000000000e+10) (18, 4.73914094387200000000e+12) (19, 7.34772330496000000000e+11) (20, 4.47721472000000000000e+10) (21, 4.49550417920000000000e+10) (22, 2.88815185920000000000e+10) (23, 2.55004569600000000000e+10) (24, 2.43540766720000000000e+10) (25, 2.43714887680000000000e+10) (26, 4.41668608000000000000e+10) (27, 3.82751293440000000000e+10) (28, -6.42663055360000000000e+12) (29, 4.87316561920000000000e+10) (0, 5.43914229760000000000e+10) (1, 5.55998494720000000000e+10) (2, 5.76329236480000000000e+10) (3, 5.85614868480000000000e+10) (4, 5.20450744320000000000e+10) (5, 5.31940188160000000000e+10) (6, 8.46117617008640000000e+13) (7, 2.57726758912000000000e+11) (8, 4.87435960320000000000e+10) (9, 4.84069335040000000000e+10) (10, 1.38032302080000000000e+10) (11, 4.23431372800000000000e+10) (12, 4.93413253120000000000e+10) (13, 2.97726504960000000000e+10) (14, 4.91924439040000000000e+10) (15, 4.91431116800000000000e+10) (16, 4.92375859200000000000e+10) (17, 4.92639109120000000000e+10) (18, 4.73906649497600000000e+12) (19, 7.34766563328000000000e+11) (20, 4.47721308160000000000e+10) (21, 4.49550213120000000000e+10) (22, 2.88815104000000000000e+10) (23, 2.55004528640000000000e+10) (24, 2.43540725760000000000e+10) (25, 2.43714846720000000000e+10) (26, 4.41668485120000000000e+10) (27, 3.82751170560000000000e+10) (28, -6.42658651340800000000e+12) (29, 4.87316480000000000000e+10) (0, 5.43914557440000000000e+10) (1, 5.55998904320000000000e+10) (2, 5.76329809920000000000e+10) (3, 5.85615441920000000000e+10) (4, 5.20450908160000000000e+10) (5, 5.31940433920000000000e+10) (6, 8.46124495667200000000e+13) (7, 2.57727660032000000000e+11) (8, 4.87436001280000000000e+10) (9, 4.84069416960000000000e+10) (10, 1.38032240640000000000e+10) (11, 4.23431372800000000000e+10) (12, 4.93413294080000000000e+10) (13, 2.97726586880000000000e+10) (14, 4.91924480000000000000e+10) (15, 4.91431280640000000000e+10) (16, 4.92375900160000000000e+10) (17, 4.92639191040000000000e+10) (18, 4.73909690368000000000e+12) (19, 7.34769053696000000000e+11) (20, 4.47721390080000000000e+10) (21, 4.49550295040000000000e+10) (22, 2.88815144960000000000e+10) (23, 2.55004528640000000000e+10) (24, 2.43540725760000000000e+10) (25, 2.43714846720000000000e+10) (26, 4.41668567040000000000e+10) (27, 3.82751211520000000000e+10) (28, -6.42660538777600000000e+12) (29, 4.87316480000000000000e+10) (0, 5.43914639360000000000e+10) (1, 5.55998986240000000000e+10) (2, 5.76329932800000000000e+10) (3, 5.85615687680000000000e+10) (4, 5.20450990080000000000e+10) (5, 5.31940597760000000000e+10) (6, 8.46126005616640000000e+13) (7, 2.57727922176000000000e+11) (8, 4.87436042240000000000e+10) (9, 4.84069416960000000000e+10) (10, 1.38032220160000000000e+10) (11, 4.23431413760000000000e+10) (12, 4.93413335040000000000e+10) (13, 2.97726586880000000000e+10) (14, 4.91924520960000000000e+10) (15, 4.91431280640000000000e+10) (16, 4.92375941120000000000e+10) (17, 4.92639272960000000000e+10) (18, 4.73910371942400000000e+12) (19, 7.34769512448000000000e+11) (20, 4.47721472000000000000e+10) (21, 4.49550336000000000000e+10) (22, 2.88815144960000000000e+10) (23, 2.55004569600000000000e+10) (24, 2.43540766720000000000e+10) (25, 2.43714887680000000000e+10) (26, 4.41668608000000000000e+10) (27, 3.82751211520000000000e+10) (28, -6.42660958208000000000e+12) (29, 4.87316561920000000000e+10) (0, 5.43912673280000000000e+10) (1, 5.55996405760000000000e+10) (2, 5.76326778880000000000e+10) (3, 5.85612369920000000000e+10) (4, 5.20449802240000000000e+10) (5, 5.31939082240000000000e+10) (6, 8.46094128906240000000e+13) (7, 2.57722908672000000000e+11) (8, 4.87435591680000000000e+10) (9, 4.84069048320000000000e+10) (10, 1.38032558080000000000e+10) (11, 4.23431208960000000000e+10) (12, 4.93412966400000000000e+10) (13, 2.97726156800000000000e+10) (14, 4.91924070400000000000e+10) (15, 4.91430748160000000000e+10) (16, 4.92375613440000000000e+10) (17, 4.92638740480000000000e+10) (18, 4.73893594726400000000e+12) (19, 7.34756667392000000000e+11) (20, 4.47721062400000000000e+10) (21, 4.49549926400000000000e+10) (22, 2.88814899200000000000e+10) (23, 2.55004405760000000000e+10) (24, 2.43540602880000000000e+10) (25, 2.43714723840000000000e+10) (26, 4.41668198400000000000e+10) (27, 3.82750883840000000000e+10) (28, -6.42650629734400000000e+12) (29, 4.87316234240000000000e+10) (0, 5.43913615360000000000e+10) (1, 5.55997634560000000000e+10) (2, 5.76328253440000000000e+10) (3, 5.85613926400000000000e+10) (4, 5.20450334720000000000e+10) (5, 5.31939696640000000000e+10) (6, 8.46108976742400000000e+13) (7, 2.57725267968000000000e+11) (8, 4.87435755520000000000e+10) (9, 4.84069212160000000000e+10) (10, 1.38032384000000000000e+10) (11, 4.23431249920000000000e+10) (12, 4.93413089280000000000e+10) (13, 2.97726341120000000000e+10) (14, 4.91924275200000000000e+10) (15, 4.91430952960000000000e+10) (16, 4.92375736320000000000e+10) (17, 4.92638945280000000000e+10) (18, 4.73901826048000000000e+12) (19, 7.34763089920000000000e+11) (20, 4.47721185280000000000e+10) (21, 4.49550090240000000000e+10) (22, 2.88815001600000000000e+10) (23, 2.55004467200000000000e+10) (24, 2.43540643840000000000e+10) (25, 2.43714785280000000000e+10) (26, 4.41668403200000000000e+10) (27, 3.82751006720000000000e+10) (28, -6.42655610470400000000e+12) (29, 4.87316357120000000000e+10) (0, 5.43913615360000000000e+10) (1, 5.55997593600000000000e+10) (2, 5.76328212480000000000e+10) (3, 5.85613885440000000000e+10) (4, 5.20450334720000000000e+10) (5, 5.31939696640000000000e+10) (6, 8.46108557312000000000e+13) (7, 2.57725218816000000000e+11) (8, 4.87435755520000000000e+10) (9, 4.84069212160000000000e+10) (10, 1.38032394240000000000e+10) (11, 4.23431249920000000000e+10) (12, 4.93413089280000000000e+10) (13, 2.97726341120000000000e+10) (14, 4.91924234240000000000e+10) (15, 4.91430952960000000000e+10) (16, 4.92375736320000000000e+10) (17, 4.92638945280000000000e+10) (18, 4.73901721190400000000e+12) (19, 7.34762893312000000000e+11) (20, 4.47721185280000000000e+10) (21, 4.49550090240000000000e+10) (22, 2.88814981120000000000e+10) (23, 2.55004467200000000000e+10) (24, 2.43540643840000000000e+10) (25, 2.43714785280000000000e+10) (26, 4.41668403200000000000e+10) (27, 3.82751006720000000000e+10) (28, -6.42655558041600000000e+12) (29, 4.87316357120000000000e+10) (0, 5.43913328640000000000e+10) (1, 5.55997184000000000000e+10) (2, 5.76327761920000000000e+10) (3, 5.85613393920000000000e+10) (4, 5.20450129920000000000e+10) (5, 5.31939491840000000000e+10) (6, 8.46103608033280000000e+13) (7, 2.57724481536000000000e+11) (8, 4.87435632640000000000e+10) (9, 4.84069130240000000000e+10) (10, 1.38032435200000000000e+10) (11, 4.23431208960000000000e+10) (12, 4.93413048320000000000e+10) (13, 2.97726279680000000000e+10) (14, 4.91924152320000000000e+10) (15, 4.91430830080000000000e+10) (16, 4.92375654400000000000e+10) (17, 4.92638863360000000000e+10) (18, 4.73899099750400000000e+12) (19, 7.34760796160000000000e+11) (20, 4.47721144320000000000e+10) (21, 4.49550008320000000000e+10) (22, 2.88814960640000000000e+10) (23, 2.55004426240000000000e+10) (24, 2.43540623360000000000e+10) (25, 2.43714744320000000000e+10) (26, 4.41668362240000000000e+10) (27, 3.82750924800000000000e+10) (28, -6.42654037606400000000e+12) (29, 4.87316275200000000000e+10) (0, 5.43914721280000000000e+10) (1, 5.55999150080000000000e+10) (2, 5.76330137600000000000e+10) (3, 5.85615851520000000000e+10) (4, 5.20451072000000000000e+10) (5, 5.31940638720000000000e+10) (6, 8.46127180021760000000e+13) (7, 2.57728151552000000000e+11) (8, 4.87436042240000000000e+10) (9, 4.84069457920000000000e+10) (10, 1.38032220160000000000e+10) (11, 4.23431413760000000000e+10) (12, 4.93413457920000000000e+10) (13, 2.97726627840000000000e+10) (14, 4.91924520960000000000e+10) (15, 4.91431362560000000000e+10) (16, 4.92375982080000000000e+10) (17, 4.92639272960000000000e+10) (18, 4.73911105945600000000e+12) (19, 7.34770102272000000000e+11) (20, 4.47721512960000000000e+10) (21, 4.49550376960000000000e+10) (22, 2.88815165440000000000e+10) (23, 2.55004610560000000000e+10) (24, 2.43540807680000000000e+10) (25, 2.43714928640000000000e+10) (26, 4.41668608000000000000e+10) (27, 3.82751293440000000000e+10) (28, -6.42661272780800000000e+12) (29, 4.87316643840000000000e+10) (0, 5.43914311680000000000e+10) (1, 5.55998658560000000000e+10) (2, 5.76329400320000000000e+10) (3, 5.85615114240000000000e+10) (4, 5.20450744320000000000e+10) (5, 5.31940270080000000000e+10) (6, 8.46120888565760000000e+13) (7, 2.57727119360000000000e+11) (8, 4.87435878400000000000e+10) (9, 4.84069335040000000000e+10) (10, 1.38032271360000000000e+10) (11, 4.23431290880000000000e+10) (12, 4.93413253120000000000e+10) (13, 2.97726504960000000000e+10) (14, 4.91924439040000000000e+10) (15, 4.91431116800000000000e+10) (16, 4.92375859200000000000e+10) (17, 4.92639109120000000000e+10) (18, 4.73907960217600000000e+12) (19, 7.34767742976000000000e+11) (20, 4.47721308160000000000e+10) (21, 4.49550213120000000000e+10) (22, 2.88815104000000000000e+10) (23, 2.55004487680000000000e+10) (24, 2.43540684800000000000e+10) (25, 2.43714805760000000000e+10) (26, 4.41668485120000000000e+10) (27, 3.82751129600000000000e+10) (28, -6.42659385344000000000e+12) (29, 4.87316398080000000000e+10) (0, -1.00642179687500000000e+05) (1, -1.27656140625000000000e+05) (2, -1.63890312500000000000e+05) (3, -1.72171156250000000000e+05) (4, -6.00281328125000000000e+04) (5, -7.70754843750000000000e+04) (6, -1.58173632000000000000e+09) (7, -2.58966150000000000000e+06) (8, -1.96209082031250000000e+04) (9, -2.09137304687500000000e+04) (10, 1.59083955078125000000e+04) (11, -9.66912402343750000000e+03) (12, -2.57919492187500000000e+04) (13, -2.20338945312500000000e+04) (14, -2.33423671875000000000e+04) (15, -2.31327324218750000000e+04) (16, -2.40935234375000000000e+04) (17, -2.49807011718750000000e+04) (18, -8.17086720000000000000e+07) (19, -5.93028400000000000000e+06) (20, -2.33241132812500000000e+04) (21, -2.26475078125000000000e+04) (22, -1.56363857421875000000e+04) (23, -8.91526464843750000000e+03) (24, -9.37544042968750000000e+03) (25, -8.76641210937500000000e+03) (26, -2.06641835937500000000e+04) (27, -1.78203671875000000000e+04) (28, 5.04063640000000000000e+07) (29, -1.77879433593750000000e+04) (0, 5.43913984000000000000e+10) (1, 5.55998126080000000000e+10) (2, 5.76328785920000000000e+10) (3, 5.85614458880000000000e+10) (4, 5.20450498560000000000e+10) (5, 5.31939983360000000000e+10) (6, 8.46113842135040000000e+13) (7, 2.57726169088000000000e+11) (8, 4.87435878400000000000e+10) (9, 4.84069253120000000000e+10) (10, 1.38032343040000000000e+10) (11, 4.23431249920000000000e+10) (12, 4.93413171200000000000e+10) (13, 2.97726423040000000000e+10) (14, 4.91924398080000000000e+10) (15, 4.91431034880000000000e+10) (16, 4.92375818240000000000e+10) (17, 4.92639027200000000000e+10) (18, 4.73904657203200000000e+12) (19, 7.34765056000000000000e+11) (20, 4.47721267200000000000e+10) (21, 4.49550172160000000000e+10) (22, 2.88815042560000000000e+10) (23, 2.55004487680000000000e+10) (24, 2.43540684800000000000e+10) (25, 2.43714785280000000000e+10) (26, 4.41668444160000000000e+10) (27, 3.82751088640000000000e+10) (28, -6.42657288192000000000e+12) (29, 4.87316357120000000000e+10) (0, 5.43914639360000000000e+10) (1, 5.55999068160000000000e+10) (2, 5.76330055680000000000e+10) (3, 5.85615769600000000000e+10) (4, 5.20450990080000000000e+10) (5, 5.31940515840000000000e+10) (6, 8.46127599452160000000e+13) (7, 2.57728200704000000000e+11) (8, 4.87436001280000000000e+10) (9, 4.84069416960000000000e+10) (10, 1.38032199680000000000e+10) (11, 4.23431372800000000000e+10) (12, 4.93413294080000000000e+10) (13, 2.97726586880000000000e+10) (14, 4.91924520960000000000e+10) (15, 4.91431280640000000000e+10) (16, 4.92375900160000000000e+10) (17, 4.92639191040000000000e+10) (18, 4.73911420518400000000e+12) (19, 7.34770233344000000000e+11) (20, 4.47721390080000000000e+10) (21, 4.49550295040000000000e+10) (22, 2.88815144960000000000e+10) (23, 2.55004528640000000000e+10) (24, 2.43540725760000000000e+10) (25, 2.43714846720000000000e+10) (26, 4.41668567040000000000e+10) (27, 3.82751211520000000000e+10) (28, -6.42661430067200000000e+12) (29, 4.87316480000000000000e+10) (0, 5.43913287680000000000e+10) (1, 5.55997184000000000000e+10) (2, 5.76327761920000000000e+10) (3, 5.85613393920000000000e+10) (4, 5.20450129920000000000e+10) (5, 5.31939491840000000000e+10) (6, 8.46103356375040000000e+13) (7, 2.57724416000000000000e+11) (8, 4.87435673600000000000e+10) (9, 4.84069130240000000000e+10) (10, 1.38032445440000000000e+10) (11, 4.23431208960000000000e+10) (12, 4.93413048320000000000e+10) (13, 2.97726279680000000000e+10) (14, 4.91924152320000000000e+10) (15, 4.91430830080000000000e+10) (16, 4.92375654400000000000e+10) (17, 4.92638822400000000000e+10) (18, 4.73898942464000000000e+12) (19, 7.34760665088000000000e+11) (20, 4.47721144320000000000e+10) (21, 4.49550008320000000000e+10) (22, 2.88814960640000000000e+10) (23, 2.55004446720000000000e+10) (24, 2.43540623360000000000e+10) (25, 2.43714744320000000000e+10) (26, 4.41668321280000000000e+10) (27, 3.82750965760000000000e+10) (28, -6.42653932748800000000e+12) (29, 4.87316275200000000000e+10) (0, 5.43913738240000000000e+10) (1, 5.55997757440000000000e+10) (2, 5.76328376320000000000e+10) (3, 5.85614090240000000000e+10) (4, 5.20450375680000000000e+10) (5, 5.31939778560000000000e+10) (6, 8.46110235033600000000e+13) (7, 2.57725546496000000000e+11) (8, 4.87435755520000000000e+10) (9, 4.84069212160000000000e+10) (10, 1.38032363520000000000e+10) (11, 4.23431249920000000000e+10) (12, 4.93413130240000000000e+10) (13, 2.97726361600000000000e+10) (14, 4.91924234240000000000e+10) (15, 4.91430952960000000000e+10) (16, 4.92375736320000000000e+10) (17, 4.92638945280000000000e+10) (18, 4.73902664908800000000e+12) (19, 7.34763745280000000000e+11) (20, 4.47721226240000000000e+10) (21, 4.49550131200000000000e+10) (22, 2.88815001600000000000e+10) (23, 2.55004467200000000000e+10) (24, 2.43540664320000000000e+10) (25, 2.43714764800000000000e+10) (26, 4.41668403200000000000e+10) (27, 3.82751006720000000000e+10) (28, -6.42656187187200000000e+12) (29, 4.87316316160000000000e+10) (0, -5.30147802734375000000e+03) (1, -7.51273144531250000000e+03) (2, -1.04706591796875000000e+04) (3, -1.11434687500000000000e+04) (4, -1.99015771484375000000e+03) (5, -3.38057958984375000000e+03) (6, -1.29111224000000000000e+08) (7, -2.07841203125000000000e+05) (8, 1.29313110351562500000e+03) (9, 1.16325805664062500000e+03) (10, 1.94351086425781250000e+03) (11, 1.82407287597656250000e+03) (12, 8.03969360351562500000e+02) (13, -1.38155929565429687500e+02) (14, 1.00381072998046875000e+03) (15, 1.02043212890625000000e+03) (16, 9.42683105468750000000e+02) (17, 8.69333923339843750000e+02) (18, -6.66885450000000000000e+06) (19, -4.81562593750000000000e+05) (20, 7.72424194335937500000e+02) (21, 8.47363281250000000000e+02) (22, 3.69401824951171875000e+02) (23, 7.79684936523437500000e+02) (24, 6.89629333496093750000e+02) (25, 7.38655944824218750000e+02) (26, 9.21015930175781250000e+02) (27, 7.82171875000000000000e+02) (28, 3.88513500000000000000e+06) (29, 1.45521533203125000000e+03) (0, 5.43915499520000000000e+10) (1, 5.56000174080000000000e+10) (2, 5.76331489280000000000e+10) (3, 5.85617285120000000000e+10) (4, 5.20451522560000000000e+10) (5, 5.31941294080000000000e+10) (6, 8.46140937338880000000e+13) (7, 2.57730248704000000000e+11) (8, 4.87436165120000000000e+10) (9, 4.84069580800000000000e+10) (10, 1.38032056320000000000e+10) (11, 4.23431495680000000000e+10) (12, 4.93413580800000000000e+10) (13, 2.97726791680000000000e+10) (14, 4.91924684800000000000e+10) (15, 4.91431485440000000000e+10) (16, 4.92376145920000000000e+10) (17, 4.92639395840000000000e+10) (18, 4.73917869260800000000e+12) (19, 7.34774886400000000000e+11) (20, 4.47721676800000000000e+10) (21, 4.49550581760000000000e+10) (22, 2.88815288320000000000e+10) (23, 2.55004672000000000000e+10) (24, 2.43540869120000000000e+10) (25, 2.43714990080000000000e+10) (26, 4.41668812800000000000e+10) (27, 3.82751375360000000000e+10) (28, -6.42665467084800000000e+12) (29, 4.87316766720000000000e+10) (0, 5.43914352640000000000e+10) (1, 5.55998699520000000000e+10) (2, 5.76329523200000000000e+10) (3, 5.85615196160000000000e+10) (4, 5.20450785280000000000e+10) (5, 5.31940270080000000000e+10) (6, 8.46122566287360000000e+13) (7, 2.57727414272000000000e+11) (8, 4.87435960320000000000e+10) (9, 4.84069335040000000000e+10) (10, 1.38032250880000000000e+10) (11, 4.23431290880000000000e+10) (12, 4.93413253120000000000e+10) (13, 2.97726504960000000000e+10) (14, 4.91924439040000000000e+10) (15, 4.91431116800000000000e+10) (16, 4.92375859200000000000e+10) (17, 4.92639109120000000000e+10) (18, 4.73908746649600000000e+12) (19, 7.34768267264000000000e+11) (20, 4.47721308160000000000e+10) (21, 4.49550213120000000000e+10) (22, 2.88815083520000000000e+10) (23, 2.55004487680000000000e+10) (24, 2.43540684800000000000e+10) (25, 2.43714805760000000000e+10) (26, 4.41668485120000000000e+10) (27, 3.82751129600000000000e+10) (28, -6.42659804774400000000e+12) (29, 4.87316398080000000000e+10) (0, -1.59663968750000000000e+05) (1, -2.01999968750000000000e+05) (2, -2.58727875000000000000e+05) (3, -2.71691187500000000000e+05) (4, -9.60719375000000000000e+04) (5, -1.22763765625000000000e+05) (6, -2.47723136000000000000e+09) (7, -4.05851900000000000000e+06) (8, -3.27872148437500000000e+04) (9, -3.47956132812500000000e+04) (10, 2.44840039062500000000e+04) (11, -1.70013808593750000000e+04) (12, -4.24656757812500000000e+04) (13, -3.56739296875000000000e+04) (14, -3.86286445312500000000e+04) (15, -3.82996132812500000000e+04) (16, -3.98024570312500000000e+04) (17, -4.11940976562500000000e+04) (18, -1.27944016000000000000e+08) (19, -9.27274600000000000000e+06) (20, -3.84295898437500000000e+04) (21, -3.73852382812500000000e+04) (22, -2.56585937500000000000e+04) (23, -1.50368134765625000000e+04) (24, -1.57219433593750000000e+04) (25, -1.47657587890625000000e+04) (26, -3.42192148437500000000e+04) (27, -2.94988730468750000000e+04) (28, 7.88124080000000000000e+07) (29, -2.99259746093750000000e+04) (0, -6.70867333984375000000e+03) (1, -9.24672558593750000000e+03) (2, -1.25441523437500000000e+04) (3, -1.32882568359375000000e+04) (4, -2.97967236328125000000e+03) (5, -4.54502001953125000000e+03) (6, -1.46078080000000000000e+08) (7, -2.36547343750000000000e+05) (8, 7.31375610351562500000e+02) (9, 5.88287414550781250000e+02) (10, 2.08067431640625000000e+03) (11, 1.39547692871093750000e+03) (12, 1.71870101928710937500e+02) (13, -5.51345764160156250000e+02) (14, 3.99069793701171875000e+02) (15, 4.15930297851562500000e+02) (16, 3.29205993652343750000e+02) (17, 2.44812500000000000000e+02) (18, -7.50636800000000000000e+06) (19, -5.30162625000000000000e+05) (20, 2.02326126098632812500e+02) (21, 2.78604614257812500000e+02) (22, 2.77467799186706542969e+00) (23, 5.00296997070312500000e+02) (24, 3.99511566162109375000e+02) (25, 4.66516754150390625000e+02) (26, 3.79813842773437500000e+02) (27, 3.16159271240234375000e+02) (28, 4.53866200000000000000e+06) (29, 9.11014465332031250000e+02) (0, 5.43913738240000000000e+10) (1, 5.55997757440000000000e+10) (2, 5.76328417280000000000e+10) (3, 5.85614090240000000000e+10) (4, 5.20450375680000000000e+10) (5, 5.31939778560000000000e+10) (6, 8.46109983375360000000e+13) (7, 2.57725562880000000000e+11) (8, 4.87435755520000000000e+10) (9, 4.84069212160000000000e+10) (10, 1.38032373760000000000e+10) (11, 4.23431290880000000000e+10) (12, 4.93413130240000000000e+10) (13, 2.97726382080000000000e+10) (14, 4.91924275200000000000e+10) (15, 4.91430952960000000000e+10) (16, 4.92375777280000000000e+10) (17, 4.92639027200000000000e+10) (18, 4.73902560051200000000e+12) (19, 7.34763614208000000000e+11) (20, 4.47721226240000000000e+10) (21, 4.49550090240000000000e+10) (22, 2.88815001600000000000e+10) (23, 2.55004467200000000000e+10) (24, 2.43540664320000000000e+10) (25, 2.43714785280000000000e+10) (26, 4.41668403200000000000e+10) (27, 3.82751006720000000000e+10) (28, -6.42656134758400000000e+12) (29, 4.87316357120000000000e+10) (0, 5.43861596160000000000e+10) (1, 5.55931525120000000000e+10) (2, 5.76243056640000000000e+10) (3, 5.85524633600000000000e+10) (4, 5.20419409920000000000e+10) (5, 5.31899842560000000000e+10) (6, 8.45283369943040000000e+13) (7, 2.57590247424000000000e+11) (8, 4.87426170880000000000e+10) (9, 4.84058152960000000000e+10) (10, 1.38040719360000000000e+10) (11, 4.23426457600000000000e+10) (12, 4.93399777280000000000e+10) (13, 2.97714872320000000000e+10) (14, 4.91912192000000000000e+10) (15, 4.91418869760000000000e+10) (16, 4.92363161600000000000e+10) (17, 4.92625838080000000000e+10) (18, 4.73474636185600000000e+12) (19, 7.34452580352000000000e+11) (20, 4.47709061120000000000e+10) (21, 4.49538416640000000000e+10) (22, 2.88807055360000000000e+10) (23, 2.54999961600000000000e+10) (24, 2.43535872000000000000e+10) (25, 2.43710320640000000000e+10) (26, 4.41658040320000000000e+10) (27, 3.82742364160000000000e+10) (28, -6.42392103321600000000e+12) (29, 4.87307304960000000000e+10) (0, -1.68537484375000000000e+05) (1, -2.14688281250000000000e+05) (2, -2.76506125000000000000e+05) (3, -2.90638843750000000000e+05) (4, -9.92268984375000000000e+04) (5, -1.28309757812500000000e+05) (6, -2.69981465600000000000e+09) (7, -4.41646000000000000000e+06) (8, -3.02868125000000000000e+04) (9, -3.25229277343750000000e+04) (10, 2.79054570312500000000e+04) (11, -1.36153310546875000000e+04) (12, -4.08107890625000000000e+04) (13, -3.57486718750000000000e+04) (14, -3.66271992187500000000e+04) (15, -3.62708125000000000000e+04) (16, -3.79071796875000000000e+04) (17, -3.94238750000000000000e+04) (18, -1.39430144000000000000e+08) (19, -1.00960660000000000000e+07) (20, -3.68455429687500000000e+04) (21, -3.56730039062500000000e+04) (22, -2.48688437500000000000e+04) (23, -1.35499541015625000000e+04) (24, -1.44032919921875000000e+04) (25, -1.33571376953125000000e+04) (26, -3.23896757812500000000e+04) (27, -2.79439609375000000000e+04) (28, 8.55549600000000000000e+07) (29, -2.71461738281250000000e+04) (0, 5.43914393600000000000e+10) (1, 5.55998740480000000000e+10) (2, 5.76329564160000000000e+10) (3, 5.85615278080000000000e+10) (4, 5.20450826240000000000e+10) (5, 5.31940352000000000000e+10) (6, 8.46122734059520000000e+13) (7, 2.57727463424000000000e+11) (8, 4.87436001280000000000e+10) (9, 4.84069376000000000000e+10) (10, 1.38032261120000000000e+10) (11, 4.23431290880000000000e+10) (12, 4.93413294080000000000e+10) (13, 2.97726545920000000000e+10) (14, 4.91924480000000000000e+10) (15, 4.91431157760000000000e+10) (16, 4.92375900160000000000e+10) (17, 4.92639150080000000000e+10) (18, 4.73908851507200000000e+12) (19, 7.34768332800000000000e+11) (20, 4.47721308160000000000e+10) (21, 4.49550213120000000000e+10) (22, 2.88815104000000000000e+10) (23, 2.55004528640000000000e+10) (24, 2.43540725760000000000e+10) (25, 2.43714846720000000000e+10) (26, 4.41668526080000000000e+10) (27, 3.82751170560000000000e+10) (28, -6.42660014489600000000e+12) (29, 4.87316480000000000000e+10) (0, -1.45111171875000000000e+05) (1, -1.83843078125000000000e+05) (2, -2.36040078125000000000e+05) (3, -2.47976515625000000000e+05) (4, -8.66946875000000000000e+04) (5, -1.11210023437500000000e+05) (6, -2.27324646400000000000e+09) (7, -3.72231500000000000000e+06) (8, -2.85941875000000000000e+04) (9, -3.04497363281250000000e+04) (10, 2.26766679687500000000e+04) (11, -1.42447285156250000000e+04) (12, -3.74666210937500000000e+04) (13, -3.19450722656250000000e+04) (14, -3.39514492187500000000e+04) (15, -3.36455625000000000000e+04) (16, -3.50275390625000000000e+04) (17, -3.62982421875000000000e+04) (18, -1.17514088000000000000e+08) (19, -8.54917300000000000000e+06) (20, -3.38998125000000000000e+04) (21, -3.29245273437500000000e+04) (22, -2.27038085937500000000e+04) (23, -1.30200634765625000000e+04) (24, -1.36488437500000000000e+04) (25, -1.27968417968750000000e+04) (26, -3.00502851562500000000e+04) (27, -2.59151933593750000000e+04) (28, 7.26587120000000000000e+07) (29, -2.59615078125000000000e+04) (0, 4.66281922560000000000e+10) (1, 4.66498519040000000000e+10) (2, 4.66011791360000000000e+10) (3, 4.66963169280000000000e+10) (4, 4.65859461120000000000e+10) (5, 4.66208481280000000000e+10) (6, 1.15745711718400000000e+12) (7, 5.00854865920000000000e+10) (8, 4.63740682240000000000e+10) (9, 4.59639234560000000000e+10) (10, 1.30784266240000000000e+10) (11, 4.01427046400000000000e+10) (12, 4.65284136960000000000e+10) (13, 2.76368363520000000000e+10) (14, 4.65248706560000000000e+10) (15, 4.65232936960000000000e+10) (16, 4.65262305280000000000e+10) (17, 4.65260748800000000000e+10) (18, 1.16005371904000000000e+11) (19, 5.53274531840000000000e+10) (20, 4.21415813120000000000e+10) (21, 4.23972536320000000000e+10) (22, 2.73219584000000000000e+10) (23, 2.43761561600000000000e+10) (24, 2.32559390720000000000e+10) (25, 2.32737710080000000000e+10) (26, 4.19224248320000000000e+10) (27, 3.63352391680000000000e+10) (28, 4.50935111680000000000e+10) (29, 4.65128570880000000000e+10) (0, 5.43912550400000000000e+10) (1, 5.55996241920000000000e+10) (2, 5.76326574080000000000e+10) (3, 5.85612124160000000000e+10) (4, 5.20449720320000000000e+10) (5, 5.31938959360000000000e+10) (6, 8.46092535070720000000e+13) (7, 2.57722564608000000000e+11) (8, 4.87435468800000000000e+10) (9, 4.84069007360000000000e+10) (10, 1.38032558080000000000e+10) (11, 4.23431208960000000000e+10) (12, 4.93412925440000000000e+10) (13, 2.97726115840000000000e+10) (14, 4.91924029440000000000e+10) (15, 4.91430707200000000000e+10) (16, 4.92375531520000000000e+10) (17, 4.92638658560000000000e+10) (18, 4.73892703436800000000e+12) (19, 7.34755946496000000000e+11) (20, 4.47721021440000000000e+10) (21, 4.49549885440000000000e+10) (22, 2.88814878720000000000e+10) (23, 2.55004405760000000000e+10) (24, 2.43540582400000000000e+10) (25, 2.43714723840000000000e+10) (26, 4.41668157440000000000e+10) (27, 3.82750801920000000000e+10) (28, -6.42650000588800000000e+12) (29, 4.87316234240000000000e+10) (0, 5.43914639360000000000e+10) (1, 5.55999068160000000000e+10) (2, 5.76330096640000000000e+10) (3, 5.85615687680000000000e+10) (4, 5.20450908160000000000e+10) (5, 5.31940515840000000000e+10) (6, 8.46126592819200000000e+13) (7, 2.57728069632000000000e+11) (8, 4.87436001280000000000e+10) (9, 4.84069416960000000000e+10) (10, 1.38032220160000000000e+10) (11, 4.23431372800000000000e+10) (12, 4.93413335040000000000e+10) (13, 2.97726586880000000000e+10) (14, 4.91924480000000000000e+10) (15, 4.91431280640000000000e+10) (16, 4.92375900160000000000e+10) (17, 4.92639191040000000000e+10) (18, 4.73910896230400000000e+12) (19, 7.34769971200000000000e+11) (20, 4.47721390080000000000e+10) (21, 4.49550336000000000000e+10) (22, 2.88815165440000000000e+10) (23, 2.55004528640000000000e+10) (24, 2.43540725760000000000e+10) (25, 2.43714846720000000000e+10) (26, 4.41668608000000000000e+10) (27, 3.82751211520000000000e+10) (28, -6.42661167923200000000e+12) (29, 4.87316480000000000000e+10) (0, 5.43914639360000000000e+10) (1, 5.55999068160000000000e+10) (2, 5.76330055680000000000e+10) (3, 5.85615769600000000000e+10) (4, 5.20450990080000000000e+10) (5, 5.31940515840000000000e+10) (6, 8.46127263907840000000e+13) (7, 2.57728135168000000000e+11) (8, 4.87436001280000000000e+10) (9, 4.84069376000000000000e+10) (10, 1.38032199680000000000e+10) (11, 4.23431372800000000000e+10) (12, 4.93413294080000000000e+10) (13, 2.97726586880000000000e+10) (14, 4.91924520960000000000e+10) (15, 4.91431239680000000000e+10) (16, 4.92375941120000000000e+10) (17, 4.92639150080000000000e+10) (18, 4.73911158374400000000e+12) (19, 7.34770036736000000000e+11) (20, 4.47721390080000000000e+10) (21, 4.49550295040000000000e+10) (22, 2.88815144960000000000e+10) (23, 2.55004528640000000000e+10) (24, 2.43540725760000000000e+10) (25, 2.43714846720000000000e+10) (26, 4.41668526080000000000e+10) (27, 3.82751211520000000000e+10) (28, -6.42661325209600000000e+12) (29, 4.87316480000000000000e+10) (0, 5.43909150720000000000e+10) (1, 5.55991941120000000000e+10) (2, 5.76320880640000000000e+10) (3, 5.85606103040000000000e+10) (4, 5.20447795200000000000e+10) (5, 5.31936501760000000000e+10) (6, 8.46037925232640000000e+13) (7, 2.57714061312000000000e+11) (8, 4.87434977280000000000e+10) (9, 4.84068433920000000000e+10) (10, 1.38033080320000000000e+10) (11, 4.23430963200000000000e+10) (12, 4.93412147200000000000e+10) (13, 2.97725358080000000000e+10) (14, 4.91923374080000000000e+10) (15, 4.91429969920000000000e+10) (16, 4.92374794240000000000e+10) (17, 4.92637880320000000000e+10) (18, 4.73865230745600000000e+12) (19, 7.34736809984000000000e+11) (20, 4.47720325120000000000e+10) (21, 4.49549148160000000000e+10) (22, 2.88814325760000000000e+10) (23, 2.55004160000000000000e+10) (24, 2.43540316160000000000e+10) (25, 2.43714478080000000000e+10) (26, 4.41667502080000000000e+10) (27, 3.82750351360000000000e+10) (28, -6.42633170944000000000e+12) (29, 4.87315742720000000000e+10) (0, 5.43914557440000000000e+10) (1, 5.55998904320000000000e+10) (2, 5.76329809920000000000e+10) (3, 5.85615523840000000000e+10) (4, 5.20450826240000000000e+10) (5, 5.31940433920000000000e+10) (6, 8.46124998983680000000e+13) (7, 2.57727774720000000000e+11) (8, 4.87435960320000000000e+10) (9, 4.84069376000000000000e+10) (10, 1.38032220160000000000e+10) (11, 4.23431290880000000000e+10) (12, 4.93413294080000000000e+10) (13, 2.97726545920000000000e+10) (14, 4.91924480000000000000e+10) (15, 4.91431198720000000000e+10) (16, 4.92375900160000000000e+10) (17, 4.92639150080000000000e+10) (18, 4.73909952512000000000e+12) (19, 7.34769119232000000000e+11) (20, 4.47721390080000000000e+10) (21, 4.49550295040000000000e+10) (22, 2.88815104000000000000e+10) (23, 2.55004528640000000000e+10) (24, 2.43540725760000000000e+10) (25, 2.43714846720000000000e+10) (26, 4.41668526080000000000e+10) (27, 3.82751129600000000000e+10) (28, -6.42660643635200000000e+12) (29, 4.87316480000000000000e+10) (0, 5.43911567360000000000e+10) (1, 5.55995054080000000000e+10) (2, 5.76324935680000000000e+10) (3, 5.85610485760000000000e+10) (4, 5.20449187840000000000e+10) (5, 5.31938304000000000000e+10) (6, 8.46076261171200000000e+13) (7, 2.57720123392000000000e+11) (8, 4.87435304960000000000e+10) (9, 4.84068843520000000000e+10) (10, 1.38032742400000000000e+10) (11, 4.23431168000000000000e+10) (12, 4.93412720640000000000e+10) (13, 2.97725952000000000000e+10) (14, 4.91923824640000000000e+10) (15, 4.91430502400000000000e+10) (16, 4.92375367680000000000e+10) (17, 4.92638453760000000000e+10) (18, 4.73884681830400000000e+12) (19, 7.34750375936000000000e+11) (20, 4.47720857600000000000e+10) (21, 4.49549680640000000000e+10) (22, 2.88814735360000000000e+10) (23, 2.55004344320000000000e+10) (24, 2.43540541440000000000e+10) (25, 2.43714682880000000000e+10) (26, 4.41667952640000000000e+10) (27, 3.82750679040000000000e+10) (28, -6.42644967424000000000e+12) (29, 4.87316111360000000000e+10) (0, 5.43697756160000000000e+10) (1, 5.55723325440000000000e+10) (2, 5.75976038400000000000e+10) (3, 5.85244262400000000000e+10) (4, 5.20322048000000000000e+10) (5, 5.31774504960000000000e+10) (6, 8.42695987691520000000e+13) (7, 2.57167081472000000000e+11) (8, 4.87394672640000000000e+10) (9, 4.84025221120000000000e+10) (10, 1.38066831360000000000e+10) (11, 4.23410892800000000000e+10) (12, 4.93358571520000000000e+10) (13, 2.97679155200000000000e+10) (14, 4.91874590720000000000e+10) (15, 4.91381637120000000000e+10) (16, 4.92324700160000000000e+10) (17, 4.92585820160000000000e+10) (18, 4.72136233779200000000e+12) (19, 7.33480484864000000000e+11) (20, 4.47671705600000000000e+10) (21, 4.49501880320000000000e+10) (22, 2.88781762560000000000e+10) (23, 2.54985871360000000000e+10) (24, 2.43520921600000000000e+10) (25, 2.43696353280000000000e+10) (26, 4.41624821760000000000e+10) (27, 3.82713446400000000000e+10) (28, -6.41567083724800000000e+12) (29, 4.87278919680000000000e+10) (0, 5.43914557440000000000e+10) (1, 5.55998904320000000000e+10) (2, 5.76329809920000000000e+10) (3, 5.85615523840000000000e+10) (4, 5.20450826240000000000e+10) (5, 5.31940433920000000000e+10) (6, 8.46124915097600000000e+13) (7, 2.57727758336000000000e+11) (8, 4.87436001280000000000e+10) (9, 4.84069376000000000000e+10) (10, 1.38032220160000000000e+10) (11, 4.23431290880000000000e+10) (12, 4.93413294080000000000e+10) (13, 2.97726545920000000000e+10) (14, 4.91924480000000000000e+10) (15, 4.91431157760000000000e+10) (16, 4.92375900160000000000e+10) (17, 4.92639150080000000000e+10) (18, 4.73909952512000000000e+12) (19, 7.34769119232000000000e+11) (20, 4.47721390080000000000e+10) (21, 4.49550295040000000000e+10) (22, 2.88815124480000000000e+10) (23, 2.55004528640000000000e+10) (24, 2.43540725760000000000e+10) (25, 2.43714846720000000000e+10) (26, 4.41668526080000000000e+10) (27, 3.82751170560000000000e+10) (28, -6.42660643635200000000e+12) (29, 4.87316480000000000000e+10) (0, 5.43891537920000000000e+10) (1, 5.55969658880000000000e+10) (2, 5.76291840000000000000e+10) (3, 5.85575464960000000000e+10) (4, 5.20437473280000000000e+10) (5, 5.31922821120000000000e+10) (6, 8.45756235776000000000e+13) (7, 2.57667907584000000000e+11) (8, 4.87431495680000000000e+10) (9, 4.84064788480000000000e+10) (10, 1.38035927040000000000e+10) (11, 4.23429447680000000000e+10) (12, 4.93407764480000000000e+10) (13, 2.97721425920000000000e+10) (14, 4.91919237120000000000e+10) (15, 4.91425669120000000000e+10) (16, 4.92370616320000000000e+10) (17, 4.92633620480000000000e+10) (18, 4.73720055398400000000e+12) (19, 7.34630969344000000000e+11) (20, 4.47716474880000000000e+10) (21, 4.49545379840000000000e+10) (22, 2.88811786240000000000e+10) (23, 2.55002787840000000000e+10) (24, 2.43538841600000000000e+10) (25, 2.43713105920000000000e+10) (26, 4.41663979520000000000e+10) (27, 3.82747320320000000000e+10) (28, -6.42543098265600000000e+12) (29, 4.87312957440000000000e+10) (0, -8.56120234375000000000e+04) (1, -1.08208648437500000000e+05) (2, -1.38887859375000000000e+05) (3, -1.45918031250000000000e+05) (4, -5.13455390625000000000e+04) (5, -6.57257656250000000000e+04) (6, -1.33155481600000000000e+09) (7, -2.18106625000000000000e+06) (8, -1.72887753906250000000e+04) (9, -1.83676914062500000000e+04) (10, 1.30703828125000000000e+04) (11, -8.82293554687500000000e+03) (12, -2.24862988281250000000e+04) (13, -1.90744960937500000000e+04) (14, -2.04301250000000000000e+04) (15, -2.02462050781250000000e+04) (16, -2.10595917968750000000e+04) (17, -2.18013886718750000000e+04) (18, -6.89173280000000000000e+07) (19, -5.04588400000000000000e+06) (20, -2.03672441406250000000e+04) (21, -1.97938984375000000000e+04) (22, -1.36088642578125000000e+04) (23, -7.90521386718750000000e+03) (24, -8.24365039062500000000e+03) (25, -7.76482421875000000000e+03) (26, -1.80826796875000000000e+04) (27, -1.55928652343750000000e+04) (28, 4.29997280000000000000e+07) (29, -1.57459863281250000000e+04) (0, -1.89287390625000000000e+05) (1, -2.40434890625000000000e+05) (2, -3.09465812500000000000e+05) (3, -3.25253562500000000000e+05) (4, -1.12044968750000000000e+05) (5, -1.44473093750000000000e+05) (6, -3.00456473600000000000e+09) (7, -4.91667000000000000000e+06) (8, -3.52654414062500000000e+04) (9, -3.77353437500000000000e+04) (10, 3.04956386718750000000e+04) (11, -1.65422011718750000000e+04) (12, -4.69770429687500000000e+04) (13, -4.07935429687500000000e+04) (14, -4.23313281250000000000e+04) (15, -4.19250625000000000000e+04) (16, -4.37529570312500000000e+04) (17, -4.54324062500000000000e+04) (18, -1.55354272000000000000e+08) (19, -1.13216920000000000000e+07) (20, -4.24712851562500000000e+04) (21, -4.11601601562500000000e+04) (22, -2.85706074218750000000e+04) (23, -1.58875097656250000000e+04) (24, -1.67589667968750000000e+04) (25, -1.56418437500000000000e+04) (26, -3.74359375000000000000e+04) (27, -3.22941347656250000000e+04) (28, 9.63160480000000000000e+07) (29, -3.17712304687500000000e+04) (0, 5.43912878080000000000e+10) (1, 5.55996651520000000000e+10) (2, 5.76327106560000000000e+10) (3, 5.85612738560000000000e+10) (4, 5.20449884160000000000e+10) (5, 5.31939205120000000000e+10) (6, 8.46097316577280000000e+13) (7, 2.57723400192000000000e+11) (8, 4.87435591680000000000e+10) (9, 4.84069048320000000000e+10) (10, 1.38032527360000000000e+10) (11, 4.23431168000000000000e+10) (12, 4.93412966400000000000e+10) (13, 2.97726197760000000000e+10) (14, 4.91924070400000000000e+10) (15, 4.91430789120000000000e+10) (16, 4.92375613440000000000e+10) (17, 4.92638740480000000000e+10) (18, 4.73895534592000000000e+12) (19, 7.34758109184000000000e+11) (20, 4.47721062400000000000e+10) (21, 4.49549967360000000000e+10) (22, 2.88814919680000000000e+10) (23, 2.55004405760000000000e+10) (24, 2.43540602880000000000e+10) (25, 2.43714744320000000000e+10) (26, 4.41668198400000000000e+10) (27, 3.82750842880000000000e+10) (28, -6.42651730739200000000e+12) (29, 4.87316234240000000000e+10) (0, -1.52796312500000000000e+05) (1, -1.93691046875000000000e+05) (2, -2.48833625000000000000e+05) (3, -2.61445234375000000000e+05) (4, -9.10919296875000000000e+04) (5, -1.16984789062500000000e+05) (6, -2.40076672000000000000e+09) (7, -3.93029850000000000000e+06) (8, -2.97375156250000000000e+04) (9, -3.16980429687500000000e+04) (10, 2.40364511718750000000e+04) (11, -1.46210654296875000000e+04) (12, -3.91032851562500000000e+04) (13, -3.34805820312500000000e+04) (14, -3.53935234375000000000e+04) (15, -3.50699179687500000000e+04) (16, -3.65284492187500000000e+04) (17, -3.78697382812500000000e+04) (18, -1.24121208000000000000e+08) (19, -9.03467800000000000000e+06) (20, -3.53806093750000000000e+04) (21, -3.43412656250000000000e+04) (22, -2.37150410156250000000e+04) (23, -1.35084140625000000000e+04) (24, -1.41777099609375000000e+04) (25, -1.32813740234375000000e+04) (26, -3.13184335937500000000e+04) (27, -2.70098242187500000000e+04) (28, 7.64805280000000000000e+07) (29, -2.69529355468750000000e+04) (0, -1.05442265625000000000e+04) (1, -1.29509365234375000000e+04) (2, -1.61894238281250000000e+04) (3, -1.69271972656250000000e+04) (4, -6.91872705078125000000e+03) (5, -8.44126269531250000000e+03) (6, -1.41152976000000000000e+08) (7, -2.33683687500000000000e+05) (8, -3.30209350585937500000e+03) (9, -3.40500756835937500000e+03) (10, 1.07321484375000000000e+03) (11, -2.26859057617187500000e+03) (12, -3.86102880859375000000e+03) (13, -2.85642700195312500000e+03) (14, -3.64179711914062500000e+03) (15, -3.62446533203125000000e+03) (16, -3.70966699218750000000e+03) (17, -3.78976855468750000000e+03) (18, -7.29221950000000000000e+06) (19, -5.31415125000000000000e+05) (20, -3.51759326171875000000e+03) (21, -3.46576245117187500000e+03) (22, -2.27656176757812500000e+03) (23, -1.60401647949218750000e+03) (24, -1.61717797851562500000e+03) (25, -1.56367980957031250000e+03) (26, -3.24263061523437500000e+03) (27, -2.78822094726562500000e+03) (28, 4.70524800000000000000e+06) (29, -3.14582519531250000000e+03) (0, -4.90400195312500000000e+04) (1, -6.23562070312500000000e+04) (2, -8.02134375000000000000e+04) (3, -8.42913906250000000000e+04) (4, -2.90240234375000000000e+04) (5, -3.74265390625000000000e+04) (6, -7.79504768000000000000e+08) (7, -1.27483675000000000000e+06) (8, -9.11430175781250000000e+03) (9, -9.75770605468750000000e+03) (10, 7.96517041015625000000e+03) (11, -4.26437500000000000000e+03) (12, -1.21539287109375000000e+04) (13, -1.05398310546875000000e+04) (14, -1.09470615234375000000e+04) (15, -1.08432216796875000000e+04) (16, -1.13158867187500000000e+04) (17, -1.17543798828125000000e+04) (18, -4.02661840000000000000e+07) (19, -2.92091800000000000000e+06) (20, -1.09811748046875000000e+04) (21, -1.06445048828125000000e+04) (22, -7.39154296875000000000e+03) (23, -4.10458056640625000000e+03) (24, -4.34175634765625000000e+03) (25, -4.04103564453125000000e+03) (26, -9.68382324218750000000e+03) (27, -8.35339648437500000000e+03) (28, 2.47051040000000000000e+07) (29, -8.20822656250000000000e+03) (0, 5.43915909120000000000e+10) (1, 5.56000665600000000000e+10) (2, 5.76332062720000000000e+10) (3, 5.85617858560000000000e+10) (4, 5.20451768320000000000e+10) (5, 5.31941539840000000000e+10) (6, 8.46147144908800000000e+13) (7, 2.57731149824000000000e+11) (8, 4.87436206080000000000e+10) (9, 4.84069621760000000000e+10) (10, 1.38031984640000000000e+10) (11, 4.23431495680000000000e+10) (12, 4.93413703680000000000e+10) (13, 2.97726873600000000000e+10) (14, 4.91924725760000000000e+10) (15, 4.91431567360000000000e+10) (16, 4.92376186880000000000e+10) (17, 4.92639436800000000000e+10) (18, 4.73921119846400000000e+12) (19, 7.34777311232000000000e+11) (20, 4.47721676800000000000e+10) (21, 4.49550663680000000000e+10) (22, 2.88815329280000000000e+10) (23, 2.55004672000000000000e+10) (24, 2.43540869120000000000e+10) (25, 2.43714990080000000000e+10) (26, 4.41668812800000000000e+10) (27, 3.82751457280000000000e+10) (28, -6.42667406950400000000e+12) (29, 4.87316766720000000000e+10) (0, 5.43914639360000000000e+10) (1, 5.55999068160000000000e+10) (2, 5.76330014720000000000e+10) (3, 5.85615687680000000000e+10) (4, 5.20450990080000000000e+10) (5, 5.31940515840000000000e+10) (6, 8.46126005616640000000e+13) (7, 2.57727922176000000000e+11) (8, 4.87436042240000000000e+10) (9, 4.84069416960000000000e+10) (10, 1.38032220160000000000e+10) (11, 4.23431372800000000000e+10) (12, 4.93413335040000000000e+10) (13, 2.97726607360000000000e+10) (14, 4.91924520960000000000e+10) (15, 4.91431321600000000000e+10) (16, 4.92375941120000000000e+10) (17, 4.92639272960000000000e+10) (18, 4.73910371942400000000e+12) (19, 7.34769577984000000000e+11) (20, 4.47721472000000000000e+10) (21, 4.49550336000000000000e+10) (22, 2.88815165440000000000e+10) (23, 2.55004569600000000000e+10) (24, 2.43540766720000000000e+10) (25, 2.43714887680000000000e+10) (26, 4.41668608000000000000e+10) (27, 3.82751211520000000000e+10) (28, -6.42660905779200000000e+12) (29, 4.87316561920000000000e+10) (0, 5.43915048960000000000e+10) (1, 5.55999477760000000000e+10) (2, 5.76330670080000000000e+10) (3, 5.85616506880000000000e+10) (4, 5.20451235840000000000e+10) (5, 5.31940843520000000000e+10) (6, 8.46132716503040000000e+13) (7, 2.57728987136000000000e+11) (8, 4.87436083200000000000e+10) (9, 4.84069457920000000000e+10) (10, 1.38032138240000000000e+10) (11, 4.23431413760000000000e+10) (12, 4.93413416960000000000e+10) (13, 2.97726668800000000000e+10) (14, 4.91924561920000000000e+10) (15, 4.91431362560000000000e+10) (16, 4.92375982080000000000e+10) (17, 4.92639272960000000000e+10) (18, 4.73913989529600000000e+12) (19, 7.34772330496000000000e+11) (20, 4.47721472000000000000e+10) (21, 4.49550417920000000000e+10) (22, 2.88815185920000000000e+10) (23, 2.55004610560000000000e+10) (24, 2.43540807680000000000e+10) (25, 2.43714928640000000000e+10) (26, 4.41668608000000000000e+10) (27, 3.82751293440000000000e+10) (28, -6.42663055360000000000e+12) (29, 4.87316643840000000000e+10) (0, 5.43840788480000000000e+10) (1, 5.55905187840000000000e+10) (2, 5.76209551360000000000e+10) (3, 5.85489326080000000000e+10) (4, 5.20407040000000000000e+10) (5, 5.31883909120000000000e+10) (6, 8.44961415168000000000e+13) (7, 2.57537277952000000000e+11) (8, 4.87421870080000000000e+10) (9, 4.84054261760000000000e+10) (10, 1.38043883520000000000e+10) (11, 4.23424368640000000000e+10) (12, 4.93394534400000000000e+10) (13, 2.97710243840000000000e+10) (14, 4.91907481600000000000e+10) (15, 4.91414446080000000000e+10) (16, 4.92358246400000000000e+10) (17, 4.92620800000000000000e+10) (18, 4.73308541747200000000e+12) (19, 7.34331666432000000000e+11) (20, 4.47704391680000000000e+10) (21, 4.49533665280000000000e+10) (22, 2.88803778560000000000e+10) (23, 2.54998159360000000000e+10) (24, 2.43533967360000000000e+10) (25, 2.43708538880000000000e+10) (26, 4.41653698560000000000e+10) (27, 3.82738677760000000000e+10) (28, -6.42289709875200000000e+12) (29, 4.87303700480000000000e+10) (0, 5.43913123840000000000e+10) (1, 5.55996938240000000000e+10) (2, 5.76327434240000000000e+10) (3, 5.85613066240000000000e+10) (4, 5.20450048000000000000e+10) (5, 5.31939368960000000000e+10) (6, 8.46100252590080000000e+13) (7, 2.57723957248000000000e+11) (8, 4.87435632640000000000e+10) (9, 4.84069089280000000000e+10) (10, 1.38032476160000000000e+10) (11, 4.23431208960000000000e+10) (12, 4.93413007360000000000e+10) (13, 2.97726238720000000000e+10) (14, 4.91924152320000000000e+10) (15, 4.91430830080000000000e+10) (16, 4.92375654400000000000e+10) (17, 4.92638863360000000000e+10) (18, 4.73897474457600000000e+12) (19, 7.34759485440000000000e+11) (20, 4.47721144320000000000e+10) (21, 4.49550008320000000000e+10) (22, 2.88814940160000000000e+10) (23, 2.55004426240000000000e+10) (24, 2.43540623360000000000e+10) (25, 2.43714744320000000000e+10) (26, 4.41668280320000000000e+10) (27, 3.82750924800000000000e+10) (28, -6.42652884172800000000e+12) (29, 4.87316275200000000000e+10) (0, 5.43913779200000000000e+10) (1, 5.55997880320000000000e+10) (2, 5.76328540160000000000e+10) (3, 5.85614213120000000000e+10) (4, 5.20450416640000000000e+10) (5, 5.31939819520000000000e+10) (6, 8.46111828869120000000e+13) (7, 2.57725841408000000000e+11) (8, 4.87435755520000000000e+10) (9, 4.84069212160000000000e+10) (10, 1.38032343040000000000e+10) (11, 4.23431249920000000000e+10) (12, 4.93413130240000000000e+10) (13, 2.97726382080000000000e+10) (14, 4.91924234240000000000e+10) (15, 4.91430952960000000000e+10) (16, 4.92375736320000000000e+10) (17, 4.92638945280000000000e+10) (18, 4.73903713484800000000e+12) (19, 7.34764204032000000000e+11) (20, 4.47721226240000000000e+10) (21, 4.49550090240000000000e+10) (22, 2.88815001600000000000e+10) (23, 2.55004467200000000000e+10) (24, 2.43540664320000000000e+10) (25, 2.43714764800000000000e+10) (26, 4.41668403200000000000e+10) (27, 3.82751006720000000000e+10) (28, -6.42656659046400000000e+12) (29, 4.87316316160000000000e+10) (0, 5.43898378240000000000e+10) (1, 5.55978260480000000000e+10) (2, 5.76303472640000000000e+10) (3, 5.85587834880000000000e+10) (4, 5.20441569280000000000e+10) (5, 5.31928186880000000000e+10) (6, 8.45867468718080000000e+13) (7, 2.57685504000000000000e+11) (8, 4.87432888320000000000e+10) (9, 4.84066140160000000000e+10) (10, 1.38034882560000000000e+10) (11, 4.23430103040000000000e+10) (12, 4.93409566720000000000e+10) (13, 2.97723146240000000000e+10) (14, 4.91920998400000000000e+10) (15, 4.91427348480000000000e+10) (16, 4.92372418560000000000e+10) (17, 4.92635422720000000000e+10) (18, 4.73776993075200000000e+12) (19, 7.34672519168000000000e+11) (20, 4.47718072320000000000e+10) (21, 4.49546813440000000000e+10) (22, 2.88812830720000000000e+10) (23, 2.55003320320000000000e+10) (24, 2.43539456000000000000e+10) (25, 2.43713658880000000000e+10) (26, 4.41665372160000000000e+10) (27, 3.82748508160000000000e+10) (28, -6.42578435276800000000e+12) (29, 4.87314063360000000000e+10) (30, -4.17007088661193847656e-01) (31, 9.83454437500000000000e+05) (32, 2.98626065254211425781e-01) (33, 9.83440250000000000000e+05) (34, 9.83453937500000000000e+05) (35, -7.28653252124786376953e-01) (36, 9.83453687500000000000e+05) (37, 7.42683887481689453125e-01) (38, 9.83454500000000000000e+05) (39, 4.82449650764465332031e-01) (40, 9.83454687500000000000e+05) (41, 9.83454062500000000000e+05) (42, 9.83453437500000000000e+05) (43, 9.83454875000000000000e+05) (44, 9.83454375000000000000e+05) (45, 9.83454062500000000000e+05) (46, 9.83454562500000000000e+05) (47, 9.83454125000000000000e+05) (48, 9.83455062500000000000e+05) (49, 9.83454812500000000000e+05) (50, -4.61769223213195800781e-01) (51, 9.83454625000000000000e+05) (52, 9.83454375000000000000e+05) (53, 9.83453437500000000000e+05) (54, 9.83453375000000000000e+05) (55, -5.06387501955032348633e-02) (56, 9.83454625000000000000e+05) (57, 9.83454937500000000000e+05) (58, -3.80400598049163818359e-01) (59, 5.81917762756347656250e-01) (60, 9.83453500000000000000e+05) (61, 9.83442437500000000000e+05) (62, -5.93634724617004394531e-01) (63, 9.83454437500000000000e+05) (64, 4.81197191402316093445e-03) (65, 9.60230187500000000000e+05) (66, 9.83454187500000000000e+05) (67, 9.83454187500000000000e+05) (68, 9.83454750000000000000e+05) (69, 9.83453125000000000000e+05) (70, 9.83454500000000000000e+05) (71, 9.83452812500000000000e+05) (72, 9.83409437500000000000e+05) (73, 9.83453625000000000000e+05) (74, 9.83448375000000000000e+05) (75, -3.81381571292877197266e-01) (76, -2.91058242321014404297e-01) (77, 9.83453625000000000000e+05) (78, -3.10231924057006835938e-01) (79, -1.03585317730903625488e-01) (80, 7.26683139801025390625e-02) (81, 9.83454000000000000000e+05) (82, 9.83453562500000000000e+05) (83, 9.83454750000000000000e+05) (84, 9.83437500000000000000e+05) (85, 9.83454312500000000000e+05) (86, 9.83453687500000000000e+05) (87, 9.83449687500000000000e+05) (88, 9.83454312500000000000e+05) (30, 9.52930569648742675781e-01) (31, 4.33436687500000000000e+05) (32, 1.47902369499206542969e-01) (33, 4.33437875000000000000e+05) (34, 4.33438281250000000000e+05) (35, 9.43995416164398193359e-02) (36, 4.33437656250000000000e+05) (37, -5.90161561965942382812e-01) (38, 4.33437843750000000000e+05) (39, -3.45867931842803955078e-01) (40, 4.33436750000000000000e+05) (41, 4.33438187500000000000e+05) (42, 4.33437937500000000000e+05) (43, 4.33438000000000000000e+05) (44, 4.33438062500000000000e+05) (45, 4.33437406250000000000e+05) (46, 4.33437625000000000000e+05) (47, 4.33436718750000000000e+05) (48, 4.33438343750000000000e+05) (49, 4.33437125000000000000e+05) (50, -1.33721500635147094727e-01) (51, 4.33437937500000000000e+05) (52, 4.33437093750000000000e+05) (53, 4.33436750000000000000e+05) (54, 4.33437031250000000000e+05) (55, 6.66089475154876708984e-01) (56, 4.33437812500000000000e+05) (57, 4.33436593750000000000e+05) (58, -7.09676563739776611328e-01) (59, 5.53386211395263671875e-01) (60, 4.33437343750000000000e+05) (61, 4.33438687500000000000e+05) (62, 4.95571017265319824219e-01) (63, 4.33437656250000000000e+05) (64, -2.22899839282035827637e-01) (65, 4.33443937500000000000e+05) (66, 4.33436625000000000000e+05) (67, 4.33437218750000000000e+05) (68, 4.33436843750000000000e+05) (69, 4.33437437500000000000e+05) (70, 4.33437093750000000000e+05) (71, 4.33437468750000000000e+05) (72, 4.33437437500000000000e+05) (73, 4.33437031250000000000e+05) (74, 4.33437875000000000000e+05) (75, -1.96052491664886474609e-01) (76, 3.25655221939086914062e-01) (77, 4.33436843750000000000e+05) (78, -1.15608125925064086914e-01) (79, -3.76285344362258911133e-01) (80, 6.33319616317749023438e-02) (81, 4.33436937500000000000e+05) (82, 4.33438500000000000000e+05) (83, 4.33436812500000000000e+05) (84, 4.33437000000000000000e+05) (85, 4.33437781250000000000e+05) (86, 4.33436625000000000000e+05) (87, 4.33438625000000000000e+05) (88, 4.33438156250000000000e+05) (30, -5.87268471717834472656e-01) (31, 9.83692250000000000000e+05) (32, 6.33071362972259521484e-01) (33, 9.83677125000000000000e+05) (34, 9.83692375000000000000e+05) (35, -6.34059131145477294922e-01) (36, 9.83691000000000000000e+05) (37, -9.40321326255798339844e-01) (38, 9.83691750000000000000e+05) (39, 4.28501129150390625000e-01) (40, 9.83692000000000000000e+05) (41, 9.83692125000000000000e+05) (42, 9.83691750000000000000e+05) (43, 9.83691875000000000000e+05) (44, 9.83692000000000000000e+05) (45, 9.83691000000000000000e+05) (46, 9.83691125000000000000e+05) (47, 9.83691375000000000000e+05) (48, 9.83691625000000000000e+05) (49, 9.83691750000000000000e+05) (50, -3.97414088249206542969e-01) (51, 9.83691000000000000000e+05) (52, 9.83692625000000000000e+05) (53, 9.83691875000000000000e+05) (54, 9.83690875000000000000e+05) (55, 3.38379144668579101562e-01) (56, 9.83692250000000000000e+05) (57, 9.83692500000000000000e+05) (58, -1.82085692882537841797e-01) (59, -5.03666341304779052734e-01) (60, 9.83691000000000000000e+05) (61, 9.83680000000000000000e+05) (62, -7.32511997222900390625e-01) (63, 9.83692750000000000000e+05) (64, -9.84975934028625488281e-01) (65, 9.60425500000000000000e+05) (66, 9.83691125000000000000e+05) (67, 9.83692500000000000000e+05) (68, 9.83691375000000000000e+05) (69, 9.83690000000000000000e+05) (70, 9.83691625000000000000e+05) (71, 9.83690250000000000000e+05) (72, 9.83645625000000000000e+05) (73, 9.83692125000000000000e+05) (74, 9.83685250000000000000e+05) (75, -2.09982991218566894531e-01) (76, -8.28975319862365722656e-01) (77, 9.83691875000000000000e+05) (78, 6.00853502750396728516e-01) (79, -7.47293412685394287109e-01) (80, -1.71217143535614013672e-01) (81, 9.83692500000000000000e+05) (82, 9.83692625000000000000e+05) (83, 9.83692375000000000000e+05) (84, 9.83676250000000000000e+05) (85, 9.83690625000000000000e+05) (86, 9.83692500000000000000e+05) (87, 9.83687250000000000000e+05) (88, 9.83690875000000000000e+05) (30, -6.46196484565734863281e-01) (31, 9.83563937500000000000e+05) (32, -2.54513025283813476562e-01) (33, 9.83550375000000000000e+05) (34, 9.83564375000000000000e+05) (35, 4.50801461935043334961e-01) (36, 9.83563437500000000000e+05) (37, 1.52123808860778808594e-01) (38, 9.83565125000000000000e+05) (39, 2.76512503623962402344e-01) (40, 9.83564000000000000000e+05) (41, 9.83564875000000000000e+05) (42, 9.83564812500000000000e+05) (43, 9.83564687500000000000e+05) (44, 9.83564187500000000000e+05) (45, 9.83564437500000000000e+05) (46, 9.83564062500000000000e+05) (47, 9.83564000000000000000e+05) (48, 9.83564937500000000000e+05) (49, 9.83564125000000000000e+05) (50, -8.16005110740661621094e-01) (51, 9.83565125000000000000e+05) (52, 9.83564187500000000000e+05) (53, 9.83565000000000000000e+05) (54, 9.83564812500000000000e+05) (55, 2.49440163373947143555e-01) (56, 9.83565250000000000000e+05) (57, 9.83563625000000000000e+05) (58, -6.76510334014892578125e-01) (59, 2.84367203712463378906e-01) (60, 9.83565125000000000000e+05) (61, 9.83552562500000000000e+05) (62, -6.14901185035705566406e-02) (63, 9.83564375000000000000e+05) (64, -8.54476213455200195312e-01) (65, 9.60332000000000000000e+05) (66, 9.83563687500000000000e+05) (67, 9.83564750000000000000e+05) (68, 9.83564312500000000000e+05) (69, 9.83563687500000000000e+05) (70, 9.83564562500000000000e+05) (71, 9.83564437500000000000e+05) (72, 9.83520625000000000000e+05) (73, 9.83565125000000000000e+05) (74, 9.83559875000000000000e+05) (75, 4.60074067115783691406e-01) (76, -6.86135739088058471680e-02) (77, 9.83564937500000000000e+05) (78, 6.34690374135971069336e-03) (79, 5.42162179946899414062e-01) (80, -9.80172038078308105469e-01) (81, 9.83565437500000000000e+05) (82, 9.83564750000000000000e+05) (83, 9.83565000000000000000e+05) (84, 9.83548687500000000000e+05) (85, 9.83564437500000000000e+05) (86, 9.83563750000000000000e+05) (87, 9.83561437500000000000e+05) (88, 9.83564500000000000000e+05) (30, -4.94193494319915771484e-01) (31, 9.83429812500000000000e+05) (32, -9.35737133026123046875e-01) (33, 9.83417312500000000000e+05) (34, 9.83431437500000000000e+05) (35, -8.37950348854064941406e-01) (36, 9.83430687500000000000e+05) (37, -8.19506227970123291016e-01) (38, 9.83429812500000000000e+05) (39, 1.48013353347778320312e-01) (40, 9.83431312500000000000e+05) (41, 9.83430687500000000000e+05) (42, 9.83431062500000000000e+05) (43, 9.83431187500000000000e+05) (44, 9.83431312500000000000e+05) (45, 9.83431687500000000000e+05) (46, 9.83430187500000000000e+05) (47, 9.83429687500000000000e+05) (48, 9.83430187500000000000e+05) (49, 9.83430812500000000000e+05) (50, 2.11231335997581481934e-01) (51, 9.83430187500000000000e+05) (52, 9.83430562500000000000e+05) (53, 9.83429937500000000000e+05) (54, 9.83431437500000000000e+05) (55, 3.28801155090332031250e-01) (56, 9.83430687500000000000e+05) (57, 9.83431437500000000000e+05) (58, -8.39495003223419189453e-01) (59, -4.58249032497406005859e-01) (60, 9.83431062500000000000e+05) (61, 9.83418687500000000000e+05) (62, 4.73431706428527832031e-01) (63, 9.83430937500000000000e+05) (64, 8.59512463212013244629e-02) (65, 9.60193562500000000000e+05) (66, 9.83430187500000000000e+05) (67, 9.83431187500000000000e+05) (68, 9.83430812500000000000e+05) (69, 9.83429062500000000000e+05) (70, 9.83430812500000000000e+05) (71, 9.83431187500000000000e+05) (72, 9.83385937500000000000e+05) (73, 9.83430562500000000000e+05) (74, 9.83424812500000000000e+05) (75, -8.90374541282653808594e-01) (76, -6.24347209930419921875e-01) (77, 9.83430062500000000000e+05) (78, -3.58226001262664794922e-01) (79, -8.29797387123107910156e-01) (80, 7.97106444835662841797e-01) (81, 9.83431437500000000000e+05) (82, 9.83431562500000000000e+05) (83, 9.83431187500000000000e+05) (84, 9.83415562500000000000e+05) (85, 9.83429937500000000000e+05) (86, 9.83430437500000000000e+05) (87, 9.83427062500000000000e+05) (88, 9.83431187500000000000e+05) (30, -2.75413036346435546875e-01) (31, 9.82661875000000000000e+05) (32, 7.15983748435974121094e-01) (33, 9.82652000000000000000e+05) (34, 9.82661250000000000000e+05) (35, 5.10535240173339843750e-01) (36, 9.82661625000000000000e+05) (37, 2.84427165985107421875e-01) (38, 9.82662875000000000000e+05) (39, 8.76740336418151855469e-01) (40, 9.82663000000000000000e+05) (41, 9.82661000000000000000e+05) (42, 9.82662875000000000000e+05) (43, 9.82661125000000000000e+05) (44, 9.82661750000000000000e+05) (45, 9.82661625000000000000e+05) (46, 9.82662750000000000000e+05) (47, 9.82661125000000000000e+05) (48, 9.82662375000000000000e+05) (49, 9.82662250000000000000e+05) (50, 2.57353305816650390625e-01) (51, 9.82661500000000000000e+05) (52, 9.82662750000000000000e+05) (53, 9.82661000000000000000e+05) (54, 9.82662125000000000000e+05) (55, 4.66465950012207031250e-03) (56, 9.82662375000000000000e+05) (57, 9.82661625000000000000e+05) (58, -6.15951895713806152344e-01) (59, -8.50242078304290771484e-01) (60, 9.82662250000000000000e+05) (61, 9.82654625000000000000e+05) (62, -5.24626791477203369141e-01) (63, 9.82661625000000000000e+05) (64, 2.62218624353408813477e-01) (65, 9.59590750000000000000e+05) (66, 9.82661125000000000000e+05) (67, 9.82662750000000000000e+05) (68, 9.82662750000000000000e+05) (69, 9.82660750000000000000e+05) (70, 9.82661000000000000000e+05) (71, 9.82661375000000000000e+05) (72, 9.82625750000000000000e+05) (73, 9.82661375000000000000e+05) (74, 9.82658500000000000000e+05) (75, 4.14617657661437988281e-01) (76, -4.23182398080825805664e-01) (77, 9.82661375000000000000e+05) (78, -1.12926936149597167969e+00) (79, 5.33732771873474121094e-01) (80, 1.16441398859024047852e-02) (81, 9.82662000000000000000e+05) (82, 9.82662000000000000000e+05) (83, 9.82661250000000000000e+05) (84, 9.82650500000000000000e+05) (85, 9.82662750000000000000e+05) (86, 9.82662125000000000000e+05) (87, 9.82660250000000000000e+05) (88, 9.82661625000000000000e+05) (30, 8.46101045608520507812e-02) (31, 9.83473000000000000000e+05) (32, 3.40828418731689453125e-01) (33, 9.83459750000000000000e+05) (34, 9.83474500000000000000e+05) (35, -8.04718613624572753906e-01) (36, 9.83474750000000000000e+05) (37, 2.28027105331420898438e-01) (38, 9.83473375000000000000e+05) (39, -5.88946104049682617188e-01) (40, 9.83473375000000000000e+05) (41, 9.83473250000000000000e+05) (42, 9.83473375000000000000e+05) (43, 9.83474250000000000000e+05) (44, 9.83472625000000000000e+05) (45, 9.83474000000000000000e+05) (46, 9.83473500000000000000e+05) (47, 9.83474500000000000000e+05) (48, 9.83474625000000000000e+05) (49, 9.83473250000000000000e+05) (50, 6.86815202236175537109e-01) (51, 9.83473875000000000000e+05) (52, 9.83474375000000000000e+05) (53, 9.83473125000000000000e+05) (54, 9.83473125000000000000e+05) (55, 6.43326938152313232422e-01) (56, 9.83474375000000000000e+05) (57, 9.83474500000000000000e+05) (58, 5.28475582599639892578e-01) (59, -5.33568859100341796875e-03) (60, 9.83474375000000000000e+05) (61, 9.83462500000000000000e+05) (62, -9.65399980545043945312e-01) (63, 9.83472875000000000000e+05) (64, 1.24412225559353828430e-02) (65, 9.60265000000000000000e+05) (66, 9.83473875000000000000e+05) (67, 9.83473000000000000000e+05) (68, 9.83473750000000000000e+05) (69, 9.83473125000000000000e+05) (70, 9.83474375000000000000e+05) (71, 9.83473125000000000000e+05) (72, 9.83431875000000000000e+05) (73, 9.83474125000000000000e+05) (74, 9.83469875000000000000e+05) (75, 3.43069672584533691406e-01) (76, -8.10305774211883544922e-01) (77, 9.83474750000000000000e+05) (78, -7.64983236789703369141e-01) (79, -2.97925740480422973633e-01) (80, -5.40502429008483886719e-01) (81, 9.83474625000000000000e+05) (82, 9.83472875000000000000e+05) (83, 9.83473250000000000000e+05) (84, 9.83458000000000000000e+05) (85, 9.83473000000000000000e+05) (86, 9.83473250000000000000e+05) (87, 9.83471375000000000000e+05) (88, 9.83473000000000000000e+05) (30, -4.40676450729370117188e-01) (31, 9.82252937500000000000e+05) (32, 3.93372356891632080078e-01) (33, 9.82244312500000000000e+05) (34, 9.82253062500000000000e+05) (35, 6.35927796363830566406e-01) (36, 9.82251937500000000000e+05) (37, 3.14470291137695312500e-01) (38, 9.82252437500000000000e+05) (39, -8.71990501880645751953e-01) (40, 9.82253187500000000000e+05) (41, 9.82252937500000000000e+05) (42, 9.82252062500000000000e+05) (43, 9.82251562500000000000e+05) (44, 9.82251812500000000000e+05) (45, 9.82251437500000000000e+05) (46, 9.82251437500000000000e+05) (47, 9.82252437500000000000e+05) (48, 9.82251812500000000000e+05) (49, 9.82252687500000000000e+05) (50, -9.05373990535736083984e-02) (51, 9.82252062500000000000e+05) (52, 9.82251312500000000000e+05) (53, 9.82252562500000000000e+05) (54, 9.82251937500000000000e+05) (55, -8.21878790855407714844e-01) (56, 9.82251937500000000000e+05) (57, 9.82252062500000000000e+05) (58, 2.29552775621414184570e-01) (59, 5.55891990661621093750e-01) (60, 9.82251562500000000000e+05) (61, 9.82246687500000000000e+05) (62, -5.45657515525817871094e-01) (63, 9.82252062500000000000e+05) (64, -7.23322689533233642578e-01) (65, 9.59291187500000000000e+05) (66, 9.82252937500000000000e+05) (67, 9.82251812500000000000e+05) (68, 9.82251812500000000000e+05) (69, 9.82252437500000000000e+05) (70, 9.82251437500000000000e+05) (71, 9.82251812500000000000e+05) (72, 9.82219937500000000000e+05) (73, 9.82252562500000000000e+05) (74, 9.82250312500000000000e+05) (75, -4.19354021549224853516e-01) (76, -5.71450516581535339355e-02) (77, 9.82251187500000000000e+05) (78, -1.15463292598724365234e+00) (79, 6.43721461296081542969e-01) (80, -2.38395109772682189941e-01) (81, 9.82252062500000000000e+05) (82, 9.82252312500000000000e+05) (83, 9.82251687500000000000e+05) (84, 9.82243187500000000000e+05) (85, 9.82252437500000000000e+05) (86, 9.82252687500000000000e+05) (87, 9.82251312500000000000e+05) (88, 9.82252187500000000000e+05) (30, -5.23165404796600341797e-01) (31, 9.83532187500000000000e+05) (32, -6.56704366207122802734e-01) (33, 9.83517312500000000000e+05) (34, 9.83532812500000000000e+05) (35, 3.91545832157135009766e-01) (36, 9.83531937500000000000e+05) (37, -2.30751693248748779297e-01) (38, 9.83532562500000000000e+05) (39, -7.55409479141235351562e-01) (40, 9.83532437500000000000e+05) (41, 9.83532062500000000000e+05) (42, 9.83532562500000000000e+05) (43, 9.83531187500000000000e+05) (44, 9.83531062500000000000e+05) (45, 9.83531187500000000000e+05) (46, 9.83532312500000000000e+05) (47, 9.83532312500000000000e+05) (48, 9.83531812500000000000e+05) (49, 9.83531437500000000000e+05) (50, -6.28349244594573974609e-01) (51, 9.83531562500000000000e+05) (52, 9.83532062500000000000e+05) (53, 9.83531812500000000000e+05) (54, 9.83532437500000000000e+05) (55, -1.57808363437652587891e-01) (56, 9.83532187500000000000e+05) (57, 9.83532437500000000000e+05) (58, -8.56386005878448486328e-01) (59, -4.63877081871032714844e-01) (60, 9.83531937500000000000e+05) (61, 9.83521312500000000000e+05) (62, -3.64942729473114013672e-01) (63, 9.83531812500000000000e+05) (64, 4.33710843324661254883e-01) (65, 9.60322562500000000000e+05) (66, 9.83531062500000000000e+05) (67, 9.83531687500000000000e+05) (68, 9.83531937500000000000e+05) (69, 9.83530437500000000000e+05) (70, 9.83532937500000000000e+05) (71, 9.83531187500000000000e+05) (72, 9.83488562500000000000e+05) (73, 9.83531437500000000000e+05) (74, 9.83527812500000000000e+05) (75, -2.57615298032760620117e-01) (76, -7.26046085357666015625e-01) (77, 9.83532062500000000000e+05) (78, 9.87930446863174438477e-02) (79, 9.00028645992279052734e-01) (80, 4.32564109563827514648e-01) (81, 9.83532312500000000000e+05) (82, 9.83532937500000000000e+05) (83, 9.83532187500000000000e+05) (84, 9.83517312500000000000e+05) (85, 9.83532437500000000000e+05) (86, 9.83532062500000000000e+05) (87, 9.83528187500000000000e+05) (88, 9.83531562500000000000e+05) (30, -6.11518979072570800781e-01) (31, 9.83427625000000000000e+05) (32, -6.02063655853271484375e-01) (33, 9.83412375000000000000e+05) (34, 9.83426125000000000000e+05) (35, 2.73290872573852539062e-01) (36, 9.83427250000000000000e+05) (37, 2.96981930732727050781e-01) (38, 9.83426500000000000000e+05) (39, -9.88938748836517333984e-01) (40, 9.83425750000000000000e+05) (41, 9.83426125000000000000e+05) (42, 9.83426125000000000000e+05) (43, 9.83427125000000000000e+05) (44, 9.83425500000000000000e+05) (45, 9.83427250000000000000e+05) (46, 9.83426875000000000000e+05) (47, 9.83426000000000000000e+05) (48, 9.83426500000000000000e+05) (49, 9.83426750000000000000e+05) (50, -6.94113314151763916016e-01) (51, 9.83427375000000000000e+05) (52, 9.83427000000000000000e+05) (53, 9.83427125000000000000e+05) (54, 9.83426000000000000000e+05) (55, -8.83204281330108642578e-01) (56, 9.83427125000000000000e+05) (57, 9.83425750000000000000e+05) (58, -5.07048547267913818359e-01) (59, 3.77894639968872070312e-01) (60, 9.83425375000000000000e+05) (61, 9.83414625000000000000e+05) (62, -5.21633803844451904297e-01) (63, 9.83427125000000000000e+05) (64, -4.38329041004180908203e-01) (65, 9.60185875000000000000e+05) (66, 9.83425375000000000000e+05) (67, 9.83427375000000000000e+05) (68, 9.83427625000000000000e+05) (69, 9.83425750000000000000e+05) (70, 9.83426875000000000000e+05) (71, 9.83426750000000000000e+05) (72, 9.83383375000000000000e+05) (73, 9.83427375000000000000e+05) (74, 9.83422000000000000000e+05) (75, 3.75084161758422851562e-01) (76, 1.28405845165252685547e+00) (77, 9.83426250000000000000e+05) (78, 4.41677570343017578125e-01) (79, -5.30188322067260742188e-01) (80, -4.16612446308135986328e-01) (81, 9.83425875000000000000e+05) (82, 9.83426500000000000000e+05) (83, 9.83426625000000000000e+05) (84, 9.83410625000000000000e+05) (85, 9.83426375000000000000e+05) (86, 9.83426500000000000000e+05) (87, 9.83423250000000000000e+05) (88, 9.83426875000000000000e+05) (30, 3.96287918090820312500e-01) (31, -4.01293792724609375000e+01) (32, -8.05659711360931396484e-01) (33, -3.99568328857421875000e+01) (34, -4.18669624328613281250e+01) (35, 8.50122347474098205566e-02) (36, -4.13828468322753906250e+01) (37, 9.28463101387023925781e-01) (38, -4.14742698669433593750e+01) (39, 9.95774865150451660156e-01) (40, -4.14600906372070312500e+01) (41, -4.12600746154785156250e+01) (42, -3.98197479248046875000e+01) (43, -4.13937988281250000000e+01) (44, -4.02118072509765625000e+01) (45, -4.12215690612792968750e+01) (46, -3.98310089111328125000e+01) (47, -4.18056526184082031250e+01) (48, -4.07749061584472656250e+01) (49, -4.11920471191406250000e+01) (50, -8.83570551872253417969e-01) (51, -4.01731948852539062500e+01) (52, -4.04801292419433593750e+01) (53, -4.19389877319335937500e+01) (54, -4.16366424560546875000e+01) (55, 8.47637951374053955078e-01) (56, -4.05978584289550781250e+01) (57, -4.13916244506835937500e+01) (58, -5.01089453697204589844e-01) (59, 9.12578463554382324219e-01) (60, -4.11306877136230468750e+01) (61, -4.00868949890136718750e+01) (62, 6.30848050117492675781e-01) (63, -4.20521621704101562500e+01) (64, -1.02567172050476074219e+00) (65, -2.76462764739990234375e+01) (66, -3.98794631958007812500e+01) (67, -4.02829895019531250000e+01) (68, -4.19673004150390625000e+01) (69, -4.06185531616210937500e+01) (70, -4.06462402343750000000e+01) (71, -4.03083724975585937500e+01) (72, -3.99329109191894531250e+01) (73, -4.04439926147460937500e+01) (74, -3.98096733093261718750e+01) (75, 2.64057397842407226562e-01) (76, 2.33654361218214035034e-02) (77, -4.15166320800781250000e+01) (78, -6.36473521590232849121e-02) (79, 6.22086346149444580078e-01) (80, -6.56606256961822509766e-01) (81, -4.15845489501953125000e+01) (82, -4.08366622924804687500e+01) (83, -4.14289550781250000000e+01) (84, -3.99058303833007812500e+01) (85, -4.08469505310058593750e+01) (86, -4.19802398681640625000e+01) (87, -4.10998954772949218750e+01) (88, -4.12383193969726562500e+01) (30, 6.92080020904541015625e-01) (31, 9.77537250000000000000e+05) (32, -6.53541982173919677734e-01) (33, 9.77537125000000000000e+05) (34, 9.77538125000000000000e+05) (35, -1.12113046646118164062e+00) (36, 9.77537125000000000000e+05) (37, -5.79528450965881347656e-01) (38, 9.77537125000000000000e+05) (39, 1.74923181533813476562e-01) (40, 9.77537125000000000000e+05) (41, 9.77538125000000000000e+05) (42, 9.77538000000000000000e+05) (43, 9.77538250000000000000e+05) (44, 9.77537812500000000000e+05) (45, 9.77537750000000000000e+05) (46, 9.77537437500000000000e+05) (47, 9.77538187500000000000e+05) (48, 9.77537312500000000000e+05) (49, 9.77537812500000000000e+05) (50, 1.66090786457061767578e-01) (51, 9.77537625000000000000e+05) (52, 9.77537062500000000000e+05) (53, 9.77537750000000000000e+05) (54, 9.77538312500000000000e+05) (55, 2.05053150653839111328e-01) (56, 9.77536875000000000000e+05) (57, 9.77536687500000000000e+05) (58, 5.42027294635772705078e-01) (59, 3.33109378814697265625e-01) (60, 9.77538375000000000000e+05) (61, 9.77537937500000000000e+05) (62, 8.34155559539794921875e-01) (63, 9.77537812500000000000e+05) (64, -3.68956416845321655273e-01) (65, 9.55392500000000000000e+05) (66, 9.77538937500000000000e+05) (67, 9.77536875000000000000e+05) (68, 9.77537062500000000000e+05) (69, 9.77537875000000000000e+05) (70, 9.77537875000000000000e+05) (71, 9.77537562500000000000e+05) (72, 9.77528937500000000000e+05) (73, 9.77537812500000000000e+05) (74, 9.77537875000000000000e+05) (75, -9.71055507659912109375e-01) (76, -8.66321980953216552734e-01) (77, 9.77536812500000000000e+05) (78, -1.51130795478820800781e-01) (79, -2.68525183200836181641e-01) (80, 1.62688672542572021484e-01) (81, 9.77538312500000000000e+05) (82, 9.77536937500000000000e+05) (83, 9.77538625000000000000e+05) (84, 9.77537562500000000000e+05) (85, 9.77537187500000000000e+05) (86, 9.77537500000000000000e+05) (87, 9.77537250000000000000e+05) (88, 9.77537125000000000000e+05) (89, 6.13663444519042968750e+01) (90, -6.36315979003906250000e+02) (91, 6.22586860656738281250e+01) (92, 6.08401756286621093750e+01) (93, 6.27324485778808593750e+01) (94, 5.69048271179199218750e+01) (95, 5.97555885314941406250e+01) (96, 5.20607795715332031250e+01) (97, 5.91478538513183593750e+01) (98, 6.30057792663574218750e+01) (99, -6.73924148082733154297e-01) (100, 3.30545310974121093750e+01) (101, 6.26406211853027343750e+01) (89, 1.58392637968063354492e-01) (90, -5.76700806617736816406e-01) (91, 3.33884030580520629883e-01) (92, 2.92514085769653320312e-01) (93, 1.08863103389739990234e+00) (94, -7.76696741580963134766e-01) (95, 1.10086381435394287109e+00) (96, -3.28955388069152832031e+00) (97, 8.58061015605926513672e-01) (98, -2.76734590530395507812e-01) (99, 3.74681442975997924805e-01) (100, -3.94561886787414550781e-03) (101, 1.19046390056610107422e+00) (89, 2.27750241756439208984e-01) (90, 7.61649012565612792969e-01) (91, 9.42043125629425048828e-01) (92, -3.74484747648239135742e-01) (93, 9.97224867343902587891e-01) (94, -1.06634998321533203125e+00) (95, -4.11734580993652343750e-01) (96, -1.97455954551696777344e+00) (97, 1.34665060043334960938e+00) (98, -1.31211385130882263184e-01) (99, 9.71165299415588378906e-01) (100, -2.02456355094909667969e-01) (101, -1.85131393373012542725e-02) (89, -1.22383177280426025391e-01) (90, -1.15302249789237976074e-01) (91, 9.59916532039642333984e-01) (92, 5.16932308673858642578e-01) (93, 3.86608511209487915039e-01) (94, -1.38922059535980224609e+00) (95, -3.95413130521774291992e-01) (96, -3.09528326988220214844e+00) (97, 7.36811757087707519531e-02) (98, 2.01741829514503479004e-01) (99, -2.61922717094421386719e-01) (100, 1.19390524923801422119e-02) (101, -5.78892350196838378906e-01) (89, -1.00482363281250000000e+04) (90, -6.62745800781250000000e+03) (91, -1.00495351562500000000e+04) (92, -1.00493193359375000000e+04) (93, -1.00489521484375000000e+04) (94, -1.00434882812500000000e+04) (95, -1.00476679687500000000e+04) (96, -1.00424707031250000000e+04) (97, -1.00487636718750000000e+04) (98, -1.00485771484375000000e+04) (99, 3.53959798812866210938e-01) (100, -1.00184824218750000000e+04) (101, -1.00498906250000000000e+04) (89, -9.88987695312500000000e+03) (90, -6.57241113281250000000e+03) (91, -9.89097753906250000000e+03) (92, -9.88988574218750000000e+03) (93, -9.88891308593750000000e+03) (94, -9.88658007812500000000e+03) (95, -9.89067187500000000000e+03) (96, -9.88344042968750000000e+03) (97, -9.89015136718750000000e+03) (98, -9.88927246093750000000e+03) (99, 5.33748753368854522705e-02) (100, -9.85963671875000000000e+03) (101, -9.89156054687500000000e+03) 
