FANN_FLO_2.1
num_layers=4
learning_rate=0.700000
connection_rate=1.000000
network_type=0
learning_momentum=0.000000
training_algorithm=2
train_error_function=1
train_stop_function=0
cascade_output_change_fraction=0.010000
quickprop_decay=-0.000100
quickprop_mu=1.750000
rprop_increase_factor=1.200000
rprop_decrease_factor=0.500000
rprop_delta_min=0.000000
rprop_delta_max=50.000000
rprop_delta_zero=0.100000
cascade_output_stagnation_epochs=12
cascade_candidate_change_fraction=0.010000
cascade_candidate_stagnation_epochs=12
cascade_max_out_epochs=150
cascade_min_out_epochs=50
cascade_max_cand_epochs=150
cascade_min_cand_epochs=50
cascade_num_candidate_groups=2
bit_fail_limit=3.49999994039535522461e-01
cascade_candidate_limit=1.00000000000000000000e+03
cascade_weight_multiplier=4.00000005960464477539e-01
cascade_activation_functions_count=10
cascade_activation_functions=3 5 7 8 10 11 14 15 16 17 
cascade_activation_steepnesses_count=4
cascade_activation_steepnesses=2.50000000000000000000e-01 5.00000000000000000000e-01 7.50000000000000000000e-01 1.00000000000000000000e+00 
layer_sizes=30 59 13 7 
scale_included=0
neurons (num_inputs, activation_function, activation_steepness)=(0, 0, 0.00000000000000000000e+00) (0, 0, 0.00000000000000000000e+00) (0, 0, 0.00000000000000000000e+00) (0, 0, 0.00000000000000000000e+00) (0, 0, 0.00000000000000000000e+00) (0, 0, 0.00000000000000000000e+00) (0, 0, 0.00000000000000000000e+00) (0, 0, 0.00000000000000000000e+00) (0, 0, 0.00000000000000000000e+00) (0, 0, 0.00000000000000000000e+00) (0, 0, 0.00000000000000000000e+00) (0, 0, 0.00000000000000000000e+00) (0, 0, 0.00000000000000000000e+00) (0, 0, 0.00000000000000000000e+00) (0, 0, 0.00000000000000000000e+00) (0, 0, 0.00000000000000000000e+00) (0, 0, 0.00000000000000000000e+00) (0, 0, 0.00000000000000000000e+00) (0, 0, 0.00000000000000000000e+00) (0, 0, 0.00000000000000000000e+00) (0, 0, 0.00000000000000000000e+00) (0, 0, 0.00000000000000000000e+00) (0, 0, 0.00000000000000000000e+00) (0, 0, 0.00000000000000000000e+00) (0, 0, 0.00000000000000000000e+00) (0, 0, 0.00000000000000000000e+00) (0, 0, 0.00000000000000000000e+00) (0, 0, 0.00000000000000000000e+00) (0, 0, 0.00000000000000000000e+00) (0, 0, 0.00000000000000000000e+00) (30, 4, 5.00000000000000000000e-01) (30, 4, 5.00000000000000000000e-01) (30, 4, 5.00000000000000000000e-01) (30, 4, 5.00000000000000000000e-01) (30, 4, 5.00000000000000000000e-01) (30, 4, 5.00000000000000000000e-01) (30, 4, 5.00000000000000000000e-01) (30, 4, 5.00000000000000000000e-01) (30, 4, 5.00000000000000000000e-01) (30, 4, 5.00000000000000000000e-01) (30, 4, 5.00000000000000000000e-01) (30, 4, 5.00000000000000000000e-01) (30, 4, 5.00000000000000000000e-01) (30, 4, 5.00000000000000000000e-01) (30, 4, 5.00000000000000000000e-01) (30, 4, 5.00000000000000000000e-01) (30, 4, 5.00000000000000000000e-01) (30, 4, 5.00000000000000000000e-01) (30, 4, 5.00000000000000000000e-01) (30, 4, 5.00000000000000000000e-01) (30, 4, 5.00000000000000000000e-01) (30, 4, 5.00000000000000000000e-01) (30, 4, 5.00000000000000000000e-01) (30, 4, 5.00000000000000000000e-01) (30, 4, 5.00000000000000000000e-01) (30, 4, 5.00000000000000000000e-01) (30, 4, 5.00000000000000000000e-01) (30, 4, 5.00000000000000000000e-01) (30, 4, 5.00000000000000000000e-01) (30, 4, 5.00000000000000000000e-01) (30, 4, 5.00000000000000000000e-01) (30, 4, 5.00000000000000000000e-01) (30, 4, 5.00000000000000000000e-01) (30, 4, 5.00000000000000000000e-01) (30, 4, 5.00000000000000000000e-01) (30, 4, 5.00000000000000000000e-01) (30, 4, 5.00000000000000000000e-01) (30, 4, 5.00000000000000000000e-01) (30, 4, 5.00000000000000000000e-01) (30, 4, 5.00000000000000000000e-01) (30, 4, 5.00000000000000000000e-01) (30, 4, 5.00000000000000000000e-01) (30, 4, 5.00000000000000000000e-01) (30, 4, 5.00000000000000000000e-01) (30, 4, 5.00000000000000000000e-01) (30, 4, 5.00000000000000000000e-01) (30, 4, 5.00000000000000000000e-01) (30, 4, 5.00000000000000000000e-01) (30, 4, 5.00000000000000000000e-01) (30, 4, 5.00000000000000000000e-01) (30, 4, 5.00000000000000000000e-01) (30, 4, 5.00000000000000000000e-01) (30, 4, 5.00000000000000000000e-01) (30, 4, 5.00000000000000000000e-01) (30, 4, 5.00000000000000000000e-01) (30, 4, 5.00000000000000000000e-01) (30, 4, 5.00000000000000000000e-01) (30, 4, 5.00000000000000000000e-01) (0, 0, 0.00000000000000000000e+00) (59, 4, 5.00000000000000000000e-01) (59, 4, 5.00000000000000000000e-01) (59, 4, 5.00000000000000000000e-01) (59, 4, 5.00000000000000000000e-01) (59, 4, 5.00000000000000000000e-01) (59, 4, 5.00000000000000000000e-01) (59, 4, 5.00000000000000000000e-01) (59, 4, 5.00000000000000000000e-01) (59, 4, 5.00000000000000000000e-01) (59, 4, 5.00000000000000000000e-01) (59, 4, 5.00000000000000000000e-01) (59, 4, 5.00000000000000000000e-01) (0, 0, 0.00000000000000000000e+00) (13, 4, 5.00000000000000000000e-01) (13, 4, 5.00000000000000000000e-01) (13, 4, 5.00000000000000000000e-01) (13, 4, 5.00000000000000000000e-01) (13, 4, 5.00000000000000000000e-01) (13, 4, 5.00000000000000000000e-01) (0, 0, 0.00000000000000000000e+00) 
connections (connected_to_neuron, weight)=(0, -1.88141750000000000000e+05) (1, -2.37561593750000000000e+05) (2, -3.03667031250000000000e+05) (3, -3.18822500000000000000e+05) (4, -1.13909039062500000000e+05) (5, -1.45112984375000000000e+05) (6, -2.89048294400000000000e+09) (7, -4.73553150000000000000e+06) (8, -4.00495976562500000000e+04) (9, -4.25117070312500000000e+04) (10, 2.20117695312500000000e+04) (11, -1.81302421875000000000e+04) (12, -5.13923984375000000000e+04) (13, -4.34254335937500000000e+04) (14, -4.69142343750000000000e+04) (15, -4.65327421875000000000e+04) (16, -4.82857500000000000000e+04) (17, -4.99094218750000000000e+04) (18, -1.49291792000000000000e+08) (19, -1.08251150000000000000e+07) (20, -4.66054882812500000000e+04) (21, -4.53651250000000000000e+04) (22, -3.36860742187500000000e+04) (23, -1.87412695312500000000e+04) (24, -1.92656250000000000000e+04) (25, -1.81490019531250000000e+04) (26, -4.15620000000000000000e+04) (27, -3.75439023437500000000e+04) (28, 9.17768560000000000000e+07) (29, -3.67599257812500000000e+04) (0, 9.87982970880000000000e+10) (1, 1.00116365312000000000e+11) (2, 1.02001418240000000000e+11) (3, 1.03114530816000000000e+11) (4, 9.64745707520000000000e+10) (5, 9.77472716800000000000e+10) (6, 8.46117113692160000000e+13) (7, 3.02272708608000000000e+11) (8, 9.27491522560000000000e+10) (9, 9.28221921280000000000e+10) (10, 5.25437542400000000000e+10) (11, 6.65609256960000000000e+10) (12, 9.38945003520000000000e+10) (13, 5.86358210560000000000e+10) (14, 9.37450700800000000000e+10) (15, 9.36961474560000000000e+10) (16, 9.37907732480000000000e+10) (17, 9.38170613760000000000e+10) (18, 4.78164602060800000000e+12) (19, 7.74410731520000000000e+11) (20, 8.62686904320000000000e+10) (21, 8.65933148160000000000e+10) (22, 6.70895964160000000000e+10) (23, 4.96881418240000000000e+10) (24, 4.66306662400000000000e+10) (25, 4.66472919040000000000e+10) (26, 8.39106068480000000000e+10) (27, 8.05378785280000000000e+10) (28, -6.38406990233600000000e+12) (29, 9.32848435200000000000e+10) (0, -4.13791406250000000000e+04) (1, -5.19724531250000000000e+04) (2, -6.63584375000000000000e+04) (3, -6.96673437500000000000e+04) (4, -2.53160312500000000000e+04) (5, -3.20652617187500000000e+04) (6, -6.24196864000000000000e+08) (7, -1.02510212500000000000e+06) (8, -9.33854003906250000000e+03) (9, -9.87020800781250000000e+03) (10, 4.37238525390625000000e+03) (11, -4.45575439453125000000e+03) (12, -1.17931757812500000000e+04) (13, -9.83528613281250000000e+03) (14, -1.08307021484375000000e+04) (15, -1.07451445312500000000e+04) (16, -1.11248222656250000000e+04) (17, -1.14728212890625000000e+04) (18, -3.23075360000000000000e+07) (19, -2.36686225000000000000e+06) (20, -1.07169599609375000000e+04) (21, -1.04475966796875000000e+04) (22, -7.73596142578125000000e+03) (23, -4.41280371093750000000e+03) (24, -4.49019775390625000000e+03) (25, -4.26643750000000000000e+03) (26, -9.59607226562500000000e+03) (27, -8.68296875000000000000e+03) (28, 2.03527080000000000000e+07) (29, -8.63331152343750000000e+03) (0, 9.87912437760000000000e+10) (1, 1.00107534336000000000e+11) (2, 1.01990170624000000000e+11) (3, 1.03102767104000000000e+11) (4, 9.64701880320000000000e+10) (5, 9.77417502720000000000e+10) (6, 8.45076506869760000000e+13) (7, 3.02102708224000000000e+11) (8, 9.27475056640000000000e+10) (9, 9.28203489280000000000e+10) (10, 5.25444464640000000000e+10) (11, 6.65600942080000000000e+10) (12, 9.38923786240000000000e+10) (13, 5.86340392960000000000e+10) (14, 9.37430794240000000000e+10) (15, 9.36942141440000000000e+10) (16, 9.37887580160000000000e+10) (17, 9.38150051840000000000e+10) (18, 4.77626105856000000000e+12) (19, 7.74018695168000000000e+11) (20, 8.62666670080000000000e+10) (21, 8.65913733120000000000e+10) (22, 6.70881341440000000000e+10) (23, 4.96873472000000000000e+10) (24, 4.66298265600000000000e+10) (25, 4.66464849920000000000e+10) (26, 8.39088128000000000000e+10) (27, 8.05363138560000000000e+10) (28, -6.38074906214400000000e+12) (29, 9.32832215040000000000e+10) (0, 9.87984691200000000000e+10) (1, 1.00116586496000000000e+11) (2, 1.02001704960000000000e+11) (3, 1.03114825728000000000e+11) (4, 9.64747100160000000000e+10) (5, 9.77474273280000000000e+10) (6, 8.46142866718720000000e+13) (7, 3.02276575232000000000e+11) (8, 9.27492177920000000000e+10) (9, 9.28222330880000000000e+10) (10, 5.25437460480000000000e+10) (11, 6.65609543680000000000e+10) (12, 9.38945904640000000000e+10) (13, 5.86358743040000000000e+10) (14, 9.37451110400000000000e+10) (15, 9.36962293760000000000e+10) (16, 9.37908469760000000000e+10) (17, 9.38171187200000000000e+10) (18, 4.78177237401600000000e+12) (19, 7.74420234240000000000e+11) (20, 8.62687477760000000000e+10) (21, 8.65933967360000000000e+10) (22, 6.70896373760000000000e+10) (23, 4.96881704960000000000e+10) (24, 4.66306990080000000000e+10) (25, 4.66473164800000000000e+10) (26, 8.39106478080000000000e+10) (27, 8.05379112960000000000e+10) (28, -6.38414749696000000000e+12) (29, 9.32849008640000000000e+10) (0, -1.09704046875000000000e+05) (1, -1.37380187500000000000e+05) (2, -1.74850296875000000000e+05) (3, -1.83447984375000000000e+05) (4, -6.78290546875000000000e+04) (5, -8.54281718750000000000e+04) (6, -1.62812249600000000000e+09) (7, -2.67443975000000000000e+06) (8, -2.61457460937500000000e+04) (9, -2.75345078125000000000e+04) (10, 1.06126640625000000000e+04) (11, -1.30049755859375000000e+04) (12, -3.25692324218750000000e+04) (13, -2.67105937500000000000e+04) (14, -3.00521699218750000000e+04) (15, -2.98305859375000000000e+04) (16, -3.08229511718750000000e+04) (17, -3.17323652343750000000e+04) (18, -8.42277600000000000000e+07) (19, -6.16069100000000000000e+06) (20, -2.96135898437500000000e+04) (21, -2.89238808593750000000e+04) (22, -2.13921992187500000000e+04) (23, -1.24654082031250000000e+04) (24, -1.26274804687500000000e+04) (25, -1.20319453125000000000e+04) (26, -2.66501542968750000000e+04) (27, -2.41615820312500000000e+04) (28, 5.25812640000000000000e+07) (29, -2.43270214843750000000e+04) (0, 9.87981742080000000000e+10) (1, 1.00116217856000000000e+11) (2, 1.02001254400000000000e+11) (3, 1.03114366976000000000e+11) (4, 9.64745052160000000000e+10) (5, 9.77471815680000000000e+10) (6, 8.46102853058560000000e+13) (7, 3.02270382080000000000e+11) (8, 9.27491358720000000000e+10) (9, 9.28221757440000000000e+10) (10, 5.25437665280000000000e+10) (11, 6.65609134080000000000e+10) (12, 9.38944757760000000000e+10) (13, 5.86357923840000000000e+10) (14, 9.37450455040000000000e+10) (15, 9.36961310720000000000e+10) (16, 9.37907486720000000000e+10) (17, 9.38170204160000000000e+10) (18, 4.78156999884800000000e+12) (19, 7.74404964352000000000e+11) (20, 8.62686576640000000000e+10) (21, 8.65932984320000000000e+10) (22, 6.70895841280000000000e+10) (23, 4.96881254400000000000e+10) (24, 4.66306498560000000000e+10) (25, 4.66472714240000000000e+10) (26, 8.39105822720000000000e+10) (27, 8.05378539520000000000e+10) (28, -6.38402324070400000000e+12) (29, 9.32848025600000000000e+10) (0, -3.63402382812500000000e+04) (1, -4.44060312500000000000e+04) (2, -5.53627539062500000000e+04) (3, -5.78907695312500000000e+04) (4, -2.41030878906250000000e+04) (5, -2.92495898437500000000e+04) (6, -4.75528000000000000000e+08) (7, -7.85855000000000000000e+05) (8, -1.18870283203125000000e+04) (9, -1.22978310546875000000e+04) (10, 1.11390429687500000000e+03) (11, -7.09727929687500000000e+03) (12, -1.38092832031250000000e+04) (13, -1.03823710937500000000e+04) (14, -1.30744150390625000000e+04) (15, -1.30101669921875000000e+04) (16, -1.32988740234375000000e+04) (17, -1.35644257812500000000e+04) (18, -2.46184740000000000000e+07) (19, -1.81291412500000000000e+06) (20, -1.26097089843750000000e+04) (21, -1.24290781250000000000e+04) (22, -9.12440527343750000000e+03) (23, -5.90855322265625000000e+03) (24, -5.83113818359375000000e+03) (25, -5.66313867187500000000e+03) (26, -1.16374570312500000000e+04) (27, -1.06479082031250000000e+04) (28, 1.55782040000000000000e+07) (29, -1.14013525390625000000e+04) (0, 9.87983380480000000000e+10) (1, 1.00116422656000000000e+11) (2, 1.02001508352000000000e+11) (3, 1.03114620928000000000e+11) (4, 9.64746199040000000000e+10) (5, 9.77473290240000000000e+10) (6, 8.46125334528000000000e+13) (7, 3.02273888256000000000e+11) (8, 9.27491932160000000000e+10) (9, 9.28222085120000000000e+10) (10, 5.25437583360000000000e+10) (11, 6.65609379840000000000e+10) (12, 9.38945249280000000000e+10) (13, 5.86358415360000000000e+10) (14, 9.37450864640000000000e+10) (15, 9.36961966080000000000e+10) (16, 9.37907978240000000000e+10) (17, 9.38170859520000000000e+10) (18, 4.78168586649600000000e+12) (19, 7.74413746176000000000e+11) (20, 8.62687150080000000000e+10) (21, 8.65933639680000000000e+10) (22, 6.70896128000000000000e+10) (23, 4.96881541120000000000e+10) (24, 4.66306785280000000000e+10) (25, 4.66472960000000000000e+10) (26, 8.39106232320000000000e+10) (27, 8.05378867200000000000e+10) (28, -6.38409349529600000000e+12) (29, 9.32848680960000000000e+10) (0, -5.16699218750000000000e+04) (1, -6.41804335937500000000e+04) (2, -8.09413281250000000000e+04) (3, -8.47893203125000000000e+04) (4, -3.28849765625000000000e+04) (5, -4.07811289062500000000e+04) (6, -7.31821888000000000000e+08) (7, -1.20263275000000000000e+06) (8, -1.41430205078125000000e+04) (9, -1.47693203125000000000e+04) (10, 3.71333715820312500000e+03) (11, -7.69460351562500000000e+03) (12, -1.70548457031250000000e+04) (13, -1.34188505859375000000e+04) (14, -1.59222314453125000000e+04) (15, -1.58238066406250000000e+04) (16, -1.62674687500000000000e+04) (17, -1.66776484375000000000e+04) (18, -3.78065520000000000000e+07) (19, -2.74832100000000000000e+06) (20, -1.55296699218750000000e+04) (21, -1.52364091796875000000e+04) (22, -1.12377363281250000000e+04) (23, -6.87820263671875000000e+03) (24, -6.89638916015625000000e+03) (25, -6.61653564453125000000e+03) (26, -1.41493027343750000000e+04) (27, -1.28842216796875000000e+04) (28, 2.31619940000000000000e+07) (29, -1.33513847656250000000e+04) (0, 9.87983872000000000000e+10) (1, 1.00116488192000000000e+11) (2, 1.02001590272000000000e+11) (3, 1.03114719232000000000e+11) (4, 9.64746526720000000000e+10) (5, 9.77473454080000000000e+10) (6, 8.46132884275200000000e+13) (7, 3.02275100672000000000e+11) (8, 9.27491850240000000000e+10) (9, 9.28222085120000000000e+10) (10, 5.25437460480000000000e+10) (11, 6.65609379840000000000e+10) (12, 9.38945167360000000000e+10) (13, 5.86358497280000000000e+10) (14, 9.37450946560000000000e+10) (15, 9.36962129920000000000e+10) (16, 9.37907896320000000000e+10) (17, 9.38170859520000000000e+10) (18, 4.78172466380800000000e+12) (19, 7.74416760832000000000e+11) (20, 8.62687150080000000000e+10) (21, 8.65933639680000000000e+10) (22, 6.70896168960000000000e+10) (23, 4.96881541120000000000e+10) (24, 4.66306785280000000000e+10) (25, 4.66473041920000000000e+10) (26, 8.39106232320000000000e+10) (27, 8.05378949120000000000e+10) (28, -6.38411708825600000000e+12) (29, 9.32848680960000000000e+10) (0, 9.87982970880000000000e+10) (1, 1.00116365312000000000e+11) (2, 1.02001434624000000000e+11) (3, 1.03114547200000000000e+11) (4, 9.64745871360000000000e+10) (5, 9.77472880640000000000e+10) (6, 8.46117617008640000000e+13) (7, 3.02272806912000000000e+11) (8, 9.27491686400000000000e+10) (9, 9.28222003200000000000e+10) (10, 5.25437542400000000000e+10) (11, 6.65609338880000000000e+10) (12, 9.38945167360000000000e+10) (13, 5.86358292480000000000e+10) (14, 9.37450782720000000000e+10) (15, 9.36961802240000000000e+10) (16, 9.37907732480000000000e+10) (17, 9.38170613760000000000e+10) (18, 4.78165021491200000000e+12) (19, 7.74411059200000000000e+11) (20, 8.62686904320000000000e+10) (21, 8.65933312000000000000e+10) (22, 6.70896005120000000000e+10) (23, 4.96881500160000000000e+10) (24, 4.66306744320000000000e+10) (25, 4.66472919040000000000e+10) (26, 8.39106068480000000000e+10) (27, 8.05378867200000000000e+10) (28, -6.38407304806400000000e+12) (29, 9.32848435200000000000e+10) (0, 9.87983380480000000000e+10) (1, 1.00116422656000000000e+11) (2, 1.02001491968000000000e+11) (3, 1.03114604544000000000e+11) (4, 9.64746199040000000000e+10) (5, 9.77473126400000000000e+10) (6, 8.46124495667200000000e+13) (7, 3.02273724416000000000e+11) (8, 9.27491850240000000000e+10) (9, 9.28222085120000000000e+10) (10, 5.25437583360000000000e+10) (11, 6.65609379840000000000e+10) (12, 9.38945167360000000000e+10) (13, 5.86358415360000000000e+10) (14, 9.37450864640000000000e+10) (15, 9.36961966080000000000e+10) (16, 9.37907896320000000000e+10) (17, 9.38170941440000000000e+10) (18, 4.78168062361600000000e+12) (19, 7.74413549568000000000e+11) (20, 8.62687068160000000000e+10) (21, 8.65933475840000000000e+10) (22, 6.70896168960000000000e+10) (23, 4.96881500160000000000e+10) (24, 4.66306785280000000000e+10) (25, 4.66472960000000000000e+10) (26, 8.39106232320000000000e+10) (27, 8.05378867200000000000e+10) (28, -6.38409192243200000000e+12) (29, 9.32848517120000000000e+10) (0, 9.87983544320000000000e+10) (1, 1.00116439040000000000e+11) (2, 1.02001508352000000000e+11) (3, 1.03114637312000000000e+11) (4, 9.64746362880000000000e+10) (5, 9.77473290240000000000e+10) (6, 8.46126005616640000000e+13) (7, 3.02273986560000000000e+11) (8, 9.27491850240000000000e+10) (9, 9.28222085120000000000e+10) (10, 5.25437542400000000000e+10) (11, 6.65609420800000000000e+10) (12, 9.38945167360000000000e+10) (13, 5.86358415360000000000e+10) (14, 9.37450864640000000000e+10) (15, 9.36961802240000000000e+10) (16, 9.37907896320000000000e+10) (17, 9.38170859520000000000e+10) (18, 4.78168743936000000000e+12) (19, 7.74414008320000000000e+11) (20, 8.62687150080000000000e+10) (21, 8.65933639680000000000e+10) (22, 6.70896168960000000000e+10) (23, 4.96881541120000000000e+10) (24, 4.66306785280000000000e+10) (25, 4.66473041920000000000e+10) (26, 8.39106232320000000000e+10) (27, 8.05378867200000000000e+10) (28, -6.38409611673600000000e+12) (29, 9.32848680960000000000e+10) (0, 9.87981086720000000000e+10) (1, 1.00116135936000000000e+11) (2, 1.02001156096000000000e+11) (3, 1.03114268672000000000e+11) (4, 9.64744724480000000000e+10) (5, 9.77471406080000000000e+10) (6, 8.46094128906240000000e+13) (7, 3.02268973056000000000e+11) (8, 9.27491194880000000000e+10) (9, 9.28221675520000000000e+10) (10, 5.25437747200000000000e+10) (11, 6.65609093120000000000e+10) (12, 9.38944675840000000000e+10) (13, 5.86357760000000000000e+10) (14, 9.37450291200000000000e+10) (15, 9.36961064960000000000e+10) (16, 9.37907404800000000000e+10) (17, 9.38170040320000000000e+10) (18, 4.78151966720000000000e+12) (19, 7.74401097728000000000e+11) (20, 8.62686412800000000000e+10) (21, 8.65932820480000000000e+10) (22, 6.70895759360000000000e+10) (23, 4.96881172480000000000e+10) (24, 4.66306457600000000000e+10) (25, 4.66472632320000000000e+10) (26, 8.39105658880000000000e+10) (27, 8.05378457600000000000e+10) (28, -6.38399283200000000000e+12) (29, 9.32847943680000000000e+10) (0, 9.87982151680000000000e+10) (1, 1.00116267008000000000e+11) (2, 1.02001311744000000000e+11) (3, 1.03114424320000000000e+11) (4, 9.64745379840000000000e+10) (5, 9.77472143360000000000e+10) (6, 8.46108976742400000000e+13) (7, 3.02271332352000000000e+11) (8, 9.27491358720000000000e+10) (9, 9.28221839360000000000e+10) (10, 5.25437583360000000000e+10) (11, 6.65609256960000000000e+10) (12, 9.38944921600000000000e+10) (13, 5.86358005760000000000e+10) (14, 9.37450618880000000000e+10) (15, 9.36961474560000000000e+10) (16, 9.37907650560000000000e+10) (17, 9.38170286080000000000e+10) (18, 4.78160198041600000000e+12) (19, 7.74407585792000000000e+11) (20, 8.62686576640000000000e+10) (21, 8.65932984320000000000e+10) (22, 6.70895841280000000000e+10) (23, 4.96881295360000000000e+10) (24, 4.66306539520000000000e+10) (25, 4.66472755200000000000e+10) (26, 8.39105904640000000000e+10) (27, 8.05378621440000000000e+10) (28, -6.38404263936000000000e+12) (29, 9.32848107520000000000e+10) (0, 9.87982233600000000000e+10) (1, 1.00116275200000000000e+11) (2, 1.02001311744000000000e+11) (3, 1.03114440704000000000e+11) (4, 9.64745461760000000000e+10) (5, 9.77472307200000000000e+10) (6, 8.46108557312000000000e+13) (7, 3.02271266816000000000e+11) (8, 9.27491440640000000000e+10) (9, 9.28221839360000000000e+10) (10, 5.25437624320000000000e+10) (11, 6.65609256960000000000e+10) (12, 9.38944921600000000000e+10) (13, 5.86358087680000000000e+10) (14, 9.37450536960000000000e+10) (15, 9.36961474560000000000e+10) (16, 9.37907650560000000000e+10) (17, 9.38170286080000000000e+10) (18, 4.78160093184000000000e+12) (19, 7.74407323648000000000e+11) (20, 8.62686658560000000000e+10) (21, 8.65933066240000000000e+10) (22, 6.70895882240000000000e+10) (23, 4.96881377280000000000e+10) (24, 4.66306621440000000000e+10) (25, 4.66472796160000000000e+10) (26, 8.39105904640000000000e+10) (27, 8.05378621440000000000e+10) (28, -6.38404211507200000000e+12) (29, 9.32848353280000000000e+10) (0, 9.87981824000000000000e+10) (1, 1.00116217856000000000e+11) (2, 1.02001262592000000000e+11) (3, 1.03114375168000000000e+11) (4, 9.64745052160000000000e+10) (5, 9.77471897600000000000e+10) (6, 8.46103608033280000000e+13) (7, 3.02270545920000000000e+11) (8, 9.27491194880000000000e+10) (9, 9.28221757440000000000e+10) (10, 5.25437665280000000000e+10) (11, 6.65609134080000000000e+10) (12, 9.38944757760000000000e+10) (13, 5.86357923840000000000e+10) (14, 9.37450455040000000000e+10) (15, 9.36961146880000000000e+10) (16, 9.37907486720000000000e+10) (17, 9.38170204160000000000e+10) (18, 4.78157471744000000000e+12) (19, 7.74405226496000000000e+11) (20, 8.62686576640000000000e+10) (21, 8.65932902400000000000e+10) (22, 6.70895841280000000000e+10) (23, 4.96881213440000000000e+10) (24, 4.66306498560000000000e+10) (25, 4.66472673280000000000e+10) (26, 8.39105822720000000000e+10) (27, 8.05378539520000000000e+10) (28, -6.38402691072000000000e+12) (29, 9.32848025600000000000e+10) (0, 9.87983626240000000000e+10) (1, 1.00116455424000000000e+11) (2, 1.02001532928000000000e+11) (3, 1.03114653696000000000e+11) (4, 9.64746444800000000000e+10) (5, 9.77473454080000000000e+10) (6, 8.46127180021760000000e+13) (7, 3.02274215936000000000e+11) (8, 9.27491932160000000000e+10) (9, 9.28222167040000000000e+10) (10, 5.25437542400000000000e+10) (11, 6.65609420800000000000e+10) (12, 9.38945495040000000000e+10) (13, 5.86358456320000000000e+10) (14, 9.37450864640000000000e+10) (15, 9.36962129920000000000e+10) (16, 9.37907978240000000000e+10) (17, 9.38170859520000000000e+10) (18, 4.78169477939200000000e+12) (19, 7.74414598144000000000e+11) (20, 8.62687232000000000000e+10) (21, 8.65933639680000000000e+10) (22, 6.70896168960000000000e+10) (23, 4.96881582080000000000e+10) (24, 4.66306867200000000000e+10) (25, 4.66473082880000000000e+10) (26, 8.39106232320000000000e+10) (27, 8.05378949120000000000e+10) (28, -6.38409926246400000000e+12) (29, 9.32848762880000000000e+10) (0, 9.87983134720000000000e+10) (1, 1.00116398080000000000e+11) (2, 1.02001451008000000000e+11) (3, 1.03114563584000000000e+11) (4, 9.64746035200000000000e+10) (5, 9.77472880640000000000e+10) (6, 8.46120888565760000000e+13) (7, 3.02273167360000000000e+11) (8, 9.27491604480000000000e+10) (9, 9.28222003200000000000e+10) (10, 5.25437583360000000000e+10) (11, 6.65609297920000000000e+10) (12, 9.38945167360000000000e+10) (13, 5.86358292480000000000e+10) (14, 9.37450782720000000000e+10) (15, 9.36961638400000000000e+10) (16, 9.37907732480000000000e+10) (17, 9.38170695680000000000e+10) (18, 4.78166332211200000000e+12) (19, 7.74412238848000000000e+11) (20, 8.62686904320000000000e+10) (21, 8.65933475840000000000e+10) (22, 6.70896046080000000000e+10) (23, 4.96881418240000000000e+10) (24, 4.66306662400000000000e+10) (25, 4.66472919040000000000e+10) (26, 8.39106068480000000000e+10) (27, 8.05378785280000000000e+10) (28, -6.38408038809600000000e+12) (29, 9.32848435200000000000e+10) (0, -1.07476515625000000000e+05) (1, -1.34505437500000000000e+05) (2, -1.70721562500000000000e+05) (3, -1.79028468750000000000e+05) (4, -6.68660312500000000000e+04) (5, -8.39318281250000000000e+04) (6, -1.58173632000000000000e+09) (7, -2.59709425000000000000e+06) (8, -2.64030800781250000000e+04) (9, -2.77543808593750000000e+04) (10, 9.95651464843750000000e+03) (11, -1.34028935546875000000e+04) (12, -3.26544609375000000000e+04) (13, -2.64868105468750000000e+04) (14, -3.02047988281250000000e+04) (15, -2.99952050781250000000e+04) (16, -3.09560332031250000000e+04) (17, -3.18432109375000000000e+04) (18, -8.17086720000000000000e+07) (19, -5.93575550000000000000e+06) (20, -2.96868828125000000000e+04) (21, -2.90302382812500000000e+04) (22, -2.14694101562500000000e+04) (23, -1.26479687500000000000e+04) (24, -1.28066982421875000000e+04) (25, -1.21973945312500000000e+04) (26, -2.68088339843750000000e+04) (27, -2.43341406250000000000e+04) (28, 5.04063640000000000000e+07) (29, -2.46504589843750000000e+04) (0, 9.87982807040000000000e+10) (1, 1.00116332544000000000e+11) (2, 1.02001385472000000000e+11) (3, 1.03114498048000000000e+11) (4, 9.64745707520000000000e+10) (5, 9.77472716800000000000e+10) (6, 8.46113842135040000000e+13) (7, 3.02272217088000000000e+11) (8, 9.27491604480000000000e+10) (9, 9.28221921280000000000e+10) (10, 5.25437624320000000000e+10) (11, 6.65609256960000000000e+10) (12, 9.38945003520000000000e+10) (13, 5.86358210560000000000e+10) (14, 9.37450782720000000000e+10) (15, 9.36961638400000000000e+10) (16, 9.37907732480000000000e+10) (17, 9.38170449920000000000e+10) (18, 4.78163029196800000000e+12) (19, 7.74409551872000000000e+11) (20, 8.62686904320000000000e+10) (21, 8.65933312000000000000e+10) (22, 6.70895964160000000000e+10) (23, 4.96881418240000000000e+10) (24, 4.66306662400000000000e+10) (25, 4.66472837120000000000e+10) (26, 8.39106068480000000000e+10) (27, 8.05378785280000000000e+10) (28, -6.38405941657600000000e+12) (29, 9.32848435200000000000e+10) (0, 9.87983462400000000000e+10) (1, 1.00116430848000000000e+11) (2, 1.02001516544000000000e+11) (3, 1.03114629120000000000e+11) (4, 9.64746362880000000000e+10) (5, 9.77473208320000000000e+10) (6, 8.46127599452160000000e+13) (7, 3.02274248704000000000e+11) (8, 9.27491850240000000000e+10) (9, 9.28222085120000000000e+10) (10, 5.25437501440000000000e+10) (11, 6.65609379840000000000e+10) (12, 9.38945167360000000000e+10) (13, 5.86358374400000000000e+10) (14, 9.37450864640000000000e+10) (15, 9.36961966080000000000e+10) (16, 9.37907896320000000000e+10) (17, 9.38170859520000000000e+10) (18, 4.78169792512000000000e+12) (19, 7.74414729216000000000e+11) (20, 8.62687068160000000000e+10) (21, 8.65933475840000000000e+10) (22, 6.70896087040000000000e+10) (23, 4.96881500160000000000e+10) (24, 4.66306744320000000000e+10) (25, 4.66472919040000000000e+10) (26, 8.39106232320000000000e+10) (27, 8.05378867200000000000e+10) (28, -6.38410083532800000000e+12) (29, 9.32848435200000000000e+10) (0, 9.87981824000000000000e+10) (1, 1.00116217856000000000e+11) (2, 1.02001270784000000000e+11) (3, 1.03114383360000000000e+11) (4, 9.64745134080000000000e+10) (5, 9.77471897600000000000e+10) (6, 8.46103356375040000000e+13) (7, 3.02270480384000000000e+11) (8, 9.27491276800000000000e+10) (9, 9.28221757440000000000e+10) (10, 5.25437665280000000000e+10) (11, 6.65609134080000000000e+10) (12, 9.38944839680000000000e+10) (13, 5.86357923840000000000e+10) (14, 9.37450455040000000000e+10) (15, 9.36961228800000000000e+10) (16, 9.37907486720000000000e+10) (17, 9.38170122240000000000e+10) (18, 4.78157314457600000000e+12) (19, 7.74405095424000000000e+11) (20, 8.62686576640000000000e+10) (21, 8.65932902400000000000e+10) (22, 6.70895841280000000000e+10) (23, 4.96881254400000000000e+10) (24, 4.66306498560000000000e+10) (25, 4.66472673280000000000e+10) (26, 8.39105904640000000000e+10) (27, 8.05378539520000000000e+10) (28, -6.38402586214400000000e+12) (29, 9.32848107520000000000e+10) (0, 9.87982315520000000000e+10) (1, 1.00116283392000000000e+11) (2, 1.02001328128000000000e+11) (3, 1.03114448896000000000e+11) (4, 9.64745461760000000000e+10) (5, 9.77472225280000000000e+10) (6, 8.46110235033600000000e+13) (7, 3.02271594496000000000e+11) (8, 9.27491440640000000000e+10) (9, 9.28221839360000000000e+10) (10, 5.25437583360000000000e+10) (11, 6.65609256960000000000e+10) (12, 9.38944921600000000000e+10) (13, 5.86358005760000000000e+10) (14, 9.37450536960000000000e+10) (15, 9.36961392640000000000e+10) (16, 9.37907650560000000000e+10) (17, 9.38170449920000000000e+10) (18, 4.78161036902400000000e+12) (19, 7.74408241152000000000e+11) (20, 8.62686740480000000000e+10) (21, 8.65933066240000000000e+10) (22, 6.70895841280000000000e+10) (23, 4.96881336320000000000e+10) (24, 4.66306580480000000000e+10) (25, 4.66472755200000000000e+10) (26, 8.39105904640000000000e+10) (27, 8.05378621440000000000e+10) (28, -6.38404840652800000000e+12) (29, 9.32848107520000000000e+10) (0, -4.14617675781250000000e+03) (1, -6.35473779296875000000e+03) (2, -9.31728710937500000000e+03) (3, -9.98555078125000000000e+03) (4, -8.31483642578125000000e+02) (5, -2.21998706054687500000e+03) (6, -1.29111224000000000000e+08) (7, -2.06652625000000000000e+05) (8, 2.42386181640625000000e+03) (9, 2.32045239257812500000e+03) (10, 2.93232006835937500000e+03) (11, 2.45894458007812500000e+03) (12, 1.96557800292968750000e+03) (13, 6.08407165527343750000e+02) (14, 2.16458471679687500000e+03) (15, 2.18121679687500000000e+03) (16, 2.10348510742187500000e+03) (17, 2.03094189453125000000e+03) (18, -6.66885450000000000000e+06) (19, -4.80536968750000000000e+05) (20, 1.84105590820312500000e+03) (21, 1.91922363281250000000e+03) (22, 1.34931921386718750000e+03) (23, 1.40996191406250000000e+03) (24, 1.26999255371093750000e+03) (25, 1.31816601562500000000e+03) (26, 1.96495886230468750000e+03) (27, 1.88525683593750000000e+03) (28, 3.88513500000000000000e+06) (29, 2.61592993164062500000e+03) (0, 9.87984363520000000000e+10) (1, 1.00116553728000000000e+11) (2, 1.02001672192000000000e+11) (3, 1.03114801152000000000e+11) (4, 9.64746854400000000000e+10) (5, 9.77474109440000000000e+10) (6, 8.46140937338880000000e+13) (7, 3.02276313088000000000e+11) (8, 9.27492096000000000000e+10) (9, 9.28222330880000000000e+10) (10, 5.25437419520000000000e+10) (11, 6.65609502720000000000e+10) (12, 9.38945740800000000000e+10) (13, 5.86358661120000000000e+10) (14, 9.37451028480000000000e+10) (15, 9.36962293760000000000e+10) (16, 9.37908305920000000000e+10) (17, 9.38171187200000000000e+10) (18, 4.78176241254400000000e+12) (19, 7.74419382272000000000e+11) (20, 8.62687395840000000000e+10) (21, 8.65933885440000000000e+10) (22, 6.70896332800000000000e+10) (23, 4.96881664000000000000e+10) (24, 4.66306949120000000000e+10) (25, 4.66473123840000000000e+10) (26, 8.39106478080000000000e+10) (27, 8.05379031040000000000e+10) (28, -6.38414120550400000000e+12) (29, 9.32848926720000000000e+10) (0, 9.87983134720000000000e+10) (1, 1.00116398080000000000e+11) (2, 1.02001467392000000000e+11) (3, 1.03114579968000000000e+11) (4, 9.64745871360000000000e+10) (5, 9.77472880640000000000e+10) (6, 8.46122566287360000000e+13) (7, 3.02273462272000000000e+11) (8, 9.27491686400000000000e+10) (9, 9.28222003200000000000e+10) (10, 5.25437542400000000000e+10) (11, 6.65609297920000000000e+10) (12, 9.38945167360000000000e+10) (13, 5.86358292480000000000e+10) (14, 9.37450782720000000000e+10) (15, 9.36961638400000000000e+10) (16, 9.37907732480000000000e+10) (17, 9.38170613760000000000e+10) (18, 4.78167118643200000000e+12) (19, 7.74412697600000000000e+11) (20, 8.62686904320000000000e+10) (21, 8.65933312000000000000e+10) (22, 6.70895964160000000000e+10) (23, 4.96881418240000000000e+10) (24, 4.66306662400000000000e+10) (25, 4.66472919040000000000e+10) (26, 8.39106068480000000000e+10) (27, 8.05378785280000000000e+10) (28, -6.38408458240000000000e+12) (29, 9.32848435200000000000e+10) (0, -1.71602828125000000000e+05) (1, -2.13967671875000000000e+05) (2, -2.70639093750000000000e+05) (3, -2.83648406250000000000e+05) (4, -1.08027734375000000000e+05) (5, -1.34742296875000000000e+05) (6, -2.47723136000000000000e+09) (7, -4.06984175000000000000e+06) (8, -4.46191640625000000000e+04) (9, -4.67379570312500000000e+04) (10, 1.41007695312500000000e+04) (11, -2.35229570312500000000e+04) (12, -5.44456367187500000000e+04) (13, -4.34466093750000000000e+04) (14, -5.06084570312500000000e+04) (15, -5.02795195312500000000e+04) (16, -5.17824179687500000000e+04) (17, -5.31740585937500000000e+04) (18, -1.27944016000000000000e+08) (19, -9.28394700000000000000e+06) (20, -4.95375312500000000000e+04) (21, -4.85269062500000000000e+04) (22, -3.58401250000000000000e+04) (23, -2.15525000000000000000e+04) (24, -2.17119902343750000000e+04) (25, -2.07547519531250000000e+04) (26, -4.49495546875000000000e+04) (27, -4.08701914062500000000e+04) (28, 7.88124080000000000000e+07) (29, -4.19059921875000000000e+04) (0, -5.85809033203125000000e+03) (1, -8.39584082031250000000e+03) (2, -1.16955292968750000000e+04) (3, -1.24362822265625000000e+04) (4, -2.12751953125000000000e+03) (5, -3.69071435546875000000e+03) (6, -1.46078080000000000000e+08) (7, -2.35673500000000000000e+05) (8, 1.56283215332031250000e+03) (9, 1.44146862792968750000e+03) (10, 2.80702197265625000000e+03) (11, 1.86386511230468750000e+03) (12, 1.02769433593750000000e+03) (13, -1.95816397666931152344e+00) (14, 1.25487475585937500000e+03) (15, 1.27173913574218750000e+03) (16, 1.18501342773437500000e+03) (17, 1.10061853027343750000e+03) (18, -7.50636800000000000000e+06) (19, -5.29479750000000000000e+05) (20, 9.89061767578125000000e+02) (21, 1.06723120117187500000e+03) (22, 7.24217163085937500000e+02) (23, 9.64875610351562500000e+02) (24, 8.27411132812500000000e+02) (25, 8.93717346191406250000e+02) (26, 1.14929394531250000000e+03) (27, 1.12883178710937500000e+03) (28, 4.53866200000000000000e+06) (29, 1.76681005859375000000e+03) (0, 9.87982397440000000000e+10) (1, 1.00116291584000000000e+11) (2, 1.02001328128000000000e+11) (3, 1.03114457088000000000e+11) (4, 9.64745461760000000000e+10) (5, 9.77472307200000000000e+10) (6, 8.46109983375360000000e+13) (7, 3.02271627264000000000e+11) (8, 9.27491440640000000000e+10) (9, 9.28221839360000000000e+10) (10, 5.25437583360000000000e+10) (11, 6.65609297920000000000e+10) (12, 9.38944921600000000000e+10) (13, 5.86358087680000000000e+10) (14, 9.37450618880000000000e+10) (15, 9.36961474560000000000e+10) (16, 9.37907650560000000000e+10) (17, 9.38170368000000000000e+10) (18, 4.78160932044800000000e+12) (19, 7.74408110080000000000e+11) (20, 8.62686658560000000000e+10) (21, 8.65933066240000000000e+10) (22, 6.70895841280000000000e+10) (23, 4.96881295360000000000e+10) (24, 4.66306621440000000000e+10) (25, 4.66472796160000000000e+10) (26, 8.39105904640000000000e+10) (27, 8.05378621440000000000e+10) (28, -6.38404788224000000000e+12) (29, 9.32848189440000000000e+10) (0, 9.87926036480000000000e+10) (1, 1.00109254656000000000e+11) (2, 1.01992349696000000000e+11) (3, 1.03105069056000000000e+11) (4, 9.64710400000000000000e+10) (5, 9.77428152320000000000e+10) (6, 8.45283369943040000000e+13) (7, 3.02136360960000000000e+11) (8, 9.27478743040000000000e+10) (9, 9.28207257600000000000e+10) (10, 5.25443276800000000000e+10) (11, 6.65602703360000000000e+10) (12, 9.38927636480000000000e+10) (13, 5.86343874560000000000e+10) (14, 9.37434644480000000000e+10) (15, 9.36945745920000000000e+10) (16, 9.37891102720000000000e+10) (17, 9.38153738240000000000e+10) (18, 4.77733008179200000000e+12) (19, 7.74096814080000000000e+11) (20, 8.62670848000000000000e+10) (21, 8.65917911040000000000e+10) (22, 6.70884249600000000000e+10) (23, 4.96874987520000000000e+10) (24, 4.66299822080000000000e+10) (25, 4.66466324480000000000e+10) (26, 8.39091650560000000000e+10) (27, 8.05366497280000000000e+10) (28, -6.38140756787200000000e+12) (29, 9.32835164160000000000e+10) (0, -1.78327343750000000000e+05) (1, -2.24502843750000000000e+05) (2, -2.86315343750000000000e+05) (3, -3.00486843750000000000e+05) (4, -1.09037671875000000000e+05) (5, -1.38132062500000000000e+05) (6, -2.69981465600000000000e+09) (7, -4.42389150000000000000e+06) (8, -4.00253437500000000000e+04) (9, -4.23322851562500000000e+04) (10, 1.93568417968750000000e+04) (11, -1.89634824218750000000e+04) (12, -5.06509804687500000000e+04) (13, -4.21398242187500000000e+04) (14, -4.64672148437500000000e+04) (15, -4.61109335937500000000e+04) (16, -4.77473710937500000000e+04) (17, -4.92640625000000000000e+04) (18, -1.39430144000000000000e+08) (19, -1.01072680000000000000e+07) (20, -4.59737773437500000000e+04) (21, -4.48298867187500000000e+04) (22, -3.32364765625000000000e+04) (23, -1.89027656250000000000e+04) (24, -1.93233066406250000000e+04) (25, -1.82773906250000000000e+04) (26, -4.11951875000000000000e+04) (27, -3.72804257812500000000e+04) (28, 8.55549600000000000000e+07) (29, -3.69858125000000000000e+04) (0, 9.87983298560000000000e+10) (1, 1.00116414464000000000e+11) (2, 1.02001467392000000000e+11) (3, 1.03114596352000000000e+11) (4, 9.64746035200000000000e+10) (5, 9.77473044480000000000e+10) (6, 8.46122734059520000000e+13) (7, 3.02273527808000000000e+11) (8, 9.27491850240000000000e+10) (9, 9.28222003200000000000e+10) (10, 5.25437583360000000000e+10) (11, 6.65609297920000000000e+10) (12, 9.38945249280000000000e+10) (13, 5.86358292480000000000e+10) (14, 9.37450864640000000000e+10) (15, 9.36961966080000000000e+10) (16, 9.37907814400000000000e+10) (17, 9.38170859520000000000e+10) (18, 4.78167223500800000000e+12) (19, 7.74412828672000000000e+11) (20, 8.62686904320000000000e+10) (21, 8.65933312000000000000e+10) (22, 6.70896046080000000000e+10) (23, 4.96881500160000000000e+10) (24, 4.66306744320000000000e+10) (25, 4.66473000960000000000e+10) (26, 8.39106150400000000000e+10) (27, 8.05378867200000000000e+10) (28, -6.38408667955200000000e+12) (29, 9.32848599040000000000e+10) (0, -1.55121078125000000000e+05) (1, -1.93878250000000000000e+05) (2, -2.46042234375000000000e+05) (3, -2.58020046875000000000e+05) (4, -9.67164687500000000000e+04) (5, -1.21259554687500000000e+05) (6, -2.27324646400000000000e+09) (7, -3.73339850000000000000e+06) (8, -3.85271132812500000000e+04) (9, -4.04694921875000000000e+04) (10, 1.39606123046875000000e+04) (11, -1.97141425781250000000e+04) (12, -4.75179179687500000000e+04) (13, -3.84665742187500000000e+04) (14, -4.40026210937500000000e+04) (15, -4.36967851562500000000e+04) (16, -4.50788320312500000000e+04) (17, -4.63495234375000000000e+04) (18, -1.17514088000000000000e+08) (19, -8.56037500000000000000e+06) (20, -4.32172109375000000000e+04) (21, -4.22706171875000000000e+04) (22, -3.12454160156250000000e+04) (23, -1.84871777343750000000e+04) (24, -1.86746640625000000000e+04) (25, -1.78222636718750000000e+04) (26, -3.90493437500000000000e+04) (27, -3.54532460937500000000e+04) (28, 7.26587120000000000000e+07) (29, -3.60131328125000000000e+04) (0, 9.01837291520000000000e+10) (1, 9.03130480640000000000e+10) (2, 9.01190533120000000000e+10) (3, 9.03955087360000000000e+10) (4, 9.01637160960000000000e+10) (5, 9.03200931840000000000e+10) (6, 1.20091495628800000000e+12) (7, 9.37560965120000000000e+10) (8, 8.95383715840000000000e+10) (9, 8.95274844160000000000e+10) (10, 5.10796021760000000000e+10) (11, 6.38969446400000000000e+10) (12, 9.02276300800000000000e+10) (13, 5.59466168320000000000e+10) (14, 9.02234439680000000000e+10) (15, 9.02222561280000000000e+10) (16, 9.02254264320000000000e+10) (17, 9.02252707840000000000e+10) (18, 1.56553986048000000000e+11) (19, 9.42297579520000000000e+10) (20, 8.28500459520000000000e+10) (21, 8.32447283200000000000e+10) (22, 6.48054824960000000000e+10) (23, 4.80992583680000000000e+10) (24, 4.51055534080000000000e+10) (25, 4.51225968640000000000e+10) (26, 8.09048145920000000000e+10) (27, 7.77904701440000000000e+10) (28, 8.64061603840000000000e+10) (29, 9.02120898560000000000e+10) (0, 9.87981004800000000000e+10) (1, 1.00116119552000000000e+11) (2, 1.02001139712000000000e+11) (3, 1.03114244096000000000e+11) (4, 9.64744642560000000000e+10) (5, 9.77471324160000000000e+10) (6, 8.46092535070720000000e+13) (7, 3.02268612608000000000e+11) (8, 9.27490949120000000000e+10) (9, 9.28221511680000000000e+10) (10, 5.25437747200000000000e+10) (11, 6.65609093120000000000e+10) (12, 9.38944675840000000000e+10) (13, 5.86357760000000000000e+10) (14, 9.37450291200000000000e+10) (15, 9.36961064960000000000e+10) (16, 9.37907240960000000000e+10) (17, 9.38169958400000000000e+10) (18, 4.78151075430400000000e+12) (19, 7.74400376832000000000e+11) (20, 8.62686330880000000000e+10) (21, 8.65932738560000000000e+10) (22, 6.70895718400000000000e+10) (23, 4.96881172480000000000e+10) (24, 4.66306416640000000000e+10) (25, 4.66472632320000000000e+10) (26, 8.39105658880000000000e+10) (27, 8.05378293760000000000e+10) (28, -6.38398654054400000000e+12) (29, 9.32847943680000000000e+10) (0, 9.87983462400000000000e+10) (1, 1.00116447232000000000e+11) (2, 1.02001516544000000000e+11) (3, 1.03114629120000000000e+11) (4, 9.64746199040000000000e+10) (5, 9.77473208320000000000e+10) (6, 8.46126592819200000000e+13) (7, 3.02274117632000000000e+11) (8, 9.27491850240000000000e+10) (9, 9.28222085120000000000e+10) (10, 5.25437501440000000000e+10) (11, 6.65609379840000000000e+10) (12, 9.38945249280000000000e+10) (13, 5.86358374400000000000e+10) (14, 9.37450864640000000000e+10) (15, 9.36961802240000000000e+10) (16, 9.37907814400000000000e+10) (17, 9.38170777600000000000e+10) (18, 4.78169268224000000000e+12) (19, 7.74414401536000000000e+11) (20, 8.62687068160000000000e+10) (21, 8.65933475840000000000e+10) (22, 6.70896128000000000000e+10) (23, 4.96881500160000000000e+10) (24, 4.66306744320000000000e+10) (25, 4.66473000960000000000e+10) (26, 8.39106232320000000000e+10) (27, 8.05378867200000000000e+10) (28, -6.38409821388800000000e+12) (29, 9.32848599040000000000e+10) (0, 9.87983544320000000000e+10) (1, 1.00116439040000000000e+11) (2, 1.02001524736000000000e+11) (3, 1.03114637312000000000e+11) (4, 9.64746362880000000000e+10) (5, 9.77473290240000000000e+10) (6, 8.46127263907840000000e+13) (7, 3.02274183168000000000e+11) (8, 9.27491850240000000000e+10) (9, 9.28222003200000000000e+10) (10, 5.25437460480000000000e+10) (11, 6.65609379840000000000e+10) (12, 9.38945167360000000000e+10) (13, 5.86358415360000000000e+10) (14, 9.37450864640000000000e+10) (15, 9.36961802240000000000e+10) (16, 9.37907896320000000000e+10) (17, 9.38170695680000000000e+10) (18, 4.78169530368000000000e+12) (19, 7.74414532608000000000e+11) (20, 8.62687068160000000000e+10) (21, 8.65933475840000000000e+10) (22, 6.70896128000000000000e+10) (23, 4.96881500160000000000e+10) (24, 4.66306785280000000000e+10) (25, 4.66472960000000000000e+10) (26, 8.39106068480000000000e+10) (27, 8.05378867200000000000e+10) (28, -6.38409978675200000000e+12) (29, 9.32848517120000000000e+10) (0, 9.87977400320000000000e+10) (1, 1.00115660800000000000e+11) (2, 1.02000549888000000000e+11) (3, 1.03113613312000000000e+11) (4, 9.64742594560000000000e+10) (5, 9.77468620800000000000e+10) (6, 8.46037925232640000000e+13) (7, 3.02260092928000000000e+11) (8, 9.27490293760000000000e+10) (9, 9.28220774400000000000e+10) (10, 5.25438115840000000000e+10) (11, 6.65608765440000000000e+10) (12, 9.38943610880000000000e+10) (13, 5.86356776960000000000e+10) (14, 9.37449226240000000000e+10) (15, 9.36959836160000000000e+10) (16, 9.37906257920000000000e+10) (17, 9.38169057280000000000e+10) (18, 4.78123602739200000000e+12) (19, 7.74381240320000000000e+11) (20, 8.62685593600000000000e+10) (21, 8.65931919360000000000e+10) (22, 6.70894981120000000000e+10) (23, 4.96880885760000000000e+10) (24, 4.66306048000000000000e+10) (25, 4.66472304640000000000e+10) (26, 8.39104675840000000000e+10) (27, 8.05377474560000000000e+10) (28, -6.38381824409600000000e+12) (29, 9.32847206400000000000e+10) (0, 9.87983298560000000000e+10) (1, 1.00116414464000000000e+11) (2, 1.02001491968000000000e+11) (3, 1.03114612736000000000e+11) (4, 9.64746117120000000000e+10) (5, 9.77473044480000000000e+10) (6, 8.46124998983680000000e+13) (7, 3.02273822720000000000e+11) (8, 9.27491768320000000000e+10) (9, 9.28222003200000000000e+10) (10, 5.25437501440000000000e+10) (11, 6.65609297920000000000e+10) (12, 9.38945167360000000000e+10) (13, 5.86358333440000000000e+10) (14, 9.37450864640000000000e+10) (15, 9.36961802240000000000e+10) (16, 9.37907814400000000000e+10) (17, 9.38170613760000000000e+10) (18, 4.78168324505600000000e+12) (19, 7.74413615104000000000e+11) (20, 8.62687068160000000000e+10) (21, 8.65933393920000000000e+10) (22, 6.70896046080000000000e+10) (23, 4.96881500160000000000e+10) (24, 4.66306744320000000000e+10) (25, 4.66472919040000000000e+10) (26, 8.39106068480000000000e+10) (27, 8.05378785280000000000e+10) (28, -6.38409297100800000000e+12) (29, 9.32848435200000000000e+10) (0, 9.87979939840000000000e+10) (1, 1.00115996672000000000e+11) (2, 1.02000959488000000000e+11) (3, 1.03114063872000000000e+11) (4, 9.64744069120000000000e+10) (5, 9.77470668800000000000e+10) (6, 8.46076261171200000000e+13) (7, 3.02266187776000000000e+11) (8, 9.27490785280000000000e+10) (9, 9.28221265920000000000e+10) (10, 5.25437911040000000000e+10) (11, 6.65609052160000000000e+10) (12, 9.38944430080000000000e+10) (13, 5.86357555200000000000e+10) (14, 9.37449963520000000000e+10) (15, 9.36960737280000000000e+10) (16, 9.37906913280000000000e+10) (17, 9.38169712640000000000e+10) (18, 4.78143053824000000000e+12) (19, 7.74394806272000000000e+11) (20, 8.62686167040000000000e+10) (21, 8.65932492800000000000e+10) (22, 6.70895595520000000000e+10) (23, 4.96881131520000000000e+10) (24, 4.66306375680000000000e+10) (25, 4.66472591360000000000e+10) (26, 8.39105413120000000000e+10) (27, 8.05378129920000000000e+10) (28, -6.38393620889600000000e+12) (29, 9.32847779840000000000e+10) (0, 9.87753103360000000000e+10) (1, 1.00087504896000000000e+11) (2, 1.01964734464000000000e+11) (3, 1.03076110336000000000e+11) (4, 9.64603576320000000000e+10) (5, 9.77293475840000000000e+10) (6, 8.42695987691520000000e+13) (7, 3.01711523840000000000e+11) (8, 9.27437127680000000000e+10) (9, 9.28163102720000000000e+10) (10, 5.25459660800000000000e+10) (11, 6.65581363200000000000e+10) (12, 9.38876682240000000000e+10) (13, 5.86301685760000000000e+10) (14, 9.37386967040000000000e+10) (15, 9.36898068480000000000e+10) (16, 9.37842851840000000000e+10) (17, 9.38103603200000000000e+10) (18, 4.76394553344000000000e+12) (19, 7.73124063232000000000e+11) (20, 8.62624317440000000000e+10) (21, 8.65872035840000000000e+10) (22, 6.70849638400000000000e+10) (23, 4.96855982080000000000e+10) (24, 4.66279874560000000000e+10) (25, 4.66447360000000000000e+10) (26, 8.39049461760000000000e+10) (27, 8.05327011840000000000e+10) (28, -6.37315842048000000000e+12) (29, 9.32796825600000000000e+10) (0, 9.87983462400000000000e+10) (1, 1.00116430848000000000e+11) (2, 1.02001483776000000000e+11) (3, 1.03114612736000000000e+11) (4, 9.64746035200000000000e+10) (5, 9.77473208320000000000e+10) (6, 8.46124915097600000000e+13) (7, 3.02273822720000000000e+11) (8, 9.27491850240000000000e+10) (9, 9.28222003200000000000e+10) (10, 5.25437542400000000000e+10) (11, 6.65609297920000000000e+10) (12, 9.38945249280000000000e+10) (13, 5.86358292480000000000e+10) (14, 9.37450864640000000000e+10) (15, 9.36961802240000000000e+10) (16, 9.37907814400000000000e+10) (17, 9.38170777600000000000e+10) (18, 4.78168324505600000000e+12) (19, 7.74413615104000000000e+11) (20, 8.62687068160000000000e+10) (21, 8.65933475840000000000e+10) (22, 6.70896046080000000000e+10) (23, 4.96881500160000000000e+10) (24, 4.66306744320000000000e+10) (25, 4.66473000960000000000e+10) (26, 8.39106150400000000000e+10) (27, 8.05378867200000000000e+10) (28, -6.38409297100800000000e+12) (29, 9.32848599040000000000e+10) (0, 9.87958640640000000000e+10) (1, 1.00113317888000000000e+11) (2, 1.01997502464000000000e+11) (3, 1.03110418432000000000e+11) (4, 9.64731043840000000000e+10) (5, 9.77453793280000000000e+10) (6, 8.45756235776000000000e+13) (7, 3.02213758976000000000e+11) (8, 9.27485788160000000000e+10) (9, 9.28215941120000000000e+10) (10, 5.25440081920000000000e+10) (11, 6.65606471680000000000e+10) (12, 9.38938204160000000000e+10) (13, 5.86351984640000000000e+10) (14, 9.37443491840000000000e+10) (15, 9.36954511360000000000e+10) (16, 9.37901096960000000000e+10) (17, 9.38163568640000000000e+10) (18, 4.77978427392000000000e+12) (19, 7.74275268608000000000e+11) (20, 8.62680596480000000000e+10) (21, 8.65927086080000000000e+10) (22, 6.70891008000000000000e+10) (23, 4.96878755840000000000e+10) (24, 4.66304040960000000000e+10) (25, 4.66470420480000000000e+10) (26, 8.39099596800000000000e+10) (27, 8.05373378560000000000e+10) (28, -6.38291751731200000000e+12) (29, 9.32843356160000000000e+10) (0, -9.17502031250000000000e+04) (1, -1.14362171875000000000e+05) (2, -1.45021078125000000000e+05) (3, -1.52075031250000000000e+05) (4, -5.74858085937500000000e+04) (5, -7.18843437500000000000e+04) (6, -1.33155481600000000000e+09) (7, -2.18849900000000000000e+06) (8, -2.33736210937500000000e+04) (9, -2.45088320312500000000e+04) (10, 7.73115283203125000000e+03) (11, -1.21745068359375000000e+04) (12, -2.86469453125000000000e+04) (13, -2.30693535156250000000e+04) (14, -2.65906796875000000000e+04) (15, -2.64068261718750000000e+04) (16, -2.72202382812500000000e+04) (17, -2.79620312500000000000e+04) (18, -6.89173280000000000000e+07) (19, -5.05145550000000000000e+06) (20, -2.60769863281250000000e+04) (21, -2.55211875000000000000e+04) (22, -1.88429140625000000000e+04) (23, -1.12559394531250000000e+04) (24, -1.13239746093750000000e+04) (25, -1.08446611328125000000e+04) (26, -2.35990488281250000000e+04) (27, -2.14400097656250000000e+04) (28, 4.29997280000000000000e+07) (29, -2.19065703125000000000e+04) (0, -2.00990046875000000000e+05) (1, -2.52165734375000000000e+05) (2, -3.21187375000000000000e+05) (3, -3.37025656250000000000e+05) (4, -1.23773554687500000000e+05) (5, -1.56213109375000000000e+05) (6, -3.00456473600000000000e+09) (7, -4.93068950000000000000e+06) (8, -4.69030468750000000000e+04) (9, -4.94643125000000000000e+04) (10, 2.02818457031250000000e+04) (11, -2.29399414062500000000e+04) (12, -5.87424101562500000000e+04) (13, -4.84312890625000000000e+04) (14, -5.40965234375000000000e+04) (15, -5.36903593750000000000e+04) (16, -5.55183242187500000000e+04) (17, -5.71977656250000000000e+04) (18, -1.55354272000000000000e+08) (19, -1.13328940000000000000e+07) (20, -5.33836210937500000000e+04) (21, -5.21060820312500000000e+04) (22, -3.85721015625000000000e+04) (23, -2.22873378906250000000e+04) (24, -2.26416542968750000000e+04) (25, -2.15245722656250000000e+04) (26, -4.79652539062500000000e+04) (27, -4.34567851562500000000e+04) (28, 9.63160480000000000000e+07) (29, -4.35362773437500000000e+04) (0, 9.87981332480000000000e+10) (1, 1.00116160512000000000e+11) (2, 1.02001197056000000000e+11) (3, 1.03114309632000000000e+11) (4, 9.64744806400000000000e+10) (5, 9.77471569920000000000e+10) (6, 8.46097316577280000000e+13) (7, 3.02269464576000000000e+11) (8, 9.27491194880000000000e+10) (9, 9.28221675520000000000e+10) (10, 5.25437747200000000000e+10) (11, 6.65609093120000000000e+10) (12, 9.38944675840000000000e+10) (13, 5.86357841920000000000e+10) (14, 9.37450291200000000000e+10) (15, 9.36961146880000000000e+10) (16, 9.37907404800000000000e+10) (17, 9.38170040320000000000e+10) (18, 4.78153906585600000000e+12) (19, 7.74402539520000000000e+11) (20, 8.62686494720000000000e+10) (21, 8.65932902400000000000e+10) (22, 6.70895800320000000000e+10) (23, 4.96881213440000000000e+10) (24, 4.66306457600000000000e+10) (25, 4.66472673280000000000e+10) (26, 8.39105658880000000000e+10) (27, 8.05378375680000000000e+10) (28, -6.38400384204800000000e+12) (29, 9.32847943680000000000e+10) (0, -1.63084015625000000000e+05) (1, -2.04002734375000000000e+05) (2, -2.59112046875000000000e+05) (3, -2.71780531250000000000e+05) (4, -1.01398742187500000000e+05) (5, -1.27320000000000000000e+05) (6, -2.40076672000000000000e+09) (7, -3.94145825000000000000e+06) (8, -3.99455937500000000000e+04) (9, -4.19941250000000000000e+04) (10, 1.50739873046875000000e+04) (11, -2.02417597656250000000e+04) (12, -4.94321484375000000000e+04) (13, -4.01845273437500000000e+04) (14, -4.57222031250000000000e+04) (15, -4.53987304687500000000e+04) (16, -4.68573125000000000000e+04) (17, -4.81985976562500000000e+04) (18, -1.24121208000000000000e+08) (19, -9.04588000000000000000e+06) (20, -4.49587031250000000000e+04) (21, -4.39488085937500000000e+04) (22, -3.24947949218750000000e+04) (23, -1.91262011718750000000e+04) (24, -1.93417832031250000000e+04) (25, -1.84449687500000000000e+04) (26, -4.05675390625000000000e+04) (27, -3.68135468750000000000e+04) (28, 7.64805280000000000000e+07) (29, -3.72809609375000000000e+04) (0, -1.20727939453125000000e+04) (1, -1.44831796875000000000e+04) (2, -1.77157011718750000000e+04) (3, -1.84594453125000000000e+04) (4, -8.44885351562500000000e+03) (5, -9.97505468750000000000e+03) (6, -1.41152976000000000000e+08) (7, -2.35209250000000000000e+05) (8, -4.81146923828125000000e+03) (9, -4.93595849609375000000e+03) (10, -2.50908432006835937500e+02) (11, -3.10645825195312500000e+03) (12, -5.39665917968750000000e+03) (13, -3.84935815429687500000e+03) (14, -5.17743798828125000000e+03) (15, -5.16010302734375000000e+03) (16, -5.24532421875000000000e+03) (17, -5.32540332031250000000e+03) (18, -7.29221950000000000000e+06) (19, -5.33018500000000000000e+05) (20, -4.93744042968750000000e+03) (21, -4.88998876953125000000e+03) (22, -3.57874487304687500000e+03) (23, -2.43886767578125000000e+03) (24, -2.38506616210937500000e+03) (25, -2.33110815429687500000e+03) (26, -4.61958544921875000000e+03) (27, -4.24623632812500000000e+03) (28, 4.70524800000000000000e+06) (29, -4.68163232421875000000e+03) (0, -5.20790585937500000000e+04) (1, -6.54026250000000000000e+04) (2, -8.32533593750000000000e+04) (3, -8.73447734375000000000e+04) (4, -3.20693906250000000000e+04) (5, -4.04753476562500000000e+04) (6, -7.79504768000000000000e+08) (7, -1.27855312500000000000e+06) (8, -1.21356337890625000000e+04) (9, -1.28027158203125000000e+04) (10, 5.31340039062500000000e+03) (11, -5.92541210937500000000e+03) (12, -1.52085507812500000000e+04) (13, -1.25226621093750000000e+04) (14, -1.40016425781250000000e+04) (15, -1.38978291015625000000e+04) (16, -1.43705087890625000000e+04) (17, -1.48090000000000000000e+04) (18, -4.02661840000000000000e+07) (19, -2.92371825000000000000e+06) (20, -1.38143232421875000000e+04) (21, -1.34864375000000000000e+04) (22, -9.98812695312500000000e+03) (23, -5.76613720703125000000e+03) (24, -5.86906835937500000000e+03) (25, -5.56840576171875000000e+03) (26, -1.24176728515625000000e+04) (27, -1.12516757812500000000e+04) (28, 2.47051040000000000000e+07) (29, -1.12628505859375000000e+04) (0, 9.87984855040000000000e+10) (1, 1.00116611072000000000e+11) (2, 1.02001737728000000000e+11) (3, 1.03114866688000000000e+11) (4, 9.64747182080000000000e+10) (5, 9.77474437120000000000e+10) (6, 8.46147144908800000000e+13) (7, 3.02277197824000000000e+11) (8, 9.27492096000000000000e+10) (9, 9.28222330880000000000e+10) (10, 5.25437337600000000000e+10) (11, 6.65609502720000000000e+10) (12, 9.38945904640000000000e+10) (13, 5.86358743040000000000e+10) (14, 9.37451110400000000000e+10) (15, 9.36962375680000000000e+10) (16, 9.37908387840000000000e+10) (17, 9.38171269120000000000e+10) (18, 4.78179491840000000000e+12) (19, 7.74421807104000000000e+11) (20, 8.62687477760000000000e+10) (21, 8.65934049280000000000e+10) (22, 6.70896332800000000000e+10) (23, 4.96881704960000000000e+10) (24, 4.66306990080000000000e+10) (25, 4.66473164800000000000e+10) (26, 8.39106478080000000000e+10) (27, 8.05379112960000000000e+10) (28, -6.38416060416000000000e+12) (29, 9.32849008640000000000e+10) (0, 9.87983462400000000000e+10) (1, 1.00116447232000000000e+11) (2, 1.02001516544000000000e+11) (3, 1.03114629120000000000e+11) (4, 9.64746362880000000000e+10) (5, 9.77473208320000000000e+10) (6, 8.46126005616640000000e+13) (7, 3.02273986560000000000e+11) (8, 9.27491932160000000000e+10) (9, 9.28222085120000000000e+10) (10, 5.25437542400000000000e+10) (11, 6.65609379840000000000e+10) (12, 9.38945331200000000000e+10) (13, 5.86358456320000000000e+10) (14, 9.37450864640000000000e+10) (15, 9.36962129920000000000e+10) (16, 9.37907978240000000000e+10) (17, 9.38171023360000000000e+10) (18, 4.78168743936000000000e+12) (19, 7.74414073856000000000e+11) (20, 8.62687068160000000000e+10) (21, 8.65933639680000000000e+10) (22, 6.70896128000000000000e+10) (23, 4.96881500160000000000e+10) (24, 4.66306826240000000000e+10) (25, 4.66473000960000000000e+10) (26, 8.39106232320000000000e+10) (27, 8.05378867200000000000e+10) (28, -6.38409559244800000000e+12) (29, 9.32848599040000000000e+10) (0, 9.87983953920000000000e+10) (1, 1.00116488192000000000e+11) (2, 1.02001590272000000000e+11) (3, 1.03114719232000000000e+11) (4, 9.64746608640000000000e+10) (5, 9.77473617920000000000e+10) (6, 8.46132716503040000000e+13) (7, 3.02275035136000000000e+11) (8, 9.27492014080000000000e+10) (9, 9.28222085120000000000e+10) (10, 5.25437419520000000000e+10) (11, 6.65609420800000000000e+10) (12, 9.38945413120000000000e+10) (13, 5.86358497280000000000e+10) (14, 9.37450946560000000000e+10) (15, 9.36961966080000000000e+10) (16, 9.37907978240000000000e+10) (17, 9.38170859520000000000e+10) (18, 4.78172361523200000000e+12) (19, 7.74416826368000000000e+11) (20, 8.62687150080000000000e+10) (21, 8.65933721600000000000e+10) (22, 6.70896168960000000000e+10) (23, 4.96881582080000000000e+10) (24, 4.66306867200000000000e+10) (25, 4.66473082880000000000e+10) (26, 8.39106232320000000000e+10) (27, 8.05378949120000000000e+10) (28, -6.38411708825600000000e+12) (29, 9.32848762880000000000e+10) (0, 9.87904491520000000000e+10) (1, 1.00106551296000000000e+11) (2, 1.01988900864000000000e+11) (3, 1.03101464576000000000e+11) (4, 9.64697210880000000000e+10) (5, 9.77411522560000000000e+10) (6, 8.44961415168000000000e+13) (7, 3.02083473408000000000e+11) (8, 9.27473172480000000000e+10) (9, 9.28201359360000000000e+10) (10, 5.25445201920000000000e+10) (11, 6.65599836160000000000e+10) (12, 9.38921574400000000000e+10) (13, 5.86338631680000000000e+10) (14, 9.37428828160000000000e+10) (15, 9.36940011520000000000e+10) (16, 9.37885286400000000000e+10) (17, 9.38147921920000000000e+10) (18, 4.77566913740800000000e+12) (19, 7.73975900160000000000e+11) (20, 8.62664785920000000000e+10) (21, 8.65911767040000000000e+10) (22, 6.70879907840000000000e+10) (23, 4.96872652800000000000e+10) (24, 4.66297446400000000000e+10) (25, 4.66464112640000000000e+10) (26, 8.39086325760000000000e+10) (27, 8.05361500160000000000e+10) (28, -6.38038363340800000000e+12) (29, 9.32830658560000000000e+10) (0, 9.87981660160000000000e+10) (1, 1.00116201472000000000e+11) (2, 1.02001229824000000000e+11) (3, 1.03114350592000000000e+11) (4, 9.64744970240000000000e+10) (5, 9.77471897600000000000e+10) (6, 8.46100252590080000000e+13) (7, 3.02270021632000000000e+11) (8, 9.27491194880000000000e+10) (9, 9.28221757440000000000e+10) (10, 5.25437706240000000000e+10) (11, 6.65609134080000000000e+10) (12, 9.38944757760000000000e+10) (13, 5.86357923840000000000e+10) (14, 9.37450455040000000000e+10) (15, 9.36961228800000000000e+10) (16, 9.37907486720000000000e+10) (17, 9.38170286080000000000e+10) (18, 4.78155846451200000000e+12) (19, 7.74403915776000000000e+11) (20, 8.62686576640000000000e+10) (21, 8.65932902400000000000e+10) (22, 6.70895800320000000000e+10) (23, 4.96881254400000000000e+10) (24, 4.66306498560000000000e+10) (25, 4.66472673280000000000e+10) (26, 8.39105740800000000000e+10) (27, 8.05378539520000000000e+10) (28, -6.38401537638400000000e+12) (29, 9.32848107520000000000e+10) (0, 9.87982315520000000000e+10) (1, 1.00116291584000000000e+11) (2, 1.02001344512000000000e+11) (3, 1.03114457088000000000e+11) (4, 9.64745461760000000000e+10) (5, 9.77472225280000000000e+10) (6, 8.46111828869120000000e+13) (7, 3.02271889408000000000e+11) (8, 9.27491358720000000000e+10) (9, 9.28221839360000000000e+10) (10, 5.25437583360000000000e+10) (11, 6.65609256960000000000e+10) (12, 9.38944921600000000000e+10) (13, 5.86358087680000000000e+10) (14, 9.37450536960000000000e+10) (15, 9.36961392640000000000e+10) (16, 9.37907650560000000000e+10) (17, 9.38170286080000000000e+10) (18, 4.78162085478400000000e+12) (19, 7.74408634368000000000e+11) (20, 8.62686658560000000000e+10) (21, 8.65932984320000000000e+10) (22, 6.70895841280000000000e+10) (23, 4.96881295360000000000e+10) (24, 4.66306539520000000000e+10) (25, 4.66472755200000000000e+10) (26, 8.39105904640000000000e+10) (27, 8.05378621440000000000e+10) (28, -6.38405312512000000000e+12) (29, 9.32848107520000000000e+10) (0, 9.87965931520000000000e+10) (1, 1.00114219008000000000e+11) (2, 1.01998706688000000000e+11) (3, 1.03111696384000000000e+11) (4, 9.64735631360000000000e+10) (5, 9.77459609600000000000e+10) (6, 8.45867468718080000000e+13) (7, 3.02231453696000000000e+11) (8, 9.27487672320000000000e+10) (9, 9.28217825280000000000e+10) (10, 5.25439262720000000000e+10) (11, 6.65607413760000000000e+10) (12, 9.38940416000000000000e+10) (13, 5.86353950720000000000e+10) (14, 9.37446031360000000000e+10) (15, 9.36956395520000000000e+10) (16, 9.37903308800000000000e+10) (17, 9.38166108160000000000e+10) (18, 4.78035365068800000000e+12) (19, 7.74316883968000000000e+11) (20, 8.62682644480000000000e+10) (21, 8.65929134080000000000e+10) (22, 6.70892482560000000000e+10) (23, 4.96879534080000000000e+10) (24, 4.66304860160000000000e+10) (25, 4.66471157760000000000e+10) (26, 8.39101890560000000000e+10) (27, 8.05375016960000000000e+10) (28, -6.38327088742400000000e+12) (29, 9.32844912640000000000e+10) (30, -4.17007088661193847656e-01) (31, 1.35630200000000000000e+06) (32, 2.98626065254211425781e-01) (33, 1.35628775000000000000e+06) (34, 1.35630150000000000000e+06) (35, -7.28653252124786376953e-01) (36, 1.35630125000000000000e+06) (37, 7.42683887481689453125e-01) (38, 1.35630200000000000000e+06) (39, 4.82449650764465332031e-01) (40, 1.35630225000000000000e+06) (41, 1.35630162500000000000e+06) (42, 1.35630100000000000000e+06) (43, 1.35630237500000000000e+06) (44, 1.35630187500000000000e+06) (45, 1.35630162500000000000e+06) (46, 1.35630212500000000000e+06) (47, 1.35630162500000000000e+06) (48, 1.35630262500000000000e+06) (49, 1.35630237500000000000e+06) (50, -4.61769223213195800781e-01) (51, 1.35630212500000000000e+06) (52, 1.35630187500000000000e+06) (53, 1.35630100000000000000e+06) (54, 1.35630087500000000000e+06) (55, -5.06387501955032348633e-02) (56, 1.35630212500000000000e+06) (57, 1.35630250000000000000e+06) (58, -3.80400598049163818359e-01) (59, 5.81917762756347656250e-01) (60, 1.35630100000000000000e+06) (61, 1.35629000000000000000e+06) (62, -5.93634724617004394531e-01) (63, 1.35630200000000000000e+06) (64, 4.81197191402316093445e-03) (65, 1.33307825000000000000e+06) (66, 1.35630175000000000000e+06) (67, 1.35630175000000000000e+06) (68, 1.35630225000000000000e+06) (69, 1.35630062500000000000e+06) (70, 1.35630200000000000000e+06) (71, 1.35630037500000000000e+06) (72, 1.35625700000000000000e+06) (73, 1.35630112500000000000e+06) (74, 1.35629587500000000000e+06) (75, -3.81381571292877197266e-01) (76, -2.91058242321014404297e-01) (77, 1.35630112500000000000e+06) (78, -3.10231924057006835938e-01) (79, -1.03585317730903625488e-01) (80, 7.26683139801025390625e-02) (81, 1.35630150000000000000e+06) (82, 1.35630112500000000000e+06) (83, 1.35630225000000000000e+06) (84, 1.35628500000000000000e+06) (85, 1.35630187500000000000e+06) (86, 1.35630125000000000000e+06) (87, 1.35629725000000000000e+06) (88, 1.35630187500000000000e+06) (30, 9.52930569648742675781e-01) (31, 6.89874875000000000000e+05) (32, 1.47902369499206542969e-01) (33, 6.89876062500000000000e+05) (34, 6.89876437500000000000e+05) (35, 9.43995416164398193359e-02) (36, 6.89875812500000000000e+05) (37, -5.90161561965942382812e-01) (38, 6.89876000000000000000e+05) (39, -3.45867931842803955078e-01) (40, 6.89874937500000000000e+05) (41, 6.89876375000000000000e+05) (42, 6.89876125000000000000e+05) (43, 6.89876187500000000000e+05) (44, 6.89876250000000000000e+05) (45, 6.89875562500000000000e+05) (46, 6.89875812500000000000e+05) (47, 6.89874875000000000000e+05) (48, 6.89876500000000000000e+05) (49, 6.89875312500000000000e+05) (50, -1.33721500635147094727e-01) (51, 6.89876125000000000000e+05) (52, 6.89875250000000000000e+05) (53, 6.89874937500000000000e+05) (54, 6.89875187500000000000e+05) (55, 6.66089475154876708984e-01) (56, 6.89876000000000000000e+05) (57, 6.89874750000000000000e+05) (58, -7.09676563739776611328e-01) (59, 5.53386211395263671875e-01) (60, 6.89875500000000000000e+05) (61, 6.89876875000000000000e+05) (62, 4.95571017265319824219e-01) (63, 6.89875812500000000000e+05) (64, -2.22899839282035827637e-01) (65, 6.89882125000000000000e+05) (66, 6.89874812500000000000e+05) (67, 6.89875375000000000000e+05) (68, 6.89875000000000000000e+05) (69, 6.89875625000000000000e+05) (70, 6.89875250000000000000e+05) (71, 6.89875625000000000000e+05) (72, 6.89875625000000000000e+05) (73, 6.89875187500000000000e+05) (74, 6.89876062500000000000e+05) (75, -1.96052491664886474609e-01) (76, 3.25655221939086914062e-01) (77, 6.89875000000000000000e+05) (78, -1.15608125925064086914e-01) (79, -3.76285344362258911133e-01) (80, 6.33319616317749023438e-02) (81, 6.89875125000000000000e+05) (82, 6.89876687500000000000e+05) (83, 6.89875000000000000000e+05) (84, 6.89875187500000000000e+05) (85, 6.89875937500000000000e+05) (86, 6.89874812500000000000e+05) (87, 6.89876812500000000000e+05) (88, 6.89876312500000000000e+05) (30, -5.87268471717834472656e-01) (31, 1.35659287500000000000e+06) (32, 6.33071362972259521484e-01) (33, 1.35657775000000000000e+06) (34, 1.35659300000000000000e+06) (35, -6.34059131145477294922e-01) (36, 1.35659162500000000000e+06) (37, -9.40321326255798339844e-01) (38, 1.35659237500000000000e+06) (39, 4.28501129150390625000e-01) (40, 1.35659262500000000000e+06) (41, 1.35659275000000000000e+06) (42, 1.35659237500000000000e+06) (43, 1.35659250000000000000e+06) (44, 1.35659262500000000000e+06) (45, 1.35659162500000000000e+06) (46, 1.35659175000000000000e+06) (47, 1.35659200000000000000e+06) (48, 1.35659225000000000000e+06) (49, 1.35659237500000000000e+06) (50, -3.97414088249206542969e-01) (51, 1.35659162500000000000e+06) (52, 1.35659325000000000000e+06) (53, 1.35659250000000000000e+06) (54, 1.35659150000000000000e+06) (55, 3.38379144668579101562e-01) (56, 1.35659287500000000000e+06) (57, 1.35659312500000000000e+06) (58, -1.82085692882537841797e-01) (59, -5.03666341304779052734e-01) (60, 1.35659162500000000000e+06) (61, 1.35658062500000000000e+06) (62, -7.32511997222900390625e-01) (63, 1.35659337500000000000e+06) (64, -9.84975934028625488281e-01) (65, 1.33332587500000000000e+06) (66, 1.35659175000000000000e+06) (67, 1.35659312500000000000e+06) (68, 1.35659200000000000000e+06) (69, 1.35659062500000000000e+06) (70, 1.35659225000000000000e+06) (71, 1.35659087500000000000e+06) (72, 1.35654625000000000000e+06) (73, 1.35659275000000000000e+06) (74, 1.35658587500000000000e+06) (75, -2.09982991218566894531e-01) (76, -8.28975319862365722656e-01) (77, 1.35659250000000000000e+06) (78, 6.00853502750396728516e-01) (79, -7.47293412685394287109e-01) (80, -1.71217143535614013672e-01) (81, 1.35659312500000000000e+06) (82, 1.35659325000000000000e+06) (83, 1.35659300000000000000e+06) (84, 1.35657687500000000000e+06) (85, 1.35659125000000000000e+06) (86, 1.35659312500000000000e+06) (87, 1.35658787500000000000e+06) (88, 1.35659150000000000000e+06) (30, -6.46196484565734863281e-01) (31, 1.35643137500000000000e+06) (32, -2.54513025283813476562e-01) (33, 1.35641775000000000000e+06) (34, 1.35643175000000000000e+06) (35, 4.50801461935043334961e-01) (36, 1.35643087500000000000e+06) (37, 1.52123808860778808594e-01) (38, 1.35643250000000000000e+06) (39, 2.76512503623962402344e-01) (40, 1.35643137500000000000e+06) (41, 1.35643225000000000000e+06) (42, 1.35643225000000000000e+06) (43, 1.35643212500000000000e+06) (44, 1.35643162500000000000e+06) (45, 1.35643187500000000000e+06) (46, 1.35643150000000000000e+06) (47, 1.35643137500000000000e+06) (48, 1.35643237500000000000e+06) (49, 1.35643150000000000000e+06) (50, -8.16005110740661621094e-01) (51, 1.35643250000000000000e+06) (52, 1.35643162500000000000e+06) (53, 1.35643237500000000000e+06) (54, 1.35643225000000000000e+06) (55, 2.49440163373947143555e-01) (56, 1.35643262500000000000e+06) (57, 1.35643100000000000000e+06) (58, -6.76510334014892578125e-01) (59, 2.84367203712463378906e-01) (60, 1.35643250000000000000e+06) (61, 1.35642000000000000000e+06) (62, -6.14901185035705566406e-02) (63, 1.35643175000000000000e+06) (64, -8.54476213455200195312e-01) (65, 1.33319987500000000000e+06) (66, 1.35643112500000000000e+06) (67, 1.35643212500000000000e+06) (68, 1.35643175000000000000e+06) (69, 1.35643112500000000000e+06) (70, 1.35643200000000000000e+06) (71, 1.35643187500000000000e+06) (72, 1.35638800000000000000e+06) (73, 1.35643250000000000000e+06) (74, 1.35642725000000000000e+06) (75, 4.60074067115783691406e-01) (76, -6.86135739088058471680e-02) (77, 1.35643237500000000000e+06) (78, 6.34690374135971069336e-03) (79, 5.42162179946899414062e-01) (80, -9.80172038078308105469e-01) (81, 1.35643287500000000000e+06) (82, 1.35643212500000000000e+06) (83, 1.35643237500000000000e+06) (84, 1.35641612500000000000e+06) (85, 1.35643187500000000000e+06) (86, 1.35643112500000000000e+06) (87, 1.35642887500000000000e+06) (88, 1.35643187500000000000e+06) (30, -4.94193494319915771484e-01) (31, 1.35628137500000000000e+06) (32, -9.35737133026123046875e-01) (33, 1.35626887500000000000e+06) (34, 1.35628300000000000000e+06) (35, -8.37950348854064941406e-01) (36, 1.35628225000000000000e+06) (37, -8.19506227970123291016e-01) (38, 1.35628137500000000000e+06) (39, 1.48013353347778320312e-01) (40, 1.35628287500000000000e+06) (41, 1.35628225000000000000e+06) (42, 1.35628262500000000000e+06) (43, 1.35628275000000000000e+06) (44, 1.35628287500000000000e+06) (45, 1.35628325000000000000e+06) (46, 1.35628175000000000000e+06) (47, 1.35628125000000000000e+06) (48, 1.35628175000000000000e+06) (49, 1.35628237500000000000e+06) (50, 2.11231335997581481934e-01) (51, 1.35628175000000000000e+06) (52, 1.35628212500000000000e+06) (53, 1.35628150000000000000e+06) (54, 1.35628300000000000000e+06) (55, 3.28801155090332031250e-01) (56, 1.35628225000000000000e+06) (57, 1.35628300000000000000e+06) (58, -8.39495003223419189453e-01) (59, -4.58249032497406005859e-01) (60, 1.35628262500000000000e+06) (61, 1.35627025000000000000e+06) (62, 4.73431706428527832031e-01) (63, 1.35628250000000000000e+06) (64, 8.59512463212013244629e-02) (65, 1.33304537500000000000e+06) (66, 1.35628175000000000000e+06) (67, 1.35628275000000000000e+06) (68, 1.35628237500000000000e+06) (69, 1.35628062500000000000e+06) (70, 1.35628237500000000000e+06) (71, 1.35628275000000000000e+06) (72, 1.35623750000000000000e+06) (73, 1.35628212500000000000e+06) (74, 1.35627637500000000000e+06) (75, -8.90374541282653808594e-01) (76, -6.24347209930419921875e-01) (77, 1.35628162500000000000e+06) (78, -3.58226001262664794922e-01) (79, -8.29797387123107910156e-01) (80, 7.97106444835662841797e-01) (81, 1.35628300000000000000e+06) (82, 1.35628312500000000000e+06) (83, 1.35628275000000000000e+06) (84, 1.35626712500000000000e+06) (85, 1.35628150000000000000e+06) (86, 1.35628200000000000000e+06) (87, 1.35627862500000000000e+06) (88, 1.35628275000000000000e+06) (30, -2.75413036346435546875e-01) (31, 1.35533412500000000000e+06) (32, 7.15983748435974121094e-01) (33, 1.35532425000000000000e+06) (34, 1.35533350000000000000e+06) (35, 5.10535240173339843750e-01) (36, 1.35533387500000000000e+06) (37, 2.84427165985107421875e-01) (38, 1.35533512500000000000e+06) (39, 8.76740336418151855469e-01) (40, 1.35533525000000000000e+06) (41, 1.35533325000000000000e+06) (42, 1.35533512500000000000e+06) (43, 1.35533337500000000000e+06) (44, 1.35533400000000000000e+06) (45, 1.35533387500000000000e+06) (46, 1.35533500000000000000e+06) (47, 1.35533337500000000000e+06) (48, 1.35533462500000000000e+06) (49, 1.35533450000000000000e+06) (50, 2.57353305816650390625e-01) (51, 1.35533375000000000000e+06) (52, 1.35533500000000000000e+06) (53, 1.35533325000000000000e+06) (54, 1.35533437500000000000e+06) (55, 4.66465950012207031250e-03) (56, 1.35533462500000000000e+06) (57, 1.35533387500000000000e+06) (58, -6.15951895713806152344e-01) (59, -8.50242078304290771484e-01) (60, 1.35533450000000000000e+06) (61, 1.35532687500000000000e+06) (62, -5.24626791477203369141e-01) (63, 1.35533387500000000000e+06) (64, 2.62218624353408813477e-01) (65, 1.33226250000000000000e+06) (66, 1.35533337500000000000e+06) (67, 1.35533500000000000000e+06) (68, 1.35533500000000000000e+06) (69, 1.35533300000000000000e+06) (70, 1.35533325000000000000e+06) (71, 1.35533362500000000000e+06) (72, 1.35529800000000000000e+06) (73, 1.35533362500000000000e+06) (74, 1.35533075000000000000e+06) (75, 4.14617657661437988281e-01) (76, -4.23182398080825805664e-01) (77, 1.35533362500000000000e+06) (78, -1.12926936149597167969e+00) (79, 5.33732771873474121094e-01) (80, 1.16441398859024047852e-02) (81, 1.35533425000000000000e+06) (82, 1.35533425000000000000e+06) (83, 1.35533350000000000000e+06) (84, 1.35532275000000000000e+06) (85, 1.35533500000000000000e+06) (86, 1.35533437500000000000e+06) (87, 1.35533250000000000000e+06) (88, 1.35533387500000000000e+06) (30, 8.46101045608520507812e-02) (31, 1.35630600000000000000e+06) (32, 3.40828418731689453125e-01) (33, 1.35629275000000000000e+06) (34, 1.35630750000000000000e+06) (35, -8.04718613624572753906e-01) (36, 1.35630775000000000000e+06) (37, 2.28027105331420898438e-01) (38, 1.35630637500000000000e+06) (39, -5.88946104049682617188e-01) (40, 1.35630637500000000000e+06) (41, 1.35630625000000000000e+06) (42, 1.35630637500000000000e+06) (43, 1.35630725000000000000e+06) (44, 1.35630562500000000000e+06) (45, 1.35630700000000000000e+06) (46, 1.35630650000000000000e+06) (47, 1.35630750000000000000e+06) (48, 1.35630762500000000000e+06) (49, 1.35630625000000000000e+06) (50, 6.86815202236175537109e-01) (51, 1.35630687500000000000e+06) (52, 1.35630737500000000000e+06) (53, 1.35630612500000000000e+06) (54, 1.35630612500000000000e+06) (55, 6.43326938152313232422e-01) (56, 1.35630737500000000000e+06) (57, 1.35630750000000000000e+06) (58, 5.28475582599639892578e-01) (59, -5.33568859100341796875e-03) (60, 1.35630737500000000000e+06) (61, 1.35629550000000000000e+06) (62, -9.65399980545043945312e-01) (63, 1.35630587500000000000e+06) (64, 1.24412225559353828430e-02) (65, 1.33309825000000000000e+06) (66, 1.35630687500000000000e+06) (67, 1.35630600000000000000e+06) (68, 1.35630675000000000000e+06) (69, 1.35630612500000000000e+06) (70, 1.35630737500000000000e+06) (71, 1.35630612500000000000e+06) (72, 1.35626487500000000000e+06) (73, 1.35630712500000000000e+06) (74, 1.35630287500000000000e+06) (75, 3.43069672584533691406e-01) (76, -8.10305774211883544922e-01) (77, 1.35630775000000000000e+06) (78, -7.64983236789703369141e-01) (79, -2.97925740480422973633e-01) (80, -5.40502429008483886719e-01) (81, 1.35630762500000000000e+06) (82, 1.35630587500000000000e+06) (83, 1.35630625000000000000e+06) (84, 1.35629100000000000000e+06) (85, 1.35630600000000000000e+06) (86, 1.35630625000000000000e+06) (87, 1.35630437500000000000e+06) (88, 1.35630600000000000000e+06) (30, -4.40676450729370117188e-01) (31, 1.35482025000000000000e+06) (32, 3.93372356891632080078e-01) (33, 1.35481162500000000000e+06) (34, 1.35482037500000000000e+06) (35, 6.35927796363830566406e-01) (36, 1.35481925000000000000e+06) (37, 3.14470291137695312500e-01) (38, 1.35481975000000000000e+06) (39, -8.71990501880645751953e-01) (40, 1.35482050000000000000e+06) (41, 1.35482025000000000000e+06) (42, 1.35481937500000000000e+06) (43, 1.35481887500000000000e+06) (44, 1.35481912500000000000e+06) (45, 1.35481875000000000000e+06) (46, 1.35481875000000000000e+06) (47, 1.35481975000000000000e+06) (48, 1.35481912500000000000e+06) (49, 1.35482000000000000000e+06) (50, -9.05373990535736083984e-02) (51, 1.35481937500000000000e+06) (52, 1.35481862500000000000e+06) (53, 1.35481987500000000000e+06) (54, 1.35481925000000000000e+06) (55, -8.21878790855407714844e-01) (56, 1.35481925000000000000e+06) (57, 1.35481937500000000000e+06) (58, 2.29552775621414184570e-01) (59, 5.55891990661621093750e-01) (60, 1.35481887500000000000e+06) (61, 1.35481400000000000000e+06) (62, -5.45657515525817871094e-01) (63, 1.35481937500000000000e+06) (64, -7.23322689533233642578e-01) (65, 1.33185812500000000000e+06) (66, 1.35482025000000000000e+06) (67, 1.35481912500000000000e+06) (68, 1.35481912500000000000e+06) (69, 1.35481975000000000000e+06) (70, 1.35481875000000000000e+06) (71, 1.35481912500000000000e+06) (72, 1.35478725000000000000e+06) (73, 1.35481987500000000000e+06) (74, 1.35481762500000000000e+06) (75, -4.19354021549224853516e-01) (76, -5.71450516581535339355e-02) (77, 1.35481850000000000000e+06) (78, -1.15463292598724365234e+00) (79, 6.43721461296081542969e-01) (80, -2.38395109772682189941e-01) (81, 1.35481937500000000000e+06) (82, 1.35481962500000000000e+06) (83, 1.35481900000000000000e+06) (84, 1.35481050000000000000e+06) (85, 1.35481975000000000000e+06) (86, 1.35482000000000000000e+06) (87, 1.35481862500000000000e+06) (88, 1.35481950000000000000e+06) (30, -5.23165404796600341797e-01) (31, 1.35636150000000000000e+06) (32, -6.56704366207122802734e-01) (33, 1.35634675000000000000e+06) (34, 1.35636225000000000000e+06) (35, 3.91545832157135009766e-01) (36, 1.35636125000000000000e+06) (37, -2.30751693248748779297e-01) (38, 1.35636200000000000000e+06) (39, -7.55409479141235351562e-01) (40, 1.35636175000000000000e+06) (41, 1.35636150000000000000e+06) (42, 1.35636200000000000000e+06) (43, 1.35636050000000000000e+06) (44, 1.35636050000000000000e+06) (45, 1.35636050000000000000e+06) (46, 1.35636175000000000000e+06) (47, 1.35636175000000000000e+06) (48, 1.35636125000000000000e+06) (49, 1.35636075000000000000e+06) (50, -6.28349244594573974609e-01) (51, 1.35636100000000000000e+06) (52, 1.35636150000000000000e+06) (53, 1.35636125000000000000e+06) (54, 1.35636175000000000000e+06) (55, -1.57808363437652587891e-01) (56, 1.35636150000000000000e+06) (57, 1.35636175000000000000e+06) (58, -8.56386005878448486328e-01) (59, -4.63877081871032714844e-01) (60, 1.35636125000000000000e+06) (61, 1.35635075000000000000e+06) (62, -3.64942729473114013672e-01) (63, 1.35636125000000000000e+06) (64, 4.33710843324661254883e-01) (65, 1.33315225000000000000e+06) (66, 1.35636050000000000000e+06) (67, 1.35636100000000000000e+06) (68, 1.35636125000000000000e+06) (69, 1.35635975000000000000e+06) (70, 1.35636225000000000000e+06) (71, 1.35636050000000000000e+06) (72, 1.35631800000000000000e+06) (73, 1.35636075000000000000e+06) (74, 1.35635725000000000000e+06) (75, -2.57615298032760620117e-01) (76, -7.26046085357666015625e-01) (77, 1.35636150000000000000e+06) (78, 9.87930446863174438477e-02) (79, 9.00028645992279052734e-01) (80, 4.32564109563827514648e-01) (81, 1.35636175000000000000e+06) (82, 1.35636225000000000000e+06) (83, 1.35636150000000000000e+06) (84, 1.35634675000000000000e+06) (85, 1.35636175000000000000e+06) (86, 1.35636150000000000000e+06) (87, 1.35635750000000000000e+06) (88, 1.35636100000000000000e+06) (30, -6.11518979072570800781e-01) (31, 1.35629112500000000000e+06) (32, -6.02063655853271484375e-01) (33, 1.35627587500000000000e+06) (34, 1.35628962500000000000e+06) (35, 2.73290872573852539062e-01) (36, 1.35629075000000000000e+06) (37, 2.96981930732727050781e-01) (38, 1.35629000000000000000e+06) (39, -9.88938748836517333984e-01) (40, 1.35628925000000000000e+06) (41, 1.35628962500000000000e+06) (42, 1.35628962500000000000e+06) (43, 1.35629062500000000000e+06) (44, 1.35628900000000000000e+06) (45, 1.35629075000000000000e+06) (46, 1.35629037500000000000e+06) (47, 1.35628950000000000000e+06) (48, 1.35629000000000000000e+06) (49, 1.35629025000000000000e+06) (50, -6.94113314151763916016e-01) (51, 1.35629087500000000000e+06) (52, 1.35629050000000000000e+06) (53, 1.35629062500000000000e+06) (54, 1.35628950000000000000e+06) (55, -8.83204281330108642578e-01) (56, 1.35629062500000000000e+06) (57, 1.35628925000000000000e+06) (58, -5.07048547267913818359e-01) (59, 3.77894639968872070312e-01) (60, 1.35628887500000000000e+06) (61, 1.35627812500000000000e+06) (62, -5.21633803844451904297e-01) (63, 1.35629062500000000000e+06) (64, -4.38329041004180908203e-01) (65, 1.33304962500000000000e+06) (66, 1.35628887500000000000e+06) (67, 1.35629087500000000000e+06) (68, 1.35629112500000000000e+06) (69, 1.35628925000000000000e+06) (70, 1.35629037500000000000e+06) (71, 1.35629025000000000000e+06) (72, 1.35624687500000000000e+06) (73, 1.35629087500000000000e+06) (74, 1.35628550000000000000e+06) (75, 3.75084161758422851562e-01) (76, 1.28405845165252685547e+00) (77, 1.35628975000000000000e+06) (78, 4.41677570343017578125e-01) (79, -5.30188322067260742188e-01) (80, -4.16612446308135986328e-01) (81, 1.35628937500000000000e+06) (82, 1.35629000000000000000e+06) (83, 1.35629012500000000000e+06) (84, 1.35627412500000000000e+06) (85, 1.35628987500000000000e+06) (86, 1.35629000000000000000e+06) (87, 1.35628675000000000000e+06) (88, 1.35629037500000000000e+06) (30, 3.96287918090820312500e-01) (31, -4.72283515930175781250e+01) (32, -8.05659711360931396484e-01) (33, -4.70558052062988281250e+01) (34, -4.89659309387207031250e+01) (35, 8.50122347474098205566e-02) (36, -4.84818153381347656250e+01) (37, 9.28463101387023925781e-01) (38, -4.85732383728027343750e+01) (39, 9.95774865150451660156e-01) (40, -4.85590629577636718750e+01) (41, -4.83590431213378906250e+01) (42, -4.69187202453613281250e+01) (43, -4.84927711486816406250e+01) (44, -4.73107795715332031250e+01) (45, -4.83205375671386718750e+01) (46, -4.69299812316894531250e+01) (47, -4.89046211242675781250e+01) (48, -4.78738746643066406250e+01) (49, -4.82910194396972656250e+01) (50, -8.83570551872253417969e-01) (51, -4.72721672058105468750e+01) (52, -4.75790977478027343750e+01) (53, -4.90379600524902343750e+01) (54, -4.87356147766113281250e+01) (55, 8.47637951374053955078e-01) (56, -4.76968269348144531250e+01) (57, -4.84905967712402343750e+01) (58, -5.01089453697204589844e-01) (59, 9.12578463554382324219e-01) (60, -4.82296562194824218750e+01) (61, -4.71858634948730468750e+01) (62, 6.30848050117492675781e-01) (63, -4.91511344909667968750e+01) (64, -1.02567172050476074219e+00) (65, -3.47424812316894531250e+01) (66, -4.69784355163574218750e+01) (67, -4.73819618225097656250e+01) (68, -4.90662727355957031250e+01) (69, -4.77175254821777343750e+01) (70, -4.77452125549316406250e+01) (71, -4.74073448181152343750e+01) (72, -4.70318794250488281250e+01) (73, -4.75429649353027343750e+01) (74, -4.69086418151855468750e+01) (75, 2.64057397842407226562e-01) (76, 2.33654361218214035034e-02) (77, -4.86156044006347656250e+01) (78, -6.36473521590232849121e-02) (79, 6.22086346149444580078e-01) (80, -6.56606256961822509766e-01) (81, -4.86835212707519531250e+01) (82, -4.79356346130371093750e+01) (83, -4.85279273986816406250e+01) (84, -4.70048027038574218750e+01) (85, -4.79459190368652343750e+01) (86, -4.90792121887207031250e+01) (87, -4.81988639831542968750e+01) (88, -4.83372917175292968750e+01) (30, 6.92080020904541015625e-01) (31, 1.34912625000000000000e+06) (32, -6.53541982173919677734e-01) (33, 1.34912612500000000000e+06) (34, 1.34912712500000000000e+06) (35, -1.12113046646118164062e+00) (36, 1.34912612500000000000e+06) (37, -5.79528450965881347656e-01) (38, 1.34912612500000000000e+06) (39, 1.74923181533813476562e-01) (40, 1.34912612500000000000e+06) (41, 1.34912712500000000000e+06) (42, 1.34912700000000000000e+06) (43, 1.34912725000000000000e+06) (44, 1.34912687500000000000e+06) (45, 1.34912675000000000000e+06) (46, 1.34912650000000000000e+06) (47, 1.34912725000000000000e+06) (48, 1.34912637500000000000e+06) (49, 1.34912687500000000000e+06) (50, 1.66090786457061767578e-01) (51, 1.34912662500000000000e+06) (52, 1.34912612500000000000e+06) (53, 1.34912675000000000000e+06) (54, 1.34912737500000000000e+06) (55, 2.05053150653839111328e-01) (56, 1.34912587500000000000e+06) (57, 1.34912575000000000000e+06) (58, 5.42027294635772705078e-01) (59, 3.33109378814697265625e-01) (60, 1.34912737500000000000e+06) (61, 1.34912700000000000000e+06) (62, 8.34155559539794921875e-01) (63, 1.34912687500000000000e+06) (64, -3.68956416845321655273e-01) (65, 1.32698412500000000000e+06) (66, 1.34912800000000000000e+06) (67, 1.34912587500000000000e+06) (68, 1.34912612500000000000e+06) (69, 1.34912687500000000000e+06) (70, 1.34912687500000000000e+06) (71, 1.34912662500000000000e+06) (72, 1.34911800000000000000e+06) (73, 1.34912687500000000000e+06) (74, 1.34912687500000000000e+06) (75, -9.71055507659912109375e-01) (76, -8.66321980953216552734e-01) (77, 1.34912587500000000000e+06) (78, -1.51130795478820800781e-01) (79, -2.68525183200836181641e-01) (80, 1.62688672542572021484e-01) (81, 1.34912737500000000000e+06) (82, 1.34912600000000000000e+06) (83, 1.34912762500000000000e+06) (84, 1.34912662500000000000e+06) (85, 1.34912625000000000000e+06) (86, 1.34912650000000000000e+06) (87, 1.34912625000000000000e+06) (88, 1.34912612500000000000e+06) (89, 6.12943801879882812500e+01) (90, -6.36470581054687500000e+02) (91, 6.21867218017578125000e+01) (92, 6.07682113647460937500e+01) (93, 6.26604843139648437500e+01) (94, 5.68328628540039062500e+01) (95, 5.96836242675781250000e+01) (96, 5.19888153076171875000e+01) (97, 5.90758895874023437500e+01) (98, 6.29338150024414062500e+01) (99, -6.73924148082733154297e-01) (100, 3.29825668334960937500e+01) (101, 6.25686569213867187500e+01) (89, 3.42176198959350585938e-01) (90, -3.92914533615112304688e-01) (91, 5.17618894577026367188e-01) (92, 4.76293921470642089844e-01) (93, 1.27232885360717773438e+00) (94, -5.92958450317382812500e-01) (95, 1.28456163406372070312e+00) (96, -3.10588979721069335938e+00) (97, 1.04181206226348876953e+00) (98, -9.29545164108276367188e-02) (99, 3.74681442975997924805e-01) (100, 1.79858550429344177246e-01) (101, 1.37416172027587890625e+00) (89, 4.11761701107025146484e-01) (90, 9.45622026920318603516e-01) (91, 1.12599623203277587891e+00) (92, -1.90469875931739807129e-01) (93, 1.18117249011993408203e+00) (94, -8.82368505001068115234e-01) (95, -2.27717414498329162598e-01) (96, -1.79061913490295410156e+00) (97, 1.53060173988342285156e+00) (98, 5.27985654771327972412e-02) (99, 9.71165299415588378906e-01) (100, -1.84452608227729797363e-02) (101, 1.65504977107048034668e-01) (89, -2.66807824373245239258e-01) (90, -2.59725719690322875977e-01) (91, 8.15495193004608154297e-01) (92, 3.72508734464645385742e-01) (93, 2.42185309529304504395e-01) (94, -1.53364813327789306641e+00) (95, -5.39837062358856201172e-01) (96, -3.23970389366149902344e+00) (97, -7.07428455352783203125e-02) (98, 5.73175475001335144043e-02) (99, -2.61922717094421386719e-01) (100, -1.32483258843421936035e-01) (101, -7.23311722278594970703e-01) (89, -1.18170283203125000000e+04) (90, -8.38985644531250000000e+03) (91, -1.18183271484375000000e+04) (92, -1.18181113281250000000e+04) (93, -1.18177441406250000000e+04) (94, -1.18122802734375000000e+04) (95, -1.18164599609375000000e+04) (96, -1.18112626953125000000e+04) (97, -1.18175556640625000000e+04) (98, -1.18173691406250000000e+04) (99, 3.53959798812866210938e-01) (100, -1.17872744140625000000e+04) (101, -1.18186826171875000000e+04) (89, -1.16044462890625000000e+04) (90, -8.28025976562500000000e+03) (91, -1.16055468750000000000e+04) (92, -1.16044550781250000000e+04) (93, -1.16034824218750000000e+04) (94, -1.16011494140625000000e+04) (95, -1.16052412109375000000e+04) (96, -1.15980097656250000000e+04) (97, -1.16047207031250000000e+04) (98, -1.16038417968750000000e+04) (99, 5.33748753368854522705e-02) (100, -1.15742060546875000000e+04) (101, -1.16061298828125000000e+04) 
