FANN_FLO_2.1
num_layers=4
learning_rate=0.700000
connection_rate=1.000000
network_type=0
learning_momentum=0.000000
training_algorithm=2
train_error_function=1
train_stop_function=0
cascade_output_change_fraction=0.010000
quickprop_decay=-0.000100
quickprop_mu=1.750000
rprop_increase_factor=1.200000
rprop_decrease_factor=0.500000
rprop_delta_min=0.000000
rprop_delta_max=50.000000
rprop_delta_zero=0.100000
cascade_output_stagnation_epochs=12
cascade_candidate_change_fraction=0.010000
cascade_candidate_stagnation_epochs=12
cascade_max_out_epochs=150
cascade_min_out_epochs=50
cascade_max_cand_epochs=150
cascade_min_cand_epochs=50
cascade_num_candidate_groups=2
bit_fail_limit=3.49999994039535522461e-01
cascade_candidate_limit=1.00000000000000000000e+03
cascade_weight_multiplier=4.00000005960464477539e-01
cascade_activation_functions_count=10
cascade_activation_functions=3 5 7 8 10 11 14 15 16 17 
cascade_activation_steepnesses_count=4
cascade_activation_steepnesses=2.50000000000000000000e-01 5.00000000000000000000e-01 7.50000000000000000000e-01 1.00000000000000000000e+00 
layer_sizes=19 37 19 3 
scale_included=0
neurons (num_inputs, activation_function, activation_steepness)=(0, 0, 0.00000000000000000000e+00) (0, 0, 0.00000000000000000000e+00) (0, 0, 0.00000000000000000000e+00) (0, 0, 0.00000000000000000000e+00) (0, 0, 0.00000000000000000000e+00) (0, 0, 0.00000000000000000000e+00) (0, 0, 0.00000000000000000000e+00) (0, 0, 0.00000000000000000000e+00) (0, 0, 0.00000000000000000000e+00) (0, 0, 0.00000000000000000000e+00) (0, 0, 0.00000000000000000000e+00) (0, 0, 0.00000000000000000000e+00) (0, 0, 0.00000000000000000000e+00) (0, 0, 0.00000000000000000000e+00) (0, 0, 0.00000000000000000000e+00) (0, 0, 0.00000000000000000000e+00) (0, 0, 0.00000000000000000000e+00) (0, 0, 0.00000000000000000000e+00) (0, 0, 0.00000000000000000000e+00) (19, 4, 5.00000000000000000000e-01) (19, 4, 5.00000000000000000000e-01) (19, 4, 5.00000000000000000000e-01) (19, 4, 5.00000000000000000000e-01) (19, 4, 5.00000000000000000000e-01) (19, 4, 5.00000000000000000000e-01) (19, 4, 5.00000000000000000000e-01) (19, 4, 5.00000000000000000000e-01) (19, 4, 5.00000000000000000000e-01) (19, 4, 5.00000000000000000000e-01) (19, 4, 5.00000000000000000000e-01) (19, 4, 5.00000000000000000000e-01) (19, 4, 5.00000000000000000000e-01) (19, 4, 5.00000000000000000000e-01) (19, 4, 5.00000000000000000000e-01) (19, 4, 5.00000000000000000000e-01) (19, 4, 5.00000000000000000000e-01) (19, 4, 5.00000000000000000000e-01) (19, 4, 5.00000000000000000000e-01) (19, 4, 5.00000000000000000000e-01) (19, 4, 5.00000000000000000000e-01) (19, 4, 5.00000000000000000000e-01) (19, 4, 5.00000000000000000000e-01) (19, 4, 5.00000000000000000000e-01) (19, 4, 5.00000000000000000000e-01) (19, 4, 5.00000000000000000000e-01) (19, 4, 5.00000000000000000000e-01) (19, 4, 5.00000000000000000000e-01) (19, 4, 5.00000000000000000000e-01) (19, 4, 5.00000000000000000000e-01) (19, 4, 5.00000000000000000000e-01) (19, 4, 5.00000000000000000000e-01) (19, 4, 5.00000000000000000000e-01) (19, 4, 5.00000000000000000000e-01) (19, 4, 5.00000000000000000000e-01) (19, 4, 5.00000000000000000000e-01) (0, 0, 0.00000000000000000000e+00) (37, 4, 5.00000000000000000000e-01) (37, 4, 5.00000000000000000000e-01) (37, 4, 5.00000000000000000000e-01) (37, 4, 5.00000000000000000000e-01) (37, 4, 5.00000000000000000000e-01) (37, 4, 5.00000000000000000000e-01) (37, 4, 5.00000000000000000000e-01) (37, 4, 5.00000000000000000000e-01) (37, 4, 5.00000000000000000000e-01) (37, 4, 5.00000000000000000000e-01) (37, 4, 5.00000000000000000000e-01) (37, 4, 5.00000000000000000000e-01) (37, 4, 5.00000000000000000000e-01) (37, 4, 5.00000000000000000000e-01) (37, 4, 5.00000000000000000000e-01) (37, 4, 5.00000000000000000000e-01) (37, 4, 5.00000000000000000000e-01) (37, 4, 5.00000000000000000000e-01) (0, 0, 0.00000000000000000000e+00) (19, 4, 5.00000000000000000000e-01) (19, 4, 5.00000000000000000000e-01) (0, 0, 0.00000000000000000000e+00) 
connections (connected_to_neuron, weight)=(0, 3.39503476562500000000e+04) (1, 3.39728632812500000000e+04) (2, 3.00926757812500000000e+03) (3, 3.00895996093750000000e+03) (4, 1.97062304687500000000e+03) (5, 2.01345605468750000000e+03) (6, 1.22790968000000000000e+08) (7, 8.44914218750000000000e+04) (8, 8.04243392944335937500e+01) (9, 1.86060638427734375000e+02) (10, -2.19192163085937500000e+03) (11, 4.87259490966796875000e+02) (12, 5.00958221435546875000e+02) (13, 1.66945739746093750000e+03) (14, 5.04138763427734375000e+02) (15, 5.09137969970703125000e+02) (16, 4.81090911865234375000e+02) (17, 4.85039337158203125000e+02) (18, 2.29724998474121093750e+01) (0, 3.41231875000000000000e+04) (1, 3.41454335937500000000e+04) (2, 3.02510693359375000000e+03) (3, 3.02402514648437500000e+03) (4, 1.98113232421875000000e+03) (5, 2.02377392578125000000e+03) (6, 1.23411912000000000000e+08) (7, 8.50312421875000000000e+04) (8, 8.15919036865234375000e+01) (9, 1.88015548706054687500e+02) (10, -2.20255541992187500000e+03) (11, 4.89922973632812500000e+02) (12, 5.02934204101562500000e+02) (13, 1.67678222656250000000e+03) (14, 5.05688049316406250000e+02) (15, 5.11040161132812500000e+02) (16, 4.83042907714843750000e+02) (17, 4.87642150878906250000e+02) (18, 2.39199161529541015625e+01) (0, -5.65927124023437500000e+02) (1, -5.66839843750000000000e+02) (2, -4.98147659301757812500e+01) (3, -5.05726051330566406250e+01) (4, -3.52102775573730468750e+01) (5, -3.61153564453125000000e+01) (6, -2.01338037500000000000e+06) (7, -1.86967236328125000000e+03) (8, -2.33317160606384277344e+00) (9, -2.87157034873962402344e+00) (10, 3.52431068420410156250e+01) (11, -1.01246128082275390625e+01) (12, -9.73223590850830078125e+00) (13, -2.84062137603759765625e+01) (14, -9.28393745422363281250e+00) (15, -8.35517215728759765625e+00) (16, -8.60339641571044921875e+00) (17, -9.25153446197509765625e+00) (18, -5.20578861236572265625e-01) (0, -3.36561462402343750000e+02) (1, -3.36737579345703125000e+02) (2, -3.00721912384033203125e+01) (3, -3.00015335083007812500e+01) (4, -2.14521083831787109375e+01) (5, -2.09845218658447265625e+01) (6, -1.19473400000000000000e+06) (7, -1.17353784179687500000e+03) (8, -1.34952083230018615723e-01) (9, -1.10344290733337402344e+00) (10, 2.04744586944580078125e+01) (11, -6.22628545761108398438e+00) (12, -4.59029722213745117188e+00) (13, -1.58387413024902343750e+01) (14, -4.55232429504394531250e+00) (15, -5.06702136993408203125e+00) (16, -4.83458137512207031250e+00) (17, -4.58117532730102539062e+00) (18, -5.21953463554382324219e-01) (0, 3.44580195312500000000e+04) (1, 3.44810312500000000000e+04) (2, 3.05546850585937500000e+03) (3, 3.05509008789062500000e+03) (4, 2.00326025390625000000e+03) (5, 2.04469506835937500000e+03) (6, 1.24599416000000000000e+08) (7, 8.62578203125000000000e+04) (8, 8.32670898437500000000e+01) (9, 1.89076599121093750000e+02) (10, -2.22253027343750000000e+03) (11, 4.96387268066406250000e+02) (12, 5.08797302246093750000e+02) (13, 1.69347326660156250000e+03) (14, 5.12032104492187500000e+02) (15, 5.17234619140625000000e+02) (16, 4.89389190673828125000e+02) (17, 4.93166595458984375000e+02) (18, 2.30135326385498046875e+01) (0, -8.23334350585937500000e+02) (1, -8.23848999023437500000e+02) (2, -7.32780914306640625000e+01) (3, -7.19580688476562500000e+01) (4, -5.13206939697265625000e+01) (5, -5.20037994384765625000e+01) (6, -2.93696600000000000000e+06) (7, -2.70083666992187500000e+03) (8, -1.86588764190673828125e+00) (9, -5.88562965393066406250e+00) (10, 5.01034355163574218750e+01) (11, -1.30789737701416015625e+01) (12, -1.32606163024902343750e+01) (13, -3.97408027648925781250e+01) (14, -1.39323301315307617188e+01) (15, -1.37313003540039062500e+01) (16, -1.28404521942138671875e+01) (17, -1.21534910202026367188e+01) (18, -2.78432309627532958984e-01) (0, -5.02231781005859375000e+02) (1, -5.02633911132812500000e+02) (2, -4.43021545410156250000e+01) (3, -4.42659072875976562500e+01) (4, -3.07112483978271484375e+01) (5, -3.30502777099609375000e+01) (6, -1.78428462500000000000e+06) (7, -1.72446166992187500000e+03) (8, -2.30657362937927246094e+00) (9, -3.15362763404846191406e+00) (10, 2.96479606628417968750e+01) (11, -8.27377510070800781250e+00) (12, -7.18475675582885742188e+00) (13, -2.51876907348632812500e+01) (14, -8.21559333801269531250e+00) (15, -7.18369340896606445312e+00) (16, -6.95850038528442382812e+00) (17, -7.64683532714843750000e+00) (18, 1.59076303243637084961e-01) (0, -1.69827667236328125000e+02) (1, -1.70992080688476562500e+02) (2, -1.57587108612060546875e+01) (3, -1.44613857269287109375e+01) (4, -1.06256647109985351562e+01) (5, -1.03128728866577148438e+01) (6, -6.11215937500000000000e+05) (7, -5.10984039306640625000e+02) (8, 3.95398050546646118164e-01) (9, -7.31132924556732177734e-01) (10, 1.08265657424926757812e+01) (11, -2.61998009681701660156e+00) (12, -2.05941581726074218750e+00) (13, -8.77370834350585937500e+00) (14, -2.64110636711120605469e+00) (15, -2.42059516906738281250e+00) (16, -3.15274357795715332031e+00) (17, -2.40857005119323730469e+00) (18, -1.12021851539611816406e+00) (0, -3.07142059326171875000e+02) (1, -3.08023040771484375000e+02) (2, -2.61780681610107421875e+01) (3, -2.66886692047119140625e+01) (4, -1.92836437225341796875e+01) (5, -1.90273494720458984375e+01) (6, -1.09634725000000000000e+06) (7, -9.75039855957031250000e+02) (8, -7.11329162120819091797e-01) (9, -2.07493305206298828125e+00) (10, 1.96946182250976562500e+01) (11, -4.13113164901733398438e+00) (12, -4.26022529602050781250e+00) (13, -1.42582302093505859375e+01) (14, -4.57285928726196289062e+00) (15, -4.34604692459106445312e+00) (16, -4.18227434158325195312e+00) (17, -4.28693294525146484375e+00) (18, 6.49580657482147216797e-01) (0, 3.30218554687500000000e+04) (1, 3.30427695312500000000e+04) (2, 2.92726245117187500000e+03) (3, 2.92750024414062500000e+03) (4, 1.91169335937500000000e+03) (5, 1.95298950195312500000e+03) (6, 1.19486000000000000000e+08) (7, 8.13762812500000000000e+04) (8, 7.77757339477539062500e+01) (9, 1.80450958251953125000e+02) (10, -2.13366430664062500000e+03) (11, 4.72314544677734375000e+02) (12, 4.86451110839843750000e+02) (13, 1.62336511230468750000e+03) (14, 4.87975555419921875000e+02) (15, 4.94640502929687500000e+02) (16, 4.66519165039062500000e+02) (17, 4.71415832519531250000e+02) (18, 2.29056053161621093750e+01) (0, -4.06140075683593750000e+02) (1, -4.07235046386718750000e+02) (2, -3.64835205078125000000e+01) (3, -3.56871109008789062500e+01) (4, -2.52021617889404296875e+01) (5, -2.68485298156738281250e+01) (6, -1.44628600000000000000e+06) (7, -1.42660363769531250000e+03) (8, -2.88403153419494628906e-01) (9, -1.55968248844146728516e+00) (10, 2.46925411224365234375e+01) (11, -6.61081409454345703125e+00) (12, -6.98078870773315429688e+00) (13, -2.03325138092041015625e+01) (14, -5.85538721084594726562e+00) (15, -6.34546709060668945312e+00) (16, -6.14700174331665039062e+00) (17, -7.28999853134155273438e+00) (18, 2.16734290122985839844e-01) (0, 3.30182382812500000000e+04) (1, 3.30386757812500000000e+04) (2, 2.92741064453125000000e+03) (3, 2.92740429687500000000e+03) (4, 1.91250390625000000000e+03) (5, 1.95302026367187500000e+03) (6, 1.19463320000000000000e+08) (7, 8.14389921875000000000e+04) (8, 7.91297531127929687500e+01) (9, 1.80315139770507812500e+02) (10, -2.13412207031250000000e+03) (11, 4.72575408935546875000e+02) (12, 4.86395965576171875000e+02) (13, 1.62399169921875000000e+03) (14, 4.87962219238281250000e+02) (15, 4.95124572753906250000e+02) (16, 4.65501190185546875000e+02) (17, 4.71184173583984375000e+02) (18, 2.22640361785888671875e+01) (0, 3.31713710937500000000e+04) (1, 3.31938671875000000000e+04) (2, 2.94015161132812500000e+03) (3, 2.94106567382812500000e+03) (4, 1.92288305664062500000e+03) (5, 1.96351586914062500000e+03) (6, 1.20016408000000000000e+08) (7, 8.19651562500000000000e+04) (8, 7.80292129516601562500e+01) (9, 1.81958084106445312500e+02) (10, -2.14446118164062500000e+03) (11, 4.74576202392578125000e+02) (12, 4.89529418945312500000e+02) (13, 1.63086816406250000000e+03) (14, 4.91089538574218750000e+02) (15, 4.96726440429687500000e+02) (16, 4.69357055664062500000e+02) (17, 4.73781860351562500000e+02) (18, 2.20371990203857421875e+01) (0, -1.40298339843750000000e+02) (1, -1.39286926269531250000e+02) (2, -1.19424209594726562500e+01) (3, -1.26859207153320312500e+01) (4, -8.53091049194335937500e+00) (5, -9.41372013092041015625e+00) (6, -4.97238062500000000000e+05) (7, -4.43461883544921875000e+02) (8, 2.47430745512247085571e-02) (9, -1.14556944370269775391e+00) (10, 8.96958160400390625000e+00) (11, -2.10588955879211425781e+00) (12, -2.83631420135498046875e+00) (13, -6.16610813140869140625e+00) (14, -2.82951641082763671875e+00) (15, -1.83009958267211914062e+00) (16, -1.73693931102752685547e+00) (17, -1.23407137393951416016e+00) (18, 4.45568919181823730469e-01) (0, 3.35646210937500000000e+04) (1, 3.35865039062500000000e+04) (2, 2.97522436523437500000e+03) (3, 2.97530102539062500000e+03) (4, 1.94626330566406250000e+03) (5, 1.98782165527343750000e+03) (6, 1.21412960000000000000e+08) (7, 8.32326250000000000000e+04) (8, 8.09059295654296875000e+01) (9, 1.83656250000000000000e+02) (10, -2.16687695312500000000e+03) (11, 4.81844238281250000000e+02) (12, 4.94732910156250000000e+02) (13, 1.65059143066406250000e+03) (14, 4.97140045166015625000e+02) (15, 5.03072326660156250000e+02) (16, 4.75672821044921875000e+02) (17, 4.79356842041015625000e+02) (18, 2.39560546875000000000e+01) (0, 3.44516015625000000000e+04) (1, 3.44757500000000000000e+04) (2, 3.05307226562500000000e+03) (3, 3.05360644531250000000e+03) (4, 2.00291687011718750000e+03) (5, 2.04520336914062500000e+03) (6, 1.24582264000000000000e+08) (7, 8.61711328125000000000e+04) (8, 8.28534317016601562500e+01) (9, 1.88898422241210937500e+02) (10, -2.22218383789062500000e+03) (11, 4.95920776367187500000e+02) (12, 5.08908813476562500000e+02) (13, 1.69482238769531250000e+03) (14, 5.10855590820312500000e+02) (15, 5.16580383300781250000e+02) (16, 4.87570343017578125000e+02) (17, 4.92791656494140625000e+02) (18, 2.32463951110839843750e+01) (0, 3.35704296875000000000e+04) (1, 3.35902500000000000000e+04) (2, 2.97532690429687500000e+03) (3, 2.97694140625000000000e+03) (4, 1.94609082031250000000e+03) (5, 1.98814221191406250000e+03) (6, 1.21436008000000000000e+08) (7, 8.32213046875000000000e+04) (8, 8.01933593750000000000e+01) (9, 1.83656021118164062500e+02) (10, -2.16868359375000000000e+03) (11, 4.81389160156250000000e+02) (12, 4.94350067138671875000e+02) (13, 1.65116943359375000000e+03) (14, 4.97562438964843750000e+02) (15, 5.03952575683593750000e+02) (16, 4.73933349609375000000e+02) (17, 4.79415618896484375000e+02) (18, 2.22554798126220703125e+01) (0, 3.36253125000000000000e+04) (1, 3.36463671875000000000e+04) (2, 2.98138183593750000000e+03) (3, 2.98106298828125000000e+03) (4, 1.95155639648437500000e+03) (5, 1.99155859375000000000e+03) (6, 1.21632272000000000000e+08) (7, 8.34701093750000000000e+04) (8, 8.10262603759765625000e+01) (9, 1.85159530639648437500e+02) (10, -2.17194799804687500000e+03) (11, 4.82892120361328125000e+02) (12, 4.96152282714843750000e+02) (13, 1.65216857910156250000e+03) (14, 4.98569305419921875000e+02) (15, 5.04562988281250000000e+02) (16, 4.76330200195312500000e+02) (17, 4.80752929687500000000e+02) (18, 2.36866035461425781250e+01) (0, -8.94612060546875000000e+02) (1, -8.95939208984375000000e+02) (2, -7.98593292236328125000e+01) (3, -7.96815185546875000000e+01) (4, -5.58636398315429687500e+01) (5, -5.82918319702148437500e+01) (6, -3.18509625000000000000e+06) (7, -3.01813159179687500000e+03) (8, -2.35891819000244140625e+00) (9, -5.76878881454467773438e+00) (10, 5.37523612976074218750e+01) (11, -1.46196928024291992188e+01) (12, -1.38781023025512695312e+01) (13, -4.49650802612304687500e+01) (14, -1.43777008056640625000e+01) (15, -1.38215827941894531250e+01) (16, -1.38486061096191406250e+01) (17, -1.37808370590209960938e+01) (18, -1.54230609536170959473e-01) (0, 3.36414804687500000000e+04) (1, 3.36620820312500000000e+04) (2, 2.98193896484375000000e+03) (3, 2.98154394531250000000e+03) (4, 1.95069055175781250000e+03) (5, 1.99212719726562500000e+03) (6, 1.21687888000000000000e+08) (7, 8.34667734375000000000e+04) (8, 8.08040161132812500000e+01) (9, 1.85027008056640625000e+02) (10, -2.17167114257812500000e+03) (11, 4.81644165039062500000e+02) (12, 4.96285491943359375000e+02) (13, 1.65337756347656250000e+03) (14, 4.98900299072265625000e+02) (15, 5.03481414794921875000e+02) (16, 4.75260955810546875000e+02) (17, 4.80736907958984375000e+02) (18, 2.40859565734863281250e+01) (0, 3.32249062500000000000e+04) (1, 3.32467695312500000000e+04) (2, 2.94554833984375000000e+03) (3, 2.94635546875000000000e+03) (4, 1.92470568847656250000e+03) (5, 1.96555236816406250000e+03) (6, 1.20212456000000000000e+08) (7, 8.20195312500000000000e+04) (8, 7.83751983642578125000e+01) (9, 1.83061126708984375000e+02) (10, -2.14795117187500000000e+03) (11, 4.74316101074218750000e+02) (12, 4.89240570068359375000e+02) (13, 1.63274719238281250000e+03) (14, 4.92210266113281250000e+02) (15, 4.98687103271484375000e+02) (16, 4.68828399658203125000e+02) (17, 4.73369873046875000000e+02) (18, 2.21965255737304687500e+01) (0, -3.22020294189453125000e+02) (1, -3.23178588867187500000e+02) (2, -2.77265205383300781250e+01) (3, -2.77853469848632812500e+01) (4, -2.09835109710693359375e+01) (5, -2.02550182342529296875e+01) (6, -1.14890400000000000000e+06) (7, -1.10143322753906250000e+03) (8, -1.17306423187255859375e+00) (9, -1.75537979602813720703e+00) (10, 1.94311065673828125000e+01) (11, -4.50107479095458984375e+00) (12, -5.49929523468017578125e+00) (13, -1.51066408157348632812e+01) (14, -4.70882892608642578125e+00) (15, -6.03062152862548828125e+00) (16, -4.35453510284423828125e+00) (17, -5.82454919815063476562e+00) (18, -8.16484168171882629395e-02) (0, 3.36534375000000000000e+04) (1, 3.36744140625000000000e+04) (2, 2.98290234375000000000e+03) (3, 2.98352001953125000000e+03) (4, 1.95313525390625000000e+03) (5, 1.99387707519531250000e+03) (6, 1.21726328000000000000e+08) (7, 8.35756093750000000000e+04) (8, 7.93457031250000000000e+01) (9, 1.85825042724609375000e+02) (10, -2.17305444335937500000e+03) (11, 4.82707702636718750000e+02) (12, 4.96682037353515625000e+02) (13, 1.65356506347656250000e+03) (14, 4.99515136718750000000e+02) (15, 5.05568420410156250000e+02) (16, 4.76305664062500000000e+02) (17, 4.79820922851562500000e+02) (18, 2.41666069030761718750e+01) (0, 3.36852734375000000000e+04) (1, 3.37058437500000000000e+04) (2, 2.98602490234375000000e+03) (3, 2.98653247070312500000e+03) (4, 1.95485388183593750000e+03) (5, 1.99467419433593750000e+03) (6, 1.21844720000000000000e+08) (7, 8.36219375000000000000e+04) (8, 7.96384582519531250000e+01) (9, 1.84837326049804687500e+02) (10, -2.17461743164062500000e+03) (11, 4.83246337890625000000e+02) (12, 4.97015075683593750000e+02) (13, 1.65653247070312500000e+03) (14, 4.98664184570312500000e+02) (15, 5.04294189453125000000e+02) (16, 4.77042663574218750000e+02) (17, 4.80983764648437500000e+02) (18, 2.24544963836669921875e+01) (0, 3.32714531250000000000e+04) (1, 3.32927539062500000000e+04) (2, 2.94970117187500000000e+03) (3, 2.94975292968750000000e+03) (4, 1.92812695312500000000e+03) (5, 1.96942358398437500000e+03) (6, 1.20378120000000000000e+08) (7, 8.21847656250000000000e+04) (8, 7.82863464355468750000e+01) (9, 1.81947860717773437500e+02) (10, -2.15011596679687500000e+03) (11, 4.75405853271484375000e+02) (12, 4.91146057128906250000e+02) (13, 1.63617468261718750000e+03) (14, 4.93086273193359375000e+02) (15, 4.98318908691406250000e+02) (16, 4.69876647949218750000e+02) (17, 4.75638305664062500000e+02) (18, 2.23069477081298828125e+01) (0, 3.34677421875000000000e+04) (1, 3.34905390625000000000e+04) (2, 2.96717260742187500000e+03) (3, 2.96801245117187500000e+03) (4, 1.94023730468750000000e+03) (5, 1.98124829101562500000e+03) (6, 1.21071560000000000000e+08) (7, 8.29710703125000000000e+04) (8, 7.97517166137695312500e+01) (9, 1.84436630249023437500e+02) (10, -2.16255395507812500000e+03) (11, 4.78949920654296875000e+02) (12, 4.94485656738281250000e+02) (13, 1.64606213378906250000e+03) (14, 4.95312408447265625000e+02) (15, 5.01712921142578125000e+02) (16, 4.72695526123046875000e+02) (17, 4.78927490234375000000e+02) (18, 2.35200386047363281250e+01) (0, -7.76175231933593750000e+01) (1, -7.68976287841796875000e+01) (2, -7.73482465744018554688e+00) (3, -7.62529087066650390625e+00) (4, -4.66094827651977539062e+00) (5, -5.36236190795898437500e+00) (6, -2.73841937500000000000e+05) (7, -2.96653930664062500000e+02) (8, 6.52236819267272949219e-01) (9, 2.68562287092208862305e-01) (10, 4.83626508712768554688e+00) (11, -8.85315120220184326172e-01) (12, -1.58280670642852783203e+00) (13, -3.01102614402770996094e+00) (14, -1.35595154762268066406e+00) (15, -2.09629082679748535156e+00) (16, -6.64133489131927490234e-01) (17, -2.13925886154174804688e+00) (18, -7.40032672882080078125e-01) (0, -6.78758789062500000000e+02) (1, -6.81257324218750000000e+02) (2, -5.91257820129394531250e+01) (3, -5.98271903991699218750e+01) (4, -4.17361030578613281250e+01) (5, -4.32062988281250000000e+01) (6, -2.42115825000000000000e+06) (7, -2.26742529296875000000e+03) (8, -2.69239616394042968750e+00) (9, -3.19478893280029296875e+00) (10, 4.22128181457519531250e+01) (11, -1.06718511581420898438e+01) (12, -1.07177610397338867188e+01) (13, -3.31489830017089843750e+01) (14, -9.86500167846679687500e+00) (15, -1.01551008224487304688e+01) (16, -9.92231464385986328125e+00) (17, -1.00505847930908203125e+01) (18, -1.01408827304840087891e+00) (0, 3.40633125000000000000e+04) (1, 3.40852617187500000000e+04) (2, 3.01986181640625000000e+03) (3, 3.01993359375000000000e+03) (4, 1.97830297851562500000e+03) (5, 2.01898962402343750000e+03) (6, 1.23191920000000000000e+08) (7, 8.49110468750000000000e+04) (8, 8.19894943237304687500e+01) (9, 1.87227249145507812500e+02) (10, -2.19746728515625000000e+03) (11, 4.89860382080078125000e+02) (12, 5.03134246826171875000e+02) (13, 1.67516760253906250000e+03) (14, 5.05934539794921875000e+02) (15, 5.10543243408203125000e+02) (16, 4.82432128906250000000e+02) (17, 4.87371246337890625000e+02) (18, 2.44169826507568359375e+01) (0, 3.29862031250000000000e+04) (1, 3.30068476562500000000e+04) (2, 2.92505175781250000000e+03) (3, 2.92431982421875000000e+03) (4, 1.91034997558593750000e+03) (5, 1.95179309082031250000e+03) (6, 1.19352216000000000000e+08) (7, 8.13208750000000000000e+04) (8, 7.86122970581054687500e+01) (9, 1.81109664916992187500e+02) (10, -2.13142553710937500000e+03) (11, 4.70601959228515625000e+02) (12, 4.84982757568359375000e+02) (13, 1.62130664062500000000e+03) (14, 4.88045349121093750000e+02) (15, 4.94176330566406250000e+02) (16, 4.65291046142578125000e+02) (17, 4.71435211181640625000e+02) (18, 2.32450885772705078125e+01) (0, 3.32966679687500000000e+04) (1, 3.33184140625000000000e+04) (2, 2.95286645507812500000e+03) (3, 2.95307934570312500000e+03) (4, 1.93010705566406250000e+03) (5, 1.97077124023437500000e+03) (6, 1.20463968000000000000e+08) (7, 8.23606250000000000000e+04) (8, 7.84840240478515625000e+01) (9, 1.82041519165039062500e+02) (10, -2.15109326171875000000e+03) (11, 4.76556304931640625000e+02) (12, 4.89957763671875000000e+02) (13, 1.63697631835937500000e+03) (14, 4.93519073486328125000e+02) (15, 4.98556884765625000000e+02) (16, 4.71246978759765625000e+02) (17, 4.75180328369140625000e+02) (18, 2.37349987030029296875e+01) (0, -2.26655670166015625000e+02) (1, -2.28694213867187500000e+02) (2, -1.98328170776367187500e+01) (3, -2.00699634552001953125e+01) (4, -1.43221530914306640625e+01) (5, -1.41937942504882812500e+01) (6, -8.11913187500000000000e+05) (7, -7.23327148437500000000e+02) (8, -1.37637805938720703125e+00) (9, -9.59949731826782226562e-01) (10, 1.47605724334716796875e+01) (11, -4.39645147323608398438e+00) (12, -3.42272257804870605469e+00) (13, -1.13843126296997070312e+01) (14, -3.73101353645324707031e+00) (15, -4.17309665679931640625e+00) (16, -3.88271450996398925781e+00) (17, -3.00460553169250488281e+00) (18, -4.61824536323547363281e-01) (0, -3.16868011474609375000e+02) (1, -3.17965515136718750000e+02) (2, -2.83528614044189453125e+01) (3, -2.69227390289306640625e+01) (4, -1.98425102233886718750e+01) (5, -2.00492458343505859375e+01) (6, -1.12616750000000000000e+06) (7, -1.10177209472656250000e+03) (8, -1.59892749786376953125e+00) (9, -1.48386681079864501953e+00) (10, 1.97958106994628906250e+01) (11, -5.41085100173950195312e+00) (12, -5.14623165130615234375e+00) (13, -1.62485618591308593750e+01) (14, -4.47682666778564453125e+00) (15, -4.95454311370849609375e+00) (16, -4.56419658660888671875e+00) (17, -4.40979480743408203125e+00) (18, -7.96853244304656982422e-01) (0, 3.30154492187500000000e+04) (1, 3.30374101562500000000e+04) (2, 2.92688964843750000000e+03) (3, 2.92822607421875000000e+03) (4, 1.91329431152343750000e+03) (5, 1.95223413085937500000e+03) (6, 1.19462024000000000000e+08) (7, 8.13769140625000000000e+04) (8, 7.75698013305664062500e+01) (9, 1.80698196411132812500e+02) (10, -2.13440332031250000000e+03) (11, 4.71639373779296875000e+02) (12, 4.86977935791015625000e+02) (13, 1.62318444824218750000e+03) (14, 4.88142395019531250000e+02) (15, 4.94367553710937500000e+02) (16, 4.66108886718750000000e+02) (17, 4.70007049560546875000e+02) (18, 2.19955348968505859375e+01) (0, 3.43736601562500000000e+04) (1, 3.43966250000000000000e+04) (2, 3.04620410156250000000e+03) (3, 3.04760791015625000000e+03) (4, 1.99691247558593750000e+03) (5, 2.04018957519531250000e+03) (6, 1.24294560000000000000e+08) (7, 8.59749843750000000000e+04) (8, 8.23702011108398437500e+01) (9, 1.88680435180664062500e+02) (10, -2.21731835937500000000e+03) (11, 4.94925018310546875000e+02) (12, 5.07953765869140625000e+02) (13, 1.69005798339843750000e+03) (14, 5.09635894775390625000e+02) (15, 5.16437927246093750000e+02) (16, 4.86979339599609375000e+02) (17, 4.92246551513671875000e+02) (18, 2.43546466827392578125e+01) (0, -2.82381652832031250000e+02) (1, -2.82240997314453125000e+02) (2, -2.40529975891113281250e+01) (3, -2.40092430114746093750e+01) (4, -1.73458385467529296875e+01) (5, -1.73560142517089843750e+01) (6, -1.00653700000000000000e+06) (7, -9.63687744140625000000e+02) (8, -4.97329115867614746094e-01) (9, -2.65252661705017089844e+00) (10, 1.78401145935058593750e+01) (11, -4.62183046340942382812e+00) (12, -5.54072427749633789062e+00) (13, -1.29828062057495117188e+01) (14, -3.89486289024353027344e+00) (15, -5.30629920959472656250e+00) (16, -4.54195594787597656250e+00) (17, -5.03915739059448242188e+00) (18, -1.07207727432250976562e+00) (19, 1.87814025878906250000e+01) (20, 1.83723793029785156250e+01) (21, -9.10940766334533691406e-03) (22, -6.17090463638305664062e-01) (23, 1.90946578979492187500e+01) (24, -9.49298560619354248047e-01) (25, -6.92981541156768798828e-01) (26, -3.78471519798040390015e-03) (27, -4.75244402885437011719e-01) (28, 1.82844390869140625000e+01) (29, -3.09816896915435791016e-01) (30, 1.75960769653320312500e+01) (31, 1.91794013977050781250e+01) (32, -1.68336182832717895508e-01) (33, 1.82819747924804687500e+01) (34, 1.86836013793945312500e+01) (35, 1.76510963439941406250e+01) (36, 1.93148345947265625000e+01) (37, 2.38163352012634277344e-01) (38, 1.88144607543945312500e+01) (39, 1.87916030883789062500e+01) (40, -3.27744871377944946289e-01) (41, 1.88213653564453125000e+01) (42, 1.78269386291503906250e+01) (43, 1.84230155944824218750e+01) (44, 1.84662551879882812500e+01) (45, 8.18742394447326660156e-01) (46, -1.91005825996398925781e-01) (47, 1.94085197448730468750e+01) (48, 1.79814872741699218750e+01) (49, 1.91339874267578125000e+01) (50, 8.31127166748046875000e-03) (51, -5.19859194755554199219e-02) (52, 1.76424407958984375000e+01) (53, 1.77433052062988281250e+01) (54, -1.68811976909637451172e-02) (55, 1.93281097412109375000e+01) (19, -2.72960737347602844238e-02) (20, -1.26763057708740234375e+00) (21, -7.58210420608520507812e-01) (22, 3.27804446220397949219e-01) (23, -1.41771078109741210938e+00) (24, 6.02958917617797851562e-01) (25, 9.11308526992797851562e-02) (26, -8.98313581943511962891e-01) (27, 7.51054763793945312500e-01) (28, 4.15325582027435302734e-01) (29, 4.69808220863342285156e-01) (30, -8.40003550052642822266e-01) (31, -1.50543975830078125000e+00) (32, 1.93228960037231445312e-01) (33, -1.02820825576782226562e+00) (34, -1.31226015090942382812e+00) (35, -6.23377561569213867188e-01) (36, -1.55494308471679687500e+00) (37, -3.71522307395935058594e-02) (38, -4.26193475723266601562e-01) (39, -1.25449478626251220703e+00) (40, 8.32619547843933105469e-01) (41, -1.28013491630554199219e-02) (42, -1.14563345909118652344e+00) (43, -1.53957879543304443359e+00) (44, -9.66524004936218261719e-01) (45, 5.23947834968566894531e-01) (46, -8.97261977195739746094e-01) (47, -1.48281586170196533203e+00) (48, -1.14321339130401611328e+00) (49, -1.34798967838287353516e+00) (50, -4.68643426895141601562e-01) (51, -4.89194214344024658203e-01) (52, -9.09129440784454345703e-01) (53, -1.47587752342224121094e+00) (54, -6.07909001410007476807e-02) (55, -6.64329349994659423828e-01) (19, 1.78127918243408203125e+01) (20, 1.87825679779052734375e+01) (21, 5.59682369232177734375e-01) (22, 5.87672591209411621094e-01) (23, 1.90124874114990234375e+01) (24, 1.94153666496276855469e-01) (25, -5.82865059375762939453e-01) (26, -2.57600963115692138672e-01) (27, -9.02652144432067871094e-01) (28, 1.86882724761962890625e+01) (29, 7.12915658950805664062e-01) (30, 1.79277534484863281250e+01) (31, 1.71026992797851562500e+01) (32, -8.73977422714233398438e-01) (33, 1.88133087158203125000e+01) (34, 1.85568180084228515625e+01) (35, 1.85796623229980468750e+01) (36, 1.76456909179687500000e+01) (37, -6.94372653961181640625e-01) (38, 1.71389675140380859375e+01) (39, 1.86094608306884765625e+01) (40, 4.40193891525268554688e-01) (41, 1.84618549346923828125e+01) (42, 1.79087657928466796875e+01) (43, 1.76752014160156250000e+01) (44, 1.79397926330566406250e+01) (45, -6.69005393981933593750e-01) (46, 7.10515141487121582031e-01) (47, 1.77863292694091796875e+01) (48, 1.79580001831054687500e+01) (49, 1.88737792968750000000e+01) (50, -8.76260817050933837891e-01) (51, -7.82580554485321044922e-01) (52, 1.84596710205078125000e+01) (53, 1.89720249176025390625e+01) (54, 8.63562226295471191406e-01) (55, 1.79218196868896484375e+01) (19, 1.91939811706542968750e+01) (20, 1.88261032104492187500e+01) (21, 1.22644841670989990234e-01) (22, 5.46750664710998535156e-01) (23, 1.87290573120117187500e+01) (24, -5.28995394706726074219e-02) (25, -9.78436410427093505859e-01) (26, 4.01179641485214233398e-01) (27, 1.00140586495399475098e-01) (28, 1.87311153411865234375e+01) (29, 2.51459956169128417969e-01) (30, 1.76805438995361328125e+01) (31, 1.80288581848144531250e+01) (32, -7.78332233428955078125e-01) (33, 1.82757682800292968750e+01) (34, 1.92773647308349609375e+01) (35, 1.75559539794921875000e+01) (36, 1.79296741485595703125e+01) (37, -1.65306448936462402344e-01) (38, 1.80891819000244140625e+01) (39, 1.73674182891845703125e+01) (40, -1.84478998184204101562e-01) (41, 1.83972759246826171875e+01) (42, 1.88956661224365234375e+01) (43, 1.89137592315673828125e+01) (44, 1.85891342163085937500e+01) (45, -5.39067387580871582031e-01) (46, -3.68966519832611083984e-01) (47, 1.80140399932861328125e+01) (48, 1.80007896423339843750e+01) (49, 1.89961624145507812500e+01) (50, 9.82671976089477539062e-02) (51, 6.90951347351074218750e-02) (52, 1.74885597229003906250e+01) (53, 1.94682216644287109375e+01) (54, 1.06896185874938964844e+00) (55, 1.92539310455322265625e+01) (19, -6.39908671379089355469e-01) (20, -5.39323985576629638672e-01) (21, -4.87476587295532226562e-01) (22, -5.67234873771667480469e-01) (23, -6.15335218608379364014e-02) (24, -2.66436219215393066406e-01) (25, -2.63368844985961914062e-01) (26, 7.33452498912811279297e-01) (27, 1.14720687270164489746e-01) (28, -3.39140743017196655273e-01) (29, 1.54878854751586914062e-01) (30, -3.26942354440689086914e-01) (31, -1.18068981170654296875e+00) (32, -9.72792357206344604492e-02) (33, 2.69498407840728759766e-01) (34, -9.37923192977905273438e-01) (35, 4.63968336582183837891e-01) (36, -8.04363489151000976562e-01) (37, 6.37145638465881347656e-01) (38, -6.01987659931182861328e-01) (39, -6.90641045570373535156e-01) (40, -2.60680556297302246094e-01) (41, -1.05898797512054443359e+00) (42, -1.14513683319091796875e+00) (43, 3.70052576065063476562e-01) (44, -9.72310662269592285156e-01) (45, -6.08599662780761718750e-01) (46, 8.11445713043212890625e-01) (47, -1.12864816188812255859e+00) (48, -6.54581308364868164062e-01) (49, -1.32021546363830566406e+00) (50, 2.82693624496459960938e-01) (51, 4.70365643501281738281e-01) (52, 5.53127229213714599609e-01) (53, -3.88387262821197509766e-01) (54, 3.39997947216033935547e-01) (55, 2.86219656467437744141e-01) (19, 1.87878818511962890625e+01) (20, 1.88935203552246093750e+01) (21, -1.58160716295242309570e-01) (22, 1.56847596168518066406e-01) (23, 1.74305152893066406250e+01) (24, -3.58622789382934570312e-01) (25, 5.89530944824218750000e-01) (26, -7.26350918412208557129e-02) (27, -6.65265023708343505859e-01) (28, 1.87975883483886718750e+01) (29, -2.91582047939300537109e-01) (30, 1.83050327301025390625e+01) (31, 1.85030727386474609375e+01) (32, -6.07510566711425781250e-01) (33, 1.74448032379150390625e+01) (34, 1.86467781066894531250e+01) (35, 1.92507915496826171875e+01) (36, 1.84761447906494140625e+01) (37, -7.50829100608825683594e-01) (38, 1.91819992065429687500e+01) (39, 1.75107498168945312500e+01) (40, -2.08730727434158325195e-01) (41, 1.87879314422607421875e+01) (42, 1.79195060729980468750e+01) (43, 1.81302757263183593750e+01) (44, 1.80276412963867187500e+01) (45, 9.71540212631225585938e-02) (46, -8.40626478195190429688e-01) (47, 1.81774024963378906250e+01) (48, 1.73031406402587890625e+01) (49, 1.78484039306640625000e+01) (50, 9.30509209632873535156e-01) (51, -9.93497431278228759766e-01) (52, 1.85324287414550781250e+01) (53, 1.89458599090576171875e+01) (54, -7.18802928924560546875e-01) (55, 1.75834159851074218750e+01) (19, 1.88104381561279296875e+01) (20, 1.88827133178710937500e+01) (21, -1.30604311823844909668e-01) (22, -8.62601518630981445312e-01) (23, 1.87919063568115234375e+01) (24, 2.93068170547485351562e-01) (25, -2.17484533786773681641e-01) (26, -4.12886381149291992188e-01) (27, -4.72112178802490234375e-01) (28, 1.77443428039550781250e+01) (29, -1.42526447772979736328e-01) (30, 1.77111721038818359375e+01) (31, 1.88166236877441406250e+01) (32, 8.53034257888793945312e-01) (33, 1.72976036071777343750e+01) (34, 1.82866573333740234375e+01) (35, 1.76579208374023437500e+01) (36, 1.74046630859375000000e+01) (37, 3.36208581924438476562e-01) (38, 1.72371273040771484375e+01) (39, 1.83412055969238281250e+01) (40, -5.83522729575634002686e-02) (41, 1.75071144104003906250e+01) (42, 1.86095848083496093750e+01) (43, 1.78003997802734375000e+01) (44, 1.81067142486572265625e+01) (45, 2.95244216918945312500e-01) (46, -8.47177743911743164062e-01) (47, 1.79750938415527343750e+01) (48, 1.77114715576171875000e+01) (49, 1.75659523010253906250e+01) (50, -1.01768553256988525391e-01) (51, -1.14695429801940917969e-02) (52, 1.73431930541992187500e+01) (53, 1.81070652008056640625e+01) (54, -7.82651782035827636719e-01) (55, 1.75322666168212890625e+01) (19, 1.83256988525390625000e+01) (20, 1.80900688171386718750e+01) (21, -6.94348439574241638184e-02) (22, -4.18921232223510742188e-01) (23, 1.87833175659179687500e+01) (24, -2.01157927513122558594e-02) (25, 4.50075864791870117188e-01) (26, -1.10449440777301788330e-01) (27, -4.68688070774078369141e-01) (28, 1.82947044372558593750e+01) (29, -4.60323631763458251953e-01) (30, 1.73224296569824218750e+01) (31, 1.87229003906250000000e+01) (32, 8.28153550624847412109e-01) (33, 1.89744834899902343750e+01) (34, 1.92742843627929687500e+01) (35, 1.91180534362792968750e+01) (36, 1.78182373046875000000e+01) (37, -1.96254968643188476562e-01) (38, 1.75431098937988281250e+01) (39, 1.86191482543945312500e+01) (40, -2.11343318223953247070e-01) (41, 1.79331817626953125000e+01) (42, 1.83214645385742187500e+01) (43, 1.81804885864257812500e+01) (44, 1.80946350097656250000e+01) (45, 5.18271088600158691406e-01) (46, 3.65165472030639648438e-02) (47, 1.84205627441406250000e+01) (48, 1.91207618713378906250e+01) (49, 1.82077064514160156250e+01) (50, 2.47289657592773437500e-01) (51, -1.87709093093872070312e-01) (52, 1.80790023803710937500e+01) (53, 1.91176528930664062500e+01) (54, -4.15245324373245239258e-01) (55, 1.92985725402832031250e+01) (19, 1.77624988555908203125e+01) (20, 1.87197761535644531250e+01) (21, -3.57762306928634643555e-01) (22, 2.19130039215087890625e-01) (23, 1.83528366088867187500e+01) (24, -6.55305981636047363281e-01) (25, 1.79577231407165527344e-01) (26, 2.78246641159057617188e-01) (27, 3.07673245668411254883e-01) (28, 1.71607761383056640625e+01) (29, 7.27234005928039550781e-01) (30, 1.87243347167968750000e+01) (31, 1.80200557708740234375e+01) (32, -1.16364933550357818604e-01) (33, 1.84352054595947265625e+01) (34, 1.78628292083740234375e+01) (35, 1.76480350494384765625e+01) (36, 1.74084243774414062500e+01) (37, -9.12757992744445800781e-01) (38, 1.88874626159667968750e+01) (39, 1.85581912994384765625e+01) (40, -8.85428130626678466797e-01) (41, 1.72870922088623046875e+01) (42, 1.75181331634521484375e+01) (43, 1.84409999847412109375e+01) (44, 1.77286243438720703125e+01) (45, -3.54003548622131347656e-01) (46, 3.03426265716552734375e-01) (47, 1.82718734741210937500e+01) (48, 1.75377120971679687500e+01) (49, 1.79475536346435546875e+01) (50, -2.06008613109588623047e-01) (51, 4.13997769355773925781e-01) (52, 1.86862239837646484375e+01) (53, 1.81777935028076171875e+01) (54, 8.27348589897155761719e-01) (55, 1.78209915161132812500e+01) (19, 1.77219676971435546875e+01) (20, 1.88604640960693359375e+01) (21, -5.38901507854461669922e-01) (22, -7.37616181373596191406e-01) (23, 1.86829586029052734375e+01) (24, -3.95070493221282958984e-01) (25, 1.45887374877929687500e-01) (26, 8.57223570346832275391e-01) (27, 2.74692177772521972656e-01) (28, 1.81012916564941406250e+01) (29, -6.46350383758544921875e-01) (30, 1.86510238647460937500e+01) (31, 1.81135578155517578125e+01) (32, -1.18174575269222259521e-01) (33, 1.84062271118164062500e+01) (34, 1.88831558227539062500e+01) (35, 1.92416744232177734375e+01) (36, 1.86380805969238281250e+01) (37, 6.86680793762207031250e-01) (38, 1.91932067871093750000e+01) (39, 1.83240470886230468750e+01) (40, -7.21978485584259033203e-01) (41, 1.80630512237548828125e+01) (42, 1.80176792144775390625e+01) (43, 1.83542881011962890625e+01) (44, 1.90786342620849609375e+01) (45, -8.00810813903808593750e-01) (46, -2.30412721633911132812e-01) (47, 1.84909820556640625000e+01) (48, 1.85426712036132812500e+01) (49, 1.75830230712890625000e+01) (50, -3.67675364017486572266e-01) (51, 3.80574345588684082031e-01) (52, 1.87897796630859375000e+01) (53, 1.96097755432128906250e+01) (54, -5.02822026610374450684e-02) (55, 1.86046600341796875000e+01) (19, 1.74814968109130859375e+01) (20, 1.83804626464843750000e+01) (21, -5.63136398792266845703e-01) (22, -7.99261689186096191406e-01) (23, 1.91588134765625000000e+01) (24, -3.26701760292053222656e-01) (25, 3.30210804939270019531e-01) (26, -9.92532074451446533203e-02) (27, -1.53147861361503601074e-01) (28, 1.81491737365722656250e+01) (29, -1.25287353992462158203e-01) (30, 1.80442123413085937500e+01) (31, 1.75613632202148437500e+01) (32, -9.88047942519187927246e-02) (33, 1.84872646331787109375e+01) (34, 1.86808567047119140625e+01) (35, 1.71659393310546875000e+01) (36, 1.84155864715576171875e+01) (37, -1.70542240142822265625e-01) (38, 1.79343090057373046875e+01) (39, 1.80965175628662109375e+01) (40, -1.03817842900753021240e-01) (41, 1.86534519195556640625e+01) (42, 1.82053871154785156250e+01) (43, 1.76300659179687500000e+01) (44, 1.83557720184326171875e+01) (45, 3.14781188964843750000e-01) (46, -8.70633482933044433594e-01) (47, 1.90665740966796875000e+01) (48, 1.84592494964599609375e+01) (49, 1.73674888610839843750e+01) (50, -9.69588875770568847656e-01) (51, -5.66472172737121582031e-01) (52, 1.71254425048828125000e+01) (53, 1.84863262176513671875e+01) (54, -6.74305975437164306641e-01) (55, 1.77241840362548828125e+01) (19, 1.81487388610839843750e+01) (20, 1.82608795166015625000e+01) (21, 2.43539974093437194824e-01) (22, 8.52091431617736816406e-01) (23, 1.82381725311279296875e+01) (24, -9.30542349815368652344e-01) (25, -6.79821372032165527344e-01) (26, 6.49987280368804931641e-01) (27, 7.90421962738037109375e-01) (28, 1.73113040924072265625e+01) (29, 4.14187908172607421875e-02) (30, 1.72463455200195312500e+01) (31, 1.72555694580078125000e+01) (32, -5.20699210464954376221e-02) (33, 1.82359104156494140625e+01) (34, 1.73105812072753906250e+01) (35, 1.88133296966552734375e+01) (36, 1.89212131500244140625e+01) (37, -2.07857966423034667969e-01) (38, 1.84362983703613281250e+01) (39, 1.82160682678222656250e+01) (40, -1.48638680577278137207e-01) (41, 1.80346660614013671875e+01) (42, 1.83499965667724609375e+01) (43, 1.87293376922607421875e+01) (44, 1.88879165649414062500e+01) (45, -9.89947021007537841797e-01) (46, 1.41793251037597656250e-01) (47, 1.92225589752197265625e+01) (48, 1.80630893707275390625e+01) (49, 1.88850269317626953125e+01) (50, -1.36549890041351318359e-01) (51, 5.47195434570312500000e-01) (52, 1.75559825897216796875e+01) (53, 1.88419609069824218750e+01) (54, -7.53182291984558105469e-01) (55, 1.91457843780517578125e+01) (19, 1.93215026855468750000e+01) (20, 1.79012184143066406250e+01) (21, 2.75005251169204711914e-01) (22, -6.89200401306152343750e-01) (23, 1.89537277221679687500e+01) (24, -2.12678670883178710938e-01) (25, 5.23105859756469726562e-01) (26, -6.80621862411499023438e-01) (27, 5.37795662879943847656e-01) (28, 1.80293884277343750000e+01) (29, -8.49482655525207519531e-01) (30, 1.91043434143066406250e+01) (31, 1.88602485656738281250e+01) (32, 8.21227252483367919922e-01) (33, 1.81706161499023437500e+01) (34, 1.96294631958007812500e+01) (35, 1.95618858337402343750e+01) (36, 1.91812095642089843750e+01) (37, -8.02534222602844238281e-01) (38, 1.82909088134765625000e+01) (39, 1.79678077697753906250e+01) (40, -3.38041454553604125977e-01) (41, 1.94611129760742187500e+01) (42, 1.91052780151367187500e+01) (43, 1.79842529296875000000e+01) (44, 1.86602554321289062500e+01) (45, 5.31201124191284179688e-01) (46, -6.51429295539855957031e-01) (47, 1.87882080078125000000e+01) (48, 1.87379989624023437500e+01) (49, 1.82156715393066406250e+01) (50, 8.59961390495300292969e-01) (51, -5.40131092071533203125e-01) (52, 1.85232696533203125000e+01) (53, 1.84081268310546875000e+01) (54, -8.42395484447479248047e-01) (55, 1.80008888244628906250e+01) (19, 3.92596697807312011719e+00) (20, 4.66327905654907226562e+00) (21, 1.80710703134536743164e-01) (22, 6.93014264106750488281e-01) (23, 2.95731043815612792969e+00) (24, -9.51496183872222900391e-01) (25, 8.75852584838867187500e-01) (26, -5.72104811668395996094e-01) (27, -7.03630685806274414062e-01) (28, 3.51640295982360839844e+00) (29, 8.42984080314636230469e-01) (30, 2.68519520759582519531e+00) (31, 3.12341332435607910156e+00) (32, -9.20279920101165771484e-02) (33, 2.87971663475036621094e+00) (34, 4.36641120910644531250e+00) (35, 4.02953672409057617188e+00) (36, 3.24353146553039550781e+00) (37, 6.86294317245483398438e-01) (38, 3.61891388893127441406e+00) (39, 4.38194751739501953125e+00) (40, 5.97720406949520111084e-02) (41, 2.72575020790100097656e+00) (42, 3.81025385856628417969e+00) (43, 4.45330238342285156250e+00) (44, 2.94329047203063964844e+00) (45, 6.89123749732971191406e-01) (46, -7.37545490264892578125e-02) (47, 3.70004582405090332031e+00) (48, 3.07610487937927246094e+00) (49, 3.28064608573913574219e+00) (50, -3.17698836326599121094e-01) (51, 5.76283216476440429688e-01) (52, 3.29715943336486816406e+00) (53, 2.96109080314636230469e+00) (54, 8.01701843738555908203e-02) (55, 3.61523413658142089844e+00) (19, -6.00774109363555908203e-01) (20, -1.33862626552581787109e+00) (21, -3.03613364696502685547e-01) (22, 8.46982002258300781250e-02) (23, -3.34735006093978881836e-01) (24, -8.25159311294555664062e-01) (25, 3.88910531997680664062e-01) (26, -8.93957197666168212891e-01) (27, -6.30919933319091796875e-01) (28, -1.13057121634483337402e-01) (29, -2.21440494060516357422e-01) (30, -8.73139441013336181641e-01) (31, -6.62206858396530151367e-02) (32, 2.81669437885284423828e-01) (33, 4.91257786750793457031e-01) (34, -1.16891133785247802734e+00) (35, -4.26597774028778076172e-01) (36, -3.68104308843612670898e-01) (37, -2.86833524703979492188e-01) (38, -1.17715573310852050781e+00) (39, 5.54573178291320800781e-01) (40, 5.35665929317474365234e-01) (41, -1.22722303867340087891e+00) (42, -1.07121145725250244141e+00) (43, -9.30743198841810226440e-03) (44, -1.40945219993591308594e+00) (45, 1.87109827995300292969e-01) (46, -5.96460580825805664062e-01) (47, -1.00098884105682373047e+00) (48, 4.60499167442321777344e-01) (49, -5.45867562294006347656e-01) (50, 4.58095788955688476562e-01) (51, 8.64102125167846679688e-01) (52, -6.03179186582565307617e-02) (53, -3.06180268526077270508e-01) (54, -1.61920890212059020996e-01) (55, -8.71277749538421630859e-01) (19, 1.81749134063720703125e+01) (20, 1.69721202850341796875e+01) (21, -3.71996968984603881836e-01) (22, -7.28431463241577148438e-01) (23, 1.71723651885986328125e+01) (24, 4.89908099174499511719e-01) (25, -5.75863361358642578125e-01) (26, -5.44515252113342285156e-01) (27, 2.01853781938552856445e-01) (28, 1.82889080047607421875e+01) (29, -8.20612609386444091797e-01) (30, 1.81064758300781250000e+01) (31, 1.68825740814208984375e+01) (32, -5.37425637245178222656e-01) (33, 1.81553134918212890625e+01) (34, 1.74312286376953125000e+01) (35, 1.74124622344970703125e+01) (36, 1.82977390289306640625e+01) (37, -6.09110474586486816406e-01) (38, 1.83463993072509765625e+01) (39, 1.73856163024902343750e+01) (40, 2.04191118478775024414e-01) (41, 1.78229694366455078125e+01) (42, 1.85174312591552734375e+01) (43, 1.78522815704345703125e+01) (44, 1.71978054046630859375e+01) (45, -4.36071217060089111328e-01) (46, 3.41951131820678710938e-01) (47, 1.71325664520263671875e+01) (48, 1.73711490631103515625e+01) (49, 1.76010780334472656250e+01) (50, 7.01651573181152343750e-02) (51, 6.55178546905517578125e-01) (52, 1.78646335601806640625e+01) (53, 1.69893379211425781250e+01) (54, -2.51597970724105834961e-01) (55, 1.80863323211669921875e+01) (19, 1.85591888427734375000e+01) (20, 1.79727840423583984375e+01) (21, -9.39157366752624511719e-01) (22, 9.70859885215759277344e-01) (23, 1.83065528869628906250e+01) (24, -1.81193649768829345703e-01) (25, -3.75051259994506835938e-01) (26, -2.92157888412475585938e-01) (27, -5.57900488376617431641e-01) (28, 1.82940120697021484375e+01) (29, 3.86990785598754882812e-01) (30, 1.84271526336669921875e+01) (31, 1.83949432373046875000e+01) (32, 7.16786146163940429688e-01) (33, 1.84759807586669921875e+01) (34, 1.73680744171142578125e+01) (35, 1.71367244720458984375e+01) (36, 1.85101299285888671875e+01) (37, -3.15782845020294189453e-01) (38, 1.83389987945556640625e+01) (39, 1.77564964294433593750e+01) (40, 8.54472398757934570312e-01) (41, 1.82747459411621093750e+01) (42, 1.90023612976074218750e+01) (43, 1.72247314453125000000e+01) (44, 1.84767189025878906250e+01) (45, 9.50273990631103515625e-01) (46, -3.94801855087280273438e-01) (47, 1.79077911376953125000e+01) (48, 1.74825897216796875000e+01) (49, 1.84790134429931640625e+01) (50, -8.40961933135986328125e-01) (51, -4.35016214847564697266e-01) (52, 1.86655902862548828125e+01) (53, 1.86234607696533203125e+01) (54, 3.37082415819168090820e-01) (55, 1.77127571105957031250e+01) (19, 1.83565273284912109375e+01) (20, 1.88151283264160156250e+01) (21, -5.07182598114013671875e-01) (22, -4.54505681991577148438e-02) (23, 1.88388118743896484375e+01) (24, -7.75204896926879882812e-02) (25, -4.28947925567626953125e-01) (26, -3.46013516187667846680e-01) (27, 3.57080906629562377930e-01) (28, 1.76248588562011718750e+01) (29, -3.31223964691162109375e-01) (30, 1.87718353271484375000e+01) (31, 1.86602344512939453125e+01) (32, -4.17203992605209350586e-01) (33, 1.84533252716064453125e+01) (34, 1.92119369506835937500e+01) (35, 1.87853069305419921875e+01) (36, 1.80239887237548828125e+01) (37, -3.30234408378601074219e-01) (38, 1.85460529327392578125e+01) (39, 1.85684108734130859375e+01) (40, 3.97831052541732788086e-01) (41, 1.87021312713623046875e+01) (42, 1.79377918243408203125e+01) (43, 1.89300708770751953125e+01) (44, 1.77615623474121093750e+01) (45, -2.23594367504119873047e-01) (46, 6.16307258605957031250e-02) (47, 1.89966068267822265625e+01) (48, 1.90953426361083984375e+01) (49, 1.79109344482421875000e+01) (50, 3.73520851135253906250e-01) (51, 1.00767493247985839844e-01) (52, 1.87399406433105468750e+01) (53, 1.76599292755126953125e+01) (54, 2.22894757986068725586e-01) (55, 1.77288208007812500000e+01) (56, 6.09266853332519531250e+01) (57, -9.37157094478607177734e-01) (58, 6.02840919494628906250e+01) (59, 6.08366546630859375000e+01) (60, -5.02758562564849853516e-01) (61, 6.05656242370605468750e+01) (62, 6.00034332275390625000e+01) (63, 6.07048530578613281250e+01) (64, 6.00852584838867187500e+01) (65, 6.09520606994628906250e+01) (66, 6.02674064636230468750e+01) (67, 6.05565643310546875000e+01) (68, 6.12266578674316406250e+01) (69, 2.59916210174560546875e+01) (70, -5.60102343559265136719e-01) (71, 5.94842491149902343750e+01) (72, 6.02959899902343750000e+01) (73, 6.07033386230468750000e+01) (74, 6.11632041931152343750e+01) (56, -1.10130631923675537109e+00) (57, -1.22643053531646728516e-01) (58, -5.49884200096130371094e-01) (59, -6.52515292167663574219e-01) (60, 7.46298441663384437561e-03) (61, 2.89090424776077270508e-01) (62, -1.11562860012054443359e+00) (63, 4.83526855707168579102e-01) (64, 7.76906490325927734375e-01) (65, -7.61601090431213378906e-01) (66, -8.43584761023521423340e-02) (67, -2.53729671239852905273e-01) (68, -4.72876489162445068359e-01) (69, -8.90442371368408203125e-01) (70, 6.54394626617431640625e-01) (71, -2.61136621236801147461e-01) (72, -1.34026050567626953125e-01) (73, -1.17841053009033203125e+00) (74, -2.28554785251617431641e-01) 
