FANN_FLO_2.1
num_layers=4
learning_rate=0.700000
connection_rate=1.000000
network_type=0
learning_momentum=0.000000
training_algorithm=2
train_error_function=1
train_stop_function=0
cascade_output_change_fraction=0.010000
quickprop_decay=-0.000100
quickprop_mu=1.750000
rprop_increase_factor=1.200000
rprop_decrease_factor=0.500000
rprop_delta_min=0.000000
rprop_delta_max=50.000000
rprop_delta_zero=0.100000
cascade_output_stagnation_epochs=12
cascade_candidate_change_fraction=0.010000
cascade_candidate_stagnation_epochs=12
cascade_max_out_epochs=150
cascade_min_out_epochs=50
cascade_max_cand_epochs=150
cascade_min_cand_epochs=50
cascade_num_candidate_groups=2
bit_fail_limit=3.49999994039535522461e-01
cascade_candidate_limit=1.00000000000000000000e+03
cascade_weight_multiplier=4.00000005960464477539e-01
cascade_activation_functions_count=10
cascade_activation_functions=3 5 7 8 10 11 14 15 16 17 
cascade_activation_steepnesses_count=4
cascade_activation_steepnesses=2.50000000000000000000e-01 5.00000000000000000000e-01 7.50000000000000000000e-01 1.00000000000000000000e+00 
layer_sizes=30 59 13 7 
scale_included=0
neurons (num_inputs, activation_function, activation_steepness)=(0, 0, 0.00000000000000000000e+00) (0, 0, 0.00000000000000000000e+00) (0, 0, 0.00000000000000000000e+00) (0, 0, 0.00000000000000000000e+00) (0, 0, 0.00000000000000000000e+00) (0, 0, 0.00000000000000000000e+00) (0, 0, 0.00000000000000000000e+00) (0, 0, 0.00000000000000000000e+00) (0, 0, 0.00000000000000000000e+00) (0, 0, 0.00000000000000000000e+00) (0, 0, 0.00000000000000000000e+00) (0, 0, 0.00000000000000000000e+00) (0, 0, 0.00000000000000000000e+00) (0, 0, 0.00000000000000000000e+00) (0, 0, 0.00000000000000000000e+00) (0, 0, 0.00000000000000000000e+00) (0, 0, 0.00000000000000000000e+00) (0, 0, 0.00000000000000000000e+00) (0, 0, 0.00000000000000000000e+00) (0, 0, 0.00000000000000000000e+00) (0, 0, 0.00000000000000000000e+00) (0, 0, 0.00000000000000000000e+00) (0, 0, 0.00000000000000000000e+00) (0, 0, 0.00000000000000000000e+00) (0, 0, 0.00000000000000000000e+00) (0, 0, 0.00000000000000000000e+00) (0, 0, 0.00000000000000000000e+00) (0, 0, 0.00000000000000000000e+00) (0, 0, 0.00000000000000000000e+00) (0, 0, 0.00000000000000000000e+00) (30, 4, 5.00000000000000000000e-01) (30, 4, 5.00000000000000000000e-01) (30, 4, 5.00000000000000000000e-01) (30, 4, 5.00000000000000000000e-01) (30, 4, 5.00000000000000000000e-01) (30, 4, 5.00000000000000000000e-01) (30, 4, 5.00000000000000000000e-01) (30, 4, 5.00000000000000000000e-01) (30, 4, 5.00000000000000000000e-01) (30, 4, 5.00000000000000000000e-01) (30, 4, 5.00000000000000000000e-01) (30, 4, 5.00000000000000000000e-01) (30, 4, 5.00000000000000000000e-01) (30, 4, 5.00000000000000000000e-01) (30, 4, 5.00000000000000000000e-01) (30, 4, 5.00000000000000000000e-01) (30, 4, 5.00000000000000000000e-01) (30, 4, 5.00000000000000000000e-01) (30, 4, 5.00000000000000000000e-01) (30, 4, 5.00000000000000000000e-01) (30, 4, 5.00000000000000000000e-01) (30, 4, 5.00000000000000000000e-01) (30, 4, 5.00000000000000000000e-01) (30, 4, 5.00000000000000000000e-01) (30, 4, 5.00000000000000000000e-01) (30, 4, 5.00000000000000000000e-01) (30, 4, 5.00000000000000000000e-01) (30, 4, 5.00000000000000000000e-01) (30, 4, 5.00000000000000000000e-01) (30, 4, 5.00000000000000000000e-01) (30, 4, 5.00000000000000000000e-01) (30, 4, 5.00000000000000000000e-01) (30, 4, 5.00000000000000000000e-01) (30, 4, 5.00000000000000000000e-01) (30, 4, 5.00000000000000000000e-01) (30, 4, 5.00000000000000000000e-01) (30, 4, 5.00000000000000000000e-01) (30, 4, 5.00000000000000000000e-01) (30, 4, 5.00000000000000000000e-01) (30, 4, 5.00000000000000000000e-01) (30, 4, 5.00000000000000000000e-01) (30, 4, 5.00000000000000000000e-01) (30, 4, 5.00000000000000000000e-01) (30, 4, 5.00000000000000000000e-01) (30, 4, 5.00000000000000000000e-01) (30, 4, 5.00000000000000000000e-01) (30, 4, 5.00000000000000000000e-01) (30, 4, 5.00000000000000000000e-01) (30, 4, 5.00000000000000000000e-01) (30, 4, 5.00000000000000000000e-01) (30, 4, 5.00000000000000000000e-01) (30, 4, 5.00000000000000000000e-01) (30, 4, 5.00000000000000000000e-01) (30, 4, 5.00000000000000000000e-01) (30, 4, 5.00000000000000000000e-01) (30, 4, 5.00000000000000000000e-01) (30, 4, 5.00000000000000000000e-01) (30, 4, 5.00000000000000000000e-01) (0, 0, 0.00000000000000000000e+00) (59, 4, 5.00000000000000000000e-01) (59, 4, 5.00000000000000000000e-01) (59, 4, 5.00000000000000000000e-01) (59, 4, 5.00000000000000000000e-01) (59, 4, 5.00000000000000000000e-01) (59, 4, 5.00000000000000000000e-01) (59, 4, 5.00000000000000000000e-01) (59, 4, 5.00000000000000000000e-01) (59, 4, 5.00000000000000000000e-01) (59, 4, 5.00000000000000000000e-01) (59, 4, 5.00000000000000000000e-01) (59, 4, 5.00000000000000000000e-01) (0, 0, 0.00000000000000000000e+00) (13, 4, 5.00000000000000000000e-01) (13, 4, 5.00000000000000000000e-01) (13, 4, 5.00000000000000000000e-01) (13, 4, 5.00000000000000000000e-01) (13, 4, 5.00000000000000000000e-01) (13, 4, 5.00000000000000000000e-01) (0, 0, 0.00000000000000000000e+00) 
connections (connected_to_neuron, weight)=(0, 2.25147613525390625000e+02) (1, -1.37745373535156250000e+03) (2, 2.28905761718750000000e+02) (3, -1.37242102050781250000e+03) (4, 2.28848327636718750000e+02) (5, 2.28848327636718750000e+02) (6, 2.28844787597656250000e+02) (7, -1.36830383300781250000e+03) (8, 8.61041809082031250000e+02) (9, 2.29004333496093750000e+02) (10, -3.09548522949218750000e+02) (11, 1.72723291015625000000e+03) (12, 2.28869384765625000000e+02) (13, 8.67806457519531250000e+02) (14, 2.28870513916015625000e+02) (15, -1.36829248046875000000e+03) (16, -1.36829418945312500000e+03) (17, 2.28870208740234375000e+02) (18, 1.86884857177734375000e+02) (19, 8.67806457519531250000e+02) (20, -1.06372766113281250000e+03) (21, 8.61041809082031250000e+02) (22, -1.04992114257812500000e+03) (23, 8.67806457519531250000e+02) (24, -1.04992114257812500000e+03) (25, 8.67806457519531250000e+02) (26, 2.17172241210937500000e+02) (27, 3.47403442382812500000e+02) (28, 8.73512512207031250000e+02) (29, 2.28848327636718750000e+02) (0, -1.62058471679687500000e+02) (1, -2.75823339843750000000e+03) (2, -1.58287109375000000000e+02) (3, -2.75446264648437500000e+03) (4, -1.58344512939453125000e+02) (5, -1.58344512939453125000e+02) (6, -1.58348052978515625000e+02) (7, -2.75451953125000000000e+03) (8, 4.73430603027343750000e+02) (9, -1.58188598632812500000e+02) (10, -1.41270568847656250000e+03) (11, 8.97069580078125000000e+02) (12, -1.58323455810546875000e+02) (13, 8.68224914550781250000e+02) (14, -1.58322326660156250000e+02) (15, -2.75449755859375000000e+03) (16, -2.75449877929687500000e+03) (17, -1.58322631835937500000e+02) (18, -2.00458160400390625000e+02) (19, 8.68224914550781250000e+02) (20, -2.12274487304687500000e+03) (21, 4.73430603027343750000e+02) (22, -2.12274487304687500000e+03) (23, 8.68224914550781250000e+02) (24, -2.12274487304687500000e+03) (25, 8.68224914550781250000e+02) (26, 2.17942398071289062500e+02) (27, -4.00042877197265625000e+01) (28, 1.50000000000000000000e+03) (29, -1.32216125488281250000e+03) (0, -1.18856071472167968750e+02) (1, -2.75823339843750000000e+03) (2, -1.15084724426269531250e+02) (3, -2.75446264648437500000e+03) (4, -1.15142112731933593750e+02) (5, -1.15142112731933593750e+02) (6, -1.15145652770996093750e+02) (7, -2.75451953125000000000e+03) (8, 5.16632995605468750000e+02) (9, -1.14986206054687500000e+02) (10, -1.41270568847656250000e+03) (11, 1.07570227050781250000e+03) (12, -1.15121063232421875000e+02) (13, 8.68224914550781250000e+02) (14, -1.15119934082031250000e+02) (15, -2.75449755859375000000e+03) (16, -2.75449877929687500000e+03) (17, -1.15120239257812500000e+02) (18, -1.57255767822265625000e+02) (19, 8.68224914550781250000e+02) (20, -2.12274487304687500000e+03) (21, 5.16632995605468750000e+02) (22, -2.12274487304687500000e+03) (23, 8.68224914550781250000e+02) (24, -2.12274487304687500000e+03) (25, 8.68224914550781250000e+02) (26, 2.17942398071289062500e+02) (27, 3.19810485839843750000e+00) (28, 1.50000000000000000000e+03) (29, -1.13911230468750000000e+03) (0, 2.25147613525390625000e+02) (1, -1.40179333496093750000e+03) (2, 2.28905761718750000000e+02) (3, -1.39681127929687500000e+03) (4, 2.28848327636718750000e+02) (5, 2.28848327636718750000e+02) (6, 2.28844787597656250000e+02) (7, -1.39285705566406250000e+03) (8, 8.61041809082031250000e+02) (9, 2.29004333496093750000e+02) (10, -3.22996765136718750000e+02) (11, 1.72723291015625000000e+03) (12, 2.28869384765625000000e+02) (13, 8.67806457519531250000e+02) (14, 2.28870513916015625000e+02) (15, -1.39284497070312500000e+03) (16, -1.39284667968750000000e+03) (17, 2.28870208740234375000e+02) (18, 1.86884857177734375000e+02) (19, 8.67806457519531250000e+02) (20, -1.07547460937500000000e+03) (21, 8.61041809082031250000e+02) (22, -1.06219958496093750000e+03) (23, 8.67806457519531250000e+02) (24, -1.06219958496093750000e+03) (25, 8.67806457519531250000e+02) (26, 2.17172241210937500000e+02) (27, 3.47403442382812500000e+02) (28, 8.73512512207031250000e+02) (29, 2.28848327636718750000e+02) (0, -1.50189819335937500000e+02) (1, -2.75823339843750000000e+03) (2, -1.46418457031250000000e+02) (3, -2.75446264648437500000e+03) (4, -1.46475860595703125000e+02) (5, -1.46475860595703125000e+02) (6, -1.46479400634765625000e+02) (7, -2.75451953125000000000e+03) (8, 4.85299255371093750000e+02) (9, -1.46319946289062500000e+02) (10, -1.41270568847656250000e+03) (11, 7.17877868652343750000e+02) (12, -1.46454803466796875000e+02) (13, 8.68224914550781250000e+02) (14, -1.46453674316406250000e+02) (15, -2.75449755859375000000e+03) (16, -2.75449877929687500000e+03) (17, -1.46453979492187500000e+02) (18, -1.88589508056640625000e+02) (19, 8.68224914550781250000e+02) (20, -2.12274487304687500000e+03) (21, 4.85299255371093750000e+02) (22, -2.12274487304687500000e+03) (23, 8.68224914550781250000e+02) (24, -2.12274487304687500000e+03) (25, 8.68224914550781250000e+02) (26, 2.17942398071289062500e+02) (27, -2.81356353759765625000e+01) (28, 1.50000000000000000000e+03) (29, -1.26877368164062500000e+03) (0, 2.10439483642578125000e+02) (1, -1.57146594238281250000e+03) (2, 2.14197631835937500000e+02) (3, -1.56648266601562500000e+03) (4, 2.14140197753906250000e+02) (5, 2.14140197753906250000e+02) (6, 2.14136657714843750000e+02) (7, -1.56252380371093750000e+03) (8, 8.46333679199218750000e+02) (9, 2.14296203613281250000e+02) (10, -4.92898315429687500000e+02) (11, 1.71252478027343750000e+03) (12, 2.14161254882812500000e+02) (13, 8.67806457519531250000e+02) (14, 2.14162384033203125000e+02) (15, -1.56251245117187500000e+03) (16, -1.56251440429687500000e+03) (17, 2.14162078857421875000e+02) (18, 1.72176727294921875000e+02) (19, 8.67806457519531250000e+02) (20, -1.24541259765625000000e+03) (21, 8.46333679199218750000e+02) (22, -1.23212231445312500000e+03) (23, 8.67806457519531250000e+02) (24, -1.23212231445312500000e+03) (25, 8.67806457519531250000e+02) (26, 2.17172241210937500000e+02) (27, 3.32695312500000000000e+02) (28, 1.03267712402343750000e+03) (29, 7.55946731567382812500e+01) (0, 7.37427062988281250000e+01) (1, -2.10592675781250000000e+03) (2, 7.75008544921875000000e+01) (3, -2.10145190429687500000e+03) (4, 7.74434280395507812500e+01) (5, 7.74434280395507812500e+01) (6, 7.74398803710937500000e+01) (7, -2.09915161132812500000e+03) (8, 7.09636901855468750000e+02) (9, 7.75994338989257812500e+01) (10, -9.16836120605468750000e+02) (11, 1.57582800292968750000e+03) (12, 7.74644775390625000000e+01) (13, 8.67806457519531250000e+02) (14, 7.74656066894531250000e+01) (15, -2.09913574218750000000e+03) (16, -2.09913745117187500000e+03) (17, 7.74653015136718750000e+01) (18, 3.54799461364746093750e+01) (19, 8.67806457519531250000e+02) (20, -1.65159118652343750000e+03) (21, 7.09636901855468750000e+02) (22, -1.64378479003906250000e+03) (23, 8.67806457519531250000e+02) (24, -1.64378479003906250000e+03) (25, 8.67806457519531250000e+02) (26, 2.17172241210937500000e+02) (27, 1.95998519897460937500e+02) (28, 1.37466015625000000000e+03) (29, -4.61409790039062500000e+02) (0, 2.21902618408203125000e+02) (1, -1.26602478027343750000e+03) (2, 2.25660766601562500000e+02) (3, -1.26072412109375000000e+03) (4, 2.25603332519531250000e+02) (5, 2.25603332519531250000e+02) (6, 2.25599792480468750000e+02) (7, -1.25573046875000000000e+03) (8, 8.57796813964843750000e+02) (9, 2.25759338378906250000e+02) (10, -2.56801269531250000000e+02) (11, 1.72398791503906250000e+03) (12, 2.25624389648437500000e+02) (13, 8.67806457519531250000e+02) (14, 2.25625518798828125000e+02) (15, -1.25572094726562500000e+03) (16, -1.25572265625000000000e+03) (17, 2.25625213623046875000e+02) (18, 1.83639862060546875000e+02) (19, 8.67806457519531250000e+02) (20, -1.02060504150390625000e+03) (21, 8.57796813964843750000e+02) (22, -1.00389593505859375000e+03) (23, 8.67806457519531250000e+02) (24, -1.00389593505859375000e+03) (25, 8.67806457519531250000e+02) (26, 2.17172241210937500000e+02) (27, 3.44158447265625000000e+02) (28, 8.91872558593750000000e+02) (29, 2.25603332519531250000e+02) (0, -8.92279357910156250000e+02) (1, -8.92279357910156250000e+02) (2, -8.93176147460937500000e+02) (3, 5.67359375000000000000e+02) (4, -8.93157409667968750000e+02) (5, -8.93157409667968750000e+02) (6, -8.93156555175781250000e+02) (7, 5.61408874511718750000e+02) (8, -1.10007531738281250000e+03) (9, -8.93208435058593750000e+02) (10, 5.35699584960937500000e+02) (11, -9.36794799804687500000e+02) (12, -7.55057495117187500000e+02) (13, 1.70691809082031250000e+03) (14, -8.93164611816406250000e+02) (15, 5.61339721679687500000e+02) (16, 2.14757568359375000000e+02) (17, -8.93164489746093750000e+02) (18, -8.83202270507812500000e+02) (19, 1.70691809082031250000e+03) (20, 6.14112396240234375000e+01) (21, -1.10007531738281250000e+03) (22, 8.04849975585937500000e+02) (23, 1.70691809082031250000e+03) (24, 8.04849975585937500000e+02) (25, 1.70691809082031250000e+03) (26, 1.91819677734375000000e+03) (27, -9.34857299804687500000e+02) (28, -8.68965393066406250000e+02) (29, -8.93157409667968750000e+02) (0, -1.50189819335937500000e+02) (1, -2.75823339843750000000e+03) (2, -1.46418457031250000000e+02) (3, -2.75446264648437500000e+03) (4, -1.46475860595703125000e+02) (5, -1.46475860595703125000e+02) (6, -1.46479400634765625000e+02) (7, -2.75451953125000000000e+03) (8, 4.85299255371093750000e+02) (9, -1.46319946289062500000e+02) (10, -1.41270568847656250000e+03) (11, 7.63590087890625000000e+02) (12, -1.46454803466796875000e+02) (13, 8.68224914550781250000e+02) (14, -1.46453674316406250000e+02) (15, -2.75449755859375000000e+03) (16, -2.75449877929687500000e+03) (17, -1.46453979492187500000e+02) (18, -1.88589508056640625000e+02) (19, 8.68224914550781250000e+02) (20, -2.12274487304687500000e+03) (21, 4.85299255371093750000e+02) (22, -2.12274487304687500000e+03) (23, 8.68224914550781250000e+02) (24, -2.12274487304687500000e+03) (25, 8.68224914550781250000e+02) (26, 2.17942398071289062500e+02) (27, -2.81356353759765625000e+01) (28, 1.50000000000000000000e+03) (29, -1.26702636718750000000e+03) (0, -1.62058471679687500000e+02) (1, -2.75823339843750000000e+03) (2, -1.58287109375000000000e+02) (3, -2.75446264648437500000e+03) (4, -1.58344512939453125000e+02) (5, -1.58344512939453125000e+02) (6, -1.58348052978515625000e+02) (7, -2.75451953125000000000e+03) (8, 4.73430603027343750000e+02) (9, -1.58188598632812500000e+02) (10, -1.41270568847656250000e+03) (11, 6.99404479980468750000e+02) (12, -1.58323455810546875000e+02) (13, 8.68224914550781250000e+02) (14, -1.58322326660156250000e+02) (15, -2.75449755859375000000e+03) (16, -2.75449877929687500000e+03) (17, -1.58322631835937500000e+02) (18, -2.00458160400390625000e+02) (19, 8.68224914550781250000e+02) (20, -2.12274487304687500000e+03) (21, 4.73430603027343750000e+02) (22, -2.12274487304687500000e+03) (23, 8.68224914550781250000e+02) (24, -2.12274487304687500000e+03) (25, 8.68224914550781250000e+02) (26, 2.17942398071289062500e+02) (27, -4.00042877197265625000e+01) (28, 1.50000000000000000000e+03) (29, -1.29978247070312500000e+03) (0, -1.62058471679687500000e+02) (1, -2.75823339843750000000e+03) (2, -1.58287109375000000000e+02) (3, -2.75446264648437500000e+03) (4, -1.58344512939453125000e+02) (5, -1.58344512939453125000e+02) (6, -1.58348052978515625000e+02) (7, -2.75451953125000000000e+03) (8, 4.73430603027343750000e+02) (9, -1.58188598632812500000e+02) (10, -1.41270568847656250000e+03) (11, 6.70938537597656250000e+02) (12, -1.58323455810546875000e+02) (13, 8.68224914550781250000e+02) (14, -1.58322326660156250000e+02) (15, -2.75449755859375000000e+03) (16, -2.75449877929687500000e+03) (17, -1.58322631835937500000e+02) (18, -2.00458160400390625000e+02) (19, 8.68224914550781250000e+02) (20, -2.12274487304687500000e+03) (21, 4.73430603027343750000e+02) (22, -2.12274487304687500000e+03) (23, 8.68224914550781250000e+02) (24, -2.12274487304687500000e+03) (25, 8.68224914550781250000e+02) (26, 2.17942398071289062500e+02) (27, -4.00042877197265625000e+01) (28, 1.50000000000000000000e+03) (29, -1.32055444335937500000e+03) (0, 2.10439483642578125000e+02) (1, -1.57055651855468750000e+03) (2, 2.14197631835937500000e+02) (3, -1.56557177734375000000e+03) (4, 2.14140197753906250000e+02) (5, 2.14140197753906250000e+02) (6, 2.14136657714843750000e+02) (7, -1.56160705566406250000e+03) (8, 8.46333679199218750000e+02) (9, 2.14296203613281250000e+02) (10, -4.92391723632812500000e+02) (11, 1.71252478027343750000e+03) (12, 2.14161254882812500000e+02) (13, 8.67806457519531250000e+02) (14, 2.14162384033203125000e+02) (15, -1.56159448242187500000e+03) (16, -1.56159643554687500000e+03) (17, 2.14162078857421875000e+02) (18, 1.72176727294921875000e+02) (19, 8.67806457519531250000e+02) (20, -1.24497448730468750000e+03) (21, 8.46333679199218750000e+02) (22, -1.23166418457031250000e+03) (23, 8.67806457519531250000e+02) (24, -1.23166418457031250000e+03) (25, 8.67806457519531250000e+02) (26, 2.17172241210937500000e+02) (27, 3.32695312500000000000e+02) (28, 1.03267712402343750000e+03) (29, 7.62621536254882812500e+01) (0, -1.18856071472167968750e+02) (1, -2.75535156250000000000e+03) (2, -1.15084724426269531250e+02) (3, -2.75129077148437500000e+03) (4, -1.15142112731933593750e+02) (5, -1.15142112731933593750e+02) (6, -1.15145652770996093750e+02) (7, -2.75038720703125000000e+03) (8, 5.16632995605468750000e+02) (9, -1.14986206054687500000e+02) (10, -1.41270568847656250000e+03) (11, 1.10077355957031250000e+03) (12, -1.15121063232421875000e+02) (13, 8.68224914550781250000e+02) (14, -1.15119934082031250000e+02) (15, -2.75036767578125000000e+03) (16, -2.75036938476562500000e+03) (17, -1.15120239257812500000e+02) (18, -1.57255767822265625000e+02) (19, 8.68224914550781250000e+02) (20, -2.12274487304687500000e+03) (21, 5.16632995605468750000e+02) (22, -2.12274487304687500000e+03) (23, 8.68224914550781250000e+02) (24, -2.12274487304687500000e+03) (25, 8.68224914550781250000e+02) (26, 2.17942398071289062500e+02) (27, 3.19810485839843750000e+00) (28, 1.50000000000000000000e+03) (29, -1.10990014648437500000e+03) (0, 2.20674957275390625000e+02) (1, -1.17684191894531250000e+03) (2, 2.24433105468750000000e+02) (3, -1.17158544921875000000e+03) (4, 2.24375671386718750000e+02) (5, 2.24375671386718750000e+02) (6, 2.24372131347656250000e+02) (7, -1.16673718261718750000e+03) (8, 8.56569152832031250000e+02) (9, 2.24531677246093750000e+02) (10, -1.57774612426757812500e+02) (11, 1.72276025390625000000e+03) (12, 2.24396728515625000000e+02) (13, 8.67806457519531250000e+02) (14, 2.24397857666015625000e+02) (15, -1.16672619628906250000e+03) (16, -1.16672802734375000000e+03) (17, 2.24397552490234375000e+02) (18, 1.82412200927734375000e+02) (19, 8.67806457519531250000e+02) (20, -9.19940612792968750000e+02) (21, 8.56569152832031250000e+02) (22, -9.03715393066406250000e+02) (23, 8.67806457519531250000e+02) (24, -9.03715393066406250000e+02) (25, 8.67806457519531250000e+02) (26, 2.17172241210937500000e+02) (27, 3.42930786132812500000e+02) (28, 7.93730957031250000000e+02) (29, 2.24375671386718750000e+02) (0, -1.50189819335937500000e+02) (1, -2.75823339843750000000e+03) (2, -1.46418457031250000000e+02) (3, -2.75446264648437500000e+03) (4, -1.46475860595703125000e+02) (5, -1.46475860595703125000e+02) (6, -1.46479400634765625000e+02) (7, -2.75451953125000000000e+03) (8, 4.85299255371093750000e+02) (9, -1.46319946289062500000e+02) (10, -1.41270568847656250000e+03) (11, 7.22407836914062500000e+02) (12, -1.46454803466796875000e+02) (13, 8.68224914550781250000e+02) (14, -1.46453674316406250000e+02) (15, -2.75449755859375000000e+03) (16, -2.75449877929687500000e+03) (17, -1.46453979492187500000e+02) (18, -1.88589508056640625000e+02) (19, 8.68224914550781250000e+02) (20, -2.12274487304687500000e+03) (21, 4.85299255371093750000e+02) (22, -2.12274487304687500000e+03) (23, 8.68224914550781250000e+02) (24, -2.12274487304687500000e+03) (25, 8.68224914550781250000e+02) (26, 2.17942398071289062500e+02) (27, -2.81356353759765625000e+01) (28, 1.50000000000000000000e+03) (29, -1.27529858398437500000e+03) (0, 1.99627960205078125000e+02) (1, -1.43371533203125000000e+03) (2, 2.03386108398437500000e+02) (3, -1.42892932128906250000e+03) (4, 2.03328674316406250000e+02) (5, 2.03328674316406250000e+02) (6, 2.03325134277343750000e+02) (7, -1.42562048339843750000e+03) (8, 8.35522155761718750000e+02) (9, 2.03484680175781250000e+02) (10, -3.12120178222656250000e+02) (11, 1.70171325683593750000e+03) (12, 2.03349731445312500000e+02) (13, 8.67806457519531250000e+02) (14, 2.03350860595703125000e+02) (15, -1.42560595703125000000e+03) (16, -1.42560766601562500000e+03) (17, 2.03350555419921875000e+02) (18, 1.61365203857421875000e+02) (19, 8.67806457519531250000e+02) (20, -1.05750659179687500000e+03) (21, 8.35522155761718750000e+02) (22, -1.04637634277343750000e+03) (23, 8.67806457519531250000e+02) (24, -1.04637634277343750000e+03) (25, 8.67806457519531250000e+02) (26, 2.17172241210937500000e+02) (27, 3.21883789062500000000e+02) (28, 8.23279724121093750000e+02) (29, 2.03328674316406250000e+02) (0, -1.71949340820312500000e+02) (1, -2.75823339843750000000e+03) (2, -1.68177978515625000000e+02) (3, -2.75446264648437500000e+03) (4, -1.68235382080078125000e+02) (5, -1.68235382080078125000e+02) (6, -1.68238922119140625000e+02) (7, -2.75451953125000000000e+03) (8, 4.63539733886718750000e+02) (9, -1.68079467773437500000e+02) (10, -1.41270568847656250000e+03) (11, 6.37322570800781250000e+02) (12, -1.68214324951171875000e+02) (13, 8.68224914550781250000e+02) (14, -1.68213195800781250000e+02) (15, -2.75449755859375000000e+03) (16, -2.75449877929687500000e+03) (17, -1.68213500976562500000e+02) (18, -2.10349029541015625000e+02) (19, 8.68224914550781250000e+02) (20, -2.12274487304687500000e+03) (21, 4.63539733886718750000e+02) (22, -2.12274487304687500000e+03) (23, 8.68224914550781250000e+02) (24, -2.12274487304687500000e+03) (25, 8.68224914550781250000e+02) (26, 2.17942398071289062500e+02) (27, -4.98951644897460937500e+01) (28, 1.50000000000000000000e+03) (29, -1.35350195312500000000e+03) (0, -1.62058471679687500000e+02) (1, -2.75823339843750000000e+03) (2, -1.58287109375000000000e+02) (3, -2.75446264648437500000e+03) (4, -1.58344512939453125000e+02) (5, -1.58344512939453125000e+02) (6, -1.58348052978515625000e+02) (7, -2.75451953125000000000e+03) (8, 4.73430603027343750000e+02) (9, -1.58188598632812500000e+02) (10, -1.41270568847656250000e+03) (11, 4.80581726074218750000e+02) (12, -1.58323455810546875000e+02) (13, 8.68224914550781250000e+02) (14, -1.58322326660156250000e+02) (15, -2.75449755859375000000e+03) (16, -2.75449877929687500000e+03) (17, -1.58322631835937500000e+02) (18, -2.00458160400390625000e+02) (19, 8.68224914550781250000e+02) (20, -2.12274487304687500000e+03) (21, 4.73430603027343750000e+02) (22, -2.12274487304687500000e+03) (23, 8.68224914550781250000e+02) (24, -2.12274487304687500000e+03) (25, 8.68224914550781250000e+02) (26, 2.17942398071289062500e+02) (27, -4.00042877197265625000e+01) (28, 1.50000000000000000000e+03) (29, -1.32155883789062500000e+03) (0, -1.35947143554687500000e+02) (1, -2.75823339843750000000e+03) (2, -1.32175781250000000000e+02) (3, -2.75446264648437500000e+03) (4, -1.32233184814453125000e+02) (5, -1.32233184814453125000e+02) (6, -1.32236724853515625000e+02) (7, -2.75451953125000000000e+03) (8, 4.99541931152343750000e+02) (9, -1.32077270507812500000e+02) (10, -1.41270568847656250000e+03) (11, 7.85728515625000000000e+02) (12, -1.32212127685546875000e+02) (13, 8.68224914550781250000e+02) (14, -1.32210998535156250000e+02) (15, -2.75449755859375000000e+03) (16, -2.75449877929687500000e+03) (17, -1.32211303710937500000e+02) (18, -1.74346832275390625000e+02) (19, 8.68224914550781250000e+02) (20, -2.12274487304687500000e+03) (21, 4.99541931152343750000e+02) (22, -2.12274487304687500000e+03) (23, 8.68224914550781250000e+02) (24, -2.12274487304687500000e+03) (25, 8.68224914550781250000e+02) (26, 2.17942398071289062500e+02) (27, -1.38929595947265625000e+01) (28, 1.50000000000000000000e+03) (29, -1.20119775390625000000e+03) (0, -7.37355880737304687500e+01) (1, -2.53275488281250000000e+03) (2, -6.99642410278320312500e+01) (3, -2.52853100585937500000e+03) (4, -7.00216293334960937500e+01) (5, -7.00216293334960937500e+01) (6, -7.00251693725585937500e+01) (7, -2.52709472656250000000e+03) (8, 5.61753479003906250000e+02) (9, -6.98657226562500000000e+01) (10, -1.28653588867187500000e+03) (11, 1.31614306640625000000e+03) (12, -7.00005798339843750000e+01) (13, 8.68224914550781250000e+02) (14, -6.99994506835937500000e+01) (15, -2.52707543945312500000e+03) (16, -2.52707690429687500000e+03) (17, -6.99997558593750000000e+01) (18, -1.12135276794433593750e+02) (19, 8.68224914550781250000e+02) (20, -2.01208386230468750000e+03) (21, 5.61753479003906250000e+02) (22, -2.00710998535156250000e+03) (23, 8.68224914550781250000e+02) (24, -2.00710998535156250000e+03) (25, 8.68224914550781250000e+02) (26, 2.17942398071289062500e+02) (27, 4.83185882568359375000e+01) (28, 1.50000000000000000000e+03) (29, -8.87630493164062500000e+02) (0, 2.02677886962890625000e+02) (1, -1.18295837402343750000e+03) (2, 2.06436035156250000000e+02) (3, -1.17736865234375000000e+03) (4, 2.06378601074218750000e+02) (5, 2.06378601074218750000e+02) (6, 2.06375061035156250000e+02) (7, -1.17143322753906250000e+03) (8, 8.38572082519531250000e+02) (9, 2.06534606933593750000e+02) (10, -2.36712341308593750000e+02) (11, 1.70476318359375000000e+03) (12, 2.06399658203125000000e+02) (13, 8.67806457519531250000e+02) (14, 2.06400787353515625000e+02) (15, -1.17142541503906250000e+03) (16, -1.17142724609375000000e+03) (17, 2.06400482177734375000e+02) (18, 1.64415130615234375000e+02) (19, 8.67806457519531250000e+02) (20, -1.01027386474609375000e+03) (21, 8.38572082519531250000e+02) (22, -9.90457458496093750000e+02) (23, 8.67806457519531250000e+02) (24, -9.90457458496093750000e+02) (25, 8.67806457519531250000e+02) (26, 2.17172241210937500000e+02) (27, 3.24933715820312500000e+02) (28, 9.71817321777343750000e+02) (29, 2.06378601074218750000e+02) (0, 1.23594635009765625000e+02) (1, -1.93674963378906250000e+03) (2, 1.27352783203125000000e+02) (3, -1.93213415527343750000e+03) (4, 1.27295356750488281250e+02) (5, 1.27295356750488281250e+02) (6, 1.27291809082031250000e+02) (7, -1.92937097167968750000e+03) (8, 7.59488830566406250000e+02) (9, 1.27451362609863281250e+02) (10, -7.78622436523437500000e+02) (11, 1.62567993164062500000e+03) (12, 1.27316406250000000000e+02) (13, 8.67806457519531250000e+02) (14, 1.27317535400390625000e+02) (15, -1.92935791015625000000e+03) (16, -1.92935937500000000000e+03) (17, 1.27317230224609375000e+02) (18, 8.53318786621093750000e+01) (19, 8.67806457519531250000e+02) (20, -1.51831115722656250000e+03) (21, 7.59488830566406250000e+02) (22, -1.50896899414062500000e+03) (23, 8.67806457519531250000e+02) (24, -1.50896899414062500000e+03) (25, 8.67806457519531250000e+02) (26, 2.17172241210937500000e+02) (27, 2.45850448608398437500e+02) (28, 1.25632824707031250000e+03) (29, -2.91030029296875000000e+02) (0, 2.10439483642578125000e+02) (1, -1.56858801269531250000e+03) (2, 2.14197631835937500000e+02) (3, -1.56359765625000000000e+03) (4, 2.14140197753906250000e+02) (5, 2.14140197753906250000e+02) (6, 2.14136657714843750000e+02) (7, -1.55962145996093750000e+03) (8, 8.46333679199218750000e+02) (9, 2.14296203613281250000e+02) (10, -4.91296142578125000000e+02) (11, 1.71252478027343750000e+03) (12, 2.14161254882812500000e+02) (13, 8.67806457519531250000e+02) (14, 2.14162384033203125000e+02) (15, -1.55960864257812500000e+03) (16, -1.55961059570312500000e+03) (17, 2.14162078857421875000e+02) (18, 1.72176727294921875000e+02) (19, 8.67806457519531250000e+02) (20, -1.24402258300781250000e+03) (21, 8.46333679199218750000e+02) (22, -1.23066931152343750000e+03) (23, 8.67806457519531250000e+02) (24, -1.23066931152343750000e+03) (25, 8.67806457519531250000e+02) (26, 2.17172241210937500000e+02) (27, 3.32695312500000000000e+02) (28, 1.03267712402343750000e+03) (29, 7.86690139770507812500e+01) (0, 2.20674957275390625000e+02) (1, -1.30316650390625000000e+03) (2, 2.24433105468750000000e+02) (3, -1.29816796875000000000e+03) (4, 2.24375671386718750000e+02) (5, 2.24375671386718750000e+02) (6, 2.24372131347656250000e+02) (7, -1.29416137695312500000e+03) (8, 8.56569152832031250000e+02) (9, 2.24531677246093750000e+02) (10, -2.27869201660156250000e+02) (11, 1.72276025390625000000e+03) (12, 2.24396728515625000000e+02) (13, 8.67806457519531250000e+02) (14, 2.24397857666015625000e+02) (15, -1.29414978027343750000e+03) (16, -1.29415161132812500000e+03) (17, 2.24397552490234375000e+02) (18, 1.82412200927734375000e+02) (19, 8.67806457519531250000e+02) (20, -9.80870910644531250000e+02) (21, 8.56569152832031250000e+02) (22, -9.67427795410156250000e+02) (23, 8.67806457519531250000e+02) (24, -9.67427795410156250000e+02) (25, 8.67806457519531250000e+02) (26, 2.17172241210937500000e+02) (27, 3.42930786132812500000e+02) (28, 7.93730957031250000000e+02) (29, 2.24375671386718750000e+02) (0, 2.10439483642578125000e+02) (1, -1.55189855957031250000e+03) (2, 2.14197631835937500000e+02) (3, -1.54687500000000000000e+03) (4, 2.14140197753906250000e+02) (5, 2.14140197753906250000e+02) (6, 2.14136657714843750000e+02) (7, -1.54278552246093750000e+03) (8, 8.46333679199218750000e+02) (9, 2.14296203613281250000e+02) (10, -4.82074462890625000000e+02) (11, 1.71252478027343750000e+03) (12, 2.14161254882812500000e+02) (13, 8.67806457519531250000e+02) (14, 2.14162384033203125000e+02) (15, -1.54277514648437500000e+03) (16, -1.54277661132812500000e+03) (17, 2.14162078857421875000e+02) (18, 1.72176727294921875000e+02) (19, 8.67806457519531250000e+02) (20, -1.23597241210937500000e+03) (21, 8.46333679199218750000e+02) (22, -1.22225280761718750000e+03) (23, 8.67806457519531250000e+02) (24, -1.22225280761718750000e+03) (25, 8.67806457519531250000e+02) (26, 2.17172241210937500000e+02) (27, 3.32695312500000000000e+02) (28, 1.03267712402343750000e+03) (29, 9.43932571411132812500e+01) (0, 7.37427062988281250000e+01) (1, -2.08958349609375000000e+03) (2, 7.75008544921875000000e+01) (3, -2.08507324218750000000e+03) (4, 7.74434280395507812500e+01) (5, 7.74434280395507812500e+01) (6, 7.74398803710937500000e+01) (7, -2.08266796875000000000e+03) (8, 7.09636901855468750000e+02) (9, 7.75994338989257812500e+01) (10, -9.07772399902343750000e+02) (11, 1.57582800292968750000e+03) (12, 7.74644775390625000000e+01) (13, 8.67806457519531250000e+02) (14, 7.74656066894531250000e+01) (15, -2.08265161132812500000e+03) (16, -2.08265307617187500000e+03) (17, 7.74653015136718750000e+01) (18, 3.54799461364746093750e+01) (19, 8.67806457519531250000e+02) (20, -1.64371423339843750000e+03) (21, 7.09636901855468750000e+02) (22, -1.63554052734375000000e+03) (23, 8.67806457519531250000e+02) (24, -1.63554052734375000000e+03) (25, 8.67806457519531250000e+02) (26, 2.17172241210937500000e+02) (27, 1.95998519897460937500e+02) (28, 1.37466015625000000000e+03) (29, -4.45002685546875000000e+02) (0, 1.23594635009765625000e+02) (1, -1.99009289550781250000e+03) (2, 1.27352783203125000000e+02) (3, -1.98558422851562500000e+03) (4, 1.27295356750488281250e+02) (5, 1.27295356750488281250e+02) (6, 1.27291809082031250000e+02) (7, -1.98317858886718750000e+03) (8, 7.59488830566406250000e+02) (9, 1.27451362609863281250e+02) (10, -8.08153198242187500000e+02) (11, 1.62567993164062500000e+03) (12, 1.27316406250000000000e+02) (13, 8.67806457519531250000e+02) (14, 1.27317535400390625000e+02) (15, -1.98316137695312500000e+03) (16, -1.98316308593750000000e+03) (17, 1.27317230224609375000e+02) (18, 8.53318786621093750000e+01) (19, 8.67806457519531250000e+02) (20, -1.54402966308593750000e+03) (21, 7.59488830566406250000e+02) (22, -1.53587194824218750000e+03) (23, 8.67806457519531250000e+02) (24, -1.53587194824218750000e+03) (25, 8.67806457519531250000e+02) (26, 2.17172241210937500000e+02) (27, 2.45850448608398437500e+02) (28, 1.25632824707031250000e+03) (29, -3.44268798828125000000e+02) (0, -1.62058471679687500000e+02) (1, -2.75823339843750000000e+03) (2, -1.58287109375000000000e+02) (3, -2.75446264648437500000e+03) (4, -1.58344512939453125000e+02) (5, -1.58344512939453125000e+02) (6, -1.58348052978515625000e+02) (7, -2.75451953125000000000e+03) (8, 4.73430603027343750000e+02) (9, -1.58188598632812500000e+02) (10, -1.41270568847656250000e+03) (11, 6.62685180664062500000e+02) (12, -1.58323455810546875000e+02) (13, 8.68224914550781250000e+02) (14, -1.58322326660156250000e+02) (15, -2.75449755859375000000e+03) (16, -2.75449877929687500000e+03) (17, -1.58322631835937500000e+02) (18, -2.00458160400390625000e+02) (19, 8.68224914550781250000e+02) (20, -2.12274487304687500000e+03) (21, 4.73430603027343750000e+02) (22, -2.12274487304687500000e+03) (23, 8.68224914550781250000e+02) (24, -2.12274487304687500000e+03) (25, 8.68224914550781250000e+02) (26, 2.17942398071289062500e+02) (27, -4.00042877197265625000e+01) (28, 1.50000000000000000000e+03) (29, -1.32992028808593750000e+03) (0, 2.25147613525390625000e+02) (1, -1.40189343261718750000e+03) (2, 2.28905761718750000000e+02) (3, -1.39691162109375000000e+03) (4, 2.28848327636718750000e+02) (5, 2.28848327636718750000e+02) (6, 2.28844787597656250000e+02) (7, -1.39295825195312500000e+03) (8, 8.61041809082031250000e+02) (9, 2.29004333496093750000e+02) (10, -3.23049377441406250000e+02) (11, 1.72723291015625000000e+03) (12, 2.28869384765625000000e+02) (13, 8.67806457519531250000e+02) (14, 2.28870513916015625000e+02) (15, -1.39294653320312500000e+03) (16, -1.39294812011718750000e+03) (17, 2.28870208740234375000e+02) (18, 1.86884857177734375000e+02) (19, 8.67806457519531250000e+02) (20, -1.07552148437500000000e+03) (21, 8.61041809082031250000e+02) (22, -1.06224792480468750000e+03) (23, 8.67806457519531250000e+02) (24, -1.06224792480468750000e+03) (25, 8.67806457519531250000e+02) (26, 2.17172241210937500000e+02) (27, 3.47403442382812500000e+02) (28, 8.73512512207031250000e+02) (29, 2.28848327636718750000e+02) (0, -1.35947143554687500000e+02) (1, -2.75823339843750000000e+03) (2, -1.32175781250000000000e+02) (3, -2.75446264648437500000e+03) (4, -1.32233184814453125000e+02) (5, -1.32233184814453125000e+02) (6, -1.32236724853515625000e+02) (7, -2.75451953125000000000e+03) (8, 4.99541931152343750000e+02) (9, -1.32077270507812500000e+02) (10, -1.41270568847656250000e+03) (11, 1.03701965332031250000e+03) (12, -1.32212127685546875000e+02) (13, 8.68224914550781250000e+02) (14, -1.32210998535156250000e+02) (15, -2.75449755859375000000e+03) (16, -2.75449877929687500000e+03) (17, -1.32211303710937500000e+02) (18, -1.74346832275390625000e+02) (19, 8.68224914550781250000e+02) (20, -2.12274487304687500000e+03) (21, 4.99541931152343750000e+02) (22, -2.12274487304687500000e+03) (23, 8.68224914550781250000e+02) (24, -2.12274487304687500000e+03) (25, 8.68224914550781250000e+02) (26, 2.17942398071289062500e+02) (27, -1.38929595947265625000e+01) (28, 1.50000000000000000000e+03) (29, -1.17131420898437500000e+03) (0, 2.25147613525390625000e+02) (1, -1.39753417968750000000e+03) (2, 2.28905761718750000000e+02) (3, -1.39254272460937500000e+03) (4, 2.28848327636718750000e+02) (5, 2.28848327636718750000e+02) (6, 2.28844787597656250000e+02) (7, -1.38855957031250000000e+03) (8, 8.61041809082031250000e+02) (9, 2.29004333496093750000e+02) (10, -3.20666442871093750000e+02) (11, 1.72723291015625000000e+03) (12, 2.28869384765625000000e+02) (13, 8.67806457519531250000e+02) (14, 2.28870513916015625000e+02) (15, -1.38854833984375000000e+03) (16, -1.38855004882812500000e+03) (17, 2.28870208740234375000e+02) (18, 1.86884857177734375000e+02) (19, 8.67806457519531250000e+02) (20, -1.07341235351562500000e+03) (21, 8.61041809082031250000e+02) (22, -1.06004870605468750000e+03) (23, 8.67806457519531250000e+02) (24, -1.06004870605468750000e+03) (25, 8.67806457519531250000e+02) (26, 2.17172241210937500000e+02) (27, 3.47403442382812500000e+02) (28, 8.73512512207031250000e+02) (29, 2.28848327636718750000e+02) (0, 2.12519561767578125000e+02) (1, -1.50441198730468750000e+03) (2, 2.16277709960937500000e+02) (3, -1.49960766601562500000e+03) (4, 2.16220275878906250000e+02) (5, 2.16220275878906250000e+02) (6, 2.16216735839843750000e+02) (7, -1.49623522949218750000e+03) (8, 8.48413757324218750000e+02) (9, 2.16376281738281250000e+02) (10, -3.87061523437500000000e+02) (11, 1.71460485839843750000e+03) (12, 2.16241333007812500000e+02) (13, 8.67806457519531250000e+02) (14, 2.16242462158203125000e+02) (15, -1.49622167968750000000e+03) (16, -1.49622338867187500000e+03) (17, 2.16242156982421875000e+02) (18, 1.74256805419921875000e+02) (19, 8.67806457519531250000e+02) (20, -1.13316442871093750000e+03) (21, 8.48413757324218750000e+02) (22, -1.12181909179687500000e+03) (23, 8.67806457519531250000e+02) (24, -1.12181909179687500000e+03) (25, 8.67806457519531250000e+02) (26, 2.17172241210937500000e+02) (27, 3.34775390625000000000e+02) (28, 8.91241760253906250000e+02) (29, 1.40813903808593750000e+02) (0, 2.02507965087890625000e+02) (1, -1.67379626464843750000e+03) (2, 2.06266113281250000000e+02) (3, -1.66900708007812500000e+03) (4, 2.06208679199218750000e+02) (5, 2.06208679199218750000e+02) (6, 2.06205139160156250000e+02) (7, -1.66568078613281250000e+03) (8, 8.38402160644531250000e+02) (9, 2.06364685058593750000e+02) (10, -5.53258972167968750000e+02) (11, 1.70459326171875000000e+03) (12, 2.06229736328125000000e+02) (13, 8.67806457519531250000e+02) (14, 2.06230865478515625000e+02) (15, -1.66566699218750000000e+03) (16, -1.66566870117187500000e+03) (17, 2.06230560302734375000e+02) (18, 1.64245208740234375000e+02) (19, 8.67806457519531250000e+02) (20, -1.29886242675781250000e+03) (21, 8.38402160644531250000e+02) (22, -1.28766638183593750000e+03) (23, 8.67806457519531250000e+02) (24, -1.28766638183593750000e+03) (25, 8.67806457519531250000e+02) (26, 2.17172241210937500000e+02) (27, 3.24763793945312500000e+02) (28, 1.04154162597656250000e+03) (29, -2.50371627807617187500e+01) (0, -1.62058471679687500000e+02) (1, -2.75823339843750000000e+03) (2, -1.58287109375000000000e+02) (3, -2.75446264648437500000e+03) (4, -1.58344512939453125000e+02) (5, -1.58344512939453125000e+02) (6, -1.58348052978515625000e+02) (7, -2.75451953125000000000e+03) (8, 4.73430603027343750000e+02) (9, -1.58188598632812500000e+02) (10, -1.41270568847656250000e+03) (11, 6.69006652832031250000e+02) (12, -1.58323455810546875000e+02) (13, 8.68224914550781250000e+02) (14, -1.58322326660156250000e+02) (15, -2.75449755859375000000e+03) (16, -2.75449877929687500000e+03) (17, -1.58322631835937500000e+02) (18, -2.00458160400390625000e+02) (19, 8.68224914550781250000e+02) (20, -2.12274487304687500000e+03) (21, 4.73430603027343750000e+02) (22, -2.12274487304687500000e+03) (23, 8.68224914550781250000e+02) (24, -2.12274487304687500000e+03) (25, 8.68224914550781250000e+02) (26, 2.17942398071289062500e+02) (27, -4.00042877197265625000e+01) (28, 1.50000000000000000000e+03) (29, -1.32354614257812500000e+03) (0, 2.10439483642578125000e+02) (1, -1.57167102050781250000e+03) (2, 2.14197631835937500000e+02) (3, -1.56668823242187500000e+03) (4, 2.14140197753906250000e+02) (5, 2.14140197753906250000e+02) (6, 2.14136657714843750000e+02) (7, -1.56273156738281250000e+03) (8, 8.46333679199218750000e+02) (9, 2.14296203613281250000e+02) (10, -4.93005493164062500000e+02) (11, 1.71252478027343750000e+03) (12, 2.14161254882812500000e+02) (13, 8.67806457519531250000e+02) (14, 2.14162384033203125000e+02) (15, -1.56271899414062500000e+03) (16, -1.56272094726562500000e+03) (17, 2.14162078857421875000e+02) (18, 1.72176727294921875000e+02) (19, 8.67806457519531250000e+02) (20, -1.24551147460937500000e+03) (21, 8.46333679199218750000e+02) (22, -1.23222619628906250000e+03) (23, 8.67806457519531250000e+02) (24, -1.23222619628906250000e+03) (25, 8.67806457519531250000e+02) (26, 2.17172241210937500000e+02) (27, 3.32695312500000000000e+02) (28, 1.03267712402343750000e+03) (29, 7.44738235473632812500e+01) (0, 2.25147613525390625000e+02) (1, -1.35908435058593750000e+03) (2, 2.28905761718750000000e+02) (3, -1.35401403808593750000e+03) (4, 2.28848327636718750000e+02) (5, 2.28848327636718750000e+02) (6, 2.28844787597656250000e+02) (7, -1.34977380371093750000e+03) (8, 8.61041809082031250000e+02) (9, 2.29004333496093750000e+02) (10, -2.99356994628906250000e+02) (11, 1.72723291015625000000e+03) (12, 2.28869384765625000000e+02) (13, 8.67806457519531250000e+02) (14, 2.28870513916015625000e+02) (15, -1.34976074218750000000e+03) (16, -1.34976245117187500000e+03) (17, 2.28870208740234375000e+02) (18, 1.86884857177734375000e+02) (19, 8.67806457519531250000e+02) (20, -1.05487194824218750000e+03) (21, 8.61041809082031250000e+02) (22, -1.04065502929687500000e+03) (23, 8.67806457519531250000e+02) (24, -1.04065502929687500000e+03) (25, 8.67806457519531250000e+02) (26, 2.17172241210937500000e+02) (27, 3.47403442382812500000e+02) (28, 8.73512512207031250000e+02) (29, 2.28848327636718750000e+02) (0, -1.50189819335937500000e+02) (1, -2.75823339843750000000e+03) (2, -1.46418457031250000000e+02) (3, -2.75446264648437500000e+03) (4, -1.46475860595703125000e+02) (5, -1.46475860595703125000e+02) (6, -1.46479400634765625000e+02) (7, -2.75451953125000000000e+03) (8, 4.85299255371093750000e+02) (9, -1.46319946289062500000e+02) (10, -1.41270568847656250000e+03) (11, 7.30921020507812500000e+02) (12, -1.46454803466796875000e+02) (13, 8.68224914550781250000e+02) (14, -1.46453674316406250000e+02) (15, -2.75449755859375000000e+03) (16, -2.75449877929687500000e+03) (17, -1.46453979492187500000e+02) (18, -1.88589508056640625000e+02) (19, 8.68224914550781250000e+02) (20, -2.12274487304687500000e+03) (21, 4.85299255371093750000e+02) (22, -2.12274487304687500000e+03) (23, 8.68224914550781250000e+02) (24, -2.12274487304687500000e+03) (25, 8.68224914550781250000e+02) (26, 2.17942398071289062500e+02) (27, -2.81356353759765625000e+01) (28, 1.50000000000000000000e+03) (29, -1.25947314453125000000e+03) (0, -1.50189819335937500000e+02) (1, -2.75823339843750000000e+03) (2, -1.46418457031250000000e+02) (3, -2.75446264648437500000e+03) (4, -1.46475860595703125000e+02) (5, -1.46475860595703125000e+02) (6, -1.46479400634765625000e+02) (7, -2.75451953125000000000e+03) (8, 4.85299255371093750000e+02) (9, -1.46319946289062500000e+02) (10, -1.41270568847656250000e+03) (11, 7.19697998046875000000e+02) (12, -1.46454803466796875000e+02) (13, 8.68224914550781250000e+02) (14, -1.46453674316406250000e+02) (15, -2.75449755859375000000e+03) (16, -2.75449877929687500000e+03) (17, -1.46453979492187500000e+02) (18, -1.88589508056640625000e+02) (19, 8.68224914550781250000e+02) (20, -2.12274487304687500000e+03) (21, 4.85299255371093750000e+02) (22, -2.12274487304687500000e+03) (23, 8.68224914550781250000e+02) (24, -2.12274487304687500000e+03) (25, 8.68224914550781250000e+02) (26, 2.17942398071289062500e+02) (27, -2.81356353759765625000e+01) (28, 1.50000000000000000000e+03) (29, -1.26580371093750000000e+03) (0, 2.25147613525390625000e+02) (1, -1.40207873535156250000e+03) (2, 2.28905761718750000000e+02) (3, -1.39709643554687500000e+03) (4, 2.28848327636718750000e+02) (5, 2.28848327636718750000e+02) (6, 2.28844787597656250000e+02) (7, -1.39314440917968750000e+03) (8, 8.61041809082031250000e+02) (9, 2.29004333496093750000e+02) (10, -3.23152038574218750000e+02) (11, 1.72723291015625000000e+03) (12, 2.28869384765625000000e+02) (13, 8.67806457519531250000e+02) (14, 2.28870513916015625000e+02) (15, -1.39313073730468750000e+03) (16, -1.39313256835937500000e+03) (17, 2.28870208740234375000e+02) (18, 1.86884857177734375000e+02) (19, 8.67806457519531250000e+02) (20, -1.07561010742187500000e+03) (21, 8.61041809082031250000e+02) (22, -1.06234118652343750000e+03) (23, 8.67806457519531250000e+02) (24, -1.06234118652343750000e+03) (25, 8.67806457519531250000e+02) (26, 2.17172241210937500000e+02) (27, 3.47403442382812500000e+02) (28, 8.73512512207031250000e+02) (29, 2.28848327636718750000e+02) (0, -1.50189819335937500000e+02) (1, -2.75823339843750000000e+03) (2, -1.46418457031250000000e+02) (3, -2.75446264648437500000e+03) (4, -1.46475860595703125000e+02) (5, -1.46475860595703125000e+02) (6, -1.46479400634765625000e+02) (7, -2.75451953125000000000e+03) (8, 4.85299255371093750000e+02) (9, -1.46319946289062500000e+02) (10, -1.41270568847656250000e+03) (11, 9.40568481445312500000e+02) (12, -1.46454803466796875000e+02) (13, 8.68224914550781250000e+02) (14, -1.46453674316406250000e+02) (15, -2.75449755859375000000e+03) (16, -2.75449877929687500000e+03) (17, -1.46453979492187500000e+02) (18, -1.88589508056640625000e+02) (19, 8.68224914550781250000e+02) (20, -2.12274487304687500000e+03) (21, 4.85299255371093750000e+02) (22, -2.12274487304687500000e+03) (23, 8.68224914550781250000e+02) (24, -2.12274487304687500000e+03) (25, 8.68224914550781250000e+02) (26, 2.17942398071289062500e+02) (27, -2.81356353759765625000e+01) (28, 1.50000000000000000000e+03) (29, -1.27326550292968750000e+03) (0, 2.10439483642578125000e+02) (1, -1.54728063964843750000e+03) (2, 2.14197631835937500000e+02) (3, -1.54224926757812500000e+03) (4, 2.14140197753906250000e+02) (5, 2.14140197753906250000e+02) (6, 2.14136657714843750000e+02) (7, -1.53813000488281250000e+03) (8, 8.46333679199218750000e+02) (9, 2.14296203613281250000e+02) (10, -4.79484497070312500000e+02) (11, 1.71252478027343750000e+03) (12, 2.14161254882812500000e+02) (13, 8.67806457519531250000e+02) (14, 2.14162384033203125000e+02) (15, -1.53811718750000000000e+03) (16, -1.53811914062500000000e+03) (17, 2.14162078857421875000e+02) (18, 1.72176727294921875000e+02) (19, 8.67806457519531250000e+02) (20, -1.23374475097656250000e+03) (21, 8.46333679199218750000e+02) (22, -1.21992480468750000000e+03) (23, 8.67806457519531250000e+02) (24, -1.21992480468750000000e+03) (25, 8.67806457519531250000e+02) (26, 2.17172241210937500000e+02) (27, 3.32695312500000000000e+02) (28, 1.03267712402343750000e+03) (29, 9.93772659301757812500e+01) (0, 2.10439483642578125000e+02) (1, -1.57189196777343750000e+03) (2, 2.14197631835937500000e+02) (3, -1.56691040039062500000e+03) (4, 2.14140197753906250000e+02) (5, 2.14140197753906250000e+02) (6, 2.14136657714843750000e+02) (7, -1.56295446777343750000e+03) (8, 8.46333679199218750000e+02) (9, 2.14296203613281250000e+02) (10, -4.93127807617187500000e+02) (11, 1.71252478027343750000e+03) (12, 2.14161254882812500000e+02) (13, 8.67806457519531250000e+02) (14, 2.14162384033203125000e+02) (15, -1.56294238281250000000e+03) (16, -1.56294433593750000000e+03) (17, 2.14162078857421875000e+02) (18, 1.72176727294921875000e+02) (19, 8.67806457519531250000e+02) (20, -1.24561694335937500000e+03) (21, 8.46333679199218750000e+02) (22, -1.23233740234375000000e+03) (23, 8.67806457519531250000e+02) (24, -1.23233740234375000000e+03) (25, 8.67806457519531250000e+02) (26, 2.17172241210937500000e+02) (27, 3.32695312500000000000e+02) (28, 1.03267712402343750000e+03) (29, 7.52132034301757812500e+01) (0, 2.10439483642578125000e+02) (1, -1.57202233886718750000e+03) (2, 2.14197631835937500000e+02) (3, -1.56704150390625000000e+03) (4, 2.14140197753906250000e+02) (5, 2.14140197753906250000e+02) (6, 2.14136657714843750000e+02) (7, -1.56308605957031250000e+03) (8, 8.46333679199218750000e+02) (9, 2.14296203613281250000e+02) (10, -4.93211181640625000000e+02) (11, 1.71252478027343750000e+03) (12, 2.14161254882812500000e+02) (13, 8.67806457519531250000e+02) (14, 2.14162384033203125000e+02) (15, -1.56307543945312500000e+03) (16, -1.56307714843750000000e+03) (17, 2.14162078857421875000e+02) (18, 1.72176727294921875000e+02) (19, 8.67806457519531250000e+02) (20, -1.24567773437500000000e+03) (21, 8.46333679199218750000e+02) (22, -1.23240368652343750000e+03) (23, 8.67806457519531250000e+02) (24, -1.23240368652343750000e+03) (25, 8.67806457519531250000e+02) (26, 2.17172241210937500000e+02) (27, 3.32695312500000000000e+02) (28, 1.03267712402343750000e+03) (29, 7.64489212036132812500e+01) (0, 2.10439483642578125000e+02) (1, -1.56321057128906250000e+03) (2, 2.14197631835937500000e+02) (3, -1.55821093750000000000e+03) (4, 2.14140197753906250000e+02) (5, 2.14140197753906250000e+02) (6, 2.14136657714843750000e+02) (7, -1.55419836425781250000e+03) (8, 8.46333679199218750000e+02) (9, 2.14296203613281250000e+02) (10, -4.88314575195312500000e+02) (11, 1.71252478027343750000e+03) (12, 2.14161254882812500000e+02) (13, 8.67806457519531250000e+02) (14, 2.14162384033203125000e+02) (15, -1.55418554687500000000e+03) (16, -1.55418798828125000000e+03) (17, 2.14162078857421875000e+02) (18, 1.72176727294921875000e+02) (19, 8.67806457519531250000e+02) (20, -1.24142553710937500000e+03) (21, 8.46333679199218750000e+02) (22, -1.22795898437500000000e+03) (23, 8.67806457519531250000e+02) (24, -1.22795898437500000000e+03) (25, 8.67806457519531250000e+02) (26, 2.17172241210937500000e+02) (27, 3.32695312500000000000e+02) (28, 1.03267712402343750000e+03) (29, 8.43146438598632812500e+01) (0, -7.37355880737304687500e+01) (1, -2.57760449218750000000e+03) (2, -6.99642410278320312500e+01) (3, -2.57347387695312500000e+03) (4, -7.00216293334960937500e+01) (5, -7.00216293334960937500e+01) (6, -7.00251693725585937500e+01) (7, -2.57233496093750000000e+03) (8, 5.61753479003906250000e+02) (9, -6.98657226562500000000e+01) (10, -1.31136328125000000000e+03) (11, 1.27525207519531250000e+03) (12, -7.00005798339843750000e+01) (13, 8.68224914550781250000e+02) (14, -6.99994506835937500000e+01) (15, -2.57231591796875000000e+03) (16, -2.57231713867187500000e+03) (17, -6.99997558593750000000e+01) (18, -1.12135276794433593750e+02) (19, 8.68224914550781250000e+02) (20, -2.03370178222656250000e+03) (21, 5.61753479003906250000e+02) (22, -2.02972937011718750000e+03) (23, 8.68224914550781250000e+02) (24, -2.02972937011718750000e+03) (25, 8.68224914550781250000e+02) (26, 2.17942398071289062500e+02) (27, 4.83185882568359375000e+01) (28, 1.50000000000000000000e+03) (29, -9.33565795898437500000e+02) (0, 2.10439483642578125000e+02) (1, -1.57257092285156250000e+03) (2, 2.14197631835937500000e+02) (3, -1.56758935546875000000e+03) (4, 2.14140197753906250000e+02) (5, 2.14140197753906250000e+02) (6, 2.14136657714843750000e+02) (7, -1.56363879394531250000e+03) (8, 8.46333679199218750000e+02) (9, 2.14296203613281250000e+02) (10, -4.93503051757812500000e+02) (11, 1.71252478027343750000e+03) (12, 2.14161254882812500000e+02) (13, 8.67806457519531250000e+02) (14, 2.14162384033203125000e+02) (15, -1.56362719726562500000e+03) (16, -1.56362866210937500000e+03) (17, 2.14162078857421875000e+02) (18, 1.72176727294921875000e+02) (19, 8.67806457519531250000e+02) (20, -1.24594531250000000000e+03) (21, 8.46333679199218750000e+02) (22, -1.23267980957031250000e+03) (23, 8.67806457519531250000e+02) (24, -1.23267980957031250000e+03) (25, 8.67806457519531250000e+02) (26, 2.17172241210937500000e+02) (27, 3.32695312500000000000e+02) (28, 1.03267712402343750000e+03) (29, 7.40032424926757812500e+01) (0, -1.62058471679687500000e+02) (1, -2.75823339843750000000e+03) (2, -1.58287109375000000000e+02) (3, -2.75446264648437500000e+03) (4, -1.58344512939453125000e+02) (5, -1.58344512939453125000e+02) (6, -1.58348052978515625000e+02) (7, -2.75451953125000000000e+03) (8, 4.73430603027343750000e+02) (9, -1.58188598632812500000e+02) (10, -1.41270568847656250000e+03) (11, 6.64629699707031250000e+02) (12, -1.58323455810546875000e+02) (13, 8.68224914550781250000e+02) (14, -1.58322326660156250000e+02) (15, -2.75449755859375000000e+03) (16, -2.75449877929687500000e+03) (17, -1.58322631835937500000e+02) (18, -2.00458160400390625000e+02) (19, 8.68224914550781250000e+02) (20, -2.12274487304687500000e+03) (21, 4.73430603027343750000e+02) (22, -2.12274487304687500000e+03) (23, 8.68224914550781250000e+02) (24, -2.12274487304687500000e+03) (25, 8.68224914550781250000e+02) (26, 2.17942398071289062500e+02) (27, -4.00042877197265625000e+01) (28, 1.50000000000000000000e+03) (29, -1.32692456054687500000e+03) (0, -1.62058471679687500000e+02) (1, -2.75823339843750000000e+03) (2, -1.58287109375000000000e+02) (3, -2.75446264648437500000e+03) (4, -1.58344512939453125000e+02) (5, -1.58344512939453125000e+02) (6, -1.58348052978515625000e+02) (7, -2.75451953125000000000e+03) (8, 4.73430603027343750000e+02) (9, -1.58188598632812500000e+02) (10, -1.41270568847656250000e+03) (11, 6.63712341308593750000e+02) (12, -1.58323455810546875000e+02) (13, 8.68224914550781250000e+02) (14, -1.58322326660156250000e+02) (15, -2.75449755859375000000e+03) (16, -2.75449877929687500000e+03) (17, -1.58322631835937500000e+02) (18, -2.00458160400390625000e+02) (19, 8.68224914550781250000e+02) (20, -2.12274487304687500000e+03) (21, 4.73430603027343750000e+02) (22, -2.12274487304687500000e+03) (23, 8.68224914550781250000e+02) (24, -2.12274487304687500000e+03) (25, 8.68224914550781250000e+02) (26, 2.17942398071289062500e+02) (27, -4.00042877197265625000e+01) (28, 1.50000000000000000000e+03) (29, -1.32706018066406250000e+03) (0, 2.25147613525390625000e+02) (1, -1.38182836914062500000e+03) (2, 2.28905761718750000000e+02) (3, -1.37680554199218750000e+03) (4, 2.28848327636718750000e+02) (5, 2.28848327636718750000e+02) (6, 2.28844787597656250000e+02) (7, -1.37271508789062500000e+03) (8, 8.61041809082031250000e+02) (9, 2.29004333496093750000e+02) (10, -3.11975769042968750000e+02) (11, 1.72723291015625000000e+03) (12, 2.28869384765625000000e+02) (13, 8.67806457519531250000e+02) (14, 2.28870513916015625000e+02) (15, -1.37270410156250000000e+03) (16, -1.37270605468750000000e+03) (17, 2.28870208740234375000e+02) (18, 1.86884857177734375000e+02) (19, 8.67806457519531250000e+02) (20, -1.06584326171875000000e+03) (21, 8.61041809082031250000e+02) (22, -1.05212780761718750000e+03) (23, 8.67806457519531250000e+02) (24, -1.05212780761718750000e+03) (25, 8.67806457519531250000e+02) (26, 2.17172241210937500000e+02) (27, 3.47403442382812500000e+02) (28, 8.73512512207031250000e+02) (29, 2.28848327636718750000e+02) (0, 2.17677886962890625000e+02) (1, -1.18758764648437500000e+03) (2, 2.21436035156250000000e+02) (3, -1.18212890625000000000e+03) (4, 2.21378601074218750000e+02) (5, 2.21378601074218750000e+02) (6, 2.21375061035156250000e+02) (7, -1.17662072753906250000e+03) (8, 8.53572082519531250000e+02) (9, 2.21534606933593750000e+02) (10, -2.12615554809570312500e+02) (11, 1.71976318359375000000e+03) (12, 2.21399658203125000000e+02) (13, 8.67806457519531250000e+02) (14, 2.21400787353515625000e+02) (15, -1.17661157226562500000e+03) (16, -1.17661352539062500000e+03) (17, 2.21400482177734375000e+02) (18, 1.79415130615234375000e+02) (19, 8.67806457519531250000e+02) (20, -9.81444885253906250000e+02) (21, 8.53572082519531250000e+02) (22, -9.63050964355468750000e+02) (23, 8.67806457519531250000e+02) (24, -9.63050964355468750000e+02) (25, 8.67806457519531250000e+02) (26, 2.17172241210937500000e+02) (27, 3.39933715820312500000e+02) (28, 9.11817321777343750000e+02) (29, 2.21378601074218750000e+02) (0, -1.62058471679687500000e+02) (1, -2.75823339843750000000e+03) (2, -1.58287109375000000000e+02) (3, -2.75446264648437500000e+03) (4, -1.58344512939453125000e+02) (5, -1.58344512939453125000e+02) (6, -1.58348052978515625000e+02) (7, -2.75451953125000000000e+03) (8, 4.73430603027343750000e+02) (9, -1.58188598632812500000e+02) (10, -1.41270568847656250000e+03) (11, 6.75529602050781250000e+02) (12, -1.58323455810546875000e+02) (13, 8.68224914550781250000e+02) (14, -1.58322326660156250000e+02) (15, -2.75449755859375000000e+03) (16, -2.75449877929687500000e+03) (17, -1.58322631835937500000e+02) (18, -2.00458160400390625000e+02) (19, 8.68224914550781250000e+02) (20, -2.12274487304687500000e+03) (21, 4.73430603027343750000e+02) (22, -2.12274487304687500000e+03) (23, 8.68224914550781250000e+02) (24, -2.12274487304687500000e+03) (25, 8.68224914550781250000e+02) (26, 2.17942398071289062500e+02) (27, -4.00042877197265625000e+01) (28, 1.50000000000000000000e+03) (29, -1.30927807617187500000e+03) (0, 2.11947906494140625000e+02) (1, -1.12324157714843750000e+03) (2, 2.15706054687500000000e+02) (3, -1.11778564453125000000e+03) (4, 2.15648620605468750000e+02) (5, 2.15648620605468750000e+02) (6, 2.15645080566406250000e+02) (7, -1.11228698730468750000e+03) (8, 8.47842102050781250000e+02) (9, 2.15804626464843750000e+02) (10, -1.47611557006835937500e+02) (11, 1.71403320312500000000e+03) (12, 2.15669677734375000000e+02) (13, 8.67806457519531250000e+02) (14, 2.15670806884765625000e+02) (15, -1.11227770996093750000e+03) (16, -1.11227954101562500000e+03) (17, 2.15670501708984375000e+02) (18, 1.73685150146484375000e+02) (19, 8.67806457519531250000e+02) (20, -9.16414733886718750000e+02) (21, 8.47842102050781250000e+02) (22, -8.98049133300781250000e+02) (23, 8.67806457519531250000e+02) (24, -8.98049133300781250000e+02) (25, 8.67806457519531250000e+02) (26, 2.17172241210937500000e+02) (27, 3.34203735351562500000e+02) (28, 8.53060119628906250000e+02) (29, 2.15648620605468750000e+02) (0, -1.62058471679687500000e+02) (1, -2.75823339843750000000e+03) (2, -1.58287109375000000000e+02) (3, -2.75446264648437500000e+03) (4, -1.58344512939453125000e+02) (5, -1.58344512939453125000e+02) (6, -1.58348052978515625000e+02) (7, -2.75451953125000000000e+03) (8, 4.73430603027343750000e+02) (9, -1.58188598632812500000e+02) (10, -1.41270568847656250000e+03) (11, 6.72524414062500000000e+02) (12, -1.58323455810546875000e+02) (13, 8.68224914550781250000e+02) (14, -1.58322326660156250000e+02) (15, -2.75449755859375000000e+03) (16, -2.75449877929687500000e+03) (17, -1.58322631835937500000e+02) (18, -2.00458160400390625000e+02) (19, 8.68224914550781250000e+02) (20, -2.12274487304687500000e+03) (21, 4.73430603027343750000e+02) (22, -2.12274487304687500000e+03) (23, 8.68224914550781250000e+02) (24, -2.12274487304687500000e+03) (25, 8.68224914550781250000e+02) (26, 2.17942398071289062500e+02) (27, -4.00042877197265625000e+01) (28, 1.50000000000000000000e+03) (29, -1.31591613769531250000e+03) (0, 1.77147857666015625000e+02) (1, -1.31958068847656250000e+03) (2, 1.80906005859375000000e+02) (3, -1.31421801757812500000e+03) (4, 1.80848571777343750000e+02) (5, 1.80848571777343750000e+02) (6, 1.80845031738281250000e+02) (7, -1.30902124023437500000e+03) (8, 8.13042053222656250000e+02) (9, 1.81004577636718750000e+02) (10, -3.23757263183593750000e+02) (11, 1.67923315429687500000e+03) (12, 1.80869628906250000000e+02) (13, 8.67806457519531250000e+02) (14, 1.80870758056640625000e+02) (15, -1.30901220703125000000e+03) (16, -1.30901391601562500000e+03) (17, 1.80870452880859375000e+02) (18, 1.38885101318359375000e+02) (19, 8.67806457519531250000e+02) (20, -1.08939160156250000000e+03) (21, 8.13042053222656250000e+02) (22, -1.07201794433593750000e+03) (23, 8.67806457519531250000e+02) (24, -1.07201794433593750000e+03) (25, 8.67806457519531250000e+02) (26, 2.17172241210937500000e+02) (27, 2.99403686523437500000e+02) (28, 9.94660095214843750000e+02) (29, 1.80848571777343750000e+02) (0, 1.35016021728515625000e+02) (1, -1.85011169433593750000e+03) (2, 1.38774169921875000000e+02) (3, -1.84534033203125000000e+03) (4, 1.38716735839843750000e+02) (5, 1.38716735839843750000e+02) (6, 1.38713195800781250000e+02) (7, -1.84207019042968750000e+03) (8, 7.70910217285156250000e+02) (9, 1.38872741699218750000e+02) (10, -7.25961914062500000000e+02) (11, 1.63710131835937500000e+03) (12, 1.38737792968750000000e+02) (13, 8.67806457519531250000e+02) (14, 1.38738922119140625000e+02) (15, -1.84205810546875000000e+03) (16, -1.84206005859375000000e+03) (17, 1.38738616943359375000e+02) (18, 9.67532653808593750000e+01) (19, 8.67806457519531250000e+02) (20, -1.47062377929687500000e+03) (21, 7.70910217285156250000e+02) (22, -1.45960791015625000000e+03) (23, 8.67806457519531250000e+02) (24, -1.45960791015625000000e+03) (25, 8.67806457519531250000e+02) (26, 2.17172241210937500000e+02) (27, 2.57271850585937500000e+02) (28, 1.24356311035156250000e+03) (29, -2.04832946777343750000e+02) (0, -1.62058471679687500000e+02) (1, -2.75823339843750000000e+03) (2, -1.58287109375000000000e+02) (3, -2.75446264648437500000e+03) (4, -1.58344512939453125000e+02) (5, -1.58344512939453125000e+02) (6, -1.58348052978515625000e+02) (7, -2.75451953125000000000e+03) (8, 4.73430603027343750000e+02) (9, -1.58188598632812500000e+02) (10, -1.41270568847656250000e+03) (11, 6.68310241699218750000e+02) (12, -1.58323455810546875000e+02) (13, 8.68224914550781250000e+02) (14, -1.58322326660156250000e+02) (15, -2.75449755859375000000e+03) (16, -2.75449877929687500000e+03) (17, -1.58322631835937500000e+02) (18, -2.00458160400390625000e+02) (19, 8.68224914550781250000e+02) (20, -2.12274487304687500000e+03) (21, 4.73430603027343750000e+02) (22, -2.12274487304687500000e+03) (23, 8.68224914550781250000e+02) (24, -2.12274487304687500000e+03) (25, 8.68224914550781250000e+02) (26, 2.17942398071289062500e+02) (27, -4.00042877197265625000e+01) (28, 1.50000000000000000000e+03) (29, -1.31981665039062500000e+03) (0, -1.62058471679687500000e+02) (1, -2.75823339843750000000e+03) (2, -1.58287109375000000000e+02) (3, -2.75446264648437500000e+03) (4, -1.58344512939453125000e+02) (5, -1.58344512939453125000e+02) (6, -1.58348052978515625000e+02) (7, -2.75451953125000000000e+03) (8, 4.73430603027343750000e+02) (9, -1.58188598632812500000e+02) (10, -1.41270568847656250000e+03) (11, 6.62146545410156250000e+02) (12, -1.58323455810546875000e+02) (13, 8.68224914550781250000e+02) (14, -1.58322326660156250000e+02) (15, -2.75449755859375000000e+03) (16, -2.75449877929687500000e+03) (17, -1.58322631835937500000e+02) (18, -2.00458160400390625000e+02) (19, 8.68224914550781250000e+02) (20, -2.12274487304687500000e+03) (21, 4.73430603027343750000e+02) (22, -2.12274487304687500000e+03) (23, 8.68224914550781250000e+02) (24, -2.12274487304687500000e+03) (25, 8.68224914550781250000e+02) (26, 2.17942398071289062500e+02) (27, -4.00042877197265625000e+01) (28, 1.50000000000000000000e+03) (29, -1.32947119140625000000e+03) (30, 1.49270886230468750000e+03) (31, 1.49635424804687500000e+03) (32, 1.49635424804687500000e+03) (33, 1.49270886230468750000e+03) (34, 1.49635424804687500000e+03) (35, 1.49270886230468750000e+03) (36, 1.49270886230468750000e+03) (37, 1.49270886230468750000e+03) (38, 7.99012756347656250000e+02) (39, 1.49635424804687500000e+03) (40, 1.49635424804687500000e+03) (41, 1.49635424804687500000e+03) (42, 1.49270886230468750000e+03) (43, 1.49635424804687500000e+03) (44, 1.49270886230468750000e+03) (45, 1.49635424804687500000e+03) (46, 1.49270886230468750000e+03) (47, 1.49635424804687500000e+03) (48, 1.49635424804687500000e+03) (49, 1.49635424804687500000e+03) (50, 1.49635424804687500000e+03) (51, 1.49270886230468750000e+03) (52, 1.49270886230468750000e+03) (53, 1.49270886230468750000e+03) (54, 1.49270886230468750000e+03) (55, 1.49270886230468750000e+03) (56, 1.49270886230468750000e+03) (57, 1.49270886230468750000e+03) (58, 1.49635424804687500000e+03) (59, 1.49270886230468750000e+03) (60, 1.49635424804687500000e+03) (61, 1.49270886230468750000e+03) (62, 1.49270886230468750000e+03) (63, 1.49270886230468750000e+03) (64, 1.49635424804687500000e+03) (65, 1.49270886230468750000e+03) (66, 1.49270886230468750000e+03) (67, 1.49635424804687500000e+03) (68, 1.49635424804687500000e+03) (69, 1.49270886230468750000e+03) (70, 1.49635424804687500000e+03) (71, 1.49270886230468750000e+03) (72, 1.49270886230468750000e+03) (73, 1.49270886230468750000e+03) (74, 1.49270886230468750000e+03) (75, 1.49635424804687500000e+03) (76, 1.49270886230468750000e+03) (77, 1.49635424804687500000e+03) (78, 1.49635424804687500000e+03) (79, 1.49270886230468750000e+03) (80, 1.49270886230468750000e+03) (81, 1.49635424804687500000e+03) (82, 1.49270886230468750000e+03) (83, 1.49635424804687500000e+03) (84, 1.49270886230468750000e+03) (85, 1.49270886230468750000e+03) (86, 1.49635424804687500000e+03) (87, 1.49635424804687500000e+03) (88, -8.03757568359375000000e+02) (30, 1.48803466796875000000e+03) (31, 1.49401708984375000000e+03) (32, 1.49401708984375000000e+03) (33, 1.48803466796875000000e+03) (34, 1.49401708984375000000e+03) (35, 1.48803466796875000000e+03) (36, 1.48803466796875000000e+03) (37, 1.48803466796875000000e+03) (38, -1.49096960449218750000e+03) (39, 1.49401708984375000000e+03) (40, 1.49401708984375000000e+03) (41, 1.49401708984375000000e+03) (42, 1.48803466796875000000e+03) (43, 1.49401708984375000000e+03) (44, 1.48803466796875000000e+03) (45, 1.49401708984375000000e+03) (46, 1.48803466796875000000e+03) (47, 1.49401708984375000000e+03) (48, 1.49401708984375000000e+03) (49, 1.49401708984375000000e+03) (50, 1.49401708984375000000e+03) (51, 1.48803466796875000000e+03) (52, 1.48803466796875000000e+03) (53, 1.48803466796875000000e+03) (54, 1.48803466796875000000e+03) (55, 1.48803466796875000000e+03) (56, 1.48803466796875000000e+03) (57, 1.48803466796875000000e+03) (58, 1.49401708984375000000e+03) (59, 1.48803466796875000000e+03) (60, 1.49401708984375000000e+03) (61, 1.48803466796875000000e+03) (62, 1.48803466796875000000e+03) (63, 1.48803466796875000000e+03) (64, 1.49401708984375000000e+03) (65, 1.48803466796875000000e+03) (66, 1.48803466796875000000e+03) (67, 1.49401708984375000000e+03) (68, 1.49401708984375000000e+03) (69, 1.48803466796875000000e+03) (70, 1.49401708984375000000e+03) (71, 1.48803466796875000000e+03) (72, 1.48803466796875000000e+03) (73, 1.48803466796875000000e+03) (74, 1.48803466796875000000e+03) (75, 1.49401708984375000000e+03) (76, 1.48803466796875000000e+03) (77, 1.49401708984375000000e+03) (78, 1.49401708984375000000e+03) (79, 1.48803466796875000000e+03) (80, 1.48803466796875000000e+03) (81, 1.49401708984375000000e+03) (82, 1.48803466796875000000e+03) (83, 1.49401708984375000000e+03) (84, 1.48803466796875000000e+03) (85, 1.48803466796875000000e+03) (86, 1.49401708984375000000e+03) (87, 1.49401708984375000000e+03) (88, -4.59171417236328125000e+02) (30, 1.48803466796875000000e+03) (31, 1.49401708984375000000e+03) (32, 1.49401708984375000000e+03) (33, 1.48803466796875000000e+03) (34, 1.49401708984375000000e+03) (35, 1.48803466796875000000e+03) (36, 1.48803466796875000000e+03) (37, 1.48803466796875000000e+03) (38, -1.49096960449218750000e+03) (39, 1.49401708984375000000e+03) (40, 1.49401708984375000000e+03) (41, 1.49401708984375000000e+03) (42, 1.48803466796875000000e+03) (43, 1.49401708984375000000e+03) (44, 1.48803466796875000000e+03) (45, 1.49401708984375000000e+03) (46, 1.48803466796875000000e+03) (47, 1.49401708984375000000e+03) (48, 1.49401708984375000000e+03) (49, 1.49401708984375000000e+03) (50, 1.49401708984375000000e+03) (51, 1.48803466796875000000e+03) (52, 1.48803466796875000000e+03) (53, 1.48803466796875000000e+03) (54, 1.48803466796875000000e+03) (55, 1.48803466796875000000e+03) (56, 1.48803466796875000000e+03) (57, 1.48803466796875000000e+03) (58, 1.49401708984375000000e+03) (59, 1.48803466796875000000e+03) (60, 1.49401708984375000000e+03) (61, 1.48803466796875000000e+03) (62, 1.48803466796875000000e+03) (63, 1.48803466796875000000e+03) (64, 1.49401708984375000000e+03) (65, 1.48803466796875000000e+03) (66, 1.48803466796875000000e+03) (67, 1.49401708984375000000e+03) (68, 1.49401708984375000000e+03) (69, 1.48803466796875000000e+03) (70, 1.49401708984375000000e+03) (71, 1.48803466796875000000e+03) (72, 1.48803466796875000000e+03) (73, 1.48803466796875000000e+03) (74, 1.48803466796875000000e+03) (75, 1.49401708984375000000e+03) (76, 1.48803466796875000000e+03) (77, 1.49401708984375000000e+03) (78, 1.49401708984375000000e+03) (79, 1.48803466796875000000e+03) (80, 1.48803466796875000000e+03) (81, 1.49401708984375000000e+03) (82, 1.48803466796875000000e+03) (83, 1.49401708984375000000e+03) (84, 1.48803466796875000000e+03) (85, 1.48803466796875000000e+03) (86, 1.49401708984375000000e+03) (87, 1.49401708984375000000e+03) (88, -4.59601196289062500000e+02) (30, 1.48803466796875000000e+03) (31, 1.49401708984375000000e+03) (32, 1.49401708984375000000e+03) (33, 1.48803466796875000000e+03) (34, 1.49401708984375000000e+03) (35, 1.48803466796875000000e+03) (36, 1.48803466796875000000e+03) (37, 1.48803466796875000000e+03) (38, -1.49096960449218750000e+03) (39, 1.49401708984375000000e+03) (40, 1.49401708984375000000e+03) (41, 1.49401708984375000000e+03) (42, 1.48803466796875000000e+03) (43, 1.49401708984375000000e+03) (44, 1.48803466796875000000e+03) (45, 1.49401708984375000000e+03) (46, 1.48803466796875000000e+03) (47, 1.49401708984375000000e+03) (48, 1.49401708984375000000e+03) (49, 1.49401708984375000000e+03) (50, 1.49401708984375000000e+03) (51, 1.48803466796875000000e+03) (52, 1.48803466796875000000e+03) (53, 1.48803466796875000000e+03) (54, 1.48803466796875000000e+03) (55, 1.48803466796875000000e+03) (56, 1.48803466796875000000e+03) (57, 1.48803466796875000000e+03) (58, 1.49401708984375000000e+03) (59, 1.48803466796875000000e+03) (60, 1.49401708984375000000e+03) (61, 1.48803466796875000000e+03) (62, 1.48803466796875000000e+03) (63, 1.48803466796875000000e+03) (64, 1.49401708984375000000e+03) (65, 1.48803466796875000000e+03) (66, 1.48803466796875000000e+03) (67, 1.49401708984375000000e+03) (68, 1.49401708984375000000e+03) (69, 1.48803466796875000000e+03) (70, 1.49401708984375000000e+03) (71, 1.48803466796875000000e+03) (72, 1.48803466796875000000e+03) (73, 1.48803466796875000000e+03) (74, 1.48803466796875000000e+03) (75, 1.49401708984375000000e+03) (76, 1.48803466796875000000e+03) (77, 1.49401708984375000000e+03) (78, 1.49401708984375000000e+03) (79, 1.48803466796875000000e+03) (80, 1.48803466796875000000e+03) (81, 1.49401708984375000000e+03) (82, 1.48803466796875000000e+03) (83, 1.49401708984375000000e+03) (84, 1.48803466796875000000e+03) (85, 1.48803466796875000000e+03) (86, 1.49401708984375000000e+03) (87, 1.49401708984375000000e+03) (88, -4.52064300537109375000e+02) (30, 1.48803466796875000000e+03) (31, 1.49401708984375000000e+03) (32, 1.49401708984375000000e+03) (33, 1.48803466796875000000e+03) (34, 1.49401708984375000000e+03) (35, 1.48803466796875000000e+03) (36, 1.48803466796875000000e+03) (37, 1.48803466796875000000e+03) (38, -4.53217376708984375000e+02) (39, 1.49401708984375000000e+03) (40, 1.49401708984375000000e+03) (41, 1.49401708984375000000e+03) (42, 1.48803466796875000000e+03) (43, 1.49401708984375000000e+03) (44, 1.48803466796875000000e+03) (45, 1.49401708984375000000e+03) (46, 1.48803466796875000000e+03) (47, 1.49401708984375000000e+03) (48, 1.49401708984375000000e+03) (49, 1.49401708984375000000e+03) (50, 1.49401708984375000000e+03) (51, 1.48803466796875000000e+03) (52, 1.48803466796875000000e+03) (53, 1.48803466796875000000e+03) (54, 1.48803466796875000000e+03) (55, 1.48803466796875000000e+03) (56, 1.48803466796875000000e+03) (57, 1.48803466796875000000e+03) (58, 1.49401708984375000000e+03) (59, 1.48803466796875000000e+03) (60, 1.49401708984375000000e+03) (61, 1.48803466796875000000e+03) (62, 1.48803466796875000000e+03) (63, 1.48803466796875000000e+03) (64, 1.49401708984375000000e+03) (65, 1.48803466796875000000e+03) (66, 1.48803466796875000000e+03) (67, 1.49401708984375000000e+03) (68, 1.49401708984375000000e+03) (69, 1.48803466796875000000e+03) (70, 1.49401708984375000000e+03) (71, 1.48803466796875000000e+03) (72, 1.48803466796875000000e+03) (73, 1.48803466796875000000e+03) (74, 1.48803466796875000000e+03) (75, 1.49401708984375000000e+03) (76, 1.48803466796875000000e+03) (77, 1.49401708984375000000e+03) (78, 1.49401708984375000000e+03) (79, 1.48803466796875000000e+03) (80, 1.48803466796875000000e+03) (81, 1.49401708984375000000e+03) (82, 1.48803466796875000000e+03) (83, 1.49401708984375000000e+03) (84, 1.48803466796875000000e+03) (85, 1.48803466796875000000e+03) (86, 1.49401708984375000000e+03) (87, 1.49401708984375000000e+03) (88, -4.65904876708984375000e+02) (30, 1.49198852539062500000e+03) (31, 1.49599401855468750000e+03) (32, 1.49599401855468750000e+03) (33, 1.49198852539062500000e+03) (34, 1.49599401855468750000e+03) (35, 1.49198852539062500000e+03) (36, 1.49198852539062500000e+03) (37, 1.49198852539062500000e+03) (38, 7.99012756347656250000e+02) (39, 1.49599401855468750000e+03) (40, 1.49599401855468750000e+03) (41, 1.49599401855468750000e+03) (42, 1.49198852539062500000e+03) (43, 1.49599401855468750000e+03) (44, 1.49198852539062500000e+03) (45, 1.49599401855468750000e+03) (46, 1.49198852539062500000e+03) (47, 1.49599401855468750000e+03) (48, 1.49599401855468750000e+03) (49, 1.49599401855468750000e+03) (50, 1.49599401855468750000e+03) (51, 1.49198852539062500000e+03) (52, 1.49198852539062500000e+03) (53, 1.49198852539062500000e+03) (54, 1.49198852539062500000e+03) (55, 1.49198852539062500000e+03) (56, 1.49198852539062500000e+03) (57, 1.49198852539062500000e+03) (58, 1.49599401855468750000e+03) (59, 1.49198852539062500000e+03) (60, 1.49599401855468750000e+03) (61, 1.49198852539062500000e+03) (62, 1.49198852539062500000e+03) (63, 1.49198852539062500000e+03) (64, 1.49599401855468750000e+03) (65, 1.49198852539062500000e+03) (66, 1.49198852539062500000e+03) (67, 1.49599401855468750000e+03) (68, 1.49599401855468750000e+03) (69, 1.49198852539062500000e+03) (70, 1.49599401855468750000e+03) (71, 1.49198852539062500000e+03) (72, 1.49198852539062500000e+03) (73, 1.49198852539062500000e+03) (74, 1.49198852539062500000e+03) (75, 1.49599401855468750000e+03) (76, 1.49198852539062500000e+03) (77, 1.49599401855468750000e+03) (78, 1.49599401855468750000e+03) (79, 1.49198852539062500000e+03) (80, 1.49198852539062500000e+03) (81, 1.49599401855468750000e+03) (82, 1.49198852539062500000e+03) (83, 1.49599401855468750000e+03) (84, 1.49198852539062500000e+03) (85, 1.49198852539062500000e+03) (86, 1.49599401855468750000e+03) (87, 1.49599401855468750000e+03) (88, -8.09788635253906250000e+02) (30, 1.50512365722656250000e+03) (31, 1.50256164550781250000e+03) (32, 1.50256164550781250000e+03) (33, 1.50512365722656250000e+03) (34, 1.50256164550781250000e+03) (35, 1.50512365722656250000e+03) (36, 1.50512365722656250000e+03) (37, 1.50512365722656250000e+03) (38, 1.50000000000000000000e+03) (39, 1.50256164550781250000e+03) (40, 1.50256164550781250000e+03) (41, 1.50256164550781250000e+03) (42, 1.50512365722656250000e+03) (43, 1.50256164550781250000e+03) (44, 1.50512365722656250000e+03) (45, 1.50256164550781250000e+03) (46, 1.50512365722656250000e+03) (47, 1.50256164550781250000e+03) (48, 1.50256164550781250000e+03) (49, 1.50256164550781250000e+03) (50, 1.50256164550781250000e+03) (51, 1.50512365722656250000e+03) (52, 1.50512365722656250000e+03) (53, 1.50512365722656250000e+03) (54, 1.50512365722656250000e+03) (55, 1.50512365722656250000e+03) (56, 1.50512365722656250000e+03) (57, 1.50512365722656250000e+03) (58, 1.50256164550781250000e+03) (59, 1.50512365722656250000e+03) (60, 1.50256164550781250000e+03) (61, 1.50512365722656250000e+03) (62, 1.50512365722656250000e+03) (63, 1.50512365722656250000e+03) (64, 1.50256164550781250000e+03) (65, 1.50512365722656250000e+03) (66, 1.50512365722656250000e+03) (67, 1.50256164550781250000e+03) (68, 1.50256164550781250000e+03) (69, 1.50512365722656250000e+03) (70, 1.50256164550781250000e+03) (71, 1.50512365722656250000e+03) (72, 1.50512365722656250000e+03) (73, 1.50512365722656250000e+03) (74, 1.50512365722656250000e+03) (75, 1.50256164550781250000e+03) (76, 1.50512365722656250000e+03) (77, 1.50256164550781250000e+03) (78, 1.50256164550781250000e+03) (79, 1.50512365722656250000e+03) (80, 1.50512365722656250000e+03) (81, 1.50256164550781250000e+03) (82, 1.50512365722656250000e+03) (83, 1.50256164550781250000e+03) (84, 1.50512365722656250000e+03) (85, 1.50512365722656250000e+03) (86, 1.50256164550781250000e+03) (87, 1.50256164550781250000e+03) (88, 8.40056396484375000000e+02) (30, 1.49252075195312500000e+03) (31, 1.49626013183593750000e+03) (32, 1.49626013183593750000e+03) (33, 1.49252075195312500000e+03) (34, 1.49626013183593750000e+03) (35, 1.49252075195312500000e+03) (36, 1.49252075195312500000e+03) (37, 1.49252075195312500000e+03) (38, 7.99012756347656250000e+02) (39, 1.49626013183593750000e+03) (40, 1.49626013183593750000e+03) (41, 1.49626013183593750000e+03) (42, 1.49252075195312500000e+03) (43, 1.49626013183593750000e+03) (44, 1.49252075195312500000e+03) (45, 1.49626013183593750000e+03) (46, 1.49252075195312500000e+03) (47, 1.49626013183593750000e+03) (48, 1.49626013183593750000e+03) (49, 1.49626013183593750000e+03) (50, 1.49626013183593750000e+03) (51, 1.49252075195312500000e+03) (52, 1.49252075195312500000e+03) (53, 1.49252075195312500000e+03) (54, 1.49252075195312500000e+03) (55, 1.49252075195312500000e+03) (56, 1.49252075195312500000e+03) (57, 1.49252075195312500000e+03) (58, 1.49626013183593750000e+03) (59, 1.49252075195312500000e+03) (60, 1.49626013183593750000e+03) (61, 1.49252075195312500000e+03) (62, 1.49252075195312500000e+03) (63, 1.49252075195312500000e+03) (64, 1.49626013183593750000e+03) (65, 1.49252075195312500000e+03) (66, 1.49252075195312500000e+03) (67, 1.49626013183593750000e+03) (68, 1.49626013183593750000e+03) (69, 1.49252075195312500000e+03) (70, 1.49626013183593750000e+03) (71, 1.49252075195312500000e+03) (72, 1.49252075195312500000e+03) (73, 1.49252075195312500000e+03) (74, 1.49252075195312500000e+03) (75, 1.49626013183593750000e+03) (76, 1.49252075195312500000e+03) (77, 1.49626013183593750000e+03) (78, 1.49626013183593750000e+03) (79, 1.49252075195312500000e+03) (80, 1.49252075195312500000e+03) (81, 1.49626013183593750000e+03) (82, 1.49252075195312500000e+03) (83, 1.49626013183593750000e+03) (84, 1.49252075195312500000e+03) (85, 1.49252075195312500000e+03) (86, 1.49626013183593750000e+03) (87, 1.49626013183593750000e+03) (88, -8.07684204101562500000e+02) (30, 1.49153894042968750000e+03) (31, 1.49576928710937500000e+03) (32, 1.49576928710937500000e+03) (33, 1.49153894042968750000e+03) (34, 1.49576928710937500000e+03) (35, 1.49153894042968750000e+03) (36, 1.49153894042968750000e+03) (37, 1.49153894042968750000e+03) (38, 7.99031494140625000000e+02) (39, 1.49576928710937500000e+03) (40, 1.49576928710937500000e+03) (41, 1.49576928710937500000e+03) (42, 1.49153894042968750000e+03) (43, 1.49576928710937500000e+03) (44, 1.49153894042968750000e+03) (45, 1.49576928710937500000e+03) (46, 1.49153894042968750000e+03) (47, 1.49576928710937500000e+03) (48, 1.49576928710937500000e+03) (49, 1.49576928710937500000e+03) (50, 1.49576928710937500000e+03) (51, 1.49153894042968750000e+03) (52, 1.49153894042968750000e+03) (53, 1.49153894042968750000e+03) (54, 1.49153894042968750000e+03) (55, 1.49153894042968750000e+03) (56, 1.49153894042968750000e+03) (57, 1.49153894042968750000e+03) (58, 1.49576928710937500000e+03) (59, 1.49153894042968750000e+03) (60, 1.49576928710937500000e+03) (61, 1.49153894042968750000e+03) (62, 1.49153894042968750000e+03) (63, 1.49153894042968750000e+03) (64, 1.49576928710937500000e+03) (65, 1.49153894042968750000e+03) (66, 1.49153894042968750000e+03) (67, 1.49576928710937500000e+03) (68, 1.49576928710937500000e+03) (69, 1.49153894042968750000e+03) (70, 1.49576928710937500000e+03) (71, 1.49153894042968750000e+03) (72, 1.49153894042968750000e+03) (73, 1.49153894042968750000e+03) (74, 1.49153894042968750000e+03) (75, 1.49576928710937500000e+03) (76, 1.49153894042968750000e+03) (77, 1.49576928710937500000e+03) (78, 1.49576928710937500000e+03) (79, 1.49153894042968750000e+03) (80, 1.49153894042968750000e+03) (81, 1.49576928710937500000e+03) (82, 1.49153894042968750000e+03) (83, 1.49576928710937500000e+03) (84, 1.49153894042968750000e+03) (85, 1.49153894042968750000e+03) (86, 1.49576928710937500000e+03) (87, 1.49576928710937500000e+03) (88, -8.10823181152343750000e+02) (30, 1.48803466796875000000e+03) (31, 1.49401708984375000000e+03) (32, 1.49401708984375000000e+03) (33, 1.48803466796875000000e+03) (34, 1.49401708984375000000e+03) (35, 1.48803466796875000000e+03) (36, 1.48803466796875000000e+03) (37, 1.48803466796875000000e+03) (38, -1.49096960449218750000e+03) (39, 1.49401708984375000000e+03) (40, 1.49401708984375000000e+03) (41, 1.49401708984375000000e+03) (42, 1.48803466796875000000e+03) (43, 1.49401708984375000000e+03) (44, 1.48803466796875000000e+03) (45, 1.49401708984375000000e+03) (46, 1.48803466796875000000e+03) (47, 1.49401708984375000000e+03) (48, 1.49401708984375000000e+03) (49, 1.49401708984375000000e+03) (50, 1.49401708984375000000e+03) (51, 1.48803466796875000000e+03) (52, 1.48803466796875000000e+03) (53, 1.48803466796875000000e+03) (54, 1.48803466796875000000e+03) (55, 1.48803466796875000000e+03) (56, 1.48803466796875000000e+03) (57, 1.48803466796875000000e+03) (58, 1.49401708984375000000e+03) (59, 1.48803466796875000000e+03) (60, 1.49401708984375000000e+03) (61, 1.48803466796875000000e+03) (62, 1.48803466796875000000e+03) (63, 1.48803466796875000000e+03) (64, 1.49401708984375000000e+03) (65, 1.48803466796875000000e+03) (66, 1.48803466796875000000e+03) (67, 1.49401708984375000000e+03) (68, 1.49401708984375000000e+03) (69, 1.48803466796875000000e+03) (70, 1.49401708984375000000e+03) (71, 1.48803466796875000000e+03) (72, 1.48803466796875000000e+03) (73, 1.48803466796875000000e+03) (74, 1.48803466796875000000e+03) (75, 1.49401708984375000000e+03) (76, 1.48803466796875000000e+03) (77, 1.49401708984375000000e+03) (78, 1.49401708984375000000e+03) (79, 1.48803466796875000000e+03) (80, 1.48803466796875000000e+03) (81, 1.49401708984375000000e+03) (82, 1.48803466796875000000e+03) (83, 1.49401708984375000000e+03) (84, 1.48803466796875000000e+03) (85, 1.48803466796875000000e+03) (86, 1.49401708984375000000e+03) (87, 1.49401708984375000000e+03) (88, -4.60723937988281250000e+02) (30, 1.49201782226562500000e+03) (31, 1.49600866699218750000e+03) (32, 1.49600866699218750000e+03) (33, 1.49201782226562500000e+03) (34, 1.49600866699218750000e+03) (35, 1.49201782226562500000e+03) (36, 1.49201782226562500000e+03) (37, 1.49201782226562500000e+03) (38, 7.99012756347656250000e+02) (39, 1.49600866699218750000e+03) (40, 1.49600866699218750000e+03) (41, 1.49600866699218750000e+03) (42, 1.49201782226562500000e+03) (43, 1.49600866699218750000e+03) (44, 1.49201782226562500000e+03) (45, 1.49600866699218750000e+03) (46, 1.49201782226562500000e+03) (47, 1.49600866699218750000e+03) (48, 1.49600866699218750000e+03) (49, 1.49600866699218750000e+03) (50, 1.49600866699218750000e+03) (51, 1.49201782226562500000e+03) (52, 1.49201782226562500000e+03) (53, 1.49201782226562500000e+03) (54, 1.49201782226562500000e+03) (55, 1.49201782226562500000e+03) (56, 1.49201782226562500000e+03) (57, 1.49201782226562500000e+03) (58, 1.49600866699218750000e+03) (59, 1.49201782226562500000e+03) (60, 1.49600866699218750000e+03) (61, 1.49201782226562500000e+03) (62, 1.49201782226562500000e+03) (63, 1.49201782226562500000e+03) (64, 1.49600866699218750000e+03) (65, 1.49201782226562500000e+03) (66, 1.49201782226562500000e+03) (67, 1.49600866699218750000e+03) (68, 1.49600866699218750000e+03) (69, 1.49201782226562500000e+03) (70, 1.49600866699218750000e+03) (71, 1.49201782226562500000e+03) (72, 1.49201782226562500000e+03) (73, 1.49201782226562500000e+03) (74, 1.49201782226562500000e+03) (75, 1.49600866699218750000e+03) (76, 1.49201782226562500000e+03) (77, 1.49600866699218750000e+03) (78, 1.49600866699218750000e+03) (79, 1.49201782226562500000e+03) (80, 1.49201782226562500000e+03) (81, 1.49600866699218750000e+03) (82, 1.49201782226562500000e+03) (83, 1.49600866699218750000e+03) (84, 1.49201782226562500000e+03) (85, 1.49201782226562500000e+03) (86, 1.49600866699218750000e+03) (87, 1.49600866699218750000e+03) (88, -8.08189514160156250000e+02) (30, 1.49284326171875000000e+03) (31, 1.49642138671875000000e+03) (32, 1.49642138671875000000e+03) (33, 1.49284326171875000000e+03) (34, 1.49642138671875000000e+03) (35, 1.49284326171875000000e+03) (36, 1.49284326171875000000e+03) (37, 1.49284326171875000000e+03) (38, 7.99012756347656250000e+02) (39, 1.49642138671875000000e+03) (40, 1.49642138671875000000e+03) (41, 1.49642138671875000000e+03) (42, 1.49284326171875000000e+03) (43, 1.49642138671875000000e+03) (44, 1.49284326171875000000e+03) (45, 1.49642138671875000000e+03) (46, 1.49284326171875000000e+03) (47, 1.49642138671875000000e+03) (48, 1.49642138671875000000e+03) (49, 1.49642138671875000000e+03) (50, 1.49642138671875000000e+03) (51, 1.49284326171875000000e+03) (52, 1.49284326171875000000e+03) (53, 1.49284326171875000000e+03) (54, 1.49284326171875000000e+03) (55, 1.49284326171875000000e+03) (56, 1.49284326171875000000e+03) (57, 1.49284326171875000000e+03) (58, 1.49642138671875000000e+03) (59, 1.49284326171875000000e+03) (60, 1.49642138671875000000e+03) (61, 1.49284326171875000000e+03) (62, 1.49284326171875000000e+03) (63, 1.49284326171875000000e+03) (64, 1.49642138671875000000e+03) (65, 1.49284326171875000000e+03) (66, 1.49284326171875000000e+03) (67, 1.49642138671875000000e+03) (68, 1.49642138671875000000e+03) (69, 1.49284326171875000000e+03) (70, 1.49642138671875000000e+03) (71, 1.49284326171875000000e+03) (72, 1.49284326171875000000e+03) (73, 1.49284326171875000000e+03) (74, 1.49284326171875000000e+03) (75, 1.49642138671875000000e+03) (76, 1.49284326171875000000e+03) (77, 1.49642138671875000000e+03) (78, 1.49642138671875000000e+03) (79, 1.49284326171875000000e+03) (80, 1.49284326171875000000e+03) (81, 1.49642138671875000000e+03) (82, 1.49284326171875000000e+03) (83, 1.49642138671875000000e+03) (84, 1.49284326171875000000e+03) (85, 1.49284326171875000000e+03) (86, 1.49642138671875000000e+03) (87, 1.49642138671875000000e+03) (88, -8.05946960449218750000e+02) (89, 8.71050170898437500000e+02) (90, 1.49990771484375000000e+03) (91, 1.49990771484375000000e+03) (92, 1.49990771484375000000e+03) (93, 1.49990771484375000000e+03) (94, 8.71050170898437500000e+02) (95, -6.29049621582031250000e+02) (96, 8.71050170898437500000e+02) (97, 8.71050170898437500000e+02) (98, 1.49990771484375000000e+03) (99, 8.71050170898437500000e+02) (100, 8.71050170898437500000e+02) (101, -6.29874206542968750000e+02) (89, 1.00802636718750000000e+03) (90, 1.49999658203125000000e+03) (91, 1.49999658203125000000e+03) (92, 1.49999658203125000000e+03) (93, 1.49999658203125000000e+03) (94, 1.30188500976562500000e+03) (95, -6.72228698730468750000e+02) (96, 1.08108740234375000000e+03) (97, 1.49530212402343750000e+03) (98, 1.49999658203125000000e+03) (99, 1.28968505859375000000e+03) (100, 9.50410949707031250000e+02) (101, -6.72042785644531250000e+02) (89, 1.00976489257812500000e+03) (90, 1.49999658203125000000e+03) (91, 1.49999658203125000000e+03) (92, 1.49999658203125000000e+03) (93, 1.49999658203125000000e+03) (94, 1.30615270996093750000e+03) (95, -6.72036865234375000000e+02) (96, 1.08491882324218750000e+03) (97, 1.49956982421875000000e+03) (98, 1.49999658203125000000e+03) (99, 1.29395275878906250000e+03) (100, 9.52768798828125000000e+02) (101, -6.71388061523437500000e+02) (89, 1.01200000000000000000e+03) (90, 1.49976440429687500000e+03) (91, 1.49976440429687500000e+03) (92, 1.49976440429687500000e+03) (93, 1.49976440429687500000e+03) (94, 1.31247558593750000000e+03) (95, -6.73972595214843750000e+02) (96, 1.09053820800781250000e+03) (97, 1.49976440429687500000e+03) (98, 1.49976440429687500000e+03) (99, 1.30027563476562500000e+03) (100, 9.56003784179687500000e+02) (101, -6.73950256347656250000e+02) (89, 8.70906860351562500000e+02) (90, 1.49976440429687500000e+03) (91, 1.49976440429687500000e+03) (92, 1.49976440429687500000e+03) (93, 1.49976440429687500000e+03) (94, 8.70906860351562500000e+02) (95, -6.29166503906250000000e+02) (96, 8.70906860351562500000e+02) (97, 8.70906860351562500000e+02) (98, 1.49976440429687500000e+03) (99, 8.70906860351562500000e+02) (100, 8.70906860351562500000e+02) (101, -6.30350830078125000000e+02) (89, 8.72690063476562500000e+02) (90, 1.49976440429687500000e+03) (91, 1.49976440429687500000e+03) (92, 1.49976440429687500000e+03) (93, 1.49976440429687500000e+03) (94, 8.72690063476562500000e+02) (95, -6.28598999023437500000e+02) (96, 8.72690063476562500000e+02) (97, 8.72690063476562500000e+02) (98, 1.49976440429687500000e+03) (99, 8.72690063476562500000e+02) (100, 8.72690063476562500000e+02) (101, -6.28703002929687500000e+02) 
