FANN_FLO_2.1
num_layers=4
learning_rate=0.700000
connection_rate=1.000000
network_type=0
learning_momentum=0.000000
training_algorithm=2
train_error_function=1
train_stop_function=0
cascade_output_change_fraction=0.010000
quickprop_decay=-0.000100
quickprop_mu=1.750000
rprop_increase_factor=1.200000
rprop_decrease_factor=0.500000
rprop_delta_min=0.000000
rprop_delta_max=50.000000
rprop_delta_zero=0.100000
cascade_output_stagnation_epochs=12
cascade_candidate_change_fraction=0.010000
cascade_candidate_stagnation_epochs=12
cascade_max_out_epochs=150
cascade_min_out_epochs=50
cascade_max_cand_epochs=150
cascade_min_cand_epochs=50
cascade_num_candidate_groups=2
bit_fail_limit=3.49999994039535522461e-01
cascade_candidate_limit=1.00000000000000000000e+03
cascade_weight_multiplier=4.00000005960464477539e-01
cascade_activation_functions_count=10
cascade_activation_functions=3 5 7 8 10 11 14 15 16 17 
cascade_activation_steepnesses_count=4
cascade_activation_steepnesses=2.50000000000000000000e-01 5.00000000000000000000e-01 7.50000000000000000000e-01 1.00000000000000000000e+00 
layer_sizes=19 37 19 3 
scale_included=0
neurons (num_inputs, activation_function, activation_steepness)=(0, 0, 0.00000000000000000000e+00) (0, 0, 0.00000000000000000000e+00) (0, 0, 0.00000000000000000000e+00) (0, 0, 0.00000000000000000000e+00) (0, 0, 0.00000000000000000000e+00) (0, 0, 0.00000000000000000000e+00) (0, 0, 0.00000000000000000000e+00) (0, 0, 0.00000000000000000000e+00) (0, 0, 0.00000000000000000000e+00) (0, 0, 0.00000000000000000000e+00) (0, 0, 0.00000000000000000000e+00) (0, 0, 0.00000000000000000000e+00) (0, 0, 0.00000000000000000000e+00) (0, 0, 0.00000000000000000000e+00) (0, 0, 0.00000000000000000000e+00) (0, 0, 0.00000000000000000000e+00) (0, 0, 0.00000000000000000000e+00) (0, 0, 0.00000000000000000000e+00) (0, 0, 0.00000000000000000000e+00) (19, 4, 5.00000000000000000000e-01) (19, 4, 5.00000000000000000000e-01) (19, 4, 5.00000000000000000000e-01) (19, 4, 5.00000000000000000000e-01) (19, 4, 5.00000000000000000000e-01) (19, 4, 5.00000000000000000000e-01) (19, 4, 5.00000000000000000000e-01) (19, 4, 5.00000000000000000000e-01) (19, 4, 5.00000000000000000000e-01) (19, 4, 5.00000000000000000000e-01) (19, 4, 5.00000000000000000000e-01) (19, 4, 5.00000000000000000000e-01) (19, 4, 5.00000000000000000000e-01) (19, 4, 5.00000000000000000000e-01) (19, 4, 5.00000000000000000000e-01) (19, 4, 5.00000000000000000000e-01) (19, 4, 5.00000000000000000000e-01) (19, 4, 5.00000000000000000000e-01) (19, 4, 5.00000000000000000000e-01) (19, 4, 5.00000000000000000000e-01) (19, 4, 5.00000000000000000000e-01) (19, 4, 5.00000000000000000000e-01) (19, 4, 5.00000000000000000000e-01) (19, 4, 5.00000000000000000000e-01) (19, 4, 5.00000000000000000000e-01) (19, 4, 5.00000000000000000000e-01) (19, 4, 5.00000000000000000000e-01) (19, 4, 5.00000000000000000000e-01) (19, 4, 5.00000000000000000000e-01) (19, 4, 5.00000000000000000000e-01) (19, 4, 5.00000000000000000000e-01) (19, 4, 5.00000000000000000000e-01) (19, 4, 5.00000000000000000000e-01) (19, 4, 5.00000000000000000000e-01) (19, 4, 5.00000000000000000000e-01) (19, 4, 5.00000000000000000000e-01) (0, 0, 0.00000000000000000000e+00) (37, 4, 5.00000000000000000000e-01) (37, 4, 5.00000000000000000000e-01) (37, 4, 5.00000000000000000000e-01) (37, 4, 5.00000000000000000000e-01) (37, 4, 5.00000000000000000000e-01) (37, 4, 5.00000000000000000000e-01) (37, 4, 5.00000000000000000000e-01) (37, 4, 5.00000000000000000000e-01) (37, 4, 5.00000000000000000000e-01) (37, 4, 5.00000000000000000000e-01) (37, 4, 5.00000000000000000000e-01) (37, 4, 5.00000000000000000000e-01) (37, 4, 5.00000000000000000000e-01) (37, 4, 5.00000000000000000000e-01) (37, 4, 5.00000000000000000000e-01) (37, 4, 5.00000000000000000000e-01) (37, 4, 5.00000000000000000000e-01) (37, 4, 5.00000000000000000000e-01) (0, 0, 0.00000000000000000000e+00) (19, 4, 5.00000000000000000000e-01) (19, 4, 5.00000000000000000000e-01) (0, 0, 0.00000000000000000000e+00) 
connections (connected_to_neuron, weight)=(0, 5.31279325485229492188e-01) (1, 7.90073156356811523438e-01) (2, -4.52267050743103027344e-01) (3, -8.30717265605926513672e-01) (4, -1.02833509445190429688e-01) (5, 9.23307657241821289062e-01) (6, 6.92122220993041992188e-01) (7, -4.71815407276153564453e-01) (8, -6.16958081722259521484e-01) (9, -7.74331212043762207031e-01) (10, -6.24486744403839111328e-01) (11, -4.13970232009887695312e-01) (12, -2.25573360919952392578e-01) (13, 3.28079938888549804688e-01) (14, 7.75368094444274902344e-01) (15, -1.02405726909637451172e-01) (16, 4.53188896179199218750e-01) (17, -2.47023165225982666016e-01) (18, -4.34787154197692871094e-01) (0, -3.83554577827453613281e-01) (1, -6.38324916362762451172e-01) (2, 2.22746372222900390625e-01) (3, -9.31484460830688476562e-01) (4, -1.89505338668823242188e-01) (5, 4.25113797187805175781e-01) (6, 6.50001764297485351562e-01) (7, -3.49629402160644531250e-01) (8, 5.58692216873168945312e-02) (9, 1.68938159942626953125e-01) (10, -4.62836742401123046875e-01) (11, -4.98576045036315917969e-01) (12, -9.81014311313629150391e-01) (13, -9.05633687973022460938e-01) (14, -3.80975425243377685547e-01) (15, -8.80550086498260498047e-01) (16, -2.16839909553527832031e-01) (17, -2.67811298370361328125e-01) (18, 3.85581493377685546875e-01) (0, -8.52273702621459960938e-01) (1, -7.39243447780609130859e-01) (2, 3.48651409149169921875e-03) (3, -7.49664127826690673828e-01) (4, 1.23743653297424316406e-01) (5, -1.51770710945129394531e-02) (6, 5.54741621017456054688e-02) (7, -2.60230600833892822266e-01) (8, -6.29043459892272949219e-01) (9, 5.06727099418640136719e-01) (10, 7.45579957962036132812e-01) (11, -6.37838602066040039062e-01) (12, -6.19352817535400390625e-01) (13, -5.68936586380004882812e-01) (14, -2.91733324527740478516e-01) (15, 4.89100456237792968750e-01) (16, 1.37144088745117187500e-01) (17, -5.30123949050903320312e-01) (18, -9.57749485969543457031e-02) (0, -5.97124457359313964844e-01) (1, -9.94660258293151855469e-02) (2, -2.49880135059356689453e-01) (3, -1.76054835319519042969e-01) (4, -8.93838405609130859375e-02) (5, 8.45744013786315917969e-01) (6, -3.02417099475860595703e-01) (7, -6.42933011054992675781e-01) (8, 9.16052818298339843750e-01) (9, 9.40859317779541015625e-01) (10, 1.64801359176635742188e-01) (11, -3.38662803173065185547e-01) (12, 9.17777299880981445312e-01) (13, 7.12410569190979003906e-01) (14, 8.68636846542358398438e-01) (15, 2.42721557617187500000e-01) (16, 4.45858836174011230469e-01) (17, 6.79008364677429199219e-01) (18, -2.64762163162231445312e-01) (0, -3.80239129066467285156e-01) (1, -6.35180294513702392578e-01) (2, 7.31263756752014160156e-01) (3, 2.77397632598876953125e-01) (4, 2.75374650955200195312e-01) (5, -8.00262808799743652344e-01) (6, 4.95795249938964843750e-01) (7, -2.05572664737701416016e-01) (8, 6.39025330543518066406e-01) (9, -8.45664262771606445312e-01) (10, -4.49062645435333251953e-01) (11, -8.85819196701049804688e-02) (12, -7.11268424987792968750e-01) (13, -7.12698936462402343750e-01) (14, 4.74410414695739746094e-01) (15, -3.17583680152893066406e-02) (16, 7.69362211227416992188e-01) (17, -7.10983872413635253906e-02) (18, -7.82160103321075439453e-01) (0, 1.51673555374145507812e-02) (1, 9.00733470916748046875e-01) (2, -5.81210136413574218750e-01) (3, 7.45004653930664062500e-01) (4, -6.08667135238647460938e-02) (5, 3.62278223037719726562e-01) (6, -2.76721000671386718750e-01) (7, -3.28301727771759033203e-01) (8, 5.81323504447937011719e-01) (9, -9.87274765968322753906e-01) (10, -4.26591753959655761719e-01) (11, 6.42987608909606933594e-01) (12, -5.71399331092834472656e-02) (13, 8.11831355094909667969e-01) (14, -8.88081789016723632812e-01) (15, -8.77403914928436279297e-01) (16, -1.77570998668670654297e-01) (17, 4.91525650024414062500e-01) (18, 3.37313175201416015625e-01) (0, -7.00489044189453125000e-01) (1, -1.19873583316802978516e-01) (2, 6.68518543243408203125e-02) (3, 1.07196450233459472656e-01) (4, 9.95358467102050781250e-01) (5, -6.50466084480285644531e-01) (6, -1.69886767864227294922e-01) (7, 3.62971901893615722656e-01) (8, -7.54504442214965820312e-01) (9, -1.19884788990020751953e-01) (10, -7.61856079101562500000e-01) (11, 3.47024440765380859375e-01) (12, 9.96276378631591796875e-01) (13, -4.79221165180206298828e-01) (14, -1.57589554786682128906e-01) (15, 7.16064214706420898438e-01) (16, 8.85952830314636230469e-01) (17, 1.70463800430297851562e-01) (18, 5.40718674659729003906e-01) (0, 9.56162452697753906250e-01) (1, 3.88031005859375000000e-02) (2, -7.78304576873779296875e-01) (3, 5.19911885261535644531e-01) (4, -2.46942758560180664062e-01) (5, 2.89242506027221679688e-01) (6, -8.11684131622314453125e-01) (7, -4.60374712944030761719e-01) (8, 8.73784542083740234375e-01) (9, 2.58997321128845214844e-01) (10, 2.00334668159484863281e-01) (11, 6.26690387725830078125e-02) (12, 6.12032175064086914062e-01) (13, -3.63702833652496337891e-01) (14, 9.65762138366699218750e-03) (15, 2.08963155746459960938e-01) (16, -5.89462280273437500000e-01) (17, 1.58127546310424804688e-01) (18, -9.95842814445495605469e-01) (0, -2.05590844154357910156e-01) (1, -5.98701715469360351562e-01) (2, 8.87736678123474121094e-01) (3, 3.79227638244628906250e-01) (4, -3.32826733589172363281e-01) (5, 3.31542611122131347656e-01) (6, -9.71007704734802246094e-01) (7, -4.48048651218414306641e-01) (8, 1.81332111358642578125e-01) (9, -2.65221059322357177734e-01) (10, 7.52185702323913574219e-01) (11, 8.90863418579101562500e-01) (12, 6.17722630500793457031e-01) (13, 8.57486724853515625000e-01) (14, 2.54152655601501464844e-01) (15, 4.22869563102722167969e-01) (16, 4.96393918991088867188e-01) (17, 3.90111804008483886719e-01) (18, 8.76997470855712890625e-01) (0, -8.01767945289611816406e-01) (1, -4.97189998626708984375e-01) (2, -3.65835011005401611328e-01) (3, -1.91587269306182861328e-01) (4, -9.43995058536529541016e-01) (5, -1.94348216056823730469e-01) (6, -4.45145368576049804688e-01) (7, -6.67022109031677246094e-01) (8, -4.71536636352539062500e-01) (9, -8.31259667873382568359e-01) (10, 9.41523432731628417969e-01) (11, 3.54526400566101074219e-01) (12, 2.27756023406982421875e-01) (13, -9.94887948036193847656e-02) (14, -6.21857047080993652344e-01) (15, -7.24042057991027832031e-02) (16, 2.26288199424743652344e-01) (17, 4.45125579833984375000e-01) (18, 1.96467518806457519531e-01) (0, 6.90246462821960449219e-01) (1, 4.10555839538574218750e-01) (2, -4.40519154071807861328e-01) (3, 3.59600901603698730469e-01) (4, 6.56553149223327636719e-01) (5, -4.26141321659088134766e-01) (6, -5.43909311294555664062e-01) (7, 1.49397850036621093750e-01) (8, 9.86475348472595214844e-01) (9, 9.15371537208557128906e-01) (10, 9.53065156936645507812e-02) (11, 4.84254240989685058594e-01) (12, -3.08516442775726318359e-01) (13, -2.88492262363433837891e-01) (14, 7.10175395011901855469e-01) (15, 8.26396942138671875000e-02) (16, 2.50416874885559082031e-01) (17, -9.18294787406921386719e-01) (18, 5.28122067451477050781e-01) (0, 9.51654553413391113281e-01) (1, 7.01933383941650390625e-01) (2, 1.27281308174133300781e-01) (3, 5.66393136978149414062e-02) (4, -2.10363805294036865234e-01) (5, -2.45732903480529785156e-01) (6, 2.02659487724304199219e-01) (7, 9.22519922256469726562e-01) (8, 8.49371314048767089844e-01) (9, -9.77324604988098144531e-01) (10, -1.11842989921569824219e-01) (11, 4.49394464492797851562e-01) (12, 1.46978139877319335938e-01) (13, 7.89125919342041015625e-01) (14, -6.41044855117797851562e-01) (15, 4.36209082603454589844e-01) (16, -8.14536273479461669922e-01) (17, 2.02790141105651855469e-01) (18, -4.46560859680175781250e-01) (0, -8.74197721481323242188e-01) (1, 6.87045931816101074219e-01) (2, -9.64551091194152832031e-01) (3, -1.15380942821502685547e-01) (4, 4.50195074081420898438e-01) (5, 3.21498155593872070312e-01) (6, 8.10846209526062011719e-01) (7, -4.59101140499114990234e-01) (8, -7.13908851146697998047e-01) (9, -2.62757420539855957031e-01) (10, -9.14497852325439453125e-01) (11, -2.01612770557403564453e-01) (12, 7.85182476043701171875e-01) (13, 3.71289253234863281250e-02) (14, 2.08973884582519531250e-02) (15, -3.91192853450775146484e-01) (16, 6.50164127349853515625e-01) (17, 4.12500381469726562500e-01) (18, -7.90078818798065185547e-01) (0, -7.91302740573883056641e-01) (1, 4.56162929534912109375e-01) (2, 2.09212779998779296875e-01) (3, -5.33094048500061035156e-01) (4, 7.20852613449096679688e-02) (5, -6.27918779850006103516e-01) (6, 3.09461355209350585938e-02) (7, 3.29616904258728027344e-01) (8, 4.36470746994018554688e-01) (9, -3.23076963424682617188e-01) (10, 4.02882575988769531250e-01) (11, 1.28594160079956054688e-01) (12, -6.11624360084533691406e-01) (13, 7.08519816398620605469e-01) (14, -6.31686568260192871094e-01) (15, 3.35912108421325683594e-01) (16, 3.98716568946838378906e-01) (17, 8.98464918136596679688e-01) (18, 5.48957228660583496094e-01) (0, 5.99614024162292480469e-01) (1, 8.29915165901184082031e-01) (2, -4.33972477912902832031e-01) (3, -4.25107002258300781250e-01) (4, -6.04068219661712646484e-01) (5, -3.42687487602233886719e-01) (6, -4.49895203113555908203e-01) (7, 3.21517944335937500000e-01) (8, 9.89316940307617187500e-01) (9, -9.00330185890197753906e-01) (10, 5.92902064323425292969e-01) (11, 5.49517273902893066406e-01) (12, -3.13087046146392822266e-01) (13, 4.61150884628295898438e-01) (14, -1.50723934173583984375e-01) (15, -1.68565034866333007812e-01) (16, 9.22296762466430664062e-01) (17, -4.47314977645874023438e-02) (18, 8.35045218467712402344e-01) (0, -9.01725053787231445312e-01) (1, 1.22238159179687500000e-01) (2, -9.03837084770202636719e-01) (3, -4.44170176982879638672e-01) (4, 8.16081523895263671875e-01) (5, 6.25267267227172851562e-01) (6, 1.71851873397827148438e-01) (7, 1.41155481338500976562e-01) (8, 3.01357150077819824219e-01) (9, -9.36361432075500488281e-01) (10, -9.34364199638366699219e-02) (11, -1.31106972694396972656e-01) (12, -3.67574691772460937500e-01) (13, 9.28730010986328125000e-01) (14, -4.94970321655273437500e-01) (15, -5.18863022327423095703e-01) (16, -8.30359280109405517578e-01) (17, -2.41846263408660888672e-01) (18, -5.38011789321899414062e-01) (0, 7.99108386039733886719e-01) (1, -9.49860394001007080078e-01) (2, -8.38725209236145019531e-01) (3, 7.07718849182128906250e-01) (4, -8.67377519607543945312e-01) (5, -1.06687128543853759766e-01) (6, 2.95074462890625000000e-01) (7, -4.80981886386871337891e-01) (8, 2.96346545219421386719e-01) (9, -9.06668841838836669922e-01) (10, -6.22751295566558837891e-01) (11, 1.09712719917297363281e-01) (12, -7.05981433391571044922e-01) (13, 7.68049836158752441406e-01) (14, 2.47236251831054687500e-01) (15, 6.61923170089721679688e-01) (16, -8.27253878116607666016e-01) (17, -6.06638193130493164062e-03) (18, -8.66080760955810546875e-01) (0, -2.13591635227203369141e-01) (1, -9.01499211788177490234e-01) (2, 2.29962229728698730469e-01) (3, -1.57326877117156982422e-01) (4, 8.06275248527526855469e-01) (5, -5.66796422004699707031e-01) (6, 6.96769475936889648438e-01) (7, -8.77853155136108398438e-01) (8, 9.23200607299804687500e-01) (9, 2.31899857521057128906e-01) (10, -6.61277055740356445312e-01) (11, 5.06778120994567871094e-01) (12, 1.10416054725646972656e-01) (13, -9.89799678325653076172e-01) (14, 2.95735120773315429688e-01) (15, 3.54974269866943359375e-01) (16, 6.24624729156494140625e-01) (17, 3.98437142372131347656e-01) (18, 5.18997788429260253906e-01) (0, -7.82370567321777343750e-02) (1, 2.63589262962341308594e-01) (2, -9.02880668640136718750e-01) (3, -7.17481136322021484375e-01) (4, 3.31429958343505859375e-01) (5, -8.77587914466857910156e-01) (6, -2.68218398094177246094e-01) (7, -5.96497774124145507812e-01) (8, 3.69344472885131835938e-01) (9, -3.94121527671813964844e-01) (10, -7.16030240058898925781e-01) (11, 5.53713202476501464844e-01) (12, 6.18233919143676757812e-01) (13, -8.95801365375518798828e-01) (14, -8.50816369056701660156e-02) (15, 2.16708540916442871094e-01) (16, 5.42308092117309570312e-02) (17, 8.39147567749023437500e-02) (18, 5.21704196929931640625e-01) (0, 7.49135851860046386719e-01) (1, -3.70017230510711669922e-01) (2, -2.85293877124786376953e-01) (3, -7.49168395996093750000e-01) (4, -7.03566133975982666016e-01) (5, -6.49883389472961425781e-01) (6, -3.42347145080566406250e-01) (7, 5.76077938079833984375e-01) (8, 6.83628082275390625000e-01) (9, 3.87866497039794921875e-02) (10, 6.73791408538818359375e-01) (11, -7.82976746559143066406e-01) (12, 7.12406635284423828125e-02) (13, -5.33458352088928222656e-01) (14, 4.47337031364440917969e-01) (15, -9.20734822750091552734e-01) (16, -6.13447666168212890625e-01) (17, 2.07213878631591796875e-01) (18, 9.10840153694152832031e-01) (0, -8.59597682952880859375e-01) (1, 9.47848558425903320312e-02) (2, -9.58965420722961425781e-02) (3, 6.46109223365783691406e-01) (4, -4.52785849571228027344e-01) (5, -4.22338902950286865234e-01) (6, -6.86202645301818847656e-01) (7, -8.67441892623901367188e-01) (8, -4.54903483390808105469e-01) (9, 5.83949446678161621094e-01) (10, -7.52841711044311523438e-01) (11, -9.77460801601409912109e-01) (12, -1.97013437747955322266e-01) (13, -7.15032458305358886719e-01) (14, 4.28241252899169921875e-01) (15, 8.21290850639343261719e-01) (16, -5.45747220516204833984e-01) (17, -6.84193134307861328125e-01) (18, -6.62715673446655273438e-01) (0, 6.98684692382812500000e-01) (1, 1.31094455718994140625e-01) (2, 7.49695777893066406250e-01) (3, 6.93861007690429687500e-01) (4, -6.96419000625610351562e-01) (5, 4.67909216880798339844e-01) (6, 7.09152936935424804688e-01) (7, -3.22578132152557373047e-01) (8, -1.86882615089416503906e-01) (9, 1.85111761093139648438e-01) (10, -2.34653890132904052734e-01) (11, 9.87679481506347656250e-01) (12, -2.66247332096099853516e-01) (13, 7.92537093162536621094e-01) (14, 4.49560284614562988281e-01) (15, -9.64255750179290771484e-01) (16, 6.64678335189819335938e-01) (17, -8.19395601749420166016e-01) (18, 1.62361502647399902344e-01) (0, 9.53989863395690917969e-01) (1, 1.04885458946228027344e-01) (2, -4.36134099960327148438e-01) (3, 1.12603664398193359375e-01) (4, 6.49957776069641113281e-01) (5, -1.84428095817565917969e-02) (6, -7.72312104701995849609e-01) (7, -7.23164916038513183594e-01) (8, -8.54907512664794921875e-01) (9, 7.29625463485717773438e-01) (10, -2.16878235340118408203e-01) (11, -1.01890742778778076172e-01) (12, 1.76864862442016601562e-01) (13, -9.28387582302093505859e-01) (14, 7.92286872863769531250e-01) (15, 9.31152224540710449219e-01) (16, 1.53296828269958496094e-01) (17, -9.74147856235504150391e-01) (18, 9.77822899818420410156e-01) (0, 8.08986663818359375000e-01) (1, -4.11331772804260253906e-01) (2, -2.16315865516662597656e-01) (3, 2.22437262535095214844e-01) (4, 7.06412553787231445312e-01) (5, -9.18825805187225341797e-01) (6, -1.02696418762207031250e-01) (7, 3.01794886589050292969e-01) (8, -6.08597755432128906250e-01) (9, -4.13365662097930908203e-01) (10, 4.45974230766296386719e-01) (11, 3.57367992401123046875e-02) (12, 1.00932598114013671875e-01) (13, 4.72438454627990722656e-01) (14, -4.83163475990295410156e-01) (15, -7.94920861721038818359e-01) (16, 4.98759269714355468750e-01) (17, -2.15626418590545654297e-01) (18, -7.53600418567657470703e-01) (0, -7.63683855533599853516e-01) (1, -4.53920125961303710938e-01) (2, -8.62820744514465332031e-02) (3, -9.99208092689514160156e-02) (4, 3.29295396804809570312e-02) (5, 4.50149178504943847656e-01) (6, -9.28632020950317382812e-02) (7, 8.81150364875793457031e-01) (8, -6.85533881187438964844e-01) (9, -8.09854924678802490234e-01) (10, -8.21219086647033691406e-02) (11, -7.00190544128417968750e-01) (12, 9.54102158546447753906e-01) (13, 4.24644708633422851562e-01) (14, 5.60166716575622558594e-01) (15, -2.78484284877777099609e-01) (16, -2.20673978328704833984e-01) (17, 8.62910866737365722656e-01) (18, -5.87560057640075683594e-01) (0, -8.43526959419250488281e-01) (1, 4.72163200378417968750e-01) (2, -3.39916348457336425781e-02) (3, 7.38285899162292480469e-01) (4, -7.64634966850280761719e-01) (5, -9.15199875831604003906e-01) (6, 6.98028683662414550781e-01) (7, 1.82033777236938476562e-01) (8, 1.07830524444580078125e-01) (9, 4.39552426338195800781e-01) (10, -9.31909918785095214844e-01) (11, -8.19459199905395507812e-01) (12, 9.48501944541931152344e-01) (13, 6.31136894226074218750e-01) (14, -4.82730746269226074219e-01) (15, -4.82832789421081542969e-02) (16, -6.09196484088897705078e-01) (17, 9.72657322883605957031e-01) (18, 4.69395279884338378906e-01) (0, -8.21364521980285644531e-02) (1, 8.42437267303466796875e-01) (2, -8.40630173683166503906e-01) (3, -7.29836106300354003906e-01) (4, 4.48371767997741699219e-01) (5, -1.38833522796630859375e-01) (6, -4.28322553634643554688e-02) (7, -4.93996024131774902344e-01) (8, 9.18354511260986328125e-01) (9, 7.58954048156738281250e-01) (10, 3.03087353706359863281e-01) (11, 5.74508666992187500000e-01) (12, -2.59699404239654541016e-01) (13, 8.11808347702026367188e-01) (14, -6.35029077529907226562e-02) (15, -8.44773590564727783203e-01) (16, 6.03926777839660644531e-01) (17, -8.81833851337432861328e-01) (18, -6.78240060806274414062e-01) (0, 7.17654943466186523438e-01) (1, -5.69491267204284667969e-01) (2, 7.87868857383728027344e-01) (3, 9.20703411102294921875e-02) (4, 7.48084425926208496094e-01) (5, 1.93696737289428710938e-01) (6, -9.44399595260620117188e-01) (7, 1.12123131752014160156e-01) (8, -6.44535064697265625000e-01) (9, 8.67074966430664062500e-01) (10, 6.77129626274108886719e-01) (11, 7.52796649932861328125e-01) (12, 2.36909151077270507812e-01) (13, 3.23645353317260742188e-01) (14, 9.45160031318664550781e-01) (15, 4.78878021240234375000e-01) (16, 5.85261583328247070312e-01) (17, 4.34386610984802246094e-01) (18, -5.03379464149475097656e-01) (0, 4.12059426307678222656e-01) (1, -1.24949932098388671875e-01) (2, 1.98712825775146484375e-01) (3, 1.98656201362609863281e-01) (4, 3.43236327171325683594e-01) (5, -9.28943276405334472656e-01) (6, 2.01912641525268554688e-01) (7, -4.98523056507110595703e-01) (8, 5.84070205688476562500e-01) (9, -3.01107287406921386719e-01) (10, 6.52633190155029296875e-01) (11, 2.18919992446899414062e-01) (12, 7.76048898696899414062e-02) (13, 4.63795065879821777344e-01) (14, 7.32578992843627929688e-01) (15, -4.90333318710327148438e-01) (16, -2.54780054092407226562e-03) (17, 2.98087120056152343750e-01) (18, 9.22455191612243652344e-01) (0, 4.32339310646057128906e-01) (1, 4.76967811584472656250e-01) (2, 4.86303448677062988281e-01) (3, -3.09302091598510742188e-01) (4, -3.33722114562988281250e-01) (5, 6.02432012557983398438e-01) (6, 1.80895328521728515625e-02) (7, 6.88833951950073242188e-01) (8, 4.37989830970764160156e-01) (9, 1.22904777526855468750e-02) (10, 7.42087841033935546875e-01) (11, -9.60203766822814941406e-01) (12, -7.36359477043151855469e-01) (13, -3.40966105461120605469e-01) (14, -4.01747822761535644531e-02) (15, -1.01781487464904785156e-02) (16, -5.15641093254089355469e-01) (17, 9.58536982536315917969e-01) (18, 5.59075713157653808594e-01) (0, -9.16421890258789062500e-01) (1, -3.11367690563201904297e-01) (2, 7.77188658714294433594e-01) (3, 9.24482822418212890625e-01) (4, -1.49735808372497558594e-02) (5, -2.79011845588684082031e-01) (6, -2.50343799591064453125e-01) (7, 9.93851542472839355469e-01) (8, -6.21352851390838623047e-01) (9, -9.13903176784515380859e-01) (10, 1.95682048797607421875e-01) (11, -2.02846825122833251953e-01) (12, -7.71357357501983642578e-01) (13, -2.88083553314208984375e-02) (14, 4.85158085823059082031e-01) (15, -5.01110911369323730469e-01) (16, 6.35503530502319335938e-01) (17, -9.26205515861511230469e-02) (18, 8.15385222434997558594e-01) (0, 7.71229624748229980469e-01) (1, -8.95990610122680664062e-01) (2, 1.33330225944519042969e-01) (3, -1.02332472801208496094e-01) (4, -3.05264592170715332031e-01) (5, 1.24723792076110839844e-01) (6, -8.44433069229125976562e-01) (7, -4.56774771213531494141e-01) (8, -7.13811218738555908203e-01) (9, 3.78978967666625976562e-01) (10, 7.41954922676086425781e-01) (11, -7.11891174316406250000e-01) (12, 1.91055059432983398438e-01) (13, -1.81879639625549316406e-01) (14, -1.55907750129699707031e-01) (15, -6.43132567405700683594e-01) (16, -4.15425062179565429688e-01) (17, 4.60530281066894531250e-01) (18, -2.93543338775634765625e-01) (0, -5.50612211227416992188e-02) (1, -5.35102725028991699219e-01) (2, -4.79931414127349853516e-01) (3, 9.52945709228515625000e-01) (4, 1.66100025177001953125e-01) (5, 3.89714241027832031250e-01) (6, -1.41303122043609619141e-01) (7, 7.93692111968994140625e-01) (8, -6.13887548446655273438e-01) (9, 4.31499838829040527344e-01) (10, 5.82079529762268066406e-01) (11, -3.18884849548339843750e-03) (12, 2.54238843917846679688e-02) (13, -6.36113286018371582031e-01) (14, 6.14019632339477539062e-01) (15, 3.23784351348876953125e-02) (16, 3.97232413291931152344e-01) (17, 5.32399058341979980469e-01) (18, -5.55910944938659667969e-01) (0, -7.87975490093231201172e-01) (1, 5.43368339538574218750e-01) (2, -2.72610306739807128906e-01) (3, 9.99378085136413574219e-01) (4, 8.90882015228271484375e-01) (5, -7.13405132293701171875e-01) (6, 9.17565464973449707031e-01) (7, 2.08821535110473632812e-01) (8, -6.75670742988586425781e-01) (9, -5.62430977821350097656e-01) (10, -2.97873914241790771484e-01) (11, -3.23807418346405029297e-01) (12, 8.16352486610412597656e-01) (13, 3.76156568527221679688e-02) (14, -3.87258768081665039062e-01) (15, -2.69019842147827148438e-01) (16, -1.23017609119415283203e-01) (17, -8.99342715740203857422e-01) (18, -7.10942149162292480469e-01) (0, 6.66629076004028320312e-01) (1, 5.21982431411743164062e-01) (2, -8.88618826866149902344e-01) (3, 4.40104961395263671875e-01) (4, -7.09097146987915039062e-01) (5, 1.78842186927795410156e-01) (6, 7.70530700683593750000e-01) (7, -7.02935576438903808594e-01) (8, -2.41726636886596679688e-03) (9, -7.29501008987426757812e-01) (10, -4.63163018226623535156e-01) (11, -1.00153684616088867188e-01) (12, -1.77281320095062255859e-01) (13, 7.46471881866455078125e-02) (14, -5.60415387153625488281e-01) (15, 5.11451840400695800781e-01) (16, -3.21146726608276367188e-01) (17, 3.25825095176696777344e-01) (18, 6.23392581939697265625e-01) (0, 2.22182750701904296875e-01) (1, 8.79923582077026367188e-01) (2, 9.44774150848388671875e-01) (3, 9.91004467010498046875e-01) (4, 4.23560023307800292969e-01) (5, 7.97067761421203613281e-01) (6, 7.31173992156982421875e-01) (7, -8.59515488147735595703e-01) (8, 3.63805651664733886719e-01) (9, -9.53308701515197753906e-01) (10, 6.09340190887451171875e-01) (11, 2.16232180595397949219e-01) (12, -9.61381196975708007812e-01) (13, 9.38547134399414062500e-01) (14, 6.20669126510620117188e-01) (15, -8.69092404842376708984e-01) (16, -1.50304198265075683594e-01) (17, -6.58878803253173828125e-01) (18, -8.58406126499176025391e-01) (19, 3.46236228942871093750e-01) (20, -6.27929568290710449219e-02) (21, -1.01548552513122558594e-01) (22, -6.17090463638305664062e-01) (23, 6.59489393234252929688e-01) (24, -9.49298560619354248047e-01) (25, -6.92981541156768798828e-01) (26, -1.18840336799621582031e-02) (27, -4.79770362377166748047e-01) (28, -1.36281251907348632812e-02) (29, -3.09816896915435791016e-01) (30, -8.31269800662994384766e-01) (31, 7.45947718620300292969e-01) (32, -2.60775327682495117188e-01) (33, -4.63091135025024414062e-02) (34, 2.48431563377380371094e-01) (35, -7.81002402305603027344e-01) (36, 8.79668474197387695312e-01) (37, 2.38163352012634277344e-01) (38, 4.71732974052429199219e-01) (39, 4.90536570549011230469e-01) (40, -4.20184016227722167969e-01) (41, 4.78637695312500000000e-01) (42, -5.15789747238159179688e-01) (43, 1.06010556221008300781e-01) (44, 3.10831069946289062500e-02) (45, 8.18742394447326660156e-01) (46, -1.91005825996398925781e-01) (47, 9.73353505134582519531e-01) (48, -4.11570847034454345703e-01) (49, 7.95897006988525390625e-01) (50, 8.31127166748046875000e-03) (51, -5.19859194755554199219e-02) (52, -7.43993043899536132812e-01) (53, -6.91860020160675048828e-01) (54, -1.09320342540740966797e-01) (55, 8.92944574356079101562e-01) (19, 5.33541679382324218750e-01) (20, -7.06792116165161132812e-01) (21, -7.53491401672363281250e-01) (22, 3.27804446220397949219e-01) (23, -8.56870532035827636719e-01) (24, 6.02958917617797851562e-01) (25, 9.11308526992797851562e-02) (26, -8.92890155315399169922e-01) (27, 7.54300475120544433594e-01) (28, 9.54035878181457519531e-01) (29, 4.69808220863342285156e-01) (30, -2.84588932991027832031e-01) (31, -9.45675611495971679688e-01) (32, 1.97947978973388671875e-01) (33, -4.79690611362457275391e-01) (34, -7.51421689987182617188e-01) (35, -6.46966695785522460938e-02) (36, -9.94102656841278076172e-01) (37, -3.71522307395935058594e-02) (38, 1.29926681518554687500e-01) (39, -7.14695334434509277344e-01) (40, 8.37338566780090332031e-01) (41, 5.43317675590515136719e-01) (42, -5.89514017105102539062e-01) (43, -9.95417833328247070312e-01) (44, -4.05685424804687500000e-01) (45, 5.23947834968566894531e-01) (46, -8.97261977195739746094e-01) (47, -9.21975791454315185547e-01) (48, -5.99786162376403808594e-01) (49, -7.92958498001098632812e-01) (50, -4.68643426895141601562e-01) (51, -4.89194214344024658203e-01) (52, -3.67881953716278076172e-01) (53, -9.15037393569946289062e-01) (54, -5.60718774795532226562e-02) (55, -1.03490233421325683594e-01) (19, -2.62985467910766601562e-01) (20, 7.06787705421447753906e-01) (21, 5.56550979614257812500e-01) (22, 5.87672591209411621094e-01) (23, 9.36707019805908203125e-01) (24, 1.94153666496276855469e-01) (25, -5.82865059375762939453e-01) (26, -3.38992238044738769531e-01) (27, -9.56578135490417480469e-01) (28, 7.62118577957153320312e-01) (29, 7.12915658950805664062e-01) (30, -7.20807313919067382812e-02) (31, -9.56730961799621582031e-01) (32, -8.77108812332153320312e-01) (33, 8.44168424606323242188e-01) (34, 4.81034040451049804688e-01) (35, 5.39502978324890136719e-01) (36, -4.30086553096771240234e-01) (37, -6.94372653961181640625e-01) (38, -9.33678984642028808594e-01) (39, 6.69849276542663574219e-01) (40, 4.37062501907348632812e-01) (41, 3.89202356338500976562e-01) (42, -1.63881599903106689453e-01) (43, -2.83858239650726318359e-01) (44, -1.35986328125000000000e-01) (45, -6.69005393981933593750e-01) (46, 7.10515141487121582031e-01) (47, -2.89449155330657958984e-01) (48, 1.66500806808471679688e-02) (49, 8.13373804092407226562e-01) (50, -8.76260817050933837891e-01) (51, -7.82580554485321044922e-01) (52, 5.34639716148376464844e-01) (53, 8.96246552467346191406e-01) (54, 8.60430836677551269531e-01) (55, -1.53960764408111572266e-01) (19, 7.12013602256774902344e-01) (20, 3.44138264656066894531e-01) (21, 2.71441936492919921875e-02) (22, 5.46750664710998535156e-01) (23, 2.47091412544250488281e-01) (24, -5.28995394706726074219e-02) (25, -9.78436410427093505859e-01) (26, 3.85913729667663574219e-01) (27, 9.29932594299316406250e-02) (28, 4.69743728637695312500e-01) (29, 2.51459956169128417969e-01) (30, -7.83779203891754150391e-01) (31, -4.51923131942749023438e-01) (32, -8.73832881450653076172e-01) (33, -5.57188987731933593750e-02) (34, 7.95399069786071777344e-01) (35, -9.22971010208129882812e-01) (36, -5.52295684814453125000e-01) (37, -1.65306448936462402344e-01) (38, -2.97289848327636718750e-01) (39, -9.40662741661071777344e-01) (40, -2.79979646205902099609e-01) (41, 1.08076333999633789062e-02) (42, 5.09202122688293457031e-01) (43, 6.15065574645996093750e-01) (44, 1.07166886329650878906e-01) (45, -5.39067387580871582031e-01) (46, -3.68966519832611083984e-01) (47, -4.67931330204010009766e-01) (48, -3.99980962276458740234e-01) (49, 6.43479585647583007812e-01) (50, 9.82671976089477539062e-02) (51, 6.90951347351074218750e-02) (52, -8.71417164802551269531e-01) (53, 9.86255407333374023438e-01) (54, 9.73461151123046875000e-01) (55, 7.71966218948364257812e-01) (19, -1.78260684013366699219e-01) (20, -7.76761174201965332031e-02) (21, -3.69442045688629150391e-01) (22, -5.67234873771667480469e-01) (23, 4.00110363960266113281e-01) (24, -2.66436219215393066406e-01) (25, -2.63368844985961914062e-01) (26, 7.43545413017272949219e-01) (27, 1.20136976242065429688e-01) (28, -2.30396986007690429688e-02) (29, 1.54878854751586914062e-01) (30, 1.26557946205139160156e-01) (31, -7.21310973167419433594e-01) (32, 2.07552909851074218750e-02) (33, 6.01000308990478515625e-01) (34, -4.76275920867919921875e-01) (35, 9.22328591346740722656e-01) (36, -3.42716038227081298828e-01) (37, 6.37145638465881347656e-01) (38, -2.58374214172363281250e-01) (39, -3.75254988670349121094e-01) (40, -1.42646014690399169922e-01) (41, -7.15375244617462158203e-01) (42, -8.01524162292480468750e-01) (43, 6.97143554687500000000e-01) (44, -5.10663390159606933594e-01) (45, -6.08599662780761718750e-01) (46, 8.11445713043212890625e-01) (47, -6.67000949382781982422e-01) (48, -2.22076952457427978516e-01) (49, -9.77800905704498291016e-01) (50, 2.82693624496459960938e-01) (51, 4.70365643501281738281e-01) (52, 9.87228393554687500000e-01) (53, 7.32600688934326171875e-02) (54, 4.58032488822937011719e-01) (55, 7.47867226600646972656e-01) (19, 3.76285433769226074219e-01) (20, 4.81926202774047851562e-01) (21, -2.07768857479095458984e-01) (22, 1.56847596168518066406e-01) (23, -9.81075644493103027344e-01) (24, -3.58622789382934570312e-01) (25, 5.89530944824218750000e-01) (26, -1.69542729854583740234e-01) (27, -7.37219691276550292969e-01) (28, 6.86928033828735351562e-01) (29, -2.91582047939300537109e-01) (30, -4.55027818679809570312e-03) (31, 1.13165855407714843750e-01) (32, -6.57118678092956542969e-01) (33, -7.81417369842529296875e-01) (34, 2.35182166099548339844e-01) (35, 8.87489080429077148438e-01) (36, 6.45498037338256835938e-02) (37, -7.50829100608825683594e-01) (38, 8.20016622543334960938e-01) (39, -6.53254747390747070312e-01) (40, -2.58338868618011474609e-01) (41, 4.25943374633789062500e-01) (42, -4.42474722862243652344e-01) (43, -4.44355010986328125000e-02) (44, -3.83949518203735351562e-01) (45, 9.71540212631225585938e-02) (46, -8.40626478195190429688e-01) (47, -2.34189629554748535156e-01) (48, -9.16261315345764160156e-01) (49, -4.88595426082611083984e-01) (50, 9.30509209632873535156e-01) (51, -9.93497431278228759766e-01) (52, 3.80812644958496093750e-01) (53, 5.34266710281372070312e-01) (54, -7.68411040306091308594e-01) (55, -8.28174710273742675781e-01) (19, 8.81875753402709960938e-01) (20, 9.54148292541503906250e-01) (21, -1.24064981937408447266e-01) (22, -8.62601518630981445312e-01) (23, 8.63345503807067871094e-01) (24, 2.93068170547485351562e-01) (25, -2.17484533786773681641e-01) (26, -4.57732141017913818359e-01) (27, -4.98055398464202880859e-01) (28, -5.27521371841430664062e-02) (29, -1.42526447772979736328e-01) (30, -1.79069399833679199219e-01) (31, 8.97996425628662109375e-01) (32, 8.59573602676391601562e-01) (33, -5.84113240242004394531e-01) (34, 3.58098626136779785156e-01) (35, -2.53514409065246582031e-01) (36, -5.23899793624877929688e-01) (37, 3.36208581924438476562e-01) (38, -6.97979152202606201172e-01) (39, 5.45424818992614746094e-01) (40, -5.18129467964172363281e-02) (41, -4.27985906600952148438e-01) (42, 6.74486279487609863281e-01) (43, -4.37359809875488281250e-02) (44, 1.78155303001403808594e-01) (45, 2.95244216918945312500e-01) (46, -8.47177743911743164062e-01) (47, 4.65352535247802734375e-02) (48, -8.16371440887451171875e-02) (49, -3.65608096122741699219e-01) (50, -1.01768553256988525391e-01) (51, -1.14695429801940917969e-02) (52, -4.48612391948699951172e-01) (53, 1.78506612777709960938e-01) (54, -7.76112437248229980469e-01) (55, -3.96294355392456054688e-01) (19, 1.39155387878417968750e-02) (20, -2.21713542938232421875e-01) (21, -7.52195119857788085938e-02) (22, -4.18921232223510742188e-01) (23, 4.71531152725219726562e-01) (24, -2.01157927513122558594e-02) (25, 4.50075864791870117188e-01) (26, -1.84211671352386474609e-01) (27, -5.20271778106689453125e-01) (28, 1.22648477554321289062e-01) (29, -4.60323631763458251953e-01) (30, -9.25913810729980468750e-01) (31, 4.33177709579467773438e-01) (32, 8.22368860244750976562e-01) (33, 7.52958297729492187500e-01) (34, 9.62500691413879394531e-01) (35, 8.46934437751770019531e-01) (36, -4.93545055389404296875e-01) (37, -1.96254968643188476562e-01) (38, -7.62888669967651367188e-01) (39, 4.47417259216308593750e-01) (40, -2.17127978801727294922e-01) (41, -3.72815132141113281250e-01) (42, 1.54638290405273437500e-02) (43, -2.35211253166198730469e-02) (44, -2.17146754264831542969e-01) (45, 5.18271088600158691406e-01) (46, 3.65165472030639648438e-02) (47, 1.08776569366455078125e-01) (48, 9.46909070014953613281e-01) (49, -9.35196876525878906250e-02) (50, 2.47289657592773437500e-01) (51, -1.87709093093872070312e-01) (52, -9.07573699951171875000e-02) (53, 8.05866837501525878906e-01) (54, -4.21029984951019287109e-01) (55, 9.86789703369140625000e-01) (19, -2.81640589237213134766e-01) (20, 6.75637364387512207031e-01) (21, -3.83246541023254394531e-01) (22, 2.19130039215087890625e-01) (23, 3.08697700500488281250e-01) (24, -6.55305981636047363281e-01) (25, 1.79577231407165527344e-01) (26, 2.02615380287170410156e-01) (27, 2.63025164604187011719e-01) (28, -6.71918809413909912109e-01) (29, 7.27234005928039550781e-01) (30, 7.66493916511535644531e-01) (31, -1.20983719825744628906e-02) (32, -1.41849160194396972656e-01) (33, 5.28577208518981933594e-01) (34, -1.81311786174774169922e-01) (35, -3.69273424148559570312e-01) (36, -6.35719418525695800781e-01) (37, -9.12757992744445800781e-01) (38, 8.68805766105651855469e-01) (39, 7.19022870063781738281e-01) (40, -9.10912334918975830078e-01) (41, -7.31565356254577636719e-01) (42, -5.00523328781127929688e-01) (43, 5.79190135002136230469e-01) (44, -3.15515756607055664062e-01) (45, -3.54003548622131347656e-01) (46, 3.03426265716552734375e-01) (47, 2.27735996246337890625e-01) (48, -3.22929143905639648438e-01) (49, -5.64551949501037597656e-02) (50, -2.06008613109588623047e-01) (51, 4.13997769355773925781e-01) (52, 8.49965095520019531250e-01) (53, 1.33653759956359863281e-01) (54, 8.01864385604858398438e-01) (55, -2.23149299621582031250e-01) (19, -8.90835106372833251953e-01) (20, 2.47663021087646484375e-01) (21, -6.54228687286376953125e-01) (22, -7.37616181373596191406e-01) (23, 7.01580047607421875000e-02) (24, -3.95070493221282958984e-01) (25, 1.45887374877929687500e-01) (26, 7.94781565666198730469e-01) (27, 2.29157924652099609375e-01) (28, -2.30442166328430175781e-01) (29, -6.46350383758544921875e-01) (30, 1.14680171012878417969e-01) (31, -4.81221675872802734375e-01) (32, -2.33501732349395751953e-01) (33, -9.38832759857177734375e-04) (34, 2.70353436470031738281e-01) (35, 6.67107820510864257812e-01) (36, 2.52803564071655273438e-02) (37, 6.86680793762207031250e-01) (38, 6.95728302001953125000e-01) (39, -9.78654623031616210938e-03) (40, -8.37305665016174316406e-01) (41, -4.34421896934509277344e-01) (42, -4.79793906211853027344e-01) (43, -9.46092605590820312500e-03) (44, 4.65829610824584960938e-01) (45, -8.00810813903808593750e-01) (46, -2.30412721633911132812e-01) (47, -1.21817588806152343750e-01) (48, 1.00677967071533203125e-01) (49, -9.07941460609436035156e-01) (50, -3.67675364017486572266e-01) (51, 3.80574345588684082031e-01) (52, 3.61888289451599121094e-01) (53, 9.96975541114807128906e-01) (54, -1.65609359741210937500e-01) (55, -8.14008712768554687500e-03) (19, -6.84627056121826171875e-01) (20, 2.14340209960937500000e-01) (21, -6.01009130477905273438e-01) (22, -7.99261689186096191406e-01) (23, 9.92690563201904296875e-01) (24, -3.26701760292053222656e-01) (25, 3.30210804939270019531e-01) (26, -1.79632604122161865234e-01) (27, -1.93879663944244384766e-01) (28, 2.00097918510437011719e-01) (29, -1.25287353992462158203e-01) (30, -4.68776822090148925781e-02) (31, -5.96024155616760253906e-01) (32, -1.36677503585815429688e-01) (33, 4.61314678192138671875e-01) (34, 5.14733672142028808594e-01) (35, -9.78864192962646484375e-01) (36, 2.49463677406311035156e-01) (37, -1.70542240142822265625e-01) (38, -1.93946242332458496094e-01) (39, 1.50373458862304687500e-01) (40, -1.41690552234649658203e-01) (41, 5.25202870368957519531e-01) (42, 7.71330595016479492188e-02) (43, -3.77503156661987304688e-01) (44, 1.89645648002624511719e-01) (45, 3.14781188964843750000e-01) (46, -8.70633482933044433594e-01) (47, 9.00451421737670898438e-01) (48, 4.75895404815673828125e-01) (49, -7.55656063556671142578e-01) (50, -9.69588875770568847656e-01) (51, -5.66472172737121582031e-01) (52, -8.64126443862915039062e-01) (53, 3.20203065872192382812e-01) (54, -7.12178707122802734375e-01) (55, -4.41942870616912841797e-01) (19, -9.96102094650268554688e-02) (20, 1.25308036804199218750e-02) (21, 1.86611294746398925781e-01) (22, 8.52091431617736816406e-01) (23, -1.01760625839233398438e-02) (24, -9.30542349815368652344e-01) (25, -6.79821372032165527344e-01) (26, 6.41464233398437500000e-01) (27, 7.87097692489624023438e-01) (28, -8.03701043128967285156e-01) (29, 4.14187908172607421875e-02) (30, -9.92565214633941650391e-01) (31, -9.91990685462951660156e-01) (32, -1.08998596668243408203e-01) (33, 7.08794593811035156250e-02) (34, -9.37767624855041503906e-01) (35, 5.67251443862915039062e-01) (36, 6.72867417335510253906e-01) (37, -2.07857966423034667969e-01) (38, 2.44880676269531250000e-01) (39, 9.64416265487670898438e-02) (40, -2.05567359924316406250e-01) (41, -1.56756222248077392578e-01) (42, 1.58579230308532714844e-01) (43, 5.95214128494262695312e-01) (44, 6.39571309089660644531e-01) (45, -9.89947021007537841797e-01) (46, 1.41793251037597656250e-01) (47, 9.74209189414978027344e-01) (48, -1.05758726596832275391e-01) (49, 7.07546234130859375000e-01) (50, -1.36549890041351318359e-01) (51, 5.47195434570312500000e-01) (52, -6.04220747947692871094e-01) (53, 5.93614578247070312500e-01) (54, -8.10110986232757568359e-01) (55, 8.97435188293457031250e-01) (19, 6.44572854042053222656e-01) (20, -7.75713264942169189453e-01) (21, 2.25365996360778808594e-01) (22, -6.89200401306152343750e-01) (23, 2.76796340942382812500e-01) (24, -2.12678670883178710938e-01) (25, 5.23105859756469726562e-01) (26, -7.53588318824768066406e-01) (27, 4.83456015586853027344e-01) (28, -4.67578351497650146484e-01) (29, -8.49482655525207519531e-01) (30, 4.97300505638122558594e-01) (31, 2.10274815559387207031e-01) (32, 7.71587967872619628906e-01) (33, -3.73120248317718505859e-01) (34, 9.52534079551696777344e-01) (35, 9.32210087776184082031e-01) (36, 5.04278421401977539062e-01) (37, -8.02534222602844238281e-01) (38, -3.36378514766693115234e-01) (39, -5.30832052230834960938e-01) (40, -3.87680709362030029297e-01) (41, 8.33824753761291503906e-01) (42, 4.77986931800842285156e-01) (43, -5.44488310813903808594e-01) (44, -1.66725516319274902344e-02) (45, 5.31201124191284179688e-01) (46, -6.51429295539855957031e-01) (47, 1.11276388168334960938e-01) (48, 2.04501390457153320312e-01) (49, -4.07553315162658691406e-01) (50, 8.59961390495300292969e-01) (51, -5.40131092071533203125e-01) (52, -2.06255912780761718750e-03) (53, -2.68801450729370117188e-01) (54, -8.92034769058227539062e-01) (55, -6.76042675971984863281e-01) (19, 2.52353668212890625000e-01) (20, 9.89666342735290527344e-01) (21, 1.92511081695556640625e-01) (22, 6.93014264106750488281e-01) (23, -7.16302394866943359375e-01) (24, -9.51496183872222900391e-01) (25, 8.75852584838867187500e-01) (26, -5.66424071788787841797e-01) (27, -7.00711488723754882812e-01) (28, -1.85433268547058105469e-01) (29, 8.42984080314636230469e-01) (30, -9.96005415916442871094e-01) (31, -5.51162838935852050781e-01) (32, -8.02276134490966796875e-02) (33, -8.15883040428161621094e-01) (34, 6.92798256874084472656e-01) (35, 3.54124903678894042969e-01) (36, -4.30082082748413085938e-01) (37, 6.86294317245483398438e-01) (38, -6.64996504783630371094e-02) (39, 6.81731343269348144531e-01) (40, 7.15724229812622070312e-02) (41, -9.59663569927215576172e-01) (42, 1.24840378761291503906e-01) (43, 7.55707263946533203125e-01) (44, -7.30322480201721191406e-01) (45, 6.89123749732971191406e-01) (46, -7.37545490264892578125e-02) (47, 2.64325141906738281250e-02) (48, -6.13842010498046875000e-01) (49, -4.06164705753326416016e-01) (50, -3.17698836326599121094e-01) (51, 5.76283216476440429688e-01) (52, -3.95198702812194824219e-01) (53, -7.12522268295288085938e-01) (54, 9.19705629348754882812e-02) (55, -5.83793520927429199219e-02) (19, -1.49695932865142822266e-01) (20, -8.87547910213470458984e-01) (21, -2.30774044990539550781e-01) (22, 8.46982002258300781250e-02) (23, 1.16341829299926757812e-01) (24, -8.25159311294555664062e-01) (25, 3.88910531997680664062e-01) (26, -8.89682292938232421875e-01) (27, -6.28309190273284912109e-01) (28, 2.47625231742858886719e-01) (29, -2.21440494060516357422e-01) (30, -4.26333308219909667969e-01) (31, 3.83953690528869628906e-01) (32, 3.54508757591247558594e-01) (33, 8.63332509994506835938e-01) (34, -7.17833220958709716797e-01) (35, 2.27102041244506835938e-02) (36, 8.29732418060302734375e-02) (37, -2.86833524703979492188e-01) (38, -7.98916816711425781250e-01) (39, 9.19561028480529785156e-01) (40, 6.08505249023437500000e-01) (41, -8.48984241485595703125e-01) (42, -6.92972064018249511719e-01) (43, 3.59463095664978027344e-01) (44, -9.58374083042144775391e-01) (45, 1.87109827995300292969e-01) (46, -5.96460580825805664062e-01) (47, -5.49910128116607666016e-01) (48, 8.96810054779052734375e-01) (49, -1.68688833713531494141e-01) (50, 4.58095788955688476562e-01) (51, 8.64102125167846679688e-01) (52, 3.70142102241516113281e-01) (53, 1.44895911216735839844e-01) (54, -8.90815854072570800781e-02) (55, -4.20199036598205566406e-01) (19, 6.24466657638549804688e-01) (20, -5.78318357467651367188e-01) (21, -3.55301856994628906250e-01) (22, -7.28431463241577148438e-01) (23, -3.78074944019317626953e-01) (24, 4.89908099174499511719e-01) (25, -5.75863361358642578125e-01) (26, -5.58093011379241943359e-01) (27, 2.00452566146850585938e-01) (28, 8.10393691062927246094e-01) (29, -8.20612609386444091797e-01) (30, 5.67160606384277343750e-01) (31, -6.69372797012329101562e-01) (32, -5.20730555057525634766e-01) (33, 6.13811850547790527344e-01) (34, -1.19208216667175292969e-01) (35, -1.38966321945190429688e-01) (36, 7.47293591499328613281e-01) (37, -6.09110474586486816406e-01) (38, 7.79262185096740722656e-01) (39, -1.05886876583099365234e-01) (40, 2.20886230468750000000e-01) (41, 2.55833625793457031250e-01) (42, 9.50295329093933105469e-01) (43, 3.41645956039428710938e-01) (44, -3.52632820606231689453e-01) (45, -4.36071217060089111328e-01) (46, 3.41951131820678710938e-01) (47, -4.17873263359069824219e-01) (48, -1.00554883480072021484e-01) (49, 4.05204296112060546875e-02) (50, 7.01651573181152343750e-02) (51, 6.55178546905517578125e-01) (52, 4.09049272537231445312e-01) (53, -5.61101078987121582031e-01) (54, -2.34902858734130859375e-01) (55, 5.35889148712158203125e-01) (19, 4.61648464202880859375e-01) (20, -1.24751925468444824219e-01) (21, -9.48082566261291503906e-01) (22, 9.70859885215759277344e-01) (23, 2.09014415740966796875e-01) (24, -1.81193649768829345703e-01) (25, -3.75051259994506835938e-01) (26, -3.54570627212524414062e-01) (27, -5.93012452125549316406e-01) (28, 3.46136808395385742188e-01) (29, 3.86990785598754882812e-01) (30, 3.86777281761169433594e-01) (31, 3.07443380355834960938e-01) (32, 7.07860946655273437500e-01) (33, 4.76102352142333984375e-01) (34, -7.29469895362854003906e-01) (35, -9.41126227378845214844e-01) (36, 4.12590622901916503906e-01) (37, -3.15782845020294189453e-01) (38, 2.50386238098144531250e-01) (39, -2.17470228672027587891e-01) (40, 8.45547199249267578125e-01) (41, 1.86133265495300292969e-01) (42, 9.13746476173400878906e-01) (43, -7.68042504787445068359e-01) (44, 3.79180550575256347656e-01) (45, 9.50273990631103515625e-01) (46, -3.94801855087280273438e-01) (47, -1.89746201038360595703e-01) (48, -4.98042821884155273438e-01) (49, 4.07062172889709472656e-01) (50, -8.40961933135986328125e-01) (51, -4.35016214847564697266e-01) (52, 7.22573637962341308594e-01) (53, 5.25922775268554687500e-01) (54, 3.28157186508178710938e-01) (55, -3.84783804416656494141e-01) (19, -3.53760719299316406250e-02) (20, 4.23219442367553710938e-01) (21, -5.42873442173004150391e-01) (22, -4.54505681991577148438e-02) (23, 4.46904063224792480469e-01) (24, -7.75204896926879882812e-02) (25, -4.28947925567626953125e-01) (26, -4.59408164024353027344e-01) (27, 2.74044156074523925781e-01) (28, -5.47038793563842773438e-01) (29, -3.31223964691162109375e-01) (30, 5.03639459609985351562e-01) (31, 2.99193739891052246094e-01) (32, -4.52894866466522216797e-01) (33, 2.30630517005920410156e-01) (34, 8.20028185844421386719e-01) (35, 4.54534053802490234375e-01) (36, -3.67918014526367187500e-01) (37, -3.30234408378601074219e-01) (38, 1.89839124679565429688e-01) (39, 3.97127866744995117188e-01) (40, 3.62140178680419921875e-01) (41, 3.45916152000427246094e-01) (42, -4.18422520160675048828e-01) (43, 7.39013075828552246094e-01) (44, -6.30343198776245117188e-01) (45, -2.23594367504119873047e-01) (46, 6.16307258605957031250e-02) (47, 6.04696750640869140625e-01) (48, 8.92854332923889160156e-01) (49, -4.42445456981658935547e-01) (50, 3.73520851135253906250e-01) (51, 1.00767493247985839844e-01) (52, 5.42440891265869140625e-01) (53, -7.31974601745605468750e-01) (54, 1.87203884124755859375e-01) (55, -6.63084149360656738281e-01) (56, 6.79616570472717285156e-01) (57, -9.37157094478607177734e-01) (58, 7.42034912109375000000e-02) (59, 7.82192826271057128906e-01) (60, -9.18158769607543945312e-01) (61, 8.62938880920410156250e-01) (62, -1.91281616687774658203e-01) (63, 3.83041977882385253906e-01) (64, 2.64636754989624023438e-01) (65, 8.61425876617431640625e-01) (66, 4.32769775390625000000e-01) (67, 4.49974060058593750000e-01) (68, 9.07866954803466796875e-01) (69, -3.53027641773223876953e-01) (70, -8.04021000862121582031e-01) (71, -1.91595554351806640625e-01) (72, 1.10067605972290039062e-01) (73, 5.10469436645507812500e-01) (74, 6.84950828552246093750e-01) (56, -8.91890108585357666016e-01) (57, -1.22643053531646728516e-01) (58, -3.41282725334167480469e-01) (59, -4.53005254268646240234e-01) (60, 2.81742811203002929688e-02) (61, 4.63395714759826660156e-01) (62, -9.05548691749572753906e-01) (63, 6.97822093963623046875e-01) (64, 9.64643836021423339844e-01) (65, -5.60828745365142822266e-01) (66, 1.03248953819274902344e-01) (67, -5.10887503623962402344e-02) (68, -2.57902741432189941406e-01) (69, -8.82303893566131591797e-01) (70, 6.63535952568054199219e-01) (71, -8.02830457687377929688e-02) (72, 7.49173164367675781250e-02) (73, -9.73073720932006835938e-01) (74, -3.87072563171386718750e-03) 