FANN_FLO_2.1
num_layers=4
learning_rate=0.700000
connection_rate=1.000000
network_type=0
learning_momentum=0.000000
training_algorithm=2
train_error_function=1
train_stop_function=0
cascade_output_change_fraction=0.010000
quickprop_decay=-0.000100
quickprop_mu=1.750000
rprop_increase_factor=1.200000
rprop_decrease_factor=0.500000
rprop_delta_min=0.000000
rprop_delta_max=50.000000
rprop_delta_zero=0.100000
cascade_output_stagnation_epochs=12
cascade_candidate_change_fraction=0.010000
cascade_candidate_stagnation_epochs=12
cascade_max_out_epochs=150
cascade_min_out_epochs=50
cascade_max_cand_epochs=150
cascade_min_cand_epochs=50
cascade_num_candidate_groups=2
bit_fail_limit=3.49999994039535522461e-01
cascade_candidate_limit=1.00000000000000000000e+03
cascade_weight_multiplier=4.00000005960464477539e-01
cascade_activation_functions_count=10
cascade_activation_functions=3 5 7 8 10 11 14 15 16 17 
cascade_activation_steepnesses_count=4
cascade_activation_steepnesses=2.50000000000000000000e-01 5.00000000000000000000e-01 7.50000000000000000000e-01 1.00000000000000000000e+00 
layer_sizes=30 59 13 7 
scale_included=0
neurons (num_inputs, activation_function, activation_steepness)=(0, 0, 0.00000000000000000000e+00) (0, 0, 0.00000000000000000000e+00) (0, 0, 0.00000000000000000000e+00) (0, 0, 0.00000000000000000000e+00) (0, 0, 0.00000000000000000000e+00) (0, 0, 0.00000000000000000000e+00) (0, 0, 0.00000000000000000000e+00) (0, 0, 0.00000000000000000000e+00) (0, 0, 0.00000000000000000000e+00) (0, 0, 0.00000000000000000000e+00) (0, 0, 0.00000000000000000000e+00) (0, 0, 0.00000000000000000000e+00) (0, 0, 0.00000000000000000000e+00) (0, 0, 0.00000000000000000000e+00) (0, 0, 0.00000000000000000000e+00) (0, 0, 0.00000000000000000000e+00) (0, 0, 0.00000000000000000000e+00) (0, 0, 0.00000000000000000000e+00) (0, 0, 0.00000000000000000000e+00) (0, 0, 0.00000000000000000000e+00) (0, 0, 0.00000000000000000000e+00) (0, 0, 0.00000000000000000000e+00) (0, 0, 0.00000000000000000000e+00) (0, 0, 0.00000000000000000000e+00) (0, 0, 0.00000000000000000000e+00) (0, 0, 0.00000000000000000000e+00) (0, 0, 0.00000000000000000000e+00) (0, 0, 0.00000000000000000000e+00) (0, 0, 0.00000000000000000000e+00) (0, 0, 0.00000000000000000000e+00) (30, 4, 5.00000000000000000000e-01) (30, 4, 5.00000000000000000000e-01) (30, 4, 5.00000000000000000000e-01) (30, 4, 5.00000000000000000000e-01) (30, 4, 5.00000000000000000000e-01) (30, 4, 5.00000000000000000000e-01) (30, 4, 5.00000000000000000000e-01) (30, 4, 5.00000000000000000000e-01) (30, 4, 5.00000000000000000000e-01) (30, 4, 5.00000000000000000000e-01) (30, 4, 5.00000000000000000000e-01) (30, 4, 5.00000000000000000000e-01) (30, 4, 5.00000000000000000000e-01) (30, 4, 5.00000000000000000000e-01) (30, 4, 5.00000000000000000000e-01) (30, 4, 5.00000000000000000000e-01) (30, 4, 5.00000000000000000000e-01) (30, 4, 5.00000000000000000000e-01) (30, 4, 5.00000000000000000000e-01) (30, 4, 5.00000000000000000000e-01) (30, 4, 5.00000000000000000000e-01) (30, 4, 5.00000000000000000000e-01) (30, 4, 5.00000000000000000000e-01) (30, 4, 5.00000000000000000000e-01) (30, 4, 5.00000000000000000000e-01) (30, 4, 5.00000000000000000000e-01) (30, 4, 5.00000000000000000000e-01) (30, 4, 5.00000000000000000000e-01) (30, 4, 5.00000000000000000000e-01) (30, 4, 5.00000000000000000000e-01) (30, 4, 5.00000000000000000000e-01) (30, 4, 5.00000000000000000000e-01) (30, 4, 5.00000000000000000000e-01) (30, 4, 5.00000000000000000000e-01) (30, 4, 5.00000000000000000000e-01) (30, 4, 5.00000000000000000000e-01) (30, 4, 5.00000000000000000000e-01) (30, 4, 5.00000000000000000000e-01) (30, 4, 5.00000000000000000000e-01) (30, 4, 5.00000000000000000000e-01) (30, 4, 5.00000000000000000000e-01) (30, 4, 5.00000000000000000000e-01) (30, 4, 5.00000000000000000000e-01) (30, 4, 5.00000000000000000000e-01) (30, 4, 5.00000000000000000000e-01) (30, 4, 5.00000000000000000000e-01) (30, 4, 5.00000000000000000000e-01) (30, 4, 5.00000000000000000000e-01) (30, 4, 5.00000000000000000000e-01) (30, 4, 5.00000000000000000000e-01) (30, 4, 5.00000000000000000000e-01) (30, 4, 5.00000000000000000000e-01) (30, 4, 5.00000000000000000000e-01) (30, 4, 5.00000000000000000000e-01) (30, 4, 5.00000000000000000000e-01) (30, 4, 5.00000000000000000000e-01) (30, 4, 5.00000000000000000000e-01) (30, 4, 5.00000000000000000000e-01) (0, 0, 0.00000000000000000000e+00) (59, 4, 5.00000000000000000000e-01) (59, 4, 5.00000000000000000000e-01) (59, 4, 5.00000000000000000000e-01) (59, 4, 5.00000000000000000000e-01) (59, 4, 5.00000000000000000000e-01) (59, 4, 5.00000000000000000000e-01) (59, 4, 5.00000000000000000000e-01) (59, 4, 5.00000000000000000000e-01) (59, 4, 5.00000000000000000000e-01) (59, 4, 5.00000000000000000000e-01) (59, 4, 5.00000000000000000000e-01) (59, 4, 5.00000000000000000000e-01) (0, 0, 0.00000000000000000000e+00) (13, 4, 5.00000000000000000000e-01) (13, 4, 5.00000000000000000000e-01) (13, 4, 5.00000000000000000000e-01) (13, 4, 5.00000000000000000000e-01) (13, 4, 5.00000000000000000000e-01) (13, 4, 5.00000000000000000000e-01) (0, 0, 0.00000000000000000000e+00) 
connections (connected_to_neuron, weight)=(0, -5.11852226562500000000e+04) (1, -8.21750546875000000000e+04) (2, -1.02897570312500000000e+05) (3, -1.04564164062500000000e+05) (4, -2.53538632812500000000e+04) (5, -3.22295429687500000000e+04) (6, -1.30107110400000000000e+09) (7, -1.10925425000000000000e+06) (8, -1.18496276855468750000e+03) (9, -2.22825048828125000000e+03) (10, 4.49870703125000000000e+04) (11, 9.02077832031250000000e+03) (12, -5.05092724609375000000e+03) (13, -2.16368847656250000000e+03) (14, -3.16415234375000000000e+03) (15, -3.41240600585937500000e+03) (16, -3.59326220703125000000e+03) (17, -4.68294189453125000000e+03) (18, -5.62382320000000000000e+07) (19, -2.62576406250000000000e+05) (20, -3.31785742187500000000e+03) (21, -3.32024414062500000000e+03) (22, -4.72009619140625000000e+03) (23, -3.55436861515045166016e-01) (24, -1.33041601562500000000e+03) (25, -1.63656127929687500000e+02) (26, -3.98865600585937500000e+03) (27, -3.27686230468750000000e+03) (28, -1.71334753417968750000e+03) (29, -2.84743469238281250000e+02) (0, 7.46510592000000000000e+08) (1, 1.18417702400000000000e+09) (2, 1.66411302400000000000e+09) (3, 1.69194355200000000000e+09) (4, 3.83771712000000000000e+08) (5, 4.68254304000000000000e+08) (6, 2.08840666644480000000e+13) (7, 1.50037196800000000000e+10) (8, 1.56972240000000000000e+07) (9, 2.94578820000000000000e+07) (10, -6.62065536000000000000e+08) (11, -1.30042264000000000000e+08) (12, 6.67841800000000000000e+07) (13, 5.10338200000000000000e+07) (14, 4.11152200000000000000e+07) (15, 4.48618600000000000000e+07) (16, 4.76607320000000000000e+07) (17, 6.23055200000000000000e+07) (18, 9.25141696512000000000e+11) (19, 2.08031936000000000000e+09) (20, 4.44440640000000000000e+07) (21, 4.45053680000000000000e+07) (22, 7.93291680000000000000e+07) (23, 1.90634131431579589844e-01) (24, 7.00257550000000000000e+06) (25, 2.95383000000000000000e+06) (26, 5.52713120000000000000e+07) (27, 4.48186840000000000000e+07) (28, 2.57979020000000000000e+07) (29, 3.76034900000000000000e+06) (0, -1.08701396484375000000e+04) (1, -1.74468515625000000000e+04) (2, -2.19390683593750000000e+04) (3, -2.22851464843750000000e+04) (4, -5.34774853515625000000e+03) (5, -6.79843359375000000000e+03) (6, -2.77857184000000000000e+08) (7, -2.30962781250000000000e+05) (8, -2.48022003173828125000e+02) (9, -4.68457611083984375000e+02) (10, 9.68808496093750000000e+03) (11, 1.96727111816406250000e+03) (12, -1.06164562988281250000e+03) (13, -4.65674987792968750000e+02) (14, -6.64584655761718750000e+02) (15, -7.17645751953125000000e+02) (16, -7.53676269531250000000e+02) (17, -9.85726684570312500000e+02) (18, -1.20286680000000000000e+07) (19, -5.00221601562500000000e+04) (20, -6.96499023437500000000e+02) (21, -6.97344238281250000000e+02) (22, -1.00910479736328125000e+03) (23, 2.58752703666687011719e-01) (24, -2.69187072753906250000e+02) (25, -3.42959098815917968750e+01) (26, -8.46824829101562500000e+02) (27, -6.94610168457031250000e+02) (28, -3.62350830078125000000e+02) (29, -5.89705276489257812500e+01) (0, 7.44672896000000000000e+08) (1, 1.18122393600000000000e+09) (2, 1.66041382400000000000e+09) (3, 1.68818547200000000000e+09) (4, 3.82863168000000000000e+08) (5, 4.67099424000000000000e+08) (6, 2.08373169520640000000e+13) (7, 1.49641646080000000000e+10) (8, 1.56548990000000000000e+07) (9, 2.93781260000000000000e+07) (10, -6.60445376000000000000e+08) (11, -1.29715840000000000000e+08) (12, 6.66033480000000000000e+07) (13, 5.09558560000000000000e+07) (14, 4.10019560000000000000e+07) (15, 4.47397840000000000000e+07) (16, 4.75322160000000000000e+07) (17, 6.21378480000000000000e+07) (18, 9.23119190016000000000e+11) (19, 2.07112473600000000000e+09) (20, 4.43254040000000000000e+07) (21, 4.43866440000000000000e+07) (22, 7.91594640000000000000e+07) (23, 8.10124278068542480469e-01) (24, 6.95538950000000000000e+06) (25, 2.94813250000000000000e+06) (26, 5.51281560000000000000e+07) (27, 4.47011200000000000000e+07) (28, 2.57364720000000000000e+07) (29, 3.75017175000000000000e+06) (0, 7.46552640000000000000e+08) (1, 1.18424588800000000000e+09) (2, 1.66419558400000000000e+09) (3, 1.69202777600000000000e+09) (4, 3.83792608000000000000e+08) (5, 4.68280544000000000000e+08) (6, 2.08851655720960000000e+13) (7, 1.50046382080000000000e+10) (8, 1.56981890000000000000e+07) (9, 2.94597000000000000000e+07) (10, -6.62103552000000000000e+08) (11, -1.30050096000000000000e+08) (12, 6.67883920000000000000e+07) (13, 5.10356240000000000000e+07) (14, 4.11178240000000000000e+07) (15, 4.48646600000000000000e+07) (16, 4.76636000000000000000e+07) (17, 6.23093840000000000000e+07) (18, 9.25188489216000000000e+11) (19, 2.08052492800000000000e+09) (20, 4.44467680000000000000e+07) (21, 4.45081200000000000000e+07) (22, 7.93330960000000000000e+07) (23, -3.20597767829895019531e-01) (24, 7.00364350000000000000e+06) (25, 2.95396225000000000000e+06) (26, 5.52745800000000000000e+07) (27, 4.48214000000000000000e+07) (28, 2.57993320000000000000e+07) (29, 3.76058175000000000000e+06) (0, -2.84623886718750000000e+04) (1, -4.56880429687500000000e+04) (2, -5.73921445312500000000e+04) (3, -5.83011210937500000000e+04) (4, -1.40248173828125000000e+04) (5, -1.78276308593750000000e+04) (6, -7.26614208000000000000e+08) (7, -6.07192312500000000000e+05) (8, -6.50708740234375000000e+02) (9, -1.22940832519531250000e+03) (10, 2.52845214843750000000e+04) (11, 5.12170654296875000000e+03) (12, -2.78758203125000000000e+03) (13, -1.21703540039062500000e+03) (14, -1.74243054199218750000e+03) (15, -1.88096643066406250000e+03) (16, -1.97849792480468750000e+03) (17, -2.58606787109375000000e+03) (18, -3.14442960000000000000e+07) (19, -1.34474000000000000000e+05) (20, -1.82948193359375000000e+03) (21, -1.83086938476562500000e+03) (22, -2.63924023437500000000e+03) (23, 4.61953878402709960938e-01) (24, -7.14128967285156250000e+02) (25, -8.90979385375976562500e+01) (26, -2.21582885742187500000e+03) (27, -1.81865002441406250000e+03) (28, -9.50239135742187500000e+02) (29, -1.56324645996093750000e+02) (0, 7.46484416000000000000e+08) (1, 1.18413427200000000000e+09) (2, 1.66406054400000000000e+09) (3, 1.69189017600000000000e+09) (4, 3.83758720000000000000e+08) (5, 4.68237888000000000000e+08) (6, 2.08834165473280000000e+13) (7, 1.50031769600000000000e+10) (8, 1.56966530000000000000e+07) (9, 2.94568060000000000000e+07) (10, -6.62044544000000000000e+08) (11, -1.30037664000000000000e+08) (12, 6.67815960000000000000e+07) (13, 5.10327280000000000000e+07) (14, 4.11136440000000000000e+07) (15, 4.48601560000000000000e+07) (16, 4.76589520000000000000e+07) (17, 6.23032560000000000000e+07) (18, 9.25113319424000000000e+11) (19, 2.08019430400000000000e+09) (20, 4.44423800000000000000e+07) (21, 4.45037360000000000000e+07) (22, 7.93268640000000000000e+07) (23, -5.43399214744567871094e-01) (24, 7.00192050000000000000e+06) (25, 2.95374975000000000000e+06) (26, 5.52693840000000000000e+07) (27, 4.48170800000000000000e+07) (28, 2.57970380000000000000e+07) (29, 3.76021075000000000000e+06) (0, -8.26437207031250000000e+03) (1, -1.32647138671875000000e+04) (2, -1.66888261718750000000e+04) (3, -1.69491269531250000000e+04) (4, -4.06347705078125000000e+03) (5, -5.16390039062500000000e+03) (6, -2.11390656000000000000e+08) (7, -1.75140500000000000000e+05) (8, -1.88097427368164062500e+02) (9, -3.55280792236328125000e+02) (10, 7.37703808593750000000e+03) (11, 1.50136950683593750000e+03) (12, -8.06557739257812500000e+02) (13, -3.55683258056640625000e+02) (14, -5.03316040039062500000e+02) (15, -5.44916259765625000000e+02) (16, -5.71086975097656250000e+02) (17, -7.48313415527343750000e+02) (18, -9.15293800000000000000e+06) (19, -3.74860000000000000000e+04) (20, -5.29229431152343750000e+02) (21, -5.29919128417968750000e+02) (22, -7.67948425292968750000e+02) (23, -4.40588414669036865234e-01) (24, -2.03262481689453125000e+02) (25, -2.64824275970458984375e+01) (26, -6.44164123535156250000e+02) (27, -5.28227600097656250000e+02) (28, -2.77025390625000000000e+02) (29, -4.45969963073730468750e+01) (0, 7.46523648000000000000e+08) (1, 1.18419660800000000000e+09) (2, 1.66413952000000000000e+09) (3, 1.69197043200000000000e+09) (4, 3.83778176000000000000e+08) (5, 4.68262816000000000000e+08) (6, 2.08844231802880000000e+13) (7, 1.50039920640000000000e+10) (8, 1.56975170000000000000e+07) (9, 2.94584300000000000000e+07) (10, -6.62077504000000000000e+08) (11, -1.30044464000000000000e+08) (12, 6.67854400000000000000e+07) (13, 5.10343640000000000000e+07) (14, 4.11160280000000000000e+07) (15, 4.48626800000000000000e+07) (16, 4.76616000000000000000e+07) (17, 6.23067080000000000000e+07) (18, 9.25155721216000000000e+11) (19, 2.08038489600000000000e+09) (20, 4.44448840000000000000e+07) (21, 4.45061800000000000000e+07) (22, 7.93304080000000000000e+07) (23, -2.20445156097412109375e-01) (24, 7.00291150000000000000e+06) (25, 2.95387050000000000000e+06) (26, 5.52723680000000000000e+07) (27, 4.48194920000000000000e+07) (28, 2.57983540000000000000e+07) (29, 3.76042025000000000000e+06) (0, -1.29336337890625000000e+04) (1, -2.07686406250000000000e+04) (2, -2.60160507812500000000e+04) (3, -2.64345839843750000000e+04) (4, -6.40149267578125000000e+03) (5, -8.13758007812500000000e+03) (6, -3.29020896000000000000e+08) (7, -2.79470000000000000000e+05) (8, -2.99478668212890625000e+02) (9, -5.62785583496093750000e+02) (10, 1.13874687500000000000e+04) (11, 2.28819580078125000000e+03) (12, -1.27572924804687500000e+03) (13, -5.46634765625000000000e+02) (14, -7.99396789550781250000e+02) (15, -8.60742248535156250000e+02) (16, -9.05761962890625000000e+02) (17, -1.18135412597656250000e+03) (18, -1.42238080000000000000e+07) (19, -6.56092734375000000000e+04) (20, -8.37054321289062500000e+02) (21, -8.38603759765625000000e+02) (22, -1.19434753417968750000e+03) (23, 9.74284291267395019531e-01) (24, -3.33544372558593750000e+02) (25, -4.07258377075195312500e+01) (26, -1.00834643554687500000e+03) (27, -8.27128601074218750000e+02) (28, -4.32287353515625000000e+02) (29, -7.22492904663085937500e+01) (0, 7.46536896000000000000e+08) (1, 1.18421811200000000000e+09) (2, 1.66416614400000000000e+09) (3, 1.69199769600000000000e+09) (4, 3.83784576000000000000e+08) (5, 4.68270464000000000000e+08) (6, 2.08847671132160000000e+13) (7, 1.50042828800000000000e+10) (8, 1.56978160000000000000e+07) (9, 2.94590160000000000000e+07) (10, -6.62088576000000000000e+08) (11, -1.30046920000000000000e+08) (12, 6.67868200000000000000e+07) (13, 5.10349360000000000000e+07) (14, 4.11168640000000000000e+07) (15, 4.48636000000000000000e+07) (16, 4.76625200000000000000e+07) (17, 6.23079880000000000000e+07) (18, 9.25169811456000000000e+11) (19, 2.08044966400000000000e+09) (20, 4.44457720000000000000e+07) (21, 4.45070680000000000000e+07) (22, 7.93316320000000000000e+07) (23, 8.65170478820800781250e-01) (24, 7.00324000000000000000e+06) (25, 2.95391225000000000000e+06) (26, 5.52733640000000000000e+07) (27, 4.48203200000000000000e+07) (28, 2.57988120000000000000e+07) (29, 3.76049250000000000000e+06) (0, 7.46511552000000000000e+08) (1, 1.18417881600000000000e+09) (2, 1.66411481600000000000e+09) (3, 1.69194585600000000000e+09) (4, 3.83772160000000000000e+08) (5, 4.68254880000000000000e+08) (6, 2.08840897331200000000e+13) (7, 1.50037319680000000000e+10) (8, 1.56972390000000000000e+07) (9, 2.94579140000000000000e+07) (10, -6.62066752000000000000e+08) (11, -1.30042440000000000000e+08) (12, 6.67842720000000000000e+07) (13, 5.10338680000000000000e+07) (14, 4.11152560000000000000e+07) (15, 4.48619160000000000000e+07) (16, 4.76607880000000000000e+07) (17, 6.23055960000000000000e+07) (18, 9.25142745088000000000e+11) (19, 2.08031654400000000000e+09) (20, 4.44441240000000000000e+07) (21, 4.45054240000000000000e+07) (22, 7.93292640000000000000e+07) (23, 8.50911736488342285156e-01) (24, 7.00258150000000000000e+06) (25, 2.95383250000000000000e+06) (26, 5.52713880000000000000e+07) (27, 4.48187320000000000000e+07) (28, 2.57979400000000000000e+07) (29, 3.76035275000000000000e+06) (0, 7.46522240000000000000e+08) (1, 1.18419417600000000000e+09) (2, 1.66413606400000000000e+09) (3, 1.69196736000000000000e+09) (4, 3.83777408000000000000e+08) (5, 4.68261760000000000000e+08) (6, 2.08843791400960000000e+13) (7, 1.50039480320000000000e+10) (8, 1.56974740000000000000e+07) (9, 2.94583520000000000000e+07) (10, -6.62076544000000000000e+08) (11, -1.30044176000000000000e+08) (12, 6.67852680000000000000e+07) (13, 5.10343120000000000000e+07) (14, 4.11158960000000000000e+07) (15, 4.48625720000000000000e+07) (16, 4.76614880000000000000e+07) (17, 6.23065400000000000000e+07) (18, 9.25154213888000000000e+11) (19, 2.08036902400000000000e+09) (20, 4.44447640000000000000e+07) (21, 4.45060520000000000000e+07) (22, 7.93302560000000000000e+07) (23, -1.17574453353881835938e-01) (24, 7.00285000000000000000e+06) (25, 2.95386475000000000000e+06) (26, 5.52722240000000000000e+07) (27, 4.48194000000000000000e+07) (28, 2.57983000000000000000e+07) (29, 3.76040900000000000000e+06) (0, 7.46524544000000000000e+08) (1, 1.18419788800000000000e+09) (2, 1.66414105600000000000e+09) (3, 1.69197196800000000000e+09) (4, 3.83778592000000000000e+08) (5, 4.68263136000000000000e+08) (6, 2.08844483461120000000e+13) (7, 1.50040023040000000000e+10) (8, 1.56975300000000000000e+07) (9, 2.94584580000000000000e+07) (10, -6.62078464000000000000e+08) (11, -1.30044600000000000000e+08) (12, 6.67855080000000000000e+07) (13, 5.10344080000000000000e+07) (14, 4.11160840000000000000e+07) (15, 4.48627240000000000000e+07) (16, 4.76616360000000000000e+07) (17, 6.23067520000000000000e+07) (18, 9.25156573184000000000e+11) (19, 2.08038297600000000000e+09) (20, 4.44449280000000000000e+07) (21, 4.45062400000000000000e+07) (22, 7.93304880000000000000e+07) (23, 1.76271438598632812500e-01) (24, 7.00291550000000000000e+06) (25, 2.95387375000000000000e+06) (26, 5.52724280000000000000e+07) (27, 4.48195440000000000000e+07) (28, 2.57983780000000000000e+07) (29, 3.76042275000000000000e+06) (0, 7.46466752000000000000e+08) (1, 1.18410688000000000000e+09) (2, 1.66402560000000000000e+09) (3, 1.69185472000000000000e+09) (4, 3.83750272000000000000e+08) (5, 4.68226464000000000000e+08) (6, 2.08829866311680000000e+13) (7, 1.50028042240000000000e+10) (8, 1.56962420000000000000e+07) (9, 2.94560300000000000000e+07) (10, -6.62029376000000000000e+08) (11, -1.30034840000000000000e+08) (12, 6.67799360000000000000e+07) (13, 5.10320080000000000000e+07) (14, 4.11125480000000000000e+07) (15, 4.48589640000000000000e+07) (16, 4.76576800000000000000e+07) (17, 6.23016640000000000000e+07) (18, 9.25095231488000000000e+11) (19, 2.08010073600000000000e+09) (20, 4.44412560000000000000e+07) (21, 4.45026120000000000000e+07) (22, 7.93252880000000000000e+07) (23, -7.11029171943664550781e-01) (24, 7.00145800000000000000e+06) (25, 2.95369300000000000000e+06) (26, 5.52680400000000000000e+07) (27, 4.48159680000000000000e+07) (28, 2.57964620000000000000e+07) (29, 3.76011250000000000000e+06) (0, 7.46494912000000000000e+08) (1, 1.18415180800000000000e+09) (2, 1.66408384000000000000e+09) (3, 1.69191347200000000000e+09) (4, 3.83764384000000000000e+08) (5, 4.68244864000000000000e+08) (6, 2.08836996628480000000e+13) (7, 1.50033930240000000000e+10) (8, 1.56968750000000000000e+07) (9, 2.94572400000000000000e+07) (10, -6.62053248000000000000e+08) (11, -1.30039664000000000000e+08) (12, 6.67826720000000000000e+07) (13, 5.10331840000000000000e+07) (14, 4.11142840000000000000e+07) (15, 4.48608280000000000000e+07) (16, 4.76597000000000000000e+07) (17, 6.23041880000000000000e+07) (18, 9.25125115904000000000e+11) (19, 2.08024256000000000000e+09) (20, 4.44430200000000000000e+07) (21, 4.45043880000000000000e+07) (22, 7.93278320000000000000e+07) (23, -7.70255982875823974609e-01) (24, 7.00217850000000000000e+06) (25, 2.95378225000000000000e+06) (26, 5.52701960000000000000e+07) (27, 4.48177280000000000000e+07) (28, 2.57973820000000000000e+07) (29, 3.76026650000000000000e+06) (0, 7.46494464000000000000e+08) (1, 1.18415078400000000000e+09) (2, 1.66408243200000000000e+09) (3, 1.69191206400000000000e+09) (4, 3.83764096000000000000e+08) (5, 4.68244576000000000000e+08) (6, 2.08836807884800000000e+13) (7, 1.50033838080000000000e+10) (8, 1.56968600000000000000e+07) (9, 2.94572180000000000000e+07) (10, -6.62052864000000000000e+08) (11, -1.30039536000000000000e+08) (12, 6.67825880000000000000e+07) (13, 5.10331560000000000000e+07) (14, 4.11142440000000000000e+07) (15, 4.48607880000000000000e+07) (16, 4.76596600000000000000e+07) (17, 6.23041280000000000000e+07) (18, 9.25124395008000000000e+11) (19, 2.08024076800000000000e+09) (20, 4.44429800000000000000e+07) (21, 4.45043440000000000000e+07) (22, 7.93277680000000000000e+07) (23, 1.72231197357177734375e-01) (24, 7.00216750000000000000e+06) (25, 2.95378125000000000000e+06) (26, 5.52701560000000000000e+07) (27, 4.48176920000000000000e+07) (28, 2.57973680000000000000e+07) (29, 3.76026350000000000000e+06) (0, 7.46485888000000000000e+08) (1, 1.18413580800000000000e+09) (2, 1.66406284800000000000e+09) (3, 1.69189260800000000000e+09) (4, 3.83759360000000000000e+08) (5, 4.68238528000000000000e+08) (6, 2.08834521989120000000e+13) (7, 1.50031892480000000000e+10) (8, 1.56966730000000000000e+07) (9, 2.94568520000000000000e+07) (10, -6.62045760000000000000e+08) (11, -1.30037944000000000000e+08) (12, 6.67816840000000000000e+07) (13, 5.10327960000000000000e+07) (14, 4.11136880000000000000e+07) (15, 4.48602200000000000000e+07) (16, 4.76590360000000000000e+07) (17, 6.23033360000000000000e+07) (18, 9.25114957824000000000e+11) (19, 2.08018956800000000000e+09) (20, 4.44424400000000000000e+07) (21, 4.45038240000000000000e+07) (22, 7.93269920000000000000e+07) (23, 7.56620168685913085938e-01) (24, 7.00192900000000000000e+06) (25, 2.95375025000000000000e+06) (26, 5.52694680000000000000e+07) (27, 4.48171520000000000000e+07) (28, 2.57970760000000000000e+07) (29, 3.76021675000000000000e+06) (0, 7.46527168000000000000e+08) (1, 1.18420262400000000000e+09) (2, 1.66414630400000000000e+09) (3, 1.69197683200000000000e+09) (4, 3.83780128000000000000e+08) (5, 4.68264544000000000000e+08) (6, 2.08845133578240000000e+13) (7, 1.50040647680000000000e+10) (8, 1.56975920000000000000e+07) (9, 2.94585700000000000000e+07) (10, -6.62080768000000000000e+08) (11, -1.30045064000000000000e+08) (12, 6.67858200000000000000e+07) (13, 5.10345160000000000000e+07) (14, 4.11162600000000000000e+07) (15, 4.48629240000000000000e+07) (16, 4.76618440000000000000e+07) (17, 6.23070120000000000000e+07) (18, 9.25159391232000000000e+11) (19, 2.08040217600000000000e+09) (20, 4.44451360000000000000e+07) (21, 4.45064280000000000000e+07) (22, 7.93307040000000000000e+07) (23, -6.53659522533416748047e-01) (24, 7.00300100000000000000e+06) (25, 2.95388300000000000000e+06) (26, 5.52726480000000000000e+07) (27, 4.48197200000000000000e+07) (28, 2.57984720000000000000e+07) (29, 3.76043600000000000000e+06) (0, 7.46516224000000000000e+08) (1, 1.18418547200000000000e+09) (2, 1.66412390400000000000e+09) (3, 1.69195443200000000000e+09) (4, 3.83774528000000000000e+08) (5, 4.68257824000000000000e+08) (6, 2.08842113679360000000e+13) (7, 1.50038210560000000000e+10) (8, 1.56973330000000000000e+07) (9, 2.94580920000000000000e+07) (10, -6.62071488000000000000e+08) (11, -1.30043248000000000000e+08) (12, 6.67847280000000000000e+07) (13, 5.10340480000000000000e+07) (14, 4.11155560000000000000e+07) (15, 4.48622320000000000000e+07) (16, 4.76611080000000000000e+07) (17, 6.23060200000000000000e+07) (18, 9.25147791360000000000e+11) (19, 2.08034176000000000000e+09) (20, 4.44443840000000000000e+07) (21, 4.45057080000000000000e+07) (22, 7.93297520000000000000e+07) (23, 6.90431237220764160156e-01) (24, 7.00270050000000000000e+06) (25, 2.95384700000000000000e+06) (26, 5.52717400000000000000e+07) (27, 4.48190080000000000000e+07) (28, 2.57981040000000000000e+07) (29, 3.76037525000000000000e+06) (0, -2.79720117187500000000e+04) (1, -4.49057617187500000000e+04) (2, -5.62502695312500000000e+04) (3, -5.71589375000000000000e+04) (4, -1.38482558593750000000e+04) (5, -1.76037187500000000000e+04) (6, -7.11325184000000000000e+08) (7, -6.05323125000000000000e+05) (8, -6.46600158691406250000e+02) (9, -1.21697204589843750000e+03) (10, 2.46119433593750000000e+04) (11, 4.93969091796875000000e+03) (12, -2.75732519531250000000e+03) (13, -1.18420837402343750000e+03) (14, -1.72703979492187500000e+03) (15, -1.86252453613281250000e+03) (16, -1.96216491699218750000e+03) (17, -2.55698486328125000000e+03) (18, -3.07504980000000000000e+07) (19, -1.42282515625000000000e+05) (20, -1.81064086914062500000e+03) (21, -1.81210156250000000000e+03) (22, -2.58076123046875000000e+03) (23, 6.23001337051391601562e-01) (24, -7.25310241699218750000e+02) (25, -8.81734848022460937500e+01) (26, -2.17972094726562500000e+03) (27, -1.79021899414062500000e+03) (28, -9.36190063476562500000e+02) (29, -1.55436050415039062500e+02) (0, 7.46504768000000000000e+08) (1, 1.18416793600000000000e+09) (2, 1.66410252800000000000e+09) (3, 1.69193203200000000000e+09) (4, 3.83768864000000000000e+08) (5, 4.68250848000000000000e+08) (6, 2.08839303495680000000e+13) (7, 1.50035927040000000000e+10) (8, 1.56970940000000000000e+07) (9, 2.94576440000000000000e+07) (10, -6.62060864000000000000e+08) (11, -1.30041368000000000000e+08) (12, 6.67836040000000000000e+07) (13, 5.10335760000000000000e+07) (14, 4.11148880000000000000e+07) (15, 4.48614880000000000000e+07) (16, 4.76603480000000000000e+07) (17, 6.23050320000000000000e+07) (18, 9.25135339520000000000e+11) (19, 2.08028953600000000000e+09) (20, 4.44436680000000000000e+07) (21, 4.45049960000000000000e+07) (22, 7.93286480000000000000e+07) (23, -7.72836863994598388672e-01) (24, 7.00242650000000000000e+06) (25, 2.95381125000000000000e+06) (26, 5.52708800000000000000e+07) (27, 4.48182960000000000000e+07) (28, 2.57977080000000000000e+07) (29, 3.76031925000000000000e+06) (0, 7.46528000000000000000e+08) (1, 1.18420377600000000000e+09) (2, 1.66414745600000000000e+09) (3, 1.69197811200000000000e+09) (4, 3.83780448000000000000e+08) (5, 4.68265024000000000000e+08) (6, 2.08845406208000000000e+13) (7, 1.50040862720000000000e+10) (8, 1.56976140000000000000e+07) (9, 2.94586080000000000000e+07) (10, -6.62081280000000000000e+08) (11, -1.30045168000000000000e+08) (12, 6.67859160000000000000e+07) (13, 5.10345480000000000000e+07) (14, 4.11163160000000000000e+07) (15, 4.48629960000000000000e+07) (16, 4.76619000000000000000e+07) (17, 6.23071080000000000000e+07) (18, 9.25160046592000000000e+11) (19, 2.08040985600000000000e+09) (20, 4.44451840000000000000e+07) (21, 4.45064840000000000000e+07) (22, 7.93307920000000000000e+07) (23, 3.82008790969848632812e-01) (24, 7.00303150000000000000e+06) (25, 2.95388675000000000000e+06) (26, 5.52727040000000000000e+07) (27, 4.48197720000000000000e+07) (28, 2.57985020000000000000e+07) (29, 3.76044100000000000000e+06) (0, 7.46485568000000000000e+08) (1, 1.18413542400000000000e+09) (2, 1.66406246400000000000e+09) (3, 1.69189209600000000000e+09) (4, 3.83759200000000000000e+08) (5, 4.68238432000000000000e+08) (6, 2.08834438103040000000e+13) (7, 1.50031902720000000000e+10) (8, 1.56966700000000000000e+07) (9, 2.94568400000000000000e+07) (10, -6.62045440000000000000e+08) (11, -1.30037816000000000000e+08) (12, 6.67816680000000000000e+07) (13, 5.10327800000000000000e+07) (14, 4.11136760000000000000e+07) (15, 4.48602080000000000000e+07) (16, 4.76590080000000000000e+07) (17, 6.23033280000000000000e+07) (18, 9.25114368000000000000e+11) (19, 2.08019302400000000000e+09) (20, 4.44424240000000000000e+07) (21, 4.45038080000000000000e+07) (22, 7.93269680000000000000e+07) (23, -5.15588998794555664062e-01) (24, 7.00193050000000000000e+06) (25, 2.95374950000000000000e+06) (26, 5.52694480000000000000e+07) (27, 4.48171360000000000000e+07) (28, 2.57970700000000000000e+07) (29, 3.76021600000000000000e+06) (0, 7.46497728000000000000e+08) (1, 1.18415654400000000000e+09) (2, 1.66408921600000000000e+09) (3, 1.69191846400000000000e+09) (4, 3.83765760000000000000e+08) (5, 4.68246432000000000000e+08) (6, 2.08837604802560000000e+13) (7, 1.50034411520000000000e+10) (8, 1.56969290000000000000e+07) (9, 2.94573460000000000000e+07) (10, -6.62055360000000000000e+08) (11, -1.30040072000000000000e+08) (12, 6.67828560000000000000e+07) (13, 5.10333080000000000000e+07) (14, 4.11144480000000000000e+07) (15, 4.48609920000000000000e+07) (16, 4.76598520000000000000e+07) (17, 6.23044000000000000000e+07) (18, 9.25127868416000000000e+11) (19, 2.08024780800000000000e+09) (20, 4.44431800000000000000e+07) (21, 4.45045440000000000000e+07) (22, 7.93280480000000000000e+07) (23, -1.82326555252075195312e-01) (24, 7.00223000000000000000e+06) (25, 2.95378975000000000000e+06) (26, 5.52703880000000000000e+07) (27, 4.48178600000000000000e+07) (28, 2.57974620000000000000e+07) (29, 3.76028025000000000000e+06) (0, -2.28128979492187500000e+03) (1, -3.66931127929687500000e+03) (2, -4.59252050781250000000e+03) (3, -4.66753466796875000000e+03) (4, -1.13044543457031250000e+03) (5, -1.43791381835937500000e+03) (6, -5.80905720000000000000e+07) (7, -4.91251054687500000000e+04) (8, -5.27687988281250000000e+01) (9, -9.90393981933593750000e+01) (10, 2.00906933593750000000e+03) (11, 4.04657135009765625000e+02) (12, -2.24273101806640625000e+02) (13, -9.72321166992187500000e+01) (14, -1.40197998046875000000e+02) (15, -1.51686630249023437500e+02) (16, -1.59230667114257812500e+02) (17, -2.08705032348632812500e+02) (18, -2.51089925000000000000e+06) (19, -1.17015332031250000000e+04) (20, -1.48867034912109375000e+02) (21, -1.47593612670898437500e+02) (22, -2.09957656860351562500e+02) (23, -4.65611159801483154297e-01) (24, -5.82915458679199218750e+01) (25, -8.05559539794921875000e+00) (26, -1.77558471679687500000e+02) (27, -1.45666275024414062500e+02) (28, -7.67727127075195312500e+01) (29, -1.36043853759765625000e+01) (0, 7.46550080000000000000e+08) (1, 1.18424064000000000000e+09) (2, 1.66419084800000000000e+09) (3, 1.69202278400000000000e+09) (4, 3.83791328000000000000e+08) (5, 4.68279040000000000000e+08) (6, 2.08851047546880000000e+13) (7, 1.50045921280000000000e+10) (8, 1.56981310000000000000e+07) (9, 2.94595980000000000000e+07) (10, -6.62100544000000000000e+08) (11, -1.30049400000000000000e+08) (12, 6.67881640000000000000e+07) (13, 5.10354920000000000000e+07) (14, 4.11176920000000000000e+07) (15, 4.48645280000000000000e+07) (16, 4.76634440000000000000e+07) (17, 6.23091720000000000000e+07) (18, 9.25185146880000000000e+11) (19, 2.08052416000000000000e+09) (20, 4.44466160000000000000e+07) (21, 4.45079640000000000000e+07) (22, 7.93328240000000000000e+07) (23, -9.98574733734130859375e-01) (24, 7.00360450000000000000e+06) (25, 2.95395725000000000000e+06) (26, 5.52743880000000000000e+07) (27, 4.48212160000000000000e+07) (28, 2.57992600000000000000e+07) (29, 3.76056625000000000000e+06) (0, 7.46519424000000000000e+08) (1, 1.18419072000000000000e+09) (2, 1.66412992000000000000e+09) (3, 1.69196121600000000000e+09) (4, 3.83776192000000000000e+08) (5, 4.68260032000000000000e+08) (6, 2.08842910597120000000e+13) (7, 1.50039009280000000000e+10) (8, 1.56974180000000000000e+07) (9, 2.94582380000000000000e+07) (10, -6.62073984000000000000e+08) (11, -1.30043632000000000000e+08) (12, 6.67850240000000000000e+07) (13, 5.10341680000000000000e+07) (14, 4.11157480000000000000e+07) (15, 4.48624440000000000000e+07) (16, 4.76613160000000000000e+07) (17, 6.23063200000000000000e+07) (18, 9.25150740480000000000e+11) (19, 2.08036992000000000000e+09) (20, 4.44445920000000000000e+07) (21, 4.45059000000000000000e+07) (22, 7.93300080000000000000e+07) (23, 6.73993587493896484375e-01) (24, 7.00280600000000000000e+06) (25, 2.95385775000000000000e+06) (26, 5.52720040000000000000e+07) (27, 4.48192240000000000000e+07) (28, 2.57982060000000000000e+07) (29, 3.76039475000000000000e+06) (0, -4.38755664062500000000e+04) (1, -7.04349296875000000000e+04) (2, -8.81976250000000000000e+04) (3, -8.96235468750000000000e+04) (4, -2.17331289062500000000e+04) (5, -2.76283046875000000000e+04) (6, -1.11514828800000000000e+09) (7, -9.51216625000000000000e+05) (8, -1.01611950683593750000e+03) (9, -1.91069213867187500000e+03) (10, 3.85548203125000000000e+04) (11, 7.73038378906250000000e+03) (12, -4.32977246093750000000e+03) (13, -1.85518261718750000000e+03) (14, -2.71382812500000000000e+03) (15, -2.92425976562500000000e+03) (16, -3.08000122070312500000e+03) (17, -4.01370532226562500000e+03) (18, -4.82013960000000000000e+07) (19, -2.25235093750000000000e+05) (20, -2.84243383789062500000e+03) (21, -2.84540063476562500000e+03) (22, -4.04527880859375000000e+03) (23, -8.82071673870086669922e-01) (24, -1.13997424316406250000e+03) (25, -1.39265060424804687500e+02) (26, -3.41901074218750000000e+03) (27, -2.80808593750000000000e+03) (28, -1.46872766113281250000e+03) (29, -2.43626556396484375000e+02) (0, -2.69338452148437500000e+03) (1, -4.32269140625000000000e+03) (2, -5.36261035156250000000e+03) (3, -5.45447851562500000000e+03) (4, -1.35558630371093750000e+03) (5, -1.72347570800781250000e+03) (6, -6.75126720000000000000e+07) (7, -6.14792070312500000000e+04) (8, -6.34459495544433593750e+01) (9, -1.20429435729980468750e+02) (10, 2.28959960937500000000e+03) (11, 4.42133758544921875000e+02) (12, -2.71184478759765625000e+02) (13, -1.10082168579101562500e+02) (14, -1.71517089843750000000e+02) (15, -1.84940155029296875000e+02) (16, -1.94813766479492187500e+02) (17, -2.52511901855468750000e+02) (18, -2.90803050000000000000e+06) (19, -1.70770332031250000000e+04) (20, -1.78959274291992187500e+02) (21, -1.78836975097656250000e+02) (22, -2.43742950439453125000e+02) (23, -8.26537609100341796875e-04) (24, -7.83604736328125000000e+01) (25, -9.85868930816650390625e+00) (26, -2.09389923095703125000e+02) (27, -1.73912979125976562500e+02) (28, -9.13865890502929687500e+01) (29, -1.51098833084106445312e+01) (0, 7.46497152000000000000e+08) (1, 1.18415564800000000000e+09) (2, 1.66408832000000000000e+09) (3, 1.69191769600000000000e+09) (4, 3.83765504000000000000e+08) (5, 4.68246144000000000000e+08) (6, 2.08837499944960000000e+13) (7, 1.50034329600000000000e+10) (8, 1.56969200000000000000e+07) (9, 2.94573280000000000000e+07) (10, -6.62055040000000000000e+08) (11, -1.30040008000000000000e+08) (12, 6.67828320000000000000e+07) (13, 5.10332840000000000000e+07) (14, 4.11144160000000000000e+07) (15, 4.48609720000000000000e+07) (16, 4.76598200000000000000e+07) (17, 6.23043600000000000000e+07) (18, 9.25127475200000000000e+11) (19, 2.08024563200000000000e+09) (20, 4.44431480000000000000e+07) (21, 4.45045160000000000000e+07) (22, 7.93280320000000000000e+07) (23, -6.89709782600402832031e-01) (24, 7.00221750000000000000e+06) (25, 2.95378725000000000000e+06) (26, 5.52703480000000000000e+07) (27, 4.48178440000000000000e+07) (28, 2.57974460000000000000e+07) (29, 3.76027625000000000000e+06) (0, 7.45036416000000000000e+08) (1, 1.18181043200000000000e+09) (2, 1.66114713600000000000e+09) (3, 1.68893004800000000000e+09) (4, 3.83042976000000000000e+08) (5, 4.67327520000000000000e+08) (6, 2.08465800724480000000e+13) (7, 1.49719951360000000000e+10) (8, 1.56632500000000000000e+07) (9, 2.93939340000000000000e+07) (10, -6.60767296000000000000e+08) (11, -1.29780792000000000000e+08) (12, 6.66392160000000000000e+07) (13, 5.09713040000000000000e+07) (14, 4.10244200000000000000e+07) (15, 4.47639360000000000000e+07) (16, 4.75576440000000000000e+07) (17, 6.21711200000000000000e+07) (18, 9.23519418368000000000e+11) (19, 2.07293568000000000000e+09) (20, 4.43489280000000000000e+07) (21, 4.44101960000000000000e+07) (22, 7.91930880000000000000e+07) (23, 1.47362947463989257812e-02) (24, 6.96472300000000000000e+06) (25, 2.94924225000000000000e+06) (26, 5.51565280000000000000e+07) (27, 4.47244560000000000000e+07) (28, 2.57486620000000000000e+07) (29, 3.75218725000000000000e+06) (0, -4.78369570312500000000e+04) (1, -7.68011093750000000000e+04) (2, -9.61558515625000000000e+04) (3, -9.77133203125000000000e+04) (4, -2.37022402343750000000e+04) (5, -3.01285292968750000000e+04) (6, -1.21575385600000000000e+09) (7, -1.03729481250000000000e+06) (8, -1.10754907226562500000e+03) (9, -2.08296875000000000000e+03) (10, 4.20230664062500000000e+04) (11, 8.42397558593750000000e+03) (12, -4.72266064453125000000e+03) (13, -2.02122497558593750000e+03) (14, -2.95904541015625000000e+03) (15, -3.19044628906250000000e+03) (16, -3.35901171875000000000e+03) (17, -4.37677880859375000000e+03) (18, -5.25472120000000000000e+07) (19, -2.46307265625000000000e+05) (20, -3.10049218750000000000e+03) (21, -3.10352612304687500000e+03) (22, -4.40957568359375000000e+03) (23, 8.86365294456481933594e-01) (24, -1.24595361328125000000e+03) (25, -1.53317611694335937500e+02) (26, -3.72751904296875000000e+03) (27, -3.06187963867187500000e+03) (28, -1.59967944335937500000e+03) (29, -2.66770080566406250000e+02) (0, 7.46519552000000000000e+08) (1, 1.18419046400000000000e+09) (2, 1.66413030400000000000e+09) (3, 1.69196147200000000000e+09) (4, 3.83776128000000000000e+08) (5, 4.68259904000000000000e+08) (6, 2.08842994483200000000e+13) (7, 1.50038917120000000000e+10) (8, 1.56974130000000000000e+07) (9, 2.94582320000000000000e+07) (10, -6.62074176000000000000e+08) (11, -1.30043744000000000000e+08) (12, 6.67850120000000000000e+07) (13, 5.10341840000000000000e+07) (14, 4.11157280000000000000e+07) (15, 4.48624200000000000000e+07) (16, 4.76613040000000000000e+07) (17, 6.23063000000000000000e+07) (18, 9.25150806016000000000e+11) (19, 2.08036019200000000000e+09) (20, 4.44445840000000000000e+07) (21, 4.45058880000000000000e+07) (22, 7.93300240000000000000e+07) (23, -3.16712856292724609375e-01) (24, 7.00278650000000000000e+06) (25, 2.95385600000000000000e+06) (26, 5.52720040000000000000e+07) (27, 4.48192240000000000000e+07) (28, 2.57982100000000000000e+07) (29, 3.76039375000000000000e+06) (0, -3.99670117187500000000e+04) (1, -6.41655664062500000000e+04) (2, -8.04841093750000000000e+04) (3, -8.17698906250000000000e+04) (4, -1.97399550781250000000e+04) (5, -2.50933613281250000000e+04) (6, -1.01842080000000000000e+09) (7, -8.58060687500000000000e+05) (8, -9.18774902343750000000e+02) (9, -1.73182800292968750000e+03) (10, 3.53363242187500000000e+04) (11, 7.12985351562500000000e+03) (12, -3.92652099609375000000e+03) (13, -1.69913061523437500000e+03) (14, -2.45858251953125000000e+03) (15, -2.65204711914062500000e+03) (16, -2.78926708984375000000e+03) (17, -3.64063574218750000000e+03) (18, -4.40487400000000000000e+07) (19, -1.96124875000000000000e+05) (20, -2.57869189453125000000e+03) (21, -2.58072290039062500000e+03) (22, -3.69829980468750000000e+03) (23, -9.61573898792266845703e-01) (24, -1.01752392578125000000e+03) (25, -1.24818794250488281250e+02) (26, -3.11283349609375000000e+03) (27, -2.55696899414062500000e+03) (28, -1.33645397949218750000e+03) (29, -2.20473434448242187500e+02) (0, -3.10477111816406250000e+02) (1, -4.97413482666015625000e+02) (2, -5.30471801757812500000e+02) (3, -5.50559997558593750000e+02) (4, -1.92548019409179687500e+02) (5, -2.45322265625000000000e+02) (6, -6.17997450000000000000e+06) (7, -1.24171542968750000000e+04) (8, -1.12164316177368164062e+01) (9, -1.85803985595703125000e+01) (10, 1.30185470581054687500e+02) (11, -3.57557296752929687500e+00) (12, -4.13375740051269531250e+01) (13, -6.55753278732299804688e+00) (14, -2.87578582763671875000e+01) (15, -2.85664615631103515625e+01) (16, -3.10660896301269531250e+01) (17, -3.74539909362792968750e+01) (18, -2.48349234375000000000e+05) (19, -7.57781835937500000000e+03) (20, -2.71377506256103515625e+01) (21, -2.91729106903076171875e+01) (22, -1.97844772338867187500e+01) (23, 2.65784144401550292969e-01) (24, -2.18359947204589843750e+01) (25, -3.39093422889709472656e+00) (26, -2.38063640594482421875e+01) (27, -2.09605331420898437500e+01) (28, -1.16584539413452148438e+01) (29, -3.01608967781066894531e+00) (0, 7.46462464000000000000e+08) (1, 1.18410163200000000000e+09) (2, 1.66401856000000000000e+09) (3, 1.69184742400000000000e+09) (4, 3.83748320000000000000e+08) (5, 4.68223840000000000000e+08) (6, 2.08829027450880000000e+13) (7, 1.50027048960000000000e+10) (8, 1.56961530000000000000e+07) (9, 2.94558560000000000000e+07) (10, -6.62026304000000000000e+08) (11, -1.30034232000000000000e+08) (12, 6.67795600000000000000e+07) (13, 5.10318360000000000000e+07) (14, 4.11122800000000000000e+07) (15, 4.48587040000000000000e+07) (16, 4.76573960000000000000e+07) (17, 6.23013400000000000000e+07) (18, 9.25091299328000000000e+11) (19, 2.08006912000000000000e+09) (20, 4.44410080000000000000e+07) (21, 4.45023440000000000000e+07) (22, 7.93249280000000000000e+07) (23, -4.72931027412414550781e-01) (24, 7.00132900000000000000e+06) (25, 2.95367800000000000000e+06) (26, 5.52677400000000000000e+07) (27, 4.48157240000000000000e+07) (28, 2.57963360000000000000e+07) (29, 3.76009075000000000000e+06) (0, 7.46526464000000000000e+08) (1, 1.18420160000000000000e+09) (2, 1.66414476800000000000e+09) (3, 1.69197555200000000000e+09) (4, 3.83779776000000000000e+08) (5, 4.68264224000000000000e+08) (6, 2.08844881920000000000e+13) (7, 1.50040555520000000000e+10) (8, 1.56975780000000000000e+07) (9, 2.94585480000000000000e+07) (10, -6.62080128000000000000e+08) (11, -1.30044872000000000000e+08) (12, 6.67857440000000000000e+07) (13, 5.10344720000000000000e+07) (14, 4.11162200000000000000e+07) (15, 4.48628840000000000000e+07) (16, 4.76617960000000000000e+07) (17, 6.23069640000000000000e+07) (18, 9.25158342656000000000e+11) (19, 2.08040320000000000000e+09) (20, 4.44450840000000000000e+07) (21, 4.45063840000000000000e+07) (22, 7.93306560000000000000e+07) (23, -9.82424437999725341797e-01) (24, 7.00298950000000000000e+06) (25, 2.95388025000000000000e+06) (26, 5.52726000000000000000e+07) (27, 4.48196760000000000000e+07) (28, 2.57984460000000000000e+07) (29, 3.76043350000000000000e+06) (0, 7.46527360000000000000e+08) (1, 1.18420288000000000000e+09) (2, 1.66414643200000000000e+09) (3, 1.69197708800000000000e+09) (4, 3.83780224000000000000e+08) (5, 4.68264672000000000000e+08) (6, 2.08845196492800000000e+13) (7, 1.50040709120000000000e+10) (8, 1.56975960000000000000e+07) (9, 2.94585840000000000000e+07) (10, -6.62080832000000000000e+08) (11, -1.30045056000000000000e+08) (12, 6.67858400000000000000e+07) (13, 5.10345160000000000000e+07) (14, 4.11162720000000000000e+07) (15, 4.48629440000000000000e+07) (16, 4.76618600000000000000e+07) (17, 6.23070440000000000000e+07) (18, 9.25159522304000000000e+11) (19, 2.08040563200000000000e+09) (20, 4.44451480000000000000e+07) (21, 4.45064360000000000000e+07) (22, 7.93307120000000000000e+07) (23, 2.60330557823181152344e-01) (24, 7.00301200000000000000e+06) (25, 2.95388375000000000000e+06) (26, 5.52726640000000000000e+07) (27, 4.48197400000000000000e+07) (28, 2.57984780000000000000e+07) (29, 3.76043875000000000000e+06) (0, 7.46371008000000000000e+08) (1, 1.18395238400000000000e+09) (2, 1.66383065600000000000e+09) (3, 1.69165683200000000000e+09) (4, 3.83702688000000000000e+08) (5, 4.68166048000000000000e+08) (6, 2.08805623234560000000e+13) (7, 1.50007111680000000000e+10) (8, 1.56939840000000000000e+07) (9, 2.94518040000000000000e+07) (10, -6.61942656000000000000e+08) (11, -1.30017784000000000000e+08) (12, 6.67704040000000000000e+07) (13, 5.10278960000000000000e+07) (14, 4.11066360000000000000e+07) (15, 4.48526280000000000000e+07) (16, 4.76509760000000000000e+07) (17, 6.22928000000000000000e+07) (18, 9.24988276736000000000e+11) (19, 2.07961497600000000000e+09) (20, 4.44350440000000000000e+07) (21, 4.44963920000000000000e+07) (22, 7.93162560000000000000e+07) (23, -5.17199516296386718750e-01) (24, 6.99897100000000000000e+06) (25, 2.95338700000000000000e+06) (26, 5.52604800000000000000e+07) (27, 4.48097120000000000000e+07) (28, 2.57932740000000000000e+07) (29, 3.75957075000000000000e+06) (0, 7.46523072000000000000e+08) (1, 1.18419545600000000000e+09) (2, 1.66413798400000000000e+09) (3, 1.69196915200000000000e+09) (4, 3.83777888000000000000e+08) (5, 4.68262496000000000000e+08) (6, 2.08844043059200000000e+13) (7, 1.50039736320000000000e+10) (8, 1.56975030000000000000e+07) (9, 2.94584040000000000000e+07) (10, -6.62076992000000000000e+08) (11, -1.30044288000000000000e+08) (12, 6.67853840000000000000e+07) (13, 5.10343320000000000000e+07) (14, 4.11159640000000000000e+07) (15, 4.48626400000000000000e+07) (16, 4.76615560000000000000e+07) (17, 6.23066280000000000000e+07) (18, 9.25155131392000000000e+11) (19, 2.08037913600000000000e+09) (20, 4.44448360000000000000e+07) (21, 4.45061280000000000000e+07) (22, 7.93303440000000000000e+07) (23, -3.87426674365997314453e-01) (24, 7.00289000000000000000e+06) (25, 2.95386900000000000000e+06) (26, 5.52723160000000000000e+07) (27, 4.48194560000000000000e+07) (28, 2.57983340000000000000e+07) (29, 3.76041600000000000000e+06) (0, 7.46436032000000000000e+08) (1, 1.18405760000000000000e+09) (2, 1.66396377600000000000e+09) (3, 1.69179212800000000000e+09) (4, 3.83735200000000000000e+08) (5, 4.68207680000000000000e+08) (6, 2.08822022963200000000e+13) (7, 1.50021324800000000000e+10) (8, 1.56955190000000000000e+07) (9, 2.94546980000000000000e+07) (10, -6.61999744000000000000e+08) (11, -1.30029352000000000000e+08) (12, 6.67769680000000000000e+07) (13, 5.10307120000000000000e+07) (14, 4.11106400000000000000e+07) (15, 4.48570160000000000000e+07) (16, 4.76554800000000000000e+07) (17, 6.22988400000000000000e+07) (18, 9.25059645440000000000e+11) (19, 2.07994880000000000000e+09) (20, 4.44393240000000000000e+07) (21, 4.45006680000000000000e+07) (22, 7.93223280000000000000e+07) (23, 2.00544118881225585938e-01) (24, 7.00066950000000000000e+06) (25, 2.95359600000000000000e+06) (26, 5.52655680000000000000e+07) (27, 4.48139360000000000000e+07) (28, 2.57954620000000000000e+07) (29, 3.75994125000000000000e+06) (0, 7.40479744000000000000e+08) (1, 1.17449280000000000000e+09) (2, 1.65197939200000000000e+09) (3, 1.67961561600000000000e+09) (4, 3.80795456000000000000e+08) (5, 4.64469504000000000000e+08) (6, 2.07304985149440000000e+13) (7, 1.48744898560000000000e+10) (8, 1.55586370000000000000e+07) (9, 2.91966480000000000000e+07) (10, -6.56738688000000000000e+08) (11, -1.28965168000000000000e+08) (12, 6.61917600000000000000e+07) (13, 5.07778160000000000000e+07) (14, 4.07443880000000000000e+07) (15, 4.44617920000000000000e+07) (16, 4.72398960000000000000e+07) (17, 6.17562720000000000000e+07) (18, 9.18500802560000000000e+11) (19, 2.05042380800000000000e+09) (20, 4.40553720000000000000e+07) (21, 4.41163400000000000000e+07) (22, 7.87717680000000000000e+07) (23, 3.95455002784729003906e-01) (24, 6.84850400000000000000e+06) (25, 2.93570825000000000000e+06) (26, 5.48013880000000000000e+07) (27, 4.44328280000000000000e+07) (28, 2.55965100000000000000e+07) (29, 3.72701100000000000000e+06) (0, 7.46523008000000000000e+08) (1, 1.18419532800000000000e+09) (2, 1.66413785600000000000e+09) (3, 1.69196889600000000000e+09) (4, 3.83777824000000000000e+08) (5, 4.68262400000000000000e+08) (6, 2.08843980144640000000e+13) (7, 1.50039695360000000000e+10) (8, 1.56974990000000000000e+07) (9, 2.94583960000000000000e+07) (10, -6.62076992000000000000e+08) (11, -1.30044288000000000000e+08) (12, 6.67853680000000000000e+07) (13, 5.10343320000000000000e+07) (14, 4.11159560000000000000e+07) (15, 4.48626280000000000000e+07) (16, 4.76615480000000000000e+07) (17, 6.23066200000000000000e+07) (18, 9.25155065856000000000e+11) (19, 2.08037683200000000000e+09) (20, 4.44448200000000000000e+07) (21, 4.45061120000000000000e+07) (22, 7.93303360000000000000e+07) (23, 2.40695118904113769531e-01) (24, 7.00288300000000000000e+06) (25, 2.95386800000000000000e+06) (26, 5.52723080000000000000e+07) (27, 4.48194480000000000000e+07) (28, 2.57983320000000000000e+07) (29, 3.76041575000000000000e+06) (0, 7.45872448000000000000e+08) (1, 1.18315136000000000000e+09) (2, 1.66282803200000000000e+09) (3, 1.69063808000000000000e+09) (4, 3.83456000000000000000e+08) (5, 4.67852640000000000000e+08) (6, 2.08678368051200000000e+13) (7, 1.49899683840000000000e+10) (8, 1.56825140000000000000e+07) (9, 2.94301900000000000000e+07) (10, -6.61503808000000000000e+08) (11, -1.29929112000000000000e+08) (12, 6.67213520000000000000e+07) (13, 5.10067760000000000000e+07) (14, 4.10758640000000000000e+07) (15, 4.48194600000000000000e+07) (16, 4.76160280000000000000e+07) (17, 6.22473720000000000000e+07) (18, 9.24440395776000000000e+11) (19, 2.07711795200000000000e+09) (20, 4.44028320000000000000e+07) (21, 4.44640960000000000000e+07) (22, 7.92702080000000000000e+07) (23, 3.04681301116943359375e-01) (24, 6.98616100000000000000e+06) (25, 2.95182400000000000000e+06) (26, 5.52216560000000000000e+07) (27, 4.47779120000000000000e+07) (28, 2.57765780000000000000e+07) (29, 3.75681700000000000000e+06) (0, -2.31868242187500000000e+04) (1, -3.72246562500000000000e+04) (2, -4.68012421875000000000e+04) (3, -4.75371835937500000000e+04) (4, -1.14073085937500000000e+04) (5, -1.45000927734375000000e+04) (6, -5.92786944000000000000e+08) (7, -4.91732687500000000000e+05) (8, -5.29833923339843750000e+02) (9, -9.97889709472656250000e+02) (10, 2.06666230468750000000e+04) (11, 4.20278906250000000000e+03) (12, -2.26547534179687500000e+03) (13, -9.94997985839843750000e+02) (14, -1.41596130371093750000e+03) (15, -1.52807934570312500000e+03) (16, -1.60754565429687500000e+03) (17, -2.10213989257812500000e+03) (18, -2.56613720000000000000e+07) (19, -1.06775250000000000000e+05) (20, -1.48618151855468750000e+03) (21, -1.48785644531250000000e+03) (22, -2.15515112304687500000e+03) (23, -5.12598514556884765625e-01) (24, -5.75154968261718750000e+02) (25, -7.20349197387695312500e+01) (26, -1.80545690917968750000e+03) (27, -1.48184594726562500000e+03) (28, -7.75286987304687500000e+02) (29, -1.26854751586914062500e+02) (0, -5.27270625000000000000e+04) (1, -8.46460390625000000000e+04) (2, -1.06223687500000000000e+05) (3, -1.07918507812500000000e+05) (4, -2.60200273437500000000e+04) (5, -3.30775390625000000000e+04) (6, -1.34439308800000000000e+09) (7, -1.12949612500000000000e+06) (8, -1.21085375976562500000e+03) (9, -2.28158911132812500000e+03) (10, 4.66922929687500000000e+04) (11, 9.43455078125000000000e+03) (12, -5.17501416015625000000e+03) (13, -2.24539257812500000000e+03) (14, -3.23857373046875000000e+03) (15, -3.49404418945312500000e+03) (16, -3.67548486328125000000e+03) (17, -4.79899902343750000000e+03) (18, -5.81576480000000000000e+07) (19, -2.55567515625000000000e+05) (20, -3.39796997070312500000e+03) (21, -3.39866186523437500000e+03) (22, -4.88264160156250000000e+03) (23, 5.79457283020019531250e-01) (24, -1.33567468261718750000e+03) (25, -1.65757415771484375000e+02) (26, -4.10657910156250000000e+03) (27, -3.37094506835937500000e+03) (28, -1.76330761718750000000e+03) (29, -2.91873046875000000000e+02) (0, 7.46473408000000000000e+08) (1, 1.18411776000000000000e+09) (2, 1.66404044800000000000e+09) (3, 1.69186969600000000000e+09) (4, 3.83753600000000000000e+08) (5, 4.68231488000000000000e+08) (6, 2.08831565004800000000e+13) (7, 1.50029721600000000000e+10) (8, 1.56964140000000000000e+07) (9, 2.94563440000000000000e+07) (10, -6.62035072000000000000e+08) (11, -1.30035896000000000000e+08) (12, 6.67806120000000000000e+07) (13, 5.10322880000000000000e+07) (14, 4.11130320000000000000e+07) (15, 4.48594400000000000000e+07) (16, 4.76581840000000000000e+07) (17, 6.23023320000000000000e+07) (18, 9.25102374912000000000e+11) (19, 2.08014822400000000000e+09) (20, 4.44417560000000000000e+07) (21, 4.45031040000000000000e+07) (22, 7.93259120000000000000e+07) (23, -9.36568975448608398438e-01) (24, 7.00166950000000000000e+06) (25, 2.95371800000000000000e+06) (26, 5.52685960000000000000e+07) (27, 4.48164120000000000000e+07) (28, 2.57967060000000000000e+07) (29, 3.76015400000000000000e+06) (0, -4.21639882812500000000e+04) (1, -6.76991250000000000000e+04) (2, -8.49308437500000000000e+04) (3, -8.62876093750000000000e+04) (4, -2.08153339843750000000e+04) (5, -2.64603203125000000000e+04) (6, -1.07487296000000000000e+09) (7, -9.03461000000000000000e+05) (8, -9.69575073242187500000e+02) (9, -1.82508471679687500000e+03) (10, 3.73145546875000000000e+04) (11, 7.53863964843750000000e+03) (12, -4.13958642578125000000e+03) (13, -1.79393542480468750000e+03) (14, -2.59070312500000000000e+03) (15, -2.79543945312500000000e+03) (16, -2.94199340820312500000e+03) (17, -3.83891796875000000000e+03) (18, -4.64940840000000000000e+07) (19, -2.05617671875000000000e+05) (20, -2.71873632812500000000e+03) (21, -2.71994873046875000000e+03) (22, -3.90300512695312500000e+03) (23, -3.46448004245758056641e-01) (24, -1.07028771972656250000e+03) (25, -1.31140136718750000000e+02) (26, -3.28396215820312500000e+03) (27, -2.69614208984375000000e+03) (28, -1.40889538574218750000e+03) (29, -2.32643249511718750000e+02) (0, -2.49877172851562500000e+03) (1, -4.00595849609375000000e+03) (2, -5.02337109375000000000e+03) (3, -5.10406640625000000000e+03) (4, -1.23870898437500000000e+03) (5, -1.57448596191406250000e+03) (6, -6.34600800000000000000e+07) (7, -5.47494843750000000000e+04) (8, -5.71231918334960937500e+01) (9, -1.08633003234863281250e+02) (10, 2.19582128906250000000e+03) (11, 4.36019775390625000000e+02) (12, -2.46174270629882812500e+02) (13, -1.06140136718750000000e+02) (14, -1.53649948120117187500e+02) (15, -1.67141433715820312500e+02) (16, -1.75447250366210937500e+02) (17, -2.29456695556640625000e+02) (18, -2.74380100000000000000e+06) (19, -1.27547011718750000000e+04) (20, -1.62624176025390625000e+02) (21, -1.61495025634765625000e+02) (22, -2.29834152221679687500e+02) (23, 3.84459495544433593750e-02) (24, -6.57155609130859375000e+01) (25, -9.15363979339599609375e+00) (26, -1.95310256958007812500e+02) (27, -1.59087875366210937500e+02) (28, -8.30346221923828125000e+01) (29, -1.33228855133056640625e+01) (0, -1.37859921875000000000e+04) (1, -2.21343847656250000000e+04) (2, -2.77251542968750000000e+04) (3, -2.81726718750000000000e+04) (4, -6.82687597656250000000e+03) (5, -8.67708007812500000000e+03) (6, -3.50608544000000000000e+08) (7, -2.98192437500000000000e+05) (8, -3.18307220458984375000e+02) (9, -6.00661743164062500000e+02) (10, 1.21303486328125000000e+04) (11, 2.43441748046875000000e+03) (12, -1.35938793945312500000e+03) (13, -5.83795043945312500000e+02) (14, -8.51899108886718750000e+02) (15, -9.18105041503906250000e+02) (16, -9.66436340332031250000e+02) (17, -1.26084497070312500000e+03) (18, -1.51563070000000000000e+07) (19, -7.02177968750000000000e+04) (20, -8.92413208007812500000e+02) (21, -8.93474975585937500000e+02) (22, -1.27261779785156250000e+03) (23, 3.43378543853759765625e-01) (24, -3.57161773681640625000e+02) (25, -4.29261360168457031250e+01) (26, -1.07398217773437500000e+03) (27, -8.82299621582031250000e+02) (28, -4.61050872802734375000e+02) (29, -7.59030685424804687500e+01) (0, 7.46559808000000000000e+08) (1, 1.18425664000000000000e+09) (2, 1.66421145600000000000e+09) (3, 1.69204364800000000000e+09) (4, 3.83796256000000000000e+08) (5, 4.68285088000000000000e+08) (6, 2.08853417328640000000e+13) (7, 1.50047825920000000000e+10) (8, 1.56983460000000000000e+07) (9, 2.94600120000000000000e+07) (10, -6.62110848000000000000e+08) (11, -1.30051400000000000000e+08) (12, 6.67890440000000000000e+07) (13, 5.10359280000000000000e+07) (14, 4.11182760000000000000e+07) (15, 4.48651720000000000000e+07) (16, 4.76641320000000000000e+07) (17, 6.23100320000000000000e+07) (18, 9.25196812288000000000e+11) (19, 2.08056038400000000000e+09) (20, 4.44472280000000000000e+07) (21, 4.45085560000000000000e+07) (22, 7.93337760000000000000e+07) (23, 6.05770587921142578125e-01) (24, 7.00382850000000000000e+06) (25, 2.95398675000000000000e+06) (26, 5.52751840000000000000e+07) (27, 4.48218560000000000000e+07) (28, 2.57995760000000000000e+07) (29, 3.76062000000000000000e+06) (0, 7.46524928000000000000e+08) (1, 1.18419852800000000000e+09) (2, 1.66414169600000000000e+09) (3, 1.69197260800000000000e+09) (4, 3.83778912000000000000e+08) (5, 4.68263520000000000000e+08) (6, 2.08844567347200000000e+13) (7, 1.50040176640000000000e+10) (8, 1.56975440000000000000e+07) (9, 2.94584880000000000000e+07) (10, -6.62078592000000000000e+08) (11, -1.30044568000000000000e+08) (12, 6.67855640000000000000e+07) (13, 5.10344080000000000000e+07) (14, 4.11161240000000000000e+07) (15, 4.48627640000000000000e+07) (16, 4.76616840000000000000e+07) (17, 6.23068000000000000000e+07) (18, 9.25156704256000000000e+11) (19, 2.08039424000000000000e+09) (20, 4.44449720000000000000e+07) (21, 4.45062760000000000000e+07) (22, 7.93305120000000000000e+07) (23, 1.73919439315795898438e-01) (24, 7.00294550000000000000e+06) (25, 2.95387700000000000000e+06) (26, 5.52724600000000000000e+07) (27, 4.48195760000000000000e+07) (28, 2.57983940000000000000e+07) (29, 3.76042550000000000000e+06) (0, 7.46536256000000000000e+08) (1, 1.18421683200000000000e+09) (2, 1.66416499200000000000e+09) (3, 1.69199641600000000000e+09) (4, 3.83784224000000000000e+08) (5, 4.68270048000000000000e+08) (6, 2.08847524331520000000e+13) (7, 1.50042613760000000000e+10) (8, 1.56977950000000000000e+07) (9, 2.94589800000000000000e+07) (10, -6.62088256000000000000e+08) (11, -1.30046872000000000000e+08) (12, 6.67867360000000000000e+07) (13, 5.10349080000000000000e+07) (14, 4.11168160000000000000e+07) (15, 4.48635600000000000000e+07) (16, 4.76624720000000000000e+07) (17, 6.23078960000000000000e+07) (18, 9.25169156096000000000e+11) (19, 2.08043852800000000000e+09) (20, 4.44457200000000000000e+07) (21, 4.45070160000000000000e+07) (22, 7.93315840000000000000e+07) (23, 4.82008218765258789062e-01) (24, 7.00320750000000000000e+06) (25, 2.95390900000000000000e+06) (26, 5.52733080000000000000e+07) (27, 4.48202880000000000000e+07) (28, 2.57987880000000000000e+07) (29, 3.76048625000000000000e+06) (0, 7.44470336000000000000e+08) (1, 1.18090112000000000000e+09) (2, 1.66000793600000000000e+09) (3, 1.68777267200000000000e+09) (4, 3.82763488000000000000e+08) (5, 4.66972480000000000000e+08) (6, 2.08321747353600000000e+13) (7, 1.49598105600000000000e+10) (8, 1.56502240000000000000e+07) (9, 2.93693580000000000000e+07) (10, -6.60267392000000000000e+08) (11, -1.29679648000000000000e+08) (12, 6.65834600000000000000e+07) (13, 5.09472920000000000000e+07) (14, 4.09895560000000000000e+07) (15, 4.47263600000000000000e+07) (16, 4.75181120000000000000e+07) (17, 6.21195040000000000000e+07) (18, 9.22896826368000000000e+11) (19, 2.07011008000000000000e+09) (20, 4.43123120000000000000e+07) (21, 4.43735520000000000000e+07) (22, 7.91408560000000000000e+07) (23, -1.79102361202239990234e-01) (24, 6.95021250000000000000e+06) (25, 2.94752075000000000000e+06) (26, 5.51124200000000000000e+07) (27, 4.46881800000000000000e+07) (28, 2.57297240000000000000e+07) (29, 3.74905025000000000000e+06) (0, 7.46479616000000000000e+08) (1, 1.18412646400000000000e+09) (2, 1.66405158400000000000e+09) (3, 1.69188147200000000000e+09) (4, 3.83756352000000000000e+08) (5, 4.68235104000000000000e+08) (6, 2.08832928153600000000e+13) (7, 1.50030766080000000000e+10) (8, 1.56965460000000000000e+07) (9, 2.94566040000000000000e+07) (10, -6.62040960000000000000e+08) (11, -1.30036928000000000000e+08) (12, 6.67812000000000000000e+07) (13, 5.10325560000000000000e+07) (14, 4.11133720000000000000e+07) (15, 4.48598520000000000000e+07) (16, 4.76586280000000000000e+07) (17, 6.23028400000000000000e+07) (18, 9.25109190656000000000e+11) (19, 2.08016780800000000000e+09) (20, 4.44421120000000000000e+07) (21, 4.45034760000000000000e+07) (22, 7.93264240000000000000e+07) (23, -6.63098990917205810547e-01) (24, 7.00179200000000000000e+06) (25, 2.95373475000000000000e+06) (26, 5.52690320000000000000e+07) (27, 4.48168120000000000000e+07) (28, 2.57968940000000000000e+07) (29, 3.76018575000000000000e+06) (0, 7.46500928000000000000e+08) (1, 1.18416179200000000000e+09) (2, 1.66409472000000000000e+09) (3, 1.69192409600000000000e+09) (4, 3.83767168000000000000e+08) (5, 4.68248448000000000000e+08) (6, 2.08838401720320000000e+13) (7, 1.50035118080000000000e+10) (8, 1.56970070000000000000e+07) (9, 2.94574900000000000000e+07) (10, -6.62058048000000000000e+08) (11, -1.30040632000000000000e+08) (12, 6.67832400000000000000e+07) (13, 5.10334160000000000000e+07) (14, 4.11146560000000000000e+07) (15, 4.48612040000000000000e+07) (16, 4.76600920000000000000e+07) (17, 6.23046800000000000000e+07) (18, 9.25131407360000000000e+11) (19, 2.08027046400000000000e+09) (20, 4.44434040000000000000e+07) (21, 4.45047440000000000000e+07) (22, 7.93283360000000000000e+07) (23, 3.49261760711669921875e-01) (24, 7.00232300000000000000e+06) (25, 2.95380075000000000000e+06) (26, 5.52705920000000000000e+07) (27, 4.48180640000000000000e+07) (28, 2.57975800000000000000e+07) (29, 3.76029950000000000000e+06) (0, 7.46067712000000000000e+08) (1, 1.18346636800000000000e+09) (2, 1.66322278400000000000e+09) (3, 1.69103910400000000000e+09) (4, 3.83553120000000000000e+08) (5, 4.67976160000000000000e+08) (6, 2.08728510955520000000e+13) (7, 1.49941821440000000000e+10) (8, 1.56870230000000000000e+07) (9, 2.94386760000000000000e+07) (10, -6.61676544000000000000e+08) (11, -1.29963968000000000000e+08) (12, 6.67406440000000000000e+07) (13, 5.10150760000000000000e+07) (14, 4.10879920000000000000e+07) (15, 4.48324880000000000000e+07) (16, 4.76297840000000000000e+07) (17, 6.22651920000000000000e+07) (18, 9.24655681536000000000e+11) (19, 2.07810534400000000000e+09) (20, 4.44155240000000000000e+07) (21, 4.44768120000000000000e+07) (22, 7.92883920000000000000e+07) (23, 7.70990014076232910156e-01) (24, 6.99121800000000000000e+06) (25, 2.95243900000000000000e+06) (26, 5.52369000000000000000e+07) (27, 4.47903880000000000000e+07) (28, 2.57831580000000000000e+07) (29, 3.75789750000000000000e+06) (30, -4.17007088661193847656e-01) (31, 8.80379589843750000000e+03) (32, 2.98626065254211425781e-01) (33, 8.78962988281250000000e+03) (34, 8.80331542968750000000e+03) (35, -7.28653252124786376953e-01) (36, 8.80305957031250000000e+03) (37, 7.42683887481689453125e-01) (38, 8.80388378906250000000e+03) (39, 4.82449650764465332031e-01) (40, 8.80404199218750000000e+03) (41, 8.80346582031250000000e+03) (42, 8.80278417968750000000e+03) (43, 8.80425878906250000000e+03) (44, 8.80376074218750000000e+03) (45, 8.80345214843750000000e+03) (46, 8.80393457031250000000e+03) (47, 8.80352050781250000000e+03) (48, 8.80445605468750000000e+03) (49, 8.80416699218750000000e+03) (50, -4.61769223213195800781e-01) (51, 8.80400097656250000000e+03) (52, 8.80373925781250000000e+03) (53, 8.80278808593750000000e+03) (54, 8.80272167968750000000e+03) (55, -5.06387501955032348633e-02) (56, 8.80403222656250000000e+03) (57, 8.80428808593750000000e+03) (58, -3.80400598049163818359e-01) (59, 5.81917762756347656250e-01) (60, 8.80286621093750000000e+03) (61, 8.79183691406250000000e+03) (62, -5.93634724617004394531e-01) (63, 8.80382519531250000000e+03) (64, 4.81197191402316093445e-03) (65, 2.91306972503662109375e-01) (66, 8.80357714843750000000e+03) (67, 8.80355761718750000000e+03) (68, 8.80414746093750000000e+03) (69, 8.80252441406250000000e+03) (70, 8.80389746093750000000e+03) (71, 8.80221386718750000000e+03) (72, 8.75883105468750000000e+03) (73, 8.80298535156250000000e+03) (74, 8.79774511718750000000e+03) (75, -3.81381571292877197266e-01) (76, -2.91058242321014404297e-01) (77, 8.80301269531250000000e+03) (78, -3.10231924057006835938e-01) (79, -1.03585317730903625488e-01) (80, 7.26683139801025390625e-02) (81, 8.80337402343750000000e+03) (82, 8.80294042968750000000e+03) (83, 8.80411425781250000000e+03) (84, 8.78688183593750000000e+03) (85, 8.80367480468750000000e+03) (86, 8.80306738281250000000e+03) (87, 8.79906542968750000000e+03) (88, 8.80370800781250000000e+03) (30, 9.52930569648742675781e-01) (31, -4.40932416915893554688e+00) (32, 1.47902369499206542969e-01) (33, -3.20525097846984863281e+00) (34, -2.80196356773376464844e+00) (35, 9.43995416164398193359e-02) (36, -3.42135524749755859375e+00) (37, -5.90161561965942382812e-01) (38, -3.24098563194274902344e+00) (39, -3.45867931842803955078e-01) (40, -4.34784364700317382812e+00) (41, -2.88559103012084960938e+00) (42, -3.15173530578613281250e+00) (43, -3.06865358352661132812e+00) (44, -3.03520584106445312500e+00) (45, -3.67454457283020019531e+00) (46, -3.45479512214660644531e+00) (47, -4.37010812759399414062e+00) (48, -2.75364303588867187500e+00) (49, -3.95360398292541503906e+00) (50, -1.33721500635147094727e-01) (51, -3.14534640312194824219e+00) (52, -3.97743105888366699219e+00) (53, -4.32710027694702148438e+00) (54, -4.06659650802612304688e+00) (55, 6.66089475154876708984e-01) (56, -3.27695417404174804688e+00) (57, -4.50172090530395507812e+00) (58, -7.09676563739776611328e-01) (59, 5.53386211395263671875e-01) (60, -3.73650288581848144531e+00) (61, -2.38176965713500976562e+00) (62, 4.95571017265319824219e-01) (63, -3.41522669792175292969e+00) (64, -2.22899839282035827637e-01) (65, 6.74317002296447753906e-01) (66, -4.44910001754760742188e+00) (67, -3.85633158683776855469e+00) (68, -4.24377775192260742188e+00) (69, -3.63691926002502441406e+00) (70, -3.99248576164245605469e+00) (71, -3.61328816413879394531e+00) (72, -3.65603256225585937500e+00) (73, -4.06546640396118164062e+00) (74, -3.22426509857177734375e+00) (75, -1.96052491664886474609e-01) (76, 3.25655221939086914062e-01) (77, -4.24748468399047851562e+00) (78, -1.15608125925064086914e-01) (79, -3.76285344362258911133e-01) (80, 6.33319616317749023438e-02) (81, -4.14527511596679687500e+00) (82, -2.57196474075317382812e+00) (83, -4.27270078659057617188e+00) (84, -4.09147500991821289062e+00) (85, -3.31312727928161621094e+00) (86, -4.45224523544311523438e+00) (87, -2.47196507453918457031e+00) (88, -2.91689252853393554688e+00) (30, -5.87268471717834472656e-01) (31, 8.82895312500000000000e+03) (32, 6.33071362972259521484e-01) (33, 8.81375488281250000000e+03) (34, 8.82909082031250000000e+03) (35, -6.34059131145477294922e-01) (36, 8.82763574218750000000e+03) (37, -9.40321326255798339844e-01) (38, 8.82844335937500000000e+03) (39, 4.28501129150390625000e-01) (40, 8.82863574218750000000e+03) (41, 8.82883398437500000000e+03) (42, 8.82844335937500000000e+03) (43, 8.82850781250000000000e+03) (44, 8.82864257812500000000e+03) (45, 8.82762890625000000000e+03) (46, 8.82782031250000000000e+03) (47, 8.82806835937500000000e+03) (48, 8.82830468750000000000e+03) (49, 8.82847753906250000000e+03) (50, -3.97414088249206542969e-01) (51, 8.82764453125000000000e+03) (52, 8.82934570312500000000e+03) (53, 8.82860937500000000000e+03) (54, 8.82758007812500000000e+03) (55, 3.38379144668579101562e-01) (56, 8.82898339843750000000e+03) (57, 8.82920605468750000000e+03) (58, -1.82085692882537841797e-01) (59, -5.03666341304779052734e-01) (60, 8.82767187500000000000e+03) (61, 8.81673046875000000000e+03) (62, -7.32511997222900390625e-01) (63, 8.82938769531250000000e+03) (64, -9.84975934028625488281e-01) (65, 1.31322622299194335938e-01) (66, 8.82779199218750000000e+03) (67, 8.82913085937500000000e+03) (68, 8.82807519531250000000e+03) (69, 8.82672265625000000000e+03) (70, 8.82824707031250000000e+03) (71, 8.82689160156250000000e+03) (72, 8.78229492187500000000e+03) (73, 8.82879101562500000000e+03) (74, 8.82195410156250000000e+03) (75, -2.09982991218566894531e-01) (76, -8.28975319862365722656e-01) (77, 8.82857812500000000000e+03) (78, 6.00853502750396728516e-01) (79, -7.47293412685394287109e-01) (80, -1.71217143535614013672e-01) (81, 8.82912988281250000000e+03) (82, 8.82930273437500000000e+03) (83, 8.82898535156250000000e+03) (84, 8.81286328125000000000e+03) (85, 8.82730859375000000000e+03) (86, 8.82922558593750000000e+03) (87, 8.82395800781250000000e+03) (88, 8.82753710937500000000e+03) (30, -6.46196484565734863281e-01) (31, 8.80735449218750000000e+03) (32, -2.54513025283813476562e-01) (33, 8.79383593750000000000e+03) (34, 8.80780175781250000000e+03) (35, 4.50801461935043334961e-01) (36, 8.80688378906250000000e+03) (37, 1.52123808860778808594e-01) (38, 8.80853417968750000000e+03) (39, 2.76512503623962402344e-01) (40, 8.80742968750000000000e+03) (41, 8.80833007812500000000e+03) (42, 8.80823535156250000000e+03) (43, 8.80812304687500000000e+03) (44, 8.80760546875000000000e+03) (45, 8.80788867187500000000e+03) (46, 8.80750683593750000000e+03) (47, 8.80742089843750000000e+03) (48, 8.80839257812500000000e+03) (49, 8.80757910156250000000e+03) (50, -8.16005110740661621094e-01) (51, 8.80858105468750000000e+03) (52, 8.80764062500000000000e+03) (53, 8.80842480468750000000e+03) (54, 8.80827050781250000000e+03) (55, 2.49440163373947143555e-01) (56, 8.80868554687500000000e+03) (57, 8.80705468750000000000e+03) (58, -6.76510334014892578125e-01) (59, 2.84367203712463378906e-01) (60, 8.80853710937500000000e+03) (61, 8.79600683593750000000e+03) (62, -6.14901185035705566406e-02) (63, 8.80783984375000000000e+03) (64, -8.54476213455200195312e-01) (65, -1.08098328113555908203e-01) (66, 8.80714160156250000000e+03) (67, 8.80817089843750000000e+03) (68, 8.80778027343750000000e+03) (69, 8.80712304687500000000e+03) (70, 8.80803125000000000000e+03) (71, 8.80788769531250000000e+03) (72, 8.76411718750000000000e+03) (73, 8.80858789062500000000e+03) (74, 8.80329199218750000000e+03) (75, 4.60074067115783691406e-01) (76, -6.86135739088058471680e-02) (77, 8.80837597656250000000e+03) (78, 6.34690374135971069336e-03) (79, 5.42162179946899414062e-01) (80, -9.80172038078308105469e-01) (81, 8.80887402343750000000e+03) (82, 8.80816015625000000000e+03) (83, 8.80843847656250000000e+03) (84, 8.79212500000000000000e+03) (85, 8.80784472656250000000e+03) (86, 8.80720800781250000000e+03) (87, 8.80490625000000000000e+03) (88, 8.80790917968750000000e+03) (30, -4.94193494319915771484e-01) (31, 8.81029687500000000000e+03) (32, -9.35737133026123046875e-01) (33, 8.79783789062500000000e+03) (34, 8.81197753906250000000e+03) (35, -8.37950348854064941406e-01) (36, 8.81123242187500000000e+03) (37, -8.19506227970123291016e-01) (38, 8.81027148437500000000e+03) (39, 1.48013353347778320312e-01) (40, 8.81185351562500000000e+03) (41, 8.81114843750000000000e+03) (42, 8.81158691406250000000e+03) (43, 8.81166113281250000000e+03) (44, 8.81182812500000000000e+03) (45, 8.81214453125000000000e+03) (46, 8.81063378906250000000e+03) (47, 8.81019531250000000000e+03) (48, 8.81068554687500000000e+03) (49, 8.81126953125000000000e+03) (50, 2.11231335997581481934e-01) (51, 8.81065332031250000000e+03) (52, 8.81109960937500000000e+03) (53, 8.81046972656250000000e+03) (54, 8.81193457031250000000e+03) (55, 3.28801155090332031250e-01) (56, 8.81118554687500000000e+03) (57, 8.81196582031250000000e+03) (58, -8.39495003223419189453e-01) (59, -4.58249032497406005859e-01) (60, 8.81150000000000000000e+03) (61, 8.79916113281250000000e+03) (62, 4.73431706428527832031e-01) (63, 8.81140625000000000000e+03) (64, 8.59512463212013244629e-02) (65, 5.41026234626770019531e-01) (66, 8.81064746093750000000e+03) (67, 8.81172265625000000000e+03) (68, 8.81126367187500000000e+03) (69, 8.80960839843750000000e+03) (70, 8.81124511718750000000e+03) (71, 8.81164843750000000000e+03) (72, 8.76648925781250000000e+03) (73, 8.81100976562500000000e+03) (74, 8.80532324218750000000e+03) (75, -8.90374541282653808594e-01) (76, -6.24347209930419921875e-01) (77, 8.81049707031250000000e+03) (78, -3.58226001262664794922e-01) (79, -8.29797387123107910156e-01) (80, 7.97106444835662841797e-01) (81, 8.81187109375000000000e+03) (82, 8.81209863281250000000e+03) (83, 8.81162304687500000000e+03) (84, 8.79610156250000000000e+03) (85, 8.81042187500000000000e+03) (86, 8.81096484375000000000e+03) (87, 8.80749218750000000000e+03) (88, 8.81167187500000000000e+03) (30, -2.75413036346435546875e-01) (31, 8.70844335937500000000e+03) (32, 7.15983748435974121094e-01) (33, 8.69864355468750000000e+03) (34, 8.70779785156250000000e+03) (35, 5.10535240173339843750e-01) (36, 8.70823535156250000000e+03) (37, 2.84427165985107421875e-01) (38, 8.70944238281250000000e+03) (39, 8.76740336418151855469e-01) (40, 8.70956835937500000000e+03) (41, 8.70752441406250000000e+03) (42, 8.70941699218750000000e+03) (43, 8.70773632812500000000e+03) (44, 8.70838769531250000000e+03) (45, 8.70816796875000000000e+03) (46, 8.70936328125000000000e+03) (47, 8.70771484375000000000e+03) (48, 8.70899511718750000000e+03) (49, 8.70881347656250000000e+03) (50, 2.57353305816650390625e-01) (51, 8.70810546875000000000e+03) (52, 8.70932519531250000000e+03) (53, 8.70754980468750000000e+03) (54, 8.70869433593750000000e+03) (55, 4.66465950012207031250e-03) (56, 8.70896582031250000000e+03) (57, 8.70821777343750000000e+03) (58, -6.15951895713806152344e-01) (59, -8.50242078304290771484e-01) (60, 8.70884179687500000000e+03) (61, 8.70122363281250000000e+03) (62, -5.24626791477203369141e-01) (63, 8.70816796875000000000e+03) (64, 2.62218624353408813477e-01) (65, -3.65081191062927246094e-01) (66, 8.70766113281250000000e+03) (67, 8.70930273437500000000e+03) (68, 8.70936816406250000000e+03) (69, 8.70733398437500000000e+03) (70, 8.70758496093750000000e+03) (71, 8.70792382812500000000e+03) (72, 8.67241308593750000000e+03) (73, 8.70790917968750000000e+03) (74, 8.70511816406250000000e+03) (75, 4.14617657661437988281e-01) (76, -4.23182398080825805664e-01) (77, 8.70791601562500000000e+03) (78, -1.12926936149597167969e+00) (79, 5.33732771873474121094e-01) (80, 1.16441398859024047852e-02) (81, 8.70860351562500000000e+03) (82, 8.70858984375000000000e+03) (83, 8.70786230468750000000e+03) (84, 8.69715527343750000000e+03) (85, 8.70930664062500000000e+03) (86, 8.70868945312500000000e+03) (87, 8.70681835937500000000e+03) (88, 8.70826367187500000000e+03) (30, 8.46101045608520507812e-02) (31, 8.79250292968750000000e+03) (32, 3.40828418731689453125e-01) (33, 8.77925976562500000000e+03) (34, 8.79398339843750000000e+03) (35, -8.04718613624572753906e-01) (36, 8.79428906250000000000e+03) (37, 2.28027105331420898438e-01) (38, 8.79294140625000000000e+03) (39, -5.88946104049682617188e-01) (40, 8.79294921875000000000e+03) (41, 8.79280468750000000000e+03) (42, 8.79288574218750000000e+03) (43, 8.79380859375000000000e+03) (44, 8.79219335937500000000e+03) (45, 8.79350781250000000000e+03) (46, 8.79300585937500000000e+03) (47, 8.79403222656250000000e+03) (48, 8.79409667968750000000e+03) (49, 8.79280859375000000000e+03) (50, 6.86815202236175537109e-01) (51, 8.79343359375000000000e+03) (52, 8.79383886718750000000e+03) (53, 8.79265917968750000000e+03) (54, 8.79266503906250000000e+03) (55, 6.43326938152313232422e-01) (56, 8.79391113281250000000e+03) (57, 8.79407519531250000000e+03) (58, 5.28475582599639892578e-01) (59, -5.33568859100341796875e-03) (60, 8.79391894531250000000e+03) (61, 8.78208105468750000000e+03) (62, -9.65399980545043945312e-01) (63, 8.79234277343750000000e+03) (64, 1.24412225559353828430e-02) (65, -8.75683486461639404297e-01) (66, 8.79341015625000000000e+03) (67, 8.79256640625000000000e+03) (68, 8.79330273437500000000e+03) (69, 8.79259472656250000000e+03) (70, 8.79394042968750000000e+03) (71, 8.79269921875000000000e+03) (72, 8.75137792968750000000e+03) (73, 8.79365527343750000000e+03) (74, 8.78935742187500000000e+03) (75, 3.43069672584533691406e-01) (76, -8.10305774211883544922e-01) (77, 8.79428710937500000000e+03) (78, -7.64983236789703369141e-01) (79, -2.97925740480422973633e-01) (80, -5.40502429008483886719e-01) (81, 8.79417382812500000000e+03) (82, 8.79237695312500000000e+03) (83, 8.79275097656250000000e+03) (84, 8.77748046875000000000e+03) (85, 8.79247265625000000000e+03) (86, 8.79280664062500000000e+03) (87, 8.79092871093750000000e+03) (88, 8.79252246093750000000e+03) (30, -4.40676450729370117188e-01) (31, 8.64239257812500000000e+03) (32, 3.93372356891632080078e-01) (33, 8.63384570312500000000e+03) (34, 8.64257226562500000000e+03) (35, 6.35927796363830566406e-01) (36, 8.64149121093750000000e+03) (37, 3.14470291137695312500e-01) (38, 8.64200488281250000000e+03) (39, -8.71990501880645751953e-01) (40, 8.64265820312500000000e+03) (41, 8.64246093750000000000e+03) (42, 8.64159667968750000000e+03) (43, 8.64104394531250000000e+03) (44, 8.64129296875000000000e+03) (45, 8.64098144531250000000e+03) (46, 8.64095019531250000000e+03) (47, 8.64197265625000000000e+03) (48, 8.64128320312500000000e+03) (49, 8.64222949218750000000e+03) (50, -9.05373990535736083984e-02) (51, 8.64158691406250000000e+03) (52, 8.64081640625000000000e+03) (53, 8.64203027343750000000e+03) (54, 8.64148535156250000000e+03) (55, -8.21878790855407714844e-01) (56, 8.64140136718750000000e+03) (57, 8.64161621093750000000e+03) (58, 2.29552775621414184570e-01) (59, 5.55891990661621093750e-01) (60, 8.64109082031250000000e+03) (61, 8.63614062500000000000e+03) (62, -5.45657515525817871094e-01) (63, 8.64162988281250000000e+03) (64, -7.23322689533233642578e-01) (65, 8.83152723312377929688e-01) (66, 8.64241992187500000000e+03) (67, 8.64127539062500000000e+03) (68, 8.64131738281250000000e+03) (69, 8.64190820312500000000e+03) (70, 8.64091308593750000000e+03) (71, 8.64137988281250000000e+03) (72, 8.60950878906250000000e+03) (73, 8.64205078125000000000e+03) (74, 8.63985449218750000000e+03) (75, -4.19354021549224853516e-01) (76, -5.71450516581535339355e-02) (77, 8.64073437500000000000e+03) (78, -1.15463292598724365234e+00) (79, 6.43721461296081542969e-01) (80, -2.38395109772682189941e-01) (81, 8.64162207031250000000e+03) (82, 8.64186523437500000000e+03) (83, 8.64123046875000000000e+03) (84, 8.63267480468750000000e+03) (85, 8.64194042968750000000e+03) (86, 8.64222070312500000000e+03) (87, 8.64077246093750000000e+03) (88, 8.64164746093750000000e+03) (30, -5.23165404796600341797e-01) (31, 8.79380566406250000000e+03) (32, -6.56704366207122802734e-01) (33, 8.77902539062500000000e+03) (34, 8.79447753906250000000e+03) (35, 3.91545832157135009766e-01) (36, 8.79362695312500000000e+03) (37, -2.30751693248748779297e-01) (38, 8.79420507812500000000e+03) (39, -7.55409479141235351562e-01) (40, 8.79410839843750000000e+03) (41, 8.79375195312500000000e+03) (42, 8.79423144531250000000e+03) (43, 8.79287402343750000000e+03) (44, 8.79277050781250000000e+03) (45, 8.79284472656250000000e+03) (46, 8.79395410156250000000e+03) (47, 8.79395214843750000000e+03) (48, 8.79351367187500000000e+03) (49, 8.79305273437500000000e+03) (50, -6.28349244594573974609e-01) (51, 8.79318261718750000000e+03) (52, 8.79367089843750000000e+03) (53, 8.79352539062500000000e+03) (54, 8.79413671875000000000e+03) (55, -1.57808363437652587891e-01) (56, 8.79387890625000000000e+03) (57, 8.79416503906250000000e+03) (58, -8.56386005878448486328e-01) (59, -4.63877081871032714844e-01) (60, 8.79354296875000000000e+03) (61, 8.78293261718750000000e+03) (62, -3.64942729473114013672e-01) (63, 8.79349707031250000000e+03) (64, 4.33710843324661254883e-01) (65, -4.37569320201873779297e-01) (66, 8.79272851562500000000e+03) (67, 8.79340234375000000000e+03) (68, 8.79362792968750000000e+03) (69, 8.79213769531250000000e+03) (70, 8.79464355468750000000e+03) (71, 8.79281640625000000000e+03) (72, 8.75028222656250000000e+03) (73, 8.79312011718750000000e+03) (74, 8.78943945312500000000e+03) (75, -2.57615298032760620117e-01) (76, -7.26046085357666015625e-01) (77, 8.79369628906250000000e+03) (78, 9.87930446863174438477e-02) (79, 9.00028645992279052734e-01) (80, 4.32564109563827514648e-01) (81, 8.79393261718750000000e+03) (82, 8.79459667968750000000e+03) (83, 8.79390917968750000000e+03) (84, 8.77903808593750000000e+03) (85, 8.79404980468750000000e+03) (86, 8.79379101562500000000e+03) (87, 8.78990527343750000000e+03) (88, 8.79328710937500000000e+03) (30, -6.11518979072570800781e-01) (31, 8.81415039062500000000e+03) (32, -6.02063655853271484375e-01) (33, 8.79892089843750000000e+03) (34, 8.81260253906250000000e+03) (35, 2.73290872573852539062e-01) (36, 8.81377246093750000000e+03) (37, 2.96981930732727050781e-01) (38, 8.81294042968750000000e+03) (39, -9.88938748836517333984e-01) (40, 8.81225683593750000000e+03) (41, 8.81263769531250000000e+03) (42, 8.81254394531250000000e+03) (43, 8.81361718750000000000e+03) (44, 8.81198535156250000000e+03) (45, 8.81368554687500000000e+03) (46, 8.81338769531250000000e+03) (47, 8.81242773437500000000e+03) (48, 8.81295117187500000000e+03) (49, 8.81316992187500000000e+03) (50, -6.94113314151763916016e-01) (51, 8.81382031250000000000e+03) (52, 8.81347558593750000000e+03) (53, 8.81360644531250000000e+03) (54, 8.81241992187500000000e+03) (55, -8.83204281330108642578e-01) (56, 8.81354589843750000000e+03) (57, 8.81219531250000000000e+03) (58, -5.07048547267913818359e-01) (59, 3.77894639968872070312e-01) (60, 8.81184765625000000000e+03) (61, 8.80113183593750000000e+03) (62, -5.21633803844451904297e-01) (63, 8.81365722656250000000e+03) (64, -4.38329041004180908203e-01) (65, -5.25452315807342529297e-01) (66, 8.81180664062500000000e+03) (67, 8.81390820312500000000e+03) (68, 8.81405468750000000000e+03) (69, 8.81228417968750000000e+03) (70, 8.81338476562500000000e+03) (71, 8.81327929687500000000e+03) (72, 8.76986718750000000000e+03) (73, 8.81386035156250000000e+03) (74, 8.80844628906250000000e+03) (75, 3.75084161758422851562e-01) (76, 1.28405845165252685547e+00) (77, 8.81275390625000000000e+03) (78, 4.41677570343017578125e-01) (79, -5.30188322067260742188e-01) (80, -4.16612446308135986328e-01) (81, 8.81230859375000000000e+03) (82, 8.81296679687500000000e+03) (83, 8.81313964843750000000e+03) (84, 8.79714843750000000000e+03) (85, 8.81284082031250000000e+03) (86, 8.81293945312500000000e+03) (87, 8.80973535156250000000e+03) (88, 8.81329101562500000000e+03) (30, 3.96287918090820312500e-01) (31, -7.35450887680053710938e+00) (32, -8.05659711360931396484e-01) (33, -7.18268728256225585938e+00) (34, -9.08546924591064453125e+00) (35, 8.50122347474098205566e-02) (36, -8.60337829589843750000e+00) (37, 9.28463101387023925781e-01) (38, -8.69443988800048828125e+00) (39, 9.95774865150451660156e-01) (40, -8.68032360076904296875e+00) (41, -8.48113346099853515625e+00) (42, -7.04617452621459960938e+00) (43, -8.61429119110107421875e+00) (44, -7.43659925460815429688e+00) (45, -8.44279098510742187500e+00) (46, -7.05738973617553710938e+00) (47, -9.02440547943115234375e+00) (48, -7.99770307540893554688e+00) (49, -8.41339302062988281250e+00) (50, -8.83570551872253417969e-01) (51, -7.39814519882202148438e+00) (52, -7.70375394821166992188e+00) (53, -9.15759181976318359375e+00) (54, -8.85611724853515625000e+00) (55, 8.47637951374053955078e-01) (56, -7.82100248336791992188e+00) (57, -8.61212635040283203125e+00) (58, -5.01089453697204589844e-01) (59, 9.12578463554382324219e-01) (60, -8.35228633880615234375e+00) (61, -7.31220102310180664062e+00) (62, 6.30848050117492675781e-01) (63, -9.27054023742675781250e+00) (64, -1.02567172050476074219e+00) (65, 5.73544502258300781250e-02) (66, -7.10564374923706054688e+00) (67, -7.50748014450073242188e+00) (68, -9.18589591979980468750e+00) (69, -7.84160470962524414062e+00) (70, -7.86918306350708007812e+00) (71, -7.53276681900024414062e+00) (72, -7.15887212753295898438e+00) (73, -7.66777276992797851562e+00) (74, -7.03613901138305664062e+00) (75, 2.64057397842407226562e-01) (76, 2.33654361218214035034e-02) (77, -8.73661708831787109375e+00) (78, -6.36473521590232849121e-02) (79, 6.22086346149444580078e-01) (80, -6.56606256961822509766e-01) (81, -8.80424022674560546875e+00) (82, -8.05942821502685546875e+00) (83, -8.64931011199951171875e+00) (84, -7.13190984725952148438e+00) (85, -8.06968498229980468750e+00) (86, -9.19884681701660156250e+00) (87, -8.32160758972167968750e+00) (88, -8.45946788787841796875e+00) (30, 6.92080020904541015625e-01) (31, 8.14334423828125000000e+03) (32, -6.53541982173919677734e-01) (33, 8.14321923828125000000e+03) (34, 8.14417236328125000000e+03) (35, -1.12113046646118164062e+00) (36, 8.14316064453125000000e+03) (37, -5.79528450965881347656e-01) (38, 8.14319677734375000000e+03) (39, 1.74923181533813476562e-01) (40, 8.14321240234375000000e+03) (41, 8.14418994140625000000e+03) (42, 8.14408251953125000000e+03) (43, 8.14431787109375000000e+03) (44, 8.14385302734375000000e+03) (45, 8.14378759765625000000e+03) (46, 8.14348876953125000000e+03) (47, 8.14423193359375000000e+03) (48, 8.14339892578125000000e+03) (49, 8.14385791015625000000e+03) (50, 1.66090786457061767578e-01) (51, 8.14368017578125000000e+03) (52, 8.14315478515625000000e+03) (53, 8.14382373046875000000e+03) (54, 8.14439306640625000000e+03) (55, 2.05053150653839111328e-01) (56, 8.14294677734375000000e+03) (57, 8.14275439453125000000e+03) (58, 5.42027294635772705078e-01) (59, 3.33109378814697265625e-01) (60, 8.14445849609375000000e+03) (61, 8.14399072265625000000e+03) (62, 8.34155559539794921875e-01) (63, 8.14385009765625000000e+03) (64, -3.68956416845321655273e-01) (65, 4.84407544136047363281e-01) (66, 8.14497998046875000000e+03) (67, 8.14296728515625000000e+03) (68, 8.14313623046875000000e+03) (69, 8.14396142578125000000e+03) (70, 8.14394775390625000000e+03) (71, 8.14361083984375000000e+03) (72, 8.13498974609375000000e+03) (73, 8.14387060546875000000e+03) (74, 8.14391845703125000000e+03) (75, -9.71055507659912109375e-01) (76, -8.66321980953216552734e-01) (77, 8.14285009765625000000e+03) (78, -1.51130795478820800781e-01) (79, -2.68525183200836181641e-01) (80, 1.62688672542572021484e-01) (81, 8.14436572265625000000e+03) (82, 8.14301220703125000000e+03) (83, 8.14467041015625000000e+03) (84, 8.14365087890625000000e+03) (85, 8.14326318359375000000e+03) (86, 8.14354248046875000000e+03) (87, 8.14332958984375000000e+03) (88, 8.14319580078125000000e+03) (89, 7.30799072265625000000e+02) (90, -5.94951093196868896484e-01) (91, 7.31692504882812500000e+02) (92, 7.30272460937500000000e+02) (93, 7.32166442871093750000e+02) (94, 7.26337158203125000000e+02) (95, 7.29186584472656250000e+02) (96, 7.21488952636718750000e+02) (97, 7.28579406738281250000e+02) (98, 7.32439697265625000000e+02) (99, -6.73924148082733154297e-01) (100, 7.02449157714843750000e+02) (101, 7.32074645996093750000e+02) (89, 2.95742845535278320312e+00) (90, -5.45139968395233154297e-01) (91, 3.13292026519775390625e+00) (92, 3.09154701232910156250e+00) (93, 3.88763093948364257812e+00) (94, 2.02234649658203125000e+00) (95, 3.89986276626586914062e+00) (96, -4.90624785423278808594e-01) (97, 3.65706467628479003906e+00) (98, 2.52231335639953613281e+00) (99, 3.74681442975997924805e-01) (100, 2.79509520530700683594e+00) (101, 3.98945856094360351562e+00) (89, 4.53096404671669006348e-02) (90, 8.29899311065673828125e-01) (91, 7.59615302085876464844e-01) (92, -5.56902468204498291016e-01) (93, 8.14794659614562988281e-01) (94, -1.24880170822143554688e+00) (95, -5.94154655933380126953e-01) (96, -2.15690970420837402344e+00) (97, 1.16419851779937744141e+00) (98, -3.13645213842391967773e-01) (99, 9.71165299415588378906e-01) (100, -3.84891837835311889648e-01) (101, -2.00947016477584838867e-01) (89, -5.35213574767112731934e-02) (90, 4.94997687637805938721e-02) (91, 1.02871990203857421875e+00) (92, 5.85762917995452880859e-01) (93, 4.55448806285858154297e-01) (94, -1.32035493850708007812e+00) (95, -3.26550215482711791992e-01) (96, -3.02645421028137207031e+00) (97, 1.42537176609039306641e-01) (98, 2.70590126514434814453e-01) (99, -2.61922717094421386719e-01) (100, 8.07976052165031433105e-02) (101, -5.10028839111328125000e-01) (89, -7.92781921386718750000e+02) (90, -6.33663237094879150391e-01) (91, -7.94076293945312500000e+02) (92, -7.93861389160156250000e+02) (93, -7.93495239257812500000e+02) (94, -7.88049987792968750000e+02) (95, -7.92215393066406250000e+02) (96, -7.87035400390625000000e+02) (97, -7.93306884765625000000e+02) (98, -7.93121582031250000000e+02) (99, 3.53959798812866210938e-01) (100, -7.63119567871093750000e+02) (101, -7.94430725097656250000e+02) (89, -7.85681457519531250000e+02) (90, 5.32101452350616455078e-01) (91, -7.86778808593750000000e+02) (92, -7.85690795898437500000e+02) (93, -7.84720642089843750000e+02) (94, -7.82395568847656250000e+02) (95, -7.86474731445312500000e+02) (96, -7.79264831542968750000e+02) (97, -7.85954895019531250000e+02) (98, -7.85079528808593750000e+02) (99, 5.33748753368854522705e-02) (100, -7.55535095214843750000e+02) (101, -7.87359924316406250000e+02) 
