FANN_FLO_2.1
num_layers=4
learning_rate=0.700000
connection_rate=1.000000
network_type=0
learning_momentum=0.000000
training_algorithm=2
train_error_function=1
train_stop_function=0
cascade_output_change_fraction=0.010000
quickprop_decay=-0.000100
quickprop_mu=1.750000
rprop_increase_factor=1.200000
rprop_decrease_factor=0.500000
rprop_delta_min=0.000000
rprop_delta_max=50.000000
rprop_delta_zero=0.100000
cascade_output_stagnation_epochs=12
cascade_candidate_change_fraction=0.010000
cascade_candidate_stagnation_epochs=12
cascade_max_out_epochs=150
cascade_min_out_epochs=50
cascade_max_cand_epochs=150
cascade_min_cand_epochs=50
cascade_num_candidate_groups=2
bit_fail_limit=3.49999994039535522461e-01
cascade_candidate_limit=1.00000000000000000000e+03
cascade_weight_multiplier=4.00000005960464477539e-01
cascade_activation_functions_count=10
cascade_activation_functions=3 5 7 8 10 11 14 15 16 17 
cascade_activation_steepnesses_count=4
cascade_activation_steepnesses=2.50000000000000000000e-01 5.00000000000000000000e-01 7.50000000000000000000e-01 1.00000000000000000000e+00 
layer_sizes=30 59 13 7 
scale_included=0
neurons (num_inputs, activation_function, activation_steepness)=(0, 0, 0.00000000000000000000e+00) (0, 0, 0.00000000000000000000e+00) (0, 0, 0.00000000000000000000e+00) (0, 0, 0.00000000000000000000e+00) (0, 0, 0.00000000000000000000e+00) (0, 0, 0.00000000000000000000e+00) (0, 0, 0.00000000000000000000e+00) (0, 0, 0.00000000000000000000e+00) (0, 0, 0.00000000000000000000e+00) (0, 0, 0.00000000000000000000e+00) (0, 0, 0.00000000000000000000e+00) (0, 0, 0.00000000000000000000e+00) (0, 0, 0.00000000000000000000e+00) (0, 0, 0.00000000000000000000e+00) (0, 0, 0.00000000000000000000e+00) (0, 0, 0.00000000000000000000e+00) (0, 0, 0.00000000000000000000e+00) (0, 0, 0.00000000000000000000e+00) (0, 0, 0.00000000000000000000e+00) (0, 0, 0.00000000000000000000e+00) (0, 0, 0.00000000000000000000e+00) (0, 0, 0.00000000000000000000e+00) (0, 0, 0.00000000000000000000e+00) (0, 0, 0.00000000000000000000e+00) (0, 0, 0.00000000000000000000e+00) (0, 0, 0.00000000000000000000e+00) (0, 0, 0.00000000000000000000e+00) (0, 0, 0.00000000000000000000e+00) (0, 0, 0.00000000000000000000e+00) (0, 0, 0.00000000000000000000e+00) (30, 4, 5.00000000000000000000e-01) (30, 4, 5.00000000000000000000e-01) (30, 4, 5.00000000000000000000e-01) (30, 4, 5.00000000000000000000e-01) (30, 4, 5.00000000000000000000e-01) (30, 4, 5.00000000000000000000e-01) (30, 4, 5.00000000000000000000e-01) (30, 4, 5.00000000000000000000e-01) (30, 4, 5.00000000000000000000e-01) (30, 4, 5.00000000000000000000e-01) (30, 4, 5.00000000000000000000e-01) (30, 4, 5.00000000000000000000e-01) (30, 4, 5.00000000000000000000e-01) (30, 4, 5.00000000000000000000e-01) (30, 4, 5.00000000000000000000e-01) (30, 4, 5.00000000000000000000e-01) (30, 4, 5.00000000000000000000e-01) (30, 4, 5.00000000000000000000e-01) (30, 4, 5.00000000000000000000e-01) (30, 4, 5.00000000000000000000e-01) (30, 4, 5.00000000000000000000e-01) (30, 4, 5.00000000000000000000e-01) (30, 4, 5.00000000000000000000e-01) (30, 4, 5.00000000000000000000e-01) (30, 4, 5.00000000000000000000e-01) (30, 4, 5.00000000000000000000e-01) (30, 4, 5.00000000000000000000e-01) (30, 4, 5.00000000000000000000e-01) (30, 4, 5.00000000000000000000e-01) (30, 4, 5.00000000000000000000e-01) (30, 4, 5.00000000000000000000e-01) (30, 4, 5.00000000000000000000e-01) (30, 4, 5.00000000000000000000e-01) (30, 4, 5.00000000000000000000e-01) (30, 4, 5.00000000000000000000e-01) (30, 4, 5.00000000000000000000e-01) (30, 4, 5.00000000000000000000e-01) (30, 4, 5.00000000000000000000e-01) (30, 4, 5.00000000000000000000e-01) (30, 4, 5.00000000000000000000e-01) (30, 4, 5.00000000000000000000e-01) (30, 4, 5.00000000000000000000e-01) (30, 4, 5.00000000000000000000e-01) (30, 4, 5.00000000000000000000e-01) (30, 4, 5.00000000000000000000e-01) (30, 4, 5.00000000000000000000e-01) (30, 4, 5.00000000000000000000e-01) (30, 4, 5.00000000000000000000e-01) (30, 4, 5.00000000000000000000e-01) (30, 4, 5.00000000000000000000e-01) (30, 4, 5.00000000000000000000e-01) (30, 4, 5.00000000000000000000e-01) (30, 4, 5.00000000000000000000e-01) (30, 4, 5.00000000000000000000e-01) (30, 4, 5.00000000000000000000e-01) (30, 4, 5.00000000000000000000e-01) (30, 4, 5.00000000000000000000e-01) (30, 4, 5.00000000000000000000e-01) (0, 0, 0.00000000000000000000e+00) (59, 4, 5.00000000000000000000e-01) (59, 4, 5.00000000000000000000e-01) (59, 4, 5.00000000000000000000e-01) (59, 4, 5.00000000000000000000e-01) (59, 4, 5.00000000000000000000e-01) (59, 4, 5.00000000000000000000e-01) (59, 4, 5.00000000000000000000e-01) (59, 4, 5.00000000000000000000e-01) (59, 4, 5.00000000000000000000e-01) (59, 4, 5.00000000000000000000e-01) (59, 4, 5.00000000000000000000e-01) (59, 4, 5.00000000000000000000e-01) (0, 0, 0.00000000000000000000e+00) (13, 4, 5.00000000000000000000e-01) (13, 4, 5.00000000000000000000e-01) (13, 4, 5.00000000000000000000e-01) (13, 4, 5.00000000000000000000e-01) (13, 4, 5.00000000000000000000e-01) (13, 4, 5.00000000000000000000e-01) (0, 0, 0.00000000000000000000e+00) 
connections (connected_to_neuron, weight)=(0, -1.54587640625000000000e+05) (1, -2.03966531250000000000e+05) (2, -2.70212281250000000000e+05) (3, -2.85281250000000000000e+05) (4, -8.03799375000000000000e+04) (5, -1.11505679687500000000e+05) (6, -2.89048294400000000000e+09) (7, -4.70050000000000000000e+06) (8, -6.62971289062500000000e+03) (9, -9.28580175781250000000e+03) (10, 3.49416875000000000000e+04) (11, 8.24746386718750000000e+03) (12, -1.78188476562500000000e+04) (13, -2.33678730468750000000e+04) (14, -1.33412695312500000000e+04) (15, -1.29589677734375000000e+04) (16, -1.47118691406250000000e+04) (17, -1.63356699218750000000e+04) (18, -1.49291792000000000000e+08) (19, -1.08111240000000000000e+07) (20, -1.53958398437500000000e+04) (21, -1.39731660156250000000e+04) (22, -1.19806103515625000000e+04) (23, -1.21564343261718750000e+03) (24, -2.48006933593750000000e+03) (25, -1.31517846679687500000e+03) (26, -1.14878613281250000000e+04) (27, -9.97144238281250000000e+03) (28, 9.17768560000000000000e+07) (29, -3.18896484375000000000e+03) (0, 6.17311539200000000000e+09) (1, 7.36685209600000000000e+09) (2, 9.46554470400000000000e+09) (3, 1.03189780480000000000e+10) (4, 3.80978201600000000000e+09) (5, 4.95151155200000000000e+09) (6, 8.46117113692160000000e+13) (7, 2.09517232128000000000e+11) (8, 6.49287680000000000000e+08) (9, 7.46488256000000000000e+08) (10, 4.50907104000000000000e+08) (11, 5.49212352000000000000e+08) (12, 1.09894656000000000000e+09) (13, 1.22716748800000000000e+09) (14, 9.50551104000000000000e+08) (15, 9.00978112000000000000e+08) (16, 9.95196352000000000000e+08) (17, 1.02154502400000000000e+09) (18, 4.69260514099200000000e+12) (19, 7.00101296128000000000e+11) (20, 1.00969113600000000000e+09) (21, 9.20265152000000000000e+08) (22, 6.59406464000000000000e+08) (23, 2.36542064000000000000e+08) (24, 2.32852784000000000000e+08) (25, 2.29012400000000000000e+08) (26, 7.00432512000000000000e+08) (27, 6.46240192000000000000e+08) (28, -6.47222735667200000000e+12) (29, 4.89225856000000000000e+08) (0, -3.34597578125000000000e+04) (1, -4.40439882812500000000e+04) (2, -5.84440859375000000000e+04) (3, -6.17263398437500000000e+04) (4, -1.73922304687500000000e+04) (5, -2.41313808593750000000e+04) (6, -6.24196864000000000000e+08) (7, -1.01724500000000000000e+06) (8, -1.44559155273437500000e+03) (9, -2.01851440429687500000e+03) (10, 7.46137695312500000000e+03) (11, 1.76831347656250000000e+03) (12, -3.86057617187500000000e+03) (13, -5.09517724609375000000e+03) (14, -2.89800927734375000000e+03) (15, -2.81216870117187500000e+03) (16, -3.19227709960937500000e+03) (17, -3.54018066406250000000e+03) (18, -3.23075360000000000000e+07) (19, -2.36336650000000000000e+06) (20, -3.34496435546875000000e+03) (21, -3.03355004882812500000e+03) (22, -2.59723681640625000000e+03) (23, -2.68830749511718750000e+02) (24, -5.23757751464843750000e+02) (25, -2.89282318115234375000e+02) (26, -2.48940307617187500000e+03) (27, -2.16129931640625000000e+03) (28, 2.03527080000000000000e+07) (29, -7.00446655273437500000e+02) (0, 6.16755251200000000000e+09) (1, 7.35951104000000000000e+09) (2, 9.45581465600000000000e+09) (3, 1.03086909440000000000e+10) (4, 3.80688384000000000000e+09) (5, 4.94748518400000000000e+09) (6, 8.45076506869760000000e+13) (7, 2.09348263936000000000e+11) (8, 6.49049152000000000000e+08) (9, 7.46153792000000000000e+08) (10, 4.52163552000000000000e+08) (11, 5.49507776000000000000e+08) (12, 1.09830912000000000000e+09) (13, 1.22632294400000000000e+09) (14, 9.50068992000000000000e+08) (15, 9.00512000000000000000e+08) (16, 9.94668864000000000000e+08) (17, 1.02095756800000000000e+09) (18, 4.68722122752000000000e+12) (19, 6.99710242816000000000e+11) (20, 1.00913856000000000000e+09) (21, 9.19764672000000000000e+08) (22, 6.58973248000000000000e+08) (23, 2.36498096000000000000e+08) (24, 2.32764032000000000000e+08) (25, 2.28965024000000000000e+08) (26, 7.00020032000000000000e+08) (27, 6.45881664000000000000e+08) (28, -6.46890494361600000000e+12) (29, 4.89110528000000000000e+08) (0, 6.17324339200000000000e+09) (1, 7.36702156800000000000e+09) (2, 9.46576793600000000000e+09) (3, 1.03192166400000000000e+10) (4, 3.80985036800000000000e+09) (5, 4.95160678400000000000e+09) (6, 8.46142866718720000000e+13) (7, 2.09521049600000000000e+11) (8, 6.49293120000000000000e+08) (9, 7.46496192000000000000e+08) (10, 4.50877088000000000000e+08) (11, 5.49205184000000000000e+08) (12, 1.09896102400000000000e+09) (13, 1.22718707200000000000e+09) (14, 9.50562432000000000000e+08) (15, 9.00989440000000000000e+08) (16, 9.95208256000000000000e+08) (17, 1.02155840000000000000e+09) (18, 4.69273097011200000000e+12) (19, 7.00110798848000000000e+11) (20, 1.00970432000000000000e+09) (21, 9.20276800000000000000e+08) (22, 6.59416320000000000000e+08) (23, 2.36543200000000000000e+08) (24, 2.32854880000000000000e+08) (25, 2.29013536000000000000e+08) (26, 7.00442368000000000000e+08) (27, 6.46248384000000000000e+08) (28, -6.47230495129600000000e+12) (29, 4.89228672000000000000e+08) (0, -8.72248750000000000000e+04) (1, -1.14882554687500000000e+05) (2, -1.52386218750000000000e+05) (3, -1.60929156250000000000e+05) (4, -4.53453593750000000000e+04) (5, -6.29106523437500000000e+04) (6, -1.62812249600000000000e+09) (7, -2.65049075000000000000e+06) (8, -3.76155224609375000000e+03) (9, -5.25707080078125000000e+03) (10, 1.95107421875000000000e+04) (11, 4.62211425781250000000e+03) (12, -1.00631855468750000000e+04) (13, -1.32622597656250000000e+04) (14, -7.54674560546875000000e+03) (15, -7.32461132812500000000e+03) (16, -8.31682324218750000000e+03) (17, -9.22630175781250000000e+03) (18, -8.42277600000000000000e+07) (19, -6.14707950000000000000e+06) (20, -8.71366992187500000000e+03) (21, -7.90325683593750000000e+03) (22, -6.76966162109375000000e+03) (23, -6.97565856933593750000e+02) (24, -1.37449157714843750000e+03) (25, -7.50530517578125000000e+02) (26, -6.48661718750000000000e+03) (27, -5.63186767578125000000e+03) (28, 5.25812640000000000000e+07) (29, -1.82118078613281250000e+03) (0, 6.17303500800000000000e+09) (1, 7.36673843200000000000e+09) (2, 9.46540851200000000000e+09) (3, 1.03188367360000000000e+10) (4, 3.80973875200000000000e+09) (5, 4.95145164800000000000e+09) (6, 8.46102853058560000000e+13) (7, 2.09514921984000000000e+11) (8, 6.49284608000000000000e+08) (9, 7.46483456000000000000e+08) (10, 4.50924128000000000000e+08) (11, 5.49214592000000000000e+08) (12, 1.09893772800000000000e+09) (13, 1.22715571200000000000e+09) (14, 9.50544320000000000000e+08) (15, 9.00971776000000000000e+08) (16, 9.95189248000000000000e+08) (17, 1.02153696000000000000e+09) (18, 4.69252911923200000000e+12) (19, 7.00095594496000000000e+11) (20, 1.00968320000000000000e+09) (21, 9.20258560000000000000e+08) (22, 6.59400448000000000000e+08) (23, 2.36541408000000000000e+08) (24, 2.32851488000000000000e+08) (25, 2.29011680000000000000e+08) (26, 7.00426880000000000000e+08) (27, 6.46235392000000000000e+08) (28, -6.47218069504000000000e+12) (29, 4.89224064000000000000e+08) (0, -2.54972988281250000000e+04) (1, -3.35553359375000000000e+04) (2, -4.45344296875000000000e+04) (3, -4.70355390625000000000e+04) (4, -1.32547958984375000000e+04) (5, -1.83882285156250000000e+04) (6, -4.75528000000000000000e+08) (7, -7.74877000000000000000e+05) (8, -1.10253527832031250000e+03) (9, -1.53863134765625000000e+03) (10, 5.67524951171875000000e+03) (11, 1.34685449218750000000e+03) (12, -2.94279248046875000000e+03) (13, -3.88726708984375000000e+03) (14, -2.20816137695312500000e+03) (15, -2.14369409179687500000e+03) (16, -2.43241918945312500000e+03) (17, -2.69795556640625000000e+03) (18, -2.46184740000000000000e+07) (19, -1.80310500000000000000e+06) (20, -2.55069287109375000000e+03) (21, -2.31308081054687500000e+03) (22, -1.97976623535156250000e+03) (23, -2.06100875854492187500e+02) (24, -3.97828887939453125000e+02) (25, -2.21364624023437500000e+02) (26, -1.89772790527343750000e+03) (27, -1.64759716796875000000e+03) (28, 1.55782040000000000000e+07) (29, -5.34699279785156250000e+02) (0, 6.17314918400000000000e+09) (1, 7.36690176000000000000e+09) (2, 9.46561228800000000000e+09) (3, 1.03190497280000000000e+10) (4, 3.80980249600000000000e+09) (5, 4.95153766400000000000e+09) (6, 8.46125334528000000000e+13) (7, 2.09518379008000000000e+11) (8, 6.49289024000000000000e+08) (9, 7.46490752000000000000e+08) (10, 4.50897824000000000000e+08) (11, 5.49210624000000000000e+08) (12, 1.09895104000000000000e+09) (13, 1.22717376000000000000e+09) (14, 9.50554432000000000000e+08) (15, 9.00981440000000000000e+08) (16, 9.95200128000000000000e+08) (17, 1.02154931200000000000e+09) (18, 4.69264446259200000000e+12) (19, 7.00104376320000000000e+11) (20, 1.00969523200000000000e+09) (21, 9.20268800000000000000e+08) (22, 6.59409408000000000000e+08) (23, 2.36542432000000000000e+08) (24, 2.32853440000000000000e+08) (25, 2.29012752000000000000e+08) (26, 7.00435584000000000000e+08) (27, 6.46242496000000000000e+08) (28, -6.47225094963200000000e+12) (29, 4.89226720000000000000e+08) (0, -3.91445000000000000000e+04) (1, -5.16403437500000000000e+04) (2, -6.84221875000000000000e+04) (3, -7.22396250000000000000e+04) (4, -2.03544824218750000000e+04) (5, -2.82362363281250000000e+04) (6, -7.31821888000000000000e+08) (7, -1.18979100000000000000e+06) (8, -1.68118481445312500000e+03) (9, -2.35331616210937500000e+03) (10, 8.83678320312500000000e+03) (11, 2.08852734375000000000e+03) (12, -4.51393847656250000000e+03) (13, -5.92195751953125000000e+03) (14, -3.38096582031250000000e+03) (15, -3.28233618164062500000e+03) (16, -3.72592626953125000000e+03) (17, -4.13679638671875000000e+03) (18, -3.78065520000000000000e+07) (19, -2.74061800000000000000e+06) (20, -3.90044702148437500000e+03) (21, -3.54064501953125000000e+03) (22, -3.03553613281250000000e+03) (23, -3.07811523437500000000e+02) (24, -6.25656127929687500000e+02) (25, -3.33310302734375000000e+02) (26, -2.91034887695312500000e+03) (27, -2.52516918945312500000e+03) (28, 2.31619940000000000000e+07) (29, -8.09834106445312500000e+02) (0, 6.17319168000000000000e+09) (1, 7.36695244800000000000e+09) (2, 9.46568806400000000000e+09) (3, 1.03191347200000000000e+10) (4, 3.80982272000000000000e+09) (5, 4.95156531200000000000e+09) (6, 8.46132884275200000000e+13) (7, 2.09519607808000000000e+11) (8, 6.49290688000000000000e+08) (9, 7.46493440000000000000e+08) (10, 4.50889088000000000000e+08) (11, 5.49207616000000000000e+08) (12, 1.09895488000000000000e+09) (13, 1.22717952000000000000e+09) (14, 9.50558080000000000000e+08) (15, 9.00984896000000000000e+08) (16, 9.95203776000000000000e+08) (17, 1.02155321600000000000e+09) (18, 4.69268325990400000000e+12) (19, 7.00107390976000000000e+11) (20, 1.00969920000000000000e+09) (21, 9.20272384000000000000e+08) (22, 6.59412672000000000000e+08) (23, 2.36542784000000000000e+08) (24, 2.32854112000000000000e+08) (25, 2.29013152000000000000e+08) (26, 7.00438720000000000000e+08) (27, 6.46245248000000000000e+08) (28, -6.47227454259200000000e+12) (29, 4.89227712000000000000e+08) (0, 6.17311897600000000000e+09) (1, 7.36685721600000000000e+09) (2, 9.46554982400000000000e+09) (3, 1.03189831680000000000e+10) (4, 3.80978457600000000000e+09) (5, 4.95151360000000000000e+09) (6, 8.46117617008640000000e+13) (7, 2.09517314048000000000e+11) (8, 6.49287808000000000000e+08) (9, 7.46488448000000000000e+08) (10, 4.50906240000000000000e+08) (11, 5.49211840000000000000e+08) (12, 1.09894720000000000000e+09) (13, 1.22716825600000000000e+09) (14, 9.50551232000000000000e+08) (15, 9.00978496000000000000e+08) (16, 9.95196608000000000000e+08) (17, 1.02154547200000000000e+09) (18, 4.69260881100800000000e+12) (19, 7.00101623808000000000e+11) (20, 1.00969152000000000000e+09) (21, 9.20265536000000000000e+08) (22, 6.59406720000000000000e+08) (23, 2.36542080000000000000e+08) (24, 2.32852832000000000000e+08) (25, 2.29012448000000000000e+08) (26, 7.00432832000000000000e+08) (27, 6.46240448000000000000e+08) (28, -6.47223050240000000000e+12) (29, 4.89225920000000000000e+08) (0, 6.17314560000000000000e+09) (1, 7.36689664000000000000e+09) (2, 9.46560512000000000000e+09) (3, 1.03190415360000000000e+10) (4, 3.80980044800000000000e+09) (5, 4.95153408000000000000e+09) (6, 8.46124495667200000000e+13) (7, 2.09518215168000000000e+11) (8, 6.49288896000000000000e+08) (9, 7.46490624000000000000e+08) (10, 4.50898464000000000000e+08) (11, 5.49210496000000000000e+08) (12, 1.09895065600000000000e+09) (13, 1.22717324800000000000e+09) (14, 9.50554112000000000000e+08) (15, 9.00981248000000000000e+08) (16, 9.95199744000000000000e+08) (17, 1.02154892800000000000e+09) (18, 4.69263921971200000000e+12) (19, 7.00104114176000000000e+11) (20, 1.00969478400000000000e+09) (21, 9.20268416000000000000e+08) (22, 6.59409088000000000000e+08) (23, 2.36542416000000000000e+08) (24, 2.32853360000000000000e+08) (25, 2.29012736000000000000e+08) (26, 7.00435328000000000000e+08) (27, 6.46242240000000000000e+08) (28, -6.47224937676800000000e+12) (29, 4.89226656000000000000e+08) (0, 6.17315174400000000000e+09) (1, 7.36690585600000000000e+09) (2, 9.46561740800000000000e+09) (3, 1.03190538240000000000e+10) (4, 3.80980428800000000000e+09) (5, 4.95153868800000000000e+09) (6, 8.46126005616640000000e+13) (7, 2.09518477312000000000e+11) (8, 6.49289216000000000000e+08) (9, 7.46491072000000000000e+08) (10, 4.50897344000000000000e+08) (11, 5.49210304000000000000e+08) (12, 1.09895142400000000000e+09) (13, 1.22717427200000000000e+09) (14, 9.50554688000000000000e+08) (15, 9.00981760000000000000e+08) (16, 9.95200320000000000000e+08) (17, 1.02154963200000000000e+09) (18, 4.69264603545600000000e+12) (19, 7.00104572928000000000e+11) (20, 1.00969548800000000000e+09) (21, 9.20269120000000000000e+08) (22, 6.59409664000000000000e+08) (23, 2.36542448000000000000e+08) (24, 2.32853472000000000000e+08) (25, 2.29012768000000000000e+08) (26, 7.00435840000000000000e+08) (27, 6.46242688000000000000e+08) (28, -6.47225357107200000000e+12) (29, 4.89226816000000000000e+08) (0, 6.17297920000000000000e+09) (1, 7.36666521600000000000e+09) (2, 9.46532249600000000000e+09) (3, 1.03187476480000000000e+10) (4, 3.80970777600000000000e+09) (5, 4.95141529600000000000e+09) (6, 8.46094128906240000000e+13) (7, 2.09513496576000000000e+11) (8, 6.49282432000000000000e+08) (9, 7.46480512000000000000e+08) (10, 4.50935744000000000000e+08) (11, 5.49215936000000000000e+08) (12, 1.09893184000000000000e+09) (13, 1.22714803200000000000e+09) (14, 9.50539520000000000000e+08) (15, 9.00966784000000000000e+08) (16, 9.95183872000000000000e+08) (17, 1.02153100800000000000e+09) (18, 4.69247878758400000000e+12) (19, 7.00091793408000000000e+11) (20, 1.00967782400000000000e+09) (21, 9.20253632000000000000e+08) (22, 6.59396352000000000000e+08) (23, 2.36540944000000000000e+08) (24, 2.32850640000000000000e+08) (25, 2.29011216000000000000e+08) (26, 7.00423168000000000000e+08) (27, 6.46232128000000000000e+08) (28, -6.47215028633600000000e+12) (29, 4.89222976000000000000e+08) (0, 6.17306675200000000000e+09) (1, 7.36678297600000000000e+09) (2, 9.46546278400000000000e+09) (3, 1.03188981760000000000e+10) (4, 3.80975616000000000000e+09) (5, 4.95147366400000000000e+09) (6, 8.46108976742400000000e+13) (7, 2.09515855872000000000e+11) (8, 6.49285888000000000000e+08) (9, 7.46485632000000000000e+08) (10, 4.50916960000000000000e+08) (11, 5.49213568000000000000e+08) (12, 1.09894144000000000000e+09) (13, 1.22716096000000000000e+09) (14, 9.50546880000000000000e+08) (15, 9.00974400000000000000e+08) (16, 9.95192512000000000000e+08) (17, 1.02154054400000000000e+09) (18, 4.69256110080000000000e+12) (19, 7.00098150400000000000e+11) (20, 1.00968640000000000000e+09) (21, 9.20261376000000000000e+08) (22, 6.59403136000000000000e+08) (23, 2.36541696000000000000e+08) (24, 2.32852064000000000000e+08) (25, 2.29012000000000000000e+08) (26, 7.00429312000000000000e+08) (27, 6.46237184000000000000e+08) (28, -6.47220009369600000000e+12) (29, 4.89224768000000000000e+08) (0, 6.17306521600000000000e+09) (1, 7.36677990400000000000e+09) (2, 9.46545971200000000000e+09) (3, 1.03188951040000000000e+10) (4, 3.80975513600000000000e+09) (5, 4.95147264000000000000e+09) (6, 8.46108557312000000000e+13) (7, 2.09515806720000000000e+11) (8, 6.49285824000000000000e+08) (9, 7.46485504000000000000e+08) (10, 4.50917600000000000000e+08) (11, 5.49213696000000000000e+08) (12, 1.09894118400000000000e+09) (13, 1.22716057600000000000e+09) (14, 9.50546688000000000000e+08) (15, 9.00974272000000000000e+08) (16, 9.95192256000000000000e+08) (17, 1.02154022400000000000e+09) (18, 4.69256005222400000000e+12) (19, 7.00097953792000000000e+11) (20, 1.00968614400000000000e+09) (21, 9.20261184000000000000e+08) (22, 6.59403008000000000000e+08) (23, 2.36541696000000000000e+08) (24, 2.32852032000000000000e+08) (25, 2.29012000000000000000e+08) (26, 7.00429184000000000000e+08) (27, 6.46237120000000000000e+08) (28, -6.47219956940800000000e+12) (29, 4.89224768000000000000e+08) (0, 6.17304012800000000000e+09) (1, 7.36674150400000000000e+09) (2, 9.46541772800000000000e+09) (3, 1.03188480000000000000e+10) (4, 3.80974131200000000000e+09) (5, 4.95145574400000000000e+09) (6, 8.46103608033280000000e+13) (7, 2.09515053056000000000e+11) (8, 6.49284864000000000000e+08) (9, 7.46483904000000000000e+08) (10, 4.50922944000000000000e+08) (11, 5.49214464000000000000e+08) (12, 1.09893824000000000000e+09) (13, 1.22715660800000000000e+09) (14, 9.50544576000000000000e+08) (15, 9.00972160000000000000e+08) (16, 9.95189632000000000000e+08) (17, 1.02153740800000000000e+09) (18, 4.69253383782400000000e+12) (19, 7.00095856640000000000e+11) (20, 1.00968371200000000000e+09) (21, 9.20259072000000000000e+08) (22, 6.59400768000000000000e+08) (23, 2.36541488000000000000e+08) (24, 2.32851600000000000000e+08) (25, 2.29011760000000000000e+08) (26, 7.00427200000000000000e+08) (27, 6.46235648000000000000e+08) (28, -6.47218436505600000000e+12) (29, 4.89224288000000000000e+08) (0, 6.17315942400000000000e+09) (1, 7.36691558400000000000e+09) (2, 9.46563174400000000000e+09) (3, 1.03190691840000000000e+10) (4, 3.80980710400000000000e+09) (5, 4.95154432000000000000e+09) (6, 8.46127180021760000000e+13) (7, 2.09518690304000000000e+11) (8, 6.49289600000000000000e+08) (9, 7.46491520000000000000e+08) (10, 4.50895680000000000000e+08) (11, 5.49209792000000000000e+08) (12, 1.09895206400000000000e+09) (13, 1.22717529600000000000e+09) (14, 9.50555456000000000000e+08) (15, 9.00982592000000000000e+08) (16, 9.95201024000000000000e+08) (17, 1.02155033600000000000e+09) (18, 4.69265337548800000000e+12) (19, 7.00105162752000000000e+11) (20, 1.00969619200000000000e+09) (21, 9.20269696000000000000e+08) (22, 6.59410240000000000000e+08) (23, 2.36542496000000000000e+08) (24, 2.32853616000000000000e+08) (25, 2.29012848000000000000e+08) (26, 7.00436416000000000000e+08) (27, 6.46243264000000000000e+08) (28, -6.47225671680000000000e+12) (29, 4.89226976000000000000e+08) (0, 6.17313024000000000000e+09) (1, 7.36687360000000000000e+09) (2, 9.46557235200000000000e+09) (3, 1.03190056960000000000e+10) (4, 3.80979148800000000000e+09) (5, 4.95152128000000000000e+09) (6, 8.46120888565760000000e+13) (7, 2.09517674496000000000e+11) (8, 6.49288320000000000000e+08) (9, 7.46489216000000000000e+08) (10, 4.50902784000000000000e+08) (11, 5.49211392000000000000e+08) (12, 1.09894886400000000000e+09) (13, 1.22717043200000000000e+09) (14, 9.50552640000000000000e+08) (15, 9.00979840000000000000e+08) (16, 9.95197952000000000000e+08) (17, 1.02154700800000000000e+09) (18, 4.69262191820800000000e+12) (19, 7.00102803456000000000e+11) (20, 1.00969280000000000000e+09) (21, 9.20266688000000000000e+08) (22, 6.59407872000000000000e+08) (23, 2.36542256000000000000e+08) (24, 2.32853104000000000000e+08) (25, 2.29012592000000000000e+08) (26, 7.00434112000000000000e+08) (27, 6.46241280000000000000e+08) (28, -6.47223784243200000000e+12) (29, 4.89226336000000000000e+08) (0, -8.46091328125000000000e+04) (1, -1.11612929687500000000e+05) (2, -1.47882031250000000000e+05) (3, -1.56133296875000000000e+05) (4, -4.39941484375000000000e+04) (5, -6.10303046875000000000e+04) (6, -1.58173632000000000000e+09) (7, -2.57267325000000000000e+06) (8, -3.63072998046875000000e+03) (9, -5.08459765625000000000e+03) (10, 1.91027460937500000000e+04) (11, 4.50973144531250000000e+03) (12, -9.75295605468750000000e+03) (13, -1.27980693359375000000e+04) (14, -7.30379589843750000000e+03) (15, -7.09367529296875000000e+03) (16, -8.05451318359375000000e+03) (17, -8.94170117187500000000e+03) (18, -8.17086720000000000000e+07) (19, -5.92205650000000000000e+06) (20, -8.42843847656250000000e+03) (21, -7.64918994140625000000e+03) (22, -6.55821191406250000000e+03) (23, -6.65881408691406250000e+02) (24, -1.35582458496093750000e+03) (25, -7.19707092285156250000e+02) (26, -6.28839794921875000000e+03) (27, -5.45813525390625000000e+03) (28, 5.04063640000000000000e+07) (29, -1.74782946777343750000e+03) (0, 6.17309900800000000000e+09) (1, 7.36682803200000000000e+09) (2, 9.46551091200000000000e+09) (3, 1.03189452800000000000e+10) (4, 3.80977100800000000000e+09) (5, 4.95149670400000000000e+09) (6, 8.46113842135040000000e+13) (7, 2.09516740608000000000e+11) (8, 6.49287040000000000000e+08) (9, 7.46487424000000000000e+08) (10, 4.50910880000000000000e+08) (11, 5.49212992000000000000e+08) (12, 1.09894451200000000000e+09) (13, 1.22716492800000000000e+09) (14, 9.50549568000000000000e+08) (15, 9.00976704000000000000e+08) (16, 9.95195072000000000000e+08) (17, 1.02154323200000000000e+09) (18, 4.69258888806400000000e+12) (19, 7.00100116480000000000e+11) (20, 1.00968915200000000000e+09) (21, 9.20263808000000000000e+08) (22, 6.59405248000000000000e+08) (23, 2.36541968000000000000e+08) (24, 2.32852560000000000000e+08) (25, 2.29012288000000000000e+08) (26, 7.00431232000000000000e+08) (27, 6.46238976000000000000e+08) (28, -6.47221687091200000000e+12) (29, 4.89225536000000000000e+08) (0, 6.17316249600000000000e+09) (1, 7.36691865600000000000e+09) (2, 9.46563481600000000000e+09) (3, 1.03190743040000000000e+10) (4, 3.80980864000000000000e+09) (5, 4.95154585600000000000e+09) (6, 8.46127599452160000000e+13) (7, 2.09518755840000000000e+11) (8, 6.49289664000000000000e+08) (9, 7.46491648000000000000e+08) (10, 4.50895296000000000000e+08) (11, 5.49209792000000000000e+08) (12, 1.09895219200000000000e+09) (13, 1.22717555200000000000e+09) (14, 9.50555776000000000000e+08) (15, 9.00982720000000000000e+08) (16, 9.95201344000000000000e+08) (17, 1.02155059200000000000e+09) (18, 4.69265652121600000000e+12) (19, 7.00105293824000000000e+11) (20, 1.00969632000000000000e+09) (21, 9.20269888000000000000e+08) (22, 6.59410368000000000000e+08) (23, 2.36542528000000000000e+08) (24, 2.32853696000000000000e+08) (25, 2.29012896000000000000e+08) (26, 7.00436544000000000000e+08) (27, 6.46243328000000000000e+08) (28, -6.47225828966400000000e+12) (29, 4.89227072000000000000e+08) (0, 6.17303859200000000000e+09) (1, 7.36674048000000000000e+09) (2, 9.46541568000000000000e+09) (3, 1.03188459520000000000e+10) (4, 3.80974054400000000000e+09) (5, 4.95145472000000000000e+09) (6, 8.46103356375040000000e+13) (7, 2.09515003904000000000e+11) (8, 6.49284800000000000000e+08) (9, 7.46483840000000000000e+08) (10, 4.50923264000000000000e+08) (11, 5.49214400000000000000e+08) (12, 1.09893824000000000000e+09) (13, 1.22715635200000000000e+09) (14, 9.50544512000000000000e+08) (15, 9.00972096000000000000e+08) (16, 9.95189504000000000000e+08) (17, 1.02153728000000000000e+09) (18, 4.69253226496000000000e+12) (19, 7.00095725568000000000e+11) (20, 1.00968358400000000000e+09) (21, 9.20258944000000000000e+08) (22, 6.59400704000000000000e+08) (23, 2.36541456000000000000e+08) (24, 2.32851568000000000000e+08) (25, 2.29011728000000000000e+08) (26, 7.00427136000000000000e+08) (27, 6.46235584000000000000e+08) (28, -6.47218331648000000000e+12) (29, 4.89224224000000000000e+08) (0, 6.17307801600000000000e+09) (1, 7.36679782400000000000e+09) (2, 9.46547712000000000000e+09) (3, 1.03189135360000000000e+10) (4, 3.80976179200000000000e+09) (5, 4.95148288000000000000e+09) (6, 8.46110235033600000000e+13) (7, 2.09516150784000000000e+11) (8, 6.49286144000000000000e+08) (9, 7.46486208000000000000e+08) (10, 4.50915040000000000000e+08) (11, 5.49214080000000000000e+08) (12, 1.09894246400000000000e+09) (13, 1.22716236800000000000e+09) (14, 9.50547648000000000000e+08) (15, 9.00975040000000000000e+08) (16, 9.95193280000000000000e+08) (17, 1.02154150400000000000e+09) (18, 4.69256948940800000000e+12) (19, 7.00098805760000000000e+11) (20, 1.00968748800000000000e+09) (21, 9.20262080000000000000e+08) (22, 6.59403904000000000000e+08) (23, 2.36541776000000000000e+08) (24, 2.32852192000000000000e+08) (25, 2.29012096000000000000e+08) (26, 7.00429824000000000000e+08) (27, 6.46237696000000000000e+08) (28, -6.47220586086400000000e+12) (29, 4.89225024000000000000e+08) (0, -6.89960595703125000000e+03) (1, -9.11054785156250000000e+03) (2, -1.20673496093750000000e+04) (3, -1.27418837890625000000e+04) (4, -3.58914624023437500000e+03) (5, -4.97918896484375000000e+03) (6, -1.29111224000000000000e+08) (7, -2.09418718750000000000e+05) (8, -2.95996520996093750000e+02) (9, -4.14266723632812500000e+02) (10, 1.56063110351562500000e+03) (11, 3.70551818847656250000e+02) (12, -7.94601013183593750000e+02) (13, -1.04470666503906250000e+03) (14, -5.94789001464843750000e+02) (15, -5.78129394531250000000e+02) (16, -6.55888427734375000000e+02) (17, -7.29238586425781250000e+02) (18, -6.66885450000000000000e+06) (19, -4.82809093750000000000e+05) (20, -6.88455078125000000000e+02) (21, -6.23564819335937500000e+02) (22, -5.34395324707031250000e+02) (23, -5.47610282897949218750e+01) (24, -1.09654953002929687500e+02) (25, -5.95018806457519531250e+01) (26, -5.12614685058593750000e+02) (27, -4.44790893554687500000e+02) (28, 3.88513500000000000000e+06) (29, -1.43349822998046875000e+02) (0, 6.17323161600000000000e+09) (1, 7.36700825600000000000e+09) (2, 9.46575052800000000000e+09) (3, 1.03192002560000000000e+10) (4, 3.80984499200000000000e+09) (5, 4.95159910400000000000e+09) (6, 8.46140937338880000000e+13) (7, 2.09520787456000000000e+11) (8, 6.49292416000000000000e+08) (9, 7.46495680000000000000e+08) (10, 4.50879616000000000000e+08) (11, 5.49205824000000000000e+08) (12, 1.09895961600000000000e+09) (13, 1.22718540800000000000e+09) (14, 9.50561600000000000000e+08) (15, 9.00988480000000000000e+08) (16, 9.95207168000000000000e+08) (17, 1.02155724800000000000e+09) (18, 4.69272100864000000000e+12) (19, 7.00109946880000000000e+11) (20, 1.00970304000000000000e+09) (21, 9.20276096000000000000e+08) (22, 6.59415552000000000000e+08) (23, 2.36543056000000000000e+08) (24, 2.32854736000000000000e+08) (25, 2.29013456000000000000e+08) (26, 7.00441472000000000000e+08) (27, 6.46247808000000000000e+08) (28, -6.47229865984000000000e+12) (29, 4.89228448000000000000e+08) (0, 6.17313638400000000000e+09) (1, 7.36688332800000000000e+09) (2, 9.46558566400000000000e+09) (3, 1.03190200320000000000e+10) (4, 3.80979635200000000000e+09) (5, 4.95152691200000000000e+09) (6, 8.46122566287360000000e+13) (7, 2.09517985792000000000e+11) (8, 6.49288576000000000000e+08) (9, 7.46489792000000000000e+08) (10, 4.50901248000000000000e+08) (11, 5.49210688000000000000e+08) (12, 1.09894976000000000000e+09) (13, 1.22717158400000000000e+09) (14, 9.50553216000000000000e+08) (15, 9.00980288000000000000e+08) (16, 9.95198784000000000000e+08) (17, 1.02154784000000000000e+09) (18, 4.69262978252800000000e+12) (19, 7.00103327744000000000e+11) (20, 1.00969376000000000000e+09) (21, 9.20267456000000000000e+08) (22, 6.59408384000000000000e+08) (23, 2.36542320000000000000e+08) (24, 2.32853248000000000000e+08) (25, 2.29012640000000000000e+08) (26, 7.00434624000000000000e+08) (27, 6.46241728000000000000e+08) (28, -6.47224203673600000000e+12) (29, 4.89226432000000000000e+08) (0, -1.32489437500000000000e+05) (1, -1.74808375000000000000e+05) (2, -2.31580281250000000000e+05) (3, -2.44491687500000000000e+05) (4, -6.88870625000000000000e+04) (5, -9.55643281250000000000e+04) (6, -2.47723136000000000000e+09) (7, -4.03115825000000000000e+06) (8, -5.68167041015625000000e+03) (9, -7.95846337890625000000e+03) (10, 2.99473144531250000000e+04) (11, 7.06824951171875000000e+03) (12, -1.52708388671875000000e+04) (13, -2.00261582031250000000e+04) (14, -1.14348085937500000000e+04) (15, -1.11049833984375000000e+04) (16, -1.26078886718750000000e+04) (17, -1.39992880859375000000e+04) (18, -1.27944016000000000000e+08) (19, -9.26475500000000000000e+06) (20, -1.31922841796875000000e+04) (21, -1.19741533203125000000e+04) (22, -1.02670605468750000000e+04) (23, -1.04216918945312500000e+03) (24, -2.12501977539062500000e+03) (25, -1.12591015625000000000e+03) (26, -9.84535058593750000000e+03) (27, -8.54483203125000000000e+03) (28, 7.88124080000000000000e+07) (29, -2.73210375976562500000e+03) (0, -7.77295556640625000000e+03) (1, -1.03104335937500000000e+04) (2, -1.36071308593750000000e+04) (3, -1.43522548828125000000e+04) (4, -4.04451977539062500000e+03) (5, -5.60941503906250000000e+03) (6, -1.46078080000000000000e+08) (7, -2.37596531250000000000e+05) (8, -3.25885681152343750000e+02) (9, -4.62076080322265625000e+02) (10, 1.81449377441406250000e+03) (11, 4.20807800292968750000e+02) (12, -8.92517578125000000000e+02) (13, -1.15262084960937500000e+03) (14, -6.65348937988281250000e+02) (15, -6.48450317382812500000e+02) (16, -7.35181152343750000000e+02) (17, -8.19573974609375000000e+02) (18, -7.50636800000000000000e+06) (19, -5.30335437500000000000e+05) (20, -7.66231384277343750000e+02) (21, -6.96612304687500000000e+02) (22, -5.98863403320312500000e+02) (23, -5.74332771301269531250e+01) (24, -1.32682128906250000000e+02) (25, -6.42696456909179687500e+01) (26, -5.74911193847656250000e+02) (27, -4.99961029052734375000e+02) (28, 4.53866200000000000000e+06) (29, -1.53373703002929687500e+02) (0, 6.17307494400000000000e+09) (1, 7.36679372800000000000e+09) (2, 9.46547507200000000000e+09) (3, 1.03189114880000000000e+10) (4, 3.80976076800000000000e+09) (5, 4.95148083200000000000e+09) (6, 8.46109983375360000000e+13) (7, 2.09516134400000000000e+11) (8, 6.49286080000000000000e+08) (9, 7.46486208000000000000e+08) (10, 4.50915712000000000000e+08) (11, 5.49213952000000000000e+08) (12, 1.09894233600000000000e+09) (13, 1.22716211200000000000e+09) (14, 9.50547520000000000000e+08) (15, 9.00974912000000000000e+08) (16, 9.95193216000000000000e+08) (17, 1.02154124800000000000e+09) (18, 4.69256791654400000000e+12) (19, 7.00098674688000000000e+11) (20, 1.00968723200000000000e+09) (21, 9.20261952000000000000e+08) (22, 6.59403840000000000000e+08) (23, 2.36541776000000000000e+08) (24, 2.32852160000000000000e+08) (25, 2.29012080000000000000e+08) (26, 7.00429760000000000000e+08) (27, 6.46237632000000000000e+08) (28, -6.47220533657600000000e+12) (29, 4.89225024000000000000e+08) (0, 6.16864921600000000000e+09) (1, 7.36096000000000000000e+09) (2, 9.45771929600000000000e+09) (3, 1.03107256320000000000e+10) (4, 3.80745728000000000000e+09) (5, 4.94827315200000000000e+09) (6, 8.45283369943040000000e+13) (7, 2.09381703680000000000e+11) (8, 6.49096640000000000000e+08) (9, 7.46219584000000000000e+08) (10, 4.51911168000000000000e+08) (11, 5.49449536000000000000e+08) (12, 1.09843801600000000000e+09) (13, 1.22649369600000000000e+09) (14, 9.50165504000000000000e+08) (15, 9.00605568000000000000e+08) (16, 9.94775168000000000000e+08) (17, 1.02107692800000000000e+09) (18, 4.68828972646400000000e+12) (19, 6.99788230656000000000e+11) (20, 1.00924729600000000000e+09) (21, 9.19864512000000000000e+08) (22, 6.59060224000000000000e+08) (23, 2.36506688000000000000e+08) (24, 2.32781584000000000000e+08) (25, 2.28974384000000000000e+08) (26, 7.00101248000000000000e+08) (27, 6.45952832000000000000e+08) (28, -6.46956397363200000000e+12) (29, 4.89133088000000000000e+08) (0, -1.44376968750000000000e+05) (1, -1.90511859375000000000e+05) (2, -2.52371000000000000000e+05) (3, -2.66445906250000000000e+05) (4, -7.50731484375000000000e+04) (5, -1.04141070312500000000e+05) (6, -2.69981465600000000000e+09) (7, -4.38992950000000000000e+06) (8, -6.18995361328125000000e+03) (9, -8.67115429687500000000e+03) (10, 3.26493691406250000000e+04) (11, 7.70677783203125000000e+03) (12, -1.66418046875000000000e+04) (13, -2.18187089843750000000e+04) (14, -1.24594970703125000000e+04) (15, -1.21024208984375000000e+04) (16, -1.37385302734375000000e+04) (17, -1.52551181640625000000e+04) (18, -1.39430144000000000000e+08) (19, -1.00932750000000000000e+07) (20, -1.43755185546875000000e+04) (21, -1.30482324218750000000e+04) (22, -1.11882392578125000000e+04) (23, -1.13336706542968750000e+03) (24, -2.31895117187500000000e+03) (25, -1.22805285644531250000e+03) (26, -1.07287138671875000000e+04) (27, -9.31177539062500000000e+03) (28, 8.55549600000000000000e+07) (29, -2.97749243164062500000e+03) (0, 6.17313689600000000000e+09) (1, 7.36688537600000000000e+09) (2, 9.46558771200000000000e+09) (3, 1.03190220800000000000e+10) (4, 3.80979686400000000000e+09) (5, 4.95152793600000000000e+09) (6, 8.46122734059520000000e+13) (7, 2.09518018560000000000e+11) (8, 6.49288576000000000000e+08) (9, 7.46489920000000000000e+08) (10, 4.50900896000000000000e+08) (11, 5.49210624000000000000e+08) (12, 1.09894976000000000000e+09) (13, 1.22717171200000000000e+09) (14, 9.50553280000000000000e+08) (15, 9.00980416000000000000e+08) (16, 9.95198848000000000000e+08) (17, 1.02154790400000000000e+09) (18, 4.69263083110400000000e+12) (19, 7.00103393280000000000e+11) (20, 1.00969388800000000000e+09) (21, 9.20267584000000000000e+08) (22, 6.59408512000000000000e+08) (23, 2.36542336000000000000e+08) (24, 2.32853248000000000000e+08) (25, 2.29012656000000000000e+08) (26, 7.00434688000000000000e+08) (27, 6.46241728000000000000e+08) (28, -6.47224413388800000000e+12) (29, 4.89226496000000000000e+08) (0, -1.21684656250000000000e+05) (1, -1.60400406250000000000e+05) (2, -2.12638687500000000000e+05) (3, -2.24530093750000000000e+05) (4, -6.32669023437500000000e+04) (5, -8.77691015625000000000e+04) (6, -2.27324646400000000000e+09) (7, -3.69953325000000000000e+06) (8, -5.23523095703125000000e+03) (9, -7.32313037109375000000e+03) (10, 2.73470878906250000000e+04) (11, 6.47274169921875000000e+03) (12, -1.40327988281250000000e+04) (13, -1.84539355468750000000e+04) (14, -1.05181650390625000000e+04) (15, -1.02115712890625000000e+04) (16, -1.15921464843750000000e+04) (17, -1.28643789062500000000e+04) (18, -1.17514088000000000000e+08) (19, -8.54638200000000000000e+06) (20, -1.21403046875000000000e+04) (21, -1.10147529296875000000e+04) (22, -9.44046191406250000000e+03) (23, -9.67456970214843750000e+02) (24, -1.93184411621093750000e+03) (25, -1.04062426757812500000e+03) (26, -9.04708691406250000000e+03) (27, -7.85520996093750000000e+03) (28, 7.26587120000000000000e+07) (29, -2.52746166992187500000e+03) (0, 4.26463936000000000000e+08) (1, 4.34758016000000000000e+08) (2, 4.48141568000000000000e+08) (3, 4.71914656000000000000e+08) (4, 3.67536160000000000000e+08) (5, 3.96424832000000000000e+08) (6, 1.11115803033600000000e+12) (7, 3.89764300800000000000e+09) (8, 2.91880064000000000000e+08) (9, 2.94996288000000000000e+08) (10, 1.26877824000000000000e+08) (11, 1.31874648000000000000e+08) (12, 3.04011840000000000000e+08) (13, 2.53592752000000000000e+08) (14, 3.00850880000000000000e+08) (15, 2.99128416000000000000e+08) (16, 3.01836672000000000000e+08) (17, 3.01689120000000000000e+08) (18, 7.04157122560000000000e+10) (19, 2.23666585600000000000e+10) (20, 2.53932896000000000000e+08) (21, 2.50297024000000000000e+08) (22, 2.42217600000000000000e+08) (23, 1.49728896000000000000e+08) (24, 1.43723616000000000000e+08) (25, 1.43798592000000000000e+08) (26, 2.64387520000000000000e+08) (27, 2.61558368000000000000e+08) (28, 2.76883360000000000000e+08) (29, 2.88427904000000000000e+08) (0, 6.17296742400000000000e+09) (1, 7.36665292800000000000e+09) (2, 9.46530304000000000000e+09) (3, 1.03187271680000000000e+10) (4, 3.80970316800000000000e+09) (5, 4.95140812800000000000e+09) (6, 8.46092535070720000000e+13) (7, 2.09513185280000000000e+11) (8, 6.49282048000000000000e+08) (9, 7.46480128000000000000e+08) (10, 4.50937472000000000000e+08) (11, 5.49217216000000000000e+08) (12, 1.09893056000000000000e+09) (13, 1.22714700800000000000e+09) (14, 9.50538688000000000000e+08) (15, 9.00965888000000000000e+08) (16, 9.95182784000000000000e+08) (17, 1.02152979200000000000e+09) (18, 4.69246987468800000000e+12) (19, 7.00091072512000000000e+11) (20, 1.00967686400000000000e+09) (21, 9.20252736000000000000e+08) (22, 6.59395456000000000000e+08) (23, 2.36540896000000000000e+08) (24, 2.32850448000000000000e+08) (25, 2.29011152000000000000e+08) (26, 7.00422464000000000000e+08) (27, 6.46231616000000000000e+08) (28, -6.47214399488000000000e+12) (29, 4.89222816000000000000e+08) (0, 6.17315532800000000000e+09) (1, 7.36691200000000000000e+09) (2, 9.46562867200000000000e+09) (3, 1.03190661120000000000e+10) (4, 3.80980633600000000000e+09) (5, 4.95154227200000000000e+09) (6, 8.46126592819200000000e+13) (7, 2.09518624768000000000e+11) (8, 6.49289472000000000000e+08) (9, 7.46491328000000000000e+08) (10, 4.50896064000000000000e+08) (11, 5.49209920000000000000e+08) (12, 1.09895180800000000000e+09) (13, 1.22717491200000000000e+09) (14, 9.50555072000000000000e+08) (15, 9.00982400000000000000e+08) (16, 9.95200704000000000000e+08) (17, 1.02155014400000000000e+09) (18, 4.69265127833600000000e+12) (19, 7.00105031680000000000e+11) (20, 1.00969600000000000000e+09) (21, 9.20269568000000000000e+08) (22, 6.59410048000000000000e+08) (23, 2.36542464000000000000e+08) (24, 2.32853568000000000000e+08) (25, 2.29012800000000000000e+08) (26, 7.00436288000000000000e+08) (27, 6.46243008000000000000e+08) (28, -6.47225566822400000000e+12) (29, 4.89226880000000000000e+08) (0, 6.17315942400000000000e+09) (1, 7.36691558400000000000e+09) (2, 9.46563276800000000000e+09) (3, 1.03190702080000000000e+10) (4, 3.80980761600000000000e+09) (5, 4.95154483200000000000e+09) (6, 8.46127263907840000000e+13) (7, 2.09518706688000000000e+11) (8, 6.49289536000000000000e+08) (9, 7.46491520000000000000e+08) (10, 4.50895488000000000000e+08) (11, 5.49209856000000000000e+08) (12, 1.09895206400000000000e+09) (13, 1.22717529600000000000e+09) (14, 9.50555520000000000000e+08) (15, 9.00982528000000000000e+08) (16, 9.95201024000000000000e+08) (17, 1.02155040000000000000e+09) (18, 4.69265389977600000000e+12) (19, 7.00105097216000000000e+11) (20, 1.00969612800000000000e+09) (21, 9.20269760000000000000e+08) (22, 6.59410240000000000000e+08) (23, 2.36542480000000000000e+08) (24, 2.32853616000000000000e+08) (25, 2.29012848000000000000e+08) (26, 7.00436480000000000000e+08) (27, 6.46243264000000000000e+08) (28, -6.47225724108800000000e+12) (29, 4.89226976000000000000e+08) (0, 6.17268172800000000000e+09) (1, 7.36627916800000000000e+09) (2, 9.46478796800000000000e+09) (3, 1.03181793280000000000e+10) (4, 3.80955468800000000000e+09) (5, 4.95120128000000000000e+09) (6, 8.46037925232640000000e+13) (7, 2.09504796672000000000e+11) (8, 6.49269312000000000000e+08) (9, 7.46463360000000000000e+08) (10, 4.51000576000000000000e+08) (11, 5.49233088000000000000e+08) (12, 1.09889830400000000000e+09) (13, 1.22710361600000000000e+09) (14, 9.50514304000000000000e+08) (15, 9.00942912000000000000e+08) (16, 9.95156480000000000000e+08) (17, 1.02149856000000000000e+09) (18, 4.69219514777600000000e+12) (19, 7.00071936000000000000e+11) (20, 1.00964851200000000000e+09) (21, 9.20226752000000000000e+08) (22, 6.59373120000000000000e+08) (23, 2.36538672000000000000e+08) (24, 2.32845952000000000000e+08) (25, 2.29008672000000000000e+08) (26, 7.00401472000000000000e+08) (27, 6.46212672000000000000e+08) (28, -6.47197569843200000000e+12) (29, 4.89216896000000000000e+08) (0, 6.17314764800000000000e+09) (1, 7.36689817600000000000e+09) (2, 9.46560819200000000000e+09) (3, 1.03190466560000000000e+10) (4, 3.80980121600000000000e+09) (5, 4.95153612800000000000e+09) (6, 8.46124998983680000000e+13) (7, 2.09518329856000000000e+11) (8, 6.49288960000000000000e+08) (9, 7.46490752000000000000e+08) (10, 4.50898080000000000000e+08) (11, 5.49210496000000000000e+08) (12, 1.09895091200000000000e+09) (13, 1.22717350400000000000e+09) (14, 9.50554304000000000000e+08) (15, 9.00981312000000000000e+08) (16, 9.95200000000000000000e+08) (17, 1.02154912000000000000e+09) (18, 4.69264184115200000000e+12) (19, 7.00104179712000000000e+11) (20, 1.00969497600000000000e+09) (21, 9.20268672000000000000e+08) (22, 6.59409280000000000000e+08) (23, 2.36542416000000000000e+08) (24, 2.32853408000000000000e+08) (25, 2.29012736000000000000e+08) (26, 7.00435520000000000000e+08) (27, 6.46242368000000000000e+08) (28, -6.47225042534400000000e+12) (29, 4.89226688000000000000e+08) (0, 6.17287987200000000000e+09) (1, 7.36654233600000000000e+09) (2, 9.46515251200000000000e+09) (3, 1.03185694720000000000e+10) (4, 3.80965862400000000000e+09) (5, 4.95134771200000000000e+09) (6, 8.46076261171200000000e+13) (7, 2.09510776832000000000e+11) (8, 6.49278080000000000000e+08) (9, 7.46475456000000000000e+08) (10, 4.50957696000000000000e+08) (11, 5.49223552000000000000e+08) (12, 1.09892070400000000000e+09) (13, 1.22713433600000000000e+09) (14, 9.50531648000000000000e+08) (15, 9.00959360000000000000e+08) (16, 9.95174848000000000000e+08) (17, 1.02152057600000000000e+09) (18, 4.69238965862400000000e+12) (19, 7.00085501952000000000e+11) (20, 1.00966854400000000000e+09) (21, 9.20244928000000000000e+08) (22, 6.59388672000000000000e+08) (23, 2.36540208000000000000e+08) (24, 2.32849104000000000000e+08) (25, 2.29010368000000000000e+08) (26, 7.00416448000000000000e+08) (27, 6.46225984000000000000e+08) (28, -6.47209366323200000000e+12) (29, 4.89220992000000000000e+08) (0, 6.15481292800000000000e+09) (1, 7.34272000000000000000e+09) (2, 9.43356416000000000000e+09) (3, 1.02852177920000000000e+10) (4, 3.80027084800000000000e+09) (5, 4.93830195200000000000e+09) (6, 8.42695987691520000000e+13) (7, 2.08961060864000000000e+11) (8, 6.48503872000000000000e+08) (9, 7.45387584000000000000e+08) (10, 4.55035680000000000000e+08) (11, 5.50193856000000000000e+08) (12, 1.09684160000000000000e+09) (13, 1.22439936000000000000e+09) (14, 9.48968256000000000000e+08) (15, 8.99436672000000000000e+08) (16, 9.93456512000000000000e+08) (17, 1.01961401600000000000e+09) (18, 4.67490832384000000000e+12) (19, 6.98818035712000000000e+11) (20, 1.00787360000000000000e+09) (21, 9.18614784000000000000e+08) (22, 6.57984832000000000000e+08) (23, 2.36397920000000000000e+08) (24, 2.32562496000000000000e+08) (25, 2.28857696000000000000e+08) (26, 6.99070144000000000000e+08) (27, 6.45061440000000000000e+08) (28, -6.46131220480000000000e+12) (29, 4.88848384000000000000e+08) (0, 6.17314764800000000000e+09) (1, 7.36689920000000000000e+09) (2, 9.46560921600000000000e+09) (3, 1.03190456320000000000e+10) (4, 3.80980121600000000000e+09) (5, 4.95153612800000000000e+09) (6, 8.46124915097600000000e+13) (7, 2.09518313472000000000e+11) (8, 6.49288960000000000000e+08) (9, 7.46490752000000000000e+08) (10, 4.50898048000000000000e+08) (11, 5.49210560000000000000e+08) (12, 1.09895091200000000000e+09) (13, 1.22717363200000000000e+09) (14, 9.50554304000000000000e+08) (15, 9.00981440000000000000e+08) (16, 9.95199872000000000000e+08) (17, 1.02154912000000000000e+09) (18, 4.69264184115200000000e+12) (19, 7.00104179712000000000e+11) (20, 1.00969510400000000000e+09) (21, 9.20268672000000000000e+08) (22, 6.59409280000000000000e+08) (23, 2.36542432000000000000e+08) (24, 2.32853408000000000000e+08) (25, 2.29012752000000000000e+08) (26, 7.00435456000000000000e+08) (27, 6.46242432000000000000e+08) (28, -6.47225042534400000000e+12) (29, 4.89226752000000000000e+08) (0, 6.17117900800000000000e+09) (1, 7.36431411200000000000e+09) (2, 9.46214502400000000000e+09) (3, 1.03153602560000000000e+10) (4, 3.80877414400000000000e+09) (5, 4.95009484800000000000e+09) (6, 8.45756235776000000000e+13) (7, 2.09458921472000000000e+11) (8, 6.49205632000000000000e+08) (9, 7.46372352000000000000e+08) (10, 4.51342240000000000000e+08) (11, 5.49312832000000000000e+08) (12, 1.09872448000000000000e+09) (13, 1.22687552000000000000e+09) (14, 9.50383296000000000000e+08) (15, 9.00815168000000000000e+08) (16, 9.95012608000000000000e+08) (17, 1.02134028800000000000e+09) (18, 4.69074339430400000000e+12) (19, 6.99966357504000000000e+11) (20, 1.00949721600000000000e+09) (21, 9.20091456000000000000e+08) (22, 6.59256960000000000000e+08) (23, 2.36526800000000000000e+08) (24, 2.32821936000000000000e+08) (25, 2.28995824000000000000e+08) (26, 7.00290304000000000000e+08) (27, 6.46115904000000000000e+08) (28, -6.47107497164800000000e+12) (29, 4.89185216000000000000e+08) (0, -7.13690468750000000000e+04) (1, -9.39567187500000000000e+04) (2, -1.24667140625000000000e+05) (3, -1.31667468750000000000e+05) (4, -3.70998359375000000000e+04) (5, -5.14718007812500000000e+04) (6, -1.33155481600000000000e+09) (7, -2.16708325000000000000e+06) (8, -3.08494531250000000000e+03) (9, -4.30470361328125000000e+03) (10, 1.59172412109375000000e+04) (11, 3.77944165039062500000e+03) (12, -8.23605078125000000000e+03) (13, -1.08706406250000000000e+04) (14, -6.18035009765625000000e+03) (15, -5.99617333984375000000e+03) (16, -6.80952392578125000000e+03) (17, -7.55127148437500000000e+03) (18, -6.89173280000000000000e+07) (19, -5.04069050000000000000e+06) (20, -7.13591894531250000000e+03) (21, -6.47160888671875000000e+03) (22, -5.54334716796875000000e+03) (23, -5.74877136230468750000e+02) (24, -1.11854187011718750000e+03) (25, -6.16291687011718750000e+02) (26, -5.30974316406250000000e+03) (27, -4.61102050781250000000e+03) (28, 4.29997280000000000000e+07) (29, -1.49585217285156250000e+03) (0, -1.60880328125000000000e+05) (1, -2.12009828125000000000e+05) (2, -2.81090812500000000000e+05) (3, -2.96825875000000000000e+05) (4, -8.36384765625000000000e+04) (5, -1.16035062500000000000e+05) (6, -3.00456473600000000000e+09) (7, -4.88818600000000000000e+06) (8, -6.92839111328125000000e+03) (9, -9.68626953125000000000e+03) (10, 3.61007695312500000000e+04) (11, 8.54816503906250000000e+03) (12, -1.85556406250000000000e+04) (13, -2.44177324218750000000e+04) (14, -1.39108300781250000000e+04) (15, -1.35039433593750000000e+04) (16, -1.53312783203125000000e+04) (17, -1.70111835937500000000e+04) (18, -1.55354272000000000000e+08) (19, -1.13115280000000000000e+07) (20, -1.60578974609375000000e+04) (21, -1.45656894531250000000e+04) (22, -1.24832949218750000000e+04) (23, -1.28074279785156250000e+03) (24, -2.54783715820312500000e+03) (25, -1.37988598632812500000e+03) (26, -1.19629912109375000000e+04) (27, -1.03855341796875000000e+04) (28, 9.63160480000000000000e+07) (29, -3.34934619140625000000e+03) (0, 6.17299865600000000000e+09) (1, 7.36669132800000000000e+09) (2, 9.46535731200000000000e+09) (3, 1.03187845120000000000e+10) (4, 3.80971776000000000000e+09) (5, 4.95142912000000000000e+09) (6, 8.46097316577280000000e+13) (7, 2.09514004480000000000e+11) (8, 6.49283392000000000000e+08) (9, 7.46481600000000000000e+08) (10, 4.50932320000000000000e+08) (11, 5.49215040000000000000e+08) (12, 1.09893414400000000000e+09) (13, 1.22715084800000000000e+09) (14, 9.50541248000000000000e+08) (15, 9.00968768000000000000e+08) (16, 9.95185856000000000000e+08) (17, 1.02153312000000000000e+09) (18, 4.69249818624000000000e+12) (19, 7.00093235200000000000e+11) (20, 1.00967974400000000000e+09) (21, 9.20255296000000000000e+08) (22, 6.59397888000000000000e+08) (23, 2.36541088000000000000e+08) (24, 2.32850976000000000000e+08) (25, 2.29011360000000000000e+08) (26, 7.00424512000000000000e+08) (27, 6.46233472000000000000e+08) (28, -6.47216129638400000000e+12) (29, 4.89223360000000000000e+08) (0, -1.28521671875000000000e+05) (1, -1.69405250000000000000e+05) (2, -2.24587796875000000000e+05) (3, -2.37155437500000000000e+05) (4, -6.68205156250000000000e+04) (5, -9.26991484375000000000e+04) (6, -2.40076672000000000000e+09) (7, -3.90647800000000000000e+06) (8, -5.53352929687500000000e+03) (9, -7.73622558593750000000e+03) (10, 2.88646015625000000000e+04) (11, 6.83783398437500000000e+03) (12, -1.48225263671875000000e+04) (13, -1.95000156250000000000e+04) (14, -1.11107675781250000000e+04) (15, -1.07868085937500000000e+04) (16, -1.22474687500000000000e+04) (17, -1.35890117187500000000e+04) (18, -1.24121208000000000000e+08) (19, -9.03188300000000000000e+06) (20, -1.28260703125000000000e+04) (21, -1.16354833984375000000e+04) (22, -9.97221484375000000000e+03) (23, -1.02284277343750000000e+03) (24, -2.03760217285156250000e+03) (25, -1.10001135253906250000e+03) (26, -9.55674121093750000000e+03) (27, -8.29677246093750000000e+03) (28, 7.64805280000000000000e+07) (29, -2.67279736328125000000e+03) (0, -7.55442236328125000000e+03) (1, -9.95992578125000000000e+03) (2, -1.32025439453125000000e+04) (3, -1.39382246093750000000e+04) (4, -3.92838720703125000000e+03) (5, -5.44998974609375000000e+03) (6, -1.41152976000000000000e+08) (7, -2.30681484375000000000e+05) (8, -3.22449859619140625000e+02) (9, -4.52849639892578125000e+02) (10, 1.70492089843750000000e+03) (11, 3.97710540771484375000e+02) (12, -8.69603149414062500000e+02) (13, -1.14165502929687500000e+03) (14, -6.50424621582031250000e+02) (15, -6.33061157226562500000e+02) (16, -7.18242980957031250000e+02) (17, -7.98348266601562500000e+02) (18, -7.29221950000000000000e+06) (19, -5.28723562500000000000e+05) (20, -7.52348937988281250000e+02) (21, -6.81507568359375000000e+02) (22, -5.83975830078125000000e+02) (23, -5.88938255310058593750e+01) (24, -1.21467666625976562500e+02) (25, -6.49958419799804687500e+01) (26, -5.61063354492187500000e+02) (27, -4.85492706298828125000e+02) (28, 4.70524800000000000000e+06) (29, -1.54408599853515625000e+02) (0, -4.16927734375000000000e+04) (1, -5.50040000000000000000e+04) (2, -7.28751328125000000000e+04) (3, -7.69409062500000000000e+04) (4, -2.16806914062500000000e+04) (5, -3.00747773437500000000e+04) (6, -7.79504768000000000000e+08) (7, -1.26744750000000000000e+06) (8, -1.78880261230468750000e+03) (9, -2.50645947265625000000e+03) (10, 9.41620507812500000000e+03) (11, 2.22315380859375000000e+03) (12, -4.80643457031250000000e+03) (13, -6.30675097656250000000e+03) (14, -3.59978222656250000000e+03) (15, -3.49574853515625000000e+03) (16, -3.96840893554687500000e+03) (17, -4.40690234375000000000e+03) (18, -4.02661840000000000000e+07) (19, -2.91789875000000000000e+06) (20, -4.15332421875000000000e+03) (21, -3.76968725585937500000e+03) (22, -3.23267846679687500000e+03) (23, -3.28143432617187500000e+02) (24, -6.67909729003906250000e+02) (25, -3.54179107666015625000e+02) (26, -3.09867211914062500000e+03) (27, -2.68978271484375000000e+03) (28, 2.47051040000000000000e+07) (29, -8.60676330566406250000e+02) (0, 6.17327104000000000000e+09) (1, 7.36705126400000000000e+09) (2, 9.46580275200000000000e+09) (3, 1.03192565760000000000e+10) (4, 3.80986137600000000000e+09) (5, 4.95162112000000000000e+09) (6, 8.46147144908800000000e+13) (7, 2.09521672192000000000e+11) (8, 6.49293952000000000000e+08) (9, 7.46497280000000000000e+08) (10, 4.50872352000000000000e+08) (11, 5.49204032000000000000e+08) (12, 1.09896371200000000000e+09) (13, 1.22719014400000000000e+09) (14, 9.50564480000000000000e+08) (15, 9.00991232000000000000e+08) (16, 9.95210624000000000000e+08) (17, 1.02156051200000000000e+09) (18, 4.69275351449600000000e+12) (19, 7.00112371712000000000e+11) (20, 1.00970604800000000000e+09) (21, 9.20278464000000000000e+08) (22, 6.59417856000000000000e+08) (23, 2.36543408000000000000e+08) (24, 2.32855264000000000000e+08) (25, 2.29013776000000000000e+08) (26, 7.00444032000000000000e+08) (27, 6.46249728000000000000e+08) (28, -6.47231805849600000000e+12) (29, 4.89229120000000000000e+08) (0, 6.17315225600000000000e+09) (1, 7.36690534400000000000e+09) (2, 9.46561843200000000000e+09) (3, 1.03190548480000000000e+10) (4, 3.80980428800000000000e+09) (5, 4.95153920000000000000e+09) (6, 8.46126005616640000000e+13) (7, 2.09518460928000000000e+11) (8, 6.49289216000000000000e+08) (9, 7.46491072000000000000e+08) (10, 4.50896960000000000000e+08) (11, 5.49210240000000000000e+08) (12, 1.09895129600000000000e+09) (13, 1.22717414400000000000e+09) (14, 9.50554624000000000000e+08) (15, 9.00981760000000000000e+08) (16, 9.95200384000000000000e+08) (17, 1.02154963200000000000e+09) (18, 4.69264603545600000000e+12) (19, 7.00104638464000000000e+11) (20, 1.00969542400000000000e+09) (21, 9.20269056000000000000e+08) (22, 6.59409664000000000000e+08) (23, 2.36542432000000000000e+08) (24, 2.32853488000000000000e+08) (25, 2.29012768000000000000e+08) (26, 7.00435840000000000000e+08) (27, 6.46242752000000000000e+08) (28, -6.47225304678400000000e+12) (29, 4.89226816000000000000e+08) (0, 6.17318963200000000000e+09) (1, 7.36695142400000000000e+09) (2, 9.46568601600000000000e+09) (3, 1.03191326720000000000e+10) (4, 3.80982220800000000000e+09) (5, 4.95156531200000000000e+09) (6, 8.46132716503040000000e+13) (7, 2.09519542272000000000e+11) (8, 6.49290688000000000000e+08) (9, 7.46493376000000000000e+08) (10, 4.50889344000000000000e+08) (11, 5.49207744000000000000e+08) (12, 1.09895488000000000000e+09) (13, 1.22717939200000000000e+09) (14, 9.50558016000000000000e+08) (15, 9.00984832000000000000e+08) (16, 9.95203648000000000000e+08) (17, 1.02155315200000000000e+09) (18, 4.69268221132800000000e+12) (19, 7.00107390976000000000e+11) (20, 1.00969913600000000000e+09) (21, 9.20272256000000000000e+08) (22, 6.59412608000000000000e+08) (23, 2.36542752000000000000e+08) (24, 2.32854080000000000000e+08) (25, 2.29013152000000000000e+08) (26, 7.00438656000000000000e+08) (27, 6.46245184000000000000e+08) (28, -6.47227454259200000000e+12) (29, 4.89227680000000000000e+08) (0, 6.16692992000000000000e+09) (1, 7.35869388800000000000e+09) (2, 9.45474867200000000000e+09) (3, 1.03075665920000000000e+10) (4, 3.80657689600000000000e+09) (5, 4.94704947200000000000e+09) (6, 8.44961415168000000000e+13) (7, 2.09329127424000000000e+11) (8, 6.49022336000000000000e+08) (9, 7.46116992000000000000e+08) (10, 4.52299424000000000000e+08) (11, 5.49542144000000000000e+08) (12, 1.09823769600000000000e+09) (13, 1.22622924800000000000e+09) (14, 9.50016320000000000000e+08) (15, 9.00459328000000000000e+08) (16, 9.94609984000000000000e+08) (17, 1.02089363200000000000e+09) (18, 4.68662983065600000000e+12) (19, 6.99667578880000000000e+11) (20, 1.00907673600000000000e+09) (21, 9.19709376000000000000e+08) (22, 6.58926400000000000000e+08) (23, 2.36493232000000000000e+08) (24, 2.32754240000000000000e+08) (25, 2.28959680000000000000e+08) (26, 6.99974400000000000000e+08) (27, 6.45842240000000000000e+08) (28, -6.46853951488000000000e+12) (29, 4.89097536000000000000e+08) (0, 6.17301964800000000000e+09) (1, 7.36671897600000000000e+09) (2, 9.46538803200000000000e+09) (3, 1.03188162560000000000e+10) (4, 3.80973056000000000000e+09) (5, 4.95144192000000000000e+09) (6, 8.46100252590080000000e+13) (7, 2.09514545152000000000e+11) (8, 6.49284032000000000000e+08) (9, 7.46482688000000000000e+08) (10, 4.50926432000000000000e+08) (11, 5.49214912000000000000e+08) (12, 1.09893619200000000000e+09) (13, 1.22715392000000000000e+09) (14, 9.50543040000000000000e+08) (15, 9.00970240000000000000e+08) (16, 9.95187648000000000000e+08) (17, 1.02153529600000000000e+09) (18, 4.69251758489600000000e+12) (19, 7.00094545920000000000e+11) (20, 1.00968166400000000000e+09) (21, 9.20257344000000000000e+08) (22, 6.59399296000000000000e+08) (23, 2.36541216000000000000e+08) (24, 2.32851184000000000000e+08) (25, 2.29011504000000000000e+08) (26, 7.00426048000000000000e+08) (27, 6.46234624000000000000e+08) (28, -6.47217283072000000000e+12) (29, 4.89223680000000000000e+08) (0, 6.17308672000000000000e+09) (1, 7.36680960000000000000e+09) (2, 9.46549248000000000000e+09) (3, 1.03189268480000000000e+10) (4, 3.80976614400000000000e+09) (5, 4.95148902400000000000e+09) (6, 8.46111828869120000000e+13) (7, 2.09516429312000000000e+11) (8, 6.49286464000000000000e+08) (9, 7.46486784000000000000e+08) (10, 4.50912832000000000000e+08) (11, 5.49214016000000000000e+08) (12, 1.09894323200000000000e+09) (13, 1.22716326400000000000e+09) (14, 9.50548608000000000000e+08) (15, 9.00975808000000000000e+08) (16, 9.95194176000000000000e+08) (17, 1.02154220800000000000e+09) (18, 4.69257945088000000000e+12) (19, 7.00099264512000000000e+11) (20, 1.00968819200000000000e+09) (21, 9.20262912000000000000e+08) (22, 6.59404416000000000000e+08) (23, 2.36541872000000000000e+08) (24, 2.32852336000000000000e+08) (25, 2.29012176000000000000e+08) (26, 7.00430400000000000000e+08) (27, 6.46238208000000000000e+08) (28, -6.47221057945600000000e+12) (29, 4.89225248000000000000e+08) (0, 6.17176422400000000000e+09) (1, 7.36507801600000000000e+09) (2, 9.46321203200000000000e+09) (3, 1.03165122560000000000e+10) (4, 3.80908134400000000000e+09) (5, 4.95052902400000000000e+09) (6, 8.45867468718080000000e+13) (7, 2.09476435968000000000e+11) (8, 6.49230464000000000000e+08) (9, 7.46408832000000000000e+08) (10, 4.51212480000000000000e+08) (11, 5.49282752000000000000e+08) (12, 1.09879372800000000000e+09) (13, 1.22696640000000000000e+09) (14, 9.50434112000000000000e+08) (15, 9.00865088000000000000e+08) (16, 9.95068800000000000000e+08) (17, 1.02140185600000000000e+09) (18, 4.69131277107200000000e+12) (19, 7.00007841792000000000e+11) (20, 1.00955788800000000000e+09) (21, 9.20145472000000000000e+08) (22, 6.59303040000000000000e+08) (23, 2.36531504000000000000e+08) (24, 2.32831456000000000000e+08) (25, 2.29000928000000000000e+08) (26, 7.00334016000000000000e+08) (27, 6.46154112000000000000e+08) (28, -6.47142834176000000000e+12) (29, 4.89197760000000000000e+08) (30, -4.17007088661193847656e-01) (31, 9.96816875000000000000e+04) (32, 2.98626065254211425781e-01) (33, 9.96675156250000000000e+04) (34, 9.96812109375000000000e+04) (35, -7.28653252124786376953e-01) (36, 9.96809531250000000000e+04) (37, 7.42683887481689453125e-01) (38, 9.96817734375000000000e+04) (39, 4.82449650764465332031e-01) (40, 9.96819375000000000000e+04) (41, 9.96813593750000000000e+04) (42, 9.96806796875000000000e+04) (43, 9.96821484375000000000e+04) (44, 9.96816562500000000000e+04) (45, 9.96813437500000000000e+04) (46, 9.96818281250000000000e+04) (47, 9.96814140625000000000e+04) (48, 9.96823515625000000000e+04) (49, 9.96820625000000000000e+04) (50, -4.61769223213195800781e-01) (51, 9.96818906250000000000e+04) (52, 9.96816328125000000000e+04) (53, 9.96806796875000000000e+04) (54, 9.96806171875000000000e+04) (55, -5.06387501955032348633e-02) (56, 9.96819218750000000000e+04) (57, 9.96821796875000000000e+04) (58, -3.80400598049163818359e-01) (59, 5.81917762756347656250e-01) (60, 9.96807578125000000000e+04) (61, 9.96697265625000000000e+04) (62, -5.93634724617004394531e-01) (63, 9.96817187500000000000e+04) (64, 4.81197191402316093445e-03) (65, 7.64567031250000000000e+04) (66, 9.96814687500000000000e+04) (67, 9.96814531250000000000e+04) (68, 9.96820390625000000000e+04) (69, 9.96804218750000000000e+04) (70, 9.96817890625000000000e+04) (71, 9.96801093750000000000e+04) (72, 9.96367187500000000000e+04) (73, 9.96808828125000000000e+04) (74, 9.96756406250000000000e+04) (75, -3.81381571292877197266e-01) (76, -2.91058242321014404297e-01) (77, 9.96809062500000000000e+04) (78, -3.10231924057006835938e-01) (79, -1.03585317730903625488e-01) (80, 7.26683139801025390625e-02) (81, 9.96812656250000000000e+04) (82, 9.96808359375000000000e+04) (83, 9.96820078125000000000e+04) (84, 9.96647734375000000000e+04) (85, 9.96815703125000000000e+04) (86, 9.96809609375000000000e+04) (87, 9.96769609375000000000e+04) (88, 9.96816015625000000000e+04) (30, 9.52930569648742675781e-01) (31, -1.71638357639312744141e+00) (32, 1.47902369499206542969e-01) (33, -5.12344598770141601562e-01) (34, -1.09090670943260192871e-01) (35, 9.43995416164398193359e-02) (36, -7.28451251983642578125e-01) (37, -5.90161561965942382812e-01) (38, -5.48078119754791259766e-01) (39, -3.45867931842803955078e-01) (40, -1.65490007400512695312e+00) (41, -1.92709684371948242188e-01) (42, -4.58834648132324218750e-01) (43, -3.75751703977584838867e-01) (44, -3.42307865619659423828e-01) (45, -9.81632888317108154297e-01) (46, -7.61893153190612792969e-01) (47, -1.67716157436370849609e+00) (48, -6.07781708240509033203e-02) (49, -1.26067221164703369141e+00) (50, -1.33721500635147094727e-01) (51, -4.52444165945053100586e-01) (52, -1.28449904918670654297e+00) (53, -1.63415563106536865234e+00) (54, -1.37366259098052978516e+00) (55, 6.66089475154876708984e-01) (56, -5.84047794342041015625e-01) (57, -1.80877792835235595703e+00) (58, -7.09676563739776611328e-01) (59, 5.53386211395263671875e-01) (60, -1.04358685016632080078e+00) (61, 3.11063528060913085938e-01) (62, 4.95571017265319824219e-01) (63, -7.22322762012481689453e-01) (64, -2.22899839282035827637e-01) (65, 5.54431486129760742188e+00) (66, -1.75615847110748291016e+00) (67, -1.16339981555938720703e+00) (68, -1.55083632469177246094e+00) (69, -9.44011688232421875000e-01) (70, -1.29955112934112548828e+00) (71, -9.20386791229248046875e-01) (72, -9.63125884532928466797e-01) (73, -1.37253177165985107422e+00) (74, -5.31357049942016601562e-01) (75, -1.96052491664886474609e-01) (76, 3.25655221939086914062e-01) (77, -1.55454444885253906250e+00) (78, -1.15608125925064086914e-01) (79, -3.76285344362258911133e-01) (80, 6.33319616317749023438e-02) (81, -1.45234119892120361328e+00) (82, 1.20892584323883056641e-01) (83, -1.57975745201110839844e+00) (84, -1.39854252338409423828e+00) (85, -6.20221078395843505859e-01) (86, -1.75930416584014892578e+00) (87, 2.20880493521690368652e-01) (88, -2.24009275436401367188e-01) (30, -5.87268471717834472656e-01) (31, 9.97635703125000000000e+04) (32, 6.33071362972259521484e-01) (33, 9.97483750000000000000e+04) (34, 9.97637031250000000000e+04) (35, -6.34059131145477294922e-01) (36, 9.97622500000000000000e+04) (37, -9.40321326255798339844e-01) (38, 9.97630546875000000000e+04) (39, 4.28501129150390625000e-01) (40, 9.97632500000000000000e+04) (41, 9.97634453125000000000e+04) (42, 9.97630546875000000000e+04) (43, 9.97631171875000000000e+04) (44, 9.97632578125000000000e+04) (45, 9.97622421875000000000e+04) (46, 9.97624296875000000000e+04) (47, 9.97626796875000000000e+04) (48, 9.97629140625000000000e+04) (49, 9.97630859375000000000e+04) (50, -3.97414088249206542969e-01) (51, 9.97622578125000000000e+04) (52, 9.97639609375000000000e+04) (53, 9.97632187500000000000e+04) (54, 9.97621953125000000000e+04) (55, 3.38379144668579101562e-01) (56, 9.97635937500000000000e+04) (57, 9.97638203125000000000e+04) (58, -1.82085692882537841797e-01) (59, -5.03666341304779052734e-01) (60, 9.97622812500000000000e+04) (61, 9.97513437500000000000e+04) (62, -7.32511997222900390625e-01) (63, 9.97640000000000000000e+04) (64, -9.84975934028625488281e-01) (65, 7.64966640625000000000e+04) (66, 9.97624062500000000000e+04) (67, 9.97637421875000000000e+04) (68, 9.97626875000000000000e+04) (69, 9.97613359375000000000e+04) (70, 9.97628593750000000000e+04) (71, 9.97615000000000000000e+04) (72, 9.97169218750000000000e+04) (73, 9.97634062500000000000e+04) (74, 9.97565703125000000000e+04) (75, -2.09982991218566894531e-01) (76, -8.28975319862365722656e-01) (77, 9.97631875000000000000e+04) (78, 6.00853502750396728516e-01) (79, -7.47293412685394287109e-01) (80, -1.71217143535614013672e-01) (81, 9.97637421875000000000e+04) (82, 9.97639140625000000000e+04) (83, 9.97636015625000000000e+04) (84, 9.97474843750000000000e+04) (85, 9.97619218750000000000e+04) (86, 9.97638359375000000000e+04) (87, 9.97585781250000000000e+04) (88, 9.97621484375000000000e+04) (30, -6.46196484565734863281e-01) (31, 9.97114375000000000000e+04) (32, -2.54513025283813476562e-01) (33, 9.96979218750000000000e+04) (34, 9.97118828125000000000e+04) (35, 4.50801461935043334961e-01) (36, 9.97109687500000000000e+04) (37, 1.52123808860778808594e-01) (38, 9.97126171875000000000e+04) (39, 2.76512503623962402344e-01) (40, 9.97115078125000000000e+04) (41, 9.97124140625000000000e+04) (42, 9.97123203125000000000e+04) (43, 9.97122031250000000000e+04) (44, 9.97116875000000000000e+04) (45, 9.97119687500000000000e+04) (46, 9.97115859375000000000e+04) (47, 9.97115000000000000000e+04) (48, 9.97124765625000000000e+04) (49, 9.97116640625000000000e+04) (50, -8.16005110740661621094e-01) (51, 9.97126640625000000000e+04) (52, 9.97117187500000000000e+04) (53, 9.97125078125000000000e+04) (54, 9.97123515625000000000e+04) (55, 2.49440163373947143555e-01) (56, 9.97127656250000000000e+04) (57, 9.97111328125000000000e+04) (58, -6.76510334014892578125e-01) (59, 2.84367203712463378906e-01) (60, 9.97126171875000000000e+04) (61, 9.97000937500000000000e+04) (62, -6.14901185035705566406e-02) (63, 9.97119218750000000000e+04) (64, -8.54476213455200195312e-01) (65, 7.64791171875000000000e+04) (66, 9.97112265625000000000e+04) (67, 9.97122500000000000000e+04) (68, 9.97118593750000000000e+04) (69, 9.97112031250000000000e+04) (70, 9.97121093750000000000e+04) (71, 9.97119687500000000000e+04) (72, 9.96682031250000000000e+04) (73, 9.97126718750000000000e+04) (74, 9.97073750000000000000e+04) (75, 4.60074067115783691406e-01) (76, -6.86135739088058471680e-02) (77, 9.97124609375000000000e+04) (78, 6.34690374135971069336e-03) (79, 5.42162179946899414062e-01) (80, -9.80172038078308105469e-01) (81, 9.97129531250000000000e+04) (82, 9.97122421875000000000e+04) (83, 9.97125234375000000000e+04) (84, 9.96962109375000000000e+04) (85, 9.97119296875000000000e+04) (86, 9.97112890625000000000e+04) (87, 9.97089843750000000000e+04) (88, 9.97119921875000000000e+04) (30, -4.94193494319915771484e-01) (31, 9.96835468750000000000e+04) (32, -9.35737133026123046875e-01) (33, 9.96710859375000000000e+04) (34, 9.96852265625000000000e+04) (35, -8.37950348854064941406e-01) (36, 9.96844765625000000000e+04) (37, -8.19506227970123291016e-01) (38, 9.96835156250000000000e+04) (39, 1.48013353347778320312e-01) (40, 9.96851015625000000000e+04) (41, 9.96843984375000000000e+04) (42, 9.96848359375000000000e+04) (43, 9.96849062500000000000e+04) (44, 9.96850781250000000000e+04) (45, 9.96853906250000000000e+04) (46, 9.96838828125000000000e+04) (47, 9.96834453125000000000e+04) (48, 9.96839296875000000000e+04) (49, 9.96845156250000000000e+04) (50, 2.11231335997581481934e-01) (51, 9.96838984375000000000e+04) (52, 9.96843437500000000000e+04) (53, 9.96837187500000000000e+04) (54, 9.96851796875000000000e+04) (55, 3.28801155090332031250e-01) (56, 9.96844296875000000000e+04) (57, 9.96852109375000000000e+04) (58, -8.39495003223419189453e-01) (59, -4.58249032497406005859e-01) (60, 9.96847500000000000000e+04) (61, 9.96724140625000000000e+04) (62, 4.73431706428527832031e-01) (63, 9.96846562500000000000e+04) (64, 8.59512463212013244629e-02) (65, 7.64470781250000000000e+04) (66, 9.96838906250000000000e+04) (67, 9.96849687500000000000e+04) (68, 9.96845078125000000000e+04) (69, 9.96828515625000000000e+04) (70, 9.96844921875000000000e+04) (71, 9.96848984375000000000e+04) (72, 9.96397343750000000000e+04) (73, 9.96842578125000000000e+04) (74, 9.96785703125000000000e+04) (75, -8.90374541282653808594e-01) (76, -6.24347209930419921875e-01) (77, 9.96837421875000000000e+04) (78, -3.58226001262664794922e-01) (79, -8.29797387123107910156e-01) (80, 7.97106444835662841797e-01) (81, 9.96851171875000000000e+04) (82, 9.96853437500000000000e+04) (83, 9.96848671875000000000e+04) (84, 9.96693515625000000000e+04) (85, 9.96836718750000000000e+04) (86, 9.96842109375000000000e+04) (87, 9.96807421875000000000e+04) (88, 9.96849218750000000000e+04) (30, -2.75413036346435546875e-01) (31, 9.93991953125000000000e+04) (32, 7.15983748435974121094e-01) (33, 9.93893906250000000000e+04) (34, 9.93985546875000000000e+04) (35, 5.10535240173339843750e-01) (36, 9.93989921875000000000e+04) (37, 2.84427165985107421875e-01) (38, 9.94001953125000000000e+04) (39, 8.76740336418151855469e-01) (40, 9.94003203125000000000e+04) (41, 9.93982812500000000000e+04) (42, 9.94001718750000000000e+04) (43, 9.93984921875000000000e+04) (44, 9.93991406250000000000e+04) (45, 9.93989218750000000000e+04) (46, 9.94001171875000000000e+04) (47, 9.93984687500000000000e+04) (48, 9.93997500000000000000e+04) (49, 9.93995703125000000000e+04) (50, 2.57353305816650390625e-01) (51, 9.93988593750000000000e+04) (52, 9.94000781250000000000e+04) (53, 9.93983046875000000000e+04) (54, 9.93994453125000000000e+04) (55, 4.66465950012207031250e-03) (56, 9.93997187500000000000e+04) (57, 9.93989687500000000000e+04) (58, -6.15951895713806152344e-01) (59, -8.50242078304290771484e-01) (60, 9.93995937500000000000e+04) (61, 9.93919765625000000000e+04) (62, -5.24626791477203369141e-01) (63, 9.93989218750000000000e+04) (64, 2.62218624353408813477e-01) (65, 7.63279843750000000000e+04) (66, 9.93984140625000000000e+04) (67, 9.94000546875000000000e+04) (68, 9.94001250000000000000e+04) (69, 9.93980859375000000000e+04) (70, 9.93983359375000000000e+04) (71, 9.93986796875000000000e+04) (72, 9.93631484375000000000e+04) (73, 9.93986640625000000000e+04) (74, 9.93958671875000000000e+04) (75, 4.14617657661437988281e-01) (76, -4.23182398080825805664e-01) (77, 9.93986718750000000000e+04) (78, -1.12926936149597167969e+00) (79, 5.33732771873474121094e-01) (80, 1.16441398859024047852e-02) (81, 9.93993593750000000000e+04) (82, 9.93993437500000000000e+04) (83, 9.93986171875000000000e+04) (84, 9.93878984375000000000e+04) (85, 9.94000625000000000000e+04) (86, 9.93994453125000000000e+04) (87, 9.93975703125000000000e+04) (88, 9.93990156250000000000e+04) (30, 8.46101045608520507812e-02) (31, 9.96746796875000000000e+04) (32, 3.40828418731689453125e-01) (33, 9.96614453125000000000e+04) (34, 9.96761640625000000000e+04) (35, -8.04718613624572753906e-01) (36, 9.96764765625000000000e+04) (37, 2.28027105331420898438e-01) (38, 9.96751171875000000000e+04) (39, -5.88946104049682617188e-01) (40, 9.96751328125000000000e+04) (41, 9.96749921875000000000e+04) (42, 9.96750703125000000000e+04) (43, 9.96759921875000000000e+04) (44, 9.96743828125000000000e+04) (45, 9.96756953125000000000e+04) (46, 9.96751953125000000000e+04) (47, 9.96762109375000000000e+04) (48, 9.96762734375000000000e+04) (49, 9.96749921875000000000e+04) (50, 6.86815202236175537109e-01) (51, 9.96756171875000000000e+04) (52, 9.96760234375000000000e+04) (53, 9.96748359375000000000e+04) (54, 9.96748515625000000000e+04) (55, 6.43326938152313232422e-01) (56, 9.96761015625000000000e+04) (57, 9.96762578125000000000e+04) (58, 5.28475582599639892578e-01) (59, -5.33568859100341796875e-03) (60, 9.96761015625000000000e+04) (61, 9.96642734375000000000e+04) (62, -9.65399980545043945312e-01) (63, 9.96745234375000000000e+04) (64, 1.24412225559353828430e-02) (65, 7.64662109375000000000e+04) (66, 9.96755859375000000000e+04) (67, 9.96747421875000000000e+04) (68, 9.96754921875000000000e+04) (69, 9.96747734375000000000e+04) (70, 9.96761171875000000000e+04) (71, 9.96748828125000000000e+04) (72, 9.96335546875000000000e+04) (73, 9.96758359375000000000e+04) (74, 9.96715390625000000000e+04) (75, 3.43069672584533691406e-01) (76, -8.10305774211883544922e-01) (77, 9.96764765625000000000e+04) (78, -7.64983236789703369141e-01) (79, -2.97925740480422973633e-01) (80, -5.40502429008483886719e-01) (81, 9.96763515625000000000e+04) (82, 9.96745546875000000000e+04) (83, 9.96749296875000000000e+04) (84, 9.96596640625000000000e+04) (85, 9.96746484375000000000e+04) (86, 9.96749921875000000000e+04) (87, 9.96731171875000000000e+04) (88, 9.96747109375000000000e+04) (30, -4.40676450729370117188e-01) (31, 9.92371171875000000000e+04) (32, 3.93372356891632080078e-01) (33, 9.92285703125000000000e+04) (34, 9.92372890625000000000e+04) (35, 6.35927796363830566406e-01) (36, 9.92362109375000000000e+04) (37, 3.14470291137695312500e-01) (38, 9.92367265625000000000e+04) (39, -8.71990501880645751953e-01) (40, 9.92373828125000000000e+04) (41, 9.92371796875000000000e+04) (42, 9.92363203125000000000e+04) (43, 9.92357578125000000000e+04) (44, 9.92360078125000000000e+04) (45, 9.92356953125000000000e+04) (46, 9.92356640625000000000e+04) (47, 9.92366953125000000000e+04) (48, 9.92360078125000000000e+04) (49, 9.92369453125000000000e+04) (50, -9.05373990535736083984e-02) (51, 9.92363046875000000000e+04) (52, 9.92355390625000000000e+04) (53, 9.92367578125000000000e+04) (54, 9.92362109375000000000e+04) (55, -8.21878790855407714844e-01) (56, 9.92361171875000000000e+04) (57, 9.92363359375000000000e+04) (58, 2.29552775621414184570e-01) (59, 5.55891990661621093750e-01) (60, 9.92358046875000000000e+04) (61, 9.92308671875000000000e+04) (62, -5.45657515525817871094e-01) (63, 9.92363515625000000000e+04) (64, -7.23322689533233642578e-01) (65, 7.62751406250000000000e+04) (66, 9.92371484375000000000e+04) (67, 9.92359921875000000000e+04) (68, 9.92360390625000000000e+04) (69, 9.92366328125000000000e+04) (70, 9.92356328125000000000e+04) (71, 9.92361015625000000000e+04) (72, 9.92042265625000000000e+04) (73, 9.92367734375000000000e+04) (74, 9.92345703125000000000e+04) (75, -4.19354021549224853516e-01) (76, -5.71450516581535339355e-02) (77, 9.92354609375000000000e+04) (78, -1.15463292598724365234e+00) (79, 6.43721461296081542969e-01) (80, -2.38395109772682189941e-01) (81, 9.92363359375000000000e+04) (82, 9.92365859375000000000e+04) (83, 9.92359453125000000000e+04) (84, 9.92273984375000000000e+04) (85, 9.92366640625000000000e+04) (86, 9.92369453125000000000e+04) (87, 9.92354921875000000000e+04) (88, 9.92363671875000000000e+04) (30, -5.23165404796600341797e-01) (31, 9.96906484375000000000e+04) (32, -6.56704366207122802734e-01) (33, 9.96758750000000000000e+04) (34, 9.96913203125000000000e+04) (35, 3.91545832157135009766e-01) (36, 9.96904687500000000000e+04) (37, -2.30751693248748779297e-01) (38, 9.96910468750000000000e+04) (39, -7.55409479141235351562e-01) (40, 9.96909531250000000000e+04) (41, 9.96905937500000000000e+04) (42, 9.96910781250000000000e+04) (43, 9.96897187500000000000e+04) (44, 9.96896171875000000000e+04) (45, 9.96896875000000000000e+04) (46, 9.96907968750000000000e+04) (47, 9.96907968750000000000e+04) (48, 9.96903593750000000000e+04) (49, 9.96898984375000000000e+04) (50, -6.28349244594573974609e-01) (51, 9.96900312500000000000e+04) (52, 9.96905156250000000000e+04) (53, 9.96903671875000000000e+04) (54, 9.96909843750000000000e+04) (55, -1.57808363437652587891e-01) (56, 9.96907265625000000000e+04) (57, 9.96910078125000000000e+04) (58, -8.56386005878448486328e-01) (59, -4.63877081871032714844e-01) (60, 9.96903906250000000000e+04) (61, 9.96797812500000000000e+04) (62, -3.64942729473114013672e-01) (63, 9.96903437500000000000e+04) (64, 4.33710843324661254883e-01) (65, 7.64805390625000000000e+04) (66, 9.96895703125000000000e+04) (67, 9.96902500000000000000e+04) (68, 9.96904765625000000000e+04) (69, 9.96889843750000000000e+04) (70, 9.96914921875000000000e+04) (71, 9.96896640625000000000e+04) (72, 9.96471328125000000000e+04) (73, 9.96899687500000000000e+04) (74, 9.96862812500000000000e+04) (75, -2.57615298032760620117e-01) (76, -7.26046085357666015625e-01) (77, 9.96905390625000000000e+04) (78, 9.87930446863174438477e-02) (79, 9.00028645992279052734e-01) (80, 4.32564109563827514648e-01) (81, 9.96907812500000000000e+04) (82, 9.96914453125000000000e+04) (83, 9.96907578125000000000e+04) (84, 9.96758828125000000000e+04) (85, 9.96908984375000000000e+04) (86, 9.96906328125000000000e+04) (87, 9.96867500000000000000e+04) (88, 9.96901328125000000000e+04) (30, -6.11518979072570800781e-01) (31, 9.96867890625000000000e+04) (32, -6.02063655853271484375e-01) (33, 9.96715625000000000000e+04) (34, 9.96852421875000000000e+04) (35, 2.73290872573852539062e-01) (36, 9.96864062500000000000e+04) (37, 2.96981930732727050781e-01) (38, 9.96855781250000000000e+04) (39, -9.88938748836517333984e-01) (40, 9.96848906250000000000e+04) (41, 9.96852734375000000000e+04) (42, 9.96851796875000000000e+04) (43, 9.96862578125000000000e+04) (44, 9.96846250000000000000e+04) (45, 9.96863203125000000000e+04) (46, 9.96860234375000000000e+04) (47, 9.96850625000000000000e+04) (48, 9.96855859375000000000e+04) (49, 9.96858046875000000000e+04) (50, -6.94113314151763916016e-01) (51, 9.96864609375000000000e+04) (52, 9.96861093750000000000e+04) (53, 9.96862421875000000000e+04) (54, 9.96850546875000000000e+04) (55, -8.83204281330108642578e-01) (56, 9.96861796875000000000e+04) (57, 9.96848359375000000000e+04) (58, -5.07048547267913818359e-01) (59, 3.77894639968872070312e-01) (60, 9.96844843750000000000e+04) (61, 9.96737734375000000000e+04) (62, -5.21633803844451904297e-01) (63, 9.96862968750000000000e+04) (64, -4.38329041004180908203e-01) (65, 7.64443281250000000000e+04) (66, 9.96844453125000000000e+04) (67, 9.96865468750000000000e+04) (68, 9.96866953125000000000e+04) (69, 9.96849218750000000000e+04) (70, 9.96860234375000000000e+04) (71, 9.96859140625000000000e+04) (72, 9.96425000000000000000e+04) (73, 9.96865000000000000000e+04) (74, 9.96810859375000000000e+04) (75, 3.75084161758422851562e-01) (76, 1.28405845165252685547e+00) (77, 9.96853906250000000000e+04) (78, 4.41677570343017578125e-01) (79, -5.30188322067260742188e-01) (80, -4.16612446308135986328e-01) (81, 9.96849453125000000000e+04) (82, 9.96856015625000000000e+04) (83, 9.96857734375000000000e+04) (84, 9.96697812500000000000e+04) (85, 9.96854765625000000000e+04) (86, 9.96855781250000000000e+04) (87, 9.96823750000000000000e+04) (88, 9.96859296875000000000e+04) (30, 3.96287918090820312500e-01) (31, -1.71154594421386718750e+01) (32, -8.05659711360931396484e-01) (33, -1.69436321258544921875e+01) (34, -1.88464336395263671875e+01) (35, 8.50122347474098205566e-02) (36, -1.83643341064453125000e+01) (37, 9.28463101387023925781e-01) (38, -1.84553756713867187500e+01) (39, 9.95774865150451660156e-01) (40, -1.84412574768066406250e+01) (41, -1.82420730590820312500e+01) (42, -1.68071174621582031250e+01) (43, -1.83752384185791015625e+01) (44, -1.71975421905517578125e+01) (45, -1.82037258148193359375e+01) (46, -1.68183326721191406250e+01) (47, -1.87853775024414062500e+01) (48, -1.77586803436279296875e+01) (49, -1.81743259429931640625e+01) (50, -8.83570551872253417969e-01) (51, -1.71590919494628906250e+01) (52, -1.74647464752197265625e+01) (53, -1.89185504913330078125e+01) (54, -1.86170711517333984375e+01) (55, 8.47637951374053955078e-01) (56, -1.75819911956787109375e+01) (57, -1.83730754852294921875e+01) (58, -5.01089453697204589844e-01) (59, 9.12578463554382324219e-01) (60, -1.81132240295410156250e+01) (61, -1.70731506347656250000e+01) (62, 6.30848050117492675781e-01) (63, -1.90315074920654296875e+01) (64, -1.02567172050476074219e+00) (65, -4.64046955108642578125e+00) (66, -1.68665828704833984375e+01) (67, -1.72684307098388671875e+01) (68, -1.89468555450439453125e+01) (69, -1.76026000976562500000e+01) (70, -1.76301708221435546875e+01) (71, -1.72937068939208984375e+01) (72, -1.69198112487792968750e+01) (73, -1.74287624359130859375e+01) (74, -1.67970867156982421875e+01) (75, 2.64057397842407226562e-01) (76, 2.33654361218214035034e-02) (77, -1.84975624084472656250e+01) (78, -6.36473521590232849121e-02) (79, 6.22086346149444580078e-01) (80, -6.56606256961822509766e-01) (81, -1.85651969909667968750e+01) (82, -1.78204040527343750000e+01) (83, -1.84102516174316406250e+01) (84, -1.68928432464599609375e+01) (85, -1.78306484222412109375e+01) (86, -1.89598026275634765625e+01) (87, -1.80825576782226562500e+01) (88, -1.82204074859619140625e+01) (30, 6.92080020904541015625e-01) (31, 9.76284375000000000000e+04) (32, -6.53541982173919677734e-01) (33, 9.76283125000000000000e+04) (34, 9.76292656250000000000e+04) (35, -1.12113046646118164062e+00) (36, 9.76282578125000000000e+04) (37, -5.79528450965881347656e-01) (38, 9.76282968750000000000e+04) (39, 1.74923181533813476562e-01) (40, 9.76283125000000000000e+04) (41, 9.76292890625000000000e+04) (42, 9.76291796875000000000e+04) (43, 9.76294140625000000000e+04) (44, 9.76289531250000000000e+04) (45, 9.76288828125000000000e+04) (46, 9.76285859375000000000e+04) (47, 9.76293281250000000000e+04) (48, 9.76284921875000000000e+04) (49, 9.76289531250000000000e+04) (50, 1.66090786457061767578e-01) (51, 9.76287734375000000000e+04) (52, 9.76282500000000000000e+04) (53, 9.76289218750000000000e+04) (54, 9.76294921875000000000e+04) (55, 2.05053150653839111328e-01) (56, 9.76280468750000000000e+04) (57, 9.76278515625000000000e+04) (58, 5.42027294635772705078e-01) (59, 3.33109378814697265625e-01) (60, 9.76295546875000000000e+04) (61, 9.76290859375000000000e+04) (62, 8.34155559539794921875e-01) (63, 9.76289453125000000000e+04) (64, -3.68956416845321655273e-01) (65, 7.54839296875000000000e+04) (66, 9.76300781250000000000e+04) (67, 9.76280625000000000000e+04) (68, 9.76282343750000000000e+04) (69, 9.76290546875000000000e+04) (70, 9.76290468750000000000e+04) (71, 9.76287109375000000000e+04) (72, 9.76200859375000000000e+04) (73, 9.76289687500000000000e+04) (74, 9.76290156250000000000e+04) (75, -9.71055507659912109375e-01) (76, -8.66321980953216552734e-01) (77, 9.76279453125000000000e+04) (78, -1.51130795478820800781e-01) (79, -2.68525183200836181641e-01) (80, 1.62688672542572021484e-01) (81, 9.76294609375000000000e+04) (82, 9.76281093750000000000e+04) (83, 9.76297656250000000000e+04) (84, 9.76287500000000000000e+04) (85, 9.76283593750000000000e+04) (86, 9.76286406250000000000e+04) (87, 9.76284296875000000000e+04) (88, 9.76282890625000000000e+04) (89, 7.60172485351562500000e+02) (90, -5.94951093196868896484e-01) (91, 7.61065002441406250000e+02) (92, 7.59646301269531250000e+02) (93, 7.61538757324218750000e+02) (94, 7.55710266113281250000e+02) (95, 7.58561462402343750000e+02) (96, 7.50865600585937500000e+02) (97, 7.57953674316406250000e+02) (98, 7.61812072753906250000e+02) (99, -6.73924148082733154297e-01) (100, 7.31823852539062500000e+02) (101, 7.61446960449218750000e+02) (89, 9.69545245170593261719e-02) (90, -5.45139968395233154297e-01) (91, 2.72448599338531494141e-01) (92, 2.31077134609222412109e-01) (93, 1.02718925476074218750e+00) (94, -8.38139176368713378906e-01) (95, 1.03942203521728515625e+00) (96, -3.35100483894348144531e+00) (97, 7.96612799167633056641e-01) (98, -3.38169097900390625000e-01) (99, 3.74681442975997924805e-01) (100, -6.53827264904975891113e-02) (101, 1.12902212142944335938e+00) (89, 2.88251429796218872070e-01) (90, 8.29899311065673828125e-01) (91, 1.00256240367889404297e+00) (92, -3.13975185155868530273e-01) (93, 1.05774533748626708984e+00) (94, -1.00584554672241210938e+00) (95, -3.51227551698684692383e-01) (96, -1.91402280330657958984e+00) (97, 1.40718734264373779297e+00) (98, -7.07099735736846923828e-02) (99, 9.71165299415588378906e-01) (100, -1.41954615712165832520e-01) (101, 4.19900864362716674805e-02) (89, -8.27912986278533935547e-02) (90, 4.94997687637805938721e-02) (91, 9.99510407447814941406e-01) (92, 5.56523501873016357422e-01) (93, 4.26199972629547119141e-01) (94, -1.34963858127593994141e+00) (95, -3.55824381113052368164e-01) (96, -3.05568265914916992188e+00) (97, 1.13272532820701599121e-01) (98, 2.41333976387977600098e-01) (99, -2.61922717094421386719e-01) (100, 5.15327118337154388428e-02) (101, -5.39300322532653808594e-01) (89, -3.17477587890625000000e+03) (90, -6.33663237094879150391e-01) (91, -3.17607226562500000000e+03) (92, -3.17585717773437500000e+03) (93, -3.17549072265625000000e+03) (94, -3.17003857421875000000e+03) (95, -3.17420874023437500000e+03) (96, -3.16902270507812500000e+03) (97, -3.17530200195312500000e+03) (98, -3.17511621093750000000e+03) (99, 3.53959798812866210938e-01) (100, -3.14508129882812500000e+03) (101, -3.17642724609375000000e+03) (89, -3.08121777343750000000e+03) (90, 5.32101452350616455078e-01) (91, -3.08231616210937500000e+03) (92, -3.08122705078125000000e+03) (93, -3.08025585937500000000e+03) (94, -3.07792846679687500000e+03) (95, -3.08201171875000000000e+03) (96, -3.07479443359375000000e+03) (97, -3.08149145507812500000e+03) (98, -3.08061499023437500000e+03) (99, 5.33748753368854522705e-02) (100, -3.05104003906250000000e+03) (101, -3.08289794921875000000e+03) 
