FANN_FLO_2.1
num_layers=4
learning_rate=0.700000
connection_rate=1.000000
network_type=0
learning_momentum=0.000000
training_algorithm=2
train_error_function=1
train_stop_function=0
cascade_output_change_fraction=0.010000
quickprop_decay=-0.000100
quickprop_mu=1.750000
rprop_increase_factor=1.200000
rprop_decrease_factor=0.500000
rprop_delta_min=0.000000
rprop_delta_max=50.000000
rprop_delta_zero=0.100000
cascade_output_stagnation_epochs=12
cascade_candidate_change_fraction=0.010000
cascade_candidate_stagnation_epochs=12
cascade_max_out_epochs=150
cascade_min_out_epochs=50
cascade_max_cand_epochs=150
cascade_min_cand_epochs=50
cascade_num_candidate_groups=2
bit_fail_limit=3.49999994039535522461e-01
cascade_candidate_limit=1.00000000000000000000e+03
cascade_weight_multiplier=4.00000005960464477539e-01
cascade_activation_functions_count=10
cascade_activation_functions=3 5 7 8 10 11 14 15 16 17 
cascade_activation_steepnesses_count=4
cascade_activation_steepnesses=2.50000000000000000000e-01 5.00000000000000000000e-01 7.50000000000000000000e-01 1.00000000000000000000e+00 
layer_sizes=30 59 13 7 
scale_included=0
neurons (num_inputs, activation_function, activation_steepness)=(0, 0, 0.00000000000000000000e+00) (0, 0, 0.00000000000000000000e+00) (0, 0, 0.00000000000000000000e+00) (0, 0, 0.00000000000000000000e+00) (0, 0, 0.00000000000000000000e+00) (0, 0, 0.00000000000000000000e+00) (0, 0, 0.00000000000000000000e+00) (0, 0, 0.00000000000000000000e+00) (0, 0, 0.00000000000000000000e+00) (0, 0, 0.00000000000000000000e+00) (0, 0, 0.00000000000000000000e+00) (0, 0, 0.00000000000000000000e+00) (0, 0, 0.00000000000000000000e+00) (0, 0, 0.00000000000000000000e+00) (0, 0, 0.00000000000000000000e+00) (0, 0, 0.00000000000000000000e+00) (0, 0, 0.00000000000000000000e+00) (0, 0, 0.00000000000000000000e+00) (0, 0, 0.00000000000000000000e+00) (0, 0, 0.00000000000000000000e+00) (0, 0, 0.00000000000000000000e+00) (0, 0, 0.00000000000000000000e+00) (0, 0, 0.00000000000000000000e+00) (0, 0, 0.00000000000000000000e+00) (0, 0, 0.00000000000000000000e+00) (0, 0, 0.00000000000000000000e+00) (0, 0, 0.00000000000000000000e+00) (0, 0, 0.00000000000000000000e+00) (0, 0, 0.00000000000000000000e+00) (0, 0, 0.00000000000000000000e+00) (30, 4, 5.00000000000000000000e-01) (30, 4, 5.00000000000000000000e-01) (30, 4, 5.00000000000000000000e-01) (30, 4, 5.00000000000000000000e-01) (30, 4, 5.00000000000000000000e-01) (30, 4, 5.00000000000000000000e-01) (30, 4, 5.00000000000000000000e-01) (30, 4, 5.00000000000000000000e-01) (30, 4, 5.00000000000000000000e-01) (30, 4, 5.00000000000000000000e-01) (30, 4, 5.00000000000000000000e-01) (30, 4, 5.00000000000000000000e-01) (30, 4, 5.00000000000000000000e-01) (30, 4, 5.00000000000000000000e-01) (30, 4, 5.00000000000000000000e-01) (30, 4, 5.00000000000000000000e-01) (30, 4, 5.00000000000000000000e-01) (30, 4, 5.00000000000000000000e-01) (30, 4, 5.00000000000000000000e-01) (30, 4, 5.00000000000000000000e-01) (30, 4, 5.00000000000000000000e-01) (30, 4, 5.00000000000000000000e-01) (30, 4, 5.00000000000000000000e-01) (30, 4, 5.00000000000000000000e-01) (30, 4, 5.00000000000000000000e-01) (30, 4, 5.00000000000000000000e-01) (30, 4, 5.00000000000000000000e-01) (30, 4, 5.00000000000000000000e-01) (30, 4, 5.00000000000000000000e-01) (30, 4, 5.00000000000000000000e-01) (30, 4, 5.00000000000000000000e-01) (30, 4, 5.00000000000000000000e-01) (30, 4, 5.00000000000000000000e-01) (30, 4, 5.00000000000000000000e-01) (30, 4, 5.00000000000000000000e-01) (30, 4, 5.00000000000000000000e-01) (30, 4, 5.00000000000000000000e-01) (30, 4, 5.00000000000000000000e-01) (30, 4, 5.00000000000000000000e-01) (30, 4, 5.00000000000000000000e-01) (30, 4, 5.00000000000000000000e-01) (30, 4, 5.00000000000000000000e-01) (30, 4, 5.00000000000000000000e-01) (30, 4, 5.00000000000000000000e-01) (30, 4, 5.00000000000000000000e-01) (30, 4, 5.00000000000000000000e-01) (30, 4, 5.00000000000000000000e-01) (30, 4, 5.00000000000000000000e-01) (30, 4, 5.00000000000000000000e-01) (30, 4, 5.00000000000000000000e-01) (30, 4, 5.00000000000000000000e-01) (30, 4, 5.00000000000000000000e-01) (30, 4, 5.00000000000000000000e-01) (30, 4, 5.00000000000000000000e-01) (30, 4, 5.00000000000000000000e-01) (30, 4, 5.00000000000000000000e-01) (30, 4, 5.00000000000000000000e-01) (30, 4, 5.00000000000000000000e-01) (0, 0, 0.00000000000000000000e+00) (59, 4, 5.00000000000000000000e-01) (59, 4, 5.00000000000000000000e-01) (59, 4, 5.00000000000000000000e-01) (59, 4, 5.00000000000000000000e-01) (59, 4, 5.00000000000000000000e-01) (59, 4, 5.00000000000000000000e-01) (59, 4, 5.00000000000000000000e-01) (59, 4, 5.00000000000000000000e-01) (59, 4, 5.00000000000000000000e-01) (59, 4, 5.00000000000000000000e-01) (59, 4, 5.00000000000000000000e-01) (59, 4, 5.00000000000000000000e-01) (0, 0, 0.00000000000000000000e+00) (13, 4, 5.00000000000000000000e-01) (13, 4, 5.00000000000000000000e-01) (13, 4, 5.00000000000000000000e-01) (13, 4, 5.00000000000000000000e-01) (13, 4, 5.00000000000000000000e-01) (13, 4, 5.00000000000000000000e-01) (0, 0, 0.00000000000000000000e+00) 
connections (connected_to_neuron, weight)=(0, -1.87665437500000000000e+05) (1, -2.37081687500000000000e+05) (2, -3.03229093750000000000e+05) (3, -3.18382343750000000000e+05) (4, -1.13430203125000000000e+05) (5, -1.44632250000000000000e+05) (6, -2.89048294400000000000e+09) (7, -4.73508100000000000000e+06) (8, -3.96051445312500000000e+04) (9, -4.20388085937500000000e+04) (10, 2.24427421875000000000e+04) (11, -1.76955156250000000000e+04) (12, -5.09178359375000000000e+04) (13, -4.31841406250000000000e+04) (14, -4.64396757812500000000e+04) (15, -4.60581835937500000000e+04) (16, -4.78111875000000000000e+04) (17, -4.94348632812500000000e+04) (18, -1.49291792000000000000e+08) (19, -1.08244910000000000000e+07) (20, -4.61785585937500000000e+04) (21, -4.49292656250000000000e+04) (22, -3.32848828125000000000e+04) (23, -1.85039843750000000000e+04) (24, -1.90283398437500000000e+04) (25, -1.79105351562500000000e+04) (26, -4.12018359375000000000e+04) (27, -3.71294296875000000000e+04) (28, 9.17768560000000000000e+07) (29, -3.62853554687500000000e+04) (0, 9.62755543040000000000e+10) (1, 9.75775907840000000000e+10) (2, 9.94701639680000000000e+10) (3, 1.00570890240000000000e+11) (4, 9.39409571840000000000e+10) (5, 9.52036065280000000000e+10) (6, 8.46117113692160000000e+13) (7, 2.99711201280000000000e+11) (8, 9.04565473280000000000e+10) (9, 9.02873743360000000000e+10) (10, 5.03284572160000000000e+10) (11, 6.41792983040000000000e+10) (12, 9.13508433920000000000e+10) (13, 5.74058004480000000000e+10) (14, 9.12013967360000000000e+10) (15, 9.11524823040000000000e+10) (16, 9.12471162880000000000e+10) (17, 9.12734044160000000000e+10) (18, 4.77925684019200000000e+12) (19, 7.72079616000000000000e+11) (20, 8.40186593280000000000e+10) (21, 8.42957455360000000000e+10) (22, 6.49839370240000000000e+10) (23, 4.84163092480000000000e+10) (24, 4.53588336640000000000e+10) (25, 4.53762498560000000000e+10) (26, 8.19514736640000000000e+10) (27, 7.83089172480000000000e+10) (28, -6.38616181145600000000e+12) (29, 9.07411783680000000000e+10) (0, -4.12699843750000000000e+04) (1, -5.18627968750000000000e+04) (2, -6.62461406250000000000e+04) (3, -6.95545234375000000000e+04) (4, -2.52018828125000000000e+04) (5, -3.19506503906250000000e+04) (6, -6.24196864000000000000e+08) (7, -1.02496593750000000000e+06) (8, -9.23312011718750000000e+03) (9, -9.75611230468750000000e+03) (10, 4.47389355468750000000e+03) (11, -4.35060791015625000000e+03) (12, -1.16786425781250000000e+04) (13, -9.77844921875000000000e+03) (14, -1.07161689453125000000e+04) (15, -1.06306103515625000000e+04) (16, -1.10102890625000000000e+04) (17, -1.13582880859375000000e+04) (18, -3.23075360000000000000e+07) (19, -2.36670625000000000000e+06) (20, -1.06151767578125000000e+04) (21, -1.03436210937500000000e+04) (22, -7.64081152343750000000e+03) (23, -4.35553613281250000000e+03) (24, -4.43293017578125000000e+03) (25, -4.20906250000000000000e+03) (26, -9.50881250000000000000e+03) (27, -8.58325585937500000000e+03) (28, 2.03527080000000000000e+07) (29, -8.51877636718750000000e+03) (0, 9.62685337600000000000e+10) (1, 9.75687925760000000000e+10) (2, 9.94589409280000000000e+10) (3, 1.00559151104000000000e+11) (4, 9.39365990400000000000e+10) (5, 9.51981096960000000000e+10) (6, 8.45076506869760000000e+13) (7, 2.99541233664000000000e+11) (8, 9.04549089280000000000e+10) (9, 9.02855557120000000000e+10) (10, 5.03291617280000000000e+10) (11, 6.41784832000000000000e+10) (12, 9.13487380480000000000e+10) (13, 5.74040268800000000000e+10) (14, 9.11994306560000000000e+10) (15, 9.11505653760000000000e+10) (16, 9.12451174400000000000e+10) (17, 9.12713646080000000000e+10) (18, 4.77387187814400000000e+12) (19, 7.71687579648000000000e+11) (20, 8.40166522880000000000e+10) (21, 8.42938122240000000000e+10) (22, 6.49824870400000000000e+10) (23, 4.84155269120000000000e+10) (24, 4.53580062720000000000e+10) (25, 4.53754552320000000000e+10) (26, 8.19497533440000000000e+10) (27, 7.83073771520000000000e+10) (28, -6.38284097126400000000e+12) (29, 9.07395809280000000000e+10) (0, 9.62757263360000000000e+10) (1, 9.75778119680000000000e+10) (2, 9.94704506880000000000e+10) (3, 1.00571185152000000000e+11) (4, 9.39410964480000000000e+10) (5, 9.52037621760000000000e+10) (6, 8.46142866718720000000e+13) (7, 2.99715067904000000000e+11) (8, 9.04566128640000000000e+10) (9, 9.02874152960000000000e+10) (10, 5.03284490240000000000e+10) (11, 6.41793269760000000000e+10) (12, 9.13509335040000000000e+10) (13, 5.74058536960000000000e+10) (14, 9.12014376960000000000e+10) (15, 9.11525642240000000000e+10) (16, 9.12471900160000000000e+10) (17, 9.12734535680000000000e+10) (18, 4.77938319360000000000e+12) (19, 7.72089118720000000000e+11) (20, 8.40187166720000000000e+10) (21, 8.42958274560000000000e+10) (22, 6.49839779840000000000e+10) (23, 4.84163379200000000000e+10) (24, 4.53588664320000000000e+10) (25, 4.53762744320000000000e+10) (26, 8.19515146240000000000e+10) (27, 7.83089500160000000000e+10) (28, -6.38623940608000000000e+12) (29, 9.07412357120000000000e+10) (0, -1.09374703125000000000e+05) (1, -1.37056921875000000000e+05) (2, -1.74527812500000000000e+05) (3, -1.83123984375000000000e+05) (4, -6.74984531250000000000e+04) (5, -8.50962500000000000000e+04) (6, -1.62812249600000000000e+09) (7, -2.67405475000000000000e+06) (8, -2.58461816406250000000e+04) (9, -2.72053281250000000000e+04) (10, 1.09020195312500000000e+04) (11, -1.26979296875000000000e+04) (12, -3.22389628906250000000e+04) (13, -2.65513222656250000000e+04) (14, -2.97219023437500000000e+04) (15, -2.95003242187500000000e+04) (16, -3.04926816406250000000e+04) (17, -3.14020976562500000000e+04) (18, -8.42277600000000000000e+07) (19, -6.16037900000000000000e+06) (20, -2.93215468750000000000e+04) (21, -2.86255117187500000000e+04) (22, -2.11194726562500000000e+04) (23, -1.23002734375000000000e+04) (24, -1.24623457031250000000e+04) (25, -1.18667802734375000000e+04) (26, -2.63972988281250000000e+04) (27, -2.38733203125000000000e+04) (28, 5.25812640000000000000e+07) (29, -2.39967519531250000000e+04) (0, 9.62754314240000000000e+10) (1, 9.75774433280000000000e+10) (2, 9.94700001280000000000e+10) (3, 1.00570726400000000000e+11) (4, 9.39408916480000000000e+10) (5, 9.52035164160000000000e+10) (6, 8.46102853058560000000e+13) (7, 2.99708874752000000000e+11) (8, 9.04565309440000000000e+10) (9, 9.02873579520000000000e+10) (10, 5.03284695040000000000e+10) (11, 6.41792860160000000000e+10) (12, 9.13508188160000000000e+10) (13, 5.74057717760000000000e+10) (14, 9.12013721600000000000e+10) (15, 9.11524659200000000000e+10) (16, 9.12470917120000000000e+10) (17, 9.12733634560000000000e+10) (18, 4.77918081843200000000e+12) (19, 7.72073848832000000000e+11) (20, 8.40186265600000000000e+10) (21, 8.42957291520000000000e+10) (22, 6.49839247360000000000e+10) (23, 4.84162928640000000000e+10) (24, 4.53588172800000000000e+10) (25, 4.53762293760000000000e+10) (26, 8.19514490880000000000e+10) (27, 7.83088926720000000000e+10) (28, -6.38611514982400000000e+12) (29, 9.07411374080000000000e+10) (0, -3.61720625000000000000e+04) (1, -4.42368906250000000000e+04) (2, -5.51939179687500000000e+04) (3, -5.77211796875000000000e+04) (4, -2.39331660156250000000e+04) (5, -2.90790273437500000000e+04) (6, -4.75528000000000000000e+08) (7, -7.85663812500000000000e+05) (8, -1.17398515625000000000e+04) (9, -1.21243505859375000000e+04) (10, 1.25556518554687500000e+03) (11, -6.93156640625000000000e+03) (12, -1.36352578125000000000e+04) (13, -1.03043378906250000000e+04) (14, -1.29003896484375000000e+04) (15, -1.28361425781250000000e+04) (16, -1.31248486328125000000e+04) (17, -1.33904003906250000000e+04) (18, -2.46184740000000000000e+07) (19, -1.81272350000000000000e+06) (20, -1.24610908203125000000e+04) (21, -1.22772363281250000000e+04) (22, -8.98595996093750000000e+03) (23, -5.82154052734375000000e+03) (24, -5.74412548828125000000e+03) (25, -5.57690771484375000000e+03) (26, -1.14997265625000000000e+04) (27, -1.04937861328125000000e+04) (28, 1.55782040000000000000e+07) (29, -1.12273271484375000000e+04) (0, 9.62755952640000000000e+10) (1, 9.75776481280000000000e+10) (2, 9.94702540800000000000e+10) (3, 1.00570980352000000000e+11) (4, 9.39410063360000000000e+10) (5, 9.52036638720000000000e+10) (6, 8.46125334528000000000e+13) (7, 2.99712380928000000000e+11) (8, 9.04565882880000000000e+10) (9, 9.02873907200000000000e+10) (10, 5.03284613120000000000e+10) (11, 6.41793105920000000000e+10) (12, 9.13508679680000000000e+10) (13, 5.74058209280000000000e+10) (14, 9.12014131200000000000e+10) (15, 9.11525314560000000000e+10) (16, 9.12471408640000000000e+10) (17, 9.12734289920000000000e+10) (18, 4.77929668608000000000e+12) (19, 7.72082630656000000000e+11) (20, 8.40186839040000000000e+10) (21, 8.42957946880000000000e+10) (22, 6.49839534080000000000e+10) (23, 4.84163215360000000000e+10) (24, 4.53588459520000000000e+10) (25, 4.53762539520000000000e+10) (26, 8.19514900480000000000e+10) (27, 7.83089254400000000000e+10) (28, -6.38618540441600000000e+12) (29, 9.07412029440000000000e+10) (0, -5.14769140625000000000e+04) (1, -6.39860781250000000000e+04) (2, -8.07415546875000000000e+04) (3, -8.45885312500000000000e+04) (4, -3.26908144531250000000e+04) (5, -4.05863789062500000000e+04) (6, -7.31821888000000000000e+08) (7, -1.20244025000000000000e+06) (8, -1.39748466796875000000e+04) (9, -1.45788330078125000000e+04) (10, 3.87574243164062500000e+03) (11, -7.51317285156250000000e+03) (12, -1.68644863281250000000e+04) (13, -1.33291640625000000000e+04) (14, -1.57310917968750000000e+04) (15, -1.56326669921875000000e+04) (16, -1.60763291015625000000e+04) (17, -1.64872890625000000000e+04) (18, -3.78065520000000000000e+07) (19, -2.74816075000000000000e+06) (20, -1.53622910156250000000e+04) (21, -1.50654794921875000000e+04) (22, -1.10816630859375000000e+04) (23, -6.78263281250000000000e+03) (24, -6.80081933593750000000e+03) (25, -6.52140039062500000000e+03) (26, -1.40002470703125000000e+04) (27, -1.27155087890625000000e+04) (28, 2.31619940000000000000e+07) (29, -1.31602451171875000000e+04) (0, 9.62756444160000000000e+10) (1, 9.75777136640000000000e+10) (2, 9.94703360000000000000e+10) (3, 1.00571078656000000000e+11) (4, 9.39410391040000000000e+10) (5, 9.52036802560000000000e+10) (6, 8.46132884275200000000e+13) (7, 2.99713593344000000000e+11) (8, 9.04565800960000000000e+10) (9, 9.02873907200000000000e+10) (10, 5.03284490240000000000e+10) (11, 6.41793105920000000000e+10) (12, 9.13508597760000000000e+10) (13, 5.74058291200000000000e+10) (14, 9.12014213120000000000e+10) (15, 9.11525478400000000000e+10) (16, 9.12471326720000000000e+10) (17, 9.12734289920000000000e+10) (18, 4.77933548339200000000e+12) (19, 7.72085645312000000000e+11) (20, 8.40186839040000000000e+10) (21, 8.42957946880000000000e+10) (22, 6.49839575040000000000e+10) (23, 4.84163215360000000000e+10) (24, 4.53588459520000000000e+10) (25, 4.53762621440000000000e+10) (26, 8.19514900480000000000e+10) (27, 7.83089336320000000000e+10) (28, -6.38620899737600000000e+12) (29, 9.07412029440000000000e+10) (0, 9.62755543040000000000e+10) (1, 9.75775907840000000000e+10) (2, 9.94701803520000000000e+10) (3, 1.00570906624000000000e+11) (4, 9.39409735680000000000e+10) (5, 9.52036229120000000000e+10) (6, 8.46117617008640000000e+13) (7, 2.99711299584000000000e+11) (8, 9.04565637120000000000e+10) (9, 9.02873825280000000000e+10) (10, 5.03284572160000000000e+10) (11, 6.41793064960000000000e+10) (12, 9.13508597760000000000e+10) (13, 5.74058086400000000000e+10) (14, 9.12014049280000000000e+10) (15, 9.11525150720000000000e+10) (16, 9.12471162880000000000e+10) (17, 9.12734044160000000000e+10) (18, 4.77926103449600000000e+12) (19, 7.72079943680000000000e+11) (20, 8.40186593280000000000e+10) (21, 8.42957619200000000000e+10) (22, 6.49839411200000000000e+10) (23, 4.84163174400000000000e+10) (24, 4.53588418560000000000e+10) (25, 4.53762498560000000000e+10) (26, 8.19514736640000000000e+10) (27, 7.83089254400000000000e+10) (28, -6.38616495718400000000e+12) (29, 9.07411783680000000000e+10) (0, 9.62755952640000000000e+10) (1, 9.75776481280000000000e+10) (2, 9.94702376960000000000e+10) (3, 1.00570963968000000000e+11) (4, 9.39410063360000000000e+10) (5, 9.52036474880000000000e+10) (6, 8.46124495667200000000e+13) (7, 2.99712217088000000000e+11) (8, 9.04565800960000000000e+10) (9, 9.02873907200000000000e+10) (10, 5.03284613120000000000e+10) (11, 6.41793105920000000000e+10) (12, 9.13508597760000000000e+10) (13, 5.74058209280000000000e+10) (14, 9.12014131200000000000e+10) (15, 9.11525314560000000000e+10) (16, 9.12471326720000000000e+10) (17, 9.12734289920000000000e+10) (18, 4.77929144320000000000e+12) (19, 7.72082434048000000000e+11) (20, 8.40186757120000000000e+10) (21, 8.42957783040000000000e+10) (22, 6.49839575040000000000e+10) (23, 4.84163174400000000000e+10) (24, 4.53588459520000000000e+10) (25, 4.53762539520000000000e+10) (26, 8.19514900480000000000e+10) (27, 7.83089254400000000000e+10) (28, -6.38618383155200000000e+12) (29, 9.07411865600000000000e+10) (0, 9.62756116480000000000e+10) (1, 9.75776645120000000000e+10) (2, 9.94702540800000000000e+10) (3, 1.00570996736000000000e+11) (4, 9.39410227200000000000e+10) (5, 9.52036638720000000000e+10) (6, 8.46126005616640000000e+13) (7, 2.99712479232000000000e+11) (8, 9.04565800960000000000e+10) (9, 9.02873907200000000000e+10) (10, 5.03284572160000000000e+10) (11, 6.41793146880000000000e+10) (12, 9.13508597760000000000e+10) (13, 5.74058209280000000000e+10) (14, 9.12014131200000000000e+10) (15, 9.11525150720000000000e+10) (16, 9.12471326720000000000e+10) (17, 9.12734289920000000000e+10) (18, 4.77929825894400000000e+12) (19, 7.72082892800000000000e+11) (20, 8.40186839040000000000e+10) (21, 8.42957946880000000000e+10) (22, 6.49839575040000000000e+10) (23, 4.84163215360000000000e+10) (24, 4.53588459520000000000e+10) (25, 4.53762621440000000000e+10) (26, 8.19514900480000000000e+10) (27, 7.83089254400000000000e+10) (28, -6.38618802585600000000e+12) (29, 9.07412029440000000000e+10) (0, 9.62753658880000000000e+10) (1, 9.75773614080000000000e+10) (2, 9.94699018240000000000e+10) (3, 1.00570628096000000000e+11) (4, 9.39408588800000000000e+10) (5, 9.52034754560000000000e+10) (6, 8.46094128906240000000e+13) (7, 2.99707465728000000000e+11) (8, 9.04565145600000000000e+10) (9, 9.02873497600000000000e+10) (10, 5.03284776960000000000e+10) (11, 6.41792819200000000000e+10) (12, 9.13508106240000000000e+10) (13, 5.74057553920000000000e+10) (14, 9.12013557760000000000e+10) (15, 9.11524413440000000000e+10) (16, 9.12470835200000000000e+10) (17, 9.12733470720000000000e+10) (18, 4.77913048678400000000e+12) (19, 7.72069982208000000000e+11) (20, 8.40186101760000000000e+10) (21, 8.42957127680000000000e+10) (22, 6.49839165440000000000e+10) (23, 4.84162846720000000000e+10) (24, 4.53588131840000000000e+10) (25, 4.53762211840000000000e+10) (26, 8.19514327040000000000e+10) (27, 7.83088844800000000000e+10) (28, -6.38608474112000000000e+12) (29, 9.07411292160000000000e+10) (0, 9.62754723840000000000e+10) (1, 9.75774924800000000000e+10) (2, 9.94700574720000000000e+10) (3, 1.00570783744000000000e+11) (4, 9.39409244160000000000e+10) (5, 9.52035491840000000000e+10) (6, 8.46108976742400000000e+13) (7, 2.99709825024000000000e+11) (8, 9.04565309440000000000e+10) (9, 9.02873661440000000000e+10) (10, 5.03284613120000000000e+10) (11, 6.41792983040000000000e+10) (12, 9.13508352000000000000e+10) (13, 5.74057799680000000000e+10) (14, 9.12013885440000000000e+10) (15, 9.11524823040000000000e+10) (16, 9.12471080960000000000e+10) (17, 9.12733716480000000000e+10) (18, 4.77921280000000000000e+12) (19, 7.72076470272000000000e+11) (20, 8.40186265600000000000e+10) (21, 8.42957291520000000000e+10) (22, 6.49839247360000000000e+10) (23, 4.84162969600000000000e+10) (24, 4.53588213760000000000e+10) (25, 4.53762334720000000000e+10) (26, 8.19514572800000000000e+10) (27, 7.83089008640000000000e+10) (28, -6.38613454848000000000e+12) (29, 9.07411456000000000000e+10) (0, 9.62754805760000000000e+10) (1, 9.75775006720000000000e+10) (2, 9.94700574720000000000e+10) (3, 1.00570800128000000000e+11) (4, 9.39409326080000000000e+10) (5, 9.52035655680000000000e+10) (6, 8.46108557312000000000e+13) (7, 2.99709759488000000000e+11) (8, 9.04565391360000000000e+10) (9, 9.02873661440000000000e+10) (10, 5.03284654080000000000e+10) (11, 6.41792983040000000000e+10) (12, 9.13508352000000000000e+10) (13, 5.74057881600000000000e+10) (14, 9.12013803520000000000e+10) (15, 9.11524823040000000000e+10) (16, 9.12471080960000000000e+10) (17, 9.12733716480000000000e+10) (18, 4.77921175142400000000e+12) (19, 7.72076208128000000000e+11) (20, 8.40186347520000000000e+10) (21, 8.42957373440000000000e+10) (22, 6.49839288320000000000e+10) (23, 4.84163051520000000000e+10) (24, 4.53588295680000000000e+10) (25, 4.53762375680000000000e+10) (26, 8.19514572800000000000e+10) (27, 7.83089008640000000000e+10) (28, -6.38613402419200000000e+12) (29, 9.07411701760000000000e+10) (0, 9.62754396160000000000e+10) (1, 9.75774433280000000000e+10) (2, 9.94700083200000000000e+10) (3, 1.00570734592000000000e+11) (4, 9.39408916480000000000e+10) (5, 9.52035246080000000000e+10) (6, 8.46103608033280000000e+13) (7, 2.99709038592000000000e+11) (8, 9.04565145600000000000e+10) (9, 9.02873579520000000000e+10) (10, 5.03284695040000000000e+10) (11, 6.41792860160000000000e+10) (12, 9.13508188160000000000e+10) (13, 5.74057717760000000000e+10) (14, 9.12013721600000000000e+10) (15, 9.11524495360000000000e+10) (16, 9.12470917120000000000e+10) (17, 9.12733634560000000000e+10) (18, 4.77918553702400000000e+12) (19, 7.72074110976000000000e+11) (20, 8.40186265600000000000e+10) (21, 8.42957209600000000000e+10) (22, 6.49839247360000000000e+10) (23, 4.84162887680000000000e+10) (24, 4.53588172800000000000e+10) (25, 4.53762252800000000000e+10) (26, 8.19514490880000000000e+10) (27, 7.83088926720000000000e+10) (28, -6.38611881984000000000e+12) (29, 9.07411374080000000000e+10) (0, 9.62756198400000000000e+10) (1, 9.75776808960000000000e+10) (2, 9.94702786560000000000e+10) (3, 1.00571013120000000000e+11) (4, 9.39410309120000000000e+10) (5, 9.52036802560000000000e+10) (6, 8.46127180021760000000e+13) (7, 2.99712708608000000000e+11) (8, 9.04565882880000000000e+10) (9, 9.02873989120000000000e+10) (10, 5.03284572160000000000e+10) (11, 6.41793146880000000000e+10) (12, 9.13508925440000000000e+10) (13, 5.74058250240000000000e+10) (14, 9.12014131200000000000e+10) (15, 9.11525478400000000000e+10) (16, 9.12471408640000000000e+10) (17, 9.12734289920000000000e+10) (18, 4.77930559897600000000e+12) (19, 7.72083482624000000000e+11) (20, 8.40186920960000000000e+10) (21, 8.42957946880000000000e+10) (22, 6.49839575040000000000e+10) (23, 4.84163256320000000000e+10) (24, 4.53588541440000000000e+10) (25, 4.53762662400000000000e+10) (26, 8.19514900480000000000e+10) (27, 7.83089336320000000000e+10) (28, -6.38619117158400000000e+12) (29, 9.07412111360000000000e+10) (0, 9.62755706880000000000e+10) (1, 9.75776235520000000000e+10) (2, 9.94701967360000000000e+10) (3, 1.00570923008000000000e+11) (4, 9.39409899520000000000e+10) (5, 9.52036229120000000000e+10) (6, 8.46120888565760000000e+13) (7, 2.99711660032000000000e+11) (8, 9.04565555200000000000e+10) (9, 9.02873825280000000000e+10) (10, 5.03284613120000000000e+10) (11, 6.41793024000000000000e+10) (12, 9.13508597760000000000e+10) (13, 5.74058086400000000000e+10) (14, 9.12014049280000000000e+10) (15, 9.11524986880000000000e+10) (16, 9.12471162880000000000e+10) (17, 9.12734126080000000000e+10) (18, 4.77927414169600000000e+12) (19, 7.72081123328000000000e+11) (20, 8.40186593280000000000e+10) (21, 8.42957783040000000000e+10) (22, 6.49839452160000000000e+10) (23, 4.84163092480000000000e+10) (24, 4.53588336640000000000e+10) (25, 4.53762498560000000000e+10) (26, 8.19514736640000000000e+10) (27, 7.83089172480000000000e+10) (28, -6.38617229721600000000e+12) (29, 9.07411783680000000000e+10) (0, -1.07145062500000000000e+05) (1, -1.34172828125000000000e+05) (2, -1.70389968750000000000e+05) (3, -1.78695156250000000000e+05) (4, -6.65332265625000000000e+04) (5, -8.35976953125000000000e+04) (6, -1.58173632000000000000e+09) (7, -2.59670925000000000000e+06) (8, -2.60970703125000000000e+04) (9, -2.74152988281250000000e+04) (10, 1.02509169921875000000e+04) (11, -1.30856074218750000000e+04) (12, -3.23140117187500000000e+04) (13, -2.63223378906250000000e+04) (14, -2.98643515625000000000e+04) (15, -2.96547597656250000000e+04) (16, -3.06155839843750000000e+04) (17, -3.15027636718750000000e+04) (18, -8.17086720000000000000e+07) (19, -5.93543500000000000000e+06) (20, -2.93860664062500000000e+04) (21, -2.87232460937500000000e+04) (22, -2.11881757812500000000e+04) (23, -1.24777421875000000000e+04) (24, -1.26364716796875000000e+04) (25, -1.20274433593750000000e+04) (26, -2.65457226562500000000e+04) (27, -2.40347851562500000000e+04) (28, 5.04063640000000000000e+07) (29, -2.43100058593750000000e+04) (0, 9.62755379200000000000e+10) (1, 9.75775580160000000000e+10) (2, 9.94701312000000000000e+10) (3, 1.00570857472000000000e+11) (4, 9.39409571840000000000e+10) (5, 9.52036065280000000000e+10) (6, 8.46113842135040000000e+13) (7, 2.99710709760000000000e+11) (8, 9.04565555200000000000e+10) (9, 9.02873743360000000000e+10) (10, 5.03284654080000000000e+10) (11, 6.41792983040000000000e+10) (12, 9.13508433920000000000e+10) (13, 5.74058004480000000000e+10) (14, 9.12014049280000000000e+10) (15, 9.11524986880000000000e+10) (16, 9.12471162880000000000e+10) (17, 9.12733880320000000000e+10) (18, 4.77924111155200000000e+12) (19, 7.72078436352000000000e+11) (20, 8.40186593280000000000e+10) (21, 8.42957619200000000000e+10) (22, 6.49839370240000000000e+10) (23, 4.84163092480000000000e+10) (24, 4.53588336640000000000e+10) (25, 4.53762416640000000000e+10) (26, 8.19514736640000000000e+10) (27, 7.83089172480000000000e+10) (28, -6.38615132569600000000e+12) (29, 9.07411783680000000000e+10) (0, 9.62756034560000000000e+10) (1, 9.75776563200000000000e+10) (2, 9.94702622720000000000e+10) (3, 1.00570988544000000000e+11) (4, 9.39410227200000000000e+10) (5, 9.52036556800000000000e+10) (6, 8.46127599452160000000e+13) (7, 2.99712741376000000000e+11) (8, 9.04565800960000000000e+10) (9, 9.02873907200000000000e+10) (10, 5.03284531200000000000e+10) (11, 6.41793105920000000000e+10) (12, 9.13508597760000000000e+10) (13, 5.74058168320000000000e+10) (14, 9.12014131200000000000e+10) (15, 9.11525314560000000000e+10) (16, 9.12471326720000000000e+10) (17, 9.12734289920000000000e+10) (18, 4.77930874470400000000e+12) (19, 7.72083613696000000000e+11) (20, 8.40186757120000000000e+10) (21, 8.42957783040000000000e+10) (22, 6.49839493120000000000e+10) (23, 4.84163174400000000000e+10) (24, 4.53588418560000000000e+10) (25, 4.53762498560000000000e+10) (26, 8.19514900480000000000e+10) (27, 7.83089254400000000000e+10) (28, -6.38619274444800000000e+12) (29, 9.07411783680000000000e+10) (0, 9.62754396160000000000e+10) (1, 9.75774433280000000000e+10) (2, 9.94700165120000000000e+10) (3, 1.00570742784000000000e+11) (4, 9.39408998400000000000e+10) (5, 9.52035246080000000000e+10) (6, 8.46103356375040000000e+13) (7, 2.99708973056000000000e+11) (8, 9.04565227520000000000e+10) (9, 9.02873579520000000000e+10) (10, 5.03284695040000000000e+10) (11, 6.41792860160000000000e+10) (12, 9.13508270080000000000e+10) (13, 5.74057717760000000000e+10) (14, 9.12013721600000000000e+10) (15, 9.11524577280000000000e+10) (16, 9.12470917120000000000e+10) (17, 9.12733552640000000000e+10) (18, 4.77918396416000000000e+12) (19, 7.72073979904000000000e+11) (20, 8.40186265600000000000e+10) (21, 8.42957209600000000000e+10) (22, 6.49839247360000000000e+10) (23, 4.84162928640000000000e+10) (24, 4.53588172800000000000e+10) (25, 4.53762252800000000000e+10) (26, 8.19514572800000000000e+10) (27, 7.83088926720000000000e+10) (28, -6.38611777126400000000e+12) (29, 9.07411456000000000000e+10) (0, 9.62754887680000000000e+10) (1, 9.75775088640000000000e+10) (2, 9.94700738560000000000e+10) (3, 1.00570808320000000000e+11) (4, 9.39409326080000000000e+10) (5, 9.52035573760000000000e+10) (6, 8.46110235033600000000e+13) (7, 2.99710087168000000000e+11) (8, 9.04565391360000000000e+10) (9, 9.02873661440000000000e+10) (10, 5.03284613120000000000e+10) (11, 6.41792983040000000000e+10) (12, 9.13508352000000000000e+10) (13, 5.74057799680000000000e+10) (14, 9.12013803520000000000e+10) (15, 9.11524741120000000000e+10) (16, 9.12471080960000000000e+10) (17, 9.12733880320000000000e+10) (18, 4.77922118860800000000e+12) (19, 7.72077125632000000000e+11) (20, 8.40186429440000000000e+10) (21, 8.42957373440000000000e+10) (22, 6.49839247360000000000e+10) (23, 4.84163010560000000000e+10) (24, 4.53588254720000000000e+10) (25, 4.53762334720000000000e+10) (26, 8.19514572800000000000e+10) (27, 7.83089008640000000000e+10) (28, -6.38614031564800000000e+12) (29, 9.07411456000000000000e+10) (0, -4.20358447265625000000e+03) (1, -6.41243212890625000000e+03) (2, -9.37412304687500000000e+03) (3, -1.00425595703125000000e+04) (4, -8.91252868652343750000e+02) (5, -2.27899462890625000000e+03) (6, -1.29111224000000000000e+08) (7, -2.06729703125000000000e+05) (8, 2.38173632812500000000e+03) (9, 2.26162670898437500000e+03) (10, 2.89473828125000000000e+03) (11, 2.40177929687500000000e+03) (12, 1.90576391601562500000e+03) (13, 5.84589111328125000000e+02) (14, 2.10557763671875000000e+03) (15, 2.12221044921875000000e+03) (16, 2.04447973632812500000e+03) (17, 1.97112792968750000000e+03) (18, -6.66885450000000000000e+06) (19, -4.80604125000000000000e+05) (20, 1.79411035156250000000e+03) (21, 1.87133813476562500000e+03) (22, 1.30581408691406250000e+03) (23, 1.38045812988281250000e+03) (24, 1.24048876953125000000e+03) (25, 1.28950183105468750000e+03) (26, 1.91395336914062500000e+03) (27, 1.83068334960937500000e+03) (28, 3.88513500000000000000e+06) (29, 2.55692236328125000000e+03) (0, 9.62756935680000000000e+10) (1, 9.75777792000000000000e+10) (2, 9.94704179200000000000e+10) (3, 1.00571160576000000000e+11) (4, 9.39410718720000000000e+10) (5, 9.52037457920000000000e+10) (6, 8.46140937338880000000e+13) (7, 2.99714805760000000000e+11) (8, 9.04566046720000000000e+10) (9, 9.02874152960000000000e+10) (10, 5.03284449280000000000e+10) (11, 6.41793228800000000000e+10) (12, 9.13509171200000000000e+10) (13, 5.74058455040000000000e+10) (14, 9.12014295040000000000e+10) (15, 9.11525642240000000000e+10) (16, 9.12471736320000000000e+10) (17, 9.12734535680000000000e+10) (18, 4.77937323212800000000e+12) (19, 7.72088266752000000000e+11) (20, 8.40187084800000000000e+10) (21, 8.42958192640000000000e+10) (22, 6.49839738880000000000e+10) (23, 4.84163338240000000000e+10) (24, 4.53588623360000000000e+10) (25, 4.53762703360000000000e+10) (26, 8.19515146240000000000e+10) (27, 7.83089418240000000000e+10) (28, -6.38623311462400000000e+12) (29, 9.07412275200000000000e+10) (0, 9.62755706880000000000e+10) (1, 9.75776235520000000000e+10) (2, 9.94702131200000000000e+10) (3, 1.00570939392000000000e+11) (4, 9.39409735680000000000e+10) (5, 9.52036229120000000000e+10) (6, 8.46122566287360000000e+13) (7, 2.99711954944000000000e+11) (8, 9.04565637120000000000e+10) (9, 9.02873825280000000000e+10) (10, 5.03284572160000000000e+10) (11, 6.41793024000000000000e+10) (12, 9.13508597760000000000e+10) (13, 5.74058086400000000000e+10) (14, 9.12014049280000000000e+10) (15, 9.11524986880000000000e+10) (16, 9.12471162880000000000e+10) (17, 9.12734044160000000000e+10) (18, 4.77928200601600000000e+12) (19, 7.72081582080000000000e+11) (20, 8.40186593280000000000e+10) (21, 8.42957619200000000000e+10) (22, 6.49839370240000000000e+10) (23, 4.84163092480000000000e+10) (24, 4.53588336640000000000e+10) (25, 4.53762498560000000000e+10) (26, 8.19514736640000000000e+10) (27, 7.83089172480000000000e+10) (28, -6.38617649152000000000e+12) (29, 9.07411783680000000000e+10) (0, -1.71014953125000000000e+05) (1, -2.13376093750000000000e+05) (2, -2.70069281250000000000e+05) (3, -2.83075937500000000000e+05) (4, -1.07429484375000000000e+05) (5, -1.34149750000000000000e+05) (6, -2.47723136000000000000e+09) (7, -4.06907650000000000000e+06) (8, -4.40932500000000000000e+04) (9, -4.61490546875000000000e+04) (10, 1.46063330078125000000e+04) (11, -2.29680429687500000000e+04) (12, -5.38547070312500000000e+04) (13, -4.31618789062500000000e+04) (14, -5.00175273437500000000e+04) (15, -4.96885976562500000000e+04) (16, -5.11914882812500000000e+04) (17, -5.25831289062500000000e+04) (18, -1.27944016000000000000e+08) (19, -9.28332300000000000000e+06) (20, -4.90161523437500000000e+04) (21, -4.79948593750000000000e+04) (22, -3.53527539062500000000e+04) (23, -2.12570351562500000000e+04) (24, -2.14165253906250000000e+04) (25, -2.04603378906250000000e+04) (26, -4.44890820312500000000e+04) (27, -4.03492031250000000000e+04) (28, 7.88124080000000000000e+07) (29, -4.13150625000000000000e+04) (0, -5.90018115234375000000e+03) (1, -8.43682226562500000000e+03) (2, -1.17367148437500000000e+04) (3, -1.24775859375000000000e+04) (4, -2.17058935546875000000e+03) (5, -3.73388940429687500000e+03) (6, -1.46078080000000000000e+08) (7, -2.35735187500000000000e+05) (8, 1.53255969238281250000e+03) (9, 1.39732153320312500000e+03) (10, 2.78073754882812500000e+03) (11, 1.82110925292968750000e+03) (12, 9.83397827148437500000e+02) (13, -1.92049751281738281250e+01) (14, 1.21059265136718750000e+03) (15, 1.22745715332031250000e+03) (16, 1.14073144531250000000e+03) (17, 1.05633654785156250000e+03) (18, -7.50636800000000000000e+06) (19, -5.29519750000000000000e+05) (20, 9.54601501464843750000e+02) (21, 1.03256091308593750000e+03) (22, 6.92302185058593750000e+02) (23, 9.42734375000000000000e+02) (24, 8.05269897460937500000e+02) (25, 8.72272521972656250000e+02) (26, 1.11109765625000000000e+03) (27, 1.08828247070312500000e+03) (28, 4.53866200000000000000e+06) (29, 1.72252758789062500000e+03) (0, 9.62754969600000000000e+10) (1, 9.75775170560000000000e+10) (2, 9.94700738560000000000e+10) (3, 1.00570816512000000000e+11) (4, 9.39409326080000000000e+10) (5, 9.52035655680000000000e+10) (6, 8.46109983375360000000e+13) (7, 2.99710119936000000000e+11) (8, 9.04565391360000000000e+10) (9, 9.02873661440000000000e+10) (10, 5.03284613120000000000e+10) (11, 6.41793024000000000000e+10) (12, 9.13508352000000000000e+10) (13, 5.74057881600000000000e+10) (14, 9.12013885440000000000e+10) (15, 9.11524823040000000000e+10) (16, 9.12471080960000000000e+10) (17, 9.12733798400000000000e+10) (18, 4.77922014003200000000e+12) (19, 7.72076994560000000000e+11) (20, 8.40186347520000000000e+10) (21, 8.42957373440000000000e+10) (22, 6.49839247360000000000e+10) (23, 4.84162969600000000000e+10) (24, 4.53588295680000000000e+10) (25, 4.53762375680000000000e+10) (26, 8.19514572800000000000e+10) (27, 7.83089008640000000000e+10) (28, -6.38613979136000000000e+12) (29, 9.07411537920000000000e+10) (0, 9.62698854400000000000e+10) (1, 9.75705047040000000000e+10) (2, 9.94611118080000000000e+10) (3, 1.00561444864000000000e+11) (4, 9.39374428160000000000e+10) (5, 9.51991664640000000000e+10) (6, 8.45283369943040000000e+13) (7, 2.99574886400000000000e+11) (8, 9.04552693760000000000e+10) (9, 9.02859161600000000000e+10) (10, 5.03290388480000000000e+10) (11, 6.41786552320000000000e+10) (12, 9.13491148800000000000e+10) (13, 5.74043709440000000000e+10) (14, 9.11998074880000000000e+10) (15, 9.11509340160000000000e+10) (16, 9.12454615040000000000e+10) (17, 9.12717250560000000000e+10) (18, 4.77494090137600000000e+12) (19, 7.71765698560000000000e+11) (20, 8.40170700800000000000e+10) (21, 8.42942218240000000000e+10) (22, 6.49827778560000000000e+10) (23, 4.84156743680000000000e+10) (24, 4.53581578240000000000e+10) (25, 4.53755985920000000000e+10) (26, 8.19500728320000000000e+10) (27, 7.83077130240000000000e+10) (28, -6.38349947699200000000e+12) (29, 9.07398676480000000000e+10) (0, -1.77852265625000000000e+05) (1, -2.24024234375000000000e+05) (2, -2.85818468750000000000e+05) (3, -2.99987625000000000000e+05) (4, -1.08547671875000000000e+05) (5, -1.37652515625000000000e+05) (6, -2.69981465600000000000e+09) (7, -4.42344100000000000000e+06) (8, -3.95710742187500000000e+04) (9, -4.18392656250000000000e+04) (10, 1.97949453125000000000e+04) (11, -1.85098437500000000000e+04) (12, -5.01563320312500000000e+04) (13, -4.18957617187500000000e+04) (14, -4.59725703125000000000e+04) (15, -4.56162929687500000000e+04) (16, -4.72527226562500000000e+04) (17, -4.87694140625000000000e+04) (18, -1.39430144000000000000e+08) (19, -1.01066440000000000000e+07) (20, -4.55349101562500000000e+04) (21, -4.43818085937500000000e+04) (22, -3.28246445312500000000e+04) (23, -1.86554414062500000000e+04) (24, -1.90759824218750000000e+04) (25, -1.80296035156250000000e+04) (26, -4.08179726562500000000e+04) (27, -3.68498867187500000000e+04) (28, 8.55549600000000000000e+07) (29, -3.64911640625000000000e+04) (0, 9.62755870720000000000e+10) (1, 9.75776399360000000000e+10) (2, 9.94702131200000000000e+10) (3, 1.00570955776000000000e+11) (4, 9.39409899520000000000e+10) (5, 9.52036392960000000000e+10) (6, 8.46122734059520000000e+13) (7, 2.99712020480000000000e+11) (8, 9.04565800960000000000e+10) (9, 9.02873825280000000000e+10) (10, 5.03284613120000000000e+10) (11, 6.41793024000000000000e+10) (12, 9.13508679680000000000e+10) (13, 5.74058086400000000000e+10) (14, 9.12014131200000000000e+10) (15, 9.11525314560000000000e+10) (16, 9.12471244800000000000e+10) (17, 9.12734208000000000000e+10) (18, 4.77928305459200000000e+12) (19, 7.72081713152000000000e+11) (20, 8.40186593280000000000e+10) (21, 8.42957619200000000000e+10) (22, 6.49839452160000000000e+10) (23, 4.84163174400000000000e+10) (24, 4.53588418560000000000e+10) (25, 4.53762580480000000000e+10) (26, 8.19514818560000000000e+10) (27, 7.83089254400000000000e+10) (28, -6.38617858867200000000e+12) (29, 9.07411947520000000000e+10) (0, -1.54636859375000000000e+05) (1, -1.93390671875000000000e+05) (2, -2.45555984375000000000e+05) (3, -2.57531468750000000000e+05) (4, -9.62192656250000000000e+04) (5, -1.20760406250000000000e+05) (6, -2.27324646400000000000e+09) (7, -3.73285400000000000000e+06) (8, -3.80779531250000000000e+04) (9, -3.99707421875000000000e+04) (10, 1.43912480468750000000e+04) (11, -1.92485351562500000000e+04) (12, -4.70175859375000000000e+04) (13, -3.82254335937500000000e+04) (14, -4.35022890625000000000e+04) (15, -4.31964570312500000000e+04) (16, -4.45785000000000000000e+04) (17, -4.58491914062500000000e+04) (18, -1.17514088000000000000e+08) (19, -8.55975100000000000000e+06) (20, -4.27762539062500000000e+04) (21, -4.18206953125000000000e+04) (22, -3.08341894531250000000e+04) (23, -1.82370117187500000000e+04) (24, -1.84244980468750000000e+04) (25, -1.75724804687500000000e+04) (26, -3.86634335937500000000e+04) (27, -3.50158281250000000000e+04) (28, 7.26587120000000000000e+07) (29, -3.55128007812500000000e+04) (0, 8.77049774080000000000e+10) (1, 8.78185431040000000000e+10) (2, 8.76320112640000000000e+10) (3, 8.78961459200000000000e+10) (4, 8.76742492160000000000e+10) (5, 8.78207139840000000000e+10) (6, 1.19852459622400000000e+12) (7, 9.12567173120000000000e+10) (8, 8.72828190720000000000e+10) (9, 8.70369116160000000000e+10) (10, 4.89014312960000000000e+10) (11, 6.15548231680000000000e+10) (12, 8.77282590720000000000e+10) (13, 5.47376046080000000000e+10) (14, 8.77240729600000000000e+10) (15, 8.77229178880000000000e+10) (16, 8.77260636160000000000e+10) (17, 8.77258997760000000000e+10) (18, 1.54559397888000000000e+11) (19, 9.19348920320000000000e+10) (20, 8.06356500480000000000e+10) (21, 8.09837445120000000000e+10) (22, 6.27353968640000000000e+10) (23, 4.68495687680000000000e+10) (24, 4.38558638080000000000e+10) (25, 4.38736977920000000000e+10) (26, 7.89769994240000000000e+10) (27, 7.55980042240000000000e+10) (28, 8.45970800640000000000e+10) (29, 8.77127106560000000000e+10) (0, 9.62753576960000000000e+10) (1, 9.75773450240000000000e+10) (2, 9.94698854400000000000e+10) (3, 1.00570603520000000000e+11) (4, 9.39408506880000000000e+10) (5, 9.52034672640000000000e+10) (6, 8.46092535070720000000e+13) (7, 2.99707105280000000000e+11) (8, 9.04564899840000000000e+10) (9, 9.02873333760000000000e+10) (10, 5.03284776960000000000e+10) (11, 6.41792819200000000000e+10) (12, 9.13508106240000000000e+10) (13, 5.74057553920000000000e+10) (14, 9.12013557760000000000e+10) (15, 9.11524413440000000000e+10) (16, 9.12470671360000000000e+10) (17, 9.12733388800000000000e+10) (18, 4.77912157388800000000e+12) (19, 7.72069261312000000000e+11) (20, 8.40186019840000000000e+10) (21, 8.42957045760000000000e+10) (22, 6.49839124480000000000e+10) (23, 4.84162846720000000000e+10) (24, 4.53588090880000000000e+10) (25, 4.53762211840000000000e+10) (26, 8.19514327040000000000e+10) (27, 7.83088680960000000000e+10) (28, -6.38607844966400000000e+12) (29, 9.07411292160000000000e+10) (0, 9.62756034560000000000e+10) (1, 9.75776727040000000000e+10) (2, 9.94702622720000000000e+10) (3, 1.00570988544000000000e+11) (4, 9.39410063360000000000e+10) (5, 9.52036556800000000000e+10) (6, 8.46126592819200000000e+13) (7, 2.99712610304000000000e+11) (8, 9.04565800960000000000e+10) (9, 9.02873907200000000000e+10) (10, 5.03284531200000000000e+10) (11, 6.41793105920000000000e+10) (12, 9.13508679680000000000e+10) (13, 5.74058168320000000000e+10) (14, 9.12014131200000000000e+10) (15, 9.11525150720000000000e+10) (16, 9.12471244800000000000e+10) (17, 9.12734208000000000000e+10) (18, 4.77930350182400000000e+12) (19, 7.72083286016000000000e+11) (20, 8.40186757120000000000e+10) (21, 8.42957783040000000000e+10) (22, 6.49839534080000000000e+10) (23, 4.84163174400000000000e+10) (24, 4.53588418560000000000e+10) (25, 4.53762580480000000000e+10) (26, 8.19514900480000000000e+10) (27, 7.83089254400000000000e+10) (28, -6.38619012300800000000e+12) (29, 9.07411947520000000000e+10) (0, 9.62756116480000000000e+10) (1, 9.75776645120000000000e+10) (2, 9.94702704640000000000e+10) (3, 1.00570996736000000000e+11) (4, 9.39410227200000000000e+10) (5, 9.52036638720000000000e+10) (6, 8.46127263907840000000e+13) (7, 2.99712675840000000000e+11) (8, 9.04565800960000000000e+10) (9, 9.02873825280000000000e+10) (10, 5.03284490240000000000e+10) (11, 6.41793105920000000000e+10) (12, 9.13508597760000000000e+10) (13, 5.74058209280000000000e+10) (14, 9.12014131200000000000e+10) (15, 9.11525150720000000000e+10) (16, 9.12471326720000000000e+10) (17, 9.12734126080000000000e+10) (18, 4.77930612326400000000e+12) (19, 7.72083417088000000000e+11) (20, 8.40186757120000000000e+10) (21, 8.42957783040000000000e+10) (22, 6.49839534080000000000e+10) (23, 4.84163174400000000000e+10) (24, 4.53588459520000000000e+10) (25, 4.53762539520000000000e+10) (26, 8.19514736640000000000e+10) (27, 7.83089254400000000000e+10) (28, -6.38619169587200000000e+12) (29, 9.07411865600000000000e+10) (0, 9.62749972480000000000e+10) (1, 9.75768862720000000000e+10) (2, 9.94692956160000000000e+10) (3, 1.00569972736000000000e+11) (4, 9.39406458880000000000e+10) (5, 9.52031969280000000000e+10) (6, 8.46037925232640000000e+13) (7, 2.99698585600000000000e+11) (8, 9.04564244480000000000e+10) (9, 9.02872596480000000000e+10) (10, 5.03285145600000000000e+10) (11, 6.41792491520000000000e+10) (12, 9.13507041280000000000e+10) (13, 5.74056570880000000000e+10) (14, 9.12012492800000000000e+10) (15, 9.11523184640000000000e+10) (16, 9.12469688320000000000e+10) (17, 9.12732487680000000000e+10) (18, 4.77884684697600000000e+12) (19, 7.72050124800000000000e+11) (20, 8.40185282560000000000e+10) (21, 8.42956226560000000000e+10) (22, 6.49838387200000000000e+10) (23, 4.84162560000000000000e+10) (24, 4.53587722240000000000e+10) (25, 4.53761884160000000000e+10) (26, 8.19513344000000000000e+10) (27, 7.83087943680000000000e+10) (28, -6.38591015321600000000e+12) (29, 9.07410554880000000000e+10) (0, 9.62755870720000000000e+10) (1, 9.75776399360000000000e+10) (2, 9.94702376960000000000e+10) (3, 1.00570972160000000000e+11) (4, 9.39409981440000000000e+10) (5, 9.52036392960000000000e+10) (6, 8.46124998983680000000e+13) (7, 2.99712315392000000000e+11) (8, 9.04565719040000000000e+10) (9, 9.02873825280000000000e+10) (10, 5.03284531200000000000e+10) (11, 6.41793024000000000000e+10) (12, 9.13508597760000000000e+10) (13, 5.74058127360000000000e+10) (14, 9.12014131200000000000e+10) (15, 9.11525150720000000000e+10) (16, 9.12471244800000000000e+10) (17, 9.12734044160000000000e+10) (18, 4.77929406464000000000e+12) (19, 7.72082499584000000000e+11) (20, 8.40186757120000000000e+10) (21, 8.42957701120000000000e+10) (22, 6.49839452160000000000e+10) (23, 4.84163174400000000000e+10) (24, 4.53588418560000000000e+10) (25, 4.53762498560000000000e+10) (26, 8.19514736640000000000e+10) (27, 7.83089172480000000000e+10) (28, -6.38618488012800000000e+12) (29, 9.07411783680000000000e+10) (0, 9.62752512000000000000e+10) (1, 9.75772221440000000000e+10) (2, 9.94697052160000000000e+10) (3, 1.00570423296000000000e+11) (4, 9.39407933440000000000e+10) (5, 9.52034017280000000000e+10) (6, 8.46076261171200000000e+13) (7, 2.99704680448000000000e+11) (8, 9.04564736000000000000e+10) (9, 9.02873088000000000000e+10) (10, 5.03284940800000000000e+10) (11, 6.41792778240000000000e+10) (12, 9.13507860480000000000e+10) (13, 5.74057349120000000000e+10) (14, 9.12013230080000000000e+10) (15, 9.11524085760000000000e+10) (16, 9.12470343680000000000e+10) (17, 9.12733143040000000000e+10) (18, 4.77904135782400000000e+12) (19, 7.72063690752000000000e+11) (20, 8.40185856000000000000e+10) (21, 8.42956800000000000000e+10) (22, 6.49839001600000000000e+10) (23, 4.84162805760000000000e+10) (24, 4.53588049920000000000e+10) (25, 4.53762170880000000000e+10) (26, 8.19514081280000000000e+10) (27, 7.83088517120000000000e+10) (28, -6.38602811801600000000e+12) (29, 9.07411128320000000000e+10) (0, 9.62526085120000000000e+10) (1, 9.75487713280000000000e+10) (2, 9.94335375360000000000e+10) (3, 1.00532518912000000000e+11) (4, 9.39267932160000000000e+10) (5, 9.51857315840000000000e+10) (6, 8.42695987691520000000e+13) (7, 2.99150147584000000000e+11) (8, 9.04511569920000000000e+10) (9, 9.02815498240000000000e+10) (10, 5.03307304960000000000e+10) (11, 6.41765867520000000000e+10) (12, 9.13440522240000000000e+10) (13, 5.74001684480000000000e+10) (14, 9.11950888960000000000e+10) (15, 9.11462154240000000000e+10) (16, 9.12406691840000000000e+10) (17, 9.12667525120000000000e+10) (18, 4.76155635302400000000e+12) (19, 7.70792947712000000000e+11) (20, 8.40124416000000000000e+10) (21, 8.42896506880000000000e+10) (22, 6.49793617920000000000e+10) (23, 4.84137902080000000000e+10) (24, 4.53561794560000000000e+10) (25, 4.53737185280000000000e+10) (26, 8.19458785280000000000e+10) (27, 7.83038218240000000000e+10) (28, -6.37525032960000000000e+12) (29, 9.07360665600000000000e+10) (0, 9.62756034560000000000e+10) (1, 9.75776563200000000000e+10) (2, 9.94702295040000000000e+10) (3, 1.00570972160000000000e+11) (4, 9.39409899520000000000e+10) (5, 9.52036556800000000000e+10) (6, 8.46124915097600000000e+13) (7, 2.99712315392000000000e+11) (8, 9.04565800960000000000e+10) (9, 9.02873825280000000000e+10) (10, 5.03284572160000000000e+10) (11, 6.41793024000000000000e+10) (12, 9.13508679680000000000e+10) (13, 5.74058086400000000000e+10) (14, 9.12014131200000000000e+10) (15, 9.11525150720000000000e+10) (16, 9.12471244800000000000e+10) (17, 9.12734208000000000000e+10) (18, 4.77929406464000000000e+12) (19, 7.72082499584000000000e+11) (20, 8.40186757120000000000e+10) (21, 8.42957783040000000000e+10) (22, 6.49839452160000000000e+10) (23, 4.84163174400000000000e+10) (24, 4.53588418560000000000e+10) (25, 4.53762580480000000000e+10) (26, 8.19514818560000000000e+10) (27, 7.83089254400000000000e+10) (28, -6.38618488012800000000e+12) (29, 9.07411947520000000000e+10) (0, 9.62731212800000000000e+10) (1, 9.75745433600000000000e+10) (2, 9.94662563840000000000e+10) (3, 1.00566786048000000000e+11) (4, 9.39394826240000000000e+10) (5, 9.52017059840000000000e+10) (6, 8.45756235776000000000e+13) (7, 2.99652251648000000000e+11) (8, 9.04559738880000000000e+10) (9, 9.02867763200000000000e+10) (10, 5.03287111680000000000e+10) (11, 6.41790197760000000000e+10) (12, 9.13501634560000000000e+10) (13, 5.74051737600000000000e+10) (14, 9.12006840320000000000e+10) (15, 9.11517941760000000000e+10) (16, 9.12464527360000000000e+10) (17, 9.12727080960000000000e+10) (18, 4.77739509350400000000e+12) (19, 7.71944153088000000000e+11) (20, 8.40180367360000000000e+10) (21, 8.42951393280000000000e+10) (22, 6.49834373120000000000e+10) (23, 4.84160389120000000000e+10) (24, 4.53585674240000000000e+10) (25, 4.53759959040000000000e+10) (26, 8.19508510720000000000e+10) (27, 7.83083847680000000000e+10) (28, -6.38500942643200000000e+12) (29, 9.07406622720000000000e+10) (0, -9.14444531250000000000e+04) (1, -1.14054500000000000000e+05) (2, -1.44722171875000000000e+05) (3, -1.51774609375000000000e+05) (4, -5.71823203125000000000e+04) (5, -7.15761875000000000000e+04) (6, -1.33155481600000000000e+09) (7, -2.18811400000000000000e+06) (8, -2.31002929687500000000e+04) (9, -2.42034179687500000000e+04) (10, 7.99302490234375000000e+03) (11, -1.18895341796875000000e+04) (12, -2.83403320312500000000e+04) (13, -2.29229511718750000000e+04) (14, -2.62840664062500000000e+04) (15, -2.61002128906250000000e+04) (16, -2.69136250000000000000e+04) (17, -2.76554179687500000000e+04) (18, -6.89173280000000000000e+07) (19, -5.05114350000000000000e+06) (20, -2.58077167968750000000e+04) (21, -2.52464960937500000000e+04) (22, -1.85913828125000000000e+04) (23, -1.11026328125000000000e+04) (24, -1.11706679687500000000e+04) (25, -1.06918398437500000000e+04) (26, -2.33618730468750000000e+04) (27, -2.11708710937500000000e+04) (28, 4.29997280000000000000e+07) (29, -2.15999570312500000000e+04) (0, -2.00426875000000000000e+05) (1, -2.51598859375000000000e+05) (2, -3.20602562500000000000e+05) (3, -3.36438093750000000000e+05) (4, -1.23192523437500000000e+05) (5, -1.55645500000000000000e+05) (6, -3.00456473600000000000e+09) (7, -4.92991950000000000000e+06) (8, -4.63666796875000000000e+04) (9, -4.88771718750000000000e+04) (10, 2.07983710937500000000e+04) (11, -2.23963144531250000000e+04) (12, -5.81534921875000000000e+04) (13, -4.81442070312500000000e+04) (14, -5.35076054687500000000e+04) (15, -5.31014453125000000000e+04) (16, -5.49294062500000000000e+04) (17, -5.66088476562500000000e+04) (18, -1.55354272000000000000e+08) (19, -1.13322700000000000000e+07) (20, -5.28620390625000000000e+04) (21, -5.15737187500000000000e+04) (22, -3.80846093750000000000e+04) (23, -2.19928769531250000000e+04) (24, -2.23471933593750000000e+04) (25, -2.12299062500000000000e+04) (26, -4.75149453125000000000e+04) (27, -4.29439335937500000000e+04) (28, 9.63160480000000000000e+07) (29, -4.29473554687500000000e+04) (0, 9.62753904640000000000e+10) (1, 9.75773859840000000000e+10) (2, 9.94699427840000000000e+10) (3, 1.00570669056000000000e+11) (4, 9.39408670720000000000e+10) (5, 9.52034918400000000000e+10) (6, 8.46097316577280000000e+13) (7, 2.99707957248000000000e+11) (8, 9.04565145600000000000e+10) (9, 9.02873497600000000000e+10) (10, 5.03284776960000000000e+10) (11, 6.41792819200000000000e+10) (12, 9.13508106240000000000e+10) (13, 5.74057635840000000000e+10) (14, 9.12013557760000000000e+10) (15, 9.11524495360000000000e+10) (16, 9.12470835200000000000e+10) (17, 9.12733470720000000000e+10) (18, 4.77914988544000000000e+12) (19, 7.72071424000000000000e+11) (20, 8.40186183680000000000e+10) (21, 8.42957209600000000000e+10) (22, 6.49839206400000000000e+10) (23, 4.84162887680000000000e+10) (24, 4.53588131840000000000e+10) (25, 4.53762252800000000000e+10) (26, 8.19514327040000000000e+10) (27, 7.83088762880000000000e+10) (28, -6.38609575116800000000e+12) (29, 9.07411292160000000000e+10) (0, -1.62588484375000000000e+05) (1, -2.03505171875000000000e+05) (2, -2.58615921875000000000e+05) (3, -2.71261562500000000000e+05) (4, -1.00884414062500000000e+05) (5, -1.26803648437500000000e+05) (6, -2.40076672000000000000e+09) (7, -3.94084800000000000000e+06) (8, -3.94869257812500000000e+04) (9, -4.14856562500000000000e+04) (10, 1.55195576171875000000e+04) (11, -1.97642304687500000000e+04) (12, -4.89221562500000000000e+04) (13, -3.99375312500000000000e+04) (14, -4.52122070312500000000e+04) (15, -4.48887460937500000000e+04) (16, -4.63473203125000000000e+04) (17, -4.76886054687500000000e+04) (18, -1.24121208000000000000e+08) (19, -9.04525600000000000000e+06) (20, -4.45076289062500000000e+04) (21, -4.34888671875000000000e+04) (22, -3.20723417968750000000e+04) (23, -1.88712050781250000000e+04) (24, -1.90867871093750000000e+04) (25, -1.81903183593750000000e+04) (26, -4.01730625000000000000e+04) (27, -3.63652382812500000000e+04) (28, 7.64805280000000000000e+07) (29, -3.67709687500000000000e+04) (0, -1.19989248046875000000e+04) (1, -1.44088691406250000000e+04) (2, -1.76424433593750000000e+04) (3, -1.83858769531250000000e+04) (4, -8.37448632812500000000e+03) (5, -9.90042382812500000000e+03) (6, -1.41152976000000000000e+08) (7, -2.35133890625000000000e+05) (8, -4.74885986328125000000e+03) (9, -4.86025585937500000000e+03) (10, -1.91070632934570312500e+02) (11, -3.03368383789062500000e+03) (12, -5.32071044921875000000e+03) (13, -3.81540087890625000000e+03) (14, -5.10148925781250000000e+03) (15, -5.08415332031250000000e+03) (16, -5.16937548828125000000e+03) (17, -5.24945458984375000000e+03) (18, -7.29221950000000000000e+06) (19, -5.32939437500000000000e+05) (20, -4.87331005859375000000e+03) (21, -4.82450195312500000000e+03) (22, -3.51852001953125000000e+03) (23, -2.40089331054687500000e+03) (24, -2.34709179687500000000e+03) (25, -2.29361303710937500000e+03) (26, -4.55870605468750000000e+03) (27, -4.17859082031250000000e+03) (28, 4.70524800000000000000e+06) (29, -4.60568359375000000000e+03) (0, -5.19324414062500000000e+04) (1, -6.52550742187500000000e+04) (2, -8.31036562500000000000e+04) (3, -8.71943593750000000000e+04) (4, -3.19181035156250000000e+04) (5, -4.03276054687500000000e+04) (6, -7.79504768000000000000e+08) (7, -1.27836062500000000000e+06) (8, -1.19964960937500000000e+04) (9, -1.26504648437500000000e+04) (10, 5.44752978515625000000e+03) (11, -5.78421875000000000000e+03) (12, -1.50556816406250000000e+04) (13, -1.24481240234375000000e+04) (14, -1.38487763671875000000e+04) (15, -1.37449609375000000000e+04) (16, -1.42176396484375000000e+04) (17, -1.46561308593750000000e+04) (18, -4.02661840000000000000e+07) (19, -2.92356225000000000000e+06) (20, -1.36789248046875000000e+04) (21, -1.33482275390625000000e+04) (22, -9.86159375000000000000e+03) (23, -5.68970263671875000000e+03) (24, -5.79263378906250000000e+03) (25, -5.49191162109375000000e+03) (26, -1.23007539062500000000e+04) (27, -1.11185830078125000000e+04) (28, 2.47051040000000000000e+07) (29, -1.11099814453125000000e+04) (0, 9.62757427200000000000e+10) (1, 9.75778365440000000000e+10) (2, 9.94704834560000000000e+10) (3, 1.00571226112000000000e+11) (4, 9.39411046400000000000e+10) (5, 9.52037785600000000000e+10) (6, 8.46147144908800000000e+13) (7, 2.99715690496000000000e+11) (8, 9.04566046720000000000e+10) (9, 9.02874152960000000000e+10) (10, 5.03284367360000000000e+10) (11, 6.41793228800000000000e+10) (12, 9.13509335040000000000e+10) (13, 5.74058536960000000000e+10) (14, 9.12014376960000000000e+10) (15, 9.11525724160000000000e+10) (16, 9.12471818240000000000e+10) (17, 9.12734617600000000000e+10) (18, 4.77940573798400000000e+12) (19, 7.72090691584000000000e+11) (20, 8.40187166720000000000e+10) (21, 8.42958356480000000000e+10) (22, 6.49839738880000000000e+10) (23, 4.84163379200000000000e+10) (24, 4.53588664320000000000e+10) (25, 4.53762744320000000000e+10) (26, 8.19515146240000000000e+10) (27, 7.83089500160000000000e+10) (28, -6.38625251328000000000e+12) (29, 9.07412357120000000000e+10) (0, 9.62756034560000000000e+10) (1, 9.75776727040000000000e+10) (2, 9.94702622720000000000e+10) (3, 1.00570988544000000000e+11) (4, 9.39410227200000000000e+10) (5, 9.52036556800000000000e+10) (6, 8.46126005616640000000e+13) (7, 2.99712479232000000000e+11) (8, 9.04565882880000000000e+10) (9, 9.02873907200000000000e+10) (10, 5.03284572160000000000e+10) (11, 6.41793105920000000000e+10) (12, 9.13508761600000000000e+10) (13, 5.74058250240000000000e+10) (14, 9.12014131200000000000e+10) (15, 9.11525478400000000000e+10) (16, 9.12471408640000000000e+10) (17, 9.12734371840000000000e+10) (18, 4.77929825894400000000e+12) (19, 7.72082958336000000000e+11) (20, 8.40186757120000000000e+10) (21, 8.42957946880000000000e+10) (22, 6.49839534080000000000e+10) (23, 4.84163174400000000000e+10) (24, 4.53588500480000000000e+10) (25, 4.53762580480000000000e+10) (26, 8.19514900480000000000e+10) (27, 7.83089254400000000000e+10) (28, -6.38618750156800000000e+12) (29, 9.07411947520000000000e+10) (0, 9.62756526080000000000e+10) (1, 9.75777136640000000000e+10) (2, 9.94703360000000000000e+10) (3, 1.00571078656000000000e+11) (4, 9.39410472960000000000e+10) (5, 9.52036966400000000000e+10) (6, 8.46132716503040000000e+13) (7, 2.99713527808000000000e+11) (8, 9.04565964800000000000e+10) (9, 9.02873907200000000000e+10) (10, 5.03284449280000000000e+10) (11, 6.41793146880000000000e+10) (12, 9.13508843520000000000e+10) (13, 5.74058291200000000000e+10) (14, 9.12014213120000000000e+10) (15, 9.11525314560000000000e+10) (16, 9.12471408640000000000e+10) (17, 9.12734289920000000000e+10) (18, 4.77933443481600000000e+12) (19, 7.72085710848000000000e+11) (20, 8.40186839040000000000e+10) (21, 8.42958028800000000000e+10) (22, 6.49839575040000000000e+10) (23, 4.84163256320000000000e+10) (24, 4.53588541440000000000e+10) (25, 4.53762662400000000000e+10) (26, 8.19514900480000000000e+10) (27, 7.83089336320000000000e+10) (28, -6.38620899737600000000e+12) (29, 9.07412111360000000000e+10) (0, 9.62677391360000000000e+10) (1, 9.75678095360000000000e+10) (2, 9.94576793600000000000e+10) (3, 1.00557848576000000000e+11) (4, 9.39361320960000000000e+10) (5, 9.51975116800000000000e+10) (6, 8.44961415168000000000e+13) (7, 2.99521998848000000000e+11) (8, 9.04547205120000000000e+10) (9, 9.02853427200000000000e+10) (10, 5.03292395520000000000e+10) (11, 6.41783767040000000000e+10) (12, 9.13485168640000000000e+10) (13, 5.74038507520000000000e+10) (14, 9.11992340480000000000e+10) (15, 9.11503523840000000000e+10) (16, 9.12448880640000000000e+10) (17, 9.12711516160000000000e+10) (18, 4.77327995699200000000e+12) (19, 7.71644784640000000000e+11) (20, 8.40164638720000000000e+10) (21, 8.42936156160000000000e+10) (22, 6.49823436800000000000e+10) (23, 4.84154449920000000000e+10) (24, 4.53579243520000000000e+10) (25, 4.53753815040000000000e+10) (26, 8.19495731200000000000e+10) (27, 7.83072215040000000000e+10) (28, -6.38247554252800000000e+12) (29, 9.07394252800000000000e+10) (0, 9.62754232320000000000e+10) (1, 9.75774269440000000000e+10) (2, 9.94699755520000000000e+10) (3, 1.00570710016000000000e+11) (4, 9.39408834560000000000e+10) (5, 9.52035246080000000000e+10) (6, 8.46100252590080000000e+13) (7, 2.99708514304000000000e+11) (8, 9.04565145600000000000e+10) (9, 9.02873579520000000000e+10) (10, 5.03284736000000000000e+10) (11, 6.41792860160000000000e+10) (12, 9.13508188160000000000e+10) (13, 5.74057717760000000000e+10) (14, 9.12013721600000000000e+10) (15, 9.11524577280000000000e+10) (16, 9.12470917120000000000e+10) (17, 9.12733716480000000000e+10) (18, 4.77916928409600000000e+12) (19, 7.72072800256000000000e+11) (20, 8.40186265600000000000e+10) (21, 8.42957209600000000000e+10) (22, 6.49839206400000000000e+10) (23, 4.84162928640000000000e+10) (24, 4.53588172800000000000e+10) (25, 4.53762252800000000000e+10) (26, 8.19514408960000000000e+10) (27, 7.83088926720000000000e+10) (28, -6.38610728550400000000e+12) (29, 9.07411456000000000000e+10) (0, 9.62754887680000000000e+10) (1, 9.75775170560000000000e+10) (2, 9.94700902400000000000e+10) (3, 1.00570816512000000000e+11) (4, 9.39409326080000000000e+10) (5, 9.52035573760000000000e+10) (6, 8.46111828869120000000e+13) (7, 2.99710382080000000000e+11) (8, 9.04565309440000000000e+10) (9, 9.02873661440000000000e+10) (10, 5.03284613120000000000e+10) (11, 6.41792983040000000000e+10) (12, 9.13508352000000000000e+10) (13, 5.74057881600000000000e+10) (14, 9.12013803520000000000e+10) (15, 9.11524741120000000000e+10) (16, 9.12471080960000000000e+10) (17, 9.12733716480000000000e+10) (18, 4.77923167436800000000e+12) (19, 7.72077518848000000000e+11) (20, 8.40186347520000000000e+10) (21, 8.42957291520000000000e+10) (22, 6.49839247360000000000e+10) (23, 4.84162969600000000000e+10) (24, 4.53588213760000000000e+10) (25, 4.53762334720000000000e+10) (26, 8.19514572800000000000e+10) (27, 7.83089008640000000000e+10) (28, -6.38614503424000000000e+12) (29, 9.07411456000000000000e+10) (0, 9.62738503680000000000e+10) (1, 9.75754444800000000000e+10) (2, 9.94674606080000000000e+10) (3, 1.00568064000000000000e+11) (4, 9.39399413760000000000e+10) (5, 9.52022876160000000000e+10) (6, 8.45867468718080000000e+13) (7, 2.99669946368000000000e+11) (8, 9.04561623040000000000e+10) (9, 9.02869647360000000000e+10) (10, 5.03286292480000000000e+10) (11, 6.41791139840000000000e+10) (12, 9.13503846400000000000e+10) (13, 5.74053703680000000000e+10) (14, 9.12009297920000000000e+10) (15, 9.11519744000000000000e+10) (16, 9.12466739200000000000e+10) (17, 9.12729538560000000000e+10) (18, 4.77796447027200000000e+12) (19, 7.71985768448000000000e+11) (20, 8.40182415360000000000e+10) (21, 8.42953441280000000000e+10) (22, 6.49835847680000000000e+10) (23, 4.84161167360000000000e+10) (24, 4.53586493440000000000e+10) (25, 4.53760696320000000000e+10) (26, 8.19510558720000000000e+10) (27, 7.83085486080000000000e+10) (28, -6.38536279654400000000e+12) (29, 9.07408179200000000000e+10) (30, -4.17007088661193847656e-01) (31, 1.33781537500000000000e+06) (32, 2.98626065254211425781e-01) (33, 1.33780112500000000000e+06) (34, 1.33781487500000000000e+06) (35, -7.28653252124786376953e-01) (36, 1.33781462500000000000e+06) (37, 7.42683887481689453125e-01) (38, 1.33781537500000000000e+06) (39, 4.82449650764465332031e-01) (40, 1.33781562500000000000e+06) (41, 1.33781500000000000000e+06) (42, 1.33781437500000000000e+06) (43, 1.33781575000000000000e+06) (44, 1.33781525000000000000e+06) (45, 1.33781500000000000000e+06) (46, 1.33781550000000000000e+06) (47, 1.33781500000000000000e+06) (48, 1.33781600000000000000e+06) (49, 1.33781575000000000000e+06) (50, -4.61769223213195800781e-01) (51, 1.33781550000000000000e+06) (52, 1.33781525000000000000e+06) (53, 1.33781437500000000000e+06) (54, 1.33781425000000000000e+06) (55, -5.06387501955032348633e-02) (56, 1.33781550000000000000e+06) (57, 1.33781587500000000000e+06) (58, -3.80400598049163818359e-01) (59, 5.81917762756347656250e-01) (60, 1.33781437500000000000e+06) (61, 1.33780337500000000000e+06) (62, -5.93634724617004394531e-01) (63, 1.33781537500000000000e+06) (64, 4.81197191402316093445e-03) (65, 1.31459162500000000000e+06) (66, 1.33781512500000000000e+06) (67, 1.33781512500000000000e+06) (68, 1.33781562500000000000e+06) (69, 1.33781400000000000000e+06) (70, 1.33781537500000000000e+06) (71, 1.33781375000000000000e+06) (72, 1.33777037500000000000e+06) (73, 1.33781450000000000000e+06) (74, 1.33780925000000000000e+06) (75, -3.81381571292877197266e-01) (76, -2.91058242321014404297e-01) (77, 1.33781450000000000000e+06) (78, -3.10231924057006835938e-01) (79, -1.03585317730903625488e-01) (80, 7.26683139801025390625e-02) (81, 1.33781487500000000000e+06) (82, 1.33781450000000000000e+06) (83, 1.33781562500000000000e+06) (84, 1.33779837500000000000e+06) (85, 1.33781525000000000000e+06) (86, 1.33781462500000000000e+06) (87, 1.33781062500000000000e+06) (88, 1.33781525000000000000e+06) (30, 9.52930569648742675781e-01) (31, 6.77041312500000000000e+05) (32, 1.47902369499206542969e-01) (33, 6.77042500000000000000e+05) (34, 6.77042875000000000000e+05) (35, 9.43995416164398193359e-02) (36, 6.77042250000000000000e+05) (37, -5.90161561965942382812e-01) (38, 6.77042437500000000000e+05) (39, -3.45867931842803955078e-01) (40, 6.77041375000000000000e+05) (41, 6.77042812500000000000e+05) (42, 6.77042562500000000000e+05) (43, 6.77042625000000000000e+05) (44, 6.77042687500000000000e+05) (45, 6.77042000000000000000e+05) (46, 6.77042250000000000000e+05) (47, 6.77041312500000000000e+05) (48, 6.77042937500000000000e+05) (49, 6.77041750000000000000e+05) (50, -1.33721500635147094727e-01) (51, 6.77042562500000000000e+05) (52, 6.77041687500000000000e+05) (53, 6.77041375000000000000e+05) (54, 6.77041625000000000000e+05) (55, 6.66089475154876708984e-01) (56, 6.77042437500000000000e+05) (57, 6.77041187500000000000e+05) (58, -7.09676563739776611328e-01) (59, 5.53386211395263671875e-01) (60, 6.77041937500000000000e+05) (61, 6.77043312500000000000e+05) (62, 4.95571017265319824219e-01) (63, 6.77042250000000000000e+05) (64, -2.22899839282035827637e-01) (65, 6.77048562500000000000e+05) (66, 6.77041250000000000000e+05) (67, 6.77041812500000000000e+05) (68, 6.77041437500000000000e+05) (69, 6.77042062500000000000e+05) (70, 6.77041687500000000000e+05) (71, 6.77042062500000000000e+05) (72, 6.77042062500000000000e+05) (73, 6.77041625000000000000e+05) (74, 6.77042500000000000000e+05) (75, -1.96052491664886474609e-01) (76, 3.25655221939086914062e-01) (77, 6.77041437500000000000e+05) (78, -1.15608125925064086914e-01) (79, -3.76285344362258911133e-01) (80, 6.33319616317749023438e-02) (81, 6.77041562500000000000e+05) (82, 6.77043125000000000000e+05) (83, 6.77041437500000000000e+05) (84, 6.77041625000000000000e+05) (85, 6.77042375000000000000e+05) (86, 6.77041250000000000000e+05) (87, 6.77043250000000000000e+05) (88, 6.77042750000000000000e+05) (30, -5.87268471717834472656e-01) (31, 1.33809800000000000000e+06) (32, 6.33071362972259521484e-01) (33, 1.33808287500000000000e+06) (34, 1.33809812500000000000e+06) (35, -6.34059131145477294922e-01) (36, 1.33809675000000000000e+06) (37, -9.40321326255798339844e-01) (38, 1.33809750000000000000e+06) (39, 4.28501129150390625000e-01) (40, 1.33809775000000000000e+06) (41, 1.33809787500000000000e+06) (42, 1.33809750000000000000e+06) (43, 1.33809762500000000000e+06) (44, 1.33809775000000000000e+06) (45, 1.33809675000000000000e+06) (46, 1.33809687500000000000e+06) (47, 1.33809712500000000000e+06) (48, 1.33809737500000000000e+06) (49, 1.33809750000000000000e+06) (50, -3.97414088249206542969e-01) (51, 1.33809675000000000000e+06) (52, 1.33809837500000000000e+06) (53, 1.33809762500000000000e+06) (54, 1.33809662500000000000e+06) (55, 3.38379144668579101562e-01) (56, 1.33809800000000000000e+06) (57, 1.33809825000000000000e+06) (58, -1.82085692882537841797e-01) (59, -5.03666341304779052734e-01) (60, 1.33809675000000000000e+06) (61, 1.33808575000000000000e+06) (62, -7.32511997222900390625e-01) (63, 1.33809850000000000000e+06) (64, -9.84975934028625488281e-01) (65, 1.31483100000000000000e+06) (66, 1.33809687500000000000e+06) (67, 1.33809825000000000000e+06) (68, 1.33809712500000000000e+06) (69, 1.33809575000000000000e+06) (70, 1.33809737500000000000e+06) (71, 1.33809600000000000000e+06) (72, 1.33805137500000000000e+06) (73, 1.33809787500000000000e+06) (74, 1.33809100000000000000e+06) (75, -2.09982991218566894531e-01) (76, -8.28975319862365722656e-01) (77, 1.33809762500000000000e+06) (78, 6.00853502750396728516e-01) (79, -7.47293412685394287109e-01) (80, -1.71217143535614013672e-01) (81, 1.33809825000000000000e+06) (82, 1.33809837500000000000e+06) (83, 1.33809812500000000000e+06) (84, 1.33808200000000000000e+06) (85, 1.33809637500000000000e+06) (86, 1.33809825000000000000e+06) (87, 1.33809300000000000000e+06) (88, 1.33809662500000000000e+06) (30, -6.46196484565734863281e-01) (31, 1.33794575000000000000e+06) (32, -2.54513025283813476562e-01) (33, 1.33793212500000000000e+06) (34, 1.33794612500000000000e+06) (35, 4.50801461935043334961e-01) (36, 1.33794525000000000000e+06) (37, 1.52123808860778808594e-01) (38, 1.33794687500000000000e+06) (39, 2.76512503623962402344e-01) (40, 1.33794575000000000000e+06) (41, 1.33794662500000000000e+06) (42, 1.33794662500000000000e+06) (43, 1.33794650000000000000e+06) (44, 1.33794600000000000000e+06) (45, 1.33794625000000000000e+06) (46, 1.33794587500000000000e+06) (47, 1.33794575000000000000e+06) (48, 1.33794675000000000000e+06) (49, 1.33794587500000000000e+06) (50, -8.16005110740661621094e-01) (51, 1.33794687500000000000e+06) (52, 1.33794600000000000000e+06) (53, 1.33794675000000000000e+06) (54, 1.33794662500000000000e+06) (55, 2.49440163373947143555e-01) (56, 1.33794700000000000000e+06) (57, 1.33794537500000000000e+06) (58, -6.76510334014892578125e-01) (59, 2.84367203712463378906e-01) (60, 1.33794687500000000000e+06) (61, 1.33793437500000000000e+06) (62, -6.14901185035705566406e-02) (63, 1.33794612500000000000e+06) (64, -8.54476213455200195312e-01) (65, 1.31471425000000000000e+06) (66, 1.33794550000000000000e+06) (67, 1.33794650000000000000e+06) (68, 1.33794612500000000000e+06) (69, 1.33794550000000000000e+06) (70, 1.33794637500000000000e+06) (71, 1.33794625000000000000e+06) (72, 1.33790237500000000000e+06) (73, 1.33794687500000000000e+06) (74, 1.33794162500000000000e+06) (75, 4.60074067115783691406e-01) (76, -6.86135739088058471680e-02) (77, 1.33794675000000000000e+06) (78, 6.34690374135971069336e-03) (79, 5.42162179946899414062e-01) (80, -9.80172038078308105469e-01) (81, 1.33794725000000000000e+06) (82, 1.33794650000000000000e+06) (83, 1.33794675000000000000e+06) (84, 1.33793050000000000000e+06) (85, 1.33794625000000000000e+06) (86, 1.33794550000000000000e+06) (87, 1.33794325000000000000e+06) (88, 1.33794625000000000000e+06) (30, -4.94193494319915771484e-01) (31, 1.33778587500000000000e+06) (32, -9.35737133026123046875e-01) (33, 1.33777337500000000000e+06) (34, 1.33778750000000000000e+06) (35, -8.37950348854064941406e-01) (36, 1.33778675000000000000e+06) (37, -8.19506227970123291016e-01) (38, 1.33778587500000000000e+06) (39, 1.48013353347778320312e-01) (40, 1.33778737500000000000e+06) (41, 1.33778675000000000000e+06) (42, 1.33778712500000000000e+06) (43, 1.33778725000000000000e+06) (44, 1.33778737500000000000e+06) (45, 1.33778775000000000000e+06) (46, 1.33778625000000000000e+06) (47, 1.33778575000000000000e+06) (48, 1.33778625000000000000e+06) (49, 1.33778687500000000000e+06) (50, 2.11231335997581481934e-01) (51, 1.33778625000000000000e+06) (52, 1.33778662500000000000e+06) (53, 1.33778600000000000000e+06) (54, 1.33778750000000000000e+06) (55, 3.28801155090332031250e-01) (56, 1.33778675000000000000e+06) (57, 1.33778750000000000000e+06) (58, -8.39495003223419189453e-01) (59, -4.58249032497406005859e-01) (60, 1.33778712500000000000e+06) (61, 1.33777475000000000000e+06) (62, 4.73431706428527832031e-01) (63, 1.33778700000000000000e+06) (64, 8.59512463212013244629e-02) (65, 1.31454987500000000000e+06) (66, 1.33778625000000000000e+06) (67, 1.33778725000000000000e+06) (68, 1.33778687500000000000e+06) (69, 1.33778512500000000000e+06) (70, 1.33778687500000000000e+06) (71, 1.33778725000000000000e+06) (72, 1.33774200000000000000e+06) (73, 1.33778662500000000000e+06) (74, 1.33778087500000000000e+06) (75, -8.90374541282653808594e-01) (76, -6.24347209930419921875e-01) (77, 1.33778612500000000000e+06) (78, -3.58226001262664794922e-01) (79, -8.29797387123107910156e-01) (80, 7.97106444835662841797e-01) (81, 1.33778750000000000000e+06) (82, 1.33778762500000000000e+06) (83, 1.33778725000000000000e+06) (84, 1.33777162500000000000e+06) (85, 1.33778600000000000000e+06) (86, 1.33778650000000000000e+06) (87, 1.33778312500000000000e+06) (88, 1.33778725000000000000e+06) (30, -2.75413036346435546875e-01) (31, 1.33688525000000000000e+06) (32, 7.15983748435974121094e-01) (33, 1.33687537500000000000e+06) (34, 1.33688462500000000000e+06) (35, 5.10535240173339843750e-01) (36, 1.33688500000000000000e+06) (37, 2.84427165985107421875e-01) (38, 1.33688625000000000000e+06) (39, 8.76740336418151855469e-01) (40, 1.33688637500000000000e+06) (41, 1.33688437500000000000e+06) (42, 1.33688625000000000000e+06) (43, 1.33688450000000000000e+06) (44, 1.33688512500000000000e+06) (45, 1.33688500000000000000e+06) (46, 1.33688612500000000000e+06) (47, 1.33688450000000000000e+06) (48, 1.33688575000000000000e+06) (49, 1.33688562500000000000e+06) (50, 2.57353305816650390625e-01) (51, 1.33688487500000000000e+06) (52, 1.33688612500000000000e+06) (53, 1.33688437500000000000e+06) (54, 1.33688550000000000000e+06) (55, 4.66465950012207031250e-03) (56, 1.33688575000000000000e+06) (57, 1.33688500000000000000e+06) (58, -6.15951895713806152344e-01) (59, -8.50242078304290771484e-01) (60, 1.33688562500000000000e+06) (61, 1.33687800000000000000e+06) (62, -5.24626791477203369141e-01) (63, 1.33688500000000000000e+06) (64, 2.62218624353408813477e-01) (65, 1.31381362500000000000e+06) (66, 1.33688450000000000000e+06) (67, 1.33688612500000000000e+06) (68, 1.33688612500000000000e+06) (69, 1.33688412500000000000e+06) (70, 1.33688437500000000000e+06) (71, 1.33688475000000000000e+06) (72, 1.33684912500000000000e+06) (73, 1.33688475000000000000e+06) (74, 1.33688187500000000000e+06) (75, 4.14617657661437988281e-01) (76, -4.23182398080825805664e-01) (77, 1.33688475000000000000e+06) (78, -1.12926936149597167969e+00) (79, 5.33732771873474121094e-01) (80, 1.16441398859024047852e-02) (81, 1.33688537500000000000e+06) (82, 1.33688537500000000000e+06) (83, 1.33688462500000000000e+06) (84, 1.33687387500000000000e+06) (85, 1.33688612500000000000e+06) (86, 1.33688550000000000000e+06) (87, 1.33688362500000000000e+06) (88, 1.33688500000000000000e+06) (30, 8.46101045608520507812e-02) (31, 1.33783400000000000000e+06) (32, 3.40828418731689453125e-01) (33, 1.33782075000000000000e+06) (34, 1.33783550000000000000e+06) (35, -8.04718613624572753906e-01) (36, 1.33783575000000000000e+06) (37, 2.28027105331420898438e-01) (38, 1.33783437500000000000e+06) (39, -5.88946104049682617188e-01) (40, 1.33783437500000000000e+06) (41, 1.33783425000000000000e+06) (42, 1.33783437500000000000e+06) (43, 1.33783525000000000000e+06) (44, 1.33783362500000000000e+06) (45, 1.33783500000000000000e+06) (46, 1.33783450000000000000e+06) (47, 1.33783550000000000000e+06) (48, 1.33783562500000000000e+06) (49, 1.33783425000000000000e+06) (50, 6.86815202236175537109e-01) (51, 1.33783487500000000000e+06) (52, 1.33783537500000000000e+06) (53, 1.33783412500000000000e+06) (54, 1.33783412500000000000e+06) (55, 6.43326938152313232422e-01) (56, 1.33783537500000000000e+06) (57, 1.33783550000000000000e+06) (58, 5.28475582599639892578e-01) (59, -5.33568859100341796875e-03) (60, 1.33783537500000000000e+06) (61, 1.33782350000000000000e+06) (62, -9.65399980545043945312e-01) (63, 1.33783387500000000000e+06) (64, 1.24412225559353828430e-02) (65, 1.31462625000000000000e+06) (66, 1.33783487500000000000e+06) (67, 1.33783400000000000000e+06) (68, 1.33783475000000000000e+06) (69, 1.33783412500000000000e+06) (70, 1.33783537500000000000e+06) (71, 1.33783412500000000000e+06) (72, 1.33779287500000000000e+06) (73, 1.33783512500000000000e+06) (74, 1.33783087500000000000e+06) (75, 3.43069672584533691406e-01) (76, -8.10305774211883544922e-01) (77, 1.33783575000000000000e+06) (78, -7.64983236789703369141e-01) (79, -2.97925740480422973633e-01) (80, -5.40502429008483886719e-01) (81, 1.33783562500000000000e+06) (82, 1.33783387500000000000e+06) (83, 1.33783425000000000000e+06) (84, 1.33781900000000000000e+06) (85, 1.33783400000000000000e+06) (86, 1.33783425000000000000e+06) (87, 1.33783237500000000000e+06) (88, 1.33783400000000000000e+06) (30, -4.40676450729370117188e-01) (31, 1.33640312500000000000e+06) (32, 3.93372356891632080078e-01) (33, 1.33639450000000000000e+06) (34, 1.33640325000000000000e+06) (35, 6.35927796363830566406e-01) (36, 1.33640212500000000000e+06) (37, 3.14470291137695312500e-01) (38, 1.33640262500000000000e+06) (39, -8.71990501880645751953e-01) (40, 1.33640337500000000000e+06) (41, 1.33640312500000000000e+06) (42, 1.33640225000000000000e+06) (43, 1.33640175000000000000e+06) (44, 1.33640200000000000000e+06) (45, 1.33640162500000000000e+06) (46, 1.33640162500000000000e+06) (47, 1.33640262500000000000e+06) (48, 1.33640200000000000000e+06) (49, 1.33640287500000000000e+06) (50, -9.05373990535736083984e-02) (51, 1.33640225000000000000e+06) (52, 1.33640150000000000000e+06) (53, 1.33640275000000000000e+06) (54, 1.33640212500000000000e+06) (55, -8.21878790855407714844e-01) (56, 1.33640212500000000000e+06) (57, 1.33640225000000000000e+06) (58, 2.29552775621414184570e-01) (59, 5.55891990661621093750e-01) (60, 1.33640175000000000000e+06) (61, 1.33639687500000000000e+06) (62, -5.45657515525817871094e-01) (63, 1.33640225000000000000e+06) (64, -7.23322689533233642578e-01) (65, 1.31344100000000000000e+06) (66, 1.33640312500000000000e+06) (67, 1.33640200000000000000e+06) (68, 1.33640200000000000000e+06) (69, 1.33640262500000000000e+06) (70, 1.33640162500000000000e+06) (71, 1.33640200000000000000e+06) (72, 1.33637012500000000000e+06) (73, 1.33640275000000000000e+06) (74, 1.33640050000000000000e+06) (75, -4.19354021549224853516e-01) (76, -5.71450516581535339355e-02) (77, 1.33640137500000000000e+06) (78, -1.15463292598724365234e+00) (79, 6.43721461296081542969e-01) (80, -2.38395109772682189941e-01) (81, 1.33640225000000000000e+06) (82, 1.33640250000000000000e+06) (83, 1.33640187500000000000e+06) (84, 1.33639337500000000000e+06) (85, 1.33640262500000000000e+06) (86, 1.33640287500000000000e+06) (87, 1.33640150000000000000e+06) (88, 1.33640237500000000000e+06) (30, -5.23165404796600341797e-01) (31, 1.33790137500000000000e+06) (32, -6.56704366207122802734e-01) (33, 1.33788650000000000000e+06) (34, 1.33790200000000000000e+06) (35, 3.91545832157135009766e-01) (36, 1.33790112500000000000e+06) (37, -2.30751693248748779297e-01) (38, 1.33790175000000000000e+06) (39, -7.55409479141235351562e-01) (40, 1.33790162500000000000e+06) (41, 1.33790125000000000000e+06) (42, 1.33790175000000000000e+06) (43, 1.33790037500000000000e+06) (44, 1.33790025000000000000e+06) (45, 1.33790037500000000000e+06) (46, 1.33790150000000000000e+06) (47, 1.33790150000000000000e+06) (48, 1.33790100000000000000e+06) (49, 1.33790062500000000000e+06) (50, -6.28349244594573974609e-01) (51, 1.33790075000000000000e+06) (52, 1.33790125000000000000e+06) (53, 1.33790100000000000000e+06) (54, 1.33790162500000000000e+06) (55, -1.57808363437652587891e-01) (56, 1.33790137500000000000e+06) (57, 1.33790162500000000000e+06) (58, -8.56386005878448486328e-01) (59, -4.63877081871032714844e-01) (60, 1.33790112500000000000e+06) (61, 1.33789050000000000000e+06) (62, -3.64942729473114013672e-01) (63, 1.33790100000000000000e+06) (64, 4.33710843324661254883e-01) (65, 1.31469212500000000000e+06) (66, 1.33790025000000000000e+06) (67, 1.33790087500000000000e+06) (68, 1.33790112500000000000e+06) (69, 1.33789962500000000000e+06) (70, 1.33790212500000000000e+06) (71, 1.33790037500000000000e+06) (72, 1.33785775000000000000e+06) (73, 1.33790062500000000000e+06) (74, 1.33789700000000000000e+06) (75, -2.57615298032760620117e-01) (76, -7.26046085357666015625e-01) (77, 1.33790125000000000000e+06) (78, 9.87930446863174438477e-02) (79, 9.00028645992279052734e-01) (80, 4.32564109563827514648e-01) (81, 1.33790150000000000000e+06) (82, 1.33790212500000000000e+06) (83, 1.33790137500000000000e+06) (84, 1.33788650000000000000e+06) (85, 1.33790162500000000000e+06) (86, 1.33790125000000000000e+06) (87, 1.33789737500000000000e+06) (88, 1.33790075000000000000e+06) (30, -6.11518979072570800781e-01) (31, 1.33778637500000000000e+06) (32, -6.02063655853271484375e-01) (33, 1.33777112500000000000e+06) (34, 1.33778487500000000000e+06) (35, 2.73290872573852539062e-01) (36, 1.33778600000000000000e+06) (37, 2.96981930732727050781e-01) (38, 1.33778525000000000000e+06) (39, -9.88938748836517333984e-01) (40, 1.33778450000000000000e+06) (41, 1.33778487500000000000e+06) (42, 1.33778487500000000000e+06) (43, 1.33778587500000000000e+06) (44, 1.33778425000000000000e+06) (45, 1.33778600000000000000e+06) (46, 1.33778562500000000000e+06) (47, 1.33778475000000000000e+06) (48, 1.33778525000000000000e+06) (49, 1.33778550000000000000e+06) (50, -6.94113314151763916016e-01) (51, 1.33778612500000000000e+06) (52, 1.33778575000000000000e+06) (53, 1.33778587500000000000e+06) (54, 1.33778475000000000000e+06) (55, -8.83204281330108642578e-01) (56, 1.33778587500000000000e+06) (57, 1.33778450000000000000e+06) (58, -5.07048547267913818359e-01) (59, 3.77894639968872070312e-01) (60, 1.33778412500000000000e+06) (61, 1.33777337500000000000e+06) (62, -5.21633803844451904297e-01) (63, 1.33778587500000000000e+06) (64, -4.38329041004180908203e-01) (65, 1.31454487500000000000e+06) (66, 1.33778412500000000000e+06) (67, 1.33778612500000000000e+06) (68, 1.33778637500000000000e+06) (69, 1.33778450000000000000e+06) (70, 1.33778562500000000000e+06) (71, 1.33778550000000000000e+06) (72, 1.33774212500000000000e+06) (73, 1.33778612500000000000e+06) (74, 1.33778075000000000000e+06) (75, 3.75084161758422851562e-01) (76, 1.28405845165252685547e+00) (77, 1.33778500000000000000e+06) (78, 4.41677570343017578125e-01) (79, -5.30188322067260742188e-01) (80, -4.16612446308135986328e-01) (81, 1.33778462500000000000e+06) (82, 1.33778525000000000000e+06) (83, 1.33778537500000000000e+06) (84, 1.33776937500000000000e+06) (85, 1.33778512500000000000e+06) (86, 1.33778525000000000000e+06) (87, 1.33778200000000000000e+06) (88, 1.33778562500000000000e+06) (30, 3.96287918090820312500e-01) (31, -4.68771781921386718750e+01) (32, -8.05659711360931396484e-01) (33, -4.67046318054199218750e+01) (34, -4.86147613525390625000e+01) (35, 8.50122347474098205566e-02) (36, -4.81306457519531250000e+01) (37, 9.28463101387023925781e-01) (38, -4.82220687866210937500e+01) (39, 9.95774865150451660156e-01) (40, -4.82078895568847656250e+01) (41, -4.80078735351562500000e+01) (42, -4.65675468444824218750e+01) (43, -4.81415977478027343750e+01) (44, -4.69596061706542968750e+01) (45, -4.79693679809570312500e+01) (46, -4.65788078308105468750e+01) (47, -4.85534515380859375000e+01) (48, -4.75227050781250000000e+01) (49, -4.79398460388183593750e+01) (50, -8.83570551872253417969e-01) (51, -4.69209938049316406250e+01) (52, -4.72279281616210937500e+01) (53, -4.86867866516113281250e+01) (54, -4.83844413757324218750e+01) (55, 8.47637951374053955078e-01) (56, -4.73456573486328125000e+01) (57, -4.81394233703613281250e+01) (58, -5.01089453697204589844e-01) (59, 9.12578463554382324219e-01) (60, -4.78784866333007812500e+01) (61, -4.68346939086914062500e+01) (62, 6.30848050117492675781e-01) (63, -4.87999610900878906250e+01) (64, -1.02567172050476074219e+00) (65, -3.43913078308105468750e+01) (66, -4.66272621154785156250e+01) (67, -4.70307884216308593750e+01) (68, -4.87150993347167968750e+01) (69, -4.73663520812988281250e+01) (70, -4.73940391540527343750e+01) (71, -4.70561714172363281250e+01) (72, -4.66807098388671875000e+01) (73, -4.71917915344238281250e+01) (74, -4.65574722290039062500e+01) (75, 2.64057397842407226562e-01) (76, 2.33654361218214035034e-02) (77, -4.82644309997558593750e+01) (78, -6.36473521590232849121e-02) (79, 6.22086346149444580078e-01) (80, -6.56606256961822509766e-01) (81, -4.83323478698730468750e+01) (82, -4.75844612121582031250e+01) (83, -4.81767539978027343750e+01) (84, -4.66536293029785156250e+01) (85, -4.75947494506835937500e+01) (86, -4.87280387878417968750e+01) (87, -4.78476943969726562500e+01) (88, -4.79861183166503906250e+01) (30, 6.92080020904541015625e-01) (31, 1.33086825000000000000e+06) (32, -6.53541982173919677734e-01) (33, 1.33086812500000000000e+06) (34, 1.33086912500000000000e+06) (35, -1.12113046646118164062e+00) (36, 1.33086812500000000000e+06) (37, -5.79528450965881347656e-01) (38, 1.33086812500000000000e+06) (39, 1.74923181533813476562e-01) (40, 1.33086812500000000000e+06) (41, 1.33086912500000000000e+06) (42, 1.33086900000000000000e+06) (43, 1.33086925000000000000e+06) (44, 1.33086887500000000000e+06) (45, 1.33086875000000000000e+06) (46, 1.33086850000000000000e+06) (47, 1.33086925000000000000e+06) (48, 1.33086837500000000000e+06) (49, 1.33086887500000000000e+06) (50, 1.66090786457061767578e-01) (51, 1.33086862500000000000e+06) (52, 1.33086812500000000000e+06) (53, 1.33086875000000000000e+06) (54, 1.33086937500000000000e+06) (55, 2.05053150653839111328e-01) (56, 1.33086787500000000000e+06) (57, 1.33086775000000000000e+06) (58, 5.42027294635772705078e-01) (59, 3.33109378814697265625e-01) (60, 1.33086937500000000000e+06) (61, 1.33086900000000000000e+06) (62, 8.34155559539794921875e-01) (63, 1.33086887500000000000e+06) (64, -3.68956416845321655273e-01) (65, 1.30872612500000000000e+06) (66, 1.33087000000000000000e+06) (67, 1.33086787500000000000e+06) (68, 1.33086812500000000000e+06) (69, 1.33086887500000000000e+06) (70, 1.33086887500000000000e+06) (71, 1.33086862500000000000e+06) (72, 1.33086000000000000000e+06) (73, 1.33086887500000000000e+06) (74, 1.33086887500000000000e+06) (75, -9.71055507659912109375e-01) (76, -8.66321980953216552734e-01) (77, 1.33086787500000000000e+06) (78, -1.51130795478820800781e-01) (79, -2.68525183200836181641e-01) (80, 1.62688672542572021484e-01) (81, 1.33086937500000000000e+06) (82, 1.33086800000000000000e+06) (83, 1.33086962500000000000e+06) (84, 1.33086862500000000000e+06) (85, 1.33086825000000000000e+06) (86, 1.33086850000000000000e+06) (87, 1.33086825000000000000e+06) (88, 1.33086812500000000000e+06) (89, 6.11382904052734375000e+01) (90, -6.36551696777343750000e+02) (91, 6.20306320190429687500e+01) (92, 6.06121215820312500000e+01) (93, 6.25043945312500000000e+01) (94, 5.66767730712890625000e+01) (95, 5.95275344848632812500e+01) (96, 5.18327255249023437500e+01) (97, 5.89197998046875000000e+01) (98, 6.27777252197265625000e+01) (99, -6.73924148082733154297e-01) (100, 3.28264770507812500000e+01) (101, 6.24125671386718750000e+01) (89, 3.42282086610794067383e-01) (90, -3.92810493707656860352e-01) (91, 5.17759621143341064453e-01) (92, 4.76401537656784057617e-01) (93, 1.27250218391418457031e+00) (94, -5.92818856239318847656e-01) (95, 1.28473496437072753906e+00) (96, -3.10568404197692871094e+00) (97, 1.04195415973663330078e+00) (98, -9.28480848670005798340e-02) (99, 3.74681442975997924805e-01) (100, 1.79947465658187866211e-01) (101, 1.37433505058288574219e+00) (89, 4.11905586719512939453e-01) (90, 9.45798575878143310547e-01) (91, 1.12617969512939453125e+00) (92, -1.90333187580108642578e-01) (93, 1.18135678768157958984e+00) (94, -8.82200300693511962891e-01) (95, -2.27582395076751708984e-01) (96, -1.79043114185333251953e+00) (97, 1.53077900409698486328e+00) (98, 5.29426373541355133057e-02) (99, 9.71165299415588378906e-01) (100, -1.83020271360874176025e-02) (101, 1.65642097592353820801e-01) (89, -2.68077045679092407227e-01) (90, -2.60995656251907348633e-01) (91, 8.14222931861877441406e-01) (92, 3.71237605810165405273e-01) (93, 2.40913465619087219238e-01) (94, -1.53491687774658203125e+00) (95, -5.41107356548309326172e-01) (96, -3.24097609519958496094e+00) (97, -7.20136463642120361328e-02) (98, 5.60466796159744262695e-02) (99, -2.61922717094421386719e-01) (100, -1.33755564689636230469e-01) (101, -7.24584519863128662109e-01) (89, -1.17312431640625000000e+04) (90, -8.30407128906250000000e+03) (91, -1.17325419921875000000e+04) (92, -1.17323261718750000000e+04) (93, -1.17319589843750000000e+04) (94, -1.17264951171875000000e+04) (95, -1.17306748046875000000e+04) (96, -1.17254775390625000000e+04) (97, -1.17317705078125000000e+04) (98, -1.17315839843750000000e+04) (99, 3.53959798812866210938e-01) (100, -1.17014892578125000000e+04) (101, -1.17328974609375000000e+04) (89, -1.15301123046875000000e+04) (90, -8.20592578125000000000e+03) (91, -1.15312128906250000000e+04) (92, -1.15301210937500000000e+04) (93, -1.15291484375000000000e+04) (94, -1.15268154296875000000e+04) (95, -1.15309072265625000000e+04) (96, -1.15236757812500000000e+04) (97, -1.15303867187500000000e+04) (98, -1.15295078125000000000e+04) (99, 5.33748753368854522705e-02) (100, -1.14998720703125000000e+04) (101, -1.15317958984375000000e+04) 
