FANN_FLO_2.1
num_layers=4
learning_rate=0.700000
connection_rate=1.000000
network_type=0
learning_momentum=0.000000
training_algorithm=2
train_error_function=1
train_stop_function=0
cascade_output_change_fraction=0.010000
quickprop_decay=-0.000100
quickprop_mu=1.750000
rprop_increase_factor=1.200000
rprop_decrease_factor=0.500000
rprop_delta_min=0.000000
rprop_delta_max=50.000000
rprop_delta_zero=0.100000
cascade_output_stagnation_epochs=12
cascade_candidate_change_fraction=0.010000
cascade_candidate_stagnation_epochs=12
cascade_max_out_epochs=150
cascade_min_out_epochs=50
cascade_max_cand_epochs=150
cascade_min_cand_epochs=50
cascade_num_candidate_groups=2
bit_fail_limit=3.49999994039535522461e-01
cascade_candidate_limit=1.00000000000000000000e+03
cascade_weight_multiplier=4.00000005960464477539e-01
cascade_activation_functions_count=10
cascade_activation_functions=3 5 7 8 10 11 14 15 16 17 
cascade_activation_steepnesses_count=4
cascade_activation_steepnesses=2.50000000000000000000e-01 5.00000000000000000000e-01 7.50000000000000000000e-01 1.00000000000000000000e+00 
layer_sizes=30 59 13 7 
scale_included=0
neurons (num_inputs, activation_function, activation_steepness)=(0, 0, 0.00000000000000000000e+00) (0, 0, 0.00000000000000000000e+00) (0, 0, 0.00000000000000000000e+00) (0, 0, 0.00000000000000000000e+00) (0, 0, 0.00000000000000000000e+00) (0, 0, 0.00000000000000000000e+00) (0, 0, 0.00000000000000000000e+00) (0, 0, 0.00000000000000000000e+00) (0, 0, 0.00000000000000000000e+00) (0, 0, 0.00000000000000000000e+00) (0, 0, 0.00000000000000000000e+00) (0, 0, 0.00000000000000000000e+00) (0, 0, 0.00000000000000000000e+00) (0, 0, 0.00000000000000000000e+00) (0, 0, 0.00000000000000000000e+00) (0, 0, 0.00000000000000000000e+00) (0, 0, 0.00000000000000000000e+00) (0, 0, 0.00000000000000000000e+00) (0, 0, 0.00000000000000000000e+00) (0, 0, 0.00000000000000000000e+00) (0, 0, 0.00000000000000000000e+00) (0, 0, 0.00000000000000000000e+00) (0, 0, 0.00000000000000000000e+00) (0, 0, 0.00000000000000000000e+00) (0, 0, 0.00000000000000000000e+00) (0, 0, 0.00000000000000000000e+00) (0, 0, 0.00000000000000000000e+00) (0, 0, 0.00000000000000000000e+00) (0, 0, 0.00000000000000000000e+00) (0, 0, 0.00000000000000000000e+00) (30, 4, 5.00000000000000000000e-01) (30, 4, 5.00000000000000000000e-01) (30, 4, 5.00000000000000000000e-01) (30, 4, 5.00000000000000000000e-01) (30, 4, 5.00000000000000000000e-01) (30, 4, 5.00000000000000000000e-01) (30, 4, 5.00000000000000000000e-01) (30, 4, 5.00000000000000000000e-01) (30, 4, 5.00000000000000000000e-01) (30, 4, 5.00000000000000000000e-01) (30, 4, 5.00000000000000000000e-01) (30, 4, 5.00000000000000000000e-01) (30, 4, 5.00000000000000000000e-01) (30, 4, 5.00000000000000000000e-01) (30, 4, 5.00000000000000000000e-01) (30, 4, 5.00000000000000000000e-01) (30, 4, 5.00000000000000000000e-01) (30, 4, 5.00000000000000000000e-01) (30, 4, 5.00000000000000000000e-01) (30, 4, 5.00000000000000000000e-01) (30, 4, 5.00000000000000000000e-01) (30, 4, 5.00000000000000000000e-01) (30, 4, 5.00000000000000000000e-01) (30, 4, 5.00000000000000000000e-01) (30, 4, 5.00000000000000000000e-01) (30, 4, 5.00000000000000000000e-01) (30, 4, 5.00000000000000000000e-01) (30, 4, 5.00000000000000000000e-01) (30, 4, 5.00000000000000000000e-01) (30, 4, 5.00000000000000000000e-01) (30, 4, 5.00000000000000000000e-01) (30, 4, 5.00000000000000000000e-01) (30, 4, 5.00000000000000000000e-01) (30, 4, 5.00000000000000000000e-01) (30, 4, 5.00000000000000000000e-01) (30, 4, 5.00000000000000000000e-01) (30, 4, 5.00000000000000000000e-01) (30, 4, 5.00000000000000000000e-01) (30, 4, 5.00000000000000000000e-01) (30, 4, 5.00000000000000000000e-01) (30, 4, 5.00000000000000000000e-01) (30, 4, 5.00000000000000000000e-01) (30, 4, 5.00000000000000000000e-01) (30, 4, 5.00000000000000000000e-01) (30, 4, 5.00000000000000000000e-01) (30, 4, 5.00000000000000000000e-01) (30, 4, 5.00000000000000000000e-01) (30, 4, 5.00000000000000000000e-01) (30, 4, 5.00000000000000000000e-01) (30, 4, 5.00000000000000000000e-01) (30, 4, 5.00000000000000000000e-01) (30, 4, 5.00000000000000000000e-01) (30, 4, 5.00000000000000000000e-01) (30, 4, 5.00000000000000000000e-01) (30, 4, 5.00000000000000000000e-01) (30, 4, 5.00000000000000000000e-01) (30, 4, 5.00000000000000000000e-01) (30, 4, 5.00000000000000000000e-01) (0, 0, 0.00000000000000000000e+00) (59, 4, 5.00000000000000000000e-01) (59, 4, 5.00000000000000000000e-01) (59, 4, 5.00000000000000000000e-01) (59, 4, 5.00000000000000000000e-01) (59, 4, 5.00000000000000000000e-01) (59, 4, 5.00000000000000000000e-01) (59, 4, 5.00000000000000000000e-01) (59, 4, 5.00000000000000000000e-01) (59, 4, 5.00000000000000000000e-01) (59, 4, 5.00000000000000000000e-01) (59, 4, 5.00000000000000000000e-01) (59, 4, 5.00000000000000000000e-01) (0, 0, 0.00000000000000000000e+00) (13, 4, 5.00000000000000000000e-01) (13, 4, 5.00000000000000000000e-01) (13, 4, 5.00000000000000000000e-01) (13, 4, 5.00000000000000000000e-01) (13, 4, 5.00000000000000000000e-01) (13, 4, 5.00000000000000000000e-01) (0, 0, 0.00000000000000000000e+00) 
connections (connected_to_neuron, weight)=(0, -3.93004101562500000000e+04) (1, -6.49946093750000000000e+04) (2, -7.43002187500000000000e+04) (3, -7.52682031250000000000e+04) (4, -1.85483164062500000000e+04) (5, -2.41569042968750000000e+04) (6, -9.52322496000000000000e+08) (7, -8.54368500000000000000e+05) (8, -9.90627746582031250000e+02) (9, -1.84866528320312500000e+03) (10, 3.63351640625000000000e+04) (11, 7.93488720703125000000e+03) (12, -4.18673291015625000000e+03) (13, -1.11694801330566406250e+02) (14, -2.67615551757812500000e+03) (15, -2.83979150390625000000e+03) (16, -2.97787915039062500000e+03) (17, -3.85207397460937500000e+03) (18, -3.97069920000000000000e+07) (19, -2.62576406250000000000e+05) (20, -2.74506250000000000000e+03) (21, -2.77620019531250000000e+03) (22, -3.31117895507812500000e+03) (23, -3.55436861515045166016e-01) (24, -1.33041601562500000000e+03) (25, -1.63656127929687500000e+02) (26, -3.21240942382812500000e+03) (27, -2.66778637695312500000e+03) (28, -1.48250512695312500000e+03) (29, -2.36159637451171875000e+02) (0, 4.58425600000000000000e+08) (1, 7.65489280000000000000e+08) (2, 9.66035840000000000000e+08) (3, 9.76341440000000000000e+08) (4, 2.16467488000000000000e+08) (5, 2.70025280000000000000e+08) (6, 1.23804026142720000000e+13) (7, 8.82573516800000000000e+09) (8, 1.09502710000000000000e+07) (9, 2.01895560000000000000e+07) (10, -4.54193824000000000000e+08) (11, -1.05508240000000000000e+08) (12, 4.56872440000000000000e+07) (13, 1.72029515625000000000e+05) (14, 2.92290940000000000000e+07) (15, 3.08872820000000000000e+07) (16, 3.26140120000000000000e+07) (17, 4.20258840000000000000e+07) (18, 5.20559460352000000000e+11) (19, 2.08031936000000000000e+09) (20, 3.03214420000000000000e+07) (21, 3.10200180000000000000e+07) (22, 4.49138560000000000000e+07) (23, 1.90634131431579589844e-01) (24, 7.00257550000000000000e+06) (25, 2.95383000000000000000e+06) (26, 3.64734920000000000000e+07) (27, 3.00844580000000000000e+07) (28, 2.03499480000000000000e+07) (29, 2.57361075000000000000e+06) (0, -8.29700292968750000000e+03) (1, -1.37279433593750000000e+04) (2, -1.57481582031250000000e+04) (3, -1.59435087890625000000e+04) (4, -3.87436914062500000000e+03) (5, -5.05079638671875000000e+03) (6, -2.02365568000000000000e+08) (7, -1.75775406250000000000e+05) (8, -2.05954696655273437500e+02) (9, -3.86287445068359375000e+02) (10, 7.81567089843750000000e+03) (11, 1.73232922363281250000e+03) (12, -8.74575073242187500000e+02) (13, -2.13143348693847656250e+01) (14, -5.58952636718750000000e+02) (15, -5.93694396972656250000e+02) (16, -6.20461975097656250000e+02) (17, -8.05871032714843750000e+02) (18, -8.44975400000000000000e+06) (19, -5.00221601562500000000e+04) (20, -5.72488647460937500000e+02) (21, -5.79532409667968750000e+02) (22, -7.04118103027343750000e+02) (23, 2.58752703666687011719e-01) (24, -2.69187072753906250000e+02) (25, -3.42959098815917968750e+01) (26, -6.78797790527343750000e+02) (27, -5.62771972656250000000e+02) (28, -3.12393920898437500000e+02) (29, -4.84537010192871093750e+01) (0, 4.57015808000000000000e+08) (1, 7.63157248000000000000e+08) (2, 9.63369024000000000000e+08) (3, 9.73640896000000000000e+08) (4, 2.15804832000000000000e+08) (5, 2.69161696000000000000e+08) (6, 1.23462253281280000000e+13) (7, 8.79537664000000000000e+09) (8, 1.09149610000000000000e+07) (9, 2.01235080000000000000e+07) (10, -4.52885472000000000000e+08) (11, -1.05220608000000000000e+08) (12, 4.55375480000000000000e+07) (13, 1.68087609375000000000e+05) (14, 2.91334880000000000000e+07) (15, 3.07858440000000000000e+07) (16, 3.25077220000000000000e+07) (17, 4.18881800000000000000e+07) (18, 5.19133265920000000000e+11) (19, 2.07112473600000000000e+09) (20, 3.02234160000000000000e+07) (21, 3.09209060000000000000e+07) (22, 4.47949120000000000000e+07) (23, 8.10124278068542480469e-01) (24, 6.95538950000000000000e+06) (25, 2.94813250000000000000e+06) (26, 3.63583280000000000000e+07) (27, 2.99888300000000000000e+07) (28, 2.02968480000000000000e+07) (29, 2.56518725000000000000e+06) (0, 4.58457824000000000000e+08) (1, 7.65542592000000000000e+08) (2, 9.66096192000000000000e+08) (3, 9.76403008000000000000e+08) (4, 2.16482976000000000000e+08) (5, 2.70044960000000000000e+08) (6, 1.23811911434240000000e+13) (7, 8.82642432000000000000e+09) (8, 1.09510890000000000000e+07) (9, 2.01910860000000000000e+07) (10, -4.54224640000000000000e+08) (11, -1.05514832000000000000e+08) (12, 4.56907040000000000000e+07) (13, 1.72118796875000000000e+05) (14, 2.92313040000000000000e+07) (15, 3.08895780000000000000e+07) (16, 3.26164420000000000000e+07) (17, 4.20290200000000000000e+07) (18, 5.20592621568000000000e+11) (19, 2.08052492800000000000e+09) (20, 3.03236200000000000000e+07) (21, 3.10222960000000000000e+07) (22, 4.49165840000000000000e+07) (23, -3.20597767829895019531e-01) (24, 7.00364350000000000000e+06) (25, 2.95396225000000000000e+06) (26, 3.64761160000000000000e+07) (27, 3.00866420000000000000e+07) (28, 2.03511740000000000000e+07) (29, 2.57380650000000000000e+06) (0, -2.17557832031250000000e+04) (1, -3.59937500000000000000e+04) (2, -4.12548320312500000000e+04) (3, -4.17701171875000000000e+04) (4, -1.01842597656250000000e+04) (5, -1.32721064453125000000e+04) (6, -5.29826624000000000000e+08) (7, -4.63360156250000000000e+05) (8, -5.41050109863281250000e+02) (9, -1.01521582031250000000e+03) (10, 2.04033769531250000000e+04) (11, 4.50940917968750000000e+03) (12, -2.29994116210937500000e+03) (13, -5.88630218505859375000e+01) (14, -1.46707324218750000000e+03) (15, -1.55785864257812500000e+03) (16, -1.63124438476562500000e+03) (17, -2.11723193359375000000e+03) (18, -2.21155020000000000000e+07) (19, -1.34474000000000000000e+05) (20, -1.50622753906250000000e+03) (21, -1.52379980468750000000e+03) (22, -1.84421679687500000000e+03) (23, 4.61953878402709960938e-01) (24, -7.14128967285156250000e+02) (25, -8.90979385375976562500e+01) (26, -1.77784399414062500000e+03) (27, -1.47499365234375000000e+03) (28, -8.20022277832031250000e+02) (29, -1.28909988403320312500e+02) (0, 4.58405280000000000000e+08) (1, 7.65455808000000000000e+08) (2, 9.65998720000000000000e+08) (3, 9.76303872000000000000e+08) (4, 2.16458336000000000000e+08) (5, 2.70012864000000000000e+08) (6, 1.23799359979520000000e+13) (7, 8.82531942400000000000e+09) (8, 1.09497970000000000000e+07) (9, 2.01886680000000000000e+07) (10, -4.54176352000000000000e+08) (11, -1.05503984000000000000e+08) (12, 4.56851160000000000000e+07) (13, 1.71976031250000000000e+05) (14, 2.92277760000000000000e+07) (15, 3.08858920000000000000e+07) (16, 3.26125580000000000000e+07) (17, 4.20240160000000000000e+07) (18, 5.20539832320000000000e+11) (19, 2.08019430400000000000e+09) (20, 3.03200300000000000000e+07) (21, 3.10186480000000000000e+07) (22, 4.49121920000000000000e+07) (23, -5.43399214744567871094e-01) (24, 7.00192050000000000000e+06) (25, 2.95374975000000000000e+06) (26, 3.64719320000000000000e+07) (27, 3.00831080000000000000e+07) (28, 2.03492080000000000000e+07) (29, 2.57349675000000000000e+06) (0, -6.30363525390625000000e+03) (1, -1.04309238281250000000e+04) (2, -1.19713056640625000000e+04) (3, -1.21168076171875000000e+04) (4, -2.94073217773437500000e+03) (5, -3.83217675781250000000e+03) (6, -1.53866272000000000000e+08) (7, -1.33084484375000000000e+05) (8, -1.56042236328125000000e+02) (9, -2.92667572021484375000e+02) (10, 5.95032666015625000000e+03) (11, 1.32228491210937500000e+03) (12, -6.64009887695312500000e+02) (13, -1.70337638854980468750e+01) (14, -4.22824310302734375000e+02) (15, -4.50465118408203125000e+02) (16, -4.69577575683593750000e+02) (17, -6.11261352539062500000e+02) (18, -6.42577200000000000000e+06) (19, -3.74860000000000000000e+04) (20, -4.34737487792968750000e+02) (21, -4.40149414062500000000e+02) (22, -5.35548950195312500000e+02) (23, -4.40588414669036865234e-01) (24, -2.03262481689453125000e+02) (25, -2.64824275970458984375e+01) (26, -5.16116760253906250000e+02) (27, -4.27759216308593750000e+02) (28, -2.38956939697265625000e+02) (29, -3.65832023620605468750e+01) (0, 4.58435424000000000000e+08) (1, 7.65504448000000000000e+08) (2, 9.66054848000000000000e+08) (3, 9.76360704000000000000e+08) (4, 2.16472288000000000000e+08) (5, 2.70031488000000000000e+08) (6, 1.23806521753600000000e+13) (7, 8.82594918400000000000e+09) (8, 1.09505230000000000000e+07) (9, 2.01900240000000000000e+07) (10, -4.54203456000000000000e+08) (11, -1.05510016000000000000e+08) (12, 4.56882680000000000000e+07) (13, 1.72058515625000000000e+05) (14, 2.92297900000000000000e+07) (15, 3.08879860000000000000e+07) (16, 3.26147660000000000000e+07) (17, 4.20268640000000000000e+07) (18, 5.20569421824000000000e+11) (19, 2.08038489600000000000e+09) (20, 3.03221060000000000000e+07) (21, 3.10206960000000000000e+07) (22, 4.49147520000000000000e+07) (23, -2.20445156097412109375e-01) (24, 7.00291150000000000000e+06) (25, 2.95387050000000000000e+06) (26, 3.64743280000000000000e+07) (27, 3.00851200000000000000e+07) (28, 2.03503300000000000000e+07) (29, 2.57367175000000000000e+06) (0, -9.92484667968750000000e+03) (1, -1.64184355468750000000e+04) (2, -1.87753457031250000000e+04) (3, -1.90166406250000000000e+04) (4, -4.67830566406250000000e+03) (5, -6.09352343750000000000e+03) (6, -2.40715280000000000000e+08) (7, -2.14939375000000000000e+05) (8, -2.50271270751953125000e+02) (9, -4.66672760009765625000e+02) (10, 9.19687011718750000000e+03) (11, 2.01332556152343750000e+03) (12, -1.05690881347656250000e+03) (13, -2.70701503753662109375e+01) (14, -6.75832702636718750000e+02) (15, -7.15753540039062500000e+02) (16, -7.49941772460937500000e+02) (17, -9.70972229003906250000e+02) (18, -1.00381430000000000000e+07) (19, -6.56092734375000000000e+04) (20, -6.92021545410156250000e+02) (21, -7.00860168457031250000e+02) (22, -8.37596923828125000000e+02) (23, 9.74284291267395019531e-01) (24, -3.33544372558593750000e+02) (25, -4.07258377075195312500e+01) (26, -8.11803649902343750000e+02) (27, -6.72911804199218750000e+02) (28, -3.73844543457031250000e+02) (29, -5.99474563598632812500e+01) (0, 4.58445312000000000000e+08) (1, 7.65521216000000000000e+08) (2, 9.66073472000000000000e+08) (3, 9.76379712000000000000e+08) (4, 2.16477152000000000000e+08) (5, 2.70037472000000000000e+08) (6, 1.23809006878720000000e+13) (7, 8.82616524800000000000e+09) (8, 1.09507810000000000000e+07) (9, 2.01905160000000000000e+07) (10, -4.54212704000000000000e+08) (11, -1.05512080000000000000e+08) (12, 4.56894080000000000000e+07) (13, 1.72086359375000000000e+05) (14, 2.92304760000000000000e+07) (15, 3.08887140000000000000e+07) (16, 3.26155300000000000000e+07) (17, 4.20278680000000000000e+07) (18, 5.20579579904000000000e+11) (19, 2.08044966400000000000e+09) (20, 3.03228100000000000000e+07) (21, 3.10214120000000000000e+07) (22, 4.49155600000000000000e+07) (23, 8.65170478820800781250e-01) (24, 7.00324000000000000000e+06) (25, 2.95391225000000000000e+06) (26, 3.64751440000000000000e+07) (27, 3.00857960000000000000e+07) (28, 2.03507080000000000000e+07) (29, 2.57373375000000000000e+06) (0, 4.58426240000000000000e+08) (1, 7.65490496000000000000e+08) (2, 9.66037056000000000000e+08) (3, 9.76342784000000000000e+08) (4, 2.16467744000000000000e+08) (5, 2.70025664000000000000e+08) (6, 1.23804193914880000000e+13) (7, 8.82574131200000000000e+09) (8, 1.09502860000000000000e+07) (9, 2.01895860000000000000e+07) (10, -4.54194624000000000000e+08) (11, -1.05508392000000000000e+08) (12, 4.56873080000000000000e+07) (13, 1.72029921875000000000e+05) (14, 2.92291280000000000000e+07) (15, 3.08873260000000000000e+07) (16, 3.26140500000000000000e+07) (17, 4.20259440000000000000e+07) (18, 5.20560246784000000000e+11) (19, 2.08031654400000000000e+09) (20, 3.03214840000000000000e+07) (21, 3.10200560000000000000e+07) (22, 4.49139320000000000000e+07) (23, 8.50911736488342285156e-01) (24, 7.00258150000000000000e+06) (25, 2.95383250000000000000e+06) (26, 3.64735520000000000000e+07) (27, 3.00845020000000000000e+07) (28, 2.03499780000000000000e+07) (29, 2.57361450000000000000e+06) (0, 4.58434272000000000000e+08) (1, 7.65502528000000000000e+08) (2, 9.66052288000000000000e+08) (3, 9.76358272000000000000e+08) (4, 2.16471616000000000000e+08) (5, 2.70030624000000000000e+08) (6, 1.23806228152320000000e+13) (7, 8.82591436800000000000e+09) (8, 1.09504850000000000000e+07) (9, 2.01899560000000000000e+07) (10, -4.54202592000000000000e+08) (11, -1.05509864000000000000e+08) (12, 4.56881200000000000000e+07) (13, 1.72052796875000000000e+05) (14, 2.92296820000000000000e+07) (15, 3.08878860000000000000e+07) (16, 3.26146620000000000000e+07) (17, 4.20267160000000000000e+07) (18, 5.20568209408000000000e+11) (19, 2.08036902400000000000e+09) (20, 3.03220140000000000000e+07) (21, 3.10205920000000000000e+07) (22, 4.49146600000000000000e+07) (23, -1.17574453353881835938e-01) (24, 7.00285000000000000000e+06) (25, 2.95386475000000000000e+06) (26, 3.64742120000000000000e+07) (27, 3.00850440000000000000e+07) (28, 2.03502860000000000000e+07) (29, 2.57366175000000000000e+06) (0, 4.58435968000000000000e+08) (1, 7.65505408000000000000e+08) (2, 9.66055872000000000000e+08) (3, 9.76361536000000000000e+08) (4, 2.16472592000000000000e+08) (5, 2.70031712000000000000e+08) (6, 1.23806668554240000000e+13) (7, 8.82595635200000000000e+09) (8, 1.09505320000000000000e+07) (9, 2.01900420000000000000e+07) (10, -4.54204128000000000000e+08) (11, -1.05510128000000000000e+08) (12, 4.56883320000000000000e+07) (13, 1.72058718750000000000e+05) (14, 2.92298320000000000000e+07) (15, 3.08880100000000000000e+07) (16, 3.26147860000000000000e+07) (17, 4.20269000000000000000e+07) (18, 5.20569913344000000000e+11) (19, 2.08038297600000000000e+09) (20, 3.03221340000000000000e+07) (21, 3.10207300000000000000e+07) (22, 4.49148080000000000000e+07) (23, 1.76271438598632812500e-01) (24, 7.00291550000000000000e+06) (25, 2.95387375000000000000e+06) (26, 3.64743720000000000000e+07) (27, 3.00851580000000000000e+07) (28, 2.03503480000000000000e+07) (29, 2.57367325000000000000e+06) (0, 4.58391936000000000000e+08) (1, 7.65433408000000000000e+08) (2, 9.65972992000000000000e+08) (3, 9.76277952000000000000e+08) (4, 2.16451984000000000000e+08) (5, 2.70004512000000000000e+08) (6, 1.23796182794240000000e+13) (7, 8.82502451200000000000e+09) (8, 1.09494560000000000000e+07) (9, 2.01880380000000000000e+07) (10, -4.54164032000000000000e+08) (11, -1.05501472000000000000e+08) (12, 4.56837240000000000000e+07) (13, 1.71937875000000000000e+05) (14, 2.92268480000000000000e+07) (15, 3.08848880000000000000e+07) (16, 3.26115320000000000000e+07) (17, 4.20226760000000000000e+07) (18, 5.20526168064000000000e+11) (19, 2.08010073600000000000e+09) (20, 3.03191220000000000000e+07) (21, 3.10177120000000000000e+07) (22, 4.49110800000000000000e+07) (23, -7.11029171943664550781e-01) (24, 7.00145800000000000000e+06) (25, 2.95369300000000000000e+06) (26, 3.64708040000000000000e+07) (27, 3.00822420000000000000e+07) (28, 2.03486860000000000000e+07) (29, 2.57341600000000000000e+06) (0, 4.58413344000000000000e+08) (1, 7.65469248000000000000e+08) (2, 9.66015232000000000000e+08) (3, 9.76319936000000000000e+08) (4, 2.16462096000000000000e+08) (5, 2.70018208000000000000e+08) (6, 1.23801341788160000000e+13) (7, 8.82547814400000000000e+09) (8, 1.09499790000000000000e+07) (9, 2.01890220000000000000e+07) (10, -4.54184032000000000000e+08) (11, -1.05505768000000000000e+08) (12, 4.56859640000000000000e+07) (13, 1.71998734375000000000e+05) (14, 2.92283000000000000000e+07) (15, 3.08864540000000000000e+07) (16, 3.26131580000000000000e+07) (17, 4.20247880000000000000e+07) (18, 5.20547991552000000000e+11) (19, 2.08024256000000000000e+09) (20, 3.03205640000000000000e+07) (21, 3.10191880000000000000e+07) (22, 4.49128960000000000000e+07) (23, -7.70255982875823974609e-01) (24, 7.00217850000000000000e+06) (25, 2.95378225000000000000e+06) (26, 3.64725840000000000000e+07) (27, 3.00836440000000000000e+07) (28, 2.03495160000000000000e+07) (29, 2.57354250000000000000e+06) (0, 4.58413024000000000000e+08) (1, 7.65468736000000000000e+08) (2, 9.66014208000000000000e+08) (3, 9.76318976000000000000e+08) (4, 2.16461920000000000000e+08) (5, 2.70017920000000000000e+08) (6, 1.23801257902080000000e+13) (7, 8.82547097600000000000e+09) (8, 1.09499650000000000000e+07) (9, 2.01890020000000000000e+07) (10, -4.54183712000000000000e+08) (11, -1.05505664000000000000e+08) (12, 4.56859120000000000000e+07) (13, 1.71997109375000000000e+05) (14, 2.92282740000000000000e+07) (15, 3.08864260000000000000e+07) (16, 3.26131280000000000000e+07) (17, 4.20247440000000000000e+07) (18, 5.20547336192000000000e+11) (19, 2.08024076800000000000e+09) (20, 3.03205380000000000000e+07) (21, 3.10191580000000000000e+07) (22, 4.49128440000000000000e+07) (23, 1.72231197357177734375e-01) (24, 7.00216750000000000000e+06) (25, 2.95378125000000000000e+06) (26, 3.64725480000000000000e+07) (27, 3.00836100000000000000e+07) (28, 2.03495020000000000000e+07) (29, 2.57353975000000000000e+06) (0, 4.58406304000000000000e+08) (1, 7.65456960000000000000e+08) (2, 9.66000448000000000000e+08) (3, 9.76305472000000000000e+08) (4, 2.16458752000000000000e+08) (5, 2.70013312000000000000e+08) (6, 1.23799611637760000000e+13) (7, 8.82532556800000000000e+09) (8, 1.09498080000000000000e+07) (9, 2.01886960000000000000e+07) (10, -4.54177376000000000000e+08) (11, -1.05504272000000000000e+08) (12, 4.56851800000000000000e+07) (13, 1.71975875000000000000e+05) (14, 2.92278120000000000000e+07) (15, 3.08859440000000000000e+07) (16, 3.26126160000000000000e+07) (17, 4.20240840000000000000e+07) (18, 5.20540651520000000000e+11) (19, 2.08018956800000000000e+09) (20, 3.03200780000000000000e+07) (21, 3.10187120000000000000e+07) (22, 4.49122640000000000000e+07) (23, 7.56620168685913085938e-01) (24, 7.00192900000000000000e+06) (25, 2.95375025000000000000e+06) (26, 3.64720000000000000000e+07) (27, 3.00831740000000000000e+07) (28, 2.03492420000000000000e+07) (29, 2.57350050000000000000e+06) (0, 4.58437984000000000000e+08) (1, 7.65509184000000000000e+08) (2, 9.66059456000000000000e+08) (3, 9.76364992000000000000e+08) (4, 2.16473760000000000000e+08) (5, 2.70032928000000000000e+08) (6, 1.23807119441920000000e+13) (7, 8.82600243200000000000e+09) (8, 1.09505900000000000000e+07) (9, 2.01901440000000000000e+07) (10, -4.54206112000000000000e+08) (11, -1.05510480000000000000e+08) (12, 4.56885880000000000000e+07) (13, 1.72065531250000000000e+05) (14, 2.92299740000000000000e+07) (15, 3.08881780000000000000e+07) (16, 3.26149660000000000000e+07) (17, 4.20271000000000000000e+07) (18, 5.20572141568000000000e+11) (19, 2.08040217600000000000e+09) (20, 3.03222960000000000000e+07) (21, 3.10208820000000000000e+07) (22, 4.49149640000000000000e+07) (23, -6.53659522533416748047e-01) (24, 7.00300100000000000000e+06) (25, 2.95388300000000000000e+06) (26, 3.64745440000000000000e+07) (27, 3.00853000000000000000e+07) (28, 2.03504260000000000000e+07) (29, 2.57368575000000000000e+06) (0, 4.58429664000000000000e+08) (1, 7.65495808000000000000e+08) (2, 9.66043776000000000000e+08) (3, 9.76349120000000000000e+08) (4, 2.16469376000000000000e+08) (5, 2.70027744000000000000e+08) (6, 1.23805032775680000000e+13) (7, 8.82581504000000000000e+09) (8, 1.09503650000000000000e+07) (9, 2.01897360000000000000e+07) (10, -4.54198464000000000000e+08) (11, -1.05509072000000000000e+08) (12, 4.56876760000000000000e+07) (13, 1.72039609375000000000e+05) (14, 2.92293920000000000000e+07) (15, 3.08875880000000000000e+07) (16, 3.26143220000000000000e+07) (17, 4.20262840000000000000e+07) (18, 5.20563884032000000000e+11) (19, 2.08034176000000000000e+09) (20, 3.03217140000000000000e+07) (21, 3.10203140000000000000e+07) (22, 4.49142560000000000000e+07) (23, 6.90431237220764160156e-01) (24, 7.00270050000000000000e+06) (25, 2.95384700000000000000e+06) (26, 3.64738440000000000000e+07) (27, 3.00847360000000000000e+07) (28, 2.03501260000000000000e+07) (29, 2.57363325000000000000e+06) (0, -2.14669960937500000000e+04) (1, -3.55025703125000000000e+04) (2, -4.05981562500000000000e+04) (3, -4.11247148437500000000e+04) (4, -1.01233994140625000000e+04) (5, -1.31853662109375000000e+04) (6, -5.20447616000000000000e+08) (7, -4.65806156250000000000e+05) (8, -5.40237182617187500000e+02) (9, -1.00921826171875000000e+03) (10, 1.98767031250000000000e+04) (11, 4.34522753906250000000e+03) (12, -2.28433398437500000000e+03) (13, -6.10249900817871093750e+01) (14, -1.45994848632812500000e+03) (15, -1.54912219238281250000e+03) (16, -1.62535107421875000000e+03) (17, -2.10223217773437500000e+03) (18, -2.17024440000000000000e+07) (19, -1.42282515625000000000e+05) (20, -1.49714562988281250000e+03) (21, -1.51433496093750000000e+03) (22, -1.80962719726562500000e+03) (23, 6.23001337051391601562e-01) (24, -7.25310241699218750000e+02) (25, -8.81734848022460937500e+01) (26, -1.75484667968750000000e+03) (27, -1.45684448242187500000e+03) (28, -8.09838073730468750000e+02) (29, -1.28845306396484375000e+02) (0, 4.58421024000000000000e+08) (1, 7.65481600000000000000e+08) (2, 9.66028864000000000000e+08) (3, 9.76333824000000000000e+08) (4, 2.16465312000000000000e+08) (5, 2.70022688000000000000e+08) (6, 1.23803050967040000000e+13) (7, 8.82563788800000000000e+09) (8, 1.09501640000000000000e+07) (9, 2.01893640000000000000e+07) (10, -4.54190016000000000000e+08) (11, -1.05507344000000000000e+08) (12, 4.56867280000000000000e+07) (13, 1.72018453125000000000e+05) (14, 2.92287960000000000000e+07) (15, 3.08869780000000000000e+07) (16, 3.26136900000000000000e+07) (17, 4.20254680000000000000e+07) (18, 5.20555200512000000000e+11) (19, 2.08028953600000000000e+09) (20, 3.03210980000000000000e+07) (21, 3.10196940000000000000e+07) (22, 4.49134760000000000000e+07) (23, -7.72836863994598388672e-01) (24, 7.00242650000000000000e+06) (25, 2.95381125000000000000e+06) (26, 3.64731400000000000000e+07) (27, 3.00841280000000000000e+07) (28, 2.03497940000000000000e+07) (29, 2.57358675000000000000e+06) (0, 4.58438720000000000000e+08) (1, 7.65510208000000000000e+08) (2, 9.66060416000000000000e+08) (3, 9.76366080000000000000e+08) (4, 2.16474064000000000000e+08) (5, 2.70033408000000000000e+08) (6, 1.23807297699840000000e+13) (7, 8.82602086400000000000e+09) (8, 1.09506090000000000000e+07) (9, 2.01901780000000000000e+07) (10, -4.54206592000000000000e+08) (11, -1.05510584000000000000e+08) (12, 4.56886640000000000000e+07) (13, 1.72069859375000000000e+05) (14, 2.92300280000000000000e+07) (15, 3.08882280000000000000e+07) (16, 3.26150100000000000000e+07) (17, 4.20271800000000000000e+07) (18, 5.20572633088000000000e+11) (19, 2.08040985600000000000e+09) (20, 3.03223420000000000000e+07) (21, 3.10209380000000000000e+07) (22, 4.49150120000000000000e+07) (23, 3.82008790969848632812e-01) (24, 7.00303150000000000000e+06) (25, 2.95388675000000000000e+06) (26, 3.64745960000000000000e+07) (27, 3.00853440000000000000e+07) (28, 2.03504500000000000000e+07) (29, 2.57369000000000000000e+06) (0, 4.58406144000000000000e+08) (1, 7.65456704000000000000e+08) (2, 9.66000064000000000000e+08) (3, 9.76305088000000000000e+08) (4, 2.16458624000000000000e+08) (5, 2.70013248000000000000e+08) (6, 1.23799548723200000000e+13) (7, 8.82532761600000000000e+09) (8, 1.09498090000000000000e+07) (9, 2.01886920000000000000e+07) (10, -4.54177120000000000000e+08) (11, -1.05504168000000000000e+08) (12, 4.56851720000000000000e+07) (13, 1.71975968750000000000e+05) (14, 2.92278060000000000000e+07) (15, 3.08859360000000000000e+07) (16, 3.26125960000000000000e+07) (17, 4.20240760000000000000e+07) (18, 5.20540389376000000000e+11) (19, 2.08019302400000000000e+09) (20, 3.03200680000000000000e+07) (21, 3.10187020000000000000e+07) (22, 4.49122440000000000000e+07) (23, -5.15588998794555664062e-01) (24, 7.00193050000000000000e+06) (25, 2.95374950000000000000e+06) (26, 3.64719800000000000000e+07) (27, 3.00831560000000000000e+07) (28, 2.03492360000000000000e+07) (29, 2.57350050000000000000e+06) (0, 4.58415296000000000000e+08) (1, 7.65472896000000000000e+08) (2, 9.66018944000000000000e+08) (3, 9.76323584000000000000e+08) (4, 2.16462864000000000000e+08) (5, 2.70019296000000000000e+08) (6, 1.23801771704320000000e+13) (7, 8.82551398400000000000e+09) (8, 1.09500230000000000000e+07) (9, 2.01891100000000000000e+07) (10, -4.54185696000000000000e+08) (11, -1.05506192000000000000e+08) (12, 4.56861120000000000000e+07) (13, 1.72001140625000000000e+05) (14, 2.92284280000000000000e+07) (15, 3.08865720000000000000e+07) (16, 3.26132720000000000000e+07) (17, 4.20249600000000000000e+07) (18, 5.20550023168000000000e+11) (19, 2.08024780800000000000e+09) (20, 3.03206800000000000000e+07) (21, 3.10192980000000000000e+07) (22, 4.49130400000000000000e+07) (23, -1.82326555252075195312e-01) (24, 7.00223000000000000000e+06) (25, 2.95378975000000000000e+06) (26, 3.64727320000000000000e+07) (27, 3.00837560000000000000e+07) (28, 2.03495880000000000000e+07) (29, 2.57355375000000000000e+06) (0, -1.75171374511718750000e+03) (1, -2.90269531250000000000e+03) (2, -3.31688085937500000000e+03) (3, -3.36022509765625000000e+03) (4, -8.26685241699218750000e+02) (5, -1.07763024902343750000e+03) (6, -4.25288240000000000000e+07) (7, -3.77725820312500000000e+04) (8, -4.40967521667480468750e+01) (9, -8.21043472290039062500e+01) (10, 1.62301928710937500000e+03) (11, 3.56370971679687500000e+02) (12, -1.85710510253906250000e+02) (13, -5.66206789016723632812e+00) (14, -1.18423492431640625000e+02) (15, -1.26135093688964843750e+02) (16, -1.31769058227539062500e+02) (17, -1.71629364013671875000e+02) (18, -1.77347037500000000000e+06) (19, -1.17015332031250000000e+04) (20, -1.23297851562500000000e+02) (21, -1.23320487976074218750e+02) (22, -1.47085464477539062500e+02) (23, -4.65611159801483154297e-01) (24, -5.82915458679199218750e+01) (25, -8.05559539794921875000e+00) (26, -1.42931259155273437500e+02) (27, -1.18496101379394531250e+02) (28, -6.64892654418945312500e+01) (29, -1.14363737106323242188e+01) (0, 4.58455712000000000000e+08) (1, 7.65538560000000000000e+08) (2, 9.66092608000000000000e+08) (3, 9.76399232000000000000e+08) (4, 2.16482192000000000000e+08) (5, 2.70043968000000000000e+08) (6, 1.23811450060800000000e+13) (7, 8.82639974400000000000e+09) (8, 1.09510460000000000000e+07) (9, 2.01910080000000000000e+07) (10, -4.54222208000000000000e+08) (11, -1.05514240000000000000e+08) (12, 4.56905400000000000000e+07) (13, 1.72118578125000000000e+05) (14, 2.92311980000000000000e+07) (15, 3.08894680000000000000e+07) (16, 3.26163200000000000000e+07) (17, 4.20288680000000000000e+07) (18, 5.20590557184000000000e+11) (19, 2.08052416000000000000e+09) (20, 3.03234980000000000000e+07) (21, 3.10221660000000000000e+07) (22, 4.49164160000000000000e+07) (23, -9.98574733734130859375e-01) (24, 7.00360450000000000000e+06) (25, 2.95395725000000000000e+06) (26, 3.64759840000000000000e+07) (27, 3.00864960000000000000e+07) (28, 2.03511140000000000000e+07) (29, 2.57379500000000000000e+06) (0, 4.58432192000000000000e+08) (1, 7.65499776000000000000e+08) (2, 9.66048256000000000000e+08) (3, 9.76354304000000000000e+08) (4, 2.16470704000000000000e+08) (5, 2.70029472000000000000e+08) (6, 1.23805578035200000000e+13) (7, 8.82588364800000000000e+09) (8, 1.09504420000000000000e+07) (9, 2.01898660000000000000e+07) (10, -4.54200608000000000000e+08) (11, -1.05509440000000000000e+08) (12, 4.56879480000000000000e+07) (13, 1.72051578125000000000e+05) (14, 2.92295600000000000000e+07) (15, 3.08877680000000000000e+07) (16, 3.26145040000000000000e+07) (17, 4.20265400000000000000e+07) (18, 5.20566079488000000000e+11) (19, 2.08036992000000000000e+09) (20, 3.03218880000000000000e+07) (21, 3.10204800000000000000e+07) (22, 4.49144680000000000000e+07) (23, 6.73993587493896484375e-01) (24, 7.00280600000000000000e+06) (25, 2.95385775000000000000e+06) (26, 3.64740440000000000000e+07) (27, 3.00849160000000000000e+07) (28, 2.03502180000000000000e+07) (29, 2.57365075000000000000e+06) (0, -3.36892734375000000000e+04) (1, -5.57106015625000000000e+04) (2, -6.36882500000000000000e+04) (3, -6.45158476562500000000e+04) (4, -1.59005224609375000000e+04) (5, -2.07097441406250000000e+04) (6, -8.16257088000000000000e+08) (7, -7.32751000000000000000e+05) (8, -8.49566772460937500000e+02) (9, -1.58537145996093750000e+03) (10, 3.11397265625000000000e+04) (11, 6.79952246093750000000e+03) (12, -3.58912182617187500000e+03) (13, -9.64874572753906250000e+01) (14, -2.29559472656250000000e+03) (15, -2.43350927734375000000e+03) (16, -2.55259716796875000000e+03) (17, -3.30161962890625000000e+03) (18, -3.40332280000000000000e+07) (19, -2.25235093750000000000e+05) (20, -2.35153613281250000000e+03) (21, -2.37913256835937500000e+03) (22, -2.83777636718750000000e+03) (23, -8.82071673870086669922e-01) (24, -1.13997424316406250000e+03) (25, -1.39265060424804687500e+02) (26, -2.75371801757812500000e+03) (27, -2.28606762695312500000e+03) (28, -1.27087121582031250000e+03) (29, -2.01988372802734375000e+02) (0, -2.09504003906250000000e+03) (1, -3.45849487304687500000e+03) (2, -3.92400854492187500000e+03) (3, -3.98101220703125000000e+03) (4, -1.01339385986328125000e+03) (5, -1.31755554199218750000e+03) (6, -4.99706040000000000000e+07) (7, -4.86497070312500000000e+04) (8, -5.36718063354492187500e+01) (9, -1.01336326599121093750e+02) (10, 1.85408557128906250000e+03) (11, 3.87337860107421875000e+02) (12, -2.27717926025390625000e+02) (13, -6.94678640365600585938e+00) (14, -1.46969909667968750000e+02) (15, -1.56139312744140625000e+02) (16, -1.63863906860351562500e+02) (17, -2.10721923828125000000e+02) (18, -2.07652137500000000000e+06) (19, -1.70770332031250000000e+04) (20, -1.50158081054687500000e+02) (21, -1.51480453491210937500e+02) (22, -1.72880020141601562500e+02) (23, -8.26537609100341796875e-04) (24, -7.83604736328125000000e+01) (25, -9.85868930816650390625e+00) (26, -1.70335662841796875000e+02) (27, -1.43268463134765625000e+02) (28, -7.97563323974609375000e+01) (29, -1.26663484573364257812e+01) (0, 4.58414912000000000000e+08) (1, 7.65472256000000000000e+08) (2, 9.66018368000000000000e+08) (3, 9.76323008000000000000e+08) (4, 2.16462736000000000000e+08) (5, 2.70019072000000000000e+08) (6, 1.23801708789760000000e+13) (7, 8.82550784000000000000e+09) (8, 1.09500150000000000000e+07) (9, 2.01890940000000000000e+07) (10, -4.54185408000000000000e+08) (11, -1.05506136000000000000e+08) (12, 4.56860920000000000000e+07) (13, 1.71999140625000000000e+05) (14, 2.92284060000000000000e+07) (15, 3.08865540000000000000e+07) (16, 3.26132520000000000000e+07) (17, 4.20249240000000000000e+07) (18, 5.20549761024000000000e+11) (19, 2.08024563200000000000e+09) (20, 3.03206520000000000000e+07) (21, 3.10192760000000000000e+07) (22, 4.49130240000000000000e+07) (23, -6.89709782600402832031e-01) (24, 7.00221750000000000000e+06) (25, 2.95378725000000000000e+06) (26, 3.64727040000000000000e+07) (27, 3.00837400000000000000e+07) (28, 2.03495720000000000000e+07) (29, 2.57355000000000000000e+06) (0, 4.57295456000000000000e+08) (1, 7.63618432000000000000e+08) (2, 9.63896768000000000000e+08) (3, 9.74175168000000000000e+08) (4, 2.15935952000000000000e+08) (5, 2.69332320000000000000e+08) (6, 1.23529938862080000000e+13) (7, 8.80137932800000000000e+09) (8, 1.09219270000000000000e+07) (9, 2.01365920000000000000e+07) (10, -4.53145248000000000000e+08) (11, -1.05277720000000000000e+08) (12, 4.55672600000000000000e+07) (13, 1.68866906250000000000e+05) (14, 2.91523960000000000000e+07) (15, 3.08058800000000000000e+07) (16, 3.25287620000000000000e+07) (17, 4.19154520000000000000e+07) (18, 5.19415791616000000000e+11) (19, 2.07293568000000000000e+09) (20, 3.02428220000000000000e+07) (21, 3.09405320000000000000e+07) (22, 4.48185040000000000000e+07) (23, 1.47362947463989257812e-02) (24, 6.96472300000000000000e+06) (25, 2.94924225000000000000e+06) (26, 3.63811160000000000000e+07) (27, 3.00077940000000000000e+07) (28, 2.03073540000000000000e+07) (29, 2.56685650000000000000e+06) (0, -3.67377187500000000000e+04) (1, -6.07557031250000000000e+04) (2, -6.94482187500000000000e+04) (3, -7.03529531250000000000e+04) (4, -1.73464453125000000000e+04) (5, -2.25892812500000000000e+04) (6, -8.90045760000000000000e+08) (7, -7.99255812500000000000e+05) (8, -9.26053649902343750000e+02) (9, -1.72846411132812500000e+03) (10, 3.39427304687500000000e+04) (11, 7.40988476562500000000e+03) (12, -3.91556323242187500000e+03) (13, -1.04879745483398437500e+02) (14, -2.50328955078125000000e+03) (15, -2.65566577148437500000e+03) (16, -2.78428320312500000000e+03) (17, -3.60080615234375000000e+03) (18, -3.71083000000000000000e+07) (19, -2.46307265625000000000e+05) (20, -2.56555029296875000000e+03) (21, -2.59544580078125000000e+03) (22, -3.09373754882812500000e+03) (23, 8.86365294456481933594e-01) (24, -1.24595361328125000000e+03) (25, -1.53317611694335937500e+02) (26, -3.00256933593750000000e+03) (27, -2.49305273437500000000e+03) (28, -1.38408972167968750000e+03) (29, -2.21396224975585937500e+02) (0, 4.58432096000000000000e+08) (1, 7.65499584000000000000e+08) (2, 9.66048320000000000000e+08) (3, 9.76354368000000000000e+08) (4, 2.16470640000000000000e+08) (5, 2.70029344000000000000e+08) (6, 1.23805609492480000000e+13) (7, 8.82587238400000000000e+09) (8, 1.09504340000000000000e+07) (9, 2.01898560000000000000e+07) (10, -4.54200736000000000000e+08) (11, -1.05509520000000000000e+08) (12, 4.56879280000000000000e+07) (13, 1.72047468750000000000e+05) (14, 2.92295400000000000000e+07) (15, 3.08877460000000000000e+07) (16, 3.26144860000000000000e+07) (17, 4.20265160000000000000e+07) (18, 5.20566079488000000000e+11) (19, 2.08036019200000000000e+09) (20, 3.03218720000000000000e+07) (21, 3.10204640000000000000e+07) (22, 4.49144680000000000000e+07) (23, -3.16712856292724609375e-01) (24, 7.00278650000000000000e+06) (25, 2.95385600000000000000e+06) (26, 3.64740360000000000000e+07) (27, 3.00849140000000000000e+07) (28, 2.03502160000000000000e+07) (29, 2.57364900000000000000e+06) (0, -3.06125566406250000000e+04) (1, -5.06421289062500000000e+04) (2, -5.79737382812500000000e+04) (3, -5.87094335937500000000e+04) (4, -1.43827021484375000000e+04) (5, -1.87387011718750000000e+04) (6, -7.43905664000000000000e+08) (7, -6.57436062500000000000e+05) (8, -7.65803833007812500000e+02) (9, -1.43303906250000000000e+03) (10, 2.85267753906250000000e+04) (11, 6.27546289062500000000e+03) (12, -3.24626586914062500000e+03) (13, -8.36830291748046875000e+01) (14, -2.07446118164062500000e+03) (15, -2.20131665039062500000e+03) (16, -2.30486230468750000000e+03) (17, -2.98661572265625000000e+03) (18, -3.10359340000000000000e+07) (19, -1.96124875000000000000e+05) (20, -2.12779541015625000000e+03) (21, -2.15244604492187500000e+03) (22, -2.58925683593750000000e+03) (23, -9.61573898792266845703e-01) (24, -1.01752392578125000000e+03) (25, -1.24818794250488281250e+02) (26, -2.50183496093750000000e+03) (27, -2.07755444335937500000e+03) (28, -1.15478735351562500000e+03) (29, -1.82230667114257812500e+02) (0, -2.88119171142578125000e+02) (1, -4.66204833984375000000e+02) (2, -4.78468322753906250000e+02) (3, -4.97630340576171875000e+02) (4, -1.80472137451171875000e+02) (5, -2.30939147949218750000e+02) (6, -5.54741900000000000000e+06) (7, -1.19423515625000000000e+04) (8, -1.08653306961059570312e+01) (9, -1.78918170928955078125e+01) (10, 1.13922744750976562500e+02) (11, -5.82545804977416992188e+00) (12, -3.97744560241699218750e+01) (13, -3.01284027099609375000e+00) (14, -2.78708477020263671875e+01) (15, -2.75303344726562500000e+01) (16, -2.99574851989746093750e+01) (17, -3.59520072937011718750e+01) (18, -2.18458250000000000000e+05) (19, -7.57781835937500000000e+03) (20, -2.61193103790283203125e+01) (21, -2.82081813812255859375e+01) (22, -1.72389564514160156250e+01) (23, 2.65784144401550292969e-01) (24, -2.18359947204589843750e+01) (25, -3.39093422889709472656e+00) (26, -2.23879508972167968750e+01) (27, -1.98454151153564453125e+01) (28, -1.12074785232543945312e+01) (29, -2.92831444740295410156e+00) (0, 4.58388608000000000000e+08) (1, 7.65428928000000000000e+08) (2, 9.65967808000000000000e+08) (3, 9.76272576000000000000e+08) (4, 2.16450400000000000000e+08) (5, 2.70002624000000000000e+08) (6, 1.23795532677120000000e+13) (7, 8.82494156800000000000e+09) (8, 1.09493810000000000000e+07) (9, 2.01878920000000000000e+07) (10, -4.54161440000000000000e+08) (11, -1.05501008000000000000e+08) (12, 4.56833880000000000000e+07) (13, 1.71924437500000000000e+05) (14, 2.92266140000000000000e+07) (15, 3.08846680000000000000e+07) (16, 3.26112880000000000000e+07) (17, 4.20224000000000000000e+07) (18, 5.20523415552000000000e+11) (19, 2.08006912000000000000e+09) (20, 3.03189000000000000000e+07) (21, 3.10174800000000000000e+07) (22, 4.49108400000000000000e+07) (23, -4.72931027412414550781e-01) (24, 7.00132900000000000000e+06) (25, 2.95367800000000000000e+06) (26, 3.64705840000000000000e+07) (27, 3.00820320000000000000e+07) (28, 2.03485720000000000000e+07) (29, 2.57339775000000000000e+06) (0, 4.58437472000000000000e+08) (1, 7.65508416000000000000e+08) (2, 9.66058624000000000000e+08) (3, 9.76364288000000000000e+08) (4, 2.16473584000000000000e+08) (5, 2.70032672000000000000e+08) (6, 1.23806951669760000000e+13) (7, 8.82599731200000000000e+09) (8, 1.09505780000000000000e+07) (9, 2.01901260000000000000e+07) (10, -4.54205536000000000000e+08) (11, -1.05510328000000000000e+08) (12, 4.56885240000000000000e+07) (13, 1.72065609375000000000e+05) (14, 2.92299480000000000000e+07) (15, 3.08881420000000000000e+07) (16, 3.26149340000000000000e+07) (17, 4.20270640000000000000e+07) (18, 5.20571420672000000000e+11) (19, 2.08040320000000000000e+09) (20, 3.03222620000000000000e+07) (21, 3.10208540000000000000e+07) (22, 4.49149280000000000000e+07) (23, -9.82424437999725341797e-01) (24, 7.00298950000000000000e+06) (25, 2.95388025000000000000e+06) (26, 3.64745080000000000000e+07) (27, 3.00852660000000000000e+07) (28, 2.03504040000000000000e+07) (29, 2.57368350000000000000e+06) (0, 4.58438208000000000000e+08) (1, 7.65509440000000000000e+08) (2, 9.66059584000000000000e+08) (3, 9.76365248000000000000e+08) (4, 2.16473872000000000000e+08) (5, 2.70033056000000000000e+08) (6, 1.23807161384960000000e+13) (7, 8.82600755200000000000e+09) (8, 1.09505940000000000000e+07) (9, 2.01901560000000000000e+07) (10, -4.54206144000000000000e+08) (11, -1.05510504000000000000e+08) (12, 4.56886040000000000000e+07) (13, 1.72067578125000000000e+05) (14, 2.92299860000000000000e+07) (15, 3.08881940000000000000e+07) (16, 3.26149820000000000000e+07) (17, 4.20271280000000000000e+07) (18, 5.20572239872000000000e+11) (19, 2.08040563200000000000e+09) (20, 3.03223080000000000000e+07) (21, 3.10208940000000000000e+07) (22, 4.49149680000000000000e+07) (23, 2.60330557823181152344e-01) (24, 7.00301200000000000000e+06) (25, 2.95388375000000000000e+06) (26, 3.64745600000000000000e+07) (27, 3.00853140000000000000e+07) (28, 2.03504320000000000000e+07) (29, 2.57368825000000000000e+06) (0, 4.58318496000000000000e+08) (1, 7.65311744000000000000e+08) (2, 9.65832320000000000000e+08) (3, 9.76135424000000000000e+08) (4, 2.16417312000000000000e+08) (5, 2.69959264000000000000e+08) (6, 1.23778283601920000000e+13) (7, 8.82342092800000000000e+09) (8, 1.09475790000000000000e+07) (9, 2.01845480000000000000e+07) (10, -4.54094976000000000000e+08) (11, -1.05486384000000000000e+08) (12, 4.56758320000000000000e+07) (13, 1.71728453125000000000e+05) (14, 2.92218340000000000000e+07) (15, 3.08795660000000000000e+07) (16, 3.26059420000000000000e+07) (17, 4.20153920000000000000e+07) (18, 5.20451325952000000000e+11) (19, 2.07961497600000000000e+09) (20, 3.03139460000000000000e+07) (21, 3.10124820000000000000e+07) (22, 4.49048080000000000000e+07) (23, -5.17199516296386718750e-01) (24, 6.99897100000000000000e+06) (25, 2.95338700000000000000e+06) (26, 3.64647200000000000000e+07) (27, 3.00771800000000000000e+07) (28, 2.03459240000000000000e+07) (29, 2.57296950000000000000e+06) (0, 4.58434944000000000000e+08) (1, 7.65503552000000000000e+08) (2, 9.66053952000000000000e+08) (3, 9.76359872000000000000e+08) (4, 2.16472032000000000000e+08) (5, 2.70031200000000000000e+08) (6, 1.23806406410240000000e+13) (7, 8.82593587200000000000e+09) (8, 1.09505100000000000000e+07) (9, 2.01900000000000000000e+07) (10, -4.54203072000000000000e+08) (11, -1.05509952000000000000e+08) (12, 4.56882200000000000000e+07) (13, 1.72056156250000000000e+05) (14, 2.92297460000000000000e+07) (15, 3.08879440000000000000e+07) (16, 3.26147220000000000000e+07) (17, 4.20268000000000000000e+07) (18, 5.20568963072000000000e+11) (19, 2.08037913600000000000e+09) (20, 3.03220680000000000000e+07) (21, 3.10206480000000000000e+07) (22, 4.49147160000000000000e+07) (23, -3.87426674365997314453e-01) (24, 7.00289000000000000000e+06) (25, 2.95386900000000000000e+06) (26, 3.64742880000000000000e+07) (27, 3.00850880000000000000e+07) (28, 2.03503140000000000000e+07) (29, 2.57366775000000000000e+06) (0, 4.58368576000000000000e+08) (1, 7.65394496000000000000e+08) (2, 9.65929024000000000000e+08) (3, 9.76233536000000000000e+08) (4, 2.16441024000000000000e+08) (5, 2.69990816000000000000e+08) (6, 1.23790331740160000000e+13) (7, 8.82450841600000000000e+09) (8, 1.09488540000000000000e+07) (9, 2.01869220000000000000e+07) (10, -4.54141024000000000000e+08) (11, -1.05496576000000000000e+08) (12, 4.56812680000000000000e+07) (13, 1.71871656250000000000e+05) (14, 2.92252240000000000000e+07) (15, 3.08831980000000000000e+07) (16, 3.26097300000000000000e+07) (17, 4.20203600000000000000e+07) (18, 5.20502050816000000000e+11) (19, 2.07994880000000000000e+09) (20, 3.03174680000000000000e+07) (21, 3.10160400000000000000e+07) (22, 4.49090360000000000000e+07) (23, 2.00544118881225585938e-01) (24, 7.00066950000000000000e+06) (25, 2.95359600000000000000e+06) (26, 3.64688880000000000000e+07) (27, 3.00805940000000000000e+07) (28, 2.03478160000000000000e+07) (29, 2.57327475000000000000e+06) (0, 4.53802240000000000000e+08) (1, 7.57841088000000000000e+08) (2, 9.57289792000000000000e+08) (3, 9.67484416000000000000e+08) (4, 2.14297744000000000000e+08) (5, 2.67197248000000000000e+08) (6, 1.22681431162880000000e+13) (7, 8.72669593600000000000e+09) (8, 1.08347150000000000000e+07) (9, 1.99733020000000000000e+07) (10, -4.49891328000000000000e+08) (11, -1.04559448000000000000e+08) (12, 4.51972120000000000000e+07) (13, 1.59122828125000000000e+05) (14, 2.89160480000000000000e+07) (15, 3.05549820000000000000e+07) (16, 3.22661140000000000000e+07) (17, 4.15750000000000000000e+07) (18, 5.15876945920000000000e+11) (19, 2.05042380800000000000e+09) (20, 3.00005580000000000000e+07) (21, 3.06953940000000000000e+07) (22, 4.45233720000000000000e+07) (23, 3.95455002784729003906e-01) (24, 6.84850400000000000000e+06) (25, 2.93570825000000000000e+06) (26, 3.60955000000000000000e+07) (27, 2.97707220000000000000e+07) (28, 2.01758920000000000000e+07) (29, 2.54603050000000000000e+06) (0, 4.58434880000000000000e+08) (1, 7.65503488000000000000e+08) (2, 9.66053824000000000000e+08) (3, 9.76359680000000000000e+08) (4, 2.16471968000000000000e+08) (5, 2.70031136000000000000e+08) (6, 1.23806385438720000000e+13) (7, 8.82593177600000000000e+09) (8, 1.09505060000000000000e+07) (9, 2.01899920000000000000e+07) (10, -4.54203072000000000000e+08) (11, -1.05509952000000000000e+08) (12, 4.56882040000000000000e+07) (13, 1.72054859375000000000e+05) (14, 2.92297340000000000000e+07) (15, 3.08879380000000000000e+07) (16, 3.26147140000000000000e+07) (17, 4.20267880000000000000e+07) (18, 5.20568897536000000000e+11) (19, 2.08037683200000000000e+09) (20, 3.03220580000000000000e+07) (21, 3.10206360000000000000e+07) (22, 4.49147080000000000000e+07) (23, 2.40695118904113769531e-01) (24, 7.00288300000000000000e+06) (25, 2.95386800000000000000e+06) (26, 3.64742760000000000000e+07) (27, 3.00850820000000000000e+07) (28, 2.03503120000000000000e+07) (29, 2.57366750000000000000e+06) (0, 4.57935840000000000000e+08) (1, 7.64678336000000000000e+08) (2, 9.65110144000000000000e+08) (3, 9.75404160000000000000e+08) (4, 2.16237104000000000000e+08) (5, 2.69724928000000000000e+08) (6, 1.23685327339520000000e+13) (7, 8.81516851200000000000e+09) (8, 1.09379980000000000000e+07) (9, 2.01666300000000000000e+07) (10, -4.53740384000000000000e+08) (11, -1.05408472000000000000e+08) (12, 4.56352480000000000000e+07) (13, 1.70659796875000000000e+05) (14, 2.91958600000000000000e+07) (15, 3.08520380000000000000e+07) (16, 3.25770700000000000000e+07) (17, 4.19781000000000000000e+07) (18, 5.20064663552000000000e+11) (19, 2.07711795200000000000e+09) (20, 3.02873560000000000000e+07) (21, 3.09855400000000000000e+07) (22, 4.48725760000000000000e+07) (23, 3.04681301116943359375e-01) (24, 6.98616100000000000000e+06) (25, 2.95182400000000000000e+06) (26, 3.64334960000000000000e+07) (27, 3.00512560000000000000e+07) (28, 2.03315080000000000000e+07) (29, 2.57068800000000000000e+06) (0, -1.77006835937500000000e+04) (1, -2.92933183593750000000e+04) (2, -3.35988671875000000000e+04) (3, -3.40122539062500000000e+04) (4, -8.26507128906250000000e+03) (5, -1.07728808593750000000e+04) (6, -4.31784800000000000000e+08) (7, -3.74069250000000000000e+05) (8, -4.40116241455078125000e+02) (9, -8.22649230957031250000e+02) (10, 1.66734375000000000000e+04) (11, 3.70199536132812500000e+03) (12, -1.86650817871093750000e+03) (13, -4.73771018981933593750e+01) (14, -1.19067993164062500000e+03) (15, -1.26372753906250000000e+03) (16, -1.32343737792968750000e+03) (17, -1.71856079101562500000e+03) (18, -1.80291180000000000000e+07) (19, -1.06775250000000000000e+05) (20, -1.22170446777343750000e+03) (21, -1.23663061523437500000e+03) (22, -1.50469885253906250000e+03) (23, -5.12598514556884765625e-01) (24, -5.75154968261718750000e+02) (25, -7.20349197387695312500e+01) (26, -1.44712731933593750000e+03) (27, -1.20068957519531250000e+03) (28, -6.68769409179687500000e+02) (29, -1.04425254821777343750e+02) (0, -4.03592617187500000000e+04) (1, -6.67667031250000000000e+04) (2, -7.64626953125000000000e+04) (3, -7.74304062500000000000e+04) (4, -1.89373085937500000000e+04) (5, -2.46760703125000000000e+04) (6, -9.81459136000000000000e+08) (7, -8.64243000000000000000e+05) (8, -1.00861096191406250000e+03) (9, -1.88655786132812500000e+03) (10, 3.76897031250000000000e+04) (11, 8.30513769531250000000e+03) (12, -4.27565576171875000000e+03) (13, -1.09663902282714843750e+02) (14, -2.73073364257812500000e+03) (15, -2.89813647460937500000e+03) (16, -3.03505126953125000000e+03) (17, -3.93433105468750000000e+03) (18, -4.09533480000000000000e+07) (19, -2.55567515625000000000e+05) (20, -2.80183691406250000000e+03) (21, -2.83242163085937500000e+03) (22, -3.41638623046875000000e+03) (23, 5.79457283020019531250e-01) (24, -1.33567468261718750000e+03) (25, -1.65757415771484375000e+02) (26, -3.29881152343750000000e+03) (27, -2.73714160156250000000e+03) (28, -1.52313452148437500000e+03) (29, -2.41312500000000000000e+02) (0, 4.58397344000000000000e+08) (1, 7.65442688000000000000e+08) (2, 9.65983232000000000000e+08) (3, 9.76288320000000000000e+08) (4, 2.16454672000000000000e+08) (5, 2.70008160000000000000e+08) (6, 1.23797462056960000000e+13) (7, 8.82515660800000000000e+09) (8, 1.09496020000000000000e+07) (9, 2.01883020000000000000e+07) (10, -4.54168704000000000000e+08) (11, -1.05502384000000000000e+08) (12, 4.56842760000000000000e+07) (13, 1.71957218750000000000e+05) (14, 2.92272480000000000000e+07) (15, 3.08853020000000000000e+07) (16, 3.26119540000000000000e+07) (17, 4.20232440000000000000e+07) (18, 5.20531542016000000000e+11) (19, 2.08014822400000000000e+09) (20, 3.03195320000000000000e+07) (21, 3.10181260000000000000e+07) (22, 4.49115480000000000000e+07) (23, -9.36568975448608398438e-01) (24, 7.00166950000000000000e+06) (25, 2.95371800000000000000e+06) (26, 3.64712800000000000000e+07) (27, 3.00825900000000000000e+07) (28, 2.03488980000000000000e+07) (29, 2.57345125000000000000e+06) (0, -3.22850625000000000000e+04) (1, -5.34159804687500000000e+04) (2, -6.11566796875000000000e+04) (3, -6.19316367187500000000e+04) (4, -1.51572099609375000000e+04) (5, -1.97486679687500000000e+04) (6, -7.84936064000000000000e+08) (7, -6.91596062500000000000e+05) (8, -8.08009582519531250000e+02) (9, -1.50951245117187500000e+03) (10, 3.01226132812500000000e+04) (11, 6.63668847656250000000e+03) (12, -3.42112426757812500000e+03) (13, -8.78637390136718750000e+01) (14, -2.18500781250000000000e+03) (15, -2.31939062500000000000e+03) (16, -2.43037304687500000000e+03) (17, -3.14816577148437500000e+03) (18, -3.27506420000000000000e+07) (19, -2.05617671875000000000e+05) (20, -2.24249487304687500000e+03) (21, -2.26761523437500000000e+03) (22, -2.73165625000000000000e+03) (23, -3.46448004245758056641e-01) (24, -1.07028771972656250000e+03) (25, -1.31140136718750000000e+02) (26, -2.63868774414062500000e+03) (27, -2.18983764648437500000e+03) (28, -1.21705371093750000000e+03) (29, -1.92251876831054687500e+02) (0, -1.91675085449218750000e+03) (1, -3.16591699218750000000e+03) (2, -3.62439868164062500000e+03) (3, -3.67161010742187500000e+03) (4, -9.05768798828125000000e+02) (5, -1.17969323730468750000e+03) (6, -4.64072520000000000000e+07) (7, -4.22726132812500000000e+04) (8, -4.76210708618164062500e+01) (9, -9.00709381103515625000e+01) (10, 1.77261926269531250000e+03) (11, 3.82796142578125000000e+02) (12, -2.03917251586914062500e+02) (13, -5.69203805923461914062e+00) (14, -1.29787948608398437500e+02) (15, -1.39142227172851562500e+02) (16, -1.45356216430664062500e+02) (17, -1.88828247070312500000e+02) (18, -1.93513287500000000000e+06) (19, -1.27547011718750000000e+04) (20, -1.34602554321289062500e+02) (21, -1.34860229492187500000e+02) (22, -1.60943572998046875000e+02) (23, 3.84459495544433593750e-02) (24, -6.57155609130859375000e+01) (25, -9.15363979339599609375e+00) (26, -1.57334243774414062500e+02) (27, -1.29292190551757812500e+02) (28, -7.17389297485351562500e+01) (29, -1.09473552703857421875e+01) (0, -1.05809628906250000000e+04) (1, -1.75007929687500000000e+04) (2, -2.00126562500000000000e+04) (3, -2.02715234375000000000e+04) (4, -4.99145068359375000000e+03) (5, -6.49989013671875000000e+03) (6, -2.56550816000000000000e+08) (7, -2.29456328125000000000e+05) (8, -2.65895355224609375000e+02) (9, -4.98289215087890625000e+02) (10, 9.79698730468750000000e+03) (11, 2.14163745117187500000e+03) (12, -1.12631506347656250000e+03) (13, -3.03964996337890625000e+01) (14, -7.20286621093750000000e+02) (15, -7.63671447753906250000e+02) (16, -8.00465393066406250000e+02) (17, -1.03676110839843750000e+03) (18, -1.06979280000000000000e+07) (19, -7.02177968750000000000e+04) (20, -7.37932434082031250000e+02) (21, -7.46753540039062500000e+02) (22, -8.92628906250000000000e+02) (23, 3.43378543853759765625e-01) (24, -3.57161773681640625000e+02) (25, -4.29261360168457031250e+01) (26, -8.64638671875000000000e+02) (27, -7.18038146972656250000e+02) (28, -3.98799133300781250000e+02) (29, -6.28000946044921875000e+01) (0, 4.58462976000000000000e+08) (1, 7.65551104000000000000e+08) (2, 9.66107520000000000000e+08) (3, 9.76414144000000000000e+08) (4, 2.16485584000000000000e+08) (5, 2.70048448000000000000e+08) (6, 1.23813253611520000000e+13) (7, 8.82654105600000000000e+09) (8, 1.09512190000000000000e+07) (9, 2.01913460000000000000e+07) (10, -4.54230368000000000000e+08) (11, -1.05516000000000000000e+08) (12, 4.56912800000000000000e+07) (13, 1.72135437500000000000e+05) (14, 2.92316740000000000000e+07) (15, 3.08899780000000000000e+07) (16, 3.26168760000000000000e+07) (17, 4.20295720000000000000e+07) (18, 5.20597995520000000000e+11) (19, 2.08056038400000000000e+09) (20, 3.03240260000000000000e+07) (21, 3.10226780000000000000e+07) (22, 4.49170840000000000000e+07) (23, 6.05770587921142578125e-01) (24, 7.00382850000000000000e+06) (25, 2.95398675000000000000e+06) (26, 3.64765840000000000000e+07) (27, 3.00870180000000000000e+07) (28, 2.03513860000000000000e+07) (29, 2.57383825000000000000e+06) (0, 4.58436352000000000000e+08) (1, 7.65505984000000000000e+08) (2, 9.66056512000000000000e+08) (3, 9.76362176000000000000e+08) (4, 2.16472896000000000000e+08) (5, 2.70032064000000000000e+08) (6, 1.23806741954560000000e+13) (7, 8.82597171200000000000e+09) (8, 1.09505460000000000000e+07) (9, 2.01900680000000000000e+07) (10, -4.54204288000000000000e+08) (11, -1.05510096000000000000e+08) (12, 4.56883880000000000000e+07) (13, 1.72063171875000000000e+05) (14, 2.92298720000000000000e+07) (15, 3.08880480000000000000e+07) (16, 3.26148320000000000000e+07) (17, 4.20269480000000000000e+07) (18, 5.20570109952000000000e+11) (19, 2.08039424000000000000e+09) (20, 3.03221720000000000000e+07) (21, 3.10207660000000000000e+07) (22, 4.49148280000000000000e+07) (23, 1.73919439315795898438e-01) (24, 7.00294550000000000000e+06) (25, 2.95387700000000000000e+06) (26, 3.64744040000000000000e+07) (27, 3.00851860000000000000e+07) (28, 2.03503620000000000000e+07) (29, 2.57367600000000000000e+06) (0, 4.58444736000000000000e+08) (1, 7.65520256000000000000e+08) (2, 9.66072384000000000000e+08) (3, 9.76378368000000000000e+08) (4, 2.16476864000000000000e+08) (5, 2.70037120000000000000e+08) (6, 1.23808902021120000000e+13) (7, 8.82614476800000000000e+09) (8, 1.09507620000000000000e+07) (9, 2.01904820000000000000e+07) (10, -4.54212448000000000000e+08) (11, -1.05512024000000000000e+08) (12, 4.56893280000000000000e+07) (13, 1.72081546875000000000e+05) (14, 2.92304260000000000000e+07) (15, 3.08886740000000000000e+07) (16, 3.26154860000000000000e+07) (17, 4.20277800000000000000e+07) (18, 5.20579055616000000000e+11) (19, 2.08043852800000000000e+09) (20, 3.03227680000000000000e+07) (21, 3.10213700000000000000e+07) (22, 4.49155280000000000000e+07) (23, 4.82008218765258789062e-01) (24, 7.00320750000000000000e+06) (25, 2.95390900000000000000e+06) (26, 3.64750880000000000000e+07) (27, 3.00857620000000000000e+07) (28, 2.03506860000000000000e+07) (29, 2.57372775000000000000e+06) (0, 4.56861184000000000000e+08) (1, 7.62901056000000000000e+08) (2, 9.63076480000000000000e+08) (3, 9.73344000000000000000e+08) (4, 2.15731872000000000000e+08) (5, 2.69066656000000000000e+08) (6, 1.23424567459840000000e+13) (7, 8.79203840000000000000e+09) (8, 1.09110770000000000000e+07) (9, 2.01162720000000000000e+07) (10, -4.52741632000000000000e+08) (11, -1.05188920000000000000e+08) (12, 4.55211440000000000000e+07) (13, 1.67652890625000000000e+05) (14, 2.91229680000000000000e+07) (15, 3.07746760000000000000e+07) (16, 3.24960660000000000000e+07) (17, 4.18731200000000000000e+07) (18, 5.18976536576000000000e+11) (19, 2.07011008000000000000e+09) (20, 3.02126320000000000000e+07) (21, 3.09099720000000000000e+07) (22, 4.47818960000000000000e+07) (23, -1.79102361202239990234e-01) (24, 6.95021250000000000000e+06) (25, 2.94752075000000000000e+06) (26, 3.63456760000000000000e+07) (27, 2.99783260000000000000e+07) (28, 2.02909980000000000000e+07) (29, 2.56426350000000000000e+06) (0, 4.58401696000000000000e+08) (1, 7.65449600000000000000e+08) (2, 9.65991360000000000000e+08) (3, 9.76296832000000000000e+08) (4, 2.16456752000000000000e+08) (5, 2.70010752000000000000e+08) (6, 1.23798437232640000000e+13) (7, 8.82523955200000000000e+09) (8, 1.09497060000000000000e+07) (9, 2.01885020000000000000e+07) (10, -4.54173472000000000000e+08) (11, -1.05503360000000000000e+08) (12, 4.56847520000000000000e+07) (13, 1.71965734375000000000e+05) (14, 2.92275420000000000000e+07) (15, 3.08856340000000000000e+07) (16, 3.26122840000000000000e+07) (17, 4.20236600000000000000e+07) (18, 5.20536293376000000000e+11) (19, 2.08016780800000000000e+09) (20, 3.03197960000000000000e+07) (21, 3.10184220000000000000e+07) (22, 4.49118880000000000000e+07) (23, -6.63098990917205810547e-01) (24, 7.00179200000000000000e+06) (25, 2.95373475000000000000e+06) (26, 3.64716320000000000000e+07) (27, 3.00828800000000000000e+07) (28, 2.03490740000000000000e+07) (29, 2.57347575000000000000e+06) (0, 4.58418048000000000000e+08) (1, 7.65477120000000000000e+08) (2, 9.66023360000000000000e+08) (3, 9.76328064000000000000e+08) (4, 2.16463968000000000000e+08) (5, 2.70020864000000000000e+08) (6, 1.23802369392640000000e+13) (7, 8.82557235200000000000e+09) (8, 1.09500890000000000000e+07) (9, 2.01892340000000000000e+07) (10, -4.54187840000000000000e+08) (11, -1.05506648000000000000e+08) (12, 4.56864160000000000000e+07) (13, 1.72010093750000000000e+05) (14, 2.92286060000000000000e+07) (15, 3.08867560000000000000e+07) (16, 3.26134680000000000000e+07) (17, 4.20251880000000000000e+07) (18, 5.20552513536000000000e+11) (19, 2.08027046400000000000e+09) (20, 3.03208800000000000000e+07) (21, 3.10194860000000000000e+07) (22, 4.49132320000000000000e+07) (23, 3.49261760711669921875e-01) (24, 7.00232300000000000000e+06) (25, 2.95380075000000000000e+06) (26, 3.64729080000000000000e+07) (27, 3.00839280000000000000e+07) (28, 2.03496860000000000000e+07) (29, 2.57357000000000000000e+06) (0, 4.58086496000000000000e+08) (1, 7.64927808000000000000e+08) (2, 9.65394176000000000000e+08) (3, 9.75691776000000000000e+08) (4, 2.16308304000000000000e+08) (5, 2.69817248000000000000e+08) (6, 1.23721975070720000000e+13) (7, 8.81841049600000000000e+09) (8, 1.09417720000000000000e+07) (9, 2.01736720000000000000e+07) (10, -4.53879840000000000000e+08) (11, -1.05439112000000000000e+08) (12, 4.56511680000000000000e+07) (13, 1.71082406250000000000e+05) (14, 2.92060800000000000000e+07) (15, 3.08628980000000000000e+07) (16, 3.25884500000000000000e+07) (17, 4.19927280000000000000e+07) (18, 5.20216346624000000000e+11) (19, 2.07810534400000000000e+09) (20, 3.02978380000000000000e+07) (21, 3.09961340000000000000e+07) (22, 4.48853040000000000000e+07) (23, 7.70990014076232910156e-01) (24, 6.99121800000000000000e+06) (25, 2.95243900000000000000e+06) (26, 3.64457960000000000000e+07) (27, 3.00614340000000000000e+07) (28, 2.03371740000000000000e+07) (29, 2.57158475000000000000e+06) (30, -4.17007088661193847656e-01) (31, 7.29026220703125000000e+03) (32, 2.98626065254211425781e-01) (33, 7.27609619140625000000e+03) (34, 7.28978271484375000000e+03) (35, -7.28653252124786376953e-01) (36, 7.28952685546875000000e+03) (37, 7.42683887481689453125e-01) (38, 7.29035009765625000000e+03) (39, 4.82449650764465332031e-01) (40, 7.29050732421875000000e+03) (41, 7.28993212890625000000e+03) (42, 7.28925146484375000000e+03) (43, 7.29072509765625000000e+03) (44, 7.29022607421875000000e+03) (45, 7.28991748046875000000e+03) (46, 7.29040087890625000000e+03) (47, 7.28998583984375000000e+03) (48, 7.29092236328125000000e+03) (49, 7.29063232421875000000e+03) (50, -4.61769223213195800781e-01) (51, 7.29046728515625000000e+03) (52, 7.29020556640625000000e+03) (53, 7.28925439453125000000e+03) (54, 7.28918896484375000000e+03) (55, -5.06387501955032348633e-02) (56, 7.29049853515625000000e+03) (57, 7.29075439453125000000e+03) (58, -3.80400598049163818359e-01) (59, 5.81917762756347656250e-01) (60, 7.28933349609375000000e+03) (61, 7.27830419921875000000e+03) (62, -5.93634724617004394531e-01) (63, 7.29029052734375000000e+03) (64, 4.81197191402316093445e-03) (65, 2.91306972503662109375e-01) (66, 7.29004345703125000000e+03) (67, 7.29002392578125000000e+03) (68, 7.29061279296875000000e+03) (69, 7.28899072265625000000e+03) (70, 7.29036376953125000000e+03) (71, 7.28868115234375000000e+03) (72, 7.24529638671875000000e+03) (73, 7.28945263671875000000e+03) (74, 7.28421142578125000000e+03) (75, -3.81381571292877197266e-01) (76, -2.91058242321014404297e-01) (77, 7.28947900390625000000e+03) (78, -3.10231924057006835938e-01) (79, -1.03585317730903625488e-01) (80, 7.26683139801025390625e-02) (81, 7.28984130859375000000e+03) (82, 7.28940673828125000000e+03) (83, 7.29058056640625000000e+03) (84, 7.27334716796875000000e+03) (85, 7.29014013671875000000e+03) (86, 7.28953369140625000000e+03) (87, 7.28553173828125000000e+03) (88, 7.29017431640625000000e+03) (30, 9.52930569648742675781e-01) (31, -4.07132577896118164062e+00) (32, 1.47902369499206542969e-01) (33, -2.86724185943603515625e+00) (34, -2.46395444869995117188e+00) (35, 9.43995416164398193359e-02) (36, -3.08334612846374511719e+00) (37, -5.90161561965942382812e-01) (38, -2.90297651290893554688e+00) (39, -3.45867931842803955078e-01) (40, -4.00984525680541992188e+00) (41, -2.54758191108703613281e+00) (42, -2.81372618675231933594e+00) (43, -2.73064446449279785156e+00) (44, -2.69719672203063964844e+00) (45, -3.33653545379638671875e+00) (46, -3.11678600311279296875e+00) (47, -4.03210973739624023438e+00) (48, -2.41563391685485839844e+00) (49, -3.61559486389160156250e+00) (50, -1.33721500635147094727e-01) (51, -2.80733728408813476562e+00) (52, -3.63942193984985351562e+00) (53, -3.98910188674926757812e+00) (54, -3.72859001159667968750e+00) (55, 6.66089475154876708984e-01) (56, -2.93894505500793457031e+00) (57, -4.16372251510620117188e+00) (58, -7.09676563739776611328e-01) (59, 5.53386211395263671875e-01) (60, -3.39849376678466796875e+00) (61, -2.04376053810119628906e+00) (62, 4.95571017265319824219e-01) (63, -3.07721757888793945312e+00) (64, -2.22899839282035827637e-01) (65, 6.74317002296447753906e-01) (66, -4.11110162734985351562e+00) (67, -3.51832246780395507812e+00) (68, -3.90577602386474609375e+00) (69, -3.29891014099121093750e+00) (70, -3.65447664260864257812e+00) (71, -3.27527904510498046875e+00) (72, -3.31802344322204589844e+00) (73, -3.72745966911315917969e+00) (74, -2.88625597953796386719e+00) (75, -1.96052491664886474609e-01) (76, 3.25655221939086914062e-01) (77, -3.90948390960693359375e+00) (78, -1.15608125925064086914e-01) (79, -3.76285344362258911133e-01) (80, 6.33319616317749023438e-02) (81, -3.80727481842041015625e+00) (82, -2.23395562171936035156e+00) (83, -3.93470096588134765625e+00) (84, -3.75346827507019042969e+00) (85, -2.97511816024780273438e+00) (86, -4.11424684524536132812e+00) (87, -2.13395595550537109375e+00) (88, -2.57888340950012207031e+00) (30, -5.87268471717834472656e-01) (31, 7.31315576171875000000e+03) (32, 6.33071362972259521484e-01) (33, 7.29795751953125000000e+03) (34, 7.31329394531250000000e+03) (35, -6.34059131145477294922e-01) (36, 7.31183837890625000000e+03) (37, -9.40321326255798339844e-01) (38, 7.31264599609375000000e+03) (39, 4.28501129150390625000e-01) (40, 7.31283837890625000000e+03) (41, 7.31303710937500000000e+03) (42, 7.31264648437500000000e+03) (43, 7.31271044921875000000e+03) (44, 7.31284570312500000000e+03) (45, 7.31183203125000000000e+03) (46, 7.31202343750000000000e+03) (47, 7.31227148437500000000e+03) (48, 7.31250732421875000000e+03) (49, 7.31268066406250000000e+03) (50, -3.97414088249206542969e-01) (51, 7.31184765625000000000e+03) (52, 7.31354882812500000000e+03) (53, 7.31281201171875000000e+03) (54, 7.31178320312500000000e+03) (55, 3.38379144668579101562e-01) (56, 7.31318652343750000000e+03) (57, 7.31340869140625000000e+03) (58, -1.82085692882537841797e-01) (59, -5.03666341304779052734e-01) (60, 7.31187500000000000000e+03) (61, 7.30093212890625000000e+03) (62, -7.32511997222900390625e-01) (63, 7.31359033203125000000e+03) (64, -9.84975934028625488281e-01) (65, 1.31322622299194335938e-01) (66, 7.31199462890625000000e+03) (67, 7.31333349609375000000e+03) (68, 7.31227832031250000000e+03) (69, 7.31092480468750000000e+03) (70, 7.31245019531250000000e+03) (71, 7.31109423828125000000e+03) (72, 7.26649658203125000000e+03) (73, 7.31299414062500000000e+03) (74, 7.30615625000000000000e+03) (75, -2.09982991218566894531e-01) (76, -8.28975319862365722656e-01) (77, 7.31278076171875000000e+03) (78, 6.00853502750396728516e-01) (79, -7.47293412685394287109e-01) (80, -1.71217143535614013672e-01) (81, 7.31333251953125000000e+03) (82, 7.31350585937500000000e+03) (83, 7.31318847656250000000e+03) (84, 7.29706542968750000000e+03) (85, 7.31151123046875000000e+03) (86, 7.31342822265625000000e+03) (87, 7.30815966796875000000e+03) (88, 7.31174023437500000000e+03) (30, -6.46196484565734863281e-01) (31, 7.29340966796875000000e+03) (32, -2.54513025283813476562e-01) (33, 7.27989111328125000000e+03) (34, 7.29385693359375000000e+03) (35, 4.50801461935043334961e-01) (36, 7.29293896484375000000e+03) (37, 1.52123808860778808594e-01) (38, 7.29458837890625000000e+03) (39, 2.76512503623962402344e-01) (40, 7.29348486328125000000e+03) (41, 7.29438427734375000000e+03) (42, 7.29428955078125000000e+03) (43, 7.29417724609375000000e+03) (44, 7.29366064453125000000e+03) (45, 7.29394384765625000000e+03) (46, 7.29356201171875000000e+03) (47, 7.29347607421875000000e+03) (48, 7.29444677734375000000e+03) (49, 7.29363427734375000000e+03) (50, -8.16005110740661621094e-01) (51, 7.29463525390625000000e+03) (52, 7.29369580078125000000e+03) (53, 7.29447900390625000000e+03) (54, 7.29432470703125000000e+03) (55, 2.49440163373947143555e-01) (56, 7.29473974609375000000e+03) (57, 7.29310986328125000000e+03) (58, -6.76510334014892578125e-01) (59, 2.84367203712463378906e-01) (60, 7.29459130859375000000e+03) (61, 7.28206201171875000000e+03) (62, -6.14901185035705566406e-02) (63, 7.29389501953125000000e+03) (64, -8.54476213455200195312e-01) (65, -1.08098328113555908203e-01) (66, 7.29319677734375000000e+03) (67, 7.29422509765625000000e+03) (68, 7.29383544921875000000e+03) (69, 7.29317822265625000000e+03) (70, 7.29408544921875000000e+03) (71, 7.29394287109375000000e+03) (72, 7.25017236328125000000e+03) (73, 7.29464208984375000000e+03) (74, 7.28934619140625000000e+03) (75, 4.60074067115783691406e-01) (76, -6.86135739088058471680e-02) (77, 7.29443017578125000000e+03) (78, 6.34690374135971069336e-03) (79, 5.42162179946899414062e-01) (80, -9.80172038078308105469e-01) (81, 7.29492822265625000000e+03) (82, 7.29421435546875000000e+03) (83, 7.29449267578125000000e+03) (84, 7.27817919921875000000e+03) (85, 7.29389990234375000000e+03) (86, 7.29326318359375000000e+03) (87, 7.29096142578125000000e+03) (88, 7.29396435546875000000e+03) (30, -4.94193494319915771484e-01) (31, 7.29598828125000000000e+03) (32, -9.35737133026123046875e-01) (33, 7.28352832031250000000e+03) (34, 7.29766894531250000000e+03) (35, -8.37950348854064941406e-01) (36, 7.29692382812500000000e+03) (37, -8.19506227970123291016e-01) (38, 7.29596289062500000000e+03) (39, 1.48013353347778320312e-01) (40, 7.29754492187500000000e+03) (41, 7.29683984375000000000e+03) (42, 7.29727832031250000000e+03) (43, 7.29735253906250000000e+03) (44, 7.29751953125000000000e+03) (45, 7.29783593750000000000e+03) (46, 7.29632519531250000000e+03) (47, 7.29588671875000000000e+03) (48, 7.29637695312500000000e+03) (49, 7.29696093750000000000e+03) (50, 2.11231335997581481934e-01) (51, 7.29634472656250000000e+03) (52, 7.29679101562500000000e+03) (53, 7.29616113281250000000e+03) (54, 7.29762597656250000000e+03) (55, 3.28801155090332031250e-01) (56, 7.29687695312500000000e+03) (57, 7.29765722656250000000e+03) (58, -8.39495003223419189453e-01) (59, -4.58249032497406005859e-01) (60, 7.29719140625000000000e+03) (61, 7.28485156250000000000e+03) (62, 4.73431706428527832031e-01) (63, 7.29709765625000000000e+03) (64, 8.59512463212013244629e-02) (65, 5.41026234626770019531e-01) (66, 7.29633886718750000000e+03) (67, 7.29741406250000000000e+03) (68, 7.29695507812500000000e+03) (69, 7.29529980468750000000e+03) (70, 7.29693652343750000000e+03) (71, 7.29733984375000000000e+03) (72, 7.25217675781250000000e+03) (73, 7.29670117187500000000e+03) (74, 7.29101464843750000000e+03) (75, -8.90374541282653808594e-01) (76, -6.24347209930419921875e-01) (77, 7.29618847656250000000e+03) (78, -3.58226001262664794922e-01) (79, -8.29797387123107910156e-01) (80, 7.97106444835662841797e-01) (81, 7.29756250000000000000e+03) (82, 7.29779003906250000000e+03) (83, 7.29731445312500000000e+03) (84, 7.28179199218750000000e+03) (85, 7.29611328125000000000e+03) (86, 7.29665625000000000000e+03) (87, 7.29318359375000000000e+03) (88, 7.29736328125000000000e+03) (30, -2.75413036346435546875e-01) (31, 7.20350634765625000000e+03) (32, 7.15983748435974121094e-01) (33, 7.19370654296875000000e+03) (34, 7.20286083984375000000e+03) (35, 5.10535240173339843750e-01) (36, 7.20329882812500000000e+03) (37, 2.84427165985107421875e-01) (38, 7.20450488281250000000e+03) (39, 8.76740336418151855469e-01) (40, 7.20463134765625000000e+03) (41, 7.20258740234375000000e+03) (42, 7.20448046875000000000e+03) (43, 7.20279980468750000000e+03) (44, 7.20345068359375000000e+03) (45, 7.20323095703125000000e+03) (46, 7.20442675781250000000e+03) (47, 7.20277783203125000000e+03) (48, 7.20405859375000000000e+03) (49, 7.20387646484375000000e+03) (50, 2.57353305816650390625e-01) (51, 7.20316845703125000000e+03) (52, 7.20438818359375000000e+03) (53, 7.20261279296875000000e+03) (54, 7.20375732421875000000e+03) (55, 4.66465950012207031250e-03) (56, 7.20402880859375000000e+03) (57, 7.20328076171875000000e+03) (58, -6.15951895713806152344e-01) (59, -8.50242078304290771484e-01) (60, 7.20390527343750000000e+03) (61, 7.19628662109375000000e+03) (62, -5.24626791477203369141e-01) (63, 7.20323144531250000000e+03) (64, 2.62218624353408813477e-01) (65, -3.65081191062927246094e-01) (66, 7.20272412109375000000e+03) (67, 7.20436572265625000000e+03) (68, 7.20443164062500000000e+03) (69, 7.20239746093750000000e+03) (70, 7.20264843750000000000e+03) (71, 7.20298730468750000000e+03) (72, 7.16747753906250000000e+03) (73, 7.20297216796875000000e+03) (74, 7.20018212890625000000e+03) (75, 4.14617657661437988281e-01) (76, -4.23182398080825805664e-01) (77, 7.20297900390625000000e+03) (78, -1.12926936149597167969e+00) (79, 5.33732771873474121094e-01) (80, 1.16441398859024047852e-02) (81, 7.20366699218750000000e+03) (82, 7.20365283203125000000e+03) (83, 7.20292578125000000000e+03) (84, 7.19221875000000000000e+03) (85, 7.20437011718750000000e+03) (86, 7.20375292968750000000e+03) (87, 7.20188232421875000000e+03) (88, 7.20332714843750000000e+03) (30, 8.46101045608520507812e-02) (31, 7.27986962890625000000e+03) (32, 3.40828418731689453125e-01) (33, 7.26662744140625000000e+03) (34, 7.28134912109375000000e+03) (35, -8.04718613624572753906e-01) (36, 7.28165527343750000000e+03) (37, 2.28027105331420898438e-01) (38, 7.28030712890625000000e+03) (39, -5.88946104049682617188e-01) (40, 7.28031494140625000000e+03) (41, 7.28017041015625000000e+03) (42, 7.28025146484375000000e+03) (43, 7.28117431640625000000e+03) (44, 7.27955957031250000000e+03) (45, 7.28087402343750000000e+03) (46, 7.28037207031250000000e+03) (47, 7.28139843750000000000e+03) (48, 7.28146240234375000000e+03) (49, 7.28017431640625000000e+03) (50, 6.86815202236175537109e-01) (51, 7.28079980468750000000e+03) (52, 7.28120507812500000000e+03) (53, 7.28002587890625000000e+03) (54, 7.28003125000000000000e+03) (55, 6.43326938152313232422e-01) (56, 7.28127685546875000000e+03) (57, 7.28144140625000000000e+03) (58, 5.28475582599639892578e-01) (59, -5.33568859100341796875e-03) (60, 7.28128466796875000000e+03) (61, 7.26944873046875000000e+03) (62, -9.65399980545043945312e-01) (63, 7.27970898437500000000e+03) (64, 1.24412225559353828430e-02) (65, -8.75683486461639404297e-01) (66, 7.28077636718750000000e+03) (67, 7.27993261718750000000e+03) (68, 7.28066845703125000000e+03) (69, 7.27996142578125000000e+03) (70, 7.28130664062500000000e+03) (71, 7.28006542968750000000e+03) (72, 7.23874511718750000000e+03) (73, 7.28102148437500000000e+03) (74, 7.27672412109375000000e+03) (75, 3.43069672584533691406e-01) (76, -8.10305774211883544922e-01) (77, 7.28165332031250000000e+03) (78, -7.64983236789703369141e-01) (79, -2.97925740480422973633e-01) (80, -5.40502429008483886719e-01) (81, 7.28154003906250000000e+03) (82, 7.27974365234375000000e+03) (83, 7.28011669921875000000e+03) (84, 7.26484814453125000000e+03) (85, 7.27983935546875000000e+03) (86, 7.28017236328125000000e+03) (87, 7.27829541015625000000e+03) (88, 7.27988867187500000000e+03) (30, -4.40676450729370117188e-01) (31, 7.14364794921875000000e+03) (32, 3.93372356891632080078e-01) (33, 7.13510058593750000000e+03) (34, 7.14382763671875000000e+03) (35, 6.35927796363830566406e-01) (36, 7.14274658203125000000e+03) (37, 3.14470291137695312500e-01) (38, 7.14325976562500000000e+03) (39, -8.71990501880645751953e-01) (40, 7.14391357421875000000e+03) (41, 7.14371630859375000000e+03) (42, 7.14285156250000000000e+03) (43, 7.14229882812500000000e+03) (44, 7.14254785156250000000e+03) (45, 7.14223681640625000000e+03) (46, 7.14220507812500000000e+03) (47, 7.14322802734375000000e+03) (48, 7.14253857421875000000e+03) (49, 7.14348437500000000000e+03) (50, -9.05373990535736083984e-02) (51, 7.14284228515625000000e+03) (52, 7.14207128906250000000e+03) (53, 7.14328564453125000000e+03) (54, 7.14274023437500000000e+03) (55, -8.21878790855407714844e-01) (56, 7.14265625000000000000e+03) (57, 7.14287109375000000000e+03) (58, 2.29552775621414184570e-01) (59, 5.55891990661621093750e-01) (60, 7.14234570312500000000e+03) (61, 7.13739550781250000000e+03) (62, -5.45657515525817871094e-01) (63, 7.14288525390625000000e+03) (64, -7.23322689533233642578e-01) (65, 8.83152723312377929688e-01) (66, 7.14367480468750000000e+03) (67, 7.14253076171875000000e+03) (68, 7.14257226562500000000e+03) (69, 7.14316308593750000000e+03) (70, 7.14216796875000000000e+03) (71, 7.14263476562500000000e+03) (72, 7.11076611328125000000e+03) (73, 7.14330615234375000000e+03) (74, 7.14110937500000000000e+03) (75, -4.19354021549224853516e-01) (76, -5.71450516581535339355e-02) (77, 7.14198974609375000000e+03) (78, -1.15463292598724365234e+00) (79, 6.43721461296081542969e-01) (80, -2.38395109772682189941e-01) (81, 7.14287695312500000000e+03) (82, 7.14312011718750000000e+03) (83, 7.14248583984375000000e+03) (84, 7.13392968750000000000e+03) (85, 7.14319580078125000000e+03) (86, 7.14347607421875000000e+03) (87, 7.14202783203125000000e+03) (88, 7.14290283203125000000e+03) (30, -5.23165404796600341797e-01) (31, 7.28117919921875000000e+03) (32, -6.56704366207122802734e-01) (33, 7.26639746093750000000e+03) (34, 7.28185107421875000000e+03) (35, 3.91545832157135009766e-01) (36, 7.28100048828125000000e+03) (37, -2.30751693248748779297e-01) (38, 7.28157910156250000000e+03) (39, -7.55409479141235351562e-01) (40, 7.28148242187500000000e+03) (41, 7.28112548828125000000e+03) (42, 7.28160546875000000000e+03) (43, 7.28024804687500000000e+03) (44, 7.28014453125000000000e+03) (45, 7.28021826171875000000e+03) (46, 7.28132763671875000000e+03) (47, 7.28132568359375000000e+03) (48, 7.28088769531250000000e+03) (49, 7.28042675781250000000e+03) (50, -6.28349244594573974609e-01) (51, 7.28055664062500000000e+03) (52, 7.28104443359375000000e+03) (53, 7.28089892578125000000e+03) (54, 7.28151025390625000000e+03) (55, -1.57808363437652587891e-01) (56, 7.28125292968750000000e+03) (57, 7.28153906250000000000e+03) (58, -8.56386005878448486328e-01) (59, -4.63877081871032714844e-01) (60, 7.28091699218750000000e+03) (61, 7.27030517578125000000e+03) (62, -3.64942729473114013672e-01) (63, 7.28087109375000000000e+03) (64, 4.33710843324661254883e-01) (65, -4.37569320201873779297e-01) (66, 7.28010205078125000000e+03) (67, 7.28077587890625000000e+03) (68, 7.28100195312500000000e+03) (69, 7.27951123046875000000e+03) (70, 7.28201757812500000000e+03) (71, 7.28018994140625000000e+03) (72, 7.23765625000000000000e+03) (73, 7.28049414062500000000e+03) (74, 7.27681250000000000000e+03) (75, -2.57615298032760620117e-01) (76, -7.26046085357666015625e-01) (77, 7.28106982421875000000e+03) (78, 9.87930446863174438477e-02) (79, 9.00028645992279052734e-01) (80, 4.32564109563827514648e-01) (81, 7.28130615234375000000e+03) (82, 7.28197070312500000000e+03) (83, 7.28128271484375000000e+03) (84, 7.26641064453125000000e+03) (85, 7.28142333984375000000e+03) (86, 7.28116455078125000000e+03) (87, 7.27727783203125000000e+03) (88, 7.28066113281250000000e+03) (30, -6.11518979072570800781e-01) (31, 7.29970996093750000000e+03) (32, -6.02063655853271484375e-01) (33, 7.28448242187500000000e+03) (34, 7.29816210937500000000e+03) (35, 2.73290872573852539062e-01) (36, 7.29933203125000000000e+03) (37, 2.96981930732727050781e-01) (38, 7.29850000000000000000e+03) (39, -9.88938748836517333984e-01) (40, 7.29781640625000000000e+03) (41, 7.29819726562500000000e+03) (42, 7.29810351562500000000e+03) (43, 7.29917675781250000000e+03) (44, 7.29754492187500000000e+03) (45, 7.29924511718750000000e+03) (46, 7.29894726562500000000e+03) (47, 7.29798730468750000000e+03) (48, 7.29851074218750000000e+03) (49, 7.29872949218750000000e+03) (50, -6.94113314151763916016e-01) (51, 7.29937988281250000000e+03) (52, 7.29903515625000000000e+03) (53, 7.29916601562500000000e+03) (54, 7.29797949218750000000e+03) (55, -8.83204281330108642578e-01) (56, 7.29910546875000000000e+03) (57, 7.29775488281250000000e+03) (58, -5.07048547267913818359e-01) (59, 3.77894639968872070312e-01) (60, 7.29740722656250000000e+03) (61, 7.28669335937500000000e+03) (62, -5.21633803844451904297e-01) (63, 7.29921679687500000000e+03) (64, -4.38329041004180908203e-01) (65, -5.25452315807342529297e-01) (66, 7.29736621093750000000e+03) (67, 7.29946777343750000000e+03) (68, 7.29961425781250000000e+03) (69, 7.29784375000000000000e+03) (70, 7.29894433593750000000e+03) (71, 7.29883886718750000000e+03) (72, 7.25542871093750000000e+03) (73, 7.29941992187500000000e+03) (74, 7.29400683593750000000e+03) (75, 3.75084161758422851562e-01) (76, 1.28405845165252685547e+00) (77, 7.29831347656250000000e+03) (78, 4.41677570343017578125e-01) (79, -5.30188322067260742188e-01) (80, -4.16612446308135986328e-01) (81, 7.29786816406250000000e+03) (82, 7.29852636718750000000e+03) (83, 7.29869921875000000000e+03) (84, 7.28270996093750000000e+03) (85, 7.29840039062500000000e+03) (86, 7.29849902343750000000e+03) (87, 7.29529589843750000000e+03) (88, 7.29885058593750000000e+03) (30, 3.96287918090820312500e-01) (31, -6.63144540786743164062e+00) (32, -8.05659711360931396484e-01) (33, -6.45962381362915039062e+00) (34, -8.36238765716552734375e+00) (35, 8.50122347474098205566e-02) (36, -7.88029718399047851562e+00) (37, 9.28463101387023925781e-01) (38, -7.97135972976684570312e+00) (39, 9.95774865150451660156e-01) (40, -7.95724439620971679688e+00) (41, -7.75805616378784179688e+00) (42, -6.32311105728149414062e+00) (43, -7.89121007919311523438e+00) (44, -6.71353578567504882812e+00) (45, -7.71970987319946289062e+00) (46, -6.33432626724243164062e+00) (47, -8.30132389068603515625e+00) (48, -7.27463960647583007812e+00) (49, -7.69031190872192382812e+00) (50, -8.83570551872253417969e-01) (51, -6.67508172988891601562e+00) (52, -6.98069047927856445312e+00) (53, -8.43451023101806640625e+00) (54, -8.13303565979003906250e+00) (55, 8.47637951374053955078e-01) (56, -7.09793901443481445312e+00) (57, -7.88904523849487304688e+00) (58, -5.01089453697204589844e-01) (59, 9.12578463554382324219e-01) (60, -7.62920808792114257812e+00) (61, -6.58913755416870117188e+00) (62, 6.30848050117492675781e-01) (63, -8.54745864868164062500e+00) (64, -1.02567172050476074219e+00) (65, 5.73544502258300781250e-02) (66, -6.38258028030395507812e+00) (67, -6.78441667556762695312e+00) (68, -8.46281433105468750000e+00) (69, -7.11854124069213867188e+00) (70, -7.14611959457397460938e+00) (71, -6.80970335006713867188e+00) (72, -6.43580865859985351562e+00) (73, -6.94470930099487304688e+00) (74, -6.31307554244995117188e+00) (75, 2.64057397842407226562e-01) (76, 2.33654361218214035034e-02) (77, -8.01353549957275390625e+00) (78, -6.36473521590232849121e-02) (79, 6.22086346149444580078e-01) (80, -6.56606256961822509766e-01) (81, -8.08115863800048828125e+00) (82, -7.33636331558227539062e+00) (83, -7.92622804641723632812e+00) (84, -6.40884637832641601562e+00) (85, -7.34661912918090820312e+00) (86, -8.47576522827148437500e+00) (87, -7.59853029251098632812e+00) (88, -7.73638963699340820312e+00) (30, 6.92080020904541015625e-01) (31, 6.69033593750000000000e+03) (32, -6.53541982173919677734e-01) (33, 6.69021093750000000000e+03) (34, 6.69116406250000000000e+03) (35, -1.12113046646118164062e+00) (36, 6.69015234375000000000e+03) (37, -5.79528450965881347656e-01) (38, 6.69018847656250000000e+03) (39, 1.74923181533813476562e-01) (40, 6.69020410156250000000e+03) (41, 6.69118164062500000000e+03) (42, 6.69107421875000000000e+03) (43, 6.69130957031250000000e+03) (44, 6.69084472656250000000e+03) (45, 6.69077929687500000000e+03) (46, 6.69048046875000000000e+03) (47, 6.69122363281250000000e+03) (48, 6.69039062500000000000e+03) (49, 6.69084960937500000000e+03) (50, 1.66090786457061767578e-01) (51, 6.69067187500000000000e+03) (52, 6.69014648437500000000e+03) (53, 6.69081542968750000000e+03) (54, 6.69138476562500000000e+03) (55, 2.05053150653839111328e-01) (56, 6.68993847656250000000e+03) (57, 6.68974609375000000000e+03) (58, 5.42027294635772705078e-01) (59, 3.33109378814697265625e-01) (60, 6.69145019531250000000e+03) (61, 6.69098242187500000000e+03) (62, 8.34155559539794921875e-01) (63, 6.69084179687500000000e+03) (64, -3.68956416845321655273e-01) (65, 4.84407544136047363281e-01) (66, 6.69197167968750000000e+03) (67, 6.68995898437500000000e+03) (68, 6.69012792968750000000e+03) (69, 6.69095312500000000000e+03) (70, 6.69093945312500000000e+03) (71, 6.69060253906250000000e+03) (72, 6.68198144531250000000e+03) (73, 6.69086230468750000000e+03) (74, 6.69091015625000000000e+03) (75, -9.71055507659912109375e-01) (76, -8.66321980953216552734e-01) (77, 6.68984179687500000000e+03) (78, -1.51130795478820800781e-01) (79, -2.68525183200836181641e-01) (80, 1.62688672542572021484e-01) (81, 6.69135742187500000000e+03) (82, 6.69000390625000000000e+03) (83, 6.69166210937500000000e+03) (84, 6.69064257812500000000e+03) (85, 6.69025488281250000000e+03) (86, 6.69053417968750000000e+03) (87, 6.69032128906250000000e+03) (88, 6.69018750000000000000e+03) (89, 6.63300903320312500000e+02) (90, -5.94951093196868896484e-01) (91, 6.64194335937500000000e+02) (92, 6.62774291992187500000e+02) (93, 6.64668273925781250000e+02) (94, 6.58838989257812500000e+02) (95, 6.61688415527343750000e+02) (96, 6.53990783691406250000e+02) (97, 6.61081237792968750000e+02) (98, 6.64941528320312500000e+02) (99, -6.73924148082733154297e-01) (100, 6.34950988769531250000e+02) (101, 6.64576477050781250000e+02) (89, -1.60158887505531311035e-01) (90, -5.45139968395233154297e-01) (91, 1.53322461992502212524e-02) (92, -2.60409880429506301880e-02) (93, 7.70038008689880371094e-01) (94, -1.09523904323577880859e+00) (95, 7.82270312309265136719e-01) (96, -3.60822010040283203125e+00) (97, 5.39474606513977050781e-01) (98, -5.95273315906524658203e-01) (99, 3.74681442975997924805e-01) (100, -3.22491347789764404297e-01) (101, 8.71865630149841308594e-01) (89, 1.51073606684803962708e-03) (90, 8.29899311065673828125e-01) (91, 7.15813577175140380859e-01) (92, -6.00698530673980712891e-01) (93, 7.70993292331695556641e-01) (94, -1.29259860515594482422e+00) (95, -6.37950778007507324219e-01) (96, -2.20070576667785644531e+00) (97, 1.12039101123809814453e+00) (98, -3.57442528009414672852e-01) (99, 9.71165299415588378906e-01) (100, -4.28688943386077880859e-01) (101, -2.44744300842285156250e-01) (89, -9.70368459820747375488e-02) (90, 4.94997687637805938721e-02) (91, 9.85198438167572021484e-01) (92, 5.42245566844940185547e-01) (93, 4.11931395530700683594e-01) (94, -1.36386919021606445312e+00) (95, -3.70065152645111083984e-01) (96, -3.06997251510620117188e+00) (97, 9.90209802985191345215e-02) (98, 2.27073714137077331543e-01) (99, -2.61922717094421386719e-01) (100, 3.72819192707538604736e-02) (101, -5.53542435169219970703e-01) (89, -7.22103210449218750000e+02) (90, -6.33663237094879150391e-01) (91, -7.23397583007812500000e+02) (92, -7.23182678222656250000e+02) (93, -7.22816528320312500000e+02) (94, -7.17371276855468750000e+02) (95, -7.21536682128906250000e+02) (96, -7.16356689453125000000e+02) (97, -7.22628173828125000000e+02) (98, -7.22442871093750000000e+02) (99, 3.53959798812866210938e-01) (100, -6.92440856933593750000e+02) (101, -7.23752014160156250000e+02) (89, -7.15945129394531250000e+02) (90, 5.32101452350616455078e-01) (91, -7.17042480468750000000e+02) (92, -7.15954467773437500000e+02) (93, -7.14984313964843750000e+02) (94, -7.12659240722656250000e+02) (95, -7.16738403320312500000e+02) (96, -7.09528503417968750000e+02) (97, -7.16218566894531250000e+02) (98, -7.15343200683593750000e+02) (99, 5.33748753368854522705e-02) (100, -6.85798767089843750000e+02) (101, -7.17623596191406250000e+02) 
