FANN_FLO_2.1
num_layers=4
learning_rate=0.700000
connection_rate=1.000000
network_type=0
learning_momentum=0.000000
training_algorithm=2
train_error_function=1
train_stop_function=0
cascade_output_change_fraction=0.010000
quickprop_decay=-0.000100
quickprop_mu=1.750000
rprop_increase_factor=1.200000
rprop_decrease_factor=0.500000
rprop_delta_min=0.000000
rprop_delta_max=50.000000
rprop_delta_zero=0.100000
cascade_output_stagnation_epochs=12
cascade_candidate_change_fraction=0.010000
cascade_candidate_stagnation_epochs=12
cascade_max_out_epochs=150
cascade_min_out_epochs=50
cascade_max_cand_epochs=150
cascade_min_cand_epochs=50
cascade_num_candidate_groups=2
bit_fail_limit=3.49999994039535522461e-01
cascade_candidate_limit=1.00000000000000000000e+03
cascade_weight_multiplier=4.00000005960464477539e-01
cascade_activation_functions_count=10
cascade_activation_functions=3 5 7 8 10 11 14 15 16 17 
cascade_activation_steepnesses_count=4
cascade_activation_steepnesses=2.50000000000000000000e-01 5.00000000000000000000e-01 7.50000000000000000000e-01 1.00000000000000000000e+00 
layer_sizes=30 59 13 7 
scale_included=0
neurons (num_inputs, activation_function, activation_steepness)=(0, 0, 0.00000000000000000000e+00) (0, 0, 0.00000000000000000000e+00) (0, 0, 0.00000000000000000000e+00) (0, 0, 0.00000000000000000000e+00) (0, 0, 0.00000000000000000000e+00) (0, 0, 0.00000000000000000000e+00) (0, 0, 0.00000000000000000000e+00) (0, 0, 0.00000000000000000000e+00) (0, 0, 0.00000000000000000000e+00) (0, 0, 0.00000000000000000000e+00) (0, 0, 0.00000000000000000000e+00) (0, 0, 0.00000000000000000000e+00) (0, 0, 0.00000000000000000000e+00) (0, 0, 0.00000000000000000000e+00) (0, 0, 0.00000000000000000000e+00) (0, 0, 0.00000000000000000000e+00) (0, 0, 0.00000000000000000000e+00) (0, 0, 0.00000000000000000000e+00) (0, 0, 0.00000000000000000000e+00) (0, 0, 0.00000000000000000000e+00) (0, 0, 0.00000000000000000000e+00) (0, 0, 0.00000000000000000000e+00) (0, 0, 0.00000000000000000000e+00) (0, 0, 0.00000000000000000000e+00) (0, 0, 0.00000000000000000000e+00) (0, 0, 0.00000000000000000000e+00) (0, 0, 0.00000000000000000000e+00) (0, 0, 0.00000000000000000000e+00) (0, 0, 0.00000000000000000000e+00) (0, 0, 0.00000000000000000000e+00) (30, 4, 5.00000000000000000000e-01) (30, 4, 5.00000000000000000000e-01) (30, 4, 5.00000000000000000000e-01) (30, 4, 5.00000000000000000000e-01) (30, 4, 5.00000000000000000000e-01) (30, 4, 5.00000000000000000000e-01) (30, 4, 5.00000000000000000000e-01) (30, 4, 5.00000000000000000000e-01) (30, 4, 5.00000000000000000000e-01) (30, 4, 5.00000000000000000000e-01) (30, 4, 5.00000000000000000000e-01) (30, 4, 5.00000000000000000000e-01) (30, 4, 5.00000000000000000000e-01) (30, 4, 5.00000000000000000000e-01) (30, 4, 5.00000000000000000000e-01) (30, 4, 5.00000000000000000000e-01) (30, 4, 5.00000000000000000000e-01) (30, 4, 5.00000000000000000000e-01) (30, 4, 5.00000000000000000000e-01) (30, 4, 5.00000000000000000000e-01) (30, 4, 5.00000000000000000000e-01) (30, 4, 5.00000000000000000000e-01) (30, 4, 5.00000000000000000000e-01) (30, 4, 5.00000000000000000000e-01) (30, 4, 5.00000000000000000000e-01) (30, 4, 5.00000000000000000000e-01) (30, 4, 5.00000000000000000000e-01) (30, 4, 5.00000000000000000000e-01) (30, 4, 5.00000000000000000000e-01) (30, 4, 5.00000000000000000000e-01) (30, 4, 5.00000000000000000000e-01) (30, 4, 5.00000000000000000000e-01) (30, 4, 5.00000000000000000000e-01) (30, 4, 5.00000000000000000000e-01) (30, 4, 5.00000000000000000000e-01) (30, 4, 5.00000000000000000000e-01) (30, 4, 5.00000000000000000000e-01) (30, 4, 5.00000000000000000000e-01) (30, 4, 5.00000000000000000000e-01) (30, 4, 5.00000000000000000000e-01) (30, 4, 5.00000000000000000000e-01) (30, 4, 5.00000000000000000000e-01) (30, 4, 5.00000000000000000000e-01) (30, 4, 5.00000000000000000000e-01) (30, 4, 5.00000000000000000000e-01) (30, 4, 5.00000000000000000000e-01) (30, 4, 5.00000000000000000000e-01) (30, 4, 5.00000000000000000000e-01) (30, 4, 5.00000000000000000000e-01) (30, 4, 5.00000000000000000000e-01) (30, 4, 5.00000000000000000000e-01) (30, 4, 5.00000000000000000000e-01) (30, 4, 5.00000000000000000000e-01) (30, 4, 5.00000000000000000000e-01) (30, 4, 5.00000000000000000000e-01) (30, 4, 5.00000000000000000000e-01) (30, 4, 5.00000000000000000000e-01) (30, 4, 5.00000000000000000000e-01) (0, 0, 0.00000000000000000000e+00) (59, 4, 5.00000000000000000000e-01) (59, 4, 5.00000000000000000000e-01) (59, 4, 5.00000000000000000000e-01) (59, 4, 5.00000000000000000000e-01) (59, 4, 5.00000000000000000000e-01) (59, 4, 5.00000000000000000000e-01) (59, 4, 5.00000000000000000000e-01) (59, 4, 5.00000000000000000000e-01) (59, 4, 5.00000000000000000000e-01) (59, 4, 5.00000000000000000000e-01) (59, 4, 5.00000000000000000000e-01) (59, 4, 5.00000000000000000000e-01) (0, 0, 0.00000000000000000000e+00) (13, 4, 5.00000000000000000000e-01) (13, 4, 5.00000000000000000000e-01) (13, 4, 5.00000000000000000000e-01) (13, 4, 5.00000000000000000000e-01) (13, 4, 5.00000000000000000000e-01) (13, 4, 5.00000000000000000000e-01) (0, 0, 0.00000000000000000000e+00) 
connections (connected_to_neuron, weight)=(0, -1.53826453125000000000e+05) (1, -2.03204046875000000000e+05) (2, -2.69448593750000000000e+05) (3, -2.84515937500000000000e+05) (4, -7.96219843750000000000e+04) (5, -1.10743562500000000000e+05) (6, -2.89048294400000000000e+09) (7, -4.70050000000000000000e+06) (8, -5.86899560546875000000e+03) (9, -8.52360156250000000000e+03) (10, 3.55178203125000000000e+04) (11, 8.46578613281250000000e+03) (12, -1.70559960937500000000e+04) (13, -2.27118417968750000000e+04) (14, -1.25795126953125000000e+04) (15, -1.21962480468750000000e+04) (16, -1.39491464843750000000e+04) (17, -1.55729482421875000000e+04) (18, -1.49291792000000000000e+08) (19, -1.08111240000000000000e+07) (20, -1.48110175781250000000e+04) (21, -1.33791279296875000000e+04) (22, -1.13045058593750000000e+04) (23, -8.21730529785156250000e+02) (24, -2.09867065429687500000e+03) (25, -9.33783386230468750000e+02) (26, -1.08223027343750000000e+04) (27, -9.28310644531250000000e+03) (28, 9.17768560000000000000e+07) (29, -2.42617504882812500000e+03) (0, 5.96683110400000000000e+09) (1, 7.16017766400000000000e+09) (2, 9.25916876800000000000e+09) (3, 1.01121873920000000000e+10) (4, 3.60425779200000000000e+09) (5, 4.74482944000000000000e+09) (6, 8.46117113692160000000e+13) (7, 2.09311432704000000000e+11) (8, 4.43160768000000000000e+08) (9, 5.39934656000000000000e+08) (10, 2.91342080000000000000e+08) (11, 4.86851040000000000000e+08) (12, 8.92244288000000000000e+08) (13, 1.05099891200000000000e+09) (14, 7.44103552000000000000e+08) (15, 6.94275200000000000000e+08) (16, 7.88492352000000000000e+08) (17, 8.14841024000000000000e+08) (18, 4.69260514099200000000e+12) (19, 7.00049129472000000000e+11) (20, 8.54737600000000000000e+08) (21, 7.62812992000000000000e+08) (22, 4.76977728000000000000e+08) (23, 1.29372824000000000000e+08) (24, 1.29501560000000000000e+08) (25, 1.25661016000000000000e+08) (26, 5.22054976000000000000e+08) (27, 4.60890464000000000000e+08) (28, -6.47222735667200000000e+12) (29, 2.82523424000000000000e+08) (0, -3.32906640625000000000e+04) (1, -4.38746054687500000000e+04) (2, -5.82750117187500000000e+04) (3, -6.15569531250000000000e+04) (4, -1.72239160156250000000e+04) (5, -2.39621679687500000000e+04) (6, -6.24196864000000000000e+08) (7, -1.01701137500000000000e+06) (8, -1.27671765136718750000e+03) (9, -1.84929858398437500000e+03) (10, 7.58924853515625000000e+03) (11, 1.81678784179687500000e+03) (12, -3.69123388671875000000e+03) (13, -4.94955126953125000000e+03) (14, -2.72889501953125000000e+03) (15, -2.64282666015625000000e+03) (16, -3.02293481445312500000e+03) (17, -3.37083837890625000000e+03) (18, -3.23075360000000000000e+07) (19, -2.36336650000000000000e+06) (20, -3.21515551757812500000e+03) (21, -2.90168603515625000000e+03) (22, -2.44713134765625000000e+03) (23, -1.81379745483398437500e+02) (24, -4.39088195800781250000e+02) (25, -2.04611572265625000000e+02) (26, -2.34164355468750000000e+03) (27, -2.00847888183593750000e+03) (28, 2.03527080000000000000e+07) (29, -5.31106506347656250000e+02) (0, 5.96129024000000000000e+09) (1, 7.15285913600000000000e+09) (2, 9.24947148800000000000e+09) (3, 1.01019330560000000000e+10) (4, 3.60138828800000000000e+09) (5, 4.74082560000000000000e+09) (6, 8.45076506869760000000e+13) (7, 2.09142480896000000000e+11) (8, 4.42950176000000000000e+08) (9, 5.39628672000000000000e+08) (10, 2.92619744000000000000e+08) (11, 4.87154016000000000000e+08) (12, 8.91632128000000000000e+08) (13, 1.05017875200000000000e+09) (14, 7.43648704000000000000e+08) (15, 6.93836032000000000000e+08) (16, 7.87991680000000000000e+08) (17, 8.14280384000000000000e+08) (18, 4.68722122752000000000e+12) (19, 6.99658076160000000000e+11) (20, 8.54206464000000000000e+08) (21, 7.62333184000000000000e+08) (22, 4.76568384000000000000e+08) (23, 1.29343080000000000000e+08) (24, 1.29426504000000000000e+08) (25, 1.25627496000000000000e+08) (26, 5.21664448000000000000e+08) (27, 4.60556608000000000000e+08) (28, -6.46890494361600000000e+12) (29, 2.82435680000000000000e+08) (0, 5.96695808000000000000e+09) (1, 7.16034611200000000000e+09) (2, 9.25939200000000000000e+09) (3, 1.01124259840000000000e+10) (4, 3.60432614400000000000e+09) (5, 4.74492364800000000000e+09) (6, 8.46142866718720000000e+13) (7, 2.09315250176000000000e+11) (8, 4.43165728000000000000e+08) (9, 5.39942080000000000000e+08) (10, 2.91311648000000000000e+08) (11, 4.86843808000000000000e+08) (12, 8.92257920000000000000e+08) (13, 1.05101798400000000000e+09) (14, 7.44114304000000000000e+08) (15, 6.94285440000000000000e+08) (16, 7.88503552000000000000e+08) (17, 8.14853568000000000000e+08) (18, 4.69273097011200000000e+12) (19, 7.00058632192000000000e+11) (20, 8.54750400000000000000e+08) (21, 7.62824192000000000000e+08) (22, 4.76987136000000000000e+08) (23, 1.29373648000000000000e+08) (24, 1.29503400000000000000e+08) (25, 1.25661936000000000000e+08) (26, 5.22064224000000000000e+08) (27, 4.60898048000000000000e+08) (28, -6.47230495129600000000e+12) (29, 2.82525728000000000000e+08) (0, -8.67874921875000000000e+04) (1, -1.14444429687500000000e+05) (2, -1.51947484375000000000e+05) (3, -1.60489625000000000000e+05) (4, -4.49085820312500000000e+04) (5, -6.24714921875000000000e+04) (6, -1.62812249600000000000e+09) (7, -2.65024125000000000000e+06) (8, -3.32376562500000000000e+03) (9, -4.81841259765625000000e+03) (10, 1.98422285156250000000e+04) (11, 4.74776318359375000000e+03) (12, -9.62416210937500000000e+03) (13, -1.28847675781250000000e+04) (14, -7.10833056640625000000e+03) (15, -6.88562939453125000000e+03) (16, -7.87784228515625000000e+03) (17, -8.78727832031250000000e+03) (18, -8.42277600000000000000e+07) (19, -6.14707950000000000000e+06) (20, -8.37712402343750000000e+03) (21, -7.56142431640625000000e+03) (22, -6.38054833984375000000e+03) (23, -4.70863159179687500000e+02) (24, -1.15499731445312500000e+03) (25, -5.31034790039062500000e+02) (26, -6.10356591796875000000e+03) (27, -5.23571386718750000000e+03) (28, 5.25812640000000000000e+07) (29, -1.38218933105468750000e+03) (0, 5.96675225600000000000e+09) (1, 7.16006553600000000000e+09) (2, 9.25903257600000000000e+09) (3, 1.01120460800000000000e+10) (4, 3.60421504000000000000e+09) (5, 4.74477107200000000000e+09) (6, 8.46102853058560000000e+13) (7, 2.09309122560000000000e+11) (8, 4.43158016000000000000e+08) (9, 5.39930368000000000000e+08) (10, 2.91359488000000000000e+08) (11, 4.86853440000000000000e+08) (12, 8.92235648000000000000e+08) (13, 1.05098700800000000000e+09) (14, 7.44097280000000000000e+08) (15, 6.94269184000000000000e+08) (16, 7.88485504000000000000e+08) (17, 8.14833344000000000000e+08) (18, 4.69252911923200000000e+12) (19, 7.00043427840000000000e+11) (20, 8.54730112000000000000e+08) (21, 7.62806720000000000000e+08) (22, 4.76971872000000000000e+08) (23, 1.29372368000000000000e+08) (24, 1.29500472000000000000e+08) (25, 1.25660512000000000000e+08) (26, 5.22049440000000000000e+08) (27, 4.60885920000000000000e+08) (28, -6.47218069504000000000e+12) (29, 2.82522048000000000000e+08) (0, -2.53681054687500000000e+04) (1, -3.34256875000000000000e+04) (2, -4.44050234375000000000e+04) (3, -4.69058867187500000000e+04) (4, -1.31260039062500000000e+04) (5, -1.82588125000000000000e+04) (6, -4.75528000000000000000e+08) (7, -7.74647562500000000000e+05) (8, -9.73434692382812500000e+02) (9, -1.40926904296875000000e+03) (10, 5.77302783203125000000e+03) (11, 1.38391247558593750000e+03) (12, -2.81333056640625000000e+03) (13, -3.77593994140625000000e+03) (14, -2.07887866210937500000e+03) (15, -2.01423156738281250000e+03) (16, -2.30295727539062500000e+03) (17, -2.56849389648437500000e+03) (18, -2.46184740000000000000e+07) (19, -1.80310500000000000000e+06) (20, -2.45144946289062500000e+03) (21, -2.21226953125000000000e+03) (22, -1.86501367187500000000e+03) (23, -1.39247650146484375000e+02) (24, -3.33102172851562500000e+02) (25, -1.56637115478515625000e+02) (26, -1.78477185058593750000e+03) (27, -1.53076843261718750000e+03) (28, 1.55782040000000000000e+07) (29, -4.05243560791015625000e+02) (0, 5.96686438400000000000e+09) (1, 7.16022681600000000000e+09) (2, 9.25923635200000000000e+09) (3, 1.01122590720000000000e+10) (4, 3.60427827200000000000e+09) (5, 4.74485504000000000000e+09) (6, 8.46125334528000000000e+13) (7, 2.09312579584000000000e+11) (8, 4.43162144000000000000e+08) (9, 5.39936960000000000000e+08) (10, 2.91332704000000000000e+08) (11, 4.86849312000000000000e+08) (12, 8.92248512000000000000e+08) (13, 1.05100492800000000000e+09) (14, 7.44106752000000000000e+08) (15, 6.94278144000000000000e+08) (16, 7.88495936000000000000e+08) (17, 8.14845120000000000000e+08) (18, 4.69264446259200000000e+12) (19, 7.00052209664000000000e+11) (20, 8.54741568000000000000e+08) (21, 7.62816448000000000000e+08) (22, 4.76980544000000000000e+08) (23, 1.29373104000000000000e+08) (24, 1.29502128000000000000e+08) (25, 1.25661296000000000000e+08) (26, 5.22057760000000000000e+08) (27, 4.60892704000000000000e+08) (28, -6.47225094963200000000e+12) (29, 2.82524128000000000000e+08) (0, -3.89516015625000000000e+04) (1, -5.14471171875000000000e+04) (2, -6.82279375000000000000e+04) (3, -7.20449843750000000000e+04) (4, -2.01614941406250000000e+04) (5, -2.80422128906250000000e+04) (6, -7.31821888000000000000e+08) (7, -1.18979100000000000000e+06) (8, -1.48790185546875000000e+03) (9, -2.15964135742187500000e+03) (10, 8.98318359375000000000e+03) (11, 2.14399804687500000000e+03) (12, -4.32012548828125000000e+03) (13, -5.75527929687500000000e+03) (14, -3.18739233398437500000e+03) (15, -3.08852075195312500000e+03) (16, -3.53211010742187500000e+03) (17, -3.94299633789062500000e+03) (18, -3.78065520000000000000e+07) (19, -2.74061800000000000000e+06) (20, -3.75184960937500000000e+03) (21, -3.38970971679687500000e+03) (22, -2.86375097656250000000e+03) (23, -2.07721343994140625000e+02) (24, -5.28746337890625000000e+02) (25, -2.36401153564453125000e+02) (26, -2.74123217773437500000e+03) (27, -2.35026708984375000000e+03) (28, 2.31619940000000000000e+07) (29, -6.16013916015625000000e+02) (0, 5.96690688000000000000e+09) (1, 7.16027750400000000000e+09) (2, 9.25931212800000000000e+09) (3, 1.01123440640000000000e+10) (4, 3.60429875200000000000e+09) (5, 4.74488268800000000000e+09) (6, 8.46132884275200000000e+13) (7, 2.09313808384000000000e+11) (8, 4.43163584000000000000e+08) (9, 5.39939456000000000000e+08) (10, 2.91323776000000000000e+08) (11, 4.86846272000000000000e+08) (12, 8.92252096000000000000e+08) (13, 1.05101068800000000000e+09) (14, 7.44110016000000000000e+08) (15, 6.94281280000000000000e+08) (16, 7.88499328000000000000e+08) (17, 8.14848768000000000000e+08) (18, 4.69268325990400000000e+12) (19, 7.00055224320000000000e+11) (20, 8.54745344000000000000e+08) (21, 7.62819904000000000000e+08) (22, 4.76983552000000000000e+08) (23, 1.29373352000000000000e+08) (24, 1.29502712000000000000e+08) (25, 1.25661592000000000000e+08) (26, 5.22060704000000000000e+08) (27, 4.60895104000000000000e+08) (28, -6.47227454259200000000e+12) (29, 2.82524928000000000000e+08) (0, 5.96683468800000000000e+09) (1, 7.16018278400000000000e+09) (2, 9.25917388800000000000e+09) (3, 1.01121925120000000000e+10) (4, 3.60426035200000000000e+09) (5, 4.74483148800000000000e+09) (6, 8.46117617008640000000e+13) (7, 2.09311514624000000000e+11) (8, 4.43160896000000000000e+08) (9, 5.39934784000000000000e+08) (10, 2.91341216000000000000e+08) (11, 4.86850528000000000000e+08) (12, 8.92244800000000000000e+08) (13, 1.05099961600000000000e+09) (14, 7.44103680000000000000e+08) (15, 6.94275456000000000000e+08) (16, 7.88492608000000000000e+08) (17, 8.14841472000000000000e+08) (18, 4.69260881100800000000e+12) (19, 7.00049457152000000000e+11) (20, 8.54737984000000000000e+08) (21, 7.62813312000000000000e+08) (22, 4.76977984000000000000e+08) (23, 1.29372848000000000000e+08) (24, 1.29501600000000000000e+08) (25, 1.25661048000000000000e+08) (26, 5.22055200000000000000e+08) (27, 4.60890688000000000000e+08) (28, -6.47223050240000000000e+12) (29, 2.82523488000000000000e+08) (0, 5.96686080000000000000e+09) (1, 7.16022169600000000000e+09) (2, 9.25922918400000000000e+09) (3, 1.01122508800000000000e+10) (4, 3.60427622400000000000e+09) (5, 4.74485145600000000000e+09) (6, 8.46124495667200000000e+13) (7, 2.09312415744000000000e+11) (8, 4.43162016000000000000e+08) (9, 5.39936768000000000000e+08) (10, 2.91333344000000000000e+08) (11, 4.86849216000000000000e+08) (12, 8.92248192000000000000e+08) (13, 1.05100435200000000000e+09) (14, 7.44106432000000000000e+08) (15, 6.94277952000000000000e+08) (16, 7.88495552000000000000e+08) (17, 8.14844736000000000000e+08) (18, 4.69263921971200000000e+12) (19, 7.00051947520000000000e+11) (20, 8.54741120000000000000e+08) (21, 7.62816064000000000000e+08) (22, 4.76980224000000000000e+08) (23, 1.29373088000000000000e+08) (24, 1.29502048000000000000e+08) (25, 1.25661280000000000000e+08) (26, 5.22057504000000000000e+08) (27, 4.60892448000000000000e+08) (28, -6.47224937676800000000e+12) (29, 2.82524064000000000000e+08) (0, 5.96686694400000000000e+09) (1, 7.16023091200000000000e+09) (2, 9.25924147200000000000e+09) (3, 1.01122631680000000000e+10) (4, 3.60428006400000000000e+09) (5, 4.74485606400000000000e+09) (6, 8.46126005616640000000e+13) (7, 2.09312677888000000000e+11) (8, 4.43162272000000000000e+08) (9, 5.39937216000000000000e+08) (10, 2.91332224000000000000e+08) (11, 4.86849024000000000000e+08) (12, 8.92248832000000000000e+08) (13, 1.05100537600000000000e+09) (14, 7.44107008000000000000e+08) (15, 6.94278464000000000000e+08) (16, 7.88496128000000000000e+08) (17, 8.14845440000000000000e+08) (18, 4.69264603545600000000e+12) (19, 7.00052406272000000000e+11) (20, 8.54741824000000000000e+08) (21, 7.62816768000000000000e+08) (22, 4.76980800000000000000e+08) (23, 1.29373120000000000000e+08) (24, 1.29502160000000000000e+08) (25, 1.25661312000000000000e+08) (26, 5.22058016000000000000e+08) (27, 4.60892896000000000000e+08) (28, -6.47225357107200000000e+12) (29, 2.82524224000000000000e+08) (0, 5.96669696000000000000e+09) (1, 7.15999283200000000000e+09) (2, 9.25894758400000000000e+09) (3, 1.01119580160000000000e+10) (4, 3.60418406400000000000e+09) (5, 4.74473523200000000000e+09) (6, 8.46094128906240000000e+13) (7, 2.09307697152000000000e+11) (8, 4.43156032000000000000e+08) (9, 5.39927808000000000000e+08) (10, 2.91371264000000000000e+08) (11, 4.86854848000000000000e+08) (12, 8.92229824000000000000e+08) (13, 1.05097945600000000000e+09) (14, 7.44092928000000000000e+08) (15, 6.94264448000000000000e+08) (16, 7.88480512000000000000e+08) (17, 8.14827520000000000000e+08) (18, 4.69247878758400000000e+12) (19, 7.00039626752000000000e+11) (20, 8.54724928000000000000e+08) (21, 7.62802048000000000000e+08) (22, 4.76968096000000000000e+08) (23, 1.29372040000000000000e+08) (24, 1.29499712000000000000e+08) (25, 1.25660152000000000000e+08) (26, 5.22045920000000000000e+08) (27, 4.60882816000000000000e+08) (28, -6.47215028633600000000e+12) (29, 2.82521152000000000000e+08) (0, 5.96678400000000000000e+09) (1, 7.16010956800000000000e+09) (2, 9.25908684800000000000e+09) (3, 1.01121075200000000000e+10) (4, 3.60423270400000000000e+09) (5, 4.74479257600000000000e+09) (6, 8.46108976742400000000e+13) (7, 2.09310056448000000000e+11) (8, 4.43159264000000000000e+08) (9, 5.39932160000000000000e+08) (10, 2.91352192000000000000e+08) (11, 4.86852384000000000000e+08) (12, 8.92239232000000000000e+08) (13, 1.05099238400000000000e+09) (14, 7.44099776000000000000e+08) (15, 6.94271616000000000000e+08) (16, 7.88488576000000000000e+08) (17, 8.14836736000000000000e+08) (18, 4.69256110080000000000e+12) (19, 7.00045983744000000000e+11) (20, 8.54733056000000000000e+08) (21, 7.62809280000000000000e+08) (22, 4.76974464000000000000e+08) (23, 1.29372600000000000000e+08) (24, 1.29500960000000000000e+08) (25, 1.25660768000000000000e+08) (26, 5.22051808000000000000e+08) (27, 4.60887584000000000000e+08) (28, -6.47220009369600000000e+12) (29, 2.82522624000000000000e+08) (0, 5.96678195200000000000e+09) (1, 7.16010649600000000000e+09) (2, 9.25908377600000000000e+09) (3, 1.01121044480000000000e+10) (4, 3.60423168000000000000e+09) (5, 4.74479155200000000000e+09) (6, 8.46108557312000000000e+13) (7, 2.09310007296000000000e+11) (8, 4.43159200000000000000e+08) (9, 5.39932032000000000000e+08) (10, 2.91352832000000000000e+08) (11, 4.86852480000000000000e+08) (12, 8.92238912000000000000e+08) (13, 1.05099200000000000000e+09) (14, 7.44099584000000000000e+08) (15, 6.94271488000000000000e+08) (16, 7.88488320000000000000e+08) (17, 8.14836416000000000000e+08) (18, 4.69256005222400000000e+12) (19, 7.00045787136000000000e+11) (20, 8.54732800000000000000e+08) (21, 7.62809088000000000000e+08) (22, 4.76974336000000000000e+08) (23, 1.29372600000000000000e+08) (24, 1.29500936000000000000e+08) (25, 1.25660760000000000000e+08) (26, 5.22051680000000000000e+08) (27, 4.60887488000000000000e+08) (28, -6.47219956940800000000e+12) (29, 2.82522592000000000000e+08) (0, 5.96675737600000000000e+09) (1, 7.16006860800000000000e+09) (2, 9.25904179200000000000e+09) (3, 1.01120573440000000000e+10) (4, 3.60421760000000000000e+09) (5, 4.74477516800000000000e+09) (6, 8.46103608033280000000e+13) (7, 2.09309253632000000000e+11) (8, 4.43158272000000000000e+08) (9, 5.39930688000000000000e+08) (10, 2.91358240000000000000e+08) (11, 4.86853280000000000000e+08) (12, 8.92236160000000000000e+08) (13, 1.05098784000000000000e+09) (14, 7.44097536000000000000e+08) (15, 6.94269504000000000000e+08) (16, 7.88485888000000000000e+08) (17, 8.14833728000000000000e+08) (18, 4.69253383782400000000e+12) (19, 7.00043689984000000000e+11) (20, 8.54730560000000000000e+08) (21, 7.62807104000000000000e+08) (22, 4.76972160000000000000e+08) (23, 1.29372432000000000000e+08) (24, 1.29500544000000000000e+08) (25, 1.25660576000000000000e+08) (26, 5.22049728000000000000e+08) (27, 4.60886080000000000000e+08) (28, -6.47218436505600000000e+12) (29, 2.82522208000000000000e+08) (0, 5.96687462400000000000e+09) (1, 7.16024064000000000000e+09) (2, 9.25925580800000000000e+09) (3, 1.01122785280000000000e+10) (4, 3.60428288000000000000e+09) (5, 4.74486169600000000000e+09) (6, 8.46127180021760000000e+13) (7, 2.09312890880000000000e+11) (8, 4.43162560000000000000e+08) (9, 5.39937664000000000000e+08) (10, 2.91330528000000000000e+08) (11, 4.86848512000000000000e+08) (12, 8.92249472000000000000e+08) (13, 1.05100652800000000000e+09) (14, 7.44107648000000000000e+08) (15, 6.94279296000000000000e+08) (16, 7.88496832000000000000e+08) (17, 8.14846080000000000000e+08) (18, 4.69265337548800000000e+12) (19, 7.00052996096000000000e+11) (20, 8.54742528000000000000e+08) (21, 7.62817344000000000000e+08) (22, 4.76981344000000000000e+08) (23, 1.29373168000000000000e+08) (24, 1.29502304000000000000e+08) (25, 1.25661376000000000000e+08) (26, 5.22058592000000000000e+08) (27, 4.60893376000000000000e+08) (28, -6.47225671680000000000e+12) (29, 2.82524384000000000000e+08) (0, 5.96684595200000000000e+09) (1, 7.16019916800000000000e+09) (2, 9.25919641600000000000e+09) (3, 1.01122150400000000000e+10) (4, 3.60426726400000000000e+09) (5, 4.74483916800000000000e+09) (6, 8.46120888565760000000e+13) (7, 2.09311875072000000000e+11) (8, 4.43161440000000000000e+08) (9, 5.39935488000000000000e+08) (10, 2.91337664000000000000e+08) (11, 4.86850080000000000000e+08) (12, 8.92246400000000000000e+08) (13, 1.05100172800000000000e+09) (14, 7.44105024000000000000e+08) (15, 6.94276672000000000000e+08) (16, 7.88493888000000000000e+08) (17, 8.14842944000000000000e+08) (18, 4.69262191820800000000e+12) (19, 7.00050636800000000000e+11) (20, 8.54739264000000000000e+08) (21, 7.62814464000000000000e+08) (22, 4.76979136000000000000e+08) (23, 1.29372968000000000000e+08) (24, 1.29501816000000000000e+08) (25, 1.25661160000000000000e+08) (26, 5.22056384000000000000e+08) (27, 4.60891456000000000000e+08) (28, -6.47223784243200000000e+12) (29, 2.82523776000000000000e+08) (0, -8.41925859375000000000e+04) (1, -1.11195625000000000000e+05) (2, -1.47462093750000000000e+05) (3, -1.55712562500000000000e+05) (4, -4.35780742187500000000e+04) (5, -6.06120078125000000000e+04) (6, -1.58173632000000000000e+09) (7, -2.57262350000000000000e+06) (8, -3.21347778320312500000e+03) (9, -4.66646923828125000000e+03) (10, 1.94186503906250000000e+04) (11, 4.62947167968750000000e+03) (12, -9.33451660156250000000e+03) (13, -1.24382871093750000000e+04) (14, -6.88592333984375000000e+03) (15, -6.67524853515625000000e+03) (16, -7.63608496093750000000e+03) (17, -8.52326171875000000000e+03) (18, -8.17086720000000000000e+07) (19, -5.92205650000000000000e+06) (20, -8.10765332031250000000e+03) (21, -7.32333154296875000000e+03) (22, -6.18731103515625000000e+03) (23, -4.49809722900390625000e+02) (24, -1.14661853027343750000e+03) (25, -5.10502349853515625000e+02) (26, -5.92328515625000000000e+03) (27, -5.08050732421875000000e+03) (28, 5.04063640000000000000e+07) (29, -1.32941992187500000000e+03) (0, 5.96681472000000000000e+09) (1, 7.16015360000000000000e+09) (2, 9.25913497600000000000e+09) (3, 1.01121546240000000000e+10) (4, 3.60424755200000000000e+09) (5, 4.74481459200000000000e+09) (6, 8.46113842135040000000e+13) (7, 2.09310941184000000000e+11) (8, 4.43160192000000000000e+08) (9, 5.39933824000000000000e+08) (10, 2.91345920000000000000e+08) (11, 4.86851712000000000000e+08) (12, 8.92242304000000000000e+08) (13, 1.05099635200000000000e+09) (14, 7.44102272000000000000e+08) (15, 6.94273856000000000000e+08) (16, 7.88491136000000000000e+08) (17, 8.14839296000000000000e+08) (18, 4.69258888806400000000e+12) (19, 7.00047949824000000000e+11) (20, 8.54735616000000000000e+08) (21, 7.62811648000000000000e+08) (22, 4.76976544000000000000e+08) (23, 1.29372752000000000000e+08) (24, 1.29501360000000000000e+08) (25, 1.25660944000000000000e+08) (26, 5.22053760000000000000e+08) (27, 4.60889280000000000000e+08) (28, -6.47221687091200000000e+12) (29, 2.82523168000000000000e+08) (0, 5.96687769600000000000e+09) (1, 7.16024371200000000000e+09) (2, 9.25925888000000000000e+09) (3, 1.01122836480000000000e+10) (4, 3.60428467200000000000e+09) (5, 4.74486323200000000000e+09) (6, 8.46127599452160000000e+13) (7, 2.09312956416000000000e+11) (8, 4.43162624000000000000e+08) (9, 5.39937792000000000000e+08) (10, 2.91330112000000000000e+08) (11, 4.86848448000000000000e+08) (12, 8.92249664000000000000e+08) (13, 1.05100678400000000000e+09) (14, 7.44107968000000000000e+08) (15, 6.94279424000000000000e+08) (16, 7.88497088000000000000e+08) (17, 8.14846336000000000000e+08) (18, 4.69265652121600000000e+12) (19, 7.00053127168000000000e+11) (20, 8.54742656000000000000e+08) (21, 7.62817536000000000000e+08) (22, 4.76981472000000000000e+08) (23, 1.29373184000000000000e+08) (24, 1.29502352000000000000e+08) (25, 1.25661408000000000000e+08) (26, 5.22058720000000000000e+08) (27, 4.60893472000000000000e+08) (28, -6.47225828966400000000e+12) (29, 2.82524416000000000000e+08) (0, 5.96675584000000000000e+09) (1, 7.16006758400000000000e+09) (2, 9.25903974400000000000e+09) (3, 1.01120552960000000000e+10) (4, 3.60421683200000000000e+09) (5, 4.74477414400000000000e+09) (6, 8.46103356375040000000e+13) (7, 2.09309204480000000000e+11) (8, 4.43158240000000000000e+08) (9, 5.39930624000000000000e+08) (10, 2.91358592000000000000e+08) (11, 4.86853216000000000000e+08) (12, 8.92236096000000000000e+08) (13, 1.05098764800000000000e+09) (14, 7.44097472000000000000e+08) (15, 6.94269440000000000000e+08) (16, 7.88485760000000000000e+08) (17, 8.14833600000000000000e+08) (18, 4.69253226496000000000e+12) (19, 7.00043558912000000000e+11) (20, 8.54730496000000000000e+08) (21, 7.62807040000000000000e+08) (22, 4.76972064000000000000e+08) (23, 1.29372416000000000000e+08) (24, 1.29500528000000000000e+08) (25, 1.25660544000000000000e+08) (26, 5.22049664000000000000e+08) (27, 4.60886016000000000000e+08) (28, -6.47218331648000000000e+12) (29, 2.82522176000000000000e+08) (0, 5.96679372800000000000e+09) (1, 7.16012339200000000000e+09) (2, 9.25910118400000000000e+09) (3, 1.01121228800000000000e+10) (4, 3.60423833600000000000e+09) (5, 4.74480076800000000000e+09) (6, 8.46110235033600000000e+13) (7, 2.09310351360000000000e+11) (8, 4.43159488000000000000e+08) (9, 5.39932672000000000000e+08) (10, 2.91350176000000000000e+08) (11, 4.86852800000000000000e+08) (12, 8.92240256000000000000e+08) (13, 1.05099372800000000000e+09) (14, 7.44100416000000000000e+08) (15, 6.94272192000000000000e+08) (16, 7.88489344000000000000e+08) (17, 8.14837632000000000000e+08) (18, 4.69256948940800000000e+12) (19, 7.00046639104000000000e+11) (20, 8.54733952000000000000e+08) (21, 7.62809920000000000000e+08) (22, 4.76975168000000000000e+08) (23, 1.29372640000000000000e+08) (24, 1.29501056000000000000e+08) (25, 1.25660816000000000000e+08) (26, 5.22052352000000000000e+08) (27, 4.60888064000000000000e+08) (28, -6.47220586086400000000e+12) (29, 2.82522784000000000000e+08) (0, -6.86559765625000000000e+03) (1, -9.07643945312500000000e+03) (2, -1.20333105468750000000e+04) (3, -1.27077734375000000000e+04) (4, -3.55524560546875000000e+03) (5, -4.94512207031250000000e+03) (6, -1.29111224000000000000e+08) (7, -2.09361359375000000000e+05) (8, -2.62008941650390625000e+02) (9, -3.80209228515625000000e+02) (10, 1.58636596679687500000e+03) (11, 3.80306213378906250000e+02) (12, -7.60516296386718750000e+02) (13, -1.01540319824218750000e+03) (14, -5.60751098632812500000e+02) (15, -5.44044799804687500000e+02) (16, -6.21803710937500000000e+02) (17, -6.95153869628906250000e+02) (18, -6.66885450000000000000e+06) (19, -4.82809093750000000000e+05) (20, -6.62325439453125000000e+02) (21, -5.97023376464843750000e+02) (22, -5.04181732177734375000e+02) (23, -3.71605567932128906250e+01) (24, -9.26136398315429687500e+01) (25, -4.24607162475585937500e+01) (26, -4.82873840332031250000e+02) (27, -4.14032379150390625000e+02) (28, 3.88513500000000000000e+06) (29, -1.09267372131347656250e+02) (0, 5.96694630400000000000e+09) (1, 7.16033280000000000000e+09) (2, 9.25937459200000000000e+09) (3, 1.01124096000000000000e+10) (4, 3.60432076800000000000e+09) (5, 4.74491596800000000000e+09) (6, 8.46140937338880000000e+13) (7, 2.09314988032000000000e+11) (8, 4.43165152000000000000e+08) (9, 5.39941568000000000000e+08) (10, 2.91314208000000000000e+08) (11, 4.86844448000000000000e+08) (12, 8.92256640000000000000e+08) (13, 1.05101644800000000000e+09) (14, 7.44113472000000000000e+08) (15, 6.94284480000000000000e+08) (16, 7.88502528000000000000e+08) (17, 8.14852608000000000000e+08) (18, 4.69272100864000000000e+12) (19, 7.00057780224000000000e+11) (20, 8.54749120000000000000e+08) (21, 7.62823488000000000000e+08) (22, 4.76986368000000000000e+08) (23, 1.29373544000000000000e+08) (24, 1.29503272000000000000e+08) (25, 1.25661848000000000000e+08) (26, 5.22063488000000000000e+08) (27, 4.60897472000000000000e+08) (28, -6.47229865984000000000e+12) (29, 2.82525536000000000000e+08) (0, 5.96685209600000000000e+09) (1, 7.16020889600000000000e+09) (2, 9.25920972800000000000e+09) (3, 1.01122293760000000000e+10) (4, 3.60427212800000000000e+09) (5, 4.74484480000000000000e+09) (6, 8.46122566287360000000e+13) (7, 2.09312186368000000000e+11) (8, 4.43161664000000000000e+08) (9, 5.39936064000000000000e+08) (10, 2.91336128000000000000e+08) (11, 4.86849376000000000000e+08) (12, 8.92247296000000000000e+08) (13, 1.05100281600000000000e+09) (14, 7.44105600000000000000e+08) (15, 6.94277120000000000000e+08) (16, 7.88494656000000000000e+08) (17, 8.14843648000000000000e+08) (18, 4.69262978252800000000e+12) (19, 7.00051161088000000000e+11) (20, 8.54740160000000000000e+08) (21, 7.62815168000000000000e+08) (22, 4.76979584000000000000e+08) (23, 1.29373008000000000000e+08) (24, 1.29501952000000000000e+08) (25, 1.25661200000000000000e+08) (26, 5.22056864000000000000e+08) (27, 4.60891936000000000000e+08) (28, -6.47224203673600000000e+12) (29, 2.82523872000000000000e+08) (0, -1.31835531250000000000e+05) (1, -1.74153250000000000000e+05) (2, -2.30926437500000000000e+05) (3, -2.43836531250000000000e+05) (4, -6.82376640625000000000e+04) (5, -9.49113593750000000000e+04) (6, -2.47723136000000000000e+09) (7, -4.03022600000000000000e+06) (8, -5.02988330078125000000e+03) (9, -7.30536718750000000000e+03) (10, 3.04408691406250000000e+04) (11, 7.25530761718750000000e+03) (12, -1.46172675781250000000e+04) (13, -1.94640371093750000000e+04) (14, -1.07821347656250000000e+04) (15, -1.04514130859375000000e+04) (16, -1.19543173828125000000e+04) (17, -1.33457167968750000000e+04) (18, -1.27944016000000000000e+08) (19, -9.26475500000000000000e+06) (20, -1.26912197265625000000e+04) (21, -1.14651357421875000000e+04) (22, -9.68777246093750000000e+03) (23, -7.04657409667968750000e+02) (24, -1.79823181152343750000e+03) (25, -7.99127868652343750000e+02) (26, -9.27501562500000000000e+03) (27, -7.95498681640625000000e+03) (28, 7.88124080000000000000e+07) (29, -2.07854003906250000000e+03) (0, -7.73718310546875000000e+03) (1, -1.02745742187500000000e+04) (2, -1.35713349609375000000e+04) (3, -1.43163945312500000000e+04) (4, -4.00887670898437500000e+03) (5, -5.57358154296875000000e+03) (6, -1.46078080000000000000e+08) (7, -2.37538937500000000000e+05) (8, -2.90146820068359375000e+02) (9, -4.26264770507812500000e+02) (10, 1.84154248046875000000e+03) (11, 4.31058227539062500000e+02) (12, -8.56678771972656250000e+02) (13, -1.12180578613281250000e+03) (14, -6.29558593750000000000e+02) (15, -6.12611572265625000000e+02) (16, -6.99342346191406250000e+02) (17, -7.83735168457031250000e+02) (18, -7.50636800000000000000e+06) (19, -5.30335437500000000000e+05) (20, -7.38746276855468750000e+02) (21, -6.68691345214843750000e+02) (22, -5.67095764160156250000e+02) (23, -3.89268798828125000000e+01) (24, -1.14762855529785156250e+02) (25, -4.63504104614257812500e+01) (26, -5.43634704589843750000e+02) (27, -4.67616149902343750000e+02) (28, 4.53866200000000000000e+06) (29, -1.17534988403320312500e+02) (0, 5.96679116800000000000e+09) (1, 7.16011980800000000000e+09) (2, 9.25909913600000000000e+09) (3, 1.01121208320000000000e+10) (4, 3.60423731200000000000e+09) (5, 4.74479923200000000000e+09) (6, 8.46109983375360000000e+13) (7, 2.09310334976000000000e+11) (8, 4.43159488000000000000e+08) (9, 5.39932672000000000000e+08) (10, 2.91350848000000000000e+08) (11, 4.86852704000000000000e+08) (12, 8.92240064000000000000e+08) (13, 1.05099347200000000000e+09) (14, 7.44100352000000000000e+08) (15, 6.94272128000000000000e+08) (16, 7.88489280000000000000e+08) (17, 8.14837376000000000000e+08) (18, 4.69256791654400000000e+12) (19, 7.00046508032000000000e+11) (20, 8.54733760000000000000e+08) (21, 7.62809792000000000000e+08) (22, 4.76975104000000000000e+08) (23, 1.29372640000000000000e+08) (24, 1.29501024000000000000e+08) (25, 1.25660800000000000000e+08) (26, 5.22052288000000000000e+08) (27, 4.60888000000000000000e+08) (28, -6.47220533657600000000e+12) (29, 2.82522784000000000000e+08) (0, 5.96238336000000000000e+09) (1, 7.15430451200000000000e+09) (2, 9.25136896000000000000e+09) (3, 1.01039605760000000000e+10) (4, 3.60195609600000000000e+09) (5, 4.74160998400000000000e+09) (6, 8.45283369943040000000e+13) (7, 2.09175904256000000000e+11) (8, 4.42991488000000000000e+08) (9, 5.39688768000000000000e+08) (10, 2.92363296000000000000e+08) (11, 4.87094208000000000000e+08) (12, 8.91755392000000000000e+08) (13, 1.05034380800000000000e+09) (14, 7.43739392000000000000e+08) (15, 6.93923328000000000000e+08) (16, 7.88092288000000000000e+08) (17, 8.14394112000000000000e+08) (18, 4.68828972646400000000e+12) (19, 6.99736064000000000000e+11) (20, 8.54311040000000000000e+08) (21, 7.62428608000000000000e+08) (22, 4.76650400000000000000e+08) (23, 1.29348920000000000000e+08) (24, 1.29441320000000000000e+08) (25, 1.25634024000000000000e+08) (26, 5.21741280000000000000e+08) (27, 4.60623360000000000000e+08) (28, -6.46956397363200000000e+12) (29, 2.82452832000000000000e+08) (0, -1.43666375000000000000e+05) (1, -1.89800015625000000000e+05) (2, -2.51660500000000000000e+05) (3, -2.65735656250000000000e+05) (4, -7.43652265625000000000e+04) (5, -1.03429289062500000000e+05) (6, -2.69981465600000000000e+09) (7, -4.38992950000000000000e+06) (8, -5.48008398437500000000e+03) (9, -7.95983105468750000000e+03) (10, 3.31867070312500000000e+04) (11, 7.91048925781250000000e+03) (12, -1.59299765625000000000e+04) (13, -2.12066054687500000000e+04) (14, -1.17486093750000000000e+04) (15, -1.13906025390625000000e+04) (16, -1.30267089843750000000e+04) (17, -1.45432968750000000000e+04) (18, -1.39430144000000000000e+08) (19, -1.00932750000000000000e+07) (20, -1.38297402343750000000e+04) (21, -1.24938750000000000000e+04) (22, -1.05572656250000000000e+04) (23, -7.65778564453125000000e+02) (24, -1.96303845214843750000e+03) (25, -8.72145324707031250000e+02) (26, -1.01075263671875000000e+04) (27, -8.66933496093750000000e+03) (28, 8.55549600000000000000e+07) (29, -2.26567675781250000000e+03) (0, 5.96685260800000000000e+09) (1, 7.16021094400000000000e+09) (2, 9.25921177600000000000e+09) (3, 1.01122314240000000000e+10) (4, 3.60427264000000000000e+09) (5, 4.74484582400000000000e+09) (6, 8.46122734059520000000e+13) (7, 2.09312219136000000000e+11) (8, 4.43161664000000000000e+08) (9, 5.39936192000000000000e+08) (10, 2.91335776000000000000e+08) (11, 4.86849312000000000000e+08) (12, 8.92247296000000000000e+08) (13, 1.05100294400000000000e+09) (14, 7.44105664000000000000e+08) (15, 6.94277248000000000000e+08) (16, 7.88494720000000000000e+08) (17, 8.14843712000000000000e+08) (18, 4.69263083110400000000e+12) (19, 7.00051226624000000000e+11) (20, 8.54740288000000000000e+08) (21, 7.62815232000000000000e+08) (22, 4.76979648000000000000e+08) (23, 1.29373024000000000000e+08) (24, 1.29501952000000000000e+08) (25, 1.25661216000000000000e+08) (26, 5.22056928000000000000e+08) (27, 4.60891936000000000000e+08) (28, -6.47224413388800000000e+12) (29, 2.82523936000000000000e+08) (0, -1.21078914062500000000e+05) (1, -1.59792296875000000000e+05) (2, -2.12031718750000000000e+05) (3, -2.23921953125000000000e+05) (4, -6.26628281250000000000e+04) (5, -8.71622578125000000000e+04) (6, -2.27324646400000000000e+09) (7, -3.69861175000000000000e+06) (8, -4.62967089843750000000e+03) (9, -6.71633398437500000000e+03) (10, 2.78057148437500000000e+04) (11, 6.64653271484375000000e+03) (12, -1.34255781250000000000e+04) (13, -1.79315898437500000000e+04) (14, -9.91177929687500000000e+03) (15, -9.60435351562500000000e+03) (16, -1.09849257812500000000e+04) (17, -1.22571582031250000000e+04) (18, -1.17514088000000000000e+08) (19, -8.54638200000000000000e+06) (20, -1.16747773437500000000e+04) (21, -1.05418544921875000000e+04) (22, -8.90215234375000000000e+03) (23, -6.53874389648437500000e+02) (24, -1.62823168945312500000e+03) (25, -7.37009521484375000000e+02) (26, -8.51723242187500000000e+03) (27, -7.30718261718750000000e+03) (28, 7.26587120000000000000e+07) (29, -1.92023107910156250000e+03) (0, 2.74592800000000000000e+08) (1, 2.82596544000000000000e+08) (2, 2.96286720000000000000e+08) (3, 3.19747040000000000000e+08) (4, 2.16253504000000000000e+08) (5, 2.44257088000000000000e+08) (6, 1.11115803033600000000e+12) (7, 3.74598144000000000000e+09) (8, 1.40139792000000000000e+08) (9, 1.42941248000000000000e+08) (10, 8.49679100000000000000e+06) (11, 8.51215920000000000000e+07) (12, 1.51844784000000000000e+08) (13, 1.24317528000000000000e+08) (14, 1.48869488000000000000e+08) (15, 1.46962080000000000000e+08) (16, 1.49669792000000000000e+08) (17, 1.49522224000000000000e+08) (18, 7.02660198400000000000e+10) (19, 2.22842429440000000000e+10) (20, 1.40788400000000000000e+08) (21, 1.35315488000000000000e+08) (22, 1.08130248000000000000e+08) (23, 7.07225200000000000000e+07) (24, 6.76401920000000000000e+07) (25, 6.77151680000000000000e+07) (26, 1.33596944000000000000e+08) (27, 1.25425360000000000000e+08) (28, 1.38487872000000000000e+08) (29, 1.36261040000000000000e+08) (0, 5.96668518400000000000e+09) (1, 7.15998054400000000000e+09) (2, 9.25892812800000000000e+09) (3, 1.01119375360000000000e+10) (4, 3.60417945600000000000e+09) (5, 4.74472806400000000000e+09) (6, 8.46092535070720000000e+13) (7, 2.09307385856000000000e+11) (8, 4.43155680000000000000e+08) (9, 5.39927424000000000000e+08) (10, 2.91372992000000000000e+08) (11, 4.86856128000000000000e+08) (12, 8.92228672000000000000e+08) (13, 1.05097843200000000000e+09) (14, 7.44092096000000000000e+08) (15, 6.94263616000000000000e+08) (16, 7.88479488000000000000e+08) (17, 8.14826432000000000000e+08) (18, 4.69246987468800000000e+12) (19, 7.00038905856000000000e+11) (20, 8.54723968000000000000e+08) (21, 7.62801216000000000000e+08) (22, 4.76967168000000000000e+08) (23, 1.29371984000000000000e+08) (24, 1.29499520000000000000e+08) (25, 1.25660080000000000000e+08) (26, 5.22045216000000000000e+08) (27, 4.60882336000000000000e+08) (28, -6.47214399488000000000e+12) (29, 2.82520992000000000000e+08) (0, 5.96687052800000000000e+09) (1, 7.16023705600000000000e+09) (2, 9.25925273600000000000e+09) (3, 1.01122754560000000000e+10) (4, 3.60428211200000000000e+09) (5, 4.74485964800000000000e+09) (6, 8.46126592819200000000e+13) (7, 2.09312825344000000000e+11) (8, 4.43162464000000000000e+08) (9, 5.39937472000000000000e+08) (10, 2.91330944000000000000e+08) (11, 4.86848608000000000000e+08) (12, 8.92249280000000000000e+08) (13, 1.05100601600000000000e+09) (14, 7.44107328000000000000e+08) (15, 6.94279104000000000000e+08) (16, 7.88496512000000000000e+08) (17, 8.14845888000000000000e+08) (18, 4.69265127833600000000e+12) (19, 7.00052865024000000000e+11) (20, 8.54742336000000000000e+08) (21, 7.62817216000000000000e+08) (22, 4.76981184000000000000e+08) (23, 1.29373136000000000000e+08) (24, 1.29502256000000000000e+08) (25, 1.25661344000000000000e+08) (26, 5.22058496000000000000e+08) (27, 4.60893216000000000000e+08) (28, -6.47225566822400000000e+12) (29, 2.82524288000000000000e+08) (0, 5.96687462400000000000e+09) (1, 7.16024064000000000000e+09) (2, 9.25925683200000000000e+09) (3, 1.01122795520000000000e+10) (4, 3.60428339200000000000e+09) (5, 4.74486220800000000000e+09) (6, 8.46127263907840000000e+13) (7, 2.09312907264000000000e+11) (8, 4.43162528000000000000e+08) (9, 5.39937664000000000000e+08) (10, 2.91330336000000000000e+08) (11, 4.86848544000000000000e+08) (12, 8.92249472000000000000e+08) (13, 1.05100652800000000000e+09) (14, 7.44107712000000000000e+08) (15, 6.94279232000000000000e+08) (16, 7.88496832000000000000e+08) (17, 8.14846144000000000000e+08) (18, 4.69265389977600000000e+12) (19, 7.00052930560000000000e+11) (20, 8.54742464000000000000e+08) (21, 7.62817408000000000000e+08) (22, 4.76981376000000000000e+08) (23, 1.29373144000000000000e+08) (24, 1.29502296000000000000e+08) (25, 1.25661368000000000000e+08) (26, 5.22058656000000000000e+08) (27, 4.60893408000000000000e+08) (28, -6.47225724108800000000e+12) (29, 2.82524352000000000000e+08) (0, 5.96640153600000000000e+09) (1, 7.15960883200000000000e+09) (2, 9.25841612800000000000e+09) (3, 1.01113927680000000000e+10) (4, 3.60403276800000000000e+09) (5, 4.74452326400000000000e+09) (6, 8.46037925232640000000e+13) (7, 2.09298997248000000000e+11) (8, 4.43144448000000000000e+08) (9, 5.39911936000000000000e+08) (10, 2.91437344000000000000e+08) (11, 4.86872576000000000000e+08) (12, 8.92198016000000000000e+08) (13, 1.05093644800000000000e+09) (14, 7.44069056000000000000e+08) (15, 6.94242176000000000000e+08) (16, 7.88454848000000000000e+08) (17, 8.14797056000000000000e+08) (18, 4.69219514777600000000e+12) (19, 7.00019769344000000000e+11) (20, 8.54697024000000000000e+08) (21, 7.62776256000000000000e+08) (22, 4.76946560000000000000e+08) (23, 1.29370488000000000000e+08) (24, 1.29495736000000000000e+08) (25, 1.25658344000000000000e+08) (26, 5.22025504000000000000e+08) (27, 4.60864768000000000000e+08) (28, -6.47197569843200000000e+12) (29, 2.82516480000000000000e+08) (0, 5.96686284800000000000e+09) (1, 7.16022323200000000000e+09) (2, 9.25923225600000000000e+09) (3, 1.01122560000000000000e+10) (4, 3.60427699200000000000e+09) (5, 4.74485350400000000000e+09) (6, 8.46124998983680000000e+13) (7, 2.09312530432000000000e+11) (8, 4.43162080000000000000e+08) (9, 5.39936896000000000000e+08) (10, 2.91332960000000000000e+08) (11, 4.86849184000000000000e+08) (12, 8.92248448000000000000e+08) (13, 1.05100467200000000000e+09) (14, 7.44106624000000000000e+08) (15, 6.94278016000000000000e+08) (16, 7.88495808000000000000e+08) (17, 8.14844928000000000000e+08) (18, 4.69264184115200000000e+12) (19, 7.00052013056000000000e+11) (20, 8.54741312000000000000e+08) (21, 7.62816320000000000000e+08) (22, 4.76980384000000000000e+08) (23, 1.29373088000000000000e+08) (24, 1.29502096000000000000e+08) (25, 1.25661280000000000000e+08) (26, 5.22057696000000000000e+08) (27, 4.60892576000000000000e+08) (28, -6.47225042534400000000e+12) (29, 2.82524096000000000000e+08) (0, 5.96659814400000000000e+09) (1, 7.15987046400000000000e+09) (2, 9.25877862400000000000e+09) (3, 1.01117808640000000000e+10) (4, 3.60413516800000000000e+09) (5, 4.74466816000000000000e+09) (6, 8.46076261171200000000e+13) (7, 2.09304977408000000000e+11) (8, 4.43152448000000000000e+08) (9, 5.39922944000000000000e+08) (10, 2.91393408000000000000e+08) (11, 4.86862528000000000000e+08) (12, 8.92219712000000000000e+08) (13, 1.05096627200000000000e+09) (14, 7.44085440000000000000e+08) (15, 6.94257536000000000000e+08) (16, 7.88472256000000000000e+08) (17, 8.14817984000000000000e+08) (18, 4.69238965862400000000e+12) (19, 7.00033335296000000000e+11) (20, 8.54716352000000000000e+08) (21, 7.62793792000000000000e+08) (22, 4.76960928000000000000e+08) (23, 1.29371432000000000000e+08) (24, 1.29498328000000000000e+08) (25, 1.25659448000000000000e+08) (26, 5.22039904000000000000e+08) (27, 4.60877312000000000000e+08) (28, -6.47209366323200000000e+12) (29, 2.82519456000000000000e+08) (0, 5.94861209600000000000e+09) (1, 7.13612953600000000000e+09) (2, 9.22729881600000000000e+09) (3, 1.00785377280000000000e+10) (4, 3.59484620800000000000e+09) (5, 4.73170380800000000000e+09) (6, 8.42695987691520000000e+13) (7, 2.08755310592000000000e+11) (8, 4.42468000000000000000e+08) (9, 5.38925504000000000000e+08) (10, 2.95538560000000000000e+08) (11, 4.87858144000000000000e+08) (12, 8.90229824000000000000e+08) (13, 1.04830899200000000000e+09) (14, 7.42611904000000000000e+08) (15, 6.92825536000000000000e+08) (16, 7.86844864000000000000e+08) (17, 8.13002432000000000000e+08) (18, 4.67490832384000000000e+12) (19, 6.98765934592000000000e+11) (20, 8.52988032000000000000e+08) (21, 7.61233152000000000000e+08) (22, 4.75635392000000000000e+08) (23, 1.29274960000000000000e+08) (24, 1.29256016000000000000e+08) (25, 1.25551200000000000000e+08) (26, 5.20771776000000000000e+08) (27, 4.59792000000000000000e+08) (28, -6.46131220480000000000e+12) (29, 2.82235328000000000000e+08) (0, 5.96686284800000000000e+09) (1, 7.16022425600000000000e+09) (2, 9.25923328000000000000e+09) (3, 1.01122549760000000000e+10) (4, 3.60427699200000000000e+09) (5, 4.74485350400000000000e+09) (6, 8.46124915097600000000e+13) (7, 2.09312514048000000000e+11) (8, 4.43162080000000000000e+08) (9, 5.39936896000000000000e+08) (10, 2.91332928000000000000e+08) (11, 4.86849280000000000000e+08) (12, 8.92248320000000000000e+08) (13, 1.05100467200000000000e+09) (14, 7.44106624000000000000e+08) (15, 6.94278144000000000000e+08) (16, 7.88495680000000000000e+08) (17, 8.14844928000000000000e+08) (18, 4.69264184115200000000e+12) (19, 7.00052013056000000000e+11) (20, 8.54741440000000000000e+08) (21, 7.62816320000000000000e+08) (22, 4.76980384000000000000e+08) (23, 1.29373104000000000000e+08) (24, 1.29502096000000000000e+08) (25, 1.25661296000000000000e+08) (26, 5.22057632000000000000e+08) (27, 4.60892608000000000000e+08) (28, -6.47225042534400000000e+12) (29, 2.82524160000000000000e+08) (0, 5.96490598400000000000e+09) (1, 7.15765094400000000000e+09) (2, 9.25578342400000000000e+09) (3, 1.01085839360000000000e+10) (4, 3.60325964800000000000e+09) (5, 4.74342400000000000000e+09) (6, 8.45756235776000000000e+13) (7, 2.09253122048000000000e+11) (8, 4.43088256000000000000e+08) (9, 5.39828416000000000000e+08) (10, 2.91784768000000000000e+08) (11, 4.86954208000000000000e+08) (12, 8.92031424000000000000e+08) (13, 1.05071436800000000000e+09) (14, 7.43945920000000000000e+08) (15, 6.94122176000000000000e+08) (16, 7.88318720000000000000e+08) (17, 8.14646464000000000000e+08) (18, 4.69074339430400000000e+12) (19, 6.99914190848000000000e+11) (20, 8.54551360000000000000e+08) (21, 7.62646144000000000000e+08) (22, 4.76836448000000000000e+08) (23, 1.29362384000000000000e+08) (24, 1.29475392000000000000e+08) (25, 1.25649264000000000000e+08) (26, 5.21920416000000000000e+08) (27, 4.60775200000000000000e+08) (28, -6.47107497164800000000e+12) (29, 2.82492320000000000000e+08) (0, -7.10090468750000000000e+04) (1, -9.35960937500000000000e+04) (2, -1.24307187500000000000e+05) (3, -1.31305796875000000000e+05) (4, -3.67402617187500000000e+04) (5, -5.11103359375000000000e+04) (6, -1.33155481600000000000e+09) (7, -2.16708325000000000000e+06) (8, -2.72456811523437500000e+03) (9, -3.94360961914062500000e+03) (10, 1.61901113281250000000e+04) (11, 3.88287768554687500000e+03) (12, -7.87468164062500000000e+03) (13, -1.05599365234375000000e+04) (14, -5.81947167968750000000e+03) (15, -5.63482714843750000000e+03) (16, -6.44817578125000000000e+03) (17, -7.18992333984375000000e+03) (18, -6.89173280000000000000e+07) (19, -5.04069050000000000000e+06) (20, -6.85890136718750000000e+03) (21, -6.19021337890625000000e+03) (22, -5.22304052734375000000e+03) (23, -3.88262359619140625000e+02) (24, -9.37858703613281250000e+02) (25, -4.35612335205078125000e+02) (26, -4.99442773437500000000e+03) (27, -4.28490966796875000000e+03) (28, 4.29997280000000000000e+07) (29, -1.13449291992187500000e+03) (0, -1.60075296875000000000e+05) (1, -2.11203343750000000000e+05) (2, -2.80288531250000000000e+05) (3, -2.96022062500000000000e+05) (4, -8.28370937500000000000e+04) (5, -1.15229406250000000000e+05) (6, -3.00456473600000000000e+09) (7, -4.88818600000000000000e+06) (8, -6.12536035156250000000e+03) (9, -8.88163867187500000000e+03) (10, 3.67089687500000000000e+04) (11, 8.77863574218750000000e+03) (12, -1.77505566406250000000e+04) (13, -2.37254277343750000000e+04) (14, -1.31066914062500000000e+04) (15, -1.26987197265625000000e+04) (16, -1.45260517578125000000e+04) (17, -1.62060673828125000000e+04) (18, -1.55354272000000000000e+08) (19, -1.13115280000000000000e+07) (20, -1.54406103515625000000e+04) (21, -1.39386542968750000000e+04) (22, -1.17695468750000000000e+04) (23, -8.64915100097656250000e+02) (24, -2.14522363281250000000e+03) (25, -9.77275695800781250000e+02) (26, -1.12603378906250000000e+04) (27, -9.65882910156250000000e+03) (28, 9.63160480000000000000e+07) (29, -2.54412451171875000000e+03) (0, 5.96671641600000000000e+09) (1, 7.16001894400000000000e+09) (2, 9.25898240000000000000e+09) (3, 1.01119948800000000000e+10) (4, 3.60419404800000000000e+09) (5, 4.74474905600000000000e+09) (6, 8.46097316577280000000e+13) (7, 2.09308205056000000000e+11) (8, 4.43156832000000000000e+08) (9, 5.39928832000000000000e+08) (10, 2.91367808000000000000e+08) (11, 4.86853888000000000000e+08) (12, 8.92232128000000000000e+08) (13, 1.05098227200000000000e+09) (14, 7.44094400000000000000e+08) (15, 6.94266368000000000000e+08) (16, 7.88482304000000000000e+08) (17, 8.14829504000000000000e+08) (18, 4.69249818624000000000e+12) (19, 7.00041068544000000000e+11) (20, 8.54726784000000000000e+08) (21, 7.62803648000000000000e+08) (22, 4.76969472000000000000e+08) (23, 1.29372128000000000000e+08) (24, 1.29500016000000000000e+08) (25, 1.25660256000000000000e+08) (26, 5.22047168000000000000e+08) (27, 4.60884064000000000000e+08) (28, -6.47216129638400000000e+12) (29, 2.82521472000000000000e+08) (0, -1.27879781250000000000e+05) (1, -1.68761781250000000000e+05) (2, -2.23945515625000000000e+05) (3, -2.36511937500000000000e+05) (4, -6.61808437500000000000e+04) (5, -9.20560859375000000000e+04) (6, -2.40076672000000000000e+09) (7, -3.90554675000000000000e+06) (8, -4.89283349609375000000e+03) (9, -7.09424121093750000000e+03) (10, 2.93496464843750000000e+04) (11, 7.02170556640625000000e+03) (12, -1.41800390625000000000e+04) (13, -1.89477285156250000000e+04) (14, -1.04691435546875000000e+04) (15, -1.01443242187500000000e+04) (16, -1.16049824218750000000e+04) (17, -1.29465244140625000000e+04) (18, -1.24121208000000000000e+08) (19, -9.03188300000000000000e+06) (20, -1.23335078125000000000e+04) (21, -1.11350986328125000000e+04) (22, -9.40265722656250000000e+03) (23, -6.91069763183593750000e+02) (24, -1.71637304687500000000e+03) (25, -7.78783386230468750000e+02) (26, -8.99612109375000000000e+03) (27, -7.71696289062500000000e+03) (28, 7.64805280000000000000e+07) (29, -2.03033801269531250000e+03) (0, -7.51741650390625000000e+03) (1, -9.92273339843750000000e+03) (2, -1.31654150390625000000e+04) (3, -1.39010302734375000000e+04) (4, -3.89149047851562500000e+03) (5, -5.41291601562500000000e+03) (6, -1.41152976000000000000e+08) (7, -2.30623890625000000000e+05) (8, -2.85454589843750000000e+02) (9, -4.15778717041015625000e+02) (10, 1.73293945312500000000e+03) (11, 4.08330657958984375000e+02) (12, -8.32503967285156250000e+02) (13, -1.10975476074218750000e+03) (14, -6.13374694824218750000e+02) (15, -5.95962158203125000000e+02) (16, -6.81143798828125000000e+02) (17, -7.61249084472656250000e+02) (18, -7.29221950000000000000e+06) (19, -5.28723562500000000000e+05) (20, -7.23908264160156250000e+02) (21, -6.52616943359375000000e+02) (22, -5.51090698242187500000e+02) (23, -3.97359542846679687500e+01) (24, -1.02918663024902343750e+02) (25, -4.64468650817871093750e+01) (26, -5.28691284179687500000e+02) (27, -4.52012847900390625000e+02) (28, 4.70524800000000000000e+06) (29, -1.17310554504394531250e+02) (0, -4.14874648437500000000e+04) (1, -5.47983515625000000000e+04) (2, -7.26685937500000000000e+04) (3, -7.67339765625000000000e+04) (4, -2.14754707031250000000e+04) (5, -2.98684433593750000000e+04) (6, -7.79504768000000000000e+08) (7, -1.26744250000000000000e+06) (8, -1.58319079589843750000e+03) (9, -2.30041894531250000000e+03) (10, 9.57190234375000000000e+03) (11, 2.28215722656250000000e+03) (12, -4.60025488281250000000e+03) (13, -6.12945166015625000000e+03) (14, -3.39387719726562500000e+03) (15, -3.28956835937500000000e+03) (16, -3.76222729492187500000e+03) (17, -4.20072265625000000000e+03) (18, -4.02661840000000000000e+07) (19, -2.91789875000000000000e+06) (20, -3.99524707031250000000e+03) (21, -3.60910864257812500000e+03) (22, -3.04989477539062500000e+03) (23, -2.21669158935546875000e+02) (24, -5.64818847656250000000e+02) (25, -2.51087432861328125000e+02) (26, -2.91873974609375000000e+03) (27, -2.50369384765625000000e+03) (28, 2.47051040000000000000e+07) (29, -6.54493103027343750000e+02) (0, 5.96698572800000000000e+09) (1, 7.16037580800000000000e+09) (2, 9.25942681600000000000e+09) (3, 1.01124659200000000000e+10) (4, 3.60433715200000000000e+09) (5, 4.74493798400000000000e+09) (6, 8.46147144908800000000e+13) (7, 2.09315872768000000000e+11) (8, 4.43166432000000000000e+08) (9, 5.39943168000000000000e+08) (10, 2.91306848000000000000e+08) (11, 4.86842592000000000000e+08) (12, 8.92260608000000000000e+08) (13, 1.05102105600000000000e+09) (14, 7.44116160000000000000e+08) (15, 6.94287168000000000000e+08) (16, 7.88505856000000000000e+08) (17, 8.14855680000000000000e+08) (18, 4.69275351449600000000e+12) (19, 7.00060205056000000000e+11) (20, 8.54752128000000000000e+08) (21, 7.62825792000000000000e+08) (22, 4.76988576000000000000e+08) (23, 1.29373736000000000000e+08) (24, 1.29503680000000000000e+08) (25, 1.25662056000000000000e+08) (26, 5.22065856000000000000e+08) (27, 4.60899296000000000000e+08) (28, -6.47231805849600000000e+12) (29, 2.82526016000000000000e+08) (0, 5.96686745600000000000e+09) (1, 7.16023040000000000000e+09) (2, 9.25924249600000000000e+09) (3, 1.01122641920000000000e+10) (4, 3.60428006400000000000e+09) (5, 4.74485657600000000000e+09) (6, 8.46126005616640000000e+13) (7, 2.09312661504000000000e+11) (8, 4.43162272000000000000e+08) (9, 5.39937216000000000000e+08) (10, 2.91331840000000000000e+08) (11, 4.86848960000000000000e+08) (12, 8.92248832000000000000e+08) (13, 1.05100518400000000000e+09) (14, 7.44106944000000000000e+08) (15, 6.94278464000000000000e+08) (16, 7.88496192000000000000e+08) (17, 8.14845440000000000000e+08) (18, 4.69264603545600000000e+12) (19, 7.00052471808000000000e+11) (20, 8.54741760000000000000e+08) (21, 7.62816704000000000000e+08) (22, 4.76980800000000000000e+08) (23, 1.29373104000000000000e+08) (24, 1.29502176000000000000e+08) (25, 1.25661312000000000000e+08) (26, 5.22058048000000000000e+08) (27, 4.60892928000000000000e+08) (28, -6.47225304678400000000e+12) (29, 2.82524224000000000000e+08) (0, 5.96690483200000000000e+09) (1, 7.16027648000000000000e+09) (2, 9.25931008000000000000e+09) (3, 1.01123420160000000000e+10) (4, 3.60429824000000000000e+09) (5, 4.74488268800000000000e+09) (6, 8.46132716503040000000e+13) (7, 2.09313742848000000000e+11) (8, 4.43163584000000000000e+08) (9, 5.39939392000000000000e+08) (10, 2.91324032000000000000e+08) (11, 4.86846400000000000000e+08) (12, 8.92252032000000000000e+08) (13, 1.05101056000000000000e+09) (14, 7.44109952000000000000e+08) (15, 6.94281216000000000000e+08) (16, 7.88499200000000000000e+08) (17, 8.14848704000000000000e+08) (18, 4.69268221132800000000e+12) (19, 7.00055224320000000000e+11) (20, 8.54745280000000000000e+08) (21, 7.62819776000000000000e+08) (22, 4.76983488000000000000e+08) (23, 1.29373336000000000000e+08) (24, 1.29502680000000000000e+08) (25, 1.25661592000000000000e+08) (26, 5.22060640000000000000e+08) (27, 4.60895072000000000000e+08) (28, -6.47227454259200000000e+12) (29, 2.82524896000000000000e+08) (0, 5.96067225600000000000e+09) (1, 7.15204659200000000000e+09) (2, 9.24840857600000000000e+09) (3, 1.01008117760000000000e+10) (4, 3.60108339200000000000e+09) (5, 4.74039449600000000000e+09) (6, 8.44961415168000000000e+13) (7, 2.09123344384000000000e+11) (8, 4.42926528000000000000e+08) (9, 5.39594176000000000000e+08) (10, 2.92758400000000000000e+08) (11, 4.87189120000000000000e+08) (12, 8.91563840000000000000e+08) (13, 1.05008870400000000000e+09) (14, 7.43598464000000000000e+08) (15, 6.93786048000000000000e+08) (16, 7.87935808000000000000e+08) (17, 8.14219584000000000000e+08) (18, 4.68662983065600000000e+12) (19, 6.99615412224000000000e+11) (20, 8.54146816000000000000e+08) (21, 7.62280192000000000000e+08) (22, 4.76523520000000000000e+08) (23, 1.29339920000000000000e+08) (24, 1.29418384000000000000e+08) (25, 1.25623872000000000000e+08) (26, 5.21621760000000000000e+08) (27, 4.60519776000000000000e+08) (28, -6.46853951488000000000e+12) (29, 2.82426144000000000000e+08) (0, 5.96673740800000000000e+09) (1, 7.16004659200000000000e+09) (2, 9.25901312000000000000e+09) (3, 1.01120266240000000000e+10) (4, 3.60420684800000000000e+09) (5, 4.74476185600000000000e+09) (6, 8.46100252590080000000e+13) (7, 2.09308745728000000000e+11) (8, 4.43157472000000000000e+08) (9, 5.39929728000000000000e+08) (10, 2.91361920000000000000e+08) (11, 4.86853760000000000000e+08) (12, 8.92234176000000000000e+08) (13, 1.05098515200000000000e+09) (14, 7.44096000000000000000e+08) (15, 6.94267648000000000000e+08) (16, 7.88484032000000000000e+08) (17, 8.14831680000000000000e+08) (18, 4.69251758489600000000e+12) (19, 7.00042379264000000000e+11) (20, 8.54728576000000000000e+08) (21, 7.62805504000000000000e+08) (22, 4.76970816000000000000e+08) (23, 1.29372248000000000000e+08) (24, 1.29500232000000000000e+08) (25, 1.25660392000000000000e+08) (26, 5.22048640000000000000e+08) (27, 4.60885248000000000000e+08) (28, -6.47217283072000000000e+12) (29, 2.82521792000000000000e+08) (0, 5.96680243200000000000e+09) (1, 7.16013516800000000000e+09) (2, 9.25911654400000000000e+09) (3, 1.01121361920000000000e+10) (4, 3.60424268800000000000e+09) (5, 4.74480691200000000000e+09) (6, 8.46111828869120000000e+13) (7, 2.09310629888000000000e+11) (8, 4.43159776000000000000e+08) (9, 5.39933184000000000000e+08) (10, 2.91347904000000000000e+08) (11, 4.86852736000000000000e+08) (12, 8.92241024000000000000e+08) (13, 1.05099462400000000000e+09) (14, 7.44101312000000000000e+08) (15, 6.94272960000000000000e+08) (16, 7.88490240000000000000e+08) (17, 8.14838272000000000000e+08) (18, 4.69257945088000000000e+12) (19, 7.00047097856000000000e+11) (20, 8.54734656000000000000e+08) (21, 7.62810752000000000000e+08) (22, 4.76975712000000000000e+08) (23, 1.29372688000000000000e+08) (24, 1.29501176000000000000e+08) (25, 1.25660856000000000000e+08) (26, 5.22052928000000000000e+08) (27, 4.60888544000000000000e+08) (28, -6.47221057945600000000e+12) (29, 2.82522944000000000000e+08) (0, 5.96548761600000000000e+09) (1, 7.15841126400000000000e+09) (2, 9.25684428800000000000e+09) (3, 1.01097297920000000000e+10) (4, 3.60356403200000000000e+09) (5, 4.74385459200000000000e+09) (6, 8.45867468718080000000e+13) (7, 2.09270636544000000000e+11) (8, 4.43109664000000000000e+08) (9, 5.39861312000000000000e+08) (10, 2.91652640000000000000e+08) (11, 4.86923296000000000000e+08) (12, 8.92097664000000000000e+08) (13, 1.05080288000000000000e+09) (14, 7.43993408000000000000e+08) (15, 6.94168640000000000000e+08) (16, 7.88371776000000000000e+08) (17, 8.14704832000000000000e+08) (18, 4.69131277107200000000e+12) (19, 6.99955675136000000000e+11) (20, 8.54609984000000000000e+08) (21, 7.62698240000000000000e+08) (22, 4.76879968000000000000e+08) (23, 1.29365600000000000000e+08) (24, 1.29483400000000000000e+08) (25, 1.25652808000000000000e+08) (26, 5.21961952000000000000e+08) (27, 4.60810944000000000000e+08) (28, -6.47142834176000000000e+12) (29, 2.82501888000000000000e+08) (30, -4.17007088661193847656e-01) (31, 7.57867265625000000000e+04) (32, 2.98626065254211425781e-01) (33, 7.57725546875000000000e+04) (34, 7.57862500000000000000e+04) (35, -7.28653252124786376953e-01) (36, 7.57859921875000000000e+04) (37, 7.42683887481689453125e-01) (38, 7.57868125000000000000e+04) (39, 4.82449650764465332031e-01) (40, 7.57869765625000000000e+04) (41, 7.57863984375000000000e+04) (42, 7.57857187500000000000e+04) (43, 7.57871875000000000000e+04) (44, 7.57866953125000000000e+04) (45, 7.57863828125000000000e+04) (46, 7.57868671875000000000e+04) (47, 7.57864531250000000000e+04) (48, 7.57873906250000000000e+04) (49, 7.57871015625000000000e+04) (50, -4.61769223213195800781e-01) (51, 7.57869296875000000000e+04) (52, 7.57866718750000000000e+04) (53, 7.57857187500000000000e+04) (54, 7.57856562500000000000e+04) (55, -5.06387501955032348633e-02) (56, 7.57869609375000000000e+04) (57, 7.57872187500000000000e+04) (58, -3.80400598049163818359e-01) (59, 5.81917762756347656250e-01) (60, 7.57857968750000000000e+04) (61, 7.57747656250000000000e+04) (62, -5.93634724617004394531e-01) (63, 7.57867578125000000000e+04) (64, 4.81197191402316093445e-03) (65, 5.25617773437500000000e+04) (66, 7.57865078125000000000e+04) (67, 7.57864921875000000000e+04) (68, 7.57870781250000000000e+04) (69, 7.57854609375000000000e+04) (70, 7.57868281250000000000e+04) (71, 7.57851484375000000000e+04) (72, 7.57417578125000000000e+04) (73, 7.57859218750000000000e+04) (74, 7.57806796875000000000e+04) (75, -3.81381571292877197266e-01) (76, -2.91058242321014404297e-01) (77, 7.57859453125000000000e+04) (78, -3.10231924057006835938e-01) (79, -1.03585317730903625488e-01) (80, 7.26683139801025390625e-02) (81, 7.57863046875000000000e+04) (82, 7.57858750000000000000e+04) (83, 7.57870468750000000000e+04) (84, 7.57698125000000000000e+04) (85, 7.57866093750000000000e+04) (86, 7.57860000000000000000e+04) (87, 7.57820000000000000000e+04) (88, 7.57866406250000000000e+04) (30, 9.52930569648742675781e-01) (31, -2.86863636970520019531e+00) (32, 1.47902369499206542969e-01) (33, -1.66459667682647705078e+00) (34, -1.26134073734283447266e+00) (35, 9.43995416164398193359e-02) (36, -1.88070213794708251953e+00) (37, -5.90161561965942382812e-01) (38, -1.70033013820648193359e+00) (39, -3.45867931842803955078e-01) (40, -2.80715203285217285156e+00) (41, -1.34496104717254638672e+00) (42, -1.61108696460723876953e+00) (43, -1.52800476551055908203e+00) (44, -1.49456059932708740234e+00) (45, -2.13388419151306152344e+00) (46, -1.91414368152618408203e+00) (47, -2.82941365242004394531e+00) (48, -1.21302831172943115234e+00) (49, -2.41292023658752441406e+00) (50, -1.33721500635147094727e-01) (51, -1.60469663143157958984e+00) (52, -2.43674731254577636719e+00) (53, -2.78640818595886230469e+00) (54, -2.52591156959533691406e+00) (55, 6.66089475154876708984e-01) (56, -1.73629939556121826172e+00) (57, -2.96103072166442871094e+00) (58, -7.09676563739776611328e-01) (59, 5.53386211395263671875e-01) (60, -2.19583773612976074219e+00) (61, -8.41186940670013427734e-01) (62, 4.95571017265319824219e-01) (63, -1.87457382678985595703e+00) (64, -2.22899839282035827637e-01) (65, 4.39208126068115234375e+00) (66, -2.90841078758239746094e+00) (67, -2.31565022468566894531e+00) (68, -2.70308709144592285156e+00) (69, -2.09626364707946777344e+00) (70, -2.45179963111877441406e+00) (71, -2.07263875007629394531e+00) (72, -2.11537718772888183594e+00) (73, -2.52478098869323730469e+00) (74, -1.68360912799835205078e+00) (75, -1.96052491664886474609e-01) (76, 3.25655221939086914062e-01) (77, -2.70679450035095214844e+00) (78, -1.15608125925064086914e-01) (79, -3.76285344362258911133e-01) (80, 6.33319616317749023438e-02) (81, -2.60458970069885253906e+00) (82, -1.03135836124420166016e+00) (83, -2.73200964927673339844e+00) (84, -2.55079150199890136719e+00) (85, -1.77247321605682373047e+00) (86, -2.91155648231506347656e+00) (87, -9.31370913982391357422e-01) (88, -1.37626039981842041016e+00) (30, -5.87268471717834472656e-01) (31, 7.58592421875000000000e+04) (32, 6.33071362972259521484e-01) (33, 7.58440468750000000000e+04) (34, 7.58593750000000000000e+04) (35, -6.34059131145477294922e-01) (36, 7.58579218750000000000e+04) (37, -9.40321326255798339844e-01) (38, 7.58587265625000000000e+04) (39, 4.28501129150390625000e-01) (40, 7.58589218750000000000e+04) (41, 7.58591171875000000000e+04) (42, 7.58587265625000000000e+04) (43, 7.58587890625000000000e+04) (44, 7.58589296875000000000e+04) (45, 7.58579140625000000000e+04) (46, 7.58581015625000000000e+04) (47, 7.58583515625000000000e+04) (48, 7.58585859375000000000e+04) (49, 7.58587578125000000000e+04) (50, -3.97414088249206542969e-01) (51, 7.58579296875000000000e+04) (52, 7.58596328125000000000e+04) (53, 7.58588906250000000000e+04) (54, 7.58578671875000000000e+04) (55, 3.38379144668579101562e-01) (56, 7.58592656250000000000e+04) (57, 7.58594921875000000000e+04) (58, -1.82085692882537841797e-01) (59, -5.03666341304779052734e-01) (60, 7.58579531250000000000e+04) (61, 7.58470156250000000000e+04) (62, -7.32511997222900390625e-01) (63, 7.58596718750000000000e+04) (64, -9.84975934028625488281e-01) (65, 5.25924140625000000000e+04) (66, 7.58580781250000000000e+04) (67, 7.58594140625000000000e+04) (68, 7.58583593750000000000e+04) (69, 7.58570078125000000000e+04) (70, 7.58585312500000000000e+04) (71, 7.58571718750000000000e+04) (72, 7.58125937500000000000e+04) (73, 7.58590781250000000000e+04) (74, 7.58522421875000000000e+04) (75, -2.09982991218566894531e-01) (76, -8.28975319862365722656e-01) (77, 7.58588593750000000000e+04) (78, 6.00853502750396728516e-01) (79, -7.47293412685394287109e-01) (80, -1.71217143535614013672e-01) (81, 7.58594140625000000000e+04) (82, 7.58595859375000000000e+04) (83, 7.58592734375000000000e+04) (84, 7.58431562500000000000e+04) (85, 7.58575937500000000000e+04) (86, 7.58595078125000000000e+04) (87, 7.58542500000000000000e+04) (88, 7.58578203125000000000e+04) (30, -6.46196484565734863281e-01) (31, 7.58112109375000000000e+04) (32, -2.54513025283813476562e-01) (33, 7.57976953125000000000e+04) (34, 7.58116562500000000000e+04) (35, 4.50801461935043334961e-01) (36, 7.58107421875000000000e+04) (37, 1.52123808860778808594e-01) (38, 7.58123906250000000000e+04) (39, 2.76512503623962402344e-01) (40, 7.58112812500000000000e+04) (41, 7.58121875000000000000e+04) (42, 7.58120937500000000000e+04) (43, 7.58119765625000000000e+04) (44, 7.58114609375000000000e+04) (45, 7.58117421875000000000e+04) (46, 7.58113593750000000000e+04) (47, 7.58112734375000000000e+04) (48, 7.58122500000000000000e+04) (49, 7.58114375000000000000e+04) (50, -8.16005110740661621094e-01) (51, 7.58124375000000000000e+04) (52, 7.58114921875000000000e+04) (53, 7.58122812500000000000e+04) (54, 7.58121250000000000000e+04) (55, 2.49440163373947143555e-01) (56, 7.58125390625000000000e+04) (57, 7.58109062500000000000e+04) (58, -6.76510334014892578125e-01) (59, 2.84367203712463378906e-01) (60, 7.58123906250000000000e+04) (61, 7.57998671875000000000e+04) (62, -6.14901185035705566406e-02) (63, 7.58116953125000000000e+04) (64, -8.54476213455200195312e-01) (65, 5.25788867187500000000e+04) (66, 7.58110000000000000000e+04) (67, 7.58120234375000000000e+04) (68, 7.58116328125000000000e+04) (69, 7.58109765625000000000e+04) (70, 7.58118828125000000000e+04) (71, 7.58117421875000000000e+04) (72, 7.57679765625000000000e+04) (73, 7.58124453125000000000e+04) (74, 7.58071484375000000000e+04) (75, 4.60074067115783691406e-01) (76, -6.86135739088058471680e-02) (77, 7.58122343750000000000e+04) (78, 6.34690374135971069336e-03) (79, 5.42162179946899414062e-01) (80, -9.80172038078308105469e-01) (81, 7.58127265625000000000e+04) (82, 7.58120156250000000000e+04) (83, 7.58122968750000000000e+04) (84, 7.57959843750000000000e+04) (85, 7.58117031250000000000e+04) (86, 7.58110625000000000000e+04) (87, 7.58087578125000000000e+04) (88, 7.58117656250000000000e+04) (30, -4.94193494319915771484e-01) (31, 7.57910703125000000000e+04) (32, -9.35737133026123046875e-01) (33, 7.57786093750000000000e+04) (34, 7.57927500000000000000e+04) (35, -8.37950348854064941406e-01) (36, 7.57920000000000000000e+04) (37, -8.19506227970123291016e-01) (38, 7.57910390625000000000e+04) (39, 1.48013353347778320312e-01) (40, 7.57926250000000000000e+04) (41, 7.57919218750000000000e+04) (42, 7.57923593750000000000e+04) (43, 7.57924296875000000000e+04) (44, 7.57926015625000000000e+04) (45, 7.57929140625000000000e+04) (46, 7.57914062500000000000e+04) (47, 7.57909687500000000000e+04) (48, 7.57914531250000000000e+04) (49, 7.57920390625000000000e+04) (50, 2.11231335997581481934e-01) (51, 7.57914218750000000000e+04) (52, 7.57918671875000000000e+04) (53, 7.57912421875000000000e+04) (54, 7.57927031250000000000e+04) (55, 3.28801155090332031250e-01) (56, 7.57919531250000000000e+04) (57, 7.57927343750000000000e+04) (58, -8.39495003223419189453e-01) (59, -4.58249032497406005859e-01) (60, 7.57922734375000000000e+04) (61, 7.57799375000000000000e+04) (62, 4.73431706428527832031e-01) (63, 7.57921796875000000000e+04) (64, 8.59512463212013244629e-02) (65, 5.25545781250000000000e+04) (66, 7.57914140625000000000e+04) (67, 7.57924921875000000000e+04) (68, 7.57920312500000000000e+04) (69, 7.57903750000000000000e+04) (70, 7.57920156250000000000e+04) (71, 7.57924218750000000000e+04) (72, 7.57472578125000000000e+04) (73, 7.57917812500000000000e+04) (74, 7.57860937500000000000e+04) (75, -8.90374541282653808594e-01) (76, -6.24347209930419921875e-01) (77, 7.57912656250000000000e+04) (78, -3.58226001262664794922e-01) (79, -8.29797387123107910156e-01) (80, 7.97106444835662841797e-01) (81, 7.57926406250000000000e+04) (82, 7.57928671875000000000e+04) (83, 7.57923906250000000000e+04) (84, 7.57768750000000000000e+04) (85, 7.57911953125000000000e+04) (86, 7.57917343750000000000e+04) (87, 7.57882656250000000000e+04) (88, 7.57924453125000000000e+04) (30, -2.75413036346435546875e-01) (31, 7.55337578125000000000e+04) (32, 7.15983748435974121094e-01) (33, 7.55239531250000000000e+04) (34, 7.55331171875000000000e+04) (35, 5.10535240173339843750e-01) (36, 7.55335546875000000000e+04) (37, 2.84427165985107421875e-01) (38, 7.55347578125000000000e+04) (39, 8.76740336418151855469e-01) (40, 7.55348828125000000000e+04) (41, 7.55328437500000000000e+04) (42, 7.55347343750000000000e+04) (43, 7.55330546875000000000e+04) (44, 7.55337031250000000000e+04) (45, 7.55334843750000000000e+04) (46, 7.55346796875000000000e+04) (47, 7.55330312500000000000e+04) (48, 7.55343125000000000000e+04) (49, 7.55341328125000000000e+04) (50, 2.57353305816650390625e-01) (51, 7.55334218750000000000e+04) (52, 7.55346406250000000000e+04) (53, 7.55328671875000000000e+04) (54, 7.55340078125000000000e+04) (55, 4.66465950012207031250e-03) (56, 7.55342812500000000000e+04) (57, 7.55335312500000000000e+04) (58, -6.15951895713806152344e-01) (59, -8.50242078304290771484e-01) (60, 7.55341562500000000000e+04) (61, 7.55265390625000000000e+04) (62, -5.24626791477203369141e-01) (63, 7.55334843750000000000e+04) (64, 2.62218624353408813477e-01) (65, 5.24624570312500000000e+04) (66, 7.55329765625000000000e+04) (67, 7.55346171875000000000e+04) (68, 7.55346875000000000000e+04) (69, 7.55326484375000000000e+04) (70, 7.55328984375000000000e+04) (71, 7.55332421875000000000e+04) (72, 7.54977109375000000000e+04) (73, 7.55332265625000000000e+04) (74, 7.55304296875000000000e+04) (75, 4.14617657661437988281e-01) (76, -4.23182398080825805664e-01) (77, 7.55332343750000000000e+04) (78, -1.12926936149597167969e+00) (79, 5.33732771873474121094e-01) (80, 1.16441398859024047852e-02) (81, 7.55339218750000000000e+04) (82, 7.55339062500000000000e+04) (83, 7.55331796875000000000e+04) (84, 7.55224609375000000000e+04) (85, 7.55346250000000000000e+04) (86, 7.55340078125000000000e+04) (87, 7.55321328125000000000e+04) (88, 7.55335781250000000000e+04) (30, 8.46101045608520507812e-02) (31, 7.57772734375000000000e+04) (32, 3.40828418731689453125e-01) (33, 7.57640390625000000000e+04) (34, 7.57787578125000000000e+04) (35, -8.04718613624572753906e-01) (36, 7.57790625000000000000e+04) (37, 2.28027105331420898438e-01) (38, 7.57777109375000000000e+04) (39, -5.88946104049682617188e-01) (40, 7.57777187500000000000e+04) (41, 7.57775781250000000000e+04) (42, 7.57776562500000000000e+04) (43, 7.57785781250000000000e+04) (44, 7.57769687500000000000e+04) (45, 7.57782812500000000000e+04) (46, 7.57777812500000000000e+04) (47, 7.57788046875000000000e+04) (48, 7.57788671875000000000e+04) (49, 7.57775781250000000000e+04) (50, 6.86815202236175537109e-01) (51, 7.57782031250000000000e+04) (52, 7.57786093750000000000e+04) (53, 7.57774296875000000000e+04) (54, 7.57774375000000000000e+04) (55, 6.43326938152313232422e-01) (56, 7.57786875000000000000e+04) (57, 7.57788515625000000000e+04) (58, 5.28475582599639892578e-01) (59, -5.33568859100341796875e-03) (60, 7.57786953125000000000e+04) (61, 7.57668593750000000000e+04) (62, -9.65399980545043945312e-01) (63, 7.57771171875000000000e+04) (64, 1.24412225559353828430e-02) (65, 5.25687968750000000000e+04) (66, 7.57781796875000000000e+04) (67, 7.57773359375000000000e+04) (68, 7.57780781250000000000e+04) (69, 7.57773671875000000000e+04) (70, 7.57787109375000000000e+04) (71, 7.57774687500000000000e+04) (72, 7.57361406250000000000e+04) (73, 7.57784296875000000000e+04) (74, 7.57741328125000000000e+04) (75, 3.43069672584533691406e-01) (76, -8.10305774211883544922e-01) (77, 7.57790625000000000000e+04) (78, -7.64983236789703369141e-01) (79, -2.97925740480422973633e-01) (80, -5.40502429008483886719e-01) (81, 7.57789453125000000000e+04) (82, 7.57771484375000000000e+04) (83, 7.57775234375000000000e+04) (84, 7.57622578125000000000e+04) (85, 7.57772421875000000000e+04) (86, 7.57775781250000000000e+04) (87, 7.57757031250000000000e+04) (88, 7.57772968750000000000e+04) (30, -4.40676450729370117188e-01) (31, 7.53839218750000000000e+04) (32, 3.93372356891632080078e-01) (33, 7.53753750000000000000e+04) (34, 7.53841015625000000000e+04) (35, 6.35927796363830566406e-01) (36, 7.53830156250000000000e+04) (37, 3.14470291137695312500e-01) (38, 7.53835312500000000000e+04) (39, -8.71990501880645751953e-01) (40, 7.53841875000000000000e+04) (41, 7.53839921875000000000e+04) (42, 7.53831250000000000000e+04) (43, 7.53825703125000000000e+04) (44, 7.53828203125000000000e+04) (45, 7.53825078125000000000e+04) (46, 7.53824765625000000000e+04) (47, 7.53835000000000000000e+04) (48, 7.53828125000000000000e+04) (49, 7.53837578125000000000e+04) (50, -9.05373990535736083984e-02) (51, 7.53831171875000000000e+04) (52, 7.53823437500000000000e+04) (53, 7.53835625000000000000e+04) (54, 7.53830156250000000000e+04) (55, -8.21878790855407714844e-01) (56, 7.53829296875000000000e+04) (57, 7.53831484375000000000e+04) (58, 2.29552775621414184570e-01) (59, 5.55891990661621093750e-01) (60, 7.53826171875000000000e+04) (61, 7.53776718750000000000e+04) (62, -5.45657515525817871094e-01) (63, 7.53831562500000000000e+04) (64, -7.23322689533233642578e-01) (65, 5.24219726562500000000e+04) (66, 7.53839531250000000000e+04) (67, 7.53828046875000000000e+04) (68, 7.53828437500000000000e+04) (69, 7.53834375000000000000e+04) (70, 7.53824375000000000000e+04) (71, 7.53829062500000000000e+04) (72, 7.53510312500000000000e+04) (73, 7.53835781250000000000e+04) (74, 7.53813828125000000000e+04) (75, -4.19354021549224853516e-01) (76, -5.71450516581535339355e-02) (77, 7.53822656250000000000e+04) (78, -1.15463292598724365234e+00) (79, 6.43721461296081542969e-01) (80, -2.38395109772682189941e-01) (81, 7.53831484375000000000e+04) (82, 7.53833984375000000000e+04) (83, 7.53827578125000000000e+04) (84, 7.53742031250000000000e+04) (85, 7.53834687500000000000e+04) (86, 7.53837500000000000000e+04) (87, 7.53822968750000000000e+04) (88, 7.53831796875000000000e+04) (30, -5.23165404796600341797e-01) (31, 7.57897109375000000000e+04) (32, -6.56704366207122802734e-01) (33, 7.57749375000000000000e+04) (34, 7.57903828125000000000e+04) (35, 3.91545832157135009766e-01) (36, 7.57895312500000000000e+04) (37, -2.30751693248748779297e-01) (38, 7.57901093750000000000e+04) (39, -7.55409479141235351562e-01) (40, 7.57900156250000000000e+04) (41, 7.57896562500000000000e+04) (42, 7.57901406250000000000e+04) (43, 7.57887812500000000000e+04) (44, 7.57886796875000000000e+04) (45, 7.57887500000000000000e+04) (46, 7.57898593750000000000e+04) (47, 7.57898593750000000000e+04) (48, 7.57894218750000000000e+04) (49, 7.57889609375000000000e+04) (50, -6.28349244594573974609e-01) (51, 7.57890937500000000000e+04) (52, 7.57895781250000000000e+04) (53, 7.57894296875000000000e+04) (54, 7.57900468750000000000e+04) (55, -1.57808363437652587891e-01) (56, 7.57897890625000000000e+04) (57, 7.57900703125000000000e+04) (58, -8.56386005878448486328e-01) (59, -4.63877081871032714844e-01) (60, 7.57894531250000000000e+04) (61, 7.57788437500000000000e+04) (62, -3.64942729473114013672e-01) (63, 7.57894062500000000000e+04) (64, 4.33710843324661254883e-01) (65, 5.25797890625000000000e+04) (66, 7.57886328125000000000e+04) (67, 7.57893125000000000000e+04) (68, 7.57895390625000000000e+04) (69, 7.57880468750000000000e+04) (70, 7.57905546875000000000e+04) (71, 7.57887265625000000000e+04) (72, 7.57461953125000000000e+04) (73, 7.57890312500000000000e+04) (74, 7.57853437500000000000e+04) (75, -2.57615298032760620117e-01) (76, -7.26046085357666015625e-01) (77, 7.57896015625000000000e+04) (78, 9.87930446863174438477e-02) (79, 9.00028645992279052734e-01) (80, 4.32564109563827514648e-01) (81, 7.57898437500000000000e+04) (82, 7.57905078125000000000e+04) (83, 7.57898203125000000000e+04) (84, 7.57749453125000000000e+04) (85, 7.57899609375000000000e+04) (86, 7.57896953125000000000e+04) (87, 7.57858125000000000000e+04) (88, 7.57891953125000000000e+04) (30, -6.11518979072570800781e-01) (31, 7.57948359375000000000e+04) (32, -6.02063655853271484375e-01) (33, 7.57796093750000000000e+04) (34, 7.57932890625000000000e+04) (35, 2.73290872573852539062e-01) (36, 7.57944531250000000000e+04) (37, 2.96981930732727050781e-01) (38, 7.57936250000000000000e+04) (39, -9.88938748836517333984e-01) (40, 7.57929375000000000000e+04) (41, 7.57933203125000000000e+04) (42, 7.57932265625000000000e+04) (43, 7.57943046875000000000e+04) (44, 7.57926718750000000000e+04) (45, 7.57943671875000000000e+04) (46, 7.57940703125000000000e+04) (47, 7.57931093750000000000e+04) (48, 7.57936328125000000000e+04) (49, 7.57938515625000000000e+04) (50, -6.94113314151763916016e-01) (51, 7.57945078125000000000e+04) (52, 7.57941562500000000000e+04) (53, 7.57942890625000000000e+04) (54, 7.57931015625000000000e+04) (55, -8.83204281330108642578e-01) (56, 7.57942265625000000000e+04) (57, 7.57928828125000000000e+04) (58, -5.07048547267913818359e-01) (59, 3.77894639968872070312e-01) (60, 7.57925312500000000000e+04) (61, 7.57818203125000000000e+04) (62, -5.21633803844451904297e-01) (63, 7.57943437500000000000e+04) (64, -4.38329041004180908203e-01) (65, 5.25522968750000000000e+04) (66, 7.57924921875000000000e+04) (67, 7.57945937500000000000e+04) (68, 7.57947421875000000000e+04) (69, 7.57929687500000000000e+04) (70, 7.57940703125000000000e+04) (71, 7.57939609375000000000e+04) (72, 7.57505468750000000000e+04) (73, 7.57945468750000000000e+04) (74, 7.57891328125000000000e+04) (75, 3.75084161758422851562e-01) (76, 1.28405845165252685547e+00) (77, 7.57934375000000000000e+04) (78, 4.41677570343017578125e-01) (79, -5.30188322067260742188e-01) (80, -4.16612446308135986328e-01) (81, 7.57929921875000000000e+04) (82, 7.57936484375000000000e+04) (83, 7.57938203125000000000e+04) (84, 7.57778281250000000000e+04) (85, 7.57935234375000000000e+04) (86, 7.57936250000000000000e+04) (87, 7.57904218750000000000e+04) (88, 7.57939765625000000000e+04) (30, 3.96287918090820312500e-01) (31, -1.60710258483886718750e+01) (32, -8.05659711360931396484e-01) (33, -1.58991889953613281250e+01) (34, -1.78020000457763671875e+01) (35, 8.50122347474098205566e-02) (36, -1.73199005126953125000e+01) (37, 9.28463101387023925781e-01) (38, -1.74109420776367187500e+01) (39, 9.95774865150451660156e-01) (40, -1.73968238830566406250e+01) (41, -1.71976394653320312500e+01) (42, -1.57626743316650390625e+01) (43, -1.73308048248291015625e+01) (44, -1.61531085968017578125e+01) (45, -1.71592922210693359375e+01) (46, -1.57738876342773437500e+01) (47, -1.77409439086914062500e+01) (48, -1.67142467498779296875e+01) (49, -1.71298923492431640625e+01) (50, -8.83570551872253417969e-01) (51, -1.61146583557128906250e+01) (52, -1.64203128814697265625e+01) (53, -1.78741168975830078125e+01) (54, -1.75726375579833984375e+01) (55, 8.47637951374053955078e-01) (56, -1.65375576019287109375e+01) (57, -1.73286418914794921875e+01) (58, -5.01089453697204589844e-01) (59, 9.12578463554382324219e-01) (60, -1.70687904357910156250e+01) (61, -1.60287170410156250000e+01) (62, 6.30848050117492675781e-01) (63, -1.79870738983154296875e+01) (64, -1.02567172050476074219e+00) (65, -3.59600687026977539062e+00) (66, -1.58221416473388671875e+01) (67, -1.62239971160888671875e+01) (68, -1.79024219512939453125e+01) (69, -1.65581665039062500000e+01) (70, -1.65857372283935546875e+01) (71, -1.62492733001708984375e+01) (72, -1.58753776550292968750e+01) (73, -1.63843288421630859375e+01) (74, -1.57526378631591796875e+01) (75, 2.64057397842407226562e-01) (76, 2.33654361218214035034e-02) (77, -1.74531288146972656250e+01) (78, -6.36473521590232849121e-02) (79, 6.22086346149444580078e-01) (80, -6.56606256961822509766e-01) (81, -1.75207633972167968750e+01) (82, -1.67759704589843750000e+01) (83, -1.73658180236816406250e+01) (84, -1.58484115600585937500e+01) (85, -1.67862148284912109375e+01) (86, -1.79153690338134765625e+01) (87, -1.70381240844726562500e+01) (88, -1.71759738922119140625e+01) (30, 6.92080020904541015625e-01) (31, 7.39579609375000000000e+04) (32, -6.53541982173919677734e-01) (33, 7.39578359375000000000e+04) (34, 7.39587890625000000000e+04) (35, -1.12113046646118164062e+00) (36, 7.39577812500000000000e+04) (37, -5.79528450965881347656e-01) (38, 7.39578203125000000000e+04) (39, 1.74923181533813476562e-01) (40, 7.39578359375000000000e+04) (41, 7.39588125000000000000e+04) (42, 7.39587031250000000000e+04) (43, 7.39589375000000000000e+04) (44, 7.39584765625000000000e+04) (45, 7.39584062500000000000e+04) (46, 7.39581093750000000000e+04) (47, 7.39588515625000000000e+04) (48, 7.39580156250000000000e+04) (49, 7.39584765625000000000e+04) (50, 1.66090786457061767578e-01) (51, 7.39582968750000000000e+04) (52, 7.39577734375000000000e+04) (53, 7.39584453125000000000e+04) (54, 7.39590156250000000000e+04) (55, 2.05053150653839111328e-01) (56, 7.39575703125000000000e+04) (57, 7.39573750000000000000e+04) (58, 5.42027294635772705078e-01) (59, 3.33109378814697265625e-01) (60, 7.39590781250000000000e+04) (61, 7.39586093750000000000e+04) (62, 8.34155559539794921875e-01) (63, 7.39584687500000000000e+04) (64, -3.68956416845321655273e-01) (65, 5.18132070312500000000e+04) (66, 7.39596015625000000000e+04) (67, 7.39575859375000000000e+04) (68, 7.39577578125000000000e+04) (69, 7.39585781250000000000e+04) (70, 7.39585703125000000000e+04) (71, 7.39582343750000000000e+04) (72, 7.39496093750000000000e+04) (73, 7.39584921875000000000e+04) (74, 7.39585390625000000000e+04) (75, -9.71055507659912109375e-01) (76, -8.66321980953216552734e-01) (77, 7.39574687500000000000e+04) (78, -1.51130795478820800781e-01) (79, -2.68525183200836181641e-01) (80, 1.62688672542572021484e-01) (81, 7.39589843750000000000e+04) (82, 7.39576328125000000000e+04) (83, 7.39592890625000000000e+04) (84, 7.39582734375000000000e+04) (85, 7.39578828125000000000e+04) (86, 7.39581640625000000000e+04) (87, 7.39579531250000000000e+04) (88, 7.39578125000000000000e+04) (89, 8.66559143066406250000e+02) (90, -5.94951093196868896484e-01) (91, 8.67451660156250000000e+02) (92, 8.66032958984375000000e+02) (93, 8.67925415039062500000e+02) (94, 8.62096923828125000000e+02) (95, 8.64948120117187500000e+02) (96, 8.57252258300781250000e+02) (97, 8.64340332031250000000e+02) (98, 8.68198730468750000000e+02) (99, -6.73924148082733154297e-01) (100, 8.38210510253906250000e+02) (101, 8.67833618164062500000e+02) (89, 9.69663634896278381348e-02) (90, -5.45139968395233154297e-01) (91, 2.72459566593170166016e-01) (92, 2.31088832020759582520e-01) (93, 1.02720236778259277344e+00) (94, -8.38128149509429931641e-01) (95, 1.03943514823913574219e+00) (96, -3.35100197792053222656e+00) (97, 7.96624958515167236328e-01) (98, -3.38158041238784790039e-01) (99, 3.74681442975997924805e-01) (100, -6.53712749481201171875e-02) (101, 1.12903523445129394531e+00) (89, 2.88258016109466552734e-01) (90, 8.29899311065673828125e-01) (91, 1.00257766246795654297e+00) (92, -3.13967287540435791016e-01) (93, 1.05776059627532958984e+00) (94, -1.00584530830383300781e+00) (95, -3.51219892501831054688e-01) (96, -1.91400754451751708984e+00) (97, 1.40720260143280029297e+00) (98, -7.07026347517967224121e-02) (99, 9.71165299415588378906e-01) (100, -1.41948476433753967285e-01) (101, 4.19969893991947174072e-02) (89, -6.08090013265609741211e-02) (90, 4.94997687637805938721e-02) (91, 1.02149248123168945312e+00) (92, 5.78504681587219238281e-01) (93, 4.48181837797164916992e-01) (94, -1.32765519618988037109e+00) (95, -3.33842068910598754883e-01) (96, -3.03369188308715820312e+00) (97, 1.35255202651023864746e-01) (98, 2.63316184282302856445e-01) (99, -2.61922717094421386719e-01) (100, 7.35144466161727905273e-02) (101, -5.17319440841674804688e-01) (89, -2.73718212890625000000e+03) (90, -6.33663237094879150391e-01) (91, -2.73847851562500000000e+03) (92, -2.73826342773437500000e+03) (93, -2.73789697265625000000e+03) (94, -2.73244482421875000000e+03) (95, -2.73661499023437500000e+03) (96, -2.73142895507812500000e+03) (97, -2.73770825195312500000e+03) (98, -2.73752246093750000000e+03) (99, 3.53959798812866210938e-01) (100, -2.70748754882812500000e+03) (101, -2.73883349609375000000e+03) (89, -2.66000781250000000000e+03) (90, 5.32101452350616455078e-01) (91, -2.66110620117187500000e+03) (92, -2.66001708984375000000e+03) (93, -2.65904589843750000000e+03) (94, -2.65671850585937500000e+03) (95, -2.66080175781250000000e+03) (96, -2.65358447265625000000e+03) (97, -2.66028149414062500000e+03) (98, -2.65940502929687500000e+03) (99, 5.33748753368854522705e-02) (100, -2.62983007812500000000e+03) (101, -2.66168798828125000000e+03) 
