FANN_FLO_2.1
num_layers=4
learning_rate=0.700000
connection_rate=1.000000
network_type=0
learning_momentum=0.000000
training_algorithm=2
train_error_function=1
train_stop_function=0
cascade_output_change_fraction=0.010000
quickprop_decay=-0.000100
quickprop_mu=1.750000
rprop_increase_factor=1.200000
rprop_decrease_factor=0.500000
rprop_delta_min=0.000000
rprop_delta_max=50.000000
rprop_delta_zero=0.100000
cascade_output_stagnation_epochs=12
cascade_candidate_change_fraction=0.010000
cascade_candidate_stagnation_epochs=12
cascade_max_out_epochs=150
cascade_min_out_epochs=50
cascade_max_cand_epochs=150
cascade_min_cand_epochs=50
cascade_num_candidate_groups=2
bit_fail_limit=3.49999994039535522461e-01
cascade_candidate_limit=1.00000000000000000000e+03
cascade_weight_multiplier=4.00000005960464477539e-01
cascade_activation_functions_count=10
cascade_activation_functions=3 5 7 8 10 11 14 15 16 17 
cascade_activation_steepnesses_count=4
cascade_activation_steepnesses=2.50000000000000000000e-01 5.00000000000000000000e-01 7.50000000000000000000e-01 1.00000000000000000000e+00 
layer_sizes=3 5 3 2 
scale_included=0
neurons (num_inputs, activation_function, activation_steepness)=(0, 0, 0.00000000000000000000e+00) (0, 0, 0.00000000000000000000e+00) (0, 0, 0.00000000000000000000e+00) (3, 4, 5.00000000000000000000e-01) (3, 4, 5.00000000000000000000e-01) (3, 4, 5.00000000000000000000e-01) (3, 4, 5.00000000000000000000e-01) (0, 0, 0.00000000000000000000e+00) (5, 4, 5.00000000000000000000e-01) (5, 4, 5.00000000000000000000e-01) (0, 0, 0.00000000000000000000e+00) (3, 4, 5.00000000000000000000e-01) (0, 0, 0.00000000000000000000e+00) 
connections (connected_to_neuron, weight)=(0, -7.48007476329803466797e-01) (1, -2.78985291719436645508e-01) (2, 2.66197085380554199219e-01) (0, -5.97150325775146484375e-01) (1, 2.52822756767272949219e-01) (2, 1.02215588092803955078e-01) (0, 4.06657576560974121094e-01) (1, 1.89795732498168945312e-01) (2, -6.47195041179656982422e-01) (0, 6.63248896598815917969e-01) (1, -2.37329483032226562500e-01) (2, 6.70296549797058105469e-01) (3, 6.30510210990905761719e-01) (4, 1.00403904914855957031e-01) (5, 1.44038140773773193359e-01) (6, 7.59083628654479980469e-02) (7, -2.36545562744140625000e-01) (3, 9.13527607917785644531e-02) (4, -4.16971355676651000977e-01) (5, -5.09048461914062500000e-01) (6, 4.27287817001342773438e-01) (7, 7.13981270790100097656e-01) (8, 5.11857986450195312500e-01) (9, 7.34990835189819335938e-01) (10, -1.87400698661804199219e-01) 