FANN_FLO_2.1
num_layers=4
learning_rate=0.700000
connection_rate=1.000000
network_type=0
learning_momentum=0.000000
training_algorithm=2
train_error_function=1
train_stop_function=0
cascade_output_change_fraction=0.010000
quickprop_decay=-0.000100
quickprop_mu=1.750000
rprop_increase_factor=1.200000
rprop_decrease_factor=0.500000
rprop_delta_min=0.000000
rprop_delta_max=50.000000
rprop_delta_zero=0.100000
cascade_output_stagnation_epochs=12
cascade_candidate_change_fraction=0.010000
cascade_candidate_stagnation_epochs=12
cascade_max_out_epochs=150
cascade_min_out_epochs=50
cascade_max_cand_epochs=150
cascade_min_cand_epochs=50
cascade_num_candidate_groups=2
bit_fail_limit=3.49999994039535522461e-01
cascade_candidate_limit=1.00000000000000000000e+03
cascade_weight_multiplier=4.00000005960464477539e-01
cascade_activation_functions_count=10
cascade_activation_functions=3 5 7 8 10 11 14 15 16 17 
cascade_activation_steepnesses_count=4
cascade_activation_steepnesses=2.50000000000000000000e-01 5.00000000000000000000e-01 7.50000000000000000000e-01 1.00000000000000000000e+00 
layer_sizes=30 59 5 3 
scale_included=0
neurons (num_inputs, activation_function, activation_steepness)=(0, 0, 0.00000000000000000000e+00) (0, 0, 0.00000000000000000000e+00) (0, 0, 0.00000000000000000000e+00) (0, 0, 0.00000000000000000000e+00) (0, 0, 0.00000000000000000000e+00) (0, 0, 0.00000000000000000000e+00) (0, 0, 0.00000000000000000000e+00) (0, 0, 0.00000000000000000000e+00) (0, 0, 0.00000000000000000000e+00) (0, 0, 0.00000000000000000000e+00) (0, 0, 0.00000000000000000000e+00) (0, 0, 0.00000000000000000000e+00) (0, 0, 0.00000000000000000000e+00) (0, 0, 0.00000000000000000000e+00) (0, 0, 0.00000000000000000000e+00) (0, 0, 0.00000000000000000000e+00) (0, 0, 0.00000000000000000000e+00) (0, 0, 0.00000000000000000000e+00) (0, 0, 0.00000000000000000000e+00) (0, 0, 0.00000000000000000000e+00) (0, 0, 0.00000000000000000000e+00) (0, 0, 0.00000000000000000000e+00) (0, 0, 0.00000000000000000000e+00) (0, 0, 0.00000000000000000000e+00) (0, 0, 0.00000000000000000000e+00) (0, 0, 0.00000000000000000000e+00) (0, 0, 0.00000000000000000000e+00) (0, 0, 0.00000000000000000000e+00) (0, 0, 0.00000000000000000000e+00) (0, 0, 0.00000000000000000000e+00) (30, 4, 5.00000000000000000000e-01) (30, 4, 5.00000000000000000000e-01) (30, 4, 5.00000000000000000000e-01) (30, 4, 5.00000000000000000000e-01) (30, 4, 5.00000000000000000000e-01) (30, 4, 5.00000000000000000000e-01) (30, 4, 5.00000000000000000000e-01) (30, 4, 5.00000000000000000000e-01) (30, 4, 5.00000000000000000000e-01) (30, 4, 5.00000000000000000000e-01) (30, 4, 5.00000000000000000000e-01) (30, 4, 5.00000000000000000000e-01) (30, 4, 5.00000000000000000000e-01) (30, 4, 5.00000000000000000000e-01) (30, 4, 5.00000000000000000000e-01) (30, 4, 5.00000000000000000000e-01) (30, 4, 5.00000000000000000000e-01) (30, 4, 5.00000000000000000000e-01) (30, 4, 5.00000000000000000000e-01) (30, 4, 5.00000000000000000000e-01) (30, 4, 5.00000000000000000000e-01) (30, 4, 5.00000000000000000000e-01) (30, 4, 5.00000000000000000000e-01) (30, 4, 5.00000000000000000000e-01) (30, 4, 5.00000000000000000000e-01) (30, 4, 5.00000000000000000000e-01) (30, 4, 5.00000000000000000000e-01) (30, 4, 5.00000000000000000000e-01) (30, 4, 5.00000000000000000000e-01) (30, 4, 5.00000000000000000000e-01) (30, 4, 5.00000000000000000000e-01) (30, 4, 5.00000000000000000000e-01) (30, 4, 5.00000000000000000000e-01) (30, 4, 5.00000000000000000000e-01) (30, 4, 5.00000000000000000000e-01) (30, 4, 5.00000000000000000000e-01) (30, 4, 5.00000000000000000000e-01) (30, 4, 5.00000000000000000000e-01) (30, 4, 5.00000000000000000000e-01) (30, 4, 5.00000000000000000000e-01) (30, 4, 5.00000000000000000000e-01) (30, 4, 5.00000000000000000000e-01) (30, 4, 5.00000000000000000000e-01) (30, 4, 5.00000000000000000000e-01) (30, 4, 5.00000000000000000000e-01) (30, 4, 5.00000000000000000000e-01) (30, 4, 5.00000000000000000000e-01) (30, 4, 5.00000000000000000000e-01) (30, 4, 5.00000000000000000000e-01) (30, 4, 5.00000000000000000000e-01) (30, 4, 5.00000000000000000000e-01) (30, 4, 5.00000000000000000000e-01) (30, 4, 5.00000000000000000000e-01) (30, 4, 5.00000000000000000000e-01) (30, 4, 5.00000000000000000000e-01) (30, 4, 5.00000000000000000000e-01) (30, 4, 5.00000000000000000000e-01) (30, 4, 5.00000000000000000000e-01) (0, 0, 0.00000000000000000000e+00) (59, 4, 5.00000000000000000000e-01) (59, 4, 5.00000000000000000000e-01) (59, 4, 5.00000000000000000000e-01) (59, 4, 5.00000000000000000000e-01) (0, 0, 0.00000000000000000000e+00) (5, 4, 5.00000000000000000000e-01) (5, 4, 5.00000000000000000000e-01) (0, 0, 0.00000000000000000000e+00) 
connections (connected_to_neuron, weight)=(0, -1.17654350280761718750e+02) (1, -1.17642471313476562500e+02) (2, -6.70424804687500000000e+02) (3, -6.69696472167968750000e+02) (4, -5.52142456054687500000e+02) (5, -5.74864501953125000000e+02) (6, -6.85235351562500000000e+02) (7, 3.99759460449218750000e+02) (8, -5.18946166992187500000e+02) (9, -1.51798355102539062500e+02) (10, -1.68879821777343750000e+02) (11, 2.27815826416015625000e+02) (12, -4.30010406494140625000e+02) (13, 7.50299682617187500000e+02) (14, -3.96725524902343750000e+02) (15, -2.27907440185546875000e+02) (16, -4.24786132812500000000e+02) (17, -2.95581481933593750000e+02) (18, -3.59785888671875000000e+02) (19, -6.99059814453125000000e+02) (20, -5.15672729492187500000e+02) (21, -5.16890930175781250000e+02) (22, -6.98776000976562500000e+02) (23, 8.21850585937500000000e+02) (24, -1.51032455444335937500e+02) (25, 8.21249023437500000000e+02) (26, 1.84578582763671875000e+02) (27, 2.42314163208007812500e+02) (28, -6.96341247558593750000e+02) (29, -1.51101882934570312500e+02) (0, -1.16997047424316406250e+02) (1, -1.16539604187011718750e+02) (2, -6.71727966308593750000e+02) (3, -6.71955688476562500000e+02) (4, -5.51744812011718750000e+02) (5, -5.76570434570312500000e+02) (6, -6.88874145507812500000e+02) (7, 4.05588562011718750000e+02) (8, -5.19515502929687500000e+02) (9, -1.51153930664062500000e+02) (10, -1.69779022216796875000e+02) (11, 2.29003265380859375000e+02) (12, -4.30902130126953125000e+02) (13, 7.50304565429687500000e+02) (14, -3.96351989746093750000e+02) (15, -2.27718307495117187500e+02) (16, -4.25425079345703125000e+02) (17, -2.94833374023437500000e+02) (18, -3.57955566406250000000e+02) (19, -7.02441406250000000000e+02) (20, -5.17204895019531250000e+02) (21, -5.18553588867187500000e+02) (22, -7.03006225585937500000e+02) (23, 8.20757995605468750000e+02) (24, -1.51474685668945312500e+02) (25, 8.21238098144531250000e+02) (26, 1.86204116821289062500e+02) (27, 2.45541473388671875000e+02) (28, -6.98980407714843750000e+02) (29, -1.50671493530273437500e+02) (0, -1.17575683593750000000e+02) (1, -1.18846290588378906250e+02) (2, -6.71874389648437500000e+02) (3, -6.71541259765625000000e+02) (4, -5.53289306640625000000e+02) (5, -5.77031921386718750000e+02) (6, -6.88442199707031250000e+02) (7, 4.02801849365234375000e+02) (8, -5.19554809570312500000e+02) (9, -1.52166030883789062500e+02) (10, -1.69826400756835937500e+02) (11, 2.32017913818359375000e+02) (12, -4.30062957763671875000e+02) (13, 7.49611206054687500000e+02) (14, -3.98045227050781250000e+02) (15, -2.28302871704101562500e+02) (16, -4.26097412109375000000e+02) (17, -2.95465209960937500000e+02) (18, -3.60716491699218750000e+02) (19, -7.02705200195312500000e+02) (20, -5.17985290527343750000e+02) (21, -5.17167114257812500000e+02) (22, -7.05138793945312500000e+02) (23, 8.21072509765625000000e+02) (24, -1.51143173217773437500e+02) (25, 8.21480651855468750000e+02) (26, 1.84589096069335937500e+02) (27, 2.43936737060546875000e+02) (28, -6.99928466796875000000e+02) (29, -1.51578536987304687500e+02) (0, 1.15135620117187500000e+02) (1, 1.15866233825683593750e+02) (2, 6.74932189941406250000e+02) (3, 6.75101257324218750000e+02) (4, 5.50706542968750000000e+02) (5, 5.74247070312500000000e+02) (6, 6.89643066406250000000e+02) (7, -4.05324584960937500000e+02) (8, 5.17708435058593750000e+02) (9, 1.50399459838867187500e+02) (10, 1.69073333740234375000e+02) (11, -2.27333038330078125000e+02) (12, 4.28760406494140625000e+02) (13, 8.14621215820312500000e+02) (14, 3.95234252929687500000e+02) (15, 2.25965209960937500000e+02) (16, 4.23036010742187500000e+02) (17, 2.93898284912109375000e+02) (18, 3.59907348632812500000e+02) (19, 7.04721740722656250000e+02) (20, 5.16089721679687500000e+02) (21, 5.15865783691406250000e+02) (22, 7.06887207031250000000e+02) (23, 8.20720092773437500000e+02) (24, 1.50629760742187500000e+02) (25, 8.21275024414062500000e+02) (26, -1.89553665161132812500e+02) (27, -2.46880859375000000000e+02) (28, 7.02624877929687500000e+02) (29, 1.50285140991210937500e+02) (0, 1.11353309631347656250e+02) (1, 1.11605285644531250000e+02) (2, 6.59369750976562500000e+02) (3, 6.59343566894531250000e+02) (4, 5.40817687988281250000e+02) (5, 5.65713928222656250000e+02) (6, 6.76216003417968750000e+02) (7, -4.01637512207031250000e+02) (8, 5.08334960937500000000e+02) (9, 1.46591293334960937500e+02) (10, 1.65541870117187500000e+02) (11, -2.23933929443359375000e+02) (12, 4.22217681884765625000e+02) (13, 8.14076538085937500000e+02) (14, 3.90611083984375000000e+02) (15, 2.21161193847656250000e+02) (16, 4.17739746093750000000e+02) (17, 2.89210937500000000000e+02) (18, 3.53629486083984375000e+02) (19, 6.93721923828125000000e+02) (20, 5.06009552001953125000e+02) (21, 5.06103637695312500000e+02) (22, 6.94959472656250000000e+02) (23, 8.21022521972656250000e+02) (24, 1.45974304199218750000e+02) (25, 8.21640808105468750000e+02) (26, -1.90346023559570312500e+02) (27, -2.47429153442382812500e+02) (28, 6.90937561035156250000e+02) (29, 1.47014831542968750000e+02) (0, 1.08395591735839843750e+02) (1, 1.09989952087402343750e+02) (2, 6.61995239257812500000e+02) (3, 6.61321655273437500000e+02) (4, 5.42914916992187500000e+02) (5, 5.67267944335937500000e+02) (6, 6.82397277832031250000e+02) (7, -4.14650695800781250000e+02) (8, 5.10496246337890625000e+02) (9, 1.43077407836914062500e+02) (10, 1.64614410400390625000e+02) (11, -2.26864746093750000000e+02) (12, 4.21714294433593750000e+02) (13, 8.13648925781250000000e+02) (14, 3.89304687500000000000e+02) (15, 2.19783889770507812500e+02) (16, 4.16891448974609375000e+02) (17, 2.87154022216796875000e+02) (18, 3.50588470458984375000e+02) (19, 6.98101562500000000000e+02) (20, 5.08266296386718750000e+02) (21, 5.07588958740234375000e+02) (22, 6.99797729492187500000e+02) (23, 8.21172912597656250000e+02) (24, 1.42308883666992187500e+02) (25, 8.21588806152343750000e+02) (26, -1.93263702392578125000e+02) (27, -2.51284057617187500000e+02) (28, 6.95869995117187500000e+02) (29, 1.43189559936523437500e+02) (0, -1.18832420349121093750e+02) (1, -1.18552497863769531250e+02) (2, -6.75665588378906250000e+02) (3, -6.73982360839843750000e+02) (4, -5.53743835449218750000e+02) (5, -5.77479064941406250000e+02) (6, -6.90860656738281250000e+02) (7, 4.04449737548828125000e+02) (8, -5.20371276855468750000e+02) (9, -1.52619995117187500000e+02) (10, -1.73115966796875000000e+02) (11, 2.30851318359375000000e+02) (12, -4.30684753417968750000e+02) (13, 7.50615966796875000000e+02) (14, -3.98318298339843750000e+02) (15, -2.28996520996093750000e+02) (16, -4.26639526367187500000e+02) (17, -2.96016296386718750000e+02) (18, -3.61854705810546875000e+02) (19, -7.05084472656250000000e+02) (20, -5.18033081054687500000e+02) (21, -5.17835571289062500000e+02) (22, -7.06096191406250000000e+02) (23, 8.21238281250000000000e+02) (24, -1.52933898925781250000e+02) (25, 8.21435668945312500000e+02) (26, 1.84428466796875000000e+02) (27, 2.42744308471679687500e+02) (28, -7.01630432128906250000e+02) (29, -1.52574661254882812500e+02) (0, 1.08911354064941406250e+02) (1, 1.09552169799804687500e+02) (2, 6.60785461425781250000e+02) (3, 6.60667480468750000000e+02) (4, 5.41496704101562500000e+02) (5, 5.66915588378906250000e+02) (6, 6.83328552246093750000e+02) (7, -4.15534301757812500000e+02) (8, 5.09685516357421875000e+02) (9, 1.43084335327148437500e+02) (10, 1.64528228759765625000e+02) (11, -2.26567291259765625000e+02) (12, 4.21914276123046875000e+02) (13, 8.13941467285156250000e+02) (14, 3.89074157714843750000e+02) (15, 2.19234680175781250000e+02) (16, 4.17481933593750000000e+02) (17, 2.86170745849609375000e+02) (18, 3.49577789306640625000e+02) (19, 6.98221069335937500000e+02) (20, 5.06634643554687500000e+02) (21, 5.08075042724609375000e+02) (22, 6.99414672851562500000e+02) (23, 8.21626831054687500000e+02) (24, 1.43135925292968750000e+02) (25, 8.20668884277343750000e+02) (26, -1.92023406982421875000e+02) (27, -2.51389602661132812500e+02) (28, 6.95523498535156250000e+02) (29, 1.42975280761718750000e+02) (0, -1.18299285888671875000e+02) (1, -1.17449661254882812500e+02) (2, -6.73388977050781250000e+02) (3, -6.73249816894531250000e+02) (4, -5.51990478515625000000e+02) (5, -5.76008178710937500000e+02) (6, -6.89585510253906250000e+02) (7, 4.01509124755859375000e+02) (8, -5.18526977539062500000e+02) (9, -1.52218902587890625000e+02) (10, -1.69254653930664062500e+02) (11, 2.28118927001953125000e+02) (12, -4.30299499511718750000e+02) (13, 7.50659118652343750000e+02) (14, -3.97645019531250000000e+02) (15, -2.28822143554687500000e+02) (16, -4.26008575439453125000e+02) (17, -2.95145416259765625000e+02) (18, -3.60387939453125000000e+02) (19, -7.05578796386718750000e+02) (20, -5.16519958496093750000e+02) (21, -5.16941650390625000000e+02) (22, -7.07292236328125000000e+02) (23, 8.20850219726562500000e+02) (24, -1.52145355224609375000e+02) (25, 8.20791198730468750000e+02) (26, 1.84732925415039062500e+02) (27, 2.43535446166992187500e+02) (28, -7.03332885742187500000e+02) (29, -1.52030639648437500000e+02) (0, 1.08781326293945312500e+02) (1, 1.09104293823242187500e+02) (2, 6.61734985351562500000e+02) (3, 6.60354309082031250000e+02) (4, 5.42996276855468750000e+02) (5, 5.66710327148437500000e+02) (6, 6.81670959472656250000e+02) (7, -4.10378082275390625000e+02) (8, 5.10925567626953125000e+02) (9, 1.42603713989257812500e+02) (10, 1.61444519042968750000e+02) (11, -2.27624664306640625000e+02) (12, 4.21330322265625000000e+02) (13, 8.13782470703125000000e+02) (14, 3.89195831298828125000e+02) (15, 2.19172119140625000000e+02) (16, 4.17595672607421875000e+02) (17, 2.87652038574218750000e+02) (18, 3.51190338134765625000e+02) (19, 6.94261291503906250000e+02) (20, 5.08556182861328125000e+02) (21, 5.08437774658203125000e+02) (22, 6.95264465332031250000e+02) (23, 8.20678222656250000000e+02) (24, 1.43443191528320312500e+02) (25, 8.20702453613281250000e+02) (26, -1.93065444946289062500e+02) (27, -2.51698989868164062500e+02) (28, 6.91065673828125000000e+02) (29, 1.42337692260742187500e+02) (0, 1.13906410217285156250e+02) (1, 1.14154174804687500000e+02) (2, 6.68766296386718750000e+02) (3, 6.67128784179687500000e+02) (4, 5.48974060058593750000e+02) (5, 5.73131958007812500000e+02) (6, 6.88887268066406250000e+02) (7, -4.07724822998046875000e+02) (8, 5.16963745117187500000e+02) (9, 1.48361450195312500000e+02) (10, 1.67926239013671875000e+02) (11, -2.27674041748046875000e+02) (12, 4.26738128662109375000e+02) (13, 8.14344299316406250000e+02) (14, 3.94211547851562500000e+02) (15, 2.23758041381835937500e+02) (16, 4.22521301269531250000e+02) (17, 2.92113250732421875000e+02) (18, 3.59701049804687500000e+02) (19, 7.05655090332031250000e+02) (20, 5.13863220214843750000e+02) (21, 5.14272216796875000000e+02) (22, 7.07777709960937500000e+02) (23, 8.21080566406250000000e+02) (24, 1.48111022949218750000e+02) (25, 8.22141540527343750000e+02) (26, -1.92077682495117187500e+02) (27, -2.49355072021484375000e+02) (28, 7.02203918457031250000e+02) (29, 1.48967880249023437500e+02) (0, -1.16959953308105468750e+02) (1, -1.17431083679199218750e+02) (2, -6.72653686523437500000e+02) (3, -6.72192260742187500000e+02) (4, -5.52488159179687500000e+02) (5, -5.75726745605468750000e+02) (6, -6.88068969726562500000e+02) (7, 4.02631896972656250000e+02) (8, -5.20601806640625000000e+02) (9, -1.51846130371093750000e+02) (10, -1.69541229248046875000e+02) (11, 2.30334960937500000000e+02) (12, -4.30939361572265625000e+02) (13, 7.51068664550781250000e+02) (14, -3.98042266845703125000e+02) (15, -2.27976745605468750000e+02) (16, -4.26842895507812500000e+02) (17, -2.96200469970703125000e+02) (18, -3.59436859130859375000e+02) (19, -7.02529296875000000000e+02) (20, -5.17567749023437500000e+02) (21, -5.18849548339843750000e+02) (22, -7.05100402832031250000e+02) (23, 8.20795654296875000000e+02) (24, -1.51999343872070312500e+02) (25, 8.21345703125000000000e+02) (26, 1.85281005859375000000e+02) (27, 2.44697525024414062500e+02) (28, -7.00213745117187500000e+02) (29, -1.52209960937500000000e+02) (0, 1.10435234069824218750e+02) (1, 1.09765029907226562500e+02) (2, 6.67236999511718750000e+02) (3, 6.65983947753906250000e+02) (4, 5.44844909667968750000e+02) (5, 5.69946044921875000000e+02) (6, 6.82538757324218750000e+02) (7, -4.05243072509765625000e+02) (8, 5.13024841308593750000e+02) (9, 1.46010238647460937500e+02) (10, 1.63477005004882812500e+02) (11, -2.23659912109375000000e+02) (12, 4.25073394775390625000e+02) (13, 8.13905822753906250000e+02) (14, 3.91223693847656250000e+02) (15, 2.22728195190429687500e+02) (16, 4.19156524658203125000e+02) (17, 2.89476623535156250000e+02) (18, 3.54540069580078125000e+02) (19, 6.98365112304687500000e+02) (20, 5.11236968994140625000e+02) (21, 5.11420715332031250000e+02) (22, 7.00166992187500000000e+02) (23, 8.21546203613281250000e+02) (24, 1.46256362915039062500e+02) (25, 8.20822631835937500000e+02) (26, -1.89713668823242187500e+02) (27, -2.50194763183593750000e+02) (28, 6.95509826660156250000e+02) (29, 1.47204940795898437500e+02) (0, 1.08227035522460937500e+02) (1, 1.08988059997558593750e+02) (2, 6.62372741699218750000e+02) (3, 6.61715393066406250000e+02) (4, 5.43665527343750000000e+02) (5, 5.68099914550781250000e+02) (6, 6.84135620117187500000e+02) (7, -4.11775634765625000000e+02) (8, 5.11413635253906250000e+02) (9, 1.43614196777343750000e+02) (10, 1.65275894165039062500e+02) (11, -2.27508148193359375000e+02) (12, 4.20713806152343750000e+02) (13, 8.13673217773437500000e+02) (14, 3.88503753662109375000e+02) (15, 2.18724441528320312500e+02) (16, 4.16455047607421875000e+02) (17, 2.86546783447265625000e+02) (18, 3.52286193847656250000e+02) (19, 7.00170104980468750000e+02) (20, 5.08152709960937500000e+02) (21, 5.08602233886718750000e+02) (22, 7.02606018066406250000e+02) (23, 8.21345458984375000000e+02) (24, 1.43693893432617187500e+02) (25, 8.21243408203125000000e+02) (26, -1.93044113159179687500e+02) (27, -2.51029373168945312500e+02) (28, 6.97065979003906250000e+02) (29, 1.43644027709960937500e+02) (0, -1.16285087585449218750e+02) (1, -1.16815780639648437500e+02) (2, -6.72504028320312500000e+02) (3, -6.70934753417968750000e+02) (4, -5.51618286132812500000e+02) (5, -5.74304443359375000000e+02) (6, -6.89396850585937500000e+02) (7, 4.05510742187500000000e+02) (8, -5.18748291015625000000e+02) (9, -1.52114654541015625000e+02) (10, -1.67841033935546875000e+02) (11, 2.26279632568359375000e+02) (12, -4.31172637939453125000e+02) (13, 7.51107849121093750000e+02) (14, -3.97819641113281250000e+02) (15, -2.27875335693359375000e+02) (16, -4.26582397460937500000e+02) (17, -2.96149444580078125000e+02) (18, -3.56205535888671875000e+02) (19, -7.01852478027343750000e+02) (20, -5.16525634765625000000e+02) (21, -5.17017761230468750000e+02) (22, -7.02913818359375000000e+02) (23, 8.21531555175781250000e+02) (24, -1.51934844970703125000e+02) (25, 8.21503479003906250000e+02) (26, 1.85289291381835937500e+02) (27, 2.45355697631835937500e+02) (28, -6.99204223632812500000e+02) (29, -1.51860015869140625000e+02) (0, 1.10273391723632812500e+02) (1, 1.10198898315429687500e+02) (2, 6.62074645996093750000e+02) (3, 6.61384094238281250000e+02) (4, 5.45165100097656250000e+02) (5, 5.70747375488281250000e+02) (6, 6.79247131347656250000e+02) (7, -4.06616516113281250000e+02) (8, 5.13370422363281250000e+02) (9, 1.47136749267578125000e+02) (10, 1.61887786865234375000e+02) (11, -2.21129730224609375000e+02) (12, 4.25420135498046875000e+02) (13, 8.14051574707031250000e+02) (14, 3.93107635498046875000e+02) (15, 2.22833053588867187500e+02) (16, 4.20693756103515625000e+02) (17, 2.90184570312500000000e+02) (18, 3.49851531982421875000e+02) (19, 6.93228454589843750000e+02) (20, 5.12090270996093750000e+02) (21, 5.11394042968750000000e+02) (22, 6.94460327148437500000e+02) (23, 8.21766113281250000000e+02) (24, 1.47520843505859375000e+02) (25, 8.21319396972656250000e+02) (26, -1.89838485717773437500e+02) (27, -2.51019912719726562500e+02) (28, 6.89474609375000000000e+02) (29, 1.47858932495117187500e+02) (0, 1.08572486877441406250e+02) (1, 1.09298789978027343750e+02) (2, 6.61753479003906250000e+02) (3, 6.61369445800781250000e+02) (4, 5.42602539062500000000e+02) (5, 5.67565551757812500000e+02) (6, 6.82384582519531250000e+02) (7, -4.15559631347656250000e+02) (8, 5.11227020263671875000e+02) (9, 1.42545852661132812500e+02) (10, 1.65374496459960937500e+02) (11, -2.27323974609375000000e+02) (12, 4.21992065429687500000e+02) (13, 8.14499694824218750000e+02) (14, 3.89558868408203125000e+02) (15, 2.19618637084960937500e+02) (16, 4.16437408447265625000e+02) (17, 2.86228363037109375000e+02) (18, 3.49720397949218750000e+02) (19, 6.97435302734375000000e+02) (20, 5.07406921386718750000e+02) (21, 5.08286834716796875000e+02) (22, 6.98437438964843750000e+02) (23, 8.21127319335937500000e+02) (24, 1.42151290893554687500e+02) (25, 8.21914306640625000000e+02) (26, -1.92416778564453125000e+02) (27, -2.51466156005859375000e+02) (28, 6.95291931152343750000e+02) (29, 1.41966156005859375000e+02) (0, -1.16478164672851562500e+02) (1, -1.16432830810546875000e+02) (2, -6.74737854003906250000e+02) (3, -6.74345275878906250000e+02) (4, -5.51667785644531250000e+02) (5, -5.75361267089843750000e+02) (6, -6.90961975097656250000e+02) (7, 4.05582092285156250000e+02) (8, -5.19740844726562500000e+02) (9, -1.52161758422851562500e+02) (10, -1.69909118652343750000e+02) (11, 2.31624053955078125000e+02) (12, -4.30145935058593750000e+02) (13, 7.50648315429687500000e+02) (14, -3.97929412841796875000e+02) (15, -2.28946075439453125000e+02) (16, -4.26417877197265625000e+02) (17, -2.96487243652343750000e+02) (18, -3.59500488281250000000e+02) (19, -7.03748657226562500000e+02) (20, -5.16945434570312500000e+02) (21, -5.16241882324218750000e+02) (22, -7.05115722656250000000e+02) (23, 8.21634399414062500000e+02) (24, -1.52311386108398437500e+02) (25, 8.20941284179687500000e+02) (26, 1.85894195556640625000e+02) (27, 2.45071075439453125000e+02) (28, -7.01082946777343750000e+02) (29, -1.51868667602539062500e+02) (0, 1.08522468566894531250e+02) (1, 1.09750267028808593750e+02) (2, 6.64380187988281250000e+02) (3, 6.63525390625000000000e+02) (4, 5.44020385742187500000e+02) (5, 5.67458068847656250000e+02) (6, 6.83355468750000000000e+02) (7, -4.13238769531250000000e+02) (8, 5.11577056884765625000e+02) (9, 1.43020309448242187500e+02) (10, 1.65459320068359375000e+02) (11, -2.27671295166015625000e+02) (12, 4.21107818603515625000e+02) (13, 8.13840393066406250000e+02) (14, 3.87729949951171875000e+02) (15, 2.19593551635742187500e+02) (16, 4.16179718017578125000e+02) (17, 2.87475402832031250000e+02) (18, 3.49764373779296875000e+02) (19, 6.98186950683593750000e+02) (20, 5.07303802490234375000e+02) (21, 5.08263977050781250000e+02) (22, 6.98942199707031250000e+02) (23, 8.21068298339843750000e+02) (24, 1.42571807861328125000e+02) (25, 8.21992370605468750000e+02) (26, -1.92524093627929687500e+02) (27, -2.52099624633789062500e+02) (28, 6.95985046386718750000e+02) (29, 1.43290603637695312500e+02) (0, -1.19380340576171875000e+02) (1, -1.19202072143554687500e+02) (2, -6.72874267578125000000e+02) (3, -6.72774658203125000000e+02) (4, -5.52899780273437500000e+02) (5, -5.75731079101562500000e+02) (6, -6.87214477539062500000e+02) (7, 4.03225128173828125000e+02) (8, -5.20098327636718750000e+02) (9, -1.52864624023437500000e+02) (10, -1.68471008300781250000e+02) (11, 2.27501525878906250000e+02) (12, -4.30764862060546875000e+02) (13, 7.50851013183593750000e+02) (14, -3.98958038330078125000e+02) (15, -2.28940567016601562500e+02) (16, -4.26148712158203125000e+02) (17, -2.97011627197265625000e+02) (18, -3.60000488281250000000e+02) (19, -7.02599731445312500000e+02) (20, -5.17726623535156250000e+02) (21, -5.17279052734375000000e+02) (22, -7.03377319335937500000e+02) (23, 8.22025512695312500000e+02) (24, -1.53166442871093750000e+02) (25, 8.20777893066406250000e+02) (26, 1.84802322387695312500e+02) (27, 2.44282150268554687500e+02) (28, -6.99560058593750000000e+02) (29, -1.53028503417968750000e+02) (0, 1.11265365600585937500e+02) (1, 1.10170776367187500000e+02) (2, 6.66096313476562500000e+02) (3, 6.65422241210937500000e+02) (4, 5.44685974121093750000e+02) (5, 5.68461608886718750000e+02) (6, 6.84367309570312500000e+02) (7, -4.11881805419921875000e+02) (8, 5.11496795654296875000e+02) (9, 1.45646987915039062500e+02) (10, 1.64381454467773437500e+02) (11, -2.27675537109375000000e+02) (12, 4.23730377197265625000e+02) (13, 8.14373229980468750000e+02) (14, 3.90196563720703125000e+02) (15, 2.21687484741210937500e+02) (16, 4.18305725097656250000e+02) (17, 2.88182800292968750000e+02) (18, 3.51277923583984375000e+02) (19, 6.99682861328125000000e+02) (20, 5.09284057617187500000e+02) (21, 5.09639984130859375000e+02) (22, 7.00689331054687500000e+02) (23, 8.21027648925781250000e+02) (24, 1.46192504882812500000e+02) (25, 8.20586425781250000000e+02) (26, -1.91398147583007812500e+02) (27, -2.51596115112304687500e+02) (28, 6.96589538574218750000e+02) (29, 1.45535476684570312500e+02) (0, -1.17872482299804687500e+02) (1, -1.18017486572265625000e+02) (2, -6.73356262207031250000e+02) (3, -6.73123046875000000000e+02) (4, -5.52610229492187500000e+02) (5, -5.75170532226562500000e+02) (6, -6.89944274902343750000e+02) (7, 4.03679565429687500000e+02) (8, -5.19761718750000000000e+02) (9, -1.52247848510742187500e+02) (10, -1.68888336181640625000e+02) (11, 2.28947631835937500000e+02) (12, -4.29754516601562500000e+02) (13, 7.51040466308593750000e+02) (14, -3.97760437011718750000e+02) (15, -2.27503799438476562500e+02) (16, -4.25938079833984375000e+02) (17, -2.95359191894531250000e+02) (18, -3.57790191650390625000e+02) (19, -7.02895385742187500000e+02) (20, -5.17846313476562500000e+02) (21, -5.17950561523437500000e+02) (22, -7.04277832031250000000e+02) (23, 8.21884826660156250000e+02) (24, -1.52682556152343750000e+02) (25, 8.21048400878906250000e+02) (26, 1.84864013671875000000e+02) (27, 2.44683776855468750000e+02) (28, -7.00508605957031250000e+02) (29, -1.52904296875000000000e+02) (0, -1.20142959594726562500e+02) (1, -1.19648223876953125000e+02) (2, -6.70386169433593750000e+02) (3, -6.68921325683593750000e+02) (4, -5.54845092773437500000e+02) (5, -5.77364868164062500000e+02) (6, -6.83808776855468750000e+02) (7, 3.95194976806640625000e+02) (8, -5.21666076660156250000e+02) (9, -1.52694198608398437500e+02) (10, -1.68926635742187500000e+02) (11, 2.28490966796875000000e+02) (12, -4.31577178955078125000e+02) (13, 7.51378173828125000000e+02) (14, -3.98685272216796875000e+02) (15, -2.29067459106445312500e+02) (16, -4.27960083007812500000e+02) (17, -2.96919830322265625000e+02) (18, -3.60451110839843750000e+02) (19, -6.98033752441406250000e+02) (20, -5.19399841308593750000e+02) (21, -5.19167236328125000000e+02) (22, -6.97871276855468750000e+02) (23, 8.20700134277343750000e+02) (24, -1.53283569335937500000e+02) (25, 8.21691345214843750000e+02) (26, 1.82984390258789062500e+02) (27, 2.40482482910156250000e+02) (28, -6.95301452636718750000e+02) (29, -1.52797180175781250000e+02) (0, 1.14126312255859375000e+02) (1, 1.14087455749511718750e+02) (2, 6.66691589355468750000e+02) (3, 6.67301147460937500000e+02) (4, 5.49318603515625000000e+02) (5, 5.74446960449218750000e+02) (6, 6.82862365722656250000e+02) (7, -4.03068176269531250000e+02) (8, 5.17255981445312500000e+02) (9, 1.50957031250000000000e+02) (10, 1.62514862060546875000e+02) (11, -2.24036010742187500000e+02) (12, 4.28978027343750000000e+02) (13, 8.13620361328125000000e+02) (14, 3.96031005859375000000e+02) (15, 2.26884796142578125000e+02) (16, 4.24527954101562500000e+02) (17, 2.94924926757812500000e+02) (18, 3.55137786865234375000e+02) (19, 6.98269836425781250000e+02) (20, 5.15761291503906250000e+02) (21, 5.14756835937500000000e+02) (22, 6.97974914550781250000e+02) (23, 8.21172912597656250000e+02) (24, 1.50605392456054687500e+02) (25, 8.21467834472656250000e+02) (26, -1.86916503906250000000e+02) (27, -2.45739349365234375000e+02) (28, 6.95073303222656250000e+02) (29, 1.51664215087890625000e+02) (0, -1.19605682373046875000e+02) (1, -1.18836967468261718750e+02) (2, -6.75454650878906250000e+02) (3, -6.75441589355468750000e+02) (4, -5.53608886718750000000e+02) (5, -5.78811157226562500000e+02) (6, -6.92108398437500000000e+02) (7, 4.01538482666015625000e+02) (8, -5.21264282226562500000e+02) (9, -1.52711883544921875000e+02) (10, -1.71892089843750000000e+02) (11, 2.29278198242187500000e+02) (12, -4.31264282226562500000e+02) (13, 7.50613891601562500000e+02) (14, -3.98264251708984375000e+02) (15, -2.30033447265625000000e+02) (16, -4.26720611572265625000e+02) (17, -2.97162658691406250000e+02) (18, -3.62058410644531250000e+02) (19, -7.07192993164062500000e+02) (20, -5.18717834472656250000e+02) (21, -5.19423645019531250000e+02) (22, -7.08018066406250000000e+02) (23, 8.21292419433593750000e+02) (24, -1.53390640258789062500e+02) (25, 8.21648742675781250000e+02) (26, 1.83614364624023437500e+02) (27, 2.42806442260742187500e+02) (28, -7.03504699707031250000e+02) (29, -1.52794586181640625000e+02) (0, -1.17773086547851562500e+02) (1, -1.16565246582031250000e+02) (2, -6.70689331054687500000e+02) (3, -6.70906921386718750000e+02) (4, -5.52333007812500000000e+02) (5, -5.75424499511718750000e+02) (6, -6.88509948730468750000e+02) (7, 4.03626892089843750000e+02) (8, -5.19683227539062500000e+02) (9, -1.51328353881835937500e+02) (10, -1.69812149047851562500e+02) (11, 2.30197418212890625000e+02) (12, -4.30779174804687500000e+02) (13, 7.49651184082031250000e+02) (14, -3.96636138916015625000e+02) (15, -2.28402343750000000000e+02) (16, -4.25661468505859375000e+02) (17, -2.96246337890625000000e+02) (18, -3.59537933349609375000e+02) (19, -7.02945922851562500000e+02) (20, -5.17802673339843750000e+02) (21, -5.17482238769531250000e+02) (22, -7.03443847656250000000e+02) (23, 8.21122497558593750000e+02) (24, -1.51999465942382812500e+02) (25, 8.22106750488281250000e+02) (26, 1.85781982421875000000e+02) (27, 2.45427597045898437500e+02) (28, -6.99138610839843750000e+02) (29, -1.52296615600585937500e+02) (0, -1.17213867187500000000e+02) (1, -1.18682296752929687500e+02) (2, -6.72531250000000000000e+02) (3, -6.70883972167968750000e+02) (4, -5.53461547851562500000e+02) (5, -5.76623229980468750000e+02) (6, -6.88363220214843750000e+02) (7, 4.03671691894531250000e+02) (8, -5.20852844238281250000e+02) (9, -1.53115371704101562500e+02) (10, -1.70370742797851562500e+02) (11, 2.30057556152343750000e+02) (12, -4.31716491699218750000e+02) (13, 7.50630859375000000000e+02) (14, -3.97493072509765625000e+02) (15, -2.29098739624023437500e+02) (16, -4.27994232177734375000e+02) (17, -2.95835052490234375000e+02) (18, -3.60018646240234375000e+02) (19, -7.03958190917968750000e+02) (20, -5.18724609375000000000e+02) (21, -5.17822998046875000000e+02) (22, -7.04530883789062500000e+02) (23, 8.20889587402343750000e+02) (24, -1.52108200073242187500e+02) (25, 8.21128479003906250000e+02) (26, 1.86325897216796875000e+02) (27, 2.43556610107421875000e+02) (28, -7.00333496093750000000e+02) (29, -1.52580459594726562500e+02) (0, 1.10769020080566406250e+02) (1, 1.11801269531250000000e+02) (2, 6.69094299316406250000e+02) (3, 6.68061279296875000000e+02) (4, 5.45253417968750000000e+02) (5, 5.69536621093750000000e+02) (6, 6.88536193847656250000e+02) (7, -4.10196685791015625000e+02) (8, 5.12357238769531250000e+02) (9, 1.46647201538085937500e+02) (10, 1.66664169311523437500e+02) (11, -2.27973541259765625000e+02) (12, 4.23698760986328125000e+02) (13, 8.14813842773437500000e+02) (14, 3.90524261474609375000e+02) (15, 2.22285491943359375000e+02) (16, 4.19228637695312500000e+02) (17, 2.89716552734375000000e+02) (18, 3.55287719726562500000e+02) (19, 7.05677612304687500000e+02) (20, 5.09657836914062500000e+02) (21, 5.09553985595703125000e+02) (22, 7.06725036621093750000e+02) (23, 8.20649108886718750000e+02) (24, 1.45857910156250000000e+02) (25, 8.21479064941406250000e+02) (26, -1.90231430053710937500e+02) (27, -2.51358749389648437500e+02) (28, 7.02072204589843750000e+02) (29, 1.45642196655273437500e+02) (0, 1.09597999572753906250e+02) (1, 1.10480453491210937500e+02) (2, 6.67007324218750000000e+02) (3, 6.65665954589843750000e+02) (4, 5.44605346679687500000e+02) (5, 5.69421447753906250000e+02) (6, 6.86414916992187500000e+02) (7, -4.10458404541015625000e+02) (8, 5.12223205566406250000e+02) (9, 1.45003173828125000000e+02) (10, 1.66716415405273437500e+02) (11, -2.27170043945312500000e+02) (12, 4.22731262207031250000e+02) (13, 8.14351501464843750000e+02) (14, 3.90375183105468750000e+02) (15, 2.20435348510742187500e+02) (16, 4.18050445556640625000e+02) (17, 2.88056335449218750000e+02) (18, 3.54377288818359375000e+02) (19, 7.01730041503906250000e+02) (20, 5.10046691894531250000e+02) (21, 5.10269073486328125000e+02) (22, 7.03035095214843750000e+02) (23, 8.20683166503906250000e+02) (24, 1.45733856201171875000e+02) (25, 8.21142822265625000000e+02) (26, -1.91420837402343750000e+02) (27, -2.50717193603515625000e+02) (28, 6.98514343261718750000e+02) (29, 1.45488037109375000000e+02) (0, 1.10944999694824218750e+02) (1, 1.12164886474609375000e+02) (2, 6.68392883300781250000e+02) (3, 6.68171081542968750000e+02) (4, 5.45140563964843750000e+02) (5, 5.68306457519531250000e+02) (6, 6.87891845703125000000e+02) (7, -4.10258941650390625000e+02) (8, 5.11838012695312500000e+02) (9, 1.46444885253906250000e+02) (10, 1.67985443115234375000e+02) (11, -2.27164642333984375000e+02) (12, 4.24199127197265625000e+02) (13, 8.14757141113281250000e+02) (14, 3.90977294921875000000e+02) (15, 2.21204727172851562500e+02) (16, 4.18759826660156250000e+02) (17, 2.88684143066406250000e+02) (18, 3.53424499511718750000e+02) (19, 7.03108337402343750000e+02) (20, 5.09716430664062500000e+02) (21, 5.10815948486328125000e+02) (22, 7.04994812011718750000e+02) (23, 8.20715942382812500000e+02) (24, 1.45382202148437500000e+02) (25, 8.21565063476562500000e+02) (26, -1.91130737304687500000e+02) (27, -2.51132095336914062500e+02) (28, 7.00697998046875000000e+02) (29, 1.46290878295898437500e+02) (0, 1.15395507812500000000e+02) (1, 1.14982986450195312500e+02) (2, 6.66629455566406250000e+02) (3, 6.66258911132812500000e+02) (4, 5.50090148925781250000e+02) (5, 5.73475280761718750000e+02) (6, 6.82804626464843750000e+02) (7, -4.02189422607421875000e+02) (8, 5.18818908691406250000e+02) (9, 1.51352783203125000000e+02) (10, 1.62298782348632812500e+02) (11, -2.24410919189453125000e+02) (12, 4.29342956542968750000e+02) (13, 8.14901123046875000000e+02) (14, 3.97187835693359375000e+02) (15, 2.28158462524414062500e+02) (16, 4.25475006103515625000e+02) (17, 2.94288696289062500000e+02) (18, 3.55867126464843750000e+02) (19, 6.98170837402343750000e+02) (20, 5.16395751953125000000e+02) (21, 5.15707153320312500000e+02) (22, 6.99579833984375000000e+02) (23, 8.21114257812500000000e+02) (24, 1.51559051513671875000e+02) (25, 8.21869262695312500000e+02) (26, -1.86133789062500000000e+02) (27, -2.45662490844726562500e+02) (28, 6.95071533203125000000e+02) (29, 1.52439331054687500000e+02) (0, 1.13088226318359375000e+02) (1, 1.11922286987304687500e+02) (2, 6.62970764160156250000e+02) (3, 6.62350708007812500000e+02) (4, 5.46784851074218750000e+02) (5, 5.71029479980468750000e+02) (6, 6.83876647949218750000e+02) (7, -4.03783752441406250000e+02) (8, 5.14881713867187500000e+02) (9, 1.48294937133789062500e+02) (10, 1.63215805053710937500e+02) (11, -2.21638244628906250000e+02) (12, 4.25499877929687500000e+02) (13, 8.13937133789062500000e+02) (14, 3.93716766357421875000e+02) (15, 2.23432861328125000000e+02) (16, 4.21656677246093750000e+02) (17, 2.91012329101562500000e+02) (18, 3.57432312011718750000e+02) (19, 7.02448730468750000000e+02) (20, 5.12652038574218750000e+02) (21, 5.12831054687500000000e+02) (22, 7.03056213378906250000e+02) (23, 8.20804992675781250000e+02) (24, 1.47830963134765625000e+02) (25, 8.21132934570312500000e+02) (26, -1.89875869750976562500e+02) (27, -2.48177474975585937500e+02) (28, 6.98362243652343750000e+02) (29, 1.48910324096679687500e+02) (0, -1.19949890136718750000e+02) (1, -1.18935852050781250000e+02) (2, -6.69906127929687500000e+02) (3, -6.69266784667968750000e+02) (4, -5.50192138671875000000e+02) (5, -5.74611877441406250000e+02) (6, -6.85082153320312500000e+02) (7, 3.97711059570312500000e+02) (8, -5.18786437988281250000e+02) (9, -1.51083602905273437500e+02) (10, -1.68721679687500000000e+02) (11, 2.27482269287109375000e+02) (12, -4.29422760009765625000e+02) (13, 7.50912780761718750000e+02) (14, -3.97302825927734375000e+02) (15, -2.27922607421875000000e+02) (16, -4.24994873046875000000e+02) (17, -2.95599090576171875000e+02) (18, -3.58980255126953125000e+02) (19, -6.98976684570312500000e+02) (20, -5.16887451171875000000e+02) (21, -5.16717895507812500000e+02) (22, -6.99284729003906250000e+02) (23, 8.21897583007812500000e+02) (24, -1.51552963256835937500e+02) (25, 8.20779052734375000000e+02) (26, 1.83204666137695312500e+02) (27, 2.42336059570312500000e+02) (28, -6.95989135742187500000e+02) (29, -1.51407592773437500000e+02) (0, -1.16872749328613281250e+02) (1, -1.17046524047851562500e+02) (2, -6.70199462890625000000e+02) (3, -6.69575683593750000000e+02) (4, -5.50859436035156250000e+02) (5, -5.75482727050781250000e+02) (6, -6.87701416015625000000e+02) (7, 4.03761383056640625000e+02) (8, -5.18834838867187500000e+02) (9, -1.50930786132812500000e+02) (10, -1.70417907714843750000e+02) (11, 2.30537200927734375000e+02) (12, -4.31084411621093750000e+02) (13, 7.50232910156250000000e+02) (14, -3.97176727294921875000e+02) (15, -2.28821121215820312500e+02) (16, -4.25046813964843750000e+02) (17, -2.95090881347656250000e+02) (18, -3.59885345458984375000e+02) (19, -7.02332397460937500000e+02) (20, -5.16580932617187500000e+02) (21, -5.17705688476562500000e+02) (22, -7.04753112792968750000e+02) (23, 8.21641784667968750000e+02) (24, -1.50687377929687500000e+02) (25, 8.20791809082031250000e+02) (26, 1.85561569213867187500e+02) (27, 2.44666015625000000000e+02) (28, -7.00016296386718750000e+02) (29, -1.51890289306640625000e+02) (0, -1.17406341552734375000e+02) (1, -1.17673057556152343750e+02) (2, -6.72371459960937500000e+02) (3, -6.70689270019531250000e+02) (4, -5.52461242675781250000e+02) (5, -5.75901184082031250000e+02) (6, -6.86471862792968750000e+02) (7, 4.03254547119140625000e+02) (8, -5.20577514648437500000e+02) (9, -1.53273834228515625000e+02) (10, -1.67230590820312500000e+02) (11, 2.26409393310546875000e+02) (12, -4.31273345947265625000e+02) (13, 7.50293273925781250000e+02) (14, -3.98075805664062500000e+02) (15, -2.28790008544921875000e+02) (16, -4.26302886962890625000e+02) (17, -2.97459411621093750000e+02) (18, -3.59419555664062500000e+02) (19, -7.02304687500000000000e+02) (20, -5.16820678710937500000e+02) (21, -5.18181274414062500000e+02) (22, -7.03049682617187500000e+02) (23, 8.21145874023437500000e+02) (24, -1.52775741577148437500e+02) (25, 8.21235839843750000000e+02) (26, 1.84943435668945312500e+02) (27, 2.43888702392578125000e+02) (28, -6.98765747070312500000e+02) (29, -1.52616653442382812500e+02) (0, 1.08770759582519531250e+02) (1, 1.08835609436035156250e+02) (2, 6.60349365234375000000e+02) (3, 6.59959838867187500000e+02) (4, 5.40512084960937500000e+02) (5, 5.64385009765625000000e+02) (6, 6.77793151855468750000e+02) (7, -4.04536682128906250000e+02) (8, 5.06861633300781250000e+02) (9, 1.43270599365234375000e+02) (10, 1.62234832763671875000e+02) (11, -2.23006835937500000000e+02) (12, 4.19450683593750000000e+02) (13, 8.14360290527343750000e+02) (14, 3.87835876464843750000e+02) (15, 2.19350357055664062500e+02) (16, 4.15466217041015625000e+02) (17, 2.86165130615234375000e+02) (18, 3.51162445068359375000e+02) (19, 6.92599487304687500000e+02) (20, 5.04549835205078125000e+02) (21, 5.04540466308593750000e+02) (22, 6.94437316894531250000e+02) (23, 8.21893798828125000000e+02) (24, 1.43778396606445312500e+02) (25, 8.20790283203125000000e+02) (26, -1.91856643676757812500e+02) (27, -2.49889083862304687500e+02) (28, 6.91289794921875000000e+02) (29, 1.43809661865234375000e+02) (0, -1.08061553955078125000e+02) (1, -1.08597061157226562500e+02) (2, -6.59781738281250000000e+02) (3, -6.58371887207031250000e+02) (4, -5.44595581054687500000e+02) (5, -5.68326782226562500000e+02) (6, -6.74901550292968750000e+02) (7, 4.11955322265625000000e+02) (8, -5.09759582519531250000e+02) (9, -1.43415405273437500000e+02) (10, -1.66035980224609375000e+02) (11, 2.29440399169921875000e+02) (12, -4.21144866943359375000e+02) (13, 7.51548095703125000000e+02) (14, -3.88311187744140625000e+02) (15, -2.18331771850585937500e+02) (16, -4.16941314697265625000e+02) (17, -2.86948699951171875000e+02) (18, -3.47187805175781250000e+02) (19, -6.90934143066406250000e+02) (20, -5.07490783691406250000e+02) (21, -5.07916656494140625000e+02) (22, -6.90043090820312500000e+02) (23, 8.22121337890625000000e+02) (24, -1.42960281372070312500e+02) (25, 8.21445617675781250000e+02) (26, 1.94568634033203125000e+02) (27, 2.53172470092773437500e+02) (28, -6.87752807617187500000e+02) (29, -1.43927108764648437500e+02) (0, -1.16699142456054687500e+02) (1, -1.18296470642089843750e+02) (2, -6.71944458007812500000e+02) (3, -6.71349304199218750000e+02) (4, -5.52446411132812500000e+02) (5, -5.76785095214843750000e+02) (6, -6.89217529296875000000e+02) (7, 4.02824859619140625000e+02) (8, -5.19452453613281250000e+02) (9, -1.51995132446289062500e+02) (10, -1.69348831176757812500e+02) (11, 2.30213226318359375000e+02) (12, -4.31147399902343750000e+02) (13, 7.49625976562500000000e+02) (14, -3.98520446777343750000e+02) (15, -2.28983383178710937500e+02) (16, -4.27599151611328125000e+02) (17, -2.95867828369140625000e+02) (18, -3.59903472900390625000e+02) (19, -7.05218994140625000000e+02) (20, -5.17819885253906250000e+02) (21, -5.18861572265625000000e+02) (22, -7.06461730957031250000e+02) (23, 8.22063354492187500000e+02) (24, -1.52755310058593750000e+02) (25, 8.21375915527343750000e+02) (26, 1.84668380737304687500e+02) (27, 2.43644546508789062500e+02) (28, -7.01742797851562500000e+02) (29, -1.51706375122070312500e+02) (0, -1.17024398803710937500e+02) (1, -1.18279067993164062500e+02) (2, -6.71241577148437500000e+02) (3, -6.70231445312500000000e+02) (4, -5.52157348632812500000e+02) (5, -5.75111022949218750000e+02) (6, -6.87219177246093750000e+02) (7, 4.04668243408203125000e+02) (8, -5.18440429687500000000e+02) (9, -1.51182998657226562500e+02) (10, -1.69358001708984375000e+02) (11, 2.30363861083984375000e+02) (12, -4.29967651367187500000e+02) (13, 7.51004211425781250000e+02) (14, -3.97655639648437500000e+02) (15, -2.27517776489257812500e+02) (16, -4.26210205078125000000e+02) (17, -2.96073333740234375000e+02) (18, -3.60095733642578125000e+02) (19, -7.02300964355468750000e+02) (20, -5.17086181640625000000e+02) (21, -5.16567993164062500000e+02) (22, -7.03461242675781250000e+02) (23, 8.21890563964843750000e+02) (24, -1.50977005004882812500e+02) (25, 8.20912963867187500000e+02) (26, 1.85485427856445312500e+02) (27, 2.44032287597656250000e+02) (28, -6.99237976074218750000e+02) (29, -1.51083831787109375000e+02) (0, -1.15820259094238281250e+02) (1, -1.17498352050781250000e+02) (2, -6.73601562500000000000e+02) (3, -6.73976562500000000000e+02) (4, -5.50897521972656250000e+02) (5, -5.75306335449218750000e+02) (6, -6.91048095703125000000e+02) (7, 4.07483734130859375000e+02) (8, -5.18352416992187500000e+02) (9, -1.50403457641601562500e+02) (10, -1.72298233032226562500e+02) (11, 2.34360595703125000000e+02) (12, -4.29555023193359375000e+02) (13, 7.51419677734375000000e+02) (14, -3.96666748046875000000e+02) (15, -2.26868225097656250000e+02) (16, -4.25371124267578125000e+02) (17, -2.94662200927734375000e+02) (18, -3.59895965576171875000e+02) (19, -7.06280883789062500000e+02) (20, -5.16388244628906250000e+02) (21, -5.16150573730468750000e+02) (22, -7.07514770507812500000e+02) (23, 8.20877685546875000000e+02) (24, -1.51507843017578125000e+02) (25, 8.21194091796875000000e+02) (26, 1.86167098999023437500e+02) (27, 2.44494613647460937500e+02) (28, -7.03139099121093750000e+02) (29, -1.50655212402343750000e+02) (0, 1.12343872070312500000e+02) (1, 1.12799102783203125000e+02) (2, 6.69223449707031250000e+02) (3, 6.69186096191406250000e+02) (4, 5.48809082031250000000e+02) (5, 5.73728698730468750000e+02) (6, 6.86285217285156250000e+02) (7, -4.06961456298828125000e+02) (8, 5.13867065429687500000e+02) (9, 1.47739761352539062500e+02) (10, 1.66956176757812500000e+02) (11, -2.26522125244140625000e+02) (12, 4.26782073974609375000e+02) (13, 8.14012817382812500000e+02) (14, 3.92961608886718750000e+02) (15, 2.23693298339843750000e+02) (16, 4.21864990234375000000e+02) (17, 2.91699340820312500000e+02) (18, 3.55139190673828125000e+02) (19, 7.01149658203125000000e+02) (20, 5.12519348144531250000e+02) (21, 5.11695983886718750000e+02) (22, 7.02866271972656250000e+02) (23, 8.20705749511718750000e+02) (24, 1.47327651977539062500e+02) (25, 8.21786193847656250000e+02) (26, -1.90990173339843750000e+02) (27, -2.51055892944335937500e+02) (28, 6.98080688476562500000e+02) (29, 1.47577835083007812500e+02) (0, -1.16845901489257812500e+02) (1, -1.17907417297363281250e+02) (2, -6.71316101074218750000e+02) (3, -6.70036804199218750000e+02) (4, -5.52845031738281250000e+02) (5, -5.75455200195312500000e+02) (6, -6.87797607421875000000e+02) (7, 4.03465484619140625000e+02) (8, -5.18764099121093750000e+02) (9, -1.52358642578125000000e+02) (10, -1.69262786865234375000e+02) (11, 2.30507019042968750000e+02) (12, -4.29565948486328125000e+02) (13, 7.50508972167968750000e+02) (14, -3.96749206542968750000e+02) (15, -2.27138946533203125000e+02) (16, -4.25622833251953125000e+02) (17, -2.95933410644531250000e+02) (18, -3.60196289062500000000e+02) (19, -7.02687255859375000000e+02) (20, -5.17396667480468750000e+02) (21, -5.17773132324218750000e+02) (22, -7.03921752929687500000e+02) (23, 8.20852172851562500000e+02) (24, -1.51614547729492187500e+02) (25, 8.21257507324218750000e+02) (26, 1.84881179809570312500e+02) (27, 2.43927566528320312500e+02) (28, -6.99405883789062500000e+02) (29, -1.52266250610351562500e+02) (0, 1.12347656250000000000e+02) (1, 1.11698242187500000000e+02) (2, 6.70138916015625000000e+02) (3, 6.69611022949218750000e+02) (4, 5.47927795410156250000e+02) (5, 5.72099426269531250000e+02) (6, 6.85986145019531250000e+02) (7, -4.06842041015625000000e+02) (8, 5.14677368164062500000e+02) (9, 1.48205337524414062500e+02) (10, 1.66330810546875000000e+02) (11, -2.27358642578125000000e+02) (12, 4.26490661621093750000e+02) (13, 8.13617248535156250000e+02) (14, 3.93272918701171875000e+02) (15, 2.23552108764648437500e+02) (16, 4.21910552978515625000e+02) (17, 2.90338653564453125000e+02) (18, 3.57431701660156250000e+02) (19, 7.02802917480468750000e+02) (20, 5.11958801269531250000e+02) (21, 5.12467468261718750000e+02) (22, 7.04331542968750000000e+02) (23, 8.21804626464843750000e+02) (24, 1.46797134399414062500e+02) (25, 8.21869079589843750000e+02) (26, -1.90554885864257812500e+02) (27, -2.50903396606445312500e+02) (28, 6.99412536621093750000e+02) (29, 1.47414916992187500000e+02) (0, -1.17521110534667968750e+02) (1, -1.18041908264160156250e+02) (2, -6.70837890625000000000e+02) (3, -6.71565063476562500000e+02) (4, -5.51931335449218750000e+02) (5, -5.75706848144531250000e+02) (6, -6.87645751953125000000e+02) (7, 4.03838073730468750000e+02) (8, -5.19414489746093750000e+02) (9, -1.51890289306640625000e+02) (10, -1.70229156494140625000e+02) (11, 2.30125000000000000000e+02) (12, -4.30173004150390625000e+02) (13, 7.50333496093750000000e+02) (14, -3.96887512207031250000e+02) (15, -2.27428039550781250000e+02) (16, -4.25196136474609375000e+02) (17, -2.95818664550781250000e+02) (18, -3.59385467529296875000e+02) (19, -7.04743774414062500000e+02) (20, -5.17191284179687500000e+02) (21, -5.16950744628906250000e+02) (22, -7.05914184570312500000e+02) (23, 8.21353698730468750000e+02) (24, -1.51337753295898437500e+02) (25, 8.20979919433593750000e+02) (26, 1.86372695922851562500e+02) (27, 2.43411834716796875000e+02) (28, -7.00248474121093750000e+02) (29, -1.51943069458007812500e+02) (0, 1.10658866882324218750e+02) (1, 1.10784904479980468750e+02) (2, 6.60081054687500000000e+02) (3, 6.60291076660156250000e+02) (4, 5.43065673828125000000e+02) (5, 5.67132080078125000000e+02) (6, 6.76400512695312500000e+02) (7, -4.04364990234375000000e+02) (8, 5.10407318115234375000e+02) (9, 1.43909454345703125000e+02) (10, 1.63952880859375000000e+02) (11, -2.21616516113281250000e+02) (12, 4.22013610839843750000e+02) (13, 8.13477722167968750000e+02) (14, 3.89182800292968750000e+02) (15, 2.19346252441406250000e+02) (16, 4.16362213134765625000e+02) (17, 2.86332672119140625000e+02) (18, 3.51433898925781250000e+02) (19, 6.92936767578125000000e+02) (20, 5.07406005859375000000e+02) (21, 5.07491485595703125000e+02) (22, 6.92244140625000000000e+02) (23, 8.21118164062500000000e+02) (24, 1.44122543334960937500e+02) (25, 8.21981384277343750000e+02) (26, -1.91270172119140625000e+02) (27, -2.48236755371093750000e+02) (28, 6.88277282714843750000e+02) (29, 1.44027450561523437500e+02) (0, -1.16905654907226562500e+02) (1, -1.18043472290039062500e+02) (2, -6.73222778320312500000e+02) (3, -6.71718994140625000000e+02) (4, -5.50990356445312500000e+02) (5, -5.75446655273437500000e+02) (6, -6.91261779785156250000e+02) (7, 4.02774414062500000000e+02) (8, -5.18905151367187500000e+02) (9, -1.51867019653320312500e+02) (10, -1.70773925781250000000e+02) (11, 2.29351257324218750000e+02) (12, -4.30255889892578125000e+02) (13, 7.50980651855468750000e+02) (14, -3.96209869384765625000e+02) (15, -2.27912353515625000000e+02) (16, -4.25475921630859375000e+02) (17, -2.94641571044921875000e+02) (18, -3.60304504394531250000e+02) (19, -7.07719848632812500000e+02) (20, -5.16028259277343750000e+02) (21, -5.16246154785156250000e+02) (22, -7.08864074707031250000e+02) (23, 8.21707153320312500000e+02) (24, -1.52292526245117187500e+02) (25, 8.20601440429687500000e+02) (26, 1.86482360839843750000e+02) (27, 2.44562820434570312500e+02) (28, -7.04955017089843750000e+02) (29, -1.50868637084960937500e+02) (0, 1.10686111450195312500e+02) (1, 1.10652015686035156250e+02) (2, 6.57461669921875000000e+02) (3, 6.58162902832031250000e+02) (4, 5.41401367187500000000e+02) (5, 5.64667175292968750000e+02) (6, 6.76129150390625000000e+02) (7, -4.02468444824218750000e+02) (8, 5.10423492431640625000e+02) (9, 1.47821899414062500000e+02) (10, 1.65498504638671875000e+02) (11, -2.24352416992187500000e+02) (12, 4.25383209228515625000e+02) (13, 8.13743652343750000000e+02) (14, 3.91186889648437500000e+02) (15, 2.23738616943359375000e+02) (16, 4.20277435302734375000e+02) (17, 2.90613586425781250000e+02) (18, 3.55272583007812500000e+02) (19, 6.92918884277343750000e+02) (20, 5.08051025390625000000e+02) (21, 5.06951721191406250000e+02) (22, 6.95066589355468750000e+02) (23, 8.21282531738281250000e+02) (24, 1.48099288940429687500e+02) (25, 8.21317687988281250000e+02) (26, -1.89699615478515625000e+02) (27, -2.45926025390625000000e+02) (28, 6.90390380859375000000e+02) (29, 1.47997131347656250000e+02) (0, -1.18397285461425781250e+02) (1, -1.18348693847656250000e+02) (2, -6.72658813476562500000e+02) (3, -6.72009704589843750000e+02) (4, -5.51537841796875000000e+02) (5, -5.75417663574218750000e+02) (6, -6.87654113769531250000e+02) (7, 4.03922821044921875000e+02) (8, -5.18815002441406250000e+02) (9, -1.52641601562500000000e+02) (10, -1.69446472167968750000e+02) (11, 2.29464233398437500000e+02) (12, -4.30446655273437500000e+02) (13, 7.50348937988281250000e+02) (14, -3.99139617919921875000e+02) (15, -2.28887527465820312500e+02) (16, -4.26788421630859375000e+02) (17, -2.96141143798828125000e+02) (18, -3.60166198730468750000e+02) (19, -7.03126525878906250000e+02) (20, -5.16724609375000000000e+02) (21, -5.16960388183593750000e+02) (22, -7.04973144531250000000e+02) (23, 8.20636169433593750000e+02) (24, -1.51883712768554687500e+02) (25, 8.21013061523437500000e+02) (26, 1.84546142578125000000e+02) (27, 2.43207260131835937500e+02) (28, -6.99529235839843750000e+02) (29, -1.52587554931640625000e+02) (0, -1.16745536804199218750e+02) (1, -1.16180717468261718750e+02) (2, -6.75745361328125000000e+02) (3, -6.74461303710937500000e+02) (4, -5.51950195312500000000e+02) (5, -5.75702453613281250000e+02) (6, -6.94594604492187500000e+02) (7, 4.07598541259765625000e+02) (8, -5.18755432128906250000e+02) (9, -1.52036804199218750000e+02) (10, -1.72875045776367187500e+02) (11, 2.33012237548828125000e+02) (12, -4.29997283935546875000e+02) (13, 7.51000000000000000000e+02) (14, -3.97182464599609375000e+02) (15, -2.27783843994140625000e+02) (16, -4.25641052246093750000e+02) (17, -2.95754669189453125000e+02) (18, -3.59829132080078125000e+02) (19, -7.08023742675781250000e+02) (20, -5.16997619628906250000e+02) (21, -5.16744567871093750000e+02) (22, -7.09159057617187500000e+02) (23, 8.21159179687500000000e+02) (24, -1.51666397094726562500e+02) (25, 8.20882812500000000000e+02) (26, 1.86794937133789062500e+02) (27, 2.45156265258789062500e+02) (28, -7.04154052734375000000e+02) (29, -1.51553115844726562500e+02) (0, -1.16866996765136718750e+02) (1, -1.17460365295410156250e+02) (2, -6.72481079101562500000e+02) (3, -6.72617065429687500000e+02) (4, -5.51459655761718750000e+02) (5, -5.76001831054687500000e+02) (6, -6.88462829589843750000e+02) (7, 4.02116577148437500000e+02) (8, -5.18825439453125000000e+02) (9, -1.52486816406250000000e+02) (10, -1.70028472900390625000e+02) (11, 2.30203735351562500000e+02) (12, -4.31766723632812500000e+02) (13, 7.49862548828125000000e+02) (14, -3.98443115234375000000e+02) (15, -2.28121704101562500000e+02) (16, -4.26761596679687500000e+02) (17, -2.96881866455078125000e+02) (18, -3.60444671630859375000e+02) (19, -7.03774902343750000000e+02) (20, -5.17969360351562500000e+02) (21, -5.17238464355468750000e+02) (22, -7.05616149902343750000e+02) (23, 8.22104919433593750000e+02) (24, -1.51764022827148437500e+02) (25, 8.21509155273437500000e+02) (26, 1.85230606079101562500e+02) (27, 2.44361373901367187500e+02) (28, -7.00570983886718750000e+02) (29, -1.53098846435546875000e+02) (0, -1.16884407043457031250e+02) (1, -1.17195304870605468750e+02) (2, -6.72236755371093750000e+02) (3, -6.71697875976562500000e+02) (4, -5.52315917968750000000e+02) (5, -5.76375732421875000000e+02) (6, -6.87693664550781250000e+02) (7, 4.03401916503906250000e+02) (8, -5.19348449707031250000e+02) (9, -1.52421325683593750000e+02) (10, -1.70008087158203125000e+02) (11, 2.31235595703125000000e+02) (12, -4.30366394042968750000e+02) (13, 7.49716857910156250000e+02) (14, -3.97894836425781250000e+02) (15, -2.27503036499023437500e+02) (16, -4.25546478271484375000e+02) (17, -2.95489929199218750000e+02) (18, -3.60819427490234375000e+02) (19, -7.04442138671875000000e+02) (20, -5.17795043945312500000e+02) (21, -5.17624572753906250000e+02) (22, -7.05690185546875000000e+02) (23, 8.21706909179687500000e+02) (24, -1.51686401367187500000e+02) (25, 8.22095825195312500000e+02) (26, 1.85592773437500000000e+02) (27, 2.44493545532226562500e+02) (28, -7.00131286621093750000e+02) (29, -1.51580520629882812500e+02) (0, 1.10077941894531250000e+02) (1, 1.09931953430175781250e+02) (2, 6.61687988281250000000e+02) (3, 6.60471069335937500000e+02) (4, 5.45788208007812500000e+02) (5, 5.69387145996093750000e+02) (6, 6.78284484863281250000e+02) (7, -4.05646575927734375000e+02) (8, 5.14023620605468750000e+02) (9, 1.48479202270507812500e+02) (10, 1.62294876098632812500e+02) (11, -2.22762786865234375000e+02) (12, 4.25431121826171875000e+02) (13, 8.14028564453125000000e+02) (14, 3.92502685546875000000e+02) (15, 2.23448272705078125000e+02) (16, 4.20431060791015625000e+02) (17, 2.90661254882812500000e+02) (18, 3.51943054199218750000e+02) (19, 6.94125000000000000000e+02) (20, 5.11448303222656250000e+02) (21, 5.11486755371093750000e+02) (22, 6.95589538574218750000e+02) (23, 8.21812683105468750000e+02) (24, 1.47848220825195312500e+02) (25, 8.21719238281250000000e+02) (26, -1.90172424316406250000e+02) (27, -2.49752853393554687500e+02) (28, 6.91710205078125000000e+02) (29, 1.47466842651367187500e+02) (0, 1.09616050720214843750e+02) (1, 1.09518760681152343750e+02) (2, 6.63869323730468750000e+02) (3, 6.62868652343750000000e+02) (4, 5.44755493164062500000e+02) (5, 5.69504882812500000000e+02) (6, 6.80867797851562500000e+02) (7, -4.05902832031250000000e+02) (8, 5.13249511718750000000e+02) (9, 1.46000869750976562500e+02) (10, 1.60178833007812500000e+02) (11, -2.21893859863281250000e+02) (12, 4.26193328857421875000e+02) (13, 8.14279174804687500000e+02) (14, 3.93138824462890625000e+02) (15, 2.23054595947265625000e+02) (16, 4.21188568115234375000e+02) (17, 2.89463073730468750000e+02) (18, 3.53477264404296875000e+02) (19, 6.97441528320312500000e+02) (20, 5.10349853515625000000e+02) (21, 5.10314025878906250000e+02) (22, 6.97482482910156250000e+02) (23, 8.20774353027343750000e+02) (24, 1.46231994628906250000e+02) (25, 8.21209350585937500000e+02) (26, -1.91072463989257812500e+02) (27, -2.52387542724609375000e+02) (28, 6.93859313964843750000e+02) (29, 1.47518539428710937500e+02) (0, 1.09458763122558593750e+02) (1, 1.09156021118164062500e+02) (2, 6.60481689453125000000e+02) (3, 6.60601684570312500000e+02) (4, 5.41485412597656250000e+02) (5, 5.67184875488281250000e+02) (6, 6.75284118652343750000e+02) (7, -4.07571258544921875000e+02) (8, 5.10101226806640625000e+02) (9, 1.44555557250976562500e+02) (10, 1.58004241943359375000e+02) (11, -2.23340026855468750000e+02) (12, 4.22579437255859375000e+02) (13, 8.14513427734375000000e+02) (14, 3.90049102783203125000e+02) (15, 2.20667800903320312500e+02) (16, 4.17606018066406250000e+02) (17, 2.87717834472656250000e+02) (18, 3.47037261962890625000e+02) (19, 6.88305786132812500000e+02) (20, 5.07165008544921875000e+02) (21, 5.07311035156250000000e+02) (22, 6.90091735839843750000e+02) (23, 8.21851623535156250000e+02) (24, 1.44944137573242187500e+02) (25, 8.21965698242187500000e+02) (26, -1.92615280151367187500e+02) (27, -2.52276626586914062500e+02) (28, 6.85804870605468750000e+02) (29, 1.44993515014648437500e+02) (0, -1.15514671325683593750e+02) (1, -1.16245887756347656250e+02) (2, -6.71477111816406250000e+02) (3, -6.70989379882812500000e+02) (4, -5.51146423339843750000e+02) (5, -5.74987243652343750000e+02) (6, -6.89365600585937500000e+02) (7, 4.07473052978515625000e+02) (8, -5.17596313476562500000e+02) (9, -1.50093887329101562500e+02) (10, -1.71267669677734375000e+02) (11, 2.31767456054687500000e+02) (12, -4.28568664550781250000e+02) (13, 7.50917175292968750000e+02) (14, -3.96375061035156250000e+02) (15, -2.26796157836914062500e+02) (16, -4.24706939697265625000e+02) (17, -2.95556213378906250000e+02) (18, -3.58839782714843750000e+02) (19, -7.04636962890625000000e+02) (20, -5.15325988769531250000e+02) (21, -5.16337036132812500000e+02) (22, -7.05410156250000000000e+02) (23, 8.21248657226562500000e+02) (24, -1.50918991088867187500e+02) (25, 8.21295288085937500000e+02) (26, 1.86810409545898437500e+02) (27, 2.44999496459960937500e+02) (28, -7.02555786132812500000e+02) (29, -1.50295135498046875000e+02) (0, -1.17165161132812500000e+02) (1, -1.18402938842773437500e+02) (2, -6.71456298828125000000e+02) (3, -6.70354797363281250000e+02) (4, -5.52100280761718750000e+02) (5, -5.76171081542968750000e+02) (6, -6.87409118652343750000e+02) (7, 4.03259155273437500000e+02) (8, -5.19199951171875000000e+02) (9, -1.51897567749023437500e+02) (10, -1.70006011962890625000e+02) (11, 2.30861206054687500000e+02) (12, -4.30588684082031250000e+02) (13, 7.50387207031250000000e+02) (14, -3.97772705078125000000e+02) (15, -2.28164474487304687500e+02) (16, -4.26052734375000000000e+02) (17, -2.94977600097656250000e+02) (18, -3.60561706542968750000e+02) (19, -7.04173950195312500000e+02) (20, -5.17046936035156250000e+02) (21, -5.17402099609375000000e+02) (22, -7.04213073730468750000e+02) (23, 8.22114746093750000000e+02) (24, -1.50894348144531250000e+02) (25, 8.21250427246093750000e+02) (26, 1.85938217163085937500e+02) (27, 2.44794311523437500000e+02) (28, -7.00480895996093750000e+02) (29, -1.52137893676757812500e+02) (0, -8.50452041625976562500e+01) (1, -8.49098815917968750000e+01) (2, -6.47541015625000000000e+02) (3, -6.46665222167968750000e+02) (4, -5.05535858154296875000e+02) (5, -5.29579528808593750000e+02) (6, -6.74291809082031250000e+02) (7, 4.14038543701171875000e+02) (8, -4.68571411132812500000e+02) (9, -1.16924865722656250000e+02) (10, -1.63636199951171875000e+02) (11, 2.26777282714843750000e+02) (12, -3.81902893066406250000e+02) (13, 7.50675170898437500000e+02) (14, -3.52015991210937500000e+02) (15, -1.90388244628906250000e+02) (16, -3.77653472900390625000e+02) (17, -2.54891510009765625000e+02) (18, -3.35657501220703125000e+02) (19, -6.92713256835937500000e+02) (20, -4.66896911621093750000e+02) (21, -4.66271606445312500000e+02) (22, -6.93301330566406250000e+02) (23, 8.21861206054687500000e+02) (24, -1.16864044189453125000e+02) (25, 8.20922119140625000000e+02) (26, 2.04436233520507812500e+02) (27, 2.58387207031250000000e+02) (28, -6.89636352539062500000e+02) (29, -1.18003128051757812500e+02) (0, -1.17387138366699218750e+02) (1, -1.18524757385253906250e+02) (2, -6.71152160644531250000e+02) (3, -6.71215942382812500000e+02) (4, -5.52443420410156250000e+02) (5, -5.76302795410156250000e+02) (6, -6.87533264160156250000e+02) (7, 4.03109954833984375000e+02) (8, -5.19930969238281250000e+02) (9, -1.52381393432617187500e+02) (10, -1.69281097412109375000e+02) (11, 2.30279571533203125000e+02) (12, -4.32031982421875000000e+02) (13, 7.50137573242187500000e+02) (14, -3.97725860595703125000e+02) (15, -2.28055267333984375000e+02) (16, -4.26632446289062500000e+02) (17, -2.95793914794921875000e+02) (18, -3.59227203369140625000e+02) (19, -7.03548278808593750000e+02) (20, -5.17992309570312500000e+02) (21, -5.17455566406250000000e+02) (22, -7.04979431152343750000e+02) (23, 8.21594665527343750000e+02) (24, -1.52560287475585937500e+02) (25, 8.21780273437500000000e+02) (26, 1.86245361328125000000e+02) (27, 2.43974349975585937500e+02) (28, -7.00634216308593750000e+02) (29, -1.52590347290039062500e+02) (30, 7.96933532714843750000e+02) (31, 8.10887451171875000000e+02) (32, 8.19194519042968750000e+02) (33, 1.74005462646484375000e+02) (34, 1.70886322021484375000e+02) (35, 1.76087646484375000000e+02) (36, 8.06348327636718750000e+02) (37, 1.76170669555664062500e+02) (38, 7.99822448730468750000e+02) (39, 1.78649063110351562500e+02) (40, 1.74219573974609375000e+02) (41, 8.19338989257812500000e+02) (42, 1.73685546875000000000e+02) (43, 1.77027359008789062500e+02) (44, 8.10051757812500000000e+02) (45, 1.74622711181640625000e+02) (46, 1.77929397583007812500e+02) (47, 8.02460815429687500000e+02) (48, 1.75764465332031250000e+02) (49, 8.19111022949218750000e+02) (50, 1.75202972412109375000e+02) (51, 8.07187805175781250000e+02) (52, 7.96724731445312500000e+02) (53, 1.74425231933593750000e+02) (54, 8.07019836425781250000e+02) (55, 8.19193298339843750000e+02) (56, 8.19989196777343750000e+02) (57, 1.74610519409179687500e+02) (58, 1.74463760375976562500e+02) (59, 1.73838195800781250000e+02) (60, 1.74950973510742187500e+02) (61, 1.75126159667968750000e+02) (62, 7.96499816894531250000e+02) (63, 8.20271667480468750000e+02) (64, 8.12308410644531250000e+02) (65, 1.71112915039062500000e+02) (66, 7.76141357421875000000e+02) (67, 8.19033874511718750000e+02) (68, 8.19973571777343750000e+02) (69, 8.00966979980468750000e+02) (70, 1.75349609375000000000e+02) (71, 8.19700073242187500000e+02) (72, 1.74946960449218750000e+02) (73, 8.19278503417968750000e+02) (74, 1.73024948120117187500e+02) (75, 7.97184509277343750000e+02) (76, 1.71765167236328125000e+02) (77, 8.14898132324218750000e+02) (78, 8.03206787109375000000e+02) (79, 8.19409057617187500000e+02) (80, 8.20523925781250000000e+02) (81, 1.75119522094726562500e+02) (82, 1.74682876586914062500e+02) (83, 1.77978363037109375000e+02) (84, 7.99045410156250000000e+02) (85, 8.20749633789062500000e+02) (86, 6.59812805175781250000e+02) (87, 8.19544616699218750000e+02) (88, 1.74724945068359375000e+02) (30, 7.92105957031250000000e+02) (31, 8.07732666015625000000e+02) (32, 8.18668945312500000000e+02) (33, -1.43956542968750000000e+02) (34, -1.42705291748046875000e+02) (35, -1.46378890991210937500e+02) (36, 7.99492675781250000000e+02) (37, -1.45859451293945312500e+02) (38, 7.96318115234375000000e+02) (39, -1.45213394165039062500e+02) (40, -1.43938796997070312500e+02) (41, 8.18254272460937500000e+02) (42, -1.43958068847656250000e+02) (43, -1.45986145019531250000e+02) (44, 8.04056091308593750000e+02) (45, -1.43689147949218750000e+02) (46, -1.49230255126953125000e+02) (47, 7.98575195312500000000e+02) (48, -1.46774963378906250000e+02) (49, 8.13809570312500000000e+02) (50, -1.44368087768554687500e+02) (51, 8.02989990234375000000e+02) (52, 7.92706481933593750000e+02) (53, -1.43436569213867187500e+02) (54, 8.01007629394531250000e+02) (55, 8.18262817382812500000e+02) (56, 8.19114379882812500000e+02) (57, -1.44108718872070312500e+02) (58, -1.44806533813476562500e+02) (59, -1.44089019775390625000e+02) (60, -1.43475555419921875000e+02) (61, -1.43683700561523437500e+02) (62, 7.90476440429687500000e+02) (63, 8.18763488769531250000e+02) (64, 8.09016357421875000000e+02) (65, -1.40697433471679687500e+02) (66, 7.27241882324218750000e+02) (67, 8.18229492187500000000e+02) (68, 8.16108154296875000000e+02) (69, 7.92432128906250000000e+02) (70, -1.43919799804687500000e+02) (71, 8.18525024414062500000e+02) (72, -1.44254013061523437500e+02) (73, 8.18255737304687500000e+02) (74, -1.41128692626953125000e+02) (75, 7.92130126953125000000e+02) (76, -1.42466018676757812500e+02) (77, 8.09648620605468750000e+02) (78, 7.97149414062500000000e+02) (79, 8.18547668457031250000e+02) (80, 8.18253173828125000000e+02) (81, -1.43759246826171875000e+02) (82, -1.43954223632812500000e+02) (83, -1.45299285888671875000e+02) (84, 7.89547058105468750000e+02) (85, 8.18278198242187500000e+02) (86, 7.12100158691406250000e+02) (87, 8.18987792968750000000e+02) (88, -1.44469238281250000000e+02) (30, 7.91134460449218750000e+02) (31, 8.07233398437500000000e+02) (32, 8.19318298339843750000e+02) (33, -1.45262023925781250000e+02) (34, -1.43642883300781250000e+02) (35, -1.46235000610351562500e+02) (36, 7.99437805175781250000e+02) (37, -1.45600433349609375000e+02) (38, 7.97567565917968750000e+02) (39, -1.44896408081054687500e+02) (40, -1.45354003906250000000e+02) (41, 8.18358581542968750000e+02) (42, -1.44900726318359375000e+02) (43, -1.44561645507812500000e+02) (44, 8.03732666015625000000e+02) (45, -1.44654510498046875000e+02) (46, -1.46995178222656250000e+02) (47, 7.96156066894531250000e+02) (48, -1.45972717285156250000e+02) (49, 8.13317382812500000000e+02) (50, -1.44883590698242187500e+02) (51, 8.02476074218750000000e+02) (52, 7.92219482421875000000e+02) (53, -1.45274658203125000000e+02) (54, 8.01738708496093750000e+02) (55, 8.18139526367187500000e+02) (56, 8.18843322753906250000e+02) (57, -1.44655670166015625000e+02) (58, -1.45184356689453125000e+02) (59, -1.45086486816406250000e+02) (60, -1.45250503540039062500e+02) (61, -1.45551712036132812500e+02) (62, 7.90324218750000000000e+02) (63, 8.19191528320312500000e+02) (64, 8.07363098144531250000e+02) (65, -1.43085906982421875000e+02) (66, 7.25617980957031250000e+02) (67, 8.18775756835937500000e+02) (68, 8.16049438476562500000e+02) (69, 7.90156860351562500000e+02) (70, -1.44574874877929687500e+02) (71, 8.18701049804687500000e+02) (72, -1.45016632080078125000e+02) (73, 8.17906188964843750000e+02) (74, -1.42390319824218750000e+02) (75, 7.92965515136718750000e+02) (76, -1.43727355957031250000e+02) (77, 8.09635559082031250000e+02) (78, 7.95740722656250000000e+02) (79, 8.19114562988281250000e+02) (80, 8.19280334472656250000e+02) (81, -1.44317352294921875000e+02) (82, -1.45270095825195312500e+02) (83, -1.45005310058593750000e+02) (84, 7.87995849609375000000e+02) (85, 8.19642456054687500000e+02) (86, 7.09671630859375000000e+02) (87, 8.19355651855468750000e+02) (88, -1.44160202026367187500e+02) (30, 7.92547424316406250000e+02) (31, 8.07295532226562500000e+02) (32, 8.18814453125000000000e+02) (33, -1.45818405151367187500e+02) (34, -1.46509689331054687500e+02) (35, -1.41352691650390625000e+02) (36, 8.02212585449218750000e+02) (37, -1.40040512084960937500e+02) (38, 7.99556213378906250000e+02) (39, -1.40773544311523437500e+02) (40, -1.45271743774414062500e+02) (41, 8.18573120117187500000e+02) (42, -1.44024185180664062500e+02) (43, -1.43354446411132812500e+02) (44, 8.04583679199218750000e+02) (45, -1.43543212890625000000e+02) (46, -1.40562301635742187500e+02) (47, 7.98207458496093750000e+02) (48, -1.42814208984375000000e+02) (49, 8.17980285644531250000e+02) (50, -1.42416015625000000000e+02) (51, 8.03920776367187500000e+02) (52, 7.95354858398437500000e+02) (53, -1.43536102294921875000e+02) (54, 8.05272766113281250000e+02) (55, 8.18272766113281250000e+02) (56, 8.19074523925781250000e+02) (57, -1.43108840942382812500e+02) (58, -1.43225952148437500000e+02) (59, -1.42903900146484375000e+02) (60, -1.43781738281250000000e+02) (61, -1.45427276611328125000e+02) (62, 7.92035522460937500000e+02) (63, 8.18315673828125000000e+02) (64, 8.11368408203125000000e+02) (65, -1.47810241699218750000e+02) (66, 7.21723205566406250000e+02) (67, 8.18937561035156250000e+02) (68, 8.15756835937500000000e+02) (69, 7.90518920898437500000e+02) (70, -1.44073013305664062500e+02) (71, 8.18251464843750000000e+02) (72, -1.44046646118164062500e+02) (73, 8.18042663574218750000e+02) (74, -1.44530090332031250000e+02) (75, 7.93854125976562500000e+02) (76, -1.46345352172851562500e+02) (77, 8.12221008300781250000e+02) (78, 7.96662597656250000000e+02) (79, 8.19472839355468750000e+02) (80, 8.18740112304687500000e+02) (81, -1.43881759643554687500e+02) (82, -1.44089416503906250000e+02) (83, -1.40616180419921875000e+02) (84, 7.88165283203125000000e+02) (85, 8.18776428222656250000e+02) (86, 7.05368652343750000000e+02) (87, 8.19493103027343750000e+02) (88, -1.43333175659179687500e+02) (89, -2.07584571838378906250e+00) (90, 7.94706420898437500000e+02) (91, 8.12965148925781250000e+02) (92, 7.77532287597656250000e+02) (93, -3.23843860626220703125e+00) (89, -6.94225430488586425781e-01) (90, 7.90510131835937500000e+02) (91, 8.11984008789062500000e+02) (92, 7.71550170898437500000e+02) (93, -1.78942418098449707031e+00) 
