FANN_FLO_2.1
num_layers=4
learning_rate=1.000000
connection_rate=1.000000
network_type=0
learning_momentum=0.000000
training_algorithm=2
train_error_function=1
train_stop_function=0
cascade_output_change_fraction=0.010000
quickprop_decay=-0.000100
quickprop_mu=1.750000
rprop_increase_factor=1.200000
rprop_decrease_factor=0.500000
rprop_delta_min=0.000000
rprop_delta_max=50.000000
rprop_delta_zero=0.100000
cascade_output_stagnation_epochs=12
cascade_candidate_change_fraction=0.010000
cascade_candidate_stagnation_epochs=12
cascade_max_out_epochs=150
cascade_min_out_epochs=50
cascade_max_cand_epochs=150
cascade_min_cand_epochs=50
cascade_num_candidate_groups=2
bit_fail_limit=3.49999994039535522461e-01
cascade_candidate_limit=1.00000000000000000000e+03
cascade_weight_multiplier=4.00000005960464477539e-01
cascade_activation_functions_count=10
cascade_activation_functions=3 5 7 8 10 11 14 15 16 17 
cascade_activation_steepnesses_count=4
cascade_activation_steepnesses=2.50000000000000000000e-01 5.00000000000000000000e-01 7.50000000000000000000e-01 1.00000000000000000000e+00 
layer_sizes=30 59 5 3 
scale_included=0
neurons (num_inputs, activation_function, activation_steepness)=(0, 0, 0.00000000000000000000e+00) (0, 0, 0.00000000000000000000e+00) (0, 0, 0.00000000000000000000e+00) (0, 0, 0.00000000000000000000e+00) (0, 0, 0.00000000000000000000e+00) (0, 0, 0.00000000000000000000e+00) (0, 0, 0.00000000000000000000e+00) (0, 0, 0.00000000000000000000e+00) (0, 0, 0.00000000000000000000e+00) (0, 0, 0.00000000000000000000e+00) (0, 0, 0.00000000000000000000e+00) (0, 0, 0.00000000000000000000e+00) (0, 0, 0.00000000000000000000e+00) (0, 0, 0.00000000000000000000e+00) (0, 0, 0.00000000000000000000e+00) (0, 0, 0.00000000000000000000e+00) (0, 0, 0.00000000000000000000e+00) (0, 0, 0.00000000000000000000e+00) (0, 0, 0.00000000000000000000e+00) (0, 0, 0.00000000000000000000e+00) (0, 0, 0.00000000000000000000e+00) (0, 0, 0.00000000000000000000e+00) (0, 0, 0.00000000000000000000e+00) (0, 0, 0.00000000000000000000e+00) (0, 0, 0.00000000000000000000e+00) (0, 0, 0.00000000000000000000e+00) (0, 0, 0.00000000000000000000e+00) (0, 0, 0.00000000000000000000e+00) (0, 0, 0.00000000000000000000e+00) (0, 0, 0.00000000000000000000e+00) (30, 4, 5.00000000000000000000e-01) (30, 4, 5.00000000000000000000e-01) (30, 4, 5.00000000000000000000e-01) (30, 4, 5.00000000000000000000e-01) (30, 4, 5.00000000000000000000e-01) (30, 4, 5.00000000000000000000e-01) (30, 4, 5.00000000000000000000e-01) (30, 4, 5.00000000000000000000e-01) (30, 4, 5.00000000000000000000e-01) (30, 4, 5.00000000000000000000e-01) (30, 4, 5.00000000000000000000e-01) (30, 4, 5.00000000000000000000e-01) (30, 4, 5.00000000000000000000e-01) (30, 4, 5.00000000000000000000e-01) (30, 4, 5.00000000000000000000e-01) (30, 4, 5.00000000000000000000e-01) (30, 4, 5.00000000000000000000e-01) (30, 4, 5.00000000000000000000e-01) (30, 4, 5.00000000000000000000e-01) (30, 4, 5.00000000000000000000e-01) (30, 4, 5.00000000000000000000e-01) (30, 4, 5.00000000000000000000e-01) (30, 4, 5.00000000000000000000e-01) (30, 4, 5.00000000000000000000e-01) (30, 4, 5.00000000000000000000e-01) (30, 4, 5.00000000000000000000e-01) (30, 4, 5.00000000000000000000e-01) (30, 4, 5.00000000000000000000e-01) (30, 4, 5.00000000000000000000e-01) (30, 4, 5.00000000000000000000e-01) (30, 4, 5.00000000000000000000e-01) (30, 4, 5.00000000000000000000e-01) (30, 4, 5.00000000000000000000e-01) (30, 4, 5.00000000000000000000e-01) (30, 4, 5.00000000000000000000e-01) (30, 4, 5.00000000000000000000e-01) (30, 4, 5.00000000000000000000e-01) (30, 4, 5.00000000000000000000e-01) (30, 4, 5.00000000000000000000e-01) (30, 4, 5.00000000000000000000e-01) (30, 4, 5.00000000000000000000e-01) (30, 4, 5.00000000000000000000e-01) (30, 4, 5.00000000000000000000e-01) (30, 4, 5.00000000000000000000e-01) (30, 4, 5.00000000000000000000e-01) (30, 4, 5.00000000000000000000e-01) (30, 4, 5.00000000000000000000e-01) (30, 4, 5.00000000000000000000e-01) (30, 4, 5.00000000000000000000e-01) (30, 4, 5.00000000000000000000e-01) (30, 4, 5.00000000000000000000e-01) (30, 4, 5.00000000000000000000e-01) (30, 4, 5.00000000000000000000e-01) (30, 4, 5.00000000000000000000e-01) (30, 4, 5.00000000000000000000e-01) (30, 4, 5.00000000000000000000e-01) (30, 4, 5.00000000000000000000e-01) (30, 4, 5.00000000000000000000e-01) (0, 0, 0.00000000000000000000e+00) (59, 4, 5.00000000000000000000e-01) (59, 4, 5.00000000000000000000e-01) (59, 4, 5.00000000000000000000e-01) (59, 4, 5.00000000000000000000e-01) (0, 0, 0.00000000000000000000e+00) (5, 4, 5.00000000000000000000e-01) (5, 4, 5.00000000000000000000e-01) (0, 0, 0.00000000000000000000e+00) 
connections (connected_to_neuron, weight)=(0, 4.79527600109577178955e-02) (1, 2.99930781126022338867e-01) (2, -4.92121130228042602539e-01) (3, -3.89522872865200042725e-03) (4, -5.22871673107147216797e-01) (5, 7.53737092018127441406e-01) (6, -4.16660010814666748047e-01) (7, -1.23649752140045166016e+00) (8, -8.09461832046508789062e-01) (9, -5.22774219512939453125e-01) (10, -7.28910923004150390625e-01) (11, -3.34501087665557861328e-01) (12, -3.65350008010864257812e-01) (13, -5.20243406295776367188e-01) (14, 5.44178843498229980469e-01) (15, -5.35516202449798583984e-01) (16, 2.97172576189041137695e-01) (17, -5.27900047600269317627e-02) (18, -3.94131779670715332031e-01) (19, 1.58238604664802551270e-01) (20, 3.99746656417846679688e-01) (21, -5.74146032333374023438e-01) (22, 6.81638836860656738281e-01) (23, 4.76726531982421875000e-01) (24, 2.65550464391708374023e-01) (25, -1.06557250022888183594e-01) (26, 6.57195448875427246094e-01) (27, 5.52607059478759765625e-01) (28, -7.38498568534851074219e-01) (29, 1.73740327358245849609e-01) (0, -2.11443766951560974121e-01) (1, 4.85826522111892700195e-01) (2, 1.33448630571365356445e-01) (3, -5.75092732906341552734e-01) (4, 6.01232826709747314453e-01) (5, -2.25217387080192565918e-01) (6, -2.16781333088874816895e-01) (7, 7.64262616634368896484e-01) (8, 2.59601622819900512695e-01) (9, -5.20557820796966552734e-01) (10, -4.53166514635086059570e-01) (11, -8.07130157947540283203e-01) (12, -6.82143986225128173828e-01) (13, -2.80901603400707244873e-02) (14, 7.34426259994506835938e-01) (15, -5.45871317386627197266e-01) (16, 2.41068944334983825684e-01) (17, 4.85782563686370849609e-01) (18, 2.36178711056709289551e-01) (19, -3.43575328588485717773e-01) (20, 3.53246629238128662109e-01) (21, -7.58198738098144531250e-01) (22, 2.91242063045501708984e-01) (23, -6.14667177200317382812e-01) (24, -8.57831478118896484375e-01) (25, -1.44622862339019775391e-01) (26, 8.38878825306892395020e-02) (27, 6.14769577980041503906e-01) (28, 2.41717860102653503418e-01) (29, -3.80738638341426849365e-02) (0, 3.80761146545410156250e-01) (1, -6.49847447872161865234e-01) (2, -4.98683899641036987305e-01) (3, -6.44581139087677001953e-01) (4, -7.07682788372039794922e-01) (5, -6.91509783267974853516e-01) (6, -2.63809084892272949219e-01) (7, -4.26084190607070922852e-01) (8, -1.47401943802833557129e-01) (9, -3.60798537731170654297e-01) (10, 7.29910433292388916016e-01) (11, 5.19187510013580322266e-01) (12, 5.87471604347229003906e-01) (13, -7.21908688545227050781e-01) (14, -5.05500912666320800781e-01) (15, -1.82896763086318969727e-01) (16, -7.11921835318207740784e-03) (17, 3.27197670936584472656e-01) (18, -6.04732573032379150391e-01) (19, 5.92675328254699707031e-01) (20, -6.84427678585052490234e-01) (21, 3.75871270895004272461e-01) (22, -6.41248703002929687500e-01) (23, -3.00784498453140258789e-01) (24, 6.59642994403839111328e-01) (25, 1.17627620697021484375e-01) (26, -5.52074015140533447266e-01) (27, 2.36201599240303039551e-01) (28, 2.40312695503234863281e-01) (29, 2.26711735129356384277e-01) (0, 4.29411679506301879883e-02) (1, 5.33553183078765869141e-01) (2, 2.05869734287261962891e-01) (3, 6.14417076110839843750e-01) (4, 7.70436346530914306641e-01) (5, -1.67504087090492248535e-01) (6, -2.13999912142753601074e-01) (7, 1.35723936557769775391e+00) (8, 3.46705496311187744141e-01) (9, -2.24014207720756530762e-01) (10, 6.90957665443420410156e-01) (11, 2.78502494096755981445e-01) (12, 3.27009052038192749023e-01) (13, 4.49320316314697265625e-01) (14, -1.07712186872959136963e-01) (15, -4.73866432905197143555e-01) (16, -6.02550685405731201172e-01) (17, 5.25870621204376220703e-01) (18, -4.44101840257644653320e-01) (19, -4.95971620082855224609e-01) (20, 4.89710599184036254883e-01) (21, 4.98524725437164306641e-01) (22, 4.70854997634887695312e-01) (23, -6.51764035224914550781e-01) (24, 1.78552195429801940918e-02) (25, -1.23945057392120361328e-01) (26, -6.59796178340911865234e-01) (27, -3.65716844797134399414e-01) (28, 3.20639222860336303711e-01) (29, -3.38335782289505004883e-01) (0, 3.50113213062286376953e-01) (1, 3.61578583717346191406e-01) (2, 4.84634846448898315430e-01) (3, 6.98837161064147949219e-01) (4, -4.77710664272308349609e-01) (5, -5.94887025654315948486e-02) (6, -6.84898555278778076172e-01) (7, 2.70990967750549316406e+00) (8, 3.85594129562377929688e-01) (9, -2.49005243182182312012e-01) (10, -8.04802775382995605469e-01) (11, -6.81430459022521972656e-01) (12, -4.87543970346450805664e-01) (13, -9.51315537095069885254e-02) (14, 4.95213925838470458984e-01) (15, -5.12103497982025146484e-01) (16, -1.42270579934120178223e-01) (17, 8.01288247108459472656e-01) (18, -2.42818534374237060547e-01) (19, 5.03478109836578369141e-01) (20, -2.84953057765960693359e-01) (21, 3.70209142565727233887e-02) (22, 5.41108191013336181641e-01) (23, -3.48310977220535278320e-01) (24, -8.26137900352478027344e-01) (25, 2.12023079395294189453e-01) (26, -6.47970914840698242188e-01) (27, -6.31141722202301025391e-01) (28, 6.33807897567749023438e-01) (29, 1.74547195434570312500e-01) (0, -7.04713582992553710938e-01) (1, 6.50624632835388183594e-01) (2, 6.89186215400695800781e-01) (3, 4.95435833930969238281e-01) (4, 4.06481862068176269531e-01) (5, 2.79736459255218505859e-01) (6, 2.24726870656013488770e-01) (7, -2.93151831626892089844e+00) (8, 4.98683154582977294922e-01) (9, 5.12143783271312713623e-02) (10, -2.07212164998054504395e-01) (11, 3.49501401185989379883e-01) (12, 4.57343786954879760742e-01) (13, -4.64061409235000610352e-01) (14, 4.85687613487243652344e-01) (15, 1.51480585336685180664e-01) (16, 1.40701159834861755371e-01) (17, -3.29204142093658447266e-01) (18, 7.73547962307929992676e-02) (19, 8.39711055159568786621e-02) (20, 6.68183326721191406250e-01) (21, -2.37026214599609375000e-01) (22, 5.82222402095794677734e-01) (23, -2.02639639377593994141e-01) (24, -7.84568071365356445312e-01) (25, 2.83260464668273925781e-01) (26, -7.32513070106506347656e-01) (27, 3.30307900905609130859e-01) (28, 4.78575974702835083008e-01) (29, 1.63385868072509765625e-01) (0, -3.87549161911010742188e-01) (1, 1.32341668009757995605e-01) (2, -4.43464279174804687500e-01) (3, 7.59879112243652343750e-01) (4, -4.37930971384048461914e-01) (5, 3.06078523397445678711e-01) (6, -2.81886309385299682617e-01) (7, 6.09910488128662109375e-01) (8, -1.30575612187385559082e-01) (9, 1.57895162701606750488e-01) (10, 2.91774868965148925781e-01) (11, 5.89705049991607666016e-01) (12, 2.55187213420867919922e-01) (13, 2.79380887746810913086e-01) (14, -2.69795116037130355835e-02) (15, 3.29434424638748168945e-01) (16, -2.62587010860443115234e-01) (17, 5.16080141067504882812e-01) (18, -6.28035441040992736816e-02) (19, -5.86620092391967773438e-01) (20, 1.07272686436772346497e-02) (21, 4.46462243795394897461e-01) (22, -3.98028731346130371094e-01) (23, -1.34496450424194335938e-01) (24, -1.64824247360229492188e-01) (25, 5.77145814895629882812e-02) (26, 2.00882375240325927734e-01) (27, -7.52395451068878173828e-01) (28, -4.63858805596828460693e-03) (29, 2.03238800168037414551e-01) (0, -1.57668247818946838379e-01) (1, 2.43709668517112731934e-01) (2, -2.94791132211685180664e-01) (3, 6.67486712336540222168e-02) (4, -6.07567280530929565430e-02) (5, 3.97800654172897338867e-01) (6, 4.31667178869247436523e-01) (7, -3.50588297843933105469e+00) (8, -2.81679660081863403320e-01) (9, 2.25784510374069213867e-01) (10, -3.62130314111709594727e-01) (11, 7.33033239841461181641e-01) (12, 5.34971654415130615234e-01) (13, -1.86217650771141052246e-01) (14, 1.52297690510749816895e-01) (15, -1.99250102043151855469e-01) (16, 3.91843795776367187500e-01) (17, -9.38699305057525634766e-01) (18, -6.94354951381683349609e-01) (19, 4.43084150552749633789e-01) (20, -5.88176846504211425781e-01) (21, 3.88385713100433349609e-01) (22, 4.36178356409072875977e-01) (23, 2.50738859176635742188e-01) (24, 2.46327117085456848145e-01) (25, -6.39769732952117919922e-01) (26, 3.69798928499221801758e-01) (27, 3.91636751592159271240e-02) (28, 3.35713237524032592773e-01) (29, 1.16730600595474243164e-01) (0, -6.02784991264343261719e-01) (1, 4.87447500228881835938e-01) (2, 6.25324010848999023438e-01) (3, 2.84464806318283081055e-01) (4, -1.30387440323829650879e-01) (5, -1.49495199322700500488e-01) (6, 5.16896486282348632812e-01) (7, -1.54419243335723876953e+00) (8, -1.78364247083663940430e-01) (9, -2.20473498106002807617e-01) (10, -1.87721922993659973145e-01) (11, -3.32740657031536102295e-02) (12, 3.36518764495849609375e-01) (13, 3.21671932935714721680e-01) (14, 1.28902941942214965820e-01) (15, -4.80276942253112792969e-01) (16, 3.66149283945560455322e-02) (17, 6.72675430774688720703e-01) (18, 6.84544086456298828125e-01) (19, -1.20657980442047119141e-01) (20, -1.77435278892517089844e-01) (21, -3.52064013481140136719e-01) (22, -6.32814228534698486328e-01) (23, -5.24233400821685791016e-01) (24, -1.26000583171844482422e-01) (25, -5.53505301475524902344e-01) (26, -2.21908986568450927734e-01) (27, -1.97766974568367004395e-01) (28, -2.84354418516159057617e-01) (29, -3.22129279375076293945e-02) (0, -8.39180275797843933105e-02) (1, -4.66288154711946845055e-04) (2, 4.40575003623962402344e-01) (3, -2.19771757721900939941e-01) (4, 2.54260003566741943359e-01) (5, -2.70524591207504272461e-01) (6, 2.16038003563880920410e-01) (7, -5.54196774959564208984e-01) (8, 6.01696491241455078125e-01) (9, -3.37327063083648681641e-01) (10, -9.04511928558349609375e-01) (11, -1.58089220523834228516e-01) (12, -4.24343943595886230469e-01) (13, -3.86159390211105346680e-01) (14, 7.33042582869529724121e-02) (15, 1.65498897433280944824e-01) (16, 3.70888441801071166992e-01) (17, 3.03151667118072509766e-01) (18, -4.10726927220821380615e-02) (19, 3.23378801345825195312e-01) (20, 4.00404244661331176758e-01) (21, 4.25064451992511749268e-02) (22, 3.68499875068664550781e-01) (23, -6.95059061050415039062e-01) (24, 5.12344658374786376953e-01) (25, -6.59252166748046875000e-01) (26, 1.45226582884788513184e-01) (27, 3.47955465316772460938e-01) (28, 2.25424524396657943726e-02) (29, -6.03368103504180908203e-01) (0, 6.85269832611083984375e-01) (1, 6.93130135536193847656e-01) (2, 5.16995549201965332031e-01) (3, -4.00515139102935791016e-01) (4, -2.44414255023002624512e-01) (5, -5.65019011497497558594e-01) (6, 7.10511088371276855469e-01) (7, 7.15187251567840576172e-01) (8, 7.39399313926696777344e-01) (9, -3.56965422630310058594e-01) (10, 7.28705942630767822266e-01) (11, 1.53833702206611633301e-01) (12, 1.94605499505996704102e-01) (13, 1.73762753605842590332e-01) (14, 5.26997983455657958984e-01) (15, -1.01225841045379638672e+00) (16, 5.30413806438446044922e-01) (17, 1.73833444714546203613e-01) (18, 5.49658596515655517578e-01) (19, -5.22554218769073486328e-01) (20, -5.45185685157775878906e-01) (21, 9.88997146487236022949e-02) (22, 4.01463806629180908203e-01) (23, -2.91698187589645385742e-01) (24, -5.88439106941223144531e-01) (25, 7.54145860671997070312e-01) (26, -7.62020826339721679688e-01) (27, 5.38930177688598632812e-01) (28, -3.47925096750259399414e-01) (29, 2.49488681554794311523e-01) (0, 5.27555227279663085938e-01) (1, 2.96432465314865112305e-01) (2, -5.57130932807922363281e-01) (3, -5.75746417045593261719e-01) (4, -1.45331308245658874512e-01) (5, 6.15290045738220214844e-01) (6, 3.49181383848190307617e-01) (7, -3.94303739070892333984e-01) (8, -6.78094625473022460938e-01) (9, 2.20627278089523315430e-01) (10, 7.50172019004821777344e-01) (11, -4.25271928310394287109e-01) (12, 4.46674853563308715820e-01) (13, 7.31844246387481689453e-01) (14, -1.10193444415926933289e-02) (15, 3.90962064266204833984e-01) (16, -1.59362945705652236938e-02) (17, -1.62024766206741333008e-01) (18, 4.34919834136962890625e-01) (19, 7.68573045730590820312e-01) (20, 2.25661695003509521484e-01) (21, -8.14918935298919677734e-01) (22, -6.02886855602264404297e-01) (23, -5.77726006507873535156e-01) (24, 5.41847534477710723877e-02) (25, -2.30558514595031738281e-02) (26, -3.35563689470291137695e-01) (27, 7.58859694004058837891e-01) (28, -4.20581884682178497314e-02) (29, -1.43217787146568298340e-01) (0, 4.21355664730072021484e-01) (1, -4.88994508981704711914e-01) (2, 6.69662535190582275391e-01) (3, 1.36842414736747741699e-01) (4, -5.31545400619506835938e-01) (5, 9.13000553846359252930e-02) (6, 3.60315889120101928711e-01) (7, 1.65310645103454589844e+00) (8, 3.44005529768764972687e-03) (9, -5.03150343894958496094e-01) (10, 8.78276348114013671875e-01) (11, -6.72605335712432861328e-01) (12, 7.16335535049438476562e-01) (13, -2.67807126045227050781e-01) (14, -2.79088109731674194336e-01) (15, 1.37982115149497985840e-01) (16, -6.33948802947998046875e-01) (17, -5.60437180101871490479e-02) (18, -2.91833430528640747070e-01) (19, -1.32953271269798278809e-01) (20, -3.62508371472358703613e-02) (21, 3.79191130399703979492e-01) (22, 4.69813257455825805664e-01) (23, 1.74535572528839111328e-01) (24, -2.60602951049804687500e-01) (25, -5.81856489181518554688e-01) (26, 1.93087160587310791016e-01) (27, 1.93435207009315490723e-01) (28, -3.17491829395294189453e-01) (29, 6.91575527191162109375e-01) (0, -6.77926898002624511719e-01) (1, -1.56123444437980651855e-01) (2, 1.14560700953006744385e-01) (3, 1.77343159914016723633e-01) (4, 6.81696176528930664062e-01) (5, 3.96915346384048461914e-01) (6, -1.97826281189918518066e-01) (7, -1.30709195137023925781e+00) (8, 7.93220996856689453125e-01) (9, 2.50895619392395019531e-01) (10, -7.58031368255615234375e-01) (11, -9.99283790588378906250e-02) (12, -2.92792648077011108398e-01) (13, -4.72348839044570922852e-01) (14, 3.83520275354385375977e-01) (15, -4.77980971336364746094e-01) (16, -2.78861343860626220703e-01) (17, -1.81307420134544372559e-02) (18, 3.35002422332763671875e-01) (19, -4.87435340881347656250e-01) (20, -4.48714852333068847656e-01) (21, 2.45702847838401794434e-01) (22, 7.50793993473052978516e-01) (23, -2.86495089530944824219e-02) (24, 3.11907023191452026367e-01) (25, -9.33150053024291992188e-02) (26, -7.95666515827178955078e-01) (27, 6.91736862063407897949e-02) (28, -4.66197192668914794922e-01) (29, 2.80721455812454223633e-01) (0, -1.59481260925531387329e-02) (1, -3.06746065616607666016e-01) (2, -3.93619447946548461914e-01) (3, 6.96003019809722900391e-01) (4, -2.27380037307739257812e-01) (5, 6.06221497058868408203e-01) (6, -2.58076339960098266602e-01) (7, 1.47523105144500732422e+00) (8, 6.47698223590850830078e-01) (9, -3.45508188009262084961e-01) (10, 2.73130387067794799805e-01) (11, 1.08674198389053344727e-01) (12, -4.53121304512023925781e-01) (13, 7.67736792564392089844e-01) (14, 2.34763517975807189941e-01) (15, 2.29178756475448608398e-01) (16, -4.17333453893661499023e-01) (17, -3.60305279493331909180e-01) (18, 5.46705424785614013672e-01) (19, 5.53515786305069923401e-03) (20, 5.49357116222381591797e-01) (21, 2.90168792009353637695e-01) (22, 1.44941940903663635254e-01) (23, 1.59442424774169921875e-01) (24, -1.50121778249740600586e-01) (25, 1.02224051952362060547e-01) (26, -6.63957059383392333984e-01) (27, 1.46468132734298706055e-01) (28, -1.97494357824325561523e-01) (29, -9.08613279461860656738e-02) (0, -8.75247176736593246460e-03) (1, -3.23466360569000244141e-01) (2, 5.13137988746166229248e-02) (3, 8.06610733270645141602e-02) (4, -7.01403915882110595703e-01) (5, 4.01875674724578857422e-01) (6, -2.93039798736572265625e-01) (7, 9.32423099875450134277e-02) (8, -6.10280930995941162109e-01) (9, -3.20253908634185791016e-01) (10, 2.21424221992492675781e-01) (11, 9.87188279628753662109e-01) (12, 4.87863838672637939453e-01) (13, -1.22248865664005279541e-01) (14, 5.79821288585662841797e-01) (15, 2.27098446339368820190e-03) (16, 3.33978176116943359375e-01) (17, -8.27344119548797607422e-01) (18, -4.21001315116882324219e-01) (19, 2.50040113925933837891e-01) (20, 5.26828691363334655762e-02) (21, -4.02298629283905029297e-01) (22, 2.81254559755325317383e-01) (23, 3.92884254455566406250e-01) (24, 5.21025992929935455322e-02) (25, -5.35491704940795898438e-02) (26, 6.71585559844970703125e-01) (27, -5.34951865673065185547e-01) (28, -6.35150849819183349609e-01) (29, 4.01964962482452392578e-01) (0, -2.36272260546684265137e-01) (1, 2.51207023859024047852e-01) (2, -5.19848465919494628906e-01) (3, -4.24102514982223510742e-01) (4, -6.30535066127777099609e-01) (5, 5.72231352329254150391e-01) (6, -5.07358253002166748047e-01) (7, -3.89626812934875488281e+00) (8, 6.21092200279235839844e-01) (9, 4.85090613365173339844e-01) (10, 1.18110172450542449951e-01) (11, 2.82181594520807266235e-02) (12, 6.82949542999267578125e-01) (13, 2.87946134805679321289e-01) (14, 7.01941549777984619141e-01) (15, 4.56441938877105712891e-01) (16, -6.12769663333892822266e-01) (17, -7.94075489044189453125e-01) (18, -3.10746043920516967773e-01) (19, -1.02308988571166992188e-01) (20, -4.69051927328109741211e-01) (21, -5.11479936540126800537e-02) (22, -2.98296838998794555664e-01) (23, -2.49145984649658203125e-01) (24, 2.05487236380577087402e-02) (25, 6.28382802009582519531e-01) (26, -4.72744442522525787354e-02) (27, 4.44385558366775512695e-01) (28, 3.60663831233978271484e-01) (29, -9.46100056171417236328e-02) (0, 5.06904274225234985352e-02) (1, 3.35184663534164428711e-01) (2, 2.43674963712692260742e-01) (3, 1.56115502119064331055e-01) (4, 1.98027998208999633789e-01) (5, 5.03965139389038085938e-01) (6, -3.89385759830474853516e-01) (7, 2.18386602401733398438e+00) (8, -9.10978198051452636719e-01) (9, -1.97803318500518798828e-01) (10, 1.50929450988769531250e-01) (11, 6.63531005382537841797e-01) (12, 4.78400558233261108398e-01) (13, -1.72405615448951721191e-01) (14, 2.78293967247009277344e-01) (15, -3.95255446434020996094e-01) (16, -3.05671840906143188477e-01) (17, -8.78472849726676940918e-02) (18, -5.89663684368133544922e-01) (19, 7.48702943325042724609e-01) (20, -4.32321459054946899414e-01) (21, 5.03906309604644775391e-01) (22, -1.40585958957672119141e-01) (23, 2.62776255607604980469e-01) (24, -3.09259712696075439453e-01) (25, -4.79606270790100097656e-01) (26, 5.54270684719085693359e-01) (27, 6.55233919620513916016e-01) (28, 5.85666671395301818848e-02) (29, 9.52970907092094421387e-02) (0, -5.72050809860229492188e-01) (1, 4.16618585586547851562e-01) (2, 6.75570368766784667969e-01) (3, 5.40751397609710693359e-01) (4, 5.52611768245697021484e-01) (5, -7.29351222515106201172e-01) (6, 2.22502887248992919922e-01) (7, -2.34746026992797851562e+00) (8, 6.18707835674285888672e-01) (9, 1.71386167407035827637e-01) (10, 2.41832718253135681152e-01) (11, 1.48182764649391174316e-01) (12, 7.26504698395729064941e-02) (13, -3.09564203023910522461e-01) (14, -6.43941998481750488281e-01) (15, 4.00572836399078369141e-01) (16, -3.51204216480255126953e-01) (17, 6.76123142242431640625e-01) (18, -7.46878921985626220703e-01) (19, 1.69321909546852111816e-01) (20, -8.17240059375762939453e-01) (21, -8.71021151542663574219e-02) (22, -2.73297697305679321289e-01) (23, -3.06578457355499267578e-01) (24, -3.13001573085784912109e-01) (25, 6.75475239753723144531e-01) (26, 2.39693865180015563965e-01) (27, -2.55142539739608764648e-01) (28, 5.97472190856933593750e-01) (29, 4.41700220108032226562e-01) (0, -7.05841898918151855469e-01) (1, -2.87454873323440551758e-01) (2, 1.83274000883102416992e-01) (3, -4.37234103679656982422e-01) (4, -5.56975603103637695312e-01) (5, 6.10750913619995117188e-01) (6, 3.23181995190680027008e-03) (7, 1.59646302461624145508e-01) (8, -6.47898316383361816406e-01) (9, -3.47650498151779174805e-01) (10, 6.29928648471832275391e-01) (11, 3.30620437860488891602e-01) (12, 3.69118779897689819336e-01) (13, 5.23876965045928955078e-01) (14, -7.00195729732513427734e-01) (15, -1.08863599598407745361e-01) (16, 4.31322485208511352539e-01) (17, -5.09748995304107666016e-01) (18, -6.08840823173522949219e-01) (19, -2.61897921562194824219e-01) (20, -4.32141065597534179688e-01) (21, 2.55673766136169433594e-01) (22, 1.60013645887374877930e-01) (23, 6.52358651161193847656e-01) (24, -6.47830188274383544922e-01) (25, -5.95429062843322753906e-01) (26, -5.69205999374389648438e-01) (27, -1.37132480740547180176e-01) (28, 1.33430466055870056152e-01) (29, -5.11527836322784423828e-01) (0, 7.50559210777282714844e-01) (1, -5.83804011344909667969e-01) (2, -9.91936493664979934692e-03) (3, 3.57640050351619720459e-02) (4, 7.36824393272399902344e-01) (5, 5.12959361076354980469e-01) (6, -2.10665151476860046387e-01) (7, -9.49980437755584716797e-01) (8, -6.67309045791625976562e-01) (9, 5.83772361278533935547e-02) (10, -3.87660980224609375000e-01) (11, 2.50245720148086547852e-01) (12, 6.87014937400817871094e-01) (13, 1.94159016013145446777e-01) (14, -4.31151092052459716797e-01) (15, 2.74250596761703491211e-01) (16, -1.86689525842666625977e-01) (17, -6.67316317558288574219e-01) (18, -6.74241065979003906250e-01) (19, 4.64881002902984619141e-01) (20, -1.28952994942665100098e-01) (21, -7.50345038250088691711e-03) (22, 2.71193385124206542969e-01) (23, -3.46479773521423339844e-01) (24, 6.17952823638916015625e-01) (25, -7.67224788665771484375e-01) (26, 5.09553313255310058594e-01) (27, -6.54183864593505859375e-01) (28, 4.74118143320083618164e-01) (29, -5.31418994069099426270e-02) (0, -3.83374869823455810547e-01) (1, -2.88584351539611816406e-01) (2, 4.23781067132949829102e-01) (3, 1.76919817924499511719e-01) (4, -5.05338966846466064453e-01) (5, 6.93510532379150390625e-01) (6, 3.92846107482910156250e-01) (7, 5.44076323509216308594e-01) (8, -2.23089065402746200562e-02) (9, -2.08890229463577270508e-01) (10, 1.87200903892517089844e-01) (11, 3.36333155632019042969e-01) (12, 6.75236761569976806641e-01) (13, 6.99378609657287597656e-01) (14, 2.70095411688089370728e-02) (15, 6.13745868206024169922e-01) (16, -5.87078183889389038086e-02) (17, 6.58092617988586425781e-01) (18, 1.61512345075607299805e-01) (19, -7.76070579886436462402e-02) (20, -3.11885535717010498047e-01) (21, -1.78040742874145507812e-01) (22, -2.60696679353713989258e-01) (23, 5.12118935585021972656e-01) (24, -6.42927646636962890625e-01) (25, -3.34097474813461303711e-01) (26, -3.77725660800933837891e-02) (27, 2.59546071290969848633e-01) (28, -5.69058239459991455078e-01) (29, -8.65407168865203857422e-01) (0, -2.53327220678329467773e-01) (1, 4.81965810060501098633e-01) (2, -7.03743159770965576172e-01) (3, 4.07127290964126586914e-02) (4, -3.52097570896148681641e-01) (5, 6.46151125431060791016e-01) (6, 5.19775971770286560059e-02) (7, -2.83606338500976562500e+00) (8, -8.17637324333190917969e-01) (9, 3.51853847503662109375e-01) (10, 1.73809096217155456543e-01) (11, 1.51078656315803527832e-01) (12, -2.27162241935729980469e-02) (13, 5.68028569221496582031e-01) (14, 5.20610690116882324219e-01) (15, 5.11381268501281738281e-01) (16, -9.92531061172485351562e-01) (17, 3.49081635475158691406e-01) (18, -5.79112589359283447266e-01) (19, 2.24503070116043090820e-01) (20, -4.09690916538238525391e-01) (21, 7.67645835876464843750e-02) (22, 6.27043426036834716797e-01) (23, -6.75477564334869384766e-01) (24, -2.60441213846206665039e-01) (25, 3.80150556564331054688e-01) (26, 5.39625465869903564453e-01) (27, 4.27443981170654296875e-01) (28, -6.85949206352233886719e-01) (29, 2.48864397406578063965e-01) (0, -4.50043886899948120117e-01) (1, -7.29034185409545898438e-01) (2, -6.09984099864959716797e-01) (3, 7.19550430774688720703e-01) (4, -3.87278765439987182617e-01) (5, 2.20195483416318893433e-02) (6, -2.77103722095489501953e-01) (7, 1.85200348496437072754e-02) (8, -5.59976339340209960938e-01) (9, -3.63157868385314941406e-01) (10, -2.95580297708511352539e-01) (11, 4.70906406641006469727e-01) (12, -4.37302440404891967773e-02) (13, -5.55437564849853515625e-01) (14, -5.88477075099945068359e-01) (15, -4.24384884536266326904e-02) (16, 7.81616866588592529297e-02) (17, 6.14202879369258880615e-02) (18, 3.05586487054824829102e-01) (19, 7.31693446636199951172e-01) (20, 1.17102861404418945312e-01) (21, -6.46540820598602294922e-01) (22, -7.63658940792083740234e-01) (23, -2.00199961662292480469e-01) (24, -7.14877307415008544922e-01) (25, 9.28059220314025878906e-02) (26, -4.88813191652297973633e-01) (27, 6.65185332298278808594e-01) (28, 1.67282521724700927734e-01) (29, 3.44057917594909667969e-01) (0, -4.70960587263107299805e-01) (1, 5.37957847118377685547e-01) (2, -3.72162740677595138550e-03) (3, -7.10972964763641357422e-01) (4, 4.09754872322082519531e-01) (5, -5.54075181484222412109e-01) (6, -3.29249352216720581055e-01) (7, -1.32567751407623291016e+00) (8, -5.03676116466522216797e-01) (9, 2.98721373081207275391e-01) (10, -1.10633397102355957031e+00) (11, 1.02511417865753173828e+00) (12, 9.33825150132179260254e-02) (13, 2.82601058483123779297e-01) (14, 4.69565153121948242188e-01) (15, -4.69787836074829101562e-01) (16, 6.25627338886260986328e-02) (17, -1.63156017661094665527e-01) (18, 4.53395664691925048828e-01) (19, -2.95179128646850585938e-01) (20, 2.66853421926498413086e-02) (21, -4.32763129472732543945e-01) (22, 7.97011107206344604492e-02) (23, -8.17887783050537109375e-02) (24, -3.85235786437988281250e-01) (25, 3.05895805358886718750e-01) (26, -3.45875650644302368164e-01) (27, 3.00207108259201049805e-01) (28, 4.93039041757583618164e-01) (29, 2.15997874736785888672e-01) (0, -7.67650365829467773438e-01) (1, 6.80141210556030273438e-01) (2, 2.08756104111671447754e-01) (3, -4.89413321018218994141e-01) (4, -4.69774812459945678711e-01) (5, 4.37785744667053222656e-01) (6, -3.31730067729949951172e-01) (7, -3.85754793882369995117e-01) (8, -4.66925710439682006836e-01) (9, 2.46360570192337036133e-01) (10, -2.49530881643295288086e-01) (11, 1.55002310872077941895e-01) (12, -3.56236249208450317383e-01) (13, -6.85591876506805419922e-01) (14, 6.69482767581939697266e-01) (15, -5.21333456039428710938e-01) (16, 2.05296516418457031250e-01) (17, -6.96387410163879394531e-01) (18, -1.46135360002517700195e-01) (19, -1.28030553460121154785e-01) (20, -7.34776318073272705078e-01) (21, -1.73959270119667053223e-01) (22, 5.73839545249938964844e-01) (23, -2.50624775886535644531e-01) (24, -4.31966245174407958984e-01) (25, 7.34291195869445800781e-01) (26, -3.08736145496368408203e-01) (27, 7.69032776355743408203e-01) (28, 5.56067705154418945312e-01) (29, -7.21918344497680664062e-01) (0, 4.99262243509292602539e-01) (1, -7.28993177413940429688e-01) (2, -4.28348928689956665039e-01) (3, 7.40372776985168457031e-01) (4, -6.35087609291076660156e-01) (5, -3.76067869365215301514e-02) (6, 2.96700865030288696289e-01) (7, 3.27171474695205688477e-01) (8, -3.80031973123550415039e-01) (9, -5.90414404869079589844e-01) (10, -3.16581547260284423828e-01) (11, -7.19279229640960693359e-01) (12, 1.88990533351898193359e-01) (13, 2.99093961715698242188e-01) (14, 8.04253578186035156250e-01) (15, -2.54761934280395507812e-01) (16, -6.59399390220642089844e-01) (17, 7.05803930759429931641e-01) (18, 3.33496093750000000000e-01) (19, -6.60165131092071533203e-01) (20, -4.31724548339843750000e-01) (21, 7.08437383174896240234e-01) (22, -3.20563837885856628418e-02) (23, -4.83339458703994750977e-01) (24, 4.14457321166992187500e-01) (25, -2.45845377445220947266e-01) (26, 6.27410650253295898438e-01) (27, -6.80512070655822753906e-01) (28, -1.44169062376022338867e-01) (29, -5.54771088063716888428e-02) (0, -4.71056580543518066406e-01) (1, 3.21178615093231201172e-01) (2, 1.09518706798553466797e-01) (3, -2.03693643212318420410e-01) (4, -3.74363720417022705078e-01) (5, -5.70569038391113281250e-01) (6, 1.17270939052104949951e-01) (7, -5.34775614738464355469e-01) (8, -2.31542184948921203613e-01) (9, 6.13161027431488037109e-01) (10, -4.83213335275650024414e-01) (11, -8.27484503388404846191e-02) (12, 1.96132838726043701172e-01) (13, 6.37559652328491210938e-01) (14, -8.58703926205635070801e-02) (15, 4.09353941679000854492e-01) (16, 2.86779135465621948242e-01) (17, 3.93633067607879638672e-01) (18, 2.15517014265060424805e-01) (19, 4.59776818752288818359e-01) (20, -6.99158370494842529297e-01) (21, -5.59795200824737548828e-01) (22, 3.06743115186691284180e-01) (23, -7.24627315998077392578e-01) (24, -1.79411470890045166016e-01) (25, 1.18061661720275878906e-01) (26, 7.31610715389251708984e-01) (27, -4.08311069011688232422e-01) (28, -3.99848297238349914551e-02) (29, -3.91901791095733642578e-01) (0, -4.62093293666839599609e-01) (1, 1.80887266993522644043e-01) (2, -4.96837906539440155029e-02) (3, -6.70931160449981689453e-01) (4, -5.38345634937286376953e-01) (5, -2.01226890087127685547e-01) (6, 4.00383085012435913086e-01) (7, -8.08347702026367187500e-01) (8, -6.67019113898277282715e-02) (9, -3.32231491804122924805e-01) (10, 5.51098227500915527344e-01) (11, 5.28474032878875732422e-01) (12, 2.44338572025299072266e-01) (13, 1.68333053588867187500e-01) (14, 5.28386533260345458984e-01) (15, -7.26101696491241455078e-01) (16, 9.18578058481216430664e-02) (17, -2.50000774860382080078e-01) (18, 2.65996247529983520508e-01) (19, -1.27552077174186706543e-01) (20, -2.81249713152647018433e-02) (21, 4.36641246080398559570e-01) (22, -2.06137504428625106812e-02) (23, -6.90382182598114013672e-01) (24, 4.05881822109222412109e-01) (25, -2.09910452365875244141e-01) (26, -1.17164969444274902344e-01) (27, 1.44261404871940612793e-01) (28, -2.14863583445549011230e-01) (29, 1.52653425931930541992e-01) (0, -2.87887126207351684570e-01) (1, 6.91888809204101562500e-01) (2, -3.52452129125595092773e-01) (3, 1.45175501704216003418e-01) (4, 2.32426360249519348145e-01) (5, -6.01167738437652587891e-01) (6, 1.92871972918510437012e-01) (7, -5.70172011852264404297e-01) (8, -9.91622447967529296875e-01) (9, 6.77199065685272216797e-01) (10, 6.17080628871917724609e-01) (11, 2.18848705291748046875e-01) (12, 4.65199023485183715820e-01) (13, 5.85934996604919433594e-01) (14, -1.03890851140022277832e-01) (15, -6.57437503337860107422e-01) (16, -4.13186311721801757812e-01) (17, -6.26992285251617431641e-01) (18, 3.22313420474529266357e-02) (19, -6.69611990451812744141e-01) (20, -3.89571428298950195312e-01) (21, 4.73830819129943847656e-01) (22, 1.63505747914314270020e-02) (23, -6.57831013202667236328e-01) (24, -4.01952892541885375977e-01) (25, 2.08297252655029296875e-01) (26, -1.59522563219070434570e-01) (27, -6.56067192554473876953e-01) (28, -2.17130064964294433594e-01) (29, 5.23182809352874755859e-01) (0, 3.38600188493728637695e-01) (1, -3.14248710870742797852e-01) (2, -4.32993113994598388672e-01) (3, -8.43478664755821228027e-02) (4, 1.43776491284370422363e-01) (5, -4.70019847154617309570e-01) (6, -3.36807787418365478516e-01) (7, 3.89207750558853149414e-01) (8, 2.85923451185226440430e-01) (9, -6.95687949657440185547e-01) (10, -7.92732000350952148438e-01) (11, -8.50860625505447387695e-02) (12, -1.57464608550071716309e-01) (13, 7.20989346504211425781e-01) (14, 9.05519053339958190918e-02) (15, 2.72648215293884277344e-01) (16, 3.06648582220077514648e-01) (17, -1.05816507339477539062e+00) (18, 7.45517760515213012695e-02) (19, 3.92483264207839965820e-01) (20, 1.46395415067672729492e-02) (21, -4.33904081583023071289e-01) (22, 6.00093901157379150391e-01) (23, -2.58837163448333740234e-01) (24, -4.85341101884841918945e-01) (25, 4.89823698997497558594e-01) (26, -1.91845238208770751953e-01) (27, 2.58640676736831665039e-01) (28, 1.62250757217407226562e-01) (29, 3.90910714864730834961e-01) (0, 8.44882011413574218750e-01) (1, -5.61360120773315429688e-01) (2, 2.48334839940071105957e-01) (3, 3.48470181226730346680e-01) (4, -2.68309623003005981445e-01) (5, -2.16075330972671508789e-02) (6, -7.02782213687896728516e-01) (7, 2.47499704360961914062e+00) (8, 5.12882053852081298828e-01) (9, -1.50317281484603881836e-01) (10, -4.06685173511505126953e-01) (11, 8.15464675426483154297e-01) (12, -5.19123733043670654297e-01) (13, -2.61567860841751098633e-01) (14, 5.36391258239746093750e-01) (15, -6.12753450870513916016e-01) (16, 2.12840184569358825684e-01) (17, -4.62970912456512451172e-01) (18, -2.79625296592712402344e-01) (19, 5.90790271759033203125e-01) (20, -6.50529414415359497070e-02) (21, 3.42124700546264648438e-01) (22, -1.12399540375918149948e-03) (23, -5.66606879234313964844e-01) (24, -6.11912012100219726562e-01) (25, -2.91322946548461914062e-01) (26, 4.51686143875122070312e-01) (27, -2.34138101339340209961e-01) (28, 3.87300461530685424805e-01) (29, 4.65092509984970092773e-01) (0, -5.50163805484771728516e-01) (1, 7.04614698886871337891e-01) (2, 2.63256222009658813477e-01) (3, 4.22519832849502563477e-01) (4, 7.05002844333648681641e-01) (5, 7.63499438762664794922e-01) (6, -1.94052141159772872925e-02) (7, -2.57314658164978027344e+00) (8, -5.09579122066497802734e-01) (9, 4.76884961128234863281e-01) (10, -3.71091842651367187500e-01) (11, -4.10687297582626342773e-01) (12, 2.42403984069824218750e-01) (13, 9.68960374593734741211e-02) (14, -6.76908111199736595154e-03) (15, -4.77400682866573333740e-02) (16, 7.47040882706642150879e-02) (17, 4.00524679571390151978e-03) (18, 6.52321577072143554688e-01) (19, 4.81743663549423217773e-01) (20, -5.41353523731231689453e-01) (21, -1.20731897652149200439e-01) (22, 4.14849430322647094727e-01) (23, 5.23002147674560546875e-01) (24, 7.42766959592700004578e-03) (25, -5.50611972808837890625e-01) (26, -2.73804664611816406250e-01) (27, 5.57294726371765136719e-01) (28, -1.54062688350677490234e-01) (29, 1.52878060936927795410e-01) (0, 1.26659646630287170410e-01) (1, 1.93103149533271789551e-01) (2, -2.53040909767150878906e-01) (3, -1.09038099646568298340e-01) (4, 7.69010245800018310547e-01) (5, 6.25096261501312255859e-01) (6, -7.20770955085754394531e-01) (7, 1.37838587164878845215e-01) (8, 2.47775390744209289551e-01) (9, 4.07636135816574096680e-01) (10, -6.04638218879699707031e-01) (11, -4.47145432233810424805e-01) (12, -5.96539139747619628906e-01) (13, -1.08320079743862152100e-01) (14, 1.77127599716186523438e-01) (15, -9.34107124805450439453e-01) (16, 6.25064551830291748047e-01) (17, 5.04546880722045898438e-01) (18, 2.26999282836914062500e-01) (19, 4.85740065574645996094e-01) (20, 2.88608521223068237305e-01) (21, -5.98874509334564208984e-01) (22, -7.33766078948974609375e-01) (23, 2.69154787063598632812e-01) (24, 6.42018914222717285156e-01) (25, -5.84852457046508789062e-01) (26, -1.57407626509666442871e-01) (27, 6.54278993606567382812e-01) (28, -5.38830280303955078125e-01) (29, -5.51909089088439941406e-01) (0, 7.79712736606597900391e-01) (1, 7.52393662929534912109e-01) (2, -5.17354488372802734375e-01) (3, 4.43679928779602050781e-01) (4, -1.19760714471340179443e-01) (5, 4.39058721065521240234e-01) (6, 5.01906096935272216797e-01) (7, 6.37695789337158203125e-01) (8, -1.10920107364654541016e+00) (9, -4.51499819755554199219e-01) (10, 1.00356674194335937500e+00) (11, -5.92044949531555175781e-01) (12, -1.59023657441139221191e-01) (13, -4.85642030835151672363e-02) (14, 4.04895514249801635742e-01) (15, 3.02121430635452270508e-01) (16, 2.85658955574035644531e-01) (17, -5.18055796623229980469e-01) (18, 2.11337268352508544922e-01) (19, -4.47189301252365112305e-01) (20, 4.69058126211166381836e-01) (21, -6.52100563049316406250e-01) (22, 5.32951531931757926941e-03) (23, -2.27053344249725341797e-01) (24, 1.55775314196944236755e-02) (25, -1.48359358310699462891e-01) (26, -3.64686757326126098633e-01) (27, -4.96437907218933105469e-01) (28, 6.74746453762054443359e-01) (29, 2.05702364444732666016e-01) (0, 4.27088856697082519531e-01) (1, 2.50648617744445800781e-01) (2, -2.20796674489974975586e-01) (3, -3.70232224464416503906e-01) (4, -6.60185664892196655273e-02) (5, -4.31277185678482055664e-01) (6, -3.13419640064239501953e-01) (7, 3.69424414634704589844e+00) (8, -1.38764783740043640137e-01) (9, -4.71505731344223022461e-01) (10, -3.59285742044448852539e-01) (11, 1.60539999604225158691e-01) (12, -4.54010069370269775391e-01) (13, 1.69092506170272827148e-01) (14, 5.41004836559295654297e-01) (15, 5.27477562427520751953e-01) (16, 1.92101657390594482422e-01) (17, 5.85659258067607879639e-02) (18, -5.51125109195709228516e-01) (19, -6.19541168212890625000e-01) (20, -6.26669585704803466797e-01) (21, -4.11075413227081298828e-01) (22, 1.56266260892152786255e-02) (23, 5.23521065711975097656e-01) (24, 8.70184972882270812988e-02) (25, -6.58791363239288330078e-01) (26, -4.08808499574661254883e-01) (27, 5.70681035518646240234e-01) (28, 7.30433464050292968750e-01) (29, 6.75432309508323669434e-02) (0, -2.23740115761756896973e-01) (1, -5.19538283348083496094e-01) (2, -6.28797054290771484375e-01) (3, 6.13563023507595062256e-02) (4, -4.03297275304794311523e-01) (5, -1.34642526507377624512e-01) (6, -1.63037747144699096680e-01) (7, 2.07941079139709472656e+00) (8, 3.07571262121200561523e-01) (9, -3.17124903202056884766e-01) (10, 4.33147639036178588867e-01) (11, -1.73480406403541564941e-01) (12, 2.13106215000152587891e-01) (13, 4.79453206062316894531e-01) (14, 3.72881144285202026367e-01) (15, 3.98851364850997924805e-01) (16, -3.70892077684402465820e-01) (17, 4.18615341186523437500e-01) (18, -2.75387436151504516602e-01) (19, -5.95786392688751220703e-01) (20, 2.07398310303688049316e-01) (21, 1.17284515872597694397e-02) (22, 5.58521412312984466553e-02) (23, 7.49601006507873535156e-01) (24, 1.69206440448760986328e-01) (25, 2.99608111381530761719e-02) (26, 7.07376658916473388672e-01) (27, 2.79960244894027709961e-01) (28, -7.40342974662780761719e-01) (29, -8.28835725784301757812e-01) (0, 7.90258347988128662109e-01) (1, -5.66796362400054931641e-01) (2, 6.36346995830535888672e-01) (3, 7.51576244831085205078e-01) (4, -1.01551428437232971191e-01) (5, -2.01226189732551574707e-01) (6, -7.72854164242744445801e-02) (7, -4.26724940538406372070e-01) (8, 4.91494864225387573242e-01) (9, 5.81529401242733001709e-02) (10, 9.02577996253967285156e-01) (11, -6.65638685226440429688e-01) (12, 2.73618698120117187500e-01) (13, -7.08762824535369873047e-01) (14, -4.61638897657394409180e-01) (15, -6.18902564048767089844e-01) (16, -7.61062204837799072266e-01) (17, 2.10983142256736755371e-01) (18, 6.88687384128570556641e-01) (19, -7.21034407615661621094e-01) (20, -3.29709891229867935181e-03) (21, -8.04188430309295654297e-01) (22, -7.63054251670837402344e-01) (23, 6.90057039260864257812e-01) (24, -7.08525300025939941406e-01) (25, 1.22700929641723632812e-02) (26, -5.35480558872222900391e-01) (27, -8.63898843526840209961e-02) (28, -3.60172748565673828125e-01) (29, 3.46905350685119628906e-01) (0, 4.47534054517745971680e-01) (1, -5.66939353942871093750e-01) (2, -9.75486487150192260742e-02) (3, 4.33123022317886352539e-01) (4, -2.90123641490936279297e-01) (5, 7.55526006221771240234e-01) (6, 7.20179319381713867188e-01) (7, 5.68188726902008056641e-01) (8, 6.18079245090484619141e-01) (9, 1.45891979336738586426e-01) (10, 4.34700071811676025391e-01) (11, 8.47736671566963195801e-02) (12, 2.63171941041946411133e-01) (13, 6.71406447887420654297e-01) (14, -5.55705189704895019531e-01) (15, 3.64584118127822875977e-01) (16, -5.47504246234893798828e-01) (17, -4.92991775274276733398e-01) (18, 1.63037236779928207397e-02) (19, 2.77058333158493041992e-01) (20, -2.38280236721038818359e-01) (21, 5.17686903476715087891e-01) (22, 3.17350357770919799805e-01) (23, 5.17692565917968750000e-01) (24, 3.47620397806167602539e-01) (25, -4.66491937637329101562e-01) (26, -4.49456542730331420898e-01) (27, -4.43054974079132080078e-01) (28, 2.32821017503738403320e-01) (29, 2.45075836777687072754e-01) (0, 6.92406237125396728516e-01) (1, -7.46540367603302001953e-01) (2, 4.20612305402755737305e-01) (3, -4.34405505657196044922e-01) (4, 4.89201694726943969727e-01) (5, 3.19885224103927612305e-01) (6, 4.84829753637313842773e-01) (7, 2.41580224037170410156e+00) (8, -4.60564553737640380859e-01) (9, 3.76542270183563232422e-01) (10, -1.50716245174407958984e-01) (11, 7.32719600200653076172e-01) (12, -1.30148559808731079102e-01) (13, 6.08432352542877197266e-01) (14, -6.03745996952056884766e-01) (15, -7.18591928482055664062e-01) (16, -4.56222325563430786133e-01) (17, -4.04596626758575439453e-01) (18, -7.45136380195617675781e-01) (19, 3.76419752836227416992e-01) (20, 1.42788007855415344238e-01) (21, 6.11454427242279052734e-01) (22, -1.39632537961006164551e-01) (23, -4.93714869022369384766e-01) (24, -6.97684705257415771484e-01) (25, -2.32950448989868164062e-01) (26, -5.85645079612731933594e-01) (27, -5.84403932094573974609e-01) (28, 6.45834684371948242188e-01) (29, 1.24771974980831146240e-01) (0, 1.21461816132068634033e-01) (1, 3.36767733097076416016e-01) (2, -2.27067038416862487793e-01) (3, 4.55933123826980590820e-01) (4, 5.51028311252593994141e-01) (5, 7.52174139022827148438e-01) (6, 7.48139142990112304688e-01) (7, 7.84586489200592041016e-01) (8, -4.09977734088897705078e-01) (9, 3.13474714756011962891e-01) (10, -2.08994179964065551758e-01) (11, 6.28048539161682128906e-01) (12, 2.75422722101211547852e-01) (13, -1.65434569120407104492e-01) (14, 3.36958430707454681396e-02) (15, 4.01043742895126342773e-01) (16, 6.29477679729461669922e-01) (17, 5.18941581249237060547e-01) (18, -1.72475606203079223633e-01) (19, -4.68163996934890747070e-01) (20, 7.98382610082626342773e-02) (21, -5.08486747741699218750e-01) (22, 4.97878156602382659912e-02) (23, -6.66638851165771484375e-01) (24, -1.25737458467483520508e-01) (25, 4.00438785552978515625e-01) (26, 5.80149352550506591797e-01) (27, -1.87398537993431091309e-01) (28, -3.93937110900878906250e-01) (29, 1.51552081108093261719e-01) (0, 6.32291793823242187500e-01) (1, -1.89320549368858337402e-01) (2, -1.77866637706756591797e-01) (3, 6.21372997760772705078e-01) (4, -7.41249918937683105469e-01) (5, 6.47646784782409667969e-01) (6, 1.40755385160446166992e-01) (7, -3.04464101791381835938e-01) (8, 2.02970936894416809082e-01) (9, -8.02551031112670898438e-01) (10, 2.97354996204376220703e-01) (11, -1.07563277706503868103e-02) (12, 6.13966703414916992188e-01) (13, 1.74466997385025024414e-01) (14, 3.14446866512298583984e-01) (15, 7.36529588699340820312e-01) (16, -1.90320878755301237106e-03) (17, -6.23759329319000244141e-01) (18, -3.24495524168014526367e-01) (19, -1.09339959919452667236e-01) (20, -5.75652897357940673828e-01) (21, -7.11560308933258056641e-01) (22, -1.44054234027862548828e-01) (23, -5.20983278751373291016e-01) (24, -5.63388839364051818848e-02) (25, -1.13891005516052246094e-01) (26, -7.48257696628570556641e-01) (27, -2.11839098483324050903e-02) (28, 4.92946468293666839600e-02) (29, -7.10165023803710937500e-01) (0, 1.42184883356094360352e-01) (1, -7.47008144855499267578e-01) (2, 4.41850334405899047852e-01) (3, 6.33733332157135009766e-01) (4, 1.44517242908477783203e-01) (5, 5.57058751583099365234e-01) (6, -7.51985788345336914062e-01) (7, 2.90576517581939697266e-01) (8, 2.68625706434249877930e-01) (9, 7.14403271675109863281e-01) (10, -3.57552587985992431641e-01) (11, 5.35394370555877685547e-01) (12, -8.79262536764144897461e-02) (13, -5.54547786712646484375e-01) (14, -1.88948944211006164551e-01) (15, 2.32636526226997375488e-01) (16, 1.26901865005493164062e-01) (17, -6.47430062294006347656e-01) (18, -4.01366129517555236816e-02) (19, -4.94923681020736694336e-01) (20, -5.44289708137512207031e-01) (21, 2.03744202852249145508e-01) (22, -1.66020244359970092773e-01) (23, 4.31610107421875000000e-01) (24, -6.88606142997741699219e-01) (25, 4.95609402656555175781e-01) (26, -1.40611544251441955566e-01) (27, -7.20952212810516357422e-01) (28, -7.60772645473480224609e-01) (29, -7.60456845164299011230e-02) (0, -2.88355261087417602539e-01) (1, -5.68946540355682373047e-01) (2, 5.42692482471466064453e-01) (3, -6.64413452148437500000e-01) (4, -6.65707290172576904297e-02) (5, 1.57081231474876403809e-01) (6, 5.33692955970764160156e-01) (7, 6.25635758042335510254e-02) (8, -1.80792540311813354492e-01) (9, -8.00961196422576904297e-01) (10, -4.48885917663574218750e-01) (11, -6.64625227451324462891e-01) (12, 2.70625025033950805664e-01) (13, -3.30553995445370674133e-03) (14, 4.35839980840682983398e-01) (15, 4.56267416477203369141e-01) (16, 6.82613790035247802734e-01) (17, -2.48244851827621459961e-01) (18, 4.86607849597930908203e-01) (19, -7.25863754749298095703e-01) (20, -1.10669627785682678223e-01) (21, 3.70114684104919433594e-01) (22, -6.95871174335479736328e-01) (23, -1.94779038429260253906e-02) (24, -2.52912640571594238281e-01) (25, -3.90533745288848876953e-01) (26, 7.15815544128417968750e-01) (27, -7.94083595275878906250e-01) (28, 6.53258919715881347656e-01) (29, -8.53741526603698730469e-01) (0, -1.28157183527946472168e-01) (1, -2.42803499102592468262e-01) (2, -2.47550725936889648438e-01) (3, 4.42405670881271362305e-01) (4, 3.28009694814682006836e-01) (5, 3.96222323179244995117e-01) (6, -5.02386748790740966797e-01) (7, 2.82909297943115234375e+00) (8, 5.06571412086486816406e-01) (9, -3.98576036095619201660e-02) (10, -8.40615928173065185547e-02) (11, 8.94567966461181640625e-02) (12, 7.18182146549224853516e-01) (13, -4.63972955942153930664e-01) (14, 4.86099660396575927734e-01) (15, -1.70109614729881286621e-01) (16, -3.35386037826538085938e-01) (17, -6.63568854331970214844e-01) (18, -5.18860697746276855469e-01) (19, 6.78104341030120849609e-01) (20, -8.33581209182739257812e-01) (21, -5.19127726554870605469e-01) (22, -7.35504209995269775391e-01) (23, -2.53565251827239990234e-01) (24, 2.07582280039787292480e-01) (25, 5.49300670623779296875e-01) (26, -1.13274395465850830078e-01) (27, 2.19200961291790008545e-02) (28, -1.16883866488933563232e-01) (29, 7.81271830201148986816e-02) (0, 5.91795563697814941406e-01) (1, -3.05453926324844360352e-01) (2, -6.53675854206085205078e-01) (3, 3.70122522115707397461e-01) (4, 3.87292236089706420898e-01) (5, 4.09265071153640747070e-01) (6, 5.19740462303161621094e-01) (7, -2.08522629737854003906e+00) (8, -3.49572032690048217773e-01) (9, -2.63675183057785034180e-01) (10, 2.53778636455535888672e-01) (11, 3.49712418392300605774e-03) (12, -8.16006779670715332031e-01) (13, 6.58635616302490234375e-01) (14, 6.23923301696777343750e-01) (15, -4.89894509315490722656e-01) (16, -6.24328553676605224609e-01) (17, 2.42816105484962463379e-01) (18, 4.78570275008678436279e-02) (19, -3.41894447803497314453e-01) (20, 5.78616559505462646484e-01) (21, 6.10908329486846923828e-01) (22, -2.85486608743667602539e-01) (23, 3.32700371742248535156e-01) (24, -7.10714042186737060547e-01) (25, -7.23297119140625000000e-01) (26, 1.37707009911537170410e-01) (27, -8.11133146286010742188e-01) (28, -4.81023132801055908203e-01) (29, 7.34752655029296875000e-01) (0, -3.64136338233947753906e-01) (1, -6.38851463794708251953e-01) (2, -7.07624256610870361328e-01) (3, 2.33744040131568908691e-01) (4, 5.84106802940368652344e-01) (5, -3.88376832008361816406e-01) (6, -5.33036708831787109375e-01) (7, 2.42213487625122070312e+00) (8, 7.64623224735260009766e-01) (9, -1.71867370605468750000e-01) (10, -5.09799718856811523438e-01) (11, -7.14269876480102539062e-01) (12, 7.51958310604095458984e-01) (13, -4.29158538579940795898e-01) (14, -8.39142978191375732422e-01) (15, 1.63465082645416259766e-01) (16, 2.36379742622375488281e-01) (17, -6.64156377315521240234e-01) (18, 6.80118858814239501953e-01) (19, -5.39675533771514892578e-01) (20, 8.80984514951705932617e-02) (21, -7.81709909439086914062e-01) (22, 6.47358477115631103516e-01) (23, -8.87264013290405273438e-02) (24, 1.22176826000213623047e-01) (25, -1.01824581623077392578e-01) (26, -2.03632384538650512695e-01) (27, 4.37567561864852905273e-01) (28, 7.62504711747169494629e-02) (29, 3.37515631690621376038e-03) (0, -7.00412750244140625000e-01) (1, -4.11609858274459838867e-01) (2, -3.09820681810379028320e-01) (3, -1.40342354774475097656e-01) (4, 3.32306295633316040039e-01) (5, 4.51970964670181274414e-01) (6, 2.87171512842178344727e-01) (7, 7.36120522022247314453e-01) (8, 7.89938569068908691406e-01) (9, -5.81566929817199707031e-01) (10, 6.89755231142044067383e-02) (11, 6.20169162750244140625e-01) (12, 5.41135013103485107422e-01) (13, 1.67065933346748352051e-02) (14, -8.03031623363494873047e-01) (15, -2.65517055988311767578e-01) (16, -3.73779952526092529297e-01) (17, 1.86238542199134826660e-01) (18, -5.37235550582408905029e-02) (19, -6.83342665433883666992e-02) (20, 6.35319173336029052734e-01) (21, 6.35354578495025634766e-01) (22, -7.13386774063110351562e-01) (23, -7.36467182636260986328e-01) (24, 1.66457042098045349121e-01) (25, -3.69986265897750854492e-01) (26, -4.74606424570083618164e-01) (27, -8.07159721851348876953e-01) (28, 4.36167120933532714844e-01) (29, -5.27512788772583007812e-01) (0, -2.36124485731124877930e-01) (1, 5.68305671215057373047e-01) (2, -2.74989426136016845703e-01) (3, 5.29392600059509277344e-01) (4, -3.18623036146163940430e-01) (5, 1.68859347701072692871e-01) (6, 6.26733526587486267090e-02) (7, 1.83593082427978515625e+00) (8, 4.36970949172973632812e-01) (9, -4.75300729274749755859e-01) (10, 2.87918418645858764648e-01) (11, 6.00354731082916259766e-01) (12, 2.53605514764785766602e-01) (13, 4.27098840475082397461e-01) (14, 1.59629225730895996094e-01) (15, 9.04042497277259826660e-02) (16, 6.42322525382041931152e-02) (17, -4.47554171085357666016e-01) (18, 4.26410846412181854248e-02) (19, -4.06074970960617065430e-01) (20, -1.58118665218353271484e-01) (21, 3.26239198446273803711e-01) (22, -5.81256449222564697266e-01) (23, -2.12319195270538330078e-01) (24, -1.05484791100025177002e-01) (25, -5.27766287326812744141e-01) (26, 1.48548096418380737305e-01) (27, -4.10547517240047454834e-02) (28, 1.31753295660018920898e-01) (29, 8.41202959418296813965e-03) (0, 3.53252828121185302734e-01) (1, 7.84290386945940554142e-05) (2, -1.45065277814865112305e-01) (3, -7.60954260826110839844e-01) (4, 4.02299493551254272461e-01) (5, 9.89134982228279113770e-02) (6, 4.36567872762680053711e-01) (7, -6.06694102287292480469e-01) (8, 5.68571805953979492188e-01) (9, -2.22305923700332641602e-01) (10, 2.44557797908782958984e-01) (11, -3.71239244937896728516e-01) (12, -6.40488386154174804688e-01) (13, -4.71592783927917480469e-01) (14, -1.82754084467887878418e-01) (15, 4.68979597091674804688e-01) (16, -2.03184053301811218262e-01) (17, -3.65620076656341552734e-01) (18, -3.32735806703567504883e-01) (19, 2.43061646819114685059e-01) (20, -6.66177213191986083984e-01) (21, 3.07300925254821777344e-01) (22, -3.98081660270690917969e-01) (23, 7.31292486190795898438e-01) (24, 5.08384943008422851562e-01) (25, 1.50008797645568847656e-01) (26, -1.66513457894325256348e-01) (27, 4.22067344188690185547e-01) (28, 3.20389151573181152344e-01) (29, -8.34381103515625000000e-01) (0, 5.98741590976715087891e-01) (1, 5.27971684932708740234e-01) (2, -6.16911113262176513672e-01) (3, -5.57958424091339111328e-01) (4, 2.87837013602256774902e-02) (5, -3.19764390587806701660e-02) (6, 4.85811054706573486328e-01) (7, -3.67122381925582885742e-01) (8, 1.22695520520210266113e-01) (9, -8.63382995128631591797e-01) (10, 5.79472780227661132812e-02) (11, 5.05355179309844970703e-01) (12, 7.57246688008308410645e-02) (13, -6.14065110683441162109e-01) (14, -5.71922481060028076172e-01) (15, 3.71490299701690673828e-01) (16, 3.23248714208602905273e-01) (17, 8.36929604411125183105e-02) (18, -4.67450469732284545898e-01) (19, -4.24214959144592285156e-01) (20, -4.75892841815948486328e-01) (21, -6.52901083230972290039e-02) (22, -4.71858978271484375000e-01) (23, 3.33759665489196777344e-01) (24, -1.27254277467727661133e-01) (25, 7.28632211685180664062e-01) (26, -9.75151062011718750000e-02) (27, 5.12178480625152587891e-01) (28, 7.71112263202667236328e-01) (29, -2.25393343716859817505e-02) (0, -2.03719794750213623047e-01) (1, -5.89838325977325439453e-01) (2, 3.88656198978424072266e-01) (3, -1.08402833342552185059e-01) (4, -3.15958619117736816406e-01) (5, -7.16035664081573486328e-01) (6, 1.84305384755134582520e-01) (7, 2.51004695892333984375e-01) (8, 5.74316382408142089844e-01) (9, 5.05577564239501953125e-01) (10, -3.01904320716857910156e-01) (11, 1.28222092986106872559e-01) (12, 2.89159249514341354370e-02) (13, -1.50180086493492126465e-01) (14, -2.17571239918470382690e-02) (15, 6.00573658943176269531e-01) (16, -1.61515906453132629395e-01) (17, -8.35933029651641845703e-01) (18, -2.49346941709518432617e-01) (19, 4.26594704389572143555e-01) (20, -1.17528572678565979004e-01) (21, 1.59614890813827514648e-01) (22, 6.90695285797119140625e-01) (23, 4.39854383468627929688e-01) (24, -1.18842169642448425293e-01) (25, 3.38546514511108398438e-01) (26, 2.89093464612960815430e-01) (27, 4.56822037696838378906e-01) (28, 6.51312530040740966797e-01) (29, -5.06837010383605957031e-01) (0, 2.90228813886642456055e-01) (1, -4.73211146891117095947e-02) (2, 6.57108306884765625000e-01) (3, 3.76424670219421386719e-01) (4, -6.24129474163055419922e-01) (5, 6.06686770915985107422e-01) (6, 6.07645869255065917969e-01) (7, 1.50827193260192871094e+00) (8, 3.93067985773086547852e-01) (9, -7.81147956848144531250e-01) (10, -2.82981544733047485352e-01) (11, 4.89429295063018798828e-01) (12, 5.94633638858795166016e-01) (13, 1.05678893625736236572e-01) (14, 6.37139499187469482422e-01) (15, 2.05044522881507873535e-01) (16, 1.60742640495300292969e-01) (17, -5.88677227497100830078e-01) (18, 5.65032958984375000000e-01) (19, 6.23315274715423583984e-01) (20, -7.24126040935516357422e-01) (21, -5.26320755481719970703e-01) (22, -5.35894989967346191406e-01) (23, -5.97891330718994140625e-01) (24, -5.39295971393585205078e-01) (25, -1.90019905567169189453e-01) (26, 5.38395583629608154297e-01) (27, -5.36047995090484619141e-01) (28, 1.78364247083663940430e-01) (29, 7.36577570438385009766e-01) (0, 3.78438740968704223633e-01) (1, -1.64250031113624572754e-01) (2, -9.33740437030792236328e-02) (3, 5.06741285324096679688e-01) (4, -2.96254992485046386719e-01) (5, 6.84851884841918945312e-01) (6, -4.14035946130752563477e-01) (7, 7.09788858890533447266e-01) (8, 2.92815744876861572266e-01) (9, -5.38939893245697021484e-01) (10, -3.23307141661643981934e-02) (11, -4.97295796871185302734e-01) (12, 9.63733419775962829590e-02) (13, 3.31568866968154907227e-01) (14, 1.91939935088157653809e-01) (15, -4.98122364282608032227e-01) (16, -3.23637068271636962891e-01) (17, -1.46196857094764709473e-01) (18, -3.54868143796920776367e-01) (19, -5.92603564262390136719e-01) (20, -5.38363099098205566406e-01) (21, -6.34443283081054687500e-01) (22, -6.00930210202932357788e-03) (23, 4.79018568992614746094e-01) (24, -1.43391147255897521973e-01) (25, 5.86141347885131835938e-01) (26, -5.43833553791046142578e-01) (27, -4.31903600692749023438e-01) (28, -6.82275593280792236328e-01) (29, -1.00958235561847686768e-01) (0, 5.15378713607788085938e-02) (1, -4.40151572227478027344e-01) (2, -5.69448232650756835938e-01) (3, -3.21531027555465698242e-01) (4, 2.42630884051322937012e-01) (5, 4.01451468467712402344e-01) (6, 4.90390330553054809570e-01) (7, 1.92636501789093017578e+00) (8, -1.53908133506774902344e-01) (9, 4.13694322109222412109e-01) (10, -5.14794766902923583984e-01) (11, 3.71024489402770996094e-01) (12, 6.48547708988189697266e-01) (13, 9.20360088348388671875e-02) (14, -5.34399211406707763672e-01) (15, -4.11657243967056274414e-01) (16, -2.21139658242464065552e-02) (17, -1.02579975128173828125e+00) (18, -1.68288215994834899902e-01) (19, 1.00659914314746856689e-01) (20, 2.45058506727218627930e-01) (21, -5.34703493118286132812e-01) (22, 4.68632169067859649658e-02) (23, -1.23053967952728271484e-01) (24, -3.65049481391906738281e-01) (25, -1.20358228683471679688e-01) (26, -3.87394502758979797363e-02) (27, 6.83057978749275207520e-02) (28, -6.77205204963684082031e-01) (29, 2.12430343031883239746e-01) (0, 2.95058488845825195312e-01) (1, -7.02521264553070068359e-01) (2, -5.56124150753021240234e-01) (3, 6.61249905824661254883e-02) (4, 4.53433440998196601868e-03) (5, 1.72808513045310974121e-01) (6, 5.11547736823558807373e-02) (7, -5.06353855133056640625e-01) (8, -2.22215637564659118652e-01) (9, -3.58594059944152832031e-01) (10, -4.64016050100326538086e-01) (11, 8.51618275046348571777e-02) (12, -1.47121399641036987305e-01) (13, 4.33204472064971923828e-02) (14, -4.52516436576843261719e-01) (15, -2.92449176311492919922e-01) (16, -4.26510393619537353516e-01) (17, 5.95873892307281494141e-01) (18, -4.49542343616485595703e-01) (19, -6.35920464992523193359e-01) (20, -2.13598489761352539062e-01) (21, -3.28342646360397338867e-01) (22, 5.25796353816986083984e-01) (23, 7.41522789001464843750e-01) (24, 6.55335545539855957031e-01) (25, -1.16831481456756591797e-01) (26, 2.50941544771194458008e-01) (27, 5.64010262489318847656e-01) (28, -2.97356337308883666992e-01) (29, -5.98960995674133300781e-01) (0, -7.42916345596313476562e-01) (1, -6.08023881912231445312e-01) (2, 5.69642066955566406250e-01) (3, 2.45656743645668029785e-01) (4, -7.03062415122985839844e-01) (5, -2.67011314630508422852e-01) (6, 4.45456922054290771484e-01) (7, 2.01670622825622558594e+00) (8, 2.10577353835105895996e-01) (9, 5.32335102558135986328e-01) (10, -3.25722277164459228516e-01) (11, -1.81455135345458984375e-01) (12, 5.68225562572479248047e-01) (13, -3.84706556797027587891e-01) (14, -7.72498965263366699219e-01) (15, -6.82112932205200195312e-01) (16, 5.17570853233337402344e-01) (17, 7.45957642793655395508e-02) (18, -5.04817187786102294922e-01) (19, 2.64890998601913452148e-01) (20, -7.13070690631866455078e-01) (21, -9.64862778782844543457e-02) (22, -8.34139958024024963379e-02) (23, 4.89766120910644531250e-01) (24, 6.05051934719085693359e-01) (25, -4.83351051807403564453e-01) (26, 5.33120691776275634766e-01) (27, -7.05526888370513916016e-01) (28, -4.72823619842529296875e-01) (29, -5.45907378196716308594e-01) (0, 1.09271503984928131104e-01) (1, -7.88296997547149658203e-01) (2, 7.04287290573120117188e-01) (3, 1.60377010703086853027e-01) (4, -1.01177088916301727295e-01) (5, 2.78447091579437255859e-01) (6, 6.44954800605773925781e-01) (7, -1.43355116248130798340e-01) (8, -2.50888783484697341919e-02) (9, -3.28505247831344604492e-01) (10, 1.00089168548583984375e+00) (11, -5.03745198249816894531e-01) (12, -6.55670106410980224609e-01) (13, -1.94179356098175048828e-01) (14, 5.74951544404029846191e-02) (15, 3.08468103408813476562e-01) (16, 1.86591029167175292969e-01) (17, 2.39114269614219665527e-01) (18, 6.44586205482482910156e-01) (19, -4.90423768758773803711e-01) (20, -2.12018549442291259766e-01) (21, 5.66564261913299560547e-01) (22, -7.21993982791900634766e-01) (23, 2.21265256404876708984e-01) (24, -5.13712346553802490234e-01) (25, 4.14763212203979492188e-01) (26, 3.96132677793502807617e-01) (27, 4.03512939810752868652e-02) (28, -7.04907178878784179688e-01) (29, -5.37431538105010986328e-01) (30, 4.75675076246261596680e-01) (31, -7.02391743659973144531e-01) (32, -5.21025419235229492188e-01) (33, -1.43753111362457275391e-01) (34, -4.08400535583496093750e-01) (35, 7.40283846855163574219e-01) (36, 3.00350695848464965820e-01) (37, 8.34258615970611572266e-01) (38, -2.28193104267120361328e-01) (39, 8.82906019687652587891e-01) (40, -4.36220318078994750977e-01) (41, -4.23252433538436889648e-01) (42, -7.51643717288970947266e-01) (43, 4.67824935913085937500e-01) (44, 4.01612758636474609375e-01) (45, 4.98534232378005981445e-01) (46, 6.41051530838012695312e-01) (47, -4.50638562440872192383e-01) (48, -5.52290916442871093750e-01) (49, 1.26075282692909240723e-01) (50, 1.04804039001464843750e+00) (51, -4.10762056708335876465e-02) (52, 5.02735853195190429688e-01) (53, 2.98984467983245849609e-01) (54, 1.00035917758941650391e+00) (55, -2.71837174892425537109e-01) (56, -7.30982422828674316406e-01) (57, 4.40805286169052124023e-01) (58, 5.56566059589385986328e-01) (59, -3.20422559976577758789e-01) (60, 8.03908109664916992188e-01) (61, 7.56489932537078857422e-01) (62, 9.81718599796295166016e-01) (63, -1.99852123856544494629e-01) (64, -4.98306006193161010742e-01) (65, 3.12533944845199584961e-01) (66, -4.03133064508438110352e-01) (67, -9.53342854976654052734e-01) (68, -1.38060096651315689087e-02) (69, 7.01794147491455078125e-01) (70, 4.78071510791778564453e-01) (71, -1.21006742119789123535e-02) (72, 8.07337701320648193359e-01) (73, -2.08584517240524291992e-01) (74, 3.08957785367965698242e-01) (75, -4.75689858198165893555e-01) (76, -1.66832767426967620850e-02) (77, 2.30559825897216796875e-01) (78, 2.91810721158981323242e-01) (79, -5.63500642776489257812e-01) (80, 3.45989644527435302734e-01) (81, 9.60003077983856201172e-01) (82, 3.02790582180023193359e-01) (83, 4.68221545219421386719e-01) (84, 9.24776911735534667969e-01) (85, 5.60365140438079833984e-01) (86, -8.91800001263618469238e-02) (87, -6.82674765586853027344e-01) (88, 5.15561580657958984375e-01) (30, -3.23163233697414398193e-02) (31, 2.42473289370536804199e-01) (32, -9.91235151886940002441e-02) (33, -2.87803977727890014648e-01) (34, 6.68504595756530761719e-01) (35, -1.74130916595458984375e+00) (36, -1.40061974525451660156e-01) (37, -1.07634592056274414062e+00) (38, -1.05451118946075439453e+00) (39, -8.45430672168731689453e-01) (40, -2.97947406768798828125e-01) (41, 4.51340638101100921631e-02) (42, 1.57776594161987304688e-01) (43, -1.42088079452514648438e+00) (44, 6.53803870081901550293e-02) (45, 4.47694092988967895508e-01) (46, -1.78356218338012695312e+00) (47, 1.43922841548919677734e+00) (48, -1.58076107501983642578e+00) (49, 3.55620324611663818359e-01) (50, -1.59713298082351684570e-01) (51, 2.88244307041168212891e-01) (52, -6.20658516883850097656e-01) (53, 6.19221508502960205078e-01) (54, -4.43415969610214233398e-01) (55, 2.93254047632217407227e-01) (56, -4.31316733360290527344e-01) (57, 9.66845825314521789551e-02) (58, -9.08750116825103759766e-01) (59, 5.09563796222209930420e-02) (60, 6.66501700878143310547e-01) (61, 3.88071000576019287109e-01) (62, -1.01521623134613037109e+00) (63, -4.26509410142898559570e-01) (64, 1.02975869178771972656e+00) (65, 2.08904886245727539062e+00) (66, 3.62085819244384765625e-01) (67, -7.87658452987670898438e-01) (68, -2.97611117362976074219e-01) (69, 1.39067554473876953125e+00) (70, -2.75790989398956298828e-01) (71, 2.43783984333276748657e-02) (72, -1.20872430503368377686e-01) (73, -3.66805046796798706055e-01) (74, 1.20269417762756347656e+00) (75, -8.92996132373809814453e-01) (76, 8.66569757461547851562e-01) (77, -6.02559268474578857422e-01) (78, 4.48610097169876098633e-01) (79, -4.42466050386428833008e-01) (80, -4.82840389013290405273e-01) (81, 4.04851317405700683594e-01) (82, 3.92092347145080566406e-01) (83, -2.70889550447463989258e-01) (84, 8.01644384860992431641e-01) (85, -6.57230556011199951172e-01) (86, 5.80321609973907470703e-01) (87, 3.60634252429008483887e-02) (88, -3.61789613962173461914e-01) (30, -2.42579355835914611816e-01) (31, 2.55761981010437011719e-01) (32, 5.85476577281951904297e-01) (33, -6.61075294017791748047e-01) (34, 4.71368253231048583984e-01) (35, -9.16573882102966308594e-01) (36, 3.81224900484085083008e-01) (37, -7.60652601718902587891e-01) (38, 4.30589050054550170898e-01) (39, 1.78500056266784667969e-01) (40, -5.10380089282989501953e-01) (41, 1.07642948627471923828e-01) (42, -7.79398918151855468750e-01) (43, 3.31520438194274902344e-02) (44, 3.57905417680740356445e-01) (45, -5.49650974571704864502e-02) (46, 2.45559900999069213867e-01) (47, -7.38443791866302490234e-01) (48, -1.73037186264991760254e-01) (49, -1.35126113891601562500e-01) (50, -2.84879952669143676758e-01) (51, 3.00054341554641723633e-01) (52, -3.54840964078903198242e-01) (53, -6.76645398139953613281e-01) (54, 5.20561993122100830078e-01) (55, 1.25757575035095214844e-01) (56, -6.15627110004425048828e-01) (57, -5.91576211154460906982e-02) (58, -5.83303093910217285156e-01) (59, -4.83670264482498168945e-01) (60, -6.53345048427581787109e-01) (61, -7.13062405586242675781e-01) (62, -3.32502186298370361328e-01) (63, -2.49289795756340026855e-02) (64, -5.67334294319152832031e-01) (65, -1.68451845645904541016e-01) (66, 4.78873461484909057617e-01) (67, -1.95792511105537414551e-01) (68, -2.83736765384674072266e-01) (69, -4.97549265623092651367e-01) (70, -4.57602560520172119141e-01) (71, 2.07907855510711669922e-01) (72, -4.18382346630096435547e-01) (73, -5.92564642429351806641e-01) (74, -6.73248469829559326172e-01) (75, 6.31437540054321289062e-01) (76, 6.29142284393310546875e-01) (77, -4.59953159093856811523e-01) (78, -4.32870119810104370117e-01) (79, 1.41656786203384399414e-01) (80, 5.47014832496643066406e-01) (81, 4.01057340204715728760e-02) (82, -6.72227740287780761719e-01) (83, -1.65899500250816345215e-01) (84, -2.61169672012329101562e-01) (85, 6.67539358139038085938e-01) (86, 1.29274606704711914062e-01) (87, 3.83296638727188110352e-01) (88, 4.36823129653930664062e-01) (30, 1.13465631008148193359e+00) (31, -5.05322575569152832031e-01) (32, 4.94593858718872070312e-01) (33, -1.58747589588165283203e+00) (34, -2.34251737594604492188e+00) (35, 2.19073724746704101562e+00) (36, -3.77373278141021728516e-01) (37, 3.06413960456848144531e+00) (38, 1.19341862201690673828e+00) (39, -1.69059500098228454590e-01) (40, -1.14064550399780273438e+00) (41, 3.33607256412506103516e-01) (42, -1.56284117698669433594e+00) (43, 7.16369211673736572266e-01) (44, -1.51409876346588134766e+00) (45, 3.98741036653518676758e-01) (46, 3.16373324394226074219e+00) (47, -1.37370443344116210938e+00) (48, 1.63764083385467529297e+00) (49, 2.08935350179672241211e-01) (50, 1.11521887779235839844e+00) (51, -3.73646795749664306641e-01) (52, 2.76148581504821777344e+00) (53, 3.67701888084411621094e-01) (54, 1.27928340435028076172e+00) (55, 2.66625493764877319336e-01) (56, -2.90244162082672119141e-01) (57, 7.28621661663055419922e-01) (58, 2.87104398012161254883e-01) (59, 9.80930924415588378906e-01) (60, 1.22313693165779113770e-01) (61, -2.42011356353759765625e+00) (62, 1.98312032222747802734e+00) (63, -6.61504268646240234375e-01) (64, 1.25328570604324340820e-01) (65, -2.66017150878906250000e+00) (66, -1.88881421089172363281e+00) (67, 8.56334269046783447266e-02) (68, -5.85521578788757324219e-01) (69, -1.72679603099822998047e+00) (70, -9.89067792892456054688e-01) (71, 1.81827902793884277344e-01) (72, -1.65330380201339721680e-01) (73, -2.21472959965467453003e-02) (74, -2.20283460617065429688e+00) (75, 1.95259225368499755859e+00) (76, -1.97358012199401855469e+00) (77, -1.03768146038055419922e+00) (78, -1.69844043254852294922e+00) (79, 6.72444581985473632812e-01) (80, -4.20597270131111145020e-02) (81, -2.29609429836273193359e-01) (82, -1.25560891628265380859e+00) (83, -7.83832430839538574219e-01) (84, -1.68974316120147705078e+00) (85, 5.41526041924953460693e-02) (86, -1.76543807983398437500e+00) (87, 4.61468786001205444336e-01) (88, 5.35826206207275390625e-01) (89, -2.43005371093750000000e+00) (90, -9.86361026763916015625e-01) (91, -7.52351526170969009399e-03) (92, -2.32125687599182128906e+00) (93, -3.58708715438842773438e+00) (89, -6.81367397308349609375e-01) (90, 3.25145840644836425781e+00) (91, 1.84870734810829162598e-01) (92, -7.76432609558105468750e+00) (93, -1.60676944255828857422e+00) 